svm_type nu_svr
kernel_type rbf
gamma 0.050000000000000003
nr_class 2
total_sv 609
rho -1.027304849063337
SV
4 1:0.42445604 2:0.38254113 3:0.3516227 4:0.46851146 5:0.59893928 6:0.68425716 7:0.63388063 8:0.063665101 9:0.10142071 10:0.26633829 11:0.51246397 12:0.36092283 13:0.4825567 14:0.24131119 15:0.33495229 16:0.59781962 17:0.42445603 18:0.21599068 19:0.26726459 20:0.20460862 21:0.25675175 22:0.34152626 23:0.2244622 24:0.2398325 25:0.2493589 26:0.25436784 27:0.23534677 28:0.073303824 29:0.12224518 30:0.16451302 31:0.21834202 32:0.088225302 33:0.20410638 34:0.32177438 35:0.37793298 36:0.44483029 37:0.23610911 
-4 1:0.82803565 2:0.80936111 3:0.3516227 4:0.46851146 5:0.59893928 6:0.68425716 7:0.63388063 8:0.22455907 9:0.40316032 10:0.59785712 11:0.72853591 12:0.63675137 13:0.7053444 14:0.74045462 15:0.83018073 16:0.8732116 17:0.82803566 18:0.44107388 19:0.47686366 20:0.20460862 21:0.25675175 22:0.72973844 23:0.2244622 24:0.2398325 25:0.2493589 26:0.25436784 27:0.23534677 28:0.20664769 29:0.33275137 30:0.37803093 31:0.40976685 32:0.24329542 33:0.48246077 34:0.74282384 35:0.80493827 36:0.84408694 37:0.54599942 
-4 1:0.89284099 2:0.90108059 3:0.3516227 4:0.46851146 5:0.59893928 6:0.68425716 7:0.63388063 8:0.32031837 9:0.49500576 10:0.64789896 11:0.74270272 12:0.68114343 13:0.83771558 14:0.89222621 15:0.90501391 16:0.89125083 17:0.89284099 18:0.56694686 19:0.59407746 20:0.20460862 21:0.25675175 22:0.81687841 23:0.2244622 24:0.2398325 25:0.2493589 26:0.25436784 27:0.23534677 28:0.26031831 29:0.38733921 30:0.41384845 31:0.43189839 32:0.2978945 33:0.59359672 34:0.85179283 35:0.87645699 36:0.8901777 37:0.65442597 
-4 1:0.82598521 2:0.82740303 3:0.3516227 4:0.46851146 5:0.59893928 6:0.68425716 7:0.63388063 8:0.28072653 9:0.44268744 10:0.59501225 11:0.70881507 12:0.6359484 13:0.78231296 14:0.80380995 15:0.82500553 16:0.84771944 17:0.82598521 18:0.38925543 19:0.42860995 20:0.20460862 21:0.25675175 22:0.59023653 23:0.2244622 24:0.2398325 25:0.2493589 26:0.25436784 27:0.23534677 28:0.16687954 29:0.25659172 30:0.29836759 31:0.33686155 32:0.19393384 33:0.39841937 34:0.58971188 35:0.64502034 36:0.69161047 37:0.4463879 
4 1:0.90413806 2:0.92102701 3:0.3516227 4:0.46851146 5:0.59893928 6:0.68425716 7:0.63388063 8:0.35612177 9:0.5157755 10:0.65323767 11:0.74362807 12:0.68887277 13:0.88754958 14:0.92687819 15:0.91295414 16:0.89243338 17:0.90413805 18:0.57385015 19:0.60050586 20:0.20460862 21:0.25675175 22:0.82653484 23:0.2244622 24:0.2398325 25:0.2493589 26:0.25436784 27:0.23534677 28:0.27301179 29:0.3905178 30:0.41531263 31:0.4328417 32:0.30881463 33:0.61936191 34:0.85787798 35:0.87923738 36:0.89207017 37:0.6756574 
-4 1:0.79750724 2:0.79796763 3:0.3516227 4:0.46851146 5:0.59893928 6:0.68425716 7:0.63388063 8:0.26595253 9:0.42398059 10:0.57764581 11:0.69069576 12:0.61730107 13:0.76119147 14:0.77097834 15:0.79766546 16:0.8238858 17:0.79750719 18:0.36345367 19:0.40458316 20:0.20460862 21:0.25675175 22:0.64764127 23:0.2244622 24:0.2398325 25:0.2493589 26:0.25436784 27:0.23534677 28:0.18721107 29:0.29025375 30:0.329572 31:0.36286237 32:0.21775255 33:0.44059135 34:0.65672685 35:0.70714721 36:0.74560621 37:0.49368774 
-4 1:0.78907832 2:0.78415698 3:0.3516227 4:0.46851146 5:0.59893928 6:0.68425716 7:0.63388063 8:0.24927656 9:0.40843269 10:0.56759255 11:0.69138551 12:0.61076467 13:0.73852006 14:0.74695149 15:0.78393063 16:0.82542581 17:0.78907832 18:0.34705483 19:0.38931245 20:0.20460862 21:0.25675175 22:0.54085277 23:0.2244622 24:0.2398325 25:0.2493589 26:0.25436784 27:0.23534677 28:0.14898269 29:0.22993775 30:0.2715564 31:0.31240167 32:0.17348334 33:0.36160192 34:0.53675165 35:0.59165454 36:0.64075545 37:0.40601428 
4 1:0.89345347 2:0.90751523 3:0.3516227 4:0.46851146 5:0.59893928 6:0.68425716 7:0.63388063 8:0.3431314 9:0.50470526 10:0.64527515 11:0.73944788 12:0.68159038 13:0.86941073 14:0.90838596 15:0.90102467 16:0.887103 17:0.89345346 18:0.55929022 19:0.58694755 20:0.20460862 21:0.25675175 22:0.81708004 23:0.2244622 24:0.2398325 25:0.2493589 26:0.25436784 27:0.23534677 28:0.26920148 29:0.38426108 30:0.41040407 31:0.42943541 32:0.30441492 33:0.61162826 34:0.84547172 35:0.86947589 36:0.88498982 37:0.6670525 
-4 1:0.84165962 2:0.82029565 3:0.3516227 4:0.46851146 5:0.59893928 6:0.68425716 7:0.63388063 8:0.20652151 9:0.41176732 10:0.61315111 11:0.73643432 12:0.64615083 13:0.68068124 14:0.75492788 15:0.85275923 16:0.88308209 17:0.84165961 18:0.17857082 19:0.23241895 20:0.20460862 21:0.25675175 22:0.56263318 23:0.2244622 24:0.2398325 25:0.2493589 26:0.25436784 27:0.23534677 28:0.14671792 29:0.23990731 30:0.2866325 31:0.33144386 32:0.17417602 33:0.3577844 34:0.55732237 35:0.62230121 36:0.68084106 37:0.40822473 
4 1:0.32011915 2:0.29384587 3:0.3516227 4:0.46851146 5:0.59893928 6:0.68425716 7:0.63388063 8:0.029357044 9:0.076652832 10:0.2103581 11:0.41744136 12:0.28958246 13:0.43428303 14:0.20017743 15:0.25201194 16:0.47655676 17:0.32011912 18:0.085435412 19:0.1456906 20:0.20460862 21:0.25675175 22:0.21753483 23:0.2244622 24:0.2398325 25:0.2493589 26:0.25436784 27:0.23534677 28:0.057771565 29:0.070946161 30:0.089442618 31:0.11763349 32:0.062658023 33:0.17193265 34:0.21941091 35:0.22809108 36:0.2350597 37:0.18529075 
-4 1:0.83188906 2:0.82463699 3:0.3516227 4:0.46851146 5:0.59893928 6:0.68425716 7:0.63388063 8:0.25414553 9:0.42991353 10:0.6016241 11:0.71939932 12:0.63968985 13:0.74619359 14:0.78365782 15:0.8352398 16:0.86137416 17:0.83188907 18:0.4129325 19:0.4506582 20:0.20460862 21:0.25675175 22:0.70676989 23:0.2244622 24:0.2398325 25:0.2493589 26:0.25436784 27:0.23534677 28:0.20648636 29:0.32193333 30:0.36176796 31:0.39224311 32:0.24045514 33:0.48178073 34:0.72099035 35:0.77230256 36:0.80748631 37:0.54002749 
-4 1:0.84553068 2:0.84696387 3:0.3516227 4:0.46851146 5:0.59893928 6:0.68425716 7:0.63388063 8:0.29371968 9:0.45026456 10:0.60950944 11:0.72146497 12:0.64895113 13:0.80086962 14:0.81750589 15:0.84722551 16:0.86410498 17:0.84553067 18:0.46152211 19:0.49590519 20:0.20460862 21:0.25675175 22:0.70335154 23:0.2244622 24:0.2398325 25:0.2493589 26:0.25436784 27:0.23534677 28:0.19974292 29:0.31913551 30:0.36246588 31:0.39533755 32:0.2345664 33:0.46740606 34:0.71532145 35:0.77363439 36:0.81388682 37:0.5280233 
-4 1:0.46860168 2:0.43449191 3:0.3516227 4:0.46851146 5:0.59893928 6:0.68425716 7:0.63388063 8:0.056119495 9:0.14995043 10:0.33309817 11:0.51604056 12:0.39249107 13:0.47131895 14:0.32003174 15:0.43249558 16:0.60082665 17:0.46860168 18:0.15855439 19:0.21377951 20:0.20460862 21:0.25675175 22:0.34502502 23:0.2244622 24:0.2398325 25:0.2493589 26:0.25436784 27:0.23534677 28:0.087218685 29:0.1300876 30:0.16326158 31:0.20366282 32:0.10064555 33:0.23315705 34:0.33719429 35:0.37511676 36:0.41389047 37:0.26083451 
-4 1:0.78875837 2:0.77663348 3:0.3516227 4:0.46851146 5:0.59893928 6:0.68425716 7:0.63388063 8:0.23796535 9:0.39073452 10:0.56424349 11:0.70033248 12:0.61042321 13:0.72349784 14:0.71808056 15:0.7789824 16:0.8369861 17:0.78875837 18:0.36685433 19:0.40774988 20:0.20460862 21:0.25675175 22:0.67814692 23:0.2244622 24:0.2398325 25:0.2493589 26:0.25436784 27:0.23534677 28:0.18987118 29:0.3022886 30:0.34854141 31:0.38740848 32:0.22301863 33:0.44701715 34:0.68157362 35:0.74578487 36:0.79737016 37:0.50509019 
-4 1:0.8268095 2:0.83016009 3:0.3516227 4:0.46851146 5:0.59893928 6:0.68425716 7:0.63388063 8:0.28798643 9:0.44572196 10:0.59605104 11:0.70745996 12:0.6365387 13:0.79229086 14:0.80889134 15:0.82654883 16:0.84594894 17:0.82680951 18:0.39593983 19:0.43483451 20:0.20460862 21:0.25675175 22:0.61309842 23:0.2244622 24:0.2398325 25:0.2493589 26:0.25436784 27:0.23534677 28:0.17945451 29:0.26956846 30:0.30879048 31:0.34441929 32:0.206869 33:0.42463409 34:0.61574953 35:0.6659236 36:0.70739639 37:0.47224415 
4 1:0.90296723 2:0.91990258 3:0.3516227 4:0.46851146 5:0.59893928 6:0.68425716 7:0.63388063 8:0.35569193 9:0.5151213 10:0.65241255 11:0.74280007 12:0.68805814 13:0.88697428 14:0.92586208 15:0.9117486 16:0.89138979 17:0.90296724 18:0.58488434 19:0.61078098 20:0.20460862 21:0.25675175 22:0.83545301 23:0.2244622 24:0.2398325 25:0.2493589 26:0.25436784 27:0.23534677 28:0.27996581 29:0.39536353 30:0.41829216 31:0.43457004 32:0.31542874 33:0.63412216 34:0.86773672 35:0.88528947 36:0.8957237 37:0.68909996 
-4 1:0.82625215 2:0.82906641 3:0.3516227 4:0.46851146 5:0.59893928 6:0.68425716 7:0.63388063 8:0.28806911 9:0.4438282 10:0.59461972 11:0.70823559 12:0.63613146 13:0.79242327 14:0.80599496 15:0.82441418 16:0.84693317 17:0.82625217 18:0.38647921 19:0.42602471 20:0.20460862 21:0.25675175 22:0.58219459 23:0.2244622 24:0.2398325 25:0.2493589 26:0.25436784 27:0.23534677 28:0.16517735 29:0.25216694 30:0.29339183 31:0.33213348 32:0.19154009 33:0.3950023 34:0.58098074 35:0.63516015 36:0.68181226 37:0.44174028 
4 1:0.90020421 2:0.91648471 3:0.3516227 4:0.46851146 5:0.59893928 6:0.68425716 7:0.63388063 8:0.35256502 9:0.51236428 10:0.65027528 11:0.74171418 12:0.68617773 13:0.8826511 14:0.92131357 15:0.90855456 16:0.88998942 17:0.9002042 18:0.57171396 19:0.59851663 20:0.20460862 21:0.25675175 22:0.81651735 23:0.2244622 24:0.2398325 25:0.2493589 26:0.25436784 27:0.23534677 28:0.26712872 29:0.38453978 30:0.41098323 31:0.42974629 32:0.30280656 33:0.60732645 34:0.84603173 35:0.87063271 36:0.8856398 37:0.66385558 
-3.414459344091537 1:0.94160754 2:0.97500852 3:0.3516227 4:0.46851146 5:0.59893928 6:0.68425716 7:0.63388063 8:0.43635576 9:0.55911513 10:0.67768177 11:0.75488144 12:0.71426344 13:1 14:1 15:0.94987431 16:0.9068818 17:0.94160754 18:0.77004933 19:0.78320793 20:0.20460862 21:0.25675175 22:0.99999699 23:0.2244622 24:0.2398325 25:0.2493589 26:0.25436784 27:0.23534677 28:0.4558581 29:0.46135006 30:0.45734606 31:0.4589478 32:0.47138335 33:0.99999884 34:0.99999732 35:0.96355331 36:0.94664409 37:0.99999837 
4 1:0.58072835 2:0.52183229 3:0.3516227 4:0.46851146 5:0.59893928 6:0.68425716 7:0.63388063 8:0.058016576 9:0.16414322 10:0.3993477 11:0.6206256 12:0.46832656 13:0.47417124 14:0.34467164 15:0.53246998 16:0.73480155 17:0.58072833 18:0.23337424 19:0.28345228 20:0.20460862 21:0.25675175 22:0.35857798 23:0.2244622 24:0.2398325 25:0.2493589 26:0.25436784 27:0.23534677 28:0.084983458 29:0.132618 30:0.17282934 31:0.22026495 32:0.099841557 33:0.2286789 34:0.34249303 35:0.39446658 36:0.44872207 37:0.25944172 
4 1:0.79376585 2:0.76258494 3:0.3516227 4:0.46851146 5:0.59893928 6:0.68425716 7:0.63388063 8:0.16566021 9:0.35450475 10:0.58861632 11:0.71113258 12:0.61356945 13:0.62394845 14:0.66057812 15:0.81567957 16:0.85060457 17:0.79376586 18:0.38456062 19:0.42423811 20:0.20460862 21:0.25675175 22:0.6230774 23:0.2244622 24:0.2398325 25:0.2493589 26:0.25436784 27:0.23534677 28:0.15892491 29:0.27508252 30:0.32410403 31:0.36525396 32:0.19200112 33:0.38288103 34:0.62693759 35:0.69656005 36:0.75079751 37:0.44333848 
-4 1:0.8165402 2:0.8068521 3:0.3516227 4:0.46851146 5:0.59893928 6:0.68425716 7:0.63388063 8:0.224211 9:0.42207505 10:0.59683395 11:0.70759595 12:0.62931581 13:0.70451313 14:0.77024605 15:0.82789813 16:0.84625122 17:0.81654018 18:0.39442604 19:0.43342486 20:0.20460862 21:0.25675175 22:0.60319021 23:0.2244622 24:0.2398325 25:0.2493589 26:0.25436784 27:0.23534677 28:0.16810198 29:0.26498103 30:0.30649446 31:0.34413891 32:0.196771 33:0.40127641 34:0.60658872 35:0.66137621 36:0.70687517 37:0.45229842 
4 1:0.90109578 2:0.91767203 3:0.3516227 4:0.46851146 5:0.59893928 6:0.68425716 7:0.63388063 8:0.3553755 9:0.51278432 10:0.65066188 11:0.74223579 12:0.68678758 13:0.88650396 14:0.92194867 15:0.90912677 16:0.89066518 17:0.90109581 18:0.5817701 19:0.60788097 20:0.20460862 21:0.25675175 22:0.83538632 23:0.2244622 24:0.2398325 25:0.2493589 26:0.25436784 27:0.23534677 28:0.2796792 29:0.39546841 30:0.41837149 31:0.43475751 32:0.31521915 33:0.63329055 34:0.86787171 35:0.88541405 36:0.89609706 37:0.68849523 
-4 1:0.83803322 2:0.84187761 3:0.3516227 4:0.46851146 5:0.59893928 6:0.68425716 7:0.63388063 8:0.2906016 9:0.45418751 10:0.60460071 11:0.71351149 12:0.64392179 13:0.79625609 14:0.82370817 15:0.8398186 16:0.85388059 17:0.83803325 18:0.41422991 19:0.45186636 20:0.20460862 21:0.25675175 22:0.6187723 23:0.2244622 24:0.2398325 25:0.2493589 26:0.25436784 27:0.23534677 28:0.1784992 29:0.27194081 30:0.31291881 31:0.34940501 32:0.20672328 33:0.42315079 34:0.62087981 35:0.67448153 36:0.71801995 37:0.47243422 
4 1:0.90441085 2:0.92106004 3:0.3516227 4:0.46851146 5:0.59893928 6:0.68425716 7:0.63388063 8:0.35573536 9:0.51515404 10:0.65317768 11:0.74414831 12:0.68898187 13:0.88717016 14:0.9262036 15:0.91302226 16:0.89313255 17:0.90441085 18:0.5922145 19:0.61760687 20:0.20460862 21:0.25675175 22:0.8429588 23:0.2244622 24:0.2398325 25:0.2493589 26:0.25436784 27:0.23534677 28:0.28288517 29:0.39977325 30:0.4220845 31:0.43765748 32:0.31874099 33:0.64037634 34:0.8767048 35:0.8929655 36:0.90221679 37:0.69587677 
4 1:0.58309054 2:0.52656351 3:0.27913766 4:0.38595639 5:0.5964028 6:0.84636548 7:0.69064141 8:0.084730584 9:0.13925858 10:0.37038396 11:0.7134051 12:0.50177197 13:0.58090341 14:0.36179506 15:0.49219692 16:0.72570553 17:0.58309052 18:0.2630795 19:0.23198935 20:0.2159038 21:0.20694808 22:0.47956929 23:0.88077583 24:1 25:1 26:1 27:0.9498159 28:0.23447839 29:0.4556638 30:0.58784088 31:0.69980278 32:0.29871819 33:0.25892627 34:0.44932904 35:0.54690824 36:0.64092442 37:0.31089723 
4 1:0.86058696 2:0.84405701 3:0.27913766 4:0.38595639 5:0.5964028 6:0.84636548 7:0.69064141 8:0.20933541 9:0.36662802 10:0.6233829 11:0.85530872 12:0.70053476 13:0.76184195 14:0.774776 15:0.87154594 16:0.88295306 17:0.86058695 18:0.47907161 19:0.43312273 20:0.2159038 21:0.20694808 22:0.8104827 23:0.88077583 24:1 25:1 26:1 27:0.9498159 28:0.52318116 29:0.84808008 30:0.91535526 31:0.93409251 32:0.61609433 33:0.57267196 34:0.84630114 35:0.87798046 36:0.89121304 37:0.63897095 
-4 1:0.88446404 2:0.88464287 3:0.27913766 4:0.38595639 5:0.5964028 6:0.84636548 7:0.69064141 8:0.25151548 9:0.41166917 10:0.63927562 11:0.8590719 12:0.71763699 13:0.82310046 14:0.85657556 15:0.89535343 16:0.88712741 17:0.88446402 18:0.53303684 19:0.48337554 20:0.2159038 21:0.20694808 22:0.84250731 23:0.88077583 24:1 25:1 26:1 27:0.9498159 28:0.56847346 29:0.88649765 30:0.93674557 31:0.9469832 32:0.66043804 33:0.6218916 34:0.88516793 35:0.89960819 36:0.90498851 37:0.68480903 
4 1:0.79057166 2:0.7781225 3:0.27913766 4:0.38595639 5:0.5964028 6:0.84636548 7:0.69064141 8:0.2005425 9:0.33492184 10:0.56476476 11:0.80458361 12:0.65037893 13:0.74908883 14:0.7171941 15:0.78362706 16:0.82674118 17:0.79057168 18:0.33301104 19:0.2971101 20:0.2159038 21:0.20694808 22:0.56939962 23:0.88077583 24:1 25:1 26:1 27:0.9498159 28:0.34656276 29:0.56066248 30:0.66331497 31:0.74037267 32:0.41117975 33:0.38070911 34:0.55552598 35:0.6231847 36:0.68424821 37:0.42712646 
4 1:0.89518363 2:0.90879031 3:0.27913766 4:0.38595639 5:0.5964028 6:0.84636548 7:0.69064141 8:0.29718031 9:0.43789442 10:0.64208689 11:0.85857333 12:0.72531089 13:0.88940411 14:0.90420836 15:0.89956852 16:0.88657851 17:0.8951836 18:0.5384864 19:0.4884502 20:0.2159038 21:0.20694808 22:0.84128861 23:0.88077583 24:1 25:1 26:1 27:0.9498159 28:0.58172317 29:0.8780068 30:0.92989368 31:0.94260671 32:0.66942189 33:0.63629545 34:0.87657451 35:0.89267688 36:0.90030877 37:0.69409822 
-4 1:0.59572733 2:0.54241387 3:0.27913766 4:0.38595639 5:0.5964028 6:0.84636548 7:0.69064141 8:0.07816809 9:0.14978129 10:0.39809306 11:0.71049851 12:0.51087132 13:0.57136465 14:0.38088629 15:0.53374236 16:0.72237694 17:0.59572735 18:0.2384631 19:0.20906639 20:0.2159038 21:0.20694808 22:0.41208753 23:0.88077583 24:1 25:1 26:1 27:0.9498159 28:0.24810029 29:0.39559116 30:0.48983476 31:0.58186736 32:0.29418937 33:0.27366177 34:0.38847854 35:0.44775844 36:0.51486735 37:0.30614444 
4 1:0.84320253 2:0.83663427 3:0.27913766 4:0.38595639 5:0.5964028 6:0.84636548 7:0.69064141 8:0.22862951 9:0.37509403 10:0.60604822 11:0.83651457 12:0.68809082 13:0.78985728 14:0.79014179 15:0.84551658 16:0.8621137 17:0.84320254 18:0.42604717 19:0.383746 20:0.2159038 21:0.20694808 22:0.73198324 23:0.88077583 24:1 25:1 26:1 27:0.9498159 28:0.46514167 29:0.74970773 30:0.83462478 31:0.8750338 32:0.54822798 33:0.50958418 34:0.74678043 35:0.7963731 36:0.82812454 37:0.56880535 
4 1:0.79073831 2:0.77533555 3:0.27913766 4:0.38595639 5:0.5964028 6:0.84636548 7:0.69064141 8:0.19515904 9:0.32985451 10:0.56399171 11:0.80766501 12:0.65048099 13:0.74126916 14:0.70802776 15:0.78254138 16:0.83016722 17:0.79073828 18:0.33080083 19:0.29505193 20:0.2159038 21:0.20694808 22:0.58302373 23:0.88077583 24:1 25:1 26:1 27:0.9498159 28:0.3558756 29:0.57372927 30:0.67771819 31:0.75501954 32:0.42172487 33:0.39084095 34:0.5687602 35:0.63775739 36:0.6999045 37:0.43803901 
4 1:0.89443316 2:0.90703397 3:0.27913766 4:0.38595639 5:0.5964028 6:0.84636548 7:0.69064141 8:0.29428464 9:0.43596621 10:0.64148053 11:0.85888241 12:0.72477521 13:0.88519354 14:0.90070212 15:0.89867071 16:0.88691833 17:0.89443317 18:0.54583361 19:0.49529198 20:0.2159038 21:0.20694808 22:0.85056682 23:0.88077583 24:1 25:1 26:1 27:0.9498159 28:0.59523517 29:0.88858261 30:0.93611936 31:0.94642528 32:0.68249375 33:0.6509786 34:0.88727544 35:0.89897163 36:0.90438906 37:0.70761057 
-4 1:0.75814388 2:0.72395827 3:0.27913766 4:0.38595639 5:0.5964028 6:0.84636548 7:0.69064141 8:0.15166263 9:0.27560165 10:0.53734775 11:0.80162834 12:0.62707978 13:0.67808981 14:0.60962019 15:0.74279309 16:0.82350485 17:0.75814389 18:0.22867965 19:0.19995597 20:0.2159038 21:0.20694808 22:0.51446064 23:0.88077583 24:1 25:1 26:1 27:0.9498159 28:0.3023958 29:0.49419439 30:0.60475143 31:0.70241659 32:0.36115605 33:0.33276655 34:0.48836856 35:0.56405951 36:0.64375872 37:0.37547836 
4 1:0.93941681 2:0.92905101 3:0.27913766 4:0.38595639 5:0.5964028 6:0.84636548 7:0.69064141 8:0.25235883 9:0.42788445 10:0.67055592 11:0.91238508 12:0.75701169 13:0.82432365 14:0.88599633 15:0.94223912 16:0.94619013 17:0.93941675 18:0.3062178 19:0.27216004 20:0.2159038 21:0.20694808 22:0.89228736 23:0.88077583 24:1 25:1 26:1 27:0.9498159 28:0.59932207 29:0.93795232 30:0.98996997 31:1 32:0.69703617 33:0.65539965 34:0.93720922 35:0.95340997 36:0.96163039 37:0.72262641 
2.3854513705334908 1:0.29231036 2:0.28944579 3:0.27913766 4:0.38595639 5:0.5964028 6:0.84636548 7:0.69064141 8:0.053935182 9:0.070383132 10:0.1894804 11:0.43882016 12:0.29354763 13:0.53617494 14:0.23666098 15:0.22098958 16:0.42128009 17:0.29231034 18:0.015172586 19:0.0011366775 20:0.2159038 21:0.20694808 22:0.095318897 23:0.88077583 24:1 25:1 26:1 27:0.9498159 28:0.082015865 29:0.10887005 30:0.13997746 31:0.18146461 32:0.091599846 33:0.093150674 34:0.09840561 35:0.094067626 36:0.087079937 37:0.096704845 
-4 1:0.83427527 2:0.82226791 3:0.27913766 4:0.38595639 5:0.5964028 6:0.84636548 7:0.69064141 8:0.21373765 9:0.35903652 10:0.601826 11:0.83358086 12:0.68169006 13:0.76823175 14:0.76096415 15:0.83921699 16:0.85887404 17:0.83427529 18:0.39274569 19:0.35273543 20:0.2159038 21:0.20694808 22:0.72498264 23:0.88077583 24:1 25:1 26:1 27:0.9498159 28:0.46301955 29:0.74941299 30:0.82645111 31:0.85894107 32:0.54593685 33:0.50726929 34:0.74646575 35:0.78809416 36:0.81091741 37:0.5664265 
-4 1:0.83622574 2:0.82973788 3:0.27913766 4:0.38595639 5:0.5964028 6:0.84636548 7:0.69064141 8:0.23022308 9:0.37083404 10:0.59847789 11:0.83276043 12:0.68311352 13:0.79214494 14:0.78232758 15:0.83420064 16:0.85793475 17:0.83622574 18:0.43535172 19:0.39241046 20:0.2159038 21:0.20694808 22:0.73606759 23:0.88077583 24:1 25:1 26:1 27:0.9498159 28:0.46002817 29:0.75508854 30:0.84252492 31:0.88347434 32:0.54541181 33:0.50398275 34:0.75218234 35:0.80432728 36:0.83711887 37:0.56585118 
-4 1:0.64955484 2:0.60776587 3:0.27913766 4:0.38595639 5:0.5964028 6:0.84636548 7:0.69064141 8:0.10706021 9:0.20095318 10:0.44917186 11:0.73364335 12:0.54939388 13:0.61333059 14:0.47382088 15:0.61034506 16:0.74810597 17:0.64955483 18:0.2215755 19:0.19334053 20:0.2159038 21:0.20694808 22:0.46166289 23:0.88077583 24:1 25:1 26:1 27:0.9498159 28:0.28173931 29:0.45434315 30:0.54689159 31:0.6197601 32:0.33428888 33:0.31025485 34:0.44796174 35:0.50548314 36:0.55538543 37:0.34763492 
-4 1:0.78924405 2:0.76927961 3:0.27913766 4:0.38595639 5:0.5964028 6:0.84636548 7:0.69064141 8:0.18819229 9:0.31923622 10:0.56302153 11:0.81063474 12:0.64942449 13:0.73115825 14:0.68870891 15:0.78106119 16:0.83344459 17:0.78924405 18:0.33597062 19:0.29986608 20:0.2159038 21:0.20694808 22:0.65318634 23:0.88077583 24:1 25:1 26:1 27:0.9498159 28:0.40876513 29:0.66116214 30:0.75120709 31:0.80589721 32:0.48315862 33:0.44831292 34:0.65719547 35:0.71203231 36:0.75424769 37:0.50153629 
4 1:0.83481819 2:0.8343694 3:0.27913766 4:0.38595639 5:0.5964028 6:0.84636548 7:0.69064141 8:0.24258604 9:0.38051121 10:0.59770905 11:0.8264295 12:0.6820762 13:0.81013697 14:0.79999519 15:0.83303074 16:0.85094691 17:0.8348182 18:0.40289595 19:0.36218742 20:0.2159038 21:0.20694808 22:0.67764199 23:0.88077583 24:1 25:1 26:1 27:0.9498159 28:0.42987363 29:0.68204856 30:0.77551148 31:0.83142894 32:0.50514458 33:0.47124965 34:0.67832081 35:0.7365988 36:0.78152093 37:0.52426057 
4 1:0.82194318 2:0.81810838 3:0.27913766 4:0.38595639 5:0.5964028 6:0.84636548 7:0.69064141 8:0.2306901 9:0.36739708 10:0.58807502 11:0.82000642 12:0.67284897 13:0.79286598 14:0.77618466 15:0.81859177 16:0.84383231 17:0.82194318 18:0.37918273 19:0.3401055 20:0.2159038 21:0.20694808 22:0.64070518 23:0.88077583 24:1 25:1 26:1 27:0.9498159 28:0.39755924 29:0.63946733 30:0.73925547 31:0.80385239 32:0.4698508 33:0.43613306 34:0.63525036 35:0.69995496 36:0.75206727 37:0.48777925 
-4 1:0.89962651 2:0.91404039 3:0.27913766 4:0.38595639 5:0.5964028 6:0.84636548 7:0.69064141 8:0.29981328 9:0.44200639 10:0.64561456 11:0.86096238 12:0.72849526 13:0.89323004 14:0.91167381 15:0.90485906 16:0.88922499 17:0.89962651 18:0.56351374 19:0.51175584 20:0.2159038 21:0.20694808 22:0.86233443 23:0.88077583 24:1 25:1 26:1 27:0.9498159 28:0.60892777 29:0.90283415 30:0.94562632 31:0.95272098 32:0.69650094 33:0.6658601 34:0.90169118 35:0.90858247 36:0.91111614 37:0.72209052 
-4 1:0.94160754 2:0.97500852 3:0.27913766 4:0.38595639 5:0.5964028 6:0.84636548 7:0.69064141 8:0.37334342 9:0.49063336 10:0.67564329 11:0.8768897 12:0.75856218 13:1 14:1 15:0.94987431 16:0.9068818 17:0.94160754 18:0.74525914 19:0.68099844 20:0.2159038 21:0.20694808 22:1 23:0.88077583 24:1 25:1 26:1 27:0.9498159 28:0.91634868 29:1 30:1 31:0.98597537 32:0.96530707 33:1 34:1 35:0.96355715 36:0.94664833 37:1 
-1.8381056531988342 1:0.50295248 2:0.45967584 3:0.27913766 4:0.38595639 5:0.5964028 6:0.84636548 7:0.69064141 8:0.066207902 9:0.11741794 10:0.32632807 11:0.63599944 12:0.44439503 13:0.55399628 14:0.32210907 15:0.42618596 16:0.63982015 17:0.50295246 18:0.17143646 19:0.14665071 20:0.2159038 21:0.20694808 22:0.27182416 23:0.88077583 24:1 25:1 26:1 27:0.9498159 28:0.16541644 29:0.26224381 30:0.33574724 31:0.42030012 32:0.19617979 33:0.18380359 34:0.25358724 35:0.29200095 36:0.34227056 37:0.20483068 
-4 1:0.86502185 2:0.85456161 3:0.27913766 4:0.38595639 5:0.5964028 6:0.84636548 7:0.69064141 8:0.22842015 9:0.38143102 10:0.62036468 11:0.85649562 12:0.70371406 13:0.78958144 14:0.80169345 15:0.86698073 16:0.88425869 17:0.86502185 18:0.44876808 19:0.40490387 20:0.2159038 21:0.20694808 22:0.75903708 23:0.88077583 24:1 25:1 26:1 27:0.9498159 28:0.47190061 29:0.78119904 30:0.87085579 31:0.90435163 32:0.56090211 33:0.51695113 34:0.77864227 35:0.83299593 36:0.85944224 37:0.58192394 
4 1:0.83391471 2:0.82537108 3:0.27913766 4:0.38595639 5:0.5964028 6:0.84636548 7:0.69064141 8:0.21371702 9:0.3692275 10:0.60059011 11:0.83033815 12:0.68143282 13:0.76821445 14:0.77948785 15:0.83735584 16:0.85527686 17:0.8339147 18:0.4099352 19:0.36874242 20:0.2159038 21:0.20694808 22:0.69762735 23:0.88077583 24:1 25:1 26:1 27:0.9498159 28:0.43913292 29:0.70732683 30:0.79929169 31:0.84923147 32:0.51814719 33:0.48131096 34:0.70389875 35:0.76064619 36:0.80054929 37:0.53770215 
-4 1:0.90183821 2:0.91702956 3:0.27913766 4:0.38595639 5:0.5964028 6:0.84636548 7:0.69064141 8:0.30325212 9:0.44411356 10:0.64726647 11:0.86196179 12:0.73007945 13:0.89821441 14:0.91549849 15:0.90733877 16:0.8903331 17:0.90183821 18:0.57084824 19:0.51858578 20:0.2159038 21:0.20694808 22:0.86964814 23:0.88077583 24:1 25:1 26:1 27:0.9498159 28:0.62131664 29:0.91035161 30:0.94983841 31:0.9552782 32:0.70804321 33:0.67932204 34:0.90929762 35:0.91284157 36:0.91384867 37:0.73402115 
4 1:0.79768525 2:0.78737076 3:0.27913766 4:0.38595639 5:0.5964028 6:0.84636548 7:0.69064141 8:0.20828064 9:0.34274991 10:0.56940112 11:0.80825934 12:0.6554782 13:0.7603269 14:0.73140875 15:0.79057788 16:0.83080839 17:0.79768526 18:0.35124358 19:0.31408836 20:0.2159038 21:0.20694808 22:0.59378575 23:0.88077583 24:1 25:1 26:1 27:0.9498159 28:0.36396874 29:0.58673215 30:0.68905598 31:0.76324365 32:0.43107023 33:0.39962098 34:0.58189308 35:0.64920121 36:0.70867847 37:0.44768317 
4 1:0.89547562 2:0.90807199 3:0.27913766 4:0.38595639 5:0.5964028 6:0.84636548 7:0.69064141 8:0.29427473 9:0.43644905 10:0.64271344 11:0.85941014 12:0.72552204 13:0.88518703 14:0.90158422 15:0.9005086 16:0.88750374 17:0.89547563 18:0.5495553 19:0.49875764 20:0.2159038 21:0.20694808 22:0.85301986 23:0.88077583 24:1 25:1 26:1 27:0.9498159 28:0.59672 29:0.89169932 30:0.93878976 31:0.94845577 32:0.68436288 33:0.65259121 34:0.89042619 35:0.90167071 36:0.90655884 37:0.70954146 
-4 1:0.46924733 2:0.44012961 3:0.40496125 4:0.42052666 5:0.50474585 6:0.63185108 7:0.57165415 8:0.15152303 9:0.13503228 10:0.25597289 11:0.49518621 12:0.35957791 13:0.55650124 14:0.3402993 15:0.38025978 16:0.61177879 17:0.46924733 18:0.21541628 19:0.25735685 20:0.97119755 21:0.95142642 22:0.36283874 23:0.42918501 24:0.45261146 25:0.46424452 26:0.48371418 27:0.4530935 28:0.12299206 29:0.19408675 30:0.25043327 31:0.31955882 32:0.14548027 33:0.23021844 34:0.34362325 35:0.39740278 36:0.46025566 37:0.26082386 
4 1:0.81126905 2:0.78695071 3:0.40496125 4:0.42052666 5:0.50474585 6:0.63185108 7:0.57165415 8:0.25472455 9:0.33693012 10:0.52204114 11:0.68605972 12:0.58123318 13:0.69469046 14:0.68603075 15:0.81755777 16:0.86752112 17:0.81126902 18:0.41606456 19:0.44420195 20:0.97119755 21:0.95142642 22:0.70648484 23:0.42918501 24:0.45261146 25:0.46424452 26:0.48371418 27:0.4530935 28:0.24873489 29:0.43360481 30:0.50409362 31:0.55342791 32:0.30144807 33:0.43389357 34:0.71986208 35:0.79404569 36:0.83772508 37:0.50314571 
4 1:0.78149265 2:0.77208602 3:0.40496125 4:0.42052666 5:0.50474585 6:0.63185108 7:0.57165415 8:0.28892593 9:0.35536277 10:0.49951164 11:0.6517901 12:0.56198016 13:0.73833794 14:0.71139607 15:0.78030733 16:0.82183834 17:0.78149266 18:0.34371247 19:0.37682717 20:0.97119755 21:0.95142642 22:0.54175832 23:0.42918501 24:0.45261146 25:0.46424452 26:0.48371418 27:0.4530935 28:0.19707862 29:0.31718266 30:0.3785933 31:0.43673453 32:0.23319732 33:0.34970458 34:0.53736934 35:0.59841293 36:0.64991961 37:0.39681322 
-4 1:0.88250925 2:0.89300311 3:0.40496125 4:0.42052666 5:0.50474585 6:0.63185108 7:0.57165415 8:0.37956243 9:0.45209511 10:0.56551423 11:0.69701338 12:0.6274784 13:0.86011434 14:0.88054262 15:0.88926334 16:0.88209315 17:0.88250927 18:0.524419 19:0.54510237 20:0.97119755 21:0.95142642 22:0.78745866 23:0.42918501 24:0.45261146 25:0.46424452 26:0.48371418 27:0.4530935 28:0.32455204 29:0.49585001 30:0.54131487 31:0.57497534 32:0.37538579 33:0.55567351 34:0.81758781 35:0.85221803 36:0.87245002 37:0.61747511 
-4 1:0.58891621 2:0.5610582 3:0.40496125 4:0.42052666 5:0.50474585 6:0.63185108 7:0.57165415 8:0.17369063 9:0.19907752 10:0.3659758 11:0.55646778 12:0.43806937 13:0.58616258 14:0.44793601 15:0.55912254 16:0.69491709 17:0.58891619 18:0.19600613 19:0.23928198 20:0.97119755 21:0.95142642 22:0.43202953 23:0.42918501 24:0.45261146 25:0.46424452 26:0.48371418 27:0.4530935 28:0.14981306 29:0.24787091 30:0.30454171 31:0.36019868 32:0.17910541 33:0.271684 34:0.42646645 35:0.48075342 36:0.52469288 37:0.31101257 
-4 1:0.77429767 2:0.76938288 3:0.40496125 4:0.42052666 5:0.50474585 6:0.63185108 7:0.57165415 8:0.29273408 9:0.36095184 10:0.49759869 11:0.64289938 12:0.55813593 13:0.74327981 14:0.72006294 15:0.77559712 16:0.809915 17:0.77429767 18:0.31420749 19:0.34935192 20:0.97119755 21:0.95142642 22:0.60981089 23:0.42918501 24:0.45261146 25:0.46424452 26:0.48371418 27:0.4530935 28:0.22892894 29:0.37216092 30:0.42815917 31:0.47457627 32:0.27088889 33:0.3991269 34:0.62109896 35:0.67338487 36:0.70869885 37:0.45304611 
-4 1:0.74725873 2:0.73356686 3:0.40496125 4:0.42052666 5:0.50474585 6:0.63185108 7:0.57165415 8:0.26780241 9:0.32624112 10:0.47418591 11:0.635842 12:0.53965931 13:0.7101963 14:0.66168944 15:0.7390727 16:0.800812 17:0.74725874 18:0.30804419 19:0.34361261 20:0.97119755 21:0.95142642 22:0.50609757 23:0.42918501 24:0.45261146 25:0.46424452 26:0.48371418 27:0.4530935 28:0.18352273 29:0.29444178 30:0.35354341 31:0.41091946 32:0.21699581 33:0.32720614 34:0.50109658 35:0.55876314 36:0.60777886 37:0.37104413 
4 1:0.8693814 2:0.87578583 3:0.40496125 4:0.42052666 5:0.50474585 6:0.63185108 7:0.57165415 8:0.36482487 9:0.43626873 10:0.55677523 11:0.6925817 12:0.61890587 13:0.84021136 14:0.85282493 15:0.87500133 16:0.87621276 17:0.86938143 18:0.50348421 19:0.52560774 20:0.97119755 21:0.95142642 22:0.77205871 23:0.42918501 24:0.45261146 25:0.46424452 26:0.48371418 27:0.4530935 28:0.31520787 29:0.48370184 30:0.53219581 31:0.56884343 32:0.36528531 33:0.54004001 34:0.79803191 35:0.83759275 36:0.86226101 37:0.6012651 
-4 1:0.76085768 2:0.73459933 3:0.40496125 4:0.42052666 5:0.50474585 6:0.63185108 7:0.57165415 8:0.23394309 9:0.29984893 10:0.48740753 11:0.65772483 12:0.54840528 13:0.66811054 14:0.62503181 15:0.76212355 16:0.82850691 17:0.76085769 18:0.20600134 19:0.24858959 20:0.97119755 21:0.95142642 22:0.47325256 23:0.42918501 24:0.45261146 25:0.46424452 26:0.48371418 27:0.4530935 28:0.16473505 29:0.27224742 30:0.33298574 31:0.39330556 32:0.19691571 33:0.29718762 34:0.46569269 35:0.52553135 36:0.57789546 37:0.34004033 
4 1:0.90760548 2:0.89498739 3:0.40496125 4:0.42052666 5:0.50474585 6:0.63185108 7:0.57165415 8:0.30882502 9:0.42106724 10:0.58702208 11:0.73407231 12:0.64361169 13:0.7679979 14:0.83225516 15:0.92536175 16:0.93080108 17:0.90760549 18:0.26271215 19:0.30139909 20:0.97119755 21:0.95142642 22:0.78378801 23:0.42918501 24:0.45261146 25:0.46424452 26:0.48371418 27:0.4530935 28:0.29596235 29:0.49683378 30:0.55049321 31:0.58823084 32:0.35286319 33:0.50958545 34:0.81832079 35:0.8658461 36:0.89331554 37:0.58225796 
-4 1:0.32726005 2:0.33066041 3:0.40496125 4:0.42052666 5:0.50474585 6:0.63185108 7:0.57165415 8:0.14153546 9:0.11921274 10:0.19103949 11:0.35993736 12:0.26833164 13:0.54339006 14:0.31280218 15:0.27264364 16:0.42954676 17:0.32726002 18:0.046592511 19:0.10014696 20:0.97119755 21:0.95142642 22:0.16423008 23:0.42918501 24:0.45261146 25:0.46424452 26:0.48371418 27:0.4530935 28:0.067505263 29:0.086071507 30:0.10735366 31:0.13608932 32:0.074082954 33:0.1387782 34:0.17244283 35:0.1717859 36:0.16086402 37:0.14830815 
4 1:0.81560417 2:0.80353019 3:0.40496125 4:0.42052666 5:0.50474585 6:0.63185108 7:0.57165415 8:0.28938056 9:0.36785723 10:0.52393472 11:0.67543089 12:0.58381492 13:0.73982049 14:0.7362454 15:0.82120724 16:0.85348642 17:0.81560415 18:0.39334689 19:0.4230471 20:0.97119755 21:0.95142642 22:0.69132234 23:0.42918501 24:0.45261146 25:0.46424452 26:0.48371418 27:0.4530935 28:0.25663259 29:0.42664746 30:0.48623664 31:0.53162259 32:0.30569497 33:0.44610147 34:0.70883112 35:0.76618872 36:0.80262051 37:0.50932585 
-4 1:0.68878547 2:0.67703239 3:0.40496125 4:0.42052666 5:0.50474585 6:0.63185108 7:0.57165415 8:0.25295013 9:0.2950994 10:0.42986038 11:0.60055796 12:0.50156979 13:0.69108079 14:0.61084467 15:0.66722846 16:0.75403478 17:0.68878548 18:0.28770817 19:0.32467556 20:0.97119755 21:0.95142642 22:0.45698049 23:0.42918501 24:0.45261146 25:0.46424452 26:0.48371418 27:0.4530935 28:0.15662591 29:0.26276704 30:0.32286291 31:0.38252947 32:0.18817867 33:0.28224154 34:0.45013414 35:0.50956594 36:0.56057848 37:0.32487782 
-4 1:0.5049451 2:0.4876682 3:0.40496125 4:0.42052666 5:0.50474585 6:0.63185108 7:0.57165415 8:0.16660056 9:0.16974116 10:0.310476 11:0.49344191 12:0.38337025 13:0.57736183 14:0.39892868 15:0.46787052 16:0.61280838 17:0.50494511 18:0.13203313 19:0.17970987 20:0.97119755 21:0.95142642 22:0.31935672 23:0.42918501 24:0.45261146 25:0.46424452 26:0.48371418 27:0.4530935 28:0.11215653 29:0.17467142 30:0.22051002 31:0.27150664 32:0.13160657 33:0.21153584 34:0.31274324 35:0.35087379 36:0.38333945 37:0.23818953 
4 1:0.77219768 2:0.75046545 3:0.40496125 4:0.42052666 5:0.50474585 6:0.63185108 7:0.57165415 8:0.25979364 9:0.32351681 10:0.48638137 11:0.66206525 12:0.55568384 13:0.70039979 14:0.6599324 15:0.75917865 16:0.83535735 17:0.77219768 18:0.35866075 19:0.39074712 20:0.97119755 21:0.95142642 22:0.64732058 23:0.42918501 24:0.45261146 25:0.46424452 26:0.48371418 27:0.4530935 28:0.22772995 29:0.38669599 30:0.45860932 31:0.5208973 32:0.2741635 33:0.39941749 34:0.64597752 35:0.72270243 36:0.78480833 37:0.46039262 
4 1:0.78809779 2:0.78071951 3:0.40496125 4:0.42052666 5:0.50474585 6:0.63185108 7:0.57165415 8:0.29699637 9:0.36268512 10:0.50325414 11:0.65455476 12:0.56626849 13:0.74921378 14:0.72517209 15:0.78672904 16:0.82515112 17:0.78809779 18:0.35477738 19:0.38713089 20:0.97119755 21:0.95142642 22:0.56224955 23:0.42918501 24:0.45261146 25:0.46424452 26:0.48371418 27:0.4530935 28:0.20824814 29:0.33179545 30:0.39241381 31:0.44870133 32:0.24545926 33:0.36773157 34:0.55993439 35:0.61943306 36:0.66853734 37:0.41575249 
-4 1:0.88222453 2:0.89289257 3:0.40496125 4:0.42052666 5:0.50474585 6:0.63185108 7:0.57165415 8:0.38054889 9:0.45152496 10:0.56558341 11:0.69668995 12:0.62729778 13:0.86153951 14:0.87973287 15:0.88940393 16:0.88166068 17:0.88222452 18:0.52862077 19:0.54901509 20:0.97119755 21:0.95142642 22:0.7917121 23:0.42918501 24:0.45261146 25:0.46424452 26:0.48371418 27:0.4530935 28:0.32970024 29:0.49881789 30:0.54307417 31:0.57607581 32:0.38015648 33:0.56368587 34:0.82189716 35:0.85467269 36:0.87397983 37:0.62455951 
4 1:0.76434793 2:0.7528254 3:0.40496125 4:0.42052666 5:0.50474585 6:0.63185108 7:0.57165415 8:0.27551094 9:0.33842056 10:0.48796835 11:0.64417419 12:0.55079882 13:0.72129246 14:0.68588851 15:0.76220617 16:0.81082838 17:0.76434793 18:0.33271797 19:0.36658901 20:0.97119755 21:0.95142642 22:0.52158736 23:0.42918501 24:0.45261146 25:0.46424452 26:0.48371418 27:0.4530935 28:0.18873488 29:0.30373206 30:0.36494753 31:0.42409068 32:0.2234276 33:0.33642332 34:0.51558911 35:0.57595607 36:0.62805033 37:0.38168228 
-4 1:0.87979904 2:0.88996623 3:0.40496125 4:0.42052666 5:0.50474585 6:0.63185108 7:0.57165415 8:0.3766101 9:0.44977788 10:0.5636874 11:0.69572932 12:0.62568707 13:0.8564758 14:0.87715035 15:0.88643836 16:0.88026336 17:0.87979899 18:0.52334235 19:0.54409978 20:0.97119755 21:0.95142642 22:0.78263362 23:0.42918501 24:0.45261146 25:0.46424452 26:0.48371418 27:0.4530935 28:0.32115494 29:0.49246774 30:0.53878161 31:0.57323785 32:0.37192748 33:0.55017431 34:0.81191554 35:0.84784321 36:0.86922847 37:0.6120091 
-4 1:0.94160754 2:0.97500852 3:0.40496125 4:0.42052666 5:0.50474585 6:0.63185108 7:0.57165415 8:0.48272377 9:0.51931037 10:0.60198186 11:0.71543884 12:0.665699 13:1 14:1 15:0.94987431 16:0.9068818 17:0.94160754 18:0.75202792 19:0.75705341 20:0.97119755 21:0.95142642 22:0.99999865 23:0.42918501 24:0.45261146 25:0.46424452 26:0.48371418 27:0.4530935 28:0.59949824 29:0.61212416 30:0.6126915 31:0.62105458 32:0.6219152 33:0.99999952 34:0.99999889 35:0.96355528 36:0.94664643 37:0.99999915 
0.80566896707706359 1:0.48931038 2:0.44854585 3:0.40496125 4:0.42052666 5:0.50474585 6:0.63185108 7:0.57165415 8:0.09088472 9:0.12803278 10:0.28593426 11:0.5104676 12:0.37241928 13:0.47611328 14:0.33092824 15:0.4317107 16:0.63043404 17:0.4893104 18:0.19763629 19:0.2408 20:0.97119755 21:0.95142642 22:0.30106727 23:0.42918501 24:0.45261146 25:0.46424452 26:0.48371418 27:0.4530935 28:0.1010442 29:0.16136997 30:0.20870005 31:0.26498222 32:0.11975725 33:0.19404322 34:0.29142911 35:0.33108314 36:0.37057107 37:0.22017192 
4 1:0.77293254 2:0.74311595 3:0.40496125 4:0.42052666 5:0.50474585 6:0.63185108 7:0.57165415 8:0.21241569 9:0.30205882 10:0.50478676 11:0.66388604 12:0.55634357 13:0.63860272 14:0.62827417 15:0.78976348 16:0.83761221 17:0.77293252 18:0.3598956 19:0.39189701 20:0.97119755 21:0.95142642 22:0.60684601 23:0.42918501 24:0.45261146 25:0.46424452 26:0.48371418 27:0.4530935 28:0.20592856 29:0.3636122 30:0.43280011 31:0.49109581 32:0.25113215 33:0.36449563 34:0.6099249 35:0.68255744 36:0.73692403 37:0.42485594 
-4 1:0.73883636 2:0.71477425 3:0.40496125 4:0.42052666 5:0.50474585 6:0.63185108 7:0.57165415 8:0.21983145 9:0.29533541 10:0.48011088 11:0.63698235 12:0.53423765 13:0.64860312 14:0.61402072 15:0.74889713 16:0.80172459 17:0.73883635 18:0.32139505 19:0.35604503 20:0.97119755 21:0.95142642 22:0.51977872 23:0.42918501 24:0.45261146 25:0.46424452 26:0.48371418 27:0.4530935 28:0.18331968 29:0.30530773 30:0.36588338 31:0.42346106 32:0.21932969 33:0.3269228 34:0.5177251 35:0.57744057 36:0.62733696 37:0.37456451 
0.22197254473681219 1:0.87434574 2:0.88266754 3:0.40496125 4:0.42052666 5:0.50474585 6:0.63185108 7:0.57165415 8:0.37011832 9:0.44323468 10:0.56023529 11:0.69380061 12:0.62212623 13:0.84753256 14:0.86517393 15:0.88072619 16:0.87785743 17:0.87434576 18:0.51614704 19:0.53739946 20:0.97119755 21:0.95142642 22:0.78205485 23:0.42918501 24:0.45261146 25:0.46424452 26:0.48371418 27:0.4530935 28:0.32251878 29:0.49169676 30:0.53777776 31:0.57245886 32:0.37285362 33:0.55188187 34:0.81053899 35:0.84626977 36:0.86804995 37:0.61302331 
-4 1:0.78702296 2:0.77822337 3:0.40496125 4:0.42052666 5:0.50474585 6:0.63185108 7:0.57165415 8:0.29166709 9:0.35843021 10:0.50253825 11:0.65553512 12:0.56549559 13:0.7427271 14:0.71936014 15:0.78596159 16:0.82601535 17:0.78702296 18:0.35884653 19:0.39092012 20:0.97119755 21:0.95142642 22:0.56076761 23:0.42918501 24:0.45261146 25:0.46424452 26:0.48371418 27:0.4530935 28:0.20516918 29:0.33022178 30:0.39256496 31:0.45033108 32:0.24271559 33:0.3631379 34:0.55734801 35:0.6192299 36:0.6704513 37:0.41178939 
-4 1:0.88155453 2:0.89086716 3:0.40496125 4:0.42052666 5:0.50474585 6:0.63185108 7:0.57165415 8:0.37422379 9:0.44860638 10:0.56514406 11:0.69761711 12:0.62676408 13:0.85338161 14:0.8757904 15:0.88907695 16:0.88274914 17:0.88155453 18:0.5341167 19:0.55413293 20:0.97119755 21:0.95142642 22:0.80122036 23:0.42918501 24:0.45261146 25:0.46424452 26:0.48371418 27:0.4530935 28:0.33345425 29:0.50617245 30:0.54978678 31:0.58166333 32:0.38479623 33:0.57027012 34:0.83347223 35:0.86502308 36:0.88280594 37:0.63215487 
-4 1:0.46503173 2:0.38368125 3:0.72648647 4:0.80381102 5:0.7943981 6:0.72524003 7:0.80335998 8:0.062660032 9:0.17743636 10:0.41452159 11:0.61538032 12:0.47325052 13:0.17541872 14:0.17659956 15:0.42714765 16:0.69787772 17:0.46503173 18:0.22393854 19:0.25594206 20:0.16944021 21:0.15514985 22:0.39576392 23:0.52052129 24:0.4428158 25:0.41496253 26:0.39593338 27:0.52353606 28:0.08039582 29:0.19881881 30:0.28210614 31:0.36089904 32:0.11346732 33:0.14048547 34:0.35548489 35:0.47874561 36:0.5972338 37:0.19151322 
-4 1:0.85635511 2:0.84330862 3:0.72648647 4:0.80381102 5:0.7943981 6:0.72524003 7:0.80335998 8:0.48225579 9:0.67349577 10:0.78561824 11:0.77112241 12:0.77980082 13:0.67003892 14:0.79572553 15:0.88868732 16:0.8888934 17:0.85635511 18:0.44854506 19:0.46509725 20:0.16944021 21:0.15514985 22:0.76185577 23:0.52052129 24:0.4428158 25:0.41496253 26:0.39593338 27:0.52353606 28:0.25234956 29:0.49913061 30:0.52731233 31:0.53255291 32:0.31625671 33:0.39397009 34:0.83196772 35:0.8818671 36:0.90001541 37:0.48583132 
-4 1:0.89250376 2:0.90054487 3:0.72648647 4:0.80381102 5:0.7943981 6:0.72524003 7:0.80335998 8:0.59831331 9:0.75365568 10:0.80439596 11:0.77523157 12:0.8080872 13:0.80682869 14:0.89568406 15:0.91206028 16:0.89401031 17:0.89250376 18:0.49800239 19:0.51115226 20:0.16944021 21:0.15514985 22:0.78339092 23:0.52052129 24:0.4428158 25:0.41496253 26:0.39593338 27:0.52353606 28:0.29838712 29:0.50754053 30:0.52803536 31:0.53184114 32:0.35509584 33:0.46160352 34:0.8451474 35:0.88297671 36:0.89871521 37:0.54199228 
-4 1:0.82162045 2:0.81807266 3:0.72648647 4:0.80381102 5:0.7943981 6:0.72524003 7:0.80335998 8:0.50795108 9:0.67302978 10:0.74623308 11:0.7391855 12:0.75246315 13:0.70041847 14:0.79527031 15:0.8398142 16:0.84977825 17:0.82162042 18:0.34374091 19:0.36750287 20:0.16944021 21:0.15514985 22:0.52620631 23:0.52052129 24:0.4428158 25:0.41496253 26:0.39593338 27:0.52353606 28:0.15985887 29:0.30380325 30:0.36451634 31:0.41175363 32:0.19983632 33:0.25766065 34:0.52219905 35:0.61438002 36:0.68701128 37:0.31692387 
-4 1:0.90467931 2:0.92240626 3:0.72648647 4:0.80381102 5:0.7943981 6:0.72524003 7:0.80335998 8:0.65559667 9:0.78264549 10:0.80911342 11:0.77488787 12:0.81757265 13:0.87439099 14:0.93193436 15:0.91797486 16:0.89358696 17:0.90467932 18:0.52149584 19:0.53302953 20:0.16944021 21:0.15514985 22:0.80333678 23:0.52052129 24:0.4428158 25:0.41496253 26:0.39593338 27:0.52353606 28:0.32948567 29:0.51689086 30:0.53316704 31:0.53513909 32:0.38219064 33:0.50784601 34:0.86028255 35:0.89159257 36:0.90464701 37:0.58169538 
-4 1:0.57004229 2:0.50500702 3:0.72648647 4:0.80381102 5:0.7943981 6:0.72524003 7:0.80335998 8:0.15495797 9:0.30180103 10:0.53547075 11:0.64842872 12:0.55559496 13:0.28421135 14:0.33171926 15:0.57731409 16:0.73844774 17:0.5700423 18:0.23268946 19:0.26409099 20:0.16944021 21:0.15514985 22:0.35769195 23:0.52052129 24:0.4428158 25:0.41496253 26:0.39593338 27:0.52353606 28:0.082154408 29:0.18605548 30:0.25083461 31:0.3139277 32:0.11090654 33:0.1429868 34:0.33493587 35:0.42690817 36:0.51382401 37:0.187664 
-4 1:0.57011785 2:0.50511166 3:0.72648647 4:0.80381102 5:0.7943981 6:0.72524003 7:0.80335998 8:0.15493338 9:0.30197003 10:0.53571912 11:0.64834326 12:0.55566192 13:0.28418346 14:0.33192746 15:0.57761562 16:0.73832472 17:0.57011787 18:0.23261816 19:0.26402459 20:0.16944021 21:0.15514985 22:0.35760258 23:0.52052129 24:0.4428158 25:0.41496253 26:0.39593338 27:0.52353606 28:0.082135928 29:0.18602234 30:0.25076224 31:0.31386301 32:0.11088217 33:0.14295642 34:0.33487222 35:0.42677607 36:0.51369521 37:0.18762401 
-4 1:0.90415357 2:0.92171818 3:0.72648647 4:0.80381102 5:0.7943981 6:0.72524003 7:0.80335998 8:0.65700494 9:0.78021646 10:0.80850321 11:0.77514657 12:0.8171605 13:0.87603404 14:0.92888412 15:0.91725233 16:0.89390869 17:0.90415359 18:0.53359896 19:0.54430004 20:0.16944021 21:0.15514985 22:0.82143784 23:0.52052129 24:0.4428158 25:0.41496253 26:0.39593338 27:0.52353606 28:0.35277571 29:0.52912113 30:0.53925653 31:0.53841527 32:0.40347288 33:0.54208733 34:0.87963125 35:0.90158095 36:0.9104174 37:0.61250424 
-0.2198775181688401 1:0.81318516 2:0.77500737 3:0.72648647 4:0.80381102 5:0.7943981 6:0.72524003 7:0.80335998 8:0.33435293 9:0.58300094 10:0.76665359 11:0.76330011 12:0.74610648 13:0.49564634 14:0.68266943 15:0.86483557 16:0.87924797 17:0.81318513 18:0.19070521 19:0.22499495 20:0.16944021 21:0.15514985 22:0.50937393 23:0.52052129 24:0.4428158 25:0.41496253 26:0.39593338 27:0.52353606 28:0.13215778 29:0.2915405 30:0.3601568 31:0.41440976 32:0.17510327 33:0.2166903 34:0.50248579 35:0.60698354 36:0.6915551 37:0.28086354 
-4 1:0.91895563 2:0.88881672 3:0.72648647 4:0.80381102 5:0.7943981 6:0.72524003 7:0.80335998 8:0.42851894 9:0.6870368 10:0.84399426 11:0.83325058 12:0.82896203 13:0.60669282 14:0.81247894 15:0.96105411 16:0.9652239 17:0.91895568 18:0.22269853 19:0.25478735 20:0.16944021 21:0.15514985 22:0.80607096 23:0.52052129 24:0.4428158 25:0.41496253 26:0.39593338 27:0.52353606 28:0.2523202 29:0.53795039 30:0.56194146 31:0.56554383 32:0.32463518 33:0.39374825 34:0.8932794 35:0.93868662 36:0.95821408 37:0.4977977 
-4 1:0.20105235 2:0.15388784 3:0.72648647 4:0.80381102 5:0.7943981 6:0.72524003 7:0.80335998 8:0.032571211 9:0.074868009 10:0.20762315 11:0.37279652 12:0.26654059 13:0.13996005 14:0.048716394 15:0.1699533 16:0.39941884 17:0.20105238 18:0.058940069 19:0.10229432 20:0.16944021 21:0.15514985 22:0.12667434 23:0.52052129 24:0.4428158 25:0.41496253 26:0.39593338 27:0.52353606 28:0.030974632 29:0.051460611 30:0.078408458 31:0.11813256 32:0.037129555 33:0.067631351 34:0.12154675 35:0.14346034 36:0.16818167 37:0.080692211 
-4 1:0.84651942 2:0.84233062 3:0.72648647 4:0.80381102 5:0.7943981 6:0.72524003 7:0.80335998 8:0.52114868 9:0.68650793 10:0.77088422 11:0.75633926 12:0.77204002 13:0.71596423 14:0.81193397 15:0.87034135 16:0.87086002 17:0.84651946 18:0.37005093 19:0.39200295 20:0.16944021 21:0.15514985 22:0.68274175 23:0.52052129 24:0.4428158 25:0.41496253 26:0.39593338 27:0.52353606 28:0.21278984 29:0.43456525 30:0.47681526 31:0.49478456 32:0.27063787 33:0.33563539 34:0.7296247 35:0.79896433 36:0.8334652 37:0.41962626 
-4 1:0.83551459 2:0.83084506 3:0.72648647 4:0.80381102 5:0.7943981 6:0.72524003 7:0.80335998 8:0.5118567 9:0.67985221 10:0.75866916 11:0.75056413 12:0.7635363 13:0.70486391 14:0.80352676 15:0.85499042 16:0.86366251 17:0.83551462 18:0.40054268 19:0.42039709 20:0.16944021 21:0.15514985 22:0.6498668 23:0.52052129 24:0.4428158 25:0.41496253 26:0.39593338 27:0.52353606 28:0.20341213 29:0.39798724 30:0.45382846 31:0.48441911 32:0.25573442 33:0.3215425 34:0.67121231 35:0.76090357 36:0.81501016 37:0.39771246 
-4 1:0.61504374 2:0.55885506 3:0.72648647 4:0.80381102 5:0.7943981 6:0.72524003 7:0.80335998 8:0.19255399 9:0.36536854 10:0.58628234 11:0.65788841 12:0.58988436 13:0.32860833 14:0.41141472 15:0.64196109 16:0.75175463 17:0.61504376 18:0.19359111 19:0.22768232 20:0.16944021 21:0.15514985 22:0.4054905 23:0.52052129 24:0.4428158 25:0.41496253 26:0.39593338 27:0.52353606 28:0.094048485 29:0.22153106 30:0.28737118 31:0.34296889 32:0.12843745 33:0.16085653 34:0.39219707 35:0.48818309 36:0.56635452 37:0.21357492 
-4 1:0.78355749 2:0.76276438 3:0.72648647 4:0.80381102 5:0.7943981 6:0.72524003 7:0.80335998 8:0.42705207 9:0.59112604 10:0.71721395 11:0.73531217 12:0.72255957 13:0.60502764 14:0.69307775 15:0.80391942 16:0.84528301 17:0.78355748 18:0.32395259 19:0.34907585 20:0.16944021 21:0.15514985 22:0.61269515 23:0.52052129 24:0.4428158 25:0.41496253 26:0.39593338 27:0.52353606 28:0.17023841 29:0.37269383 30:0.43343978 31:0.47128987 32:0.2235006 33:0.27302738 34:0.63162641 35:0.7277671 36:0.79208149 37:0.3513388 
4 1:0.85155905 2:0.85590289 3:0.72648647 4:0.80381102 5:0.7943981 6:0.72524003 7:0.80335998 8:0.56205158 9:0.71265479 10:0.76973737 11:0.75145334 12:0.77597844 13:0.76416935 14:0.84464548 15:0.86897952 16:0.86477227 17:0.85155906 18:0.39491714 19:0.41515854 20:0.16944021 21:0.15514985 22:0.61744846 23:0.52052129 24:0.4428158 25:0.41496253 26:0.39593338 27:0.52353606 28:0.20521937 29:0.37005214 30:0.42512397 31:0.46095058 32:0.25100008 33:0.32447352 34:0.62722629 35:0.71396104 36:0.77376863 37:0.3911219 
-4 1:0.90715607 2:0.92615464 3:0.72648647 4:0.80381102 5:0.7943981 6:0.72524003 7:0.80335998 8:0.66506023 9:0.78590634 10:0.81080018 11:0.77556005 12:0.81953454 13:0.88550034 14:0.93597721 15:0.92006087 16:0.89438882 17:0.90715606 18:0.54020658 19:0.5504531 20:0.16944021 21:0.15514985 22:0.82621809 23:0.52052129 24:0.4428158 25:0.41496253 26:0.39593338 27:0.52353606 28:0.35838476 29:0.53261651 30:0.54120759 31:0.53934677 32:0.40871361 33:0.55028193 34:0.88507422 35:0.90471448 36:0.91201236 37:0.6200331 
-4 1:0.84169367 2:0.84506443 3:0.72648647 4:0.80381102 5:0.7943981 6:0.72524003 7:0.80335998 8:0.55649026 9:0.700506 10:0.76059662 11:0.74649329 12:0.76814667 13:0.75764178 14:0.82959654 15:0.85770078 16:0.85877165 17:0.84169364 18:0.37424073 19:0.39590453 20:0.16944021 21:0.15514985 22:0.5799658 23:0.52052129 24:0.4428158 25:0.41496253 26:0.39593338 27:0.52353606 28:0.18534809 29:0.34241809 30:0.40058202 31:0.44160237 32:0.22893038 33:0.29529722 34:0.58357853 35:0.67379474 36:0.73979084 37:0.35922114 
-4 1:0.90391795 2:0.92144104 3:0.72648647 4:0.80381102 5:0.7943981 6:0.72524003 7:0.80335998 8:0.65416493 9:0.78168087 10:0.80844454 11:0.77465298 12:0.81699365 13:0.8727009 14:0.93071295 15:0.91713209 16:0.89329092 17:0.90391793 18:0.53657619 19:0.54707246 20:0.16944021 21:0.15514985 22:0.82259651 23:0.52052129 24:0.4428158 25:0.41496253 26:0.39593338 27:0.52353606 28:0.35159154 29:0.53114072 30:0.54056352 31:0.53911265 32:0.40291649 33:0.5403463 34:0.88277328 35:0.90368053 36:0.9116139 37:0.61168779 
-4 1:0.94160754 2:0.97500852 3:0.72648647 4:0.80381102 5:0.7943981 6:0.72524003 7:0.80335998 8:0.76223053 9:0.83725566 10:0.83476507 11:0.78572655 12:0.84653299 13:1 14:1 15:0.94987431 16:0.9068818 17:0.94160754 18:0.65666635 19:0.65890126 20:0.16944021 21:0.15514985 22:0.9999988 23:0.52052129 24:0.4428158 25:0.41496253 26:0.39593338 27:0.52353606 28:0.66358249 29:0.60518306 30:0.57706497 31:0.55900987 32:0.67061309 33:0.99999938 34:0.99999892 35:0.96355571 36:0.94664673 37:0.99999901 
2.321926368911341 1:0.45497337 2:0.37872183 3:0.72648647 4:0.80381102 5:0.7943981 6:0.72524003 7:0.80335998 8:0.065825053 9:0.17923254 10:0.42972093 11:0.58978018 12:0.46609256 13:0.17908772 14:0.1785551 15:0.44455683 16:0.66545611 17:0.45497337 18:0.16988645 19:0.20560838 20:0.16944021 21:0.15514985 22:0.24846627 23:0.52052129 24:0.4428158 25:0.41496253 26:0.39593338 27:0.52353606 28:0.053554932 29:0.11663541 30:0.1695898 31:0.23054029 32:0.071579514 33:0.10086892 34:0.22488903 35:0.2933846 36:0.36664697 37:0.13063699 
-4 1:0.83650913 2:0.82721698 3:0.72648647 4:0.80381102 5:0.7943981 6:0.72524003 7:0.80335998 8:0.48671544 9:0.67288302 10:0.76084199 11:0.75575825 12:0.76423868 13:0.67530055 14:0.79498915 15:0.85784068 16:0.87001216 17:0.83650917 18:0.37700918 19:0.39848253 20:0.16944021 21:0.15514985 22:0.61453321 23:0.52052129 24:0.4428158 25:0.41496253 26:0.39593338 27:0.52353606 28:0.17868729 29:0.3683404 30:0.43277634 31:0.47321743 32:0.22961608 33:0.28532884 34:0.62432789 35:0.72631368 36:0.79519974 37:0.36001847 
-3.8628621997202659 1:0.82332701 2:0.82076745 3:0.72648647 4:0.80381102 5:0.7943981 6:0.72524003 7:0.80335998 8:0.51165083 9:0.67793601 10:0.74724268 11:0.73899733 12:0.75374554 13:0.70484026 14:0.80144387 15:0.84113996 16:0.8495753 17:0.82332703 18:0.35610587 19:0.37901721 20:0.16944021 21:0.15514985 22:0.55040347 23:0.52052129 24:0.4428158 25:0.41496253 26:0.39593338 27:0.52353606 28:0.17004465 29:0.32136187 30:0.38116261 31:0.42571753 32:0.21193972 33:0.272722 34:0.55015764 35:0.64185157 36:0.71173504 37:0.33454635 
-4 1:0.90386106 2:0.92138153 3:0.72648647 4:0.80381102 5:0.7943981 6:0.72524003 7:0.80335998 8:0.65472641 9:0.7814162 10:0.80803146 11:0.77484677 12:0.81693907 13:0.87334642 14:0.93038352 15:0.9166544 16:0.89352526 17:0.90386109 18:0.53217869 19:0.54297747 20:0.16944021 21:0.15514985 22:0.81768189 23:0.52052129 24:0.4428158 25:0.41496253 26:0.39593338 27:0.52353606 28:0.3457423 29:0.52748096 30:0.53876827 31:0.53820585 32:0.39745957 33:0.53177947 34:0.87700407 35:0.90074273 36:0.91001682 37:0.60381852 
0.53607699687291976 1:0.34284853 2:0.29822378 3:0.59803132 4:0.82785165 5:1 6:1 7:1 8:0.1555961 9:0.15873205 10:0.32864123 11:0.64182096 12:0.46000331 13:0.38318366 14:0.14419551 15:0.24177061 16:0.56171511 17:0.34284855 18:0.094606859 19:0.14112703 20:0.85452707 21:1 22:0.16774778 23:0.86967467 24:0.84034587 25:0.77618298 26:0.72717243 27:0.90003324 28:0.047440392 29:0.11531408 30:0.18856434 31:0.28438496 32:0.067770396 33:0.056645922 34:0.12979392 35:0.19460586 36:0.28687227 37:0.076981974 
4 1:0.79163779 2:0.76103981 3:0.59803132 4:0.82785165 5:1 6:1 7:1 8:0.3638045 9:0.57584921 10:0.85336182 11:0.94566944 12:0.86485355 13:0.642645 14:0.65541519 15:0.79517769 16:0.86056729 17:0.79163778 18:0.29548681 19:0.32818787 20:0.85452707 21:1 22:0.61694279 23:0.86967467 24:0.84034587 25:0.77618298 26:0.72717243 27:0.90003324 28:0.27169434 29:0.54459404 30:0.63782321 31:0.67729693 32:0.34589363 33:0.30244091 34:0.61433293 35:0.72652525 36:0.79644369 37:0.37451666 
-0.44848891012822961 1:0.86573837 2:0.86260091 3:0.59803132 4:0.82785165 5:1 6:1 7:1 8:0.46344956 9:0.72137582 10:0.93418946 11:0.96560358 12:0.93160641 13:0.76681593 14:0.83366418 15:0.88042049 16:0.88029997 17:0.86573834 18:0.41483057 19:0.43932162 20:0.85452707 21:1 22:0.74443903 23:0.86967467 24:0.84034587 25:0.77618298 26:0.72717243 27:0.90003324 28:0.4185845 29:0.69145894 30:0.72544719 31:0.72615713 32:0.49433085 33:0.46348271 34:0.78007326 35:0.83033312 36:0.8598666 37:0.53337554 
-0.93268015780223912 1:0.78981702 2:0.7736583 3:0.59803132 4:0.82785165 5:1 6:1 7:1 8:0.39663047 9:0.61844483 10:0.8534436 11:0.92387372 12:0.86323615 13:0.68355276 14:0.70749547 15:0.79525655 16:0.83909746 17:0.78981704 18:0.26929656 19:0.30379932 20:0.85452707 21:1 22:0.50116058 23:0.86967467 24:0.84034587 25:0.77618298 26:0.72717243 27:0.90003324 28:0.23259483 29:0.4306605 30:0.51399706 31:0.57001692 32:0.28843579 33:0.25940689 34:0.48542651 35:0.57965486 36:0.65703892 37:0.31285122 
-4 1:0.89145927 2:0.90014244 3:0.59803132 4:0.82785165 5:1 6:1 7:1 8:0.51935878 9:0.77037356 10:0.95594481 11:0.97473755 12:0.95470963 13:0.83651074 14:0.89374201 15:0.90347982 16:0.88938678 17:0.89145927 18:0.46547762 19:0.48648451 20:0.85452707 21:1 22:0.78911421 23:0.86967467 24:0.84034587 25:0.77618298 26:0.72717243 27:0.90003324 28:0.47609203 29:0.73418827 30:0.75528087 31:0.74612224 32:0.54975791 33:0.52660907 34:0.82838324 35:0.86578325 36:0.88589168 37:0.59278764 
-4 1:0.35863785 2:0.31093088 3:0.59803132 4:0.82785165 5:1 6:1 7:1 8:0.14138172 9:0.16407452 10:0.36445852 11:0.64767701 12:0.47477512 13:0.36544744 14:0.15073182 15:0.27903321 16:0.56638772 17:0.35863784 18:0.079060446 19:0.1266501 20:0.85452707 21:1 22:0.17559555 23:0.86967467 24:0.84034587 25:0.77618298 26:0.72717243 27:0.90003324 28:0.0612808 29:0.1309055 30:0.19871429 31:0.27576481 32:0.081989789 33:0.07160364 34:0.14657877 35:0.20527112 36:0.27386091 37:0.09186925 
4 1:0.34371567 2:0.35183933 3:0.59803132 4:0.82785165 5:1 6:1 7:1 8:0.22372099 9:0.31213038 10:0.43862412 11:0.51180072 12:0.4619987 13:0.46774352 14:0.33182107 15:0.35649438 16:0.43139775 17:0.34371568 18:0.011336148 19:0.063584757 20:0.85452707 21:1 22:0.15000578 23:0.86967467 24:0.84034587 25:0.77618298 26:0.72717243 27:0.90003324 28:0.082197389 29:0.13982315 30:0.16833403 31:0.19560614 32:0.09834574 33:0.094887635 34:0.15713968 35:0.16945358 36:0.16943573 37:0.10976262 
-4 1:0.76848341 2:0.75026306 3:0.59803132 4:0.82785165 5:1 6:1 7:1 8:0.38236391 9:0.59410789 10:0.8295919 11:0.90937612 12:0.84330998 13:0.66575245 14:0.67812203 15:0.77088957 16:0.82540859 17:0.76848339 18:0.24967283 19:0.28552556 20:0.85452707 21:1 22:0.48141356 23:0.86967467 24:0.84034587 25:0.77618298 26:0.72717243 27:0.90003324 28:0.22279144 29:0.41198054 30:0.49310626 31:0.54979432 32:0.27620654 33:0.2492361 34:0.46570422 35:0.55637812 36:0.63217238 37:0.3004853 
4 1:0.88247695 2:0.8893852 3:0.59803132 4:0.82785165 5:1 6:1 7:1 8:0.51134002 9:0.75761162 10:0.9453402 11:0.97047065 12:0.94649996 13:0.82650153 14:0.87815245 15:0.89242647 16:0.88529934 17:0.88247697 18:0.4461049 19:0.4684445 20:0.85452707 21:1 22:0.77220626 23:0.86967467 24:0.84034587 25:0.77618298 26:0.72717243 27:0.90003324 28:0.45802525 29:0.7137486 30:0.74263389 31:0.7392738 32:0.5310099 33:0.50708884 34:0.80569122 35:0.85107619 36:0.87717906 37:0.57303171 
-4 1:0.65415855 2:0.6053909 3:0.59803132 4:0.82785165 5:1 6:1 7:1 8:0.25736655 9:0.40857999 10:0.70207105 11:0.86665984 12:0.74176153 13:0.50988822 14:0.449852 15:0.63449426 16:0.78193366 17:0.65415851 18:0.12626999 19:0.17061197 20:0.85452707 21:1 22:0.2732818 23:0.86967467 24:0.84034587 25:0.77618298 26:0.72717243 27:0.90003324 28:0.10310052 29:0.21374968 30:0.29616065 31:0.37772883 32:0.13521406 33:0.11734652 34:0.23992717 35:0.32055928 36:0.40618766 37:0.14869784 
-4 1:0.88818097 2:0.87319938 3:0.59803132 4:0.82785165 5:1 6:1 7:1 8:0.44005541 9:0.7089474 10:0.9548716 11:1 12:0.95193758 13:0.73766718 14:0.8183206 15:0.9022251 16:0.91422877 17:0.88818097 18:0.25395449 19:0.28951268 20:0.85452707 21:1 22:0.70823479 23:0.86967467 24:0.84034587 25:0.77618298 26:0.72717243 27:0.90003324 28:0.35671505 29:0.64831762 30:0.70679816 31:0.72602178 32:0.43597586 33:0.39549027 34:0.73150246 35:0.80852125 36:0.86002924 37:0.47079807 
-0.83549592576668374 1:0.16216199 2:0.14981873 3:0.59803132 4:0.82785165 5:1 6:1 7:1 8:0.11601151 9:0.1018315 10:0.19898642 11:0.42248923 12:0.29740403 13:0.3338486 14:0.074578851 15:0.10456531 16:0.34461784 17:0.162162 19:0.053028455 20:0.85452707 21:1 22:0.029725666 23:0.86967467 24:0.84034587 25:0.77618298 26:0.72717243 27:0.90003324 28:0.018675068 29:0.026675686 30:0.051334351 31:0.088693627 32:0.021476974 33:0.02503049 34:0.029225541 35:0.031009805 36:0.031382004 37:0.027293423 
-4 1:0.8084804 2:0.79508727 3:0.59803132 4:0.82785165 5:1 6:1 7:1 8:0.41469041 9:0.6400413 10:0.87380089 11:0.93472166 12:0.87995423 13:0.70607191 14:0.73400572 15:0.81680702 16:0.84997312 17:0.80848041 18:0.31050477 19:0.34217269 20:0.85452707 21:1 22:0.62395076 23:0.86967467 24:0.84034587 25:0.77618298 26:0.72717243 27:0.90003324 28:0.30393163 29:0.56195104 30:0.63069392 31:0.65982485 32:0.37453307 33:0.33772761 34:0.63411773 35:0.71836828 36:0.77399786 37:0.40515322 
-4 1:0.76439223 2:0.74469884 3:0.59803132 4:0.82785165 5:1 6:1 7:1 8:0.38337409 9:0.58454655 10:0.81941388 11:0.91190816 12:0.83963596 13:0.66703898 14:0.66646091 15:0.76015247 16:0.82773582 17:0.76439224 18:0.2711525 19:0.30552758 20:0.85452707 21:1 22:0.52927818 23:0.86967467 24:0.84034587 25:0.77618298 26:0.72717243 27:0.90003324 28:0.24027985 29:0.4584002 30:0.54290225 31:0.59566501 32:0.30087801 33:0.26851043 34:0.51802946 35:0.6150675 36:0.69128548 37:0.32695185 
-4 1:0.59375776 2:0.55507004 3:0.59803132 4:0.82785165 5:1 6:1 7:1 8:0.25065831 9:0.38661372 10:0.64502107 11:0.80073328 12:0.68640889 13:0.50165333 14:0.42329148 15:0.57549712 16:0.71808738 17:0.59375774 18:0.10943851 19:0.15493837 20:0.85452707 21:1 22:0.30504997 23:0.86967467 24:0.84034587 25:0.77618298 26:0.72717243 27:0.90003324 28:0.11548966 29:0.24910052 30:0.3309657 31:0.39704308 32:0.15294743 33:0.13119125 34:0.28104788 35:0.3636139 36:0.43329451 37:0.16810857 
-4 1:0.76372727 2:0.74179736 3:0.59803132 4:0.82785165 5:1 6:1 7:1 8:0.38059958 9:0.57680164 10:0.81544428 11:0.91767202 12:0.83969599 13:0.66358634 14:0.65648396 15:0.75525791 16:0.83300099 17:0.76372727 18:0.24454369 19:0.28074927 20:0.85452707 21:1 22:0.54021662 23:0.86967467 24:0.84034587 25:0.77618298 26:0.72717243 27:0.90003324 28:0.2345723 29:0.46501941 30:0.5564503 31:0.61879547 32:0.29818623 33:0.26176205 34:0.52477701 35:0.63039781 36:0.72056686 37:0.32352532 
-4 1:0.79614741 2:0.78441943 3:0.59803132 4:0.82785165 5:1 6:1 7:1 8:0.41300473 9:0.6358899 10:0.85892254 11:0.92371671 12:0.86884413 13:0.70395608 14:0.72892711 15:0.80108799 16:0.83905572 17:0.7961474 18:0.28564344 19:0.31902165 20:0.85452707 21:1 22:0.53940124 23:0.86967467 24:0.84034587 25:0.77618298 26:0.72717243 27:0.90003324 28:0.26567314 29:0.47042223 30:0.54602336 31:0.5927507 32:0.32364125 33:0.29578171 34:0.53052788 35:0.61781043 36:0.68674973 37:0.35065863 
-4 1:0.88962905 2:0.89888246 3:0.59803132 4:0.82785165 5:1 6:1 7:1 8:0.52116683 9:0.76985109 10:0.95368176 11:0.97295391 12:0.95309731 13:0.83875156 14:0.89306024 15:0.90104673 16:0.88761407 17:0.88962905 18:0.46647722 19:0.48741535 20:0.85452707 21:1 22:0.79381215 23:0.86967467 24:0.84034587 25:0.77618298 26:0.72717243 27:0.90003324 28:0.48521209 29:0.73834613 30:0.7573118 31:0.74716028 32:0.55796705 33:0.53651996 34:0.83290124 35:0.86804497 36:0.88713104 37:0.60147143 
4 1:0.77576575 2:0.75785514 3:0.59803132 4:0.82785165 5:1 6:1 7:1 8:0.38569622 9:0.60155375 10:0.83809519 11:0.9150598 12:0.85036078 13:0.66993699 14:0.68693538 15:0.77931735 16:0.83060279 17:0.77576581 18:0.26096162 19:0.29603776 20:0.85452707 21:1 22:0.48523773 23:0.86967467 24:0.84034587 25:0.77618298 26:0.72717243 27:0.90003324 28:0.22491204 29:0.41535022 30:0.49765608 31:0.55506008 32:0.27874893 33:0.25120468 34:0.46860244 35:0.56077399 36:0.63807062 37:0.30275136 
-4 1:0.88406019 2:0.8905129 3:0.59803132 4:0.82785165 5:1 6:1 7:1 8:0.50781998 9:0.75895899 10:0.94900097 11:0.97125461 12:0.9481255 13:0.82211882 14:0.87968543 15:0.8960673 16:0.88589576 17:0.88406021 18:0.45420275 19:0.47598527 20:0.85452707 21:1 22:0.78018912 23:0.86967467 24:0.84034587 25:0.77618298 26:0.72717243 27:0.90003324 28:0.46587242 29:0.72454307 30:0.74920477 31:0.74256119 32:0.53952699 33:0.515241 34:0.8172719 35:0.85841521 36:0.88114746 37:0.58166072 
0.016828342766842259 1:0.94160754 2:0.97500852 3:0.59803132 4:0.82785165 5:1 6:1 7:1 8:0.65056252 9:0.85719804 10:1 11:0.99252029 12:1 13:1 14:1 15:0.94987431 16:0.9068818 17:0.94160754 18:0.61683819 19:0.62743255 20:0.85452707 21:1 22:0.99999967 23:0.86967467 24:0.84034587 25:0.77618298 26:0.72717243 27:0.90003324 28:0.90855967 29:0.8868702 30:0.83819828 31:0.7931357 32:0.93089146 33:0.99999989 34:0.99999982 35:0.96355674 36:0.9466477 37:1 
4 1:0.4262575 2:0.36329185 3:0.59803132 4:0.82785165 5:1 6:1 7:1 8:0.11924692 9:0.18642748 10:0.43335669 11:0.71995706 12:0.53563395 13:0.3378726 14:0.17793794 15:0.35191038 16:0.6382571 17:0.42625751 18:0.10566289 19:0.15142249 20:0.85452707 21:1 22:0.16847173 23:0.86967467 24:0.84034587 25:0.77618298 26:0.72717243 27:0.90003324 28:0.052759954 29:0.1189484 30:0.18970423 31:0.27913723 32:0.072698394 33:0.062306324 34:0.13340517 35:0.19520336 36:0.2791883 37:0.082022651 
4 1:0.762886 2:0.72585963 3:0.59803132 4:0.82785165 5:1 6:1 7:1 8:0.30914146 9:0.53617592 10:0.85177363 11:0.91404611 12:0.83894182 13:0.57453307 14:0.6065919 15:0.79361728 16:0.82968651 17:0.76288603 18:0.27615291 19:0.310184 20:0.85452707 21:1 22:0.53874748 23:0.86967467 24:0.84034587 25:0.77618298 26:0.72717243 27:0.90003324 28:0.22590297 29:0.47756643 30:0.56100558 31:0.60756549 32:0.29334496 33:0.25185271 34:0.53824585 35:0.63549255 36:0.70606715 37:0.31788914 
4 1:0.75414782 2:0.73091163 3:0.59803132 4:0.82785165 5:1 6:1 7:1 8:0.35190253 9:0.57196568 10:0.82054596 11:0.89993613 12:0.8302232 13:0.6278373 14:0.6510306 15:0.76157988 16:0.81635461 17:0.75414779 18:0.24383916 19:0.2800932 20:0.85452707 21:1 22:0.46450236 23:0.86967467 24:0.84034587 25:0.77618298 26:0.72717243 27:0.90003324 28:0.20961286 29:0.39646191 30:0.47797249 31:0.5363377 32:0.26208792 33:0.2348702 34:0.44847698 35:0.53879089 36:0.61503018 37:0.28549468 
4 1:0.88233164 2:0.88852974 3:0.59803132 4:0.82785165 5:1 6:1 7:1 8:0.50703221 9:0.75639341 10:0.946819 11:0.97008798 12:0.94635147 13:0.82112997 14:0.87669058 15:0.89398976 16:0.88490384 17:0.88233165 18:0.44869815 19:0.47085935 20:0.85452707 21:1 22:0.77450036 23:0.86967467 24:0.84034587 25:0.77618298 26:0.72717243 27:0.90003324 28:0.46257395 29:0.71701766 30:0.74324931 31:0.73849192 32:0.53527644 33:0.51219528 34:0.80945661 35:0.85185175 36:0.8761988 37:0.57771319 
4 1:0.76680747 2:0.74644966 3:0.59803132 4:0.82785165 5:1 6:1 7:1 8:0.37265206 9:0.58829588 10:0.82961492 11:0.91046842 12:0.84232764 13:0.65368299 14:0.6706585 15:0.77031353 16:0.82605186 17:0.7668075 18:0.2559696 19:0.29138916 20:0.85452707 21:1 22:0.47191051 23:0.86967467 24:0.84034587 25:0.77618298 26:0.72717243 27:0.90003324 28:0.21675445 29:0.40231823 30:0.48537183 31:0.54458995 32:0.26928218 33:0.242205 34:0.4537372 35:0.54603027 36:0.62426884 37:0.2925467 
4 1:0.89251543 2:0.90143014 3:0.59803132 4:0.82785165 5:1 6:1 7:1 8:0.52162848 9:0.77125463 10:0.95673814 11:0.9757365 12:0.95573774 13:0.83933014 14:0.89474673 15:0.90423882 16:0.89033741 17:0.89251545 18:0.47670851 19:0.49694279 20:0.85452707 21:1 22:0.80624911 23:0.86967467 24:0.84034587 25:0.77618298 26:0.72717243 27:0.90003324 28:0.49486109 29:0.75264105 30:0.76800282 31:0.75452382 32:0.56875891 33:0.54703292 34:0.84892052 35:0.88063303 36:0.89664633 37:0.61294516 
1.698061016238098 1:0.43204308 2:0.39446508 3:0.66122728 4:0.73832712 5:0.71285191 6:0.57638441 7:0.68911894 8:0.22083089 9:0.20401143 10:0.32674683 11:0.48313954 12:0.39247245 13:0.41477745 14:0.24318258 15:0.35904147 16:0.63691904 17:0.43204307 18:0.20664814 19:0.24034322 20:0.33667318 21:0.44010164 22:0.39196674 23:0.21844429 24:0.1943355 25:0.19706803 26:0.19357836 27:0.21949959 28:0.086739557 29:0.13375863 30:0.1729429 31:0.22085351 32:0.1014726 33:0.23404253 34:0.37297724 35:0.43481114 36:0.50579945 37:0.26911207 
-4 1:0.82824944 2:0.81858658 3:0.66122728 4:0.73832712 5:0.71285191 6:0.57638441 7:0.68911894 8:0.44125203 9:0.60320403 10:0.69552566 11:0.65020837 12:0.67633095 13:0.6801147 14:0.76349047 15:0.85112398 16:0.87359852 17:0.82824944 18:0.41882335 19:0.43792229 20:0.33667318 21:0.44010164 22:0.73316409 23:0.21844429 24:0.1943355 25:0.19706803 26:0.19357836 27:0.21949959 28:0.19334213 29:0.31528957 30:0.35168262 31:0.37541188 32:0.22804633 33:0.45809232 34:0.758426 35:0.81807939 36:0.85501027 37:0.52706117 
-4 1:0.83172038 2:0.8393117 3:0.66122728 4:0.73832712 5:0.71285191 6:0.57638441 7:0.68911894 8:0.51469489 9:0.65477784 10:0.69185416 11:0.63121177 12:0.67862599 13:0.76875702 14:0.8309383 15:0.84648021 16:0.84705626 17:0.83172038 18:0.38527318 19:0.40668013 20:0.33667318 21:0.44010164 22:0.61639825 23:0.21844429 24:0.1943355 25:0.19706803 26:0.19357836 27:0.21949959 28:0.17144678 29:0.25469587 30:0.28554704 31:0.31188579 32:0.19651206 33:0.41141757 34:0.62919135 35:0.67582657 36:0.711128 37:0.46216551 
0.4706208852632302 1:0.90538752 2:0.92593967 3:0.66122728 4:0.73832712 5:0.71285191 6:0.57638441 7:0.68911894 8:0.61331302 9:0.73618804 10:0.74646232 11:0.6626885 12:0.73141752 13:0.88829947 14:0.93837922 15:0.91942356 16:0.8913648 17:0.90538752 18:0.55390488 19:0.56371116 20:0.33667318 21:0.44010164 22:0.8276949 23:0.21844429 24:0.1943355 25:0.19706803 26:0.19357836 27:0.21949959 28:0.26793682 29:0.36566795 30:0.38167603 31:0.39167628 32:0.29861572 33:0.61422659 34:0.86515678 35:0.88228483 36:0.89169869 37:0.67037375 
4 1:0.37645784 2:0.35496002 3:0.66122728 4:0.73832712 5:0.71285191 6:0.57638441 7:0.68911894 8:0.21210535 9:0.21802113 10:0.32678364 11:0.39793398 12:0.35239472 13:0.40394512 14:0.26040524 15:0.35915649 16:0.51850487 17:0.37645785 18:0.12441136 19:0.16376375 20:0.33667318 21:0.44010164 22:0.30361534 23:0.21844429 24:0.1943355 25:0.19706803 26:0.19357836 27:0.21949959 28:0.078962474 29:0.10159449 30:0.12225888 31:0.14980548 32:0.086797588 33:0.21775595 34:0.30483806 35:0.32639563 36:0.34567881 37:0.23927857 
-4 1:0.69158427 2:0.68840401 3:0.66122728 4:0.73832712 5:0.71285191 6:0.57638441 7:0.68911894 8:0.40156034 9:0.51905672 10:0.58666499 11:0.55566729 12:0.57740615 13:0.63210989 14:0.65350792 15:0.70789541 16:0.74237427 17:0.69158426 18:0.24883972 19:0.27963233 20:0.33667318 21:0.44010164 22:0.54868281 23:0.21844429 24:0.1943355 25:0.19706803 26:0.19357836 27:0.21949959 28:0.14201371 29:0.22005565 30:0.25331312 31:0.28397158 32:0.16507164 33:0.34998156 34:0.55622344 35:0.60742733 36:0.64887687 37:0.39851988 
-4 1:0.77558532 2:0.77639565 3:0.66122728 4:0.73832712 5:0.71285191 6:0.57638441 7:0.68911894 8:0.4576731 9:0.59769307 10:0.64902199 11:0.60360206 12:0.63805232 13:0.69939159 14:0.75544672 15:0.78997112 16:0.80869506 17:0.77558531 18:0.31646933 19:0.34260949 20:0.33667318 21:0.44010164 22:0.53753877 23:0.21844429 24:0.1943355 25:0.19706803 26:0.19357836 27:0.21949959 28:0.14388682 29:0.21408181 30:0.24559366 31:0.2756098 32:0.16516393 33:0.35373698 34:0.54344968 35:0.59073616 36:0.62978532 37:0.39856118 
-4 1:0.80317401 2:0.78275173 3:0.66122728 4:0.73832712 5:0.71285191 6:0.57638441 7:0.68911894 8:0.37545967 9:0.55233202 10:0.69388291 11:0.6396228 12:0.65824509 13:0.60119878 14:0.69733278 15:0.84898118 16:0.85903486 17:0.80317399 18:0.21641412 19:0.24943738 20:0.33667318 21:0.44010164 22:0.53625506 23:0.21844429 24:0.1943355 25:0.19706803 26:0.19357836 27:0.21949959 28:0.13283327 29:0.21370831 30:0.24910981 31:0.28195555 32:0.15633999 33:0.33060832 34:0.54237162 35:0.59789913 36:0.64372373 37:0.38058656 
4 1:0.92701902 2:0.91915916 3:0.66122728 4:0.73832712 5:0.71285191 6:0.57638441 7:0.68911894 8:0.47856335 9:0.68549884 10:0.78309259 11:0.70253977 12:0.7470109 13:0.72585104 14:0.87229023 15:0.96813826 16:0.94769934 17:0.92701902 18:0.26793776 19:0.29741656 20:0.33667318 21:0.44010164 22:0.81871796 23:0.21844429 24:0.1943355 25:0.19706803 26:0.19357836 27:0.21949959 28:0.22640426 29:0.36700289 30:0.39169424 31:0.40638856 32:0.26569252 33:0.52748471 34:0.86811692 35:0.90387225 36:0.92505886 37:0.60367825 
-4 1:0.22006287 2:0.20584348 3:0.66122728 4:0.73832712 5:0.71285191 6:0.57638441 7:0.68911894 8:0.16869104 9:0.13435786 10:0.17991446 11:0.30199251 12:0.2401945 13:0.35148204 14:0.15158041 15:0.16379685 16:0.38225383 17:0.22006282 18:0.058383892 19:0.10227851 20:0.33667318 21:0.44010164 22:0.25103756 23:0.21844429 24:0.1943355 25:0.19706803 26:0.19357836 27:0.21949959 28:0.070056297 29:0.080221496 30:0.093169938 31:0.11349548 32:0.074321069 33:0.19902543 34:0.25937074 35:0.26386958 36:0.26344627 37:0.21384131 
-4 1:0.82743578 2:0.82954996 3:0.66122728 4:0.73832712 5:0.71285191 6:0.57638441 7:0.68911894 8:0.4947073 9:0.63362712 10:0.69010826 11:0.63587199 12:0.67562934 13:0.74421479 14:0.80279316 15:0.84422464 16:0.85348415 17:0.82743578 18:0.39853069 19:0.41902562 20:0.33667318 21:0.44010164 22:0.71571401 23:0.21844429 24:0.1943355 25:0.19706803 26:0.19357836 27:0.21949959 28:0.19688894 29:0.30792597 30:0.33881576 31:0.36065531 32:0.22897658 33:0.4649734 34:0.74239791 35:0.79028699 36:0.8215719 37:0.52843933 
-4 1:0.82356713 2:0.82689188 3:0.66122728 4:0.73832712 5:0.71285191 6:0.57638441 7:0.68911894 8:0.49811373 9:0.6356298 10:0.68298944 11:0.63365458 12:0.6727314 13:0.74856709 14:0.805609 15:0.83483779 16:0.85051706 17:0.82356713 18:0.4167202 19:0.43596382 20:0.33667318 21:0.44010164 22:0.67306137 23:0.21844429 24:0.1943355 25:0.19706803 26:0.19357836 27:0.21949959 28:0.18358247 29:0.28305547 30:0.31705249 31:0.34341607 32:0.21284703 33:0.43657015 34:0.68932394 35:0.7433966 36:0.78241255 37:0.4951665 
4 1:0.39452356 2:0.36551466 3:0.66122728 4:0.73832712 5:0.71285191 6:0.57638441 7:0.68911894 8:0.19804442 9:0.20650572 10:0.33420855 11:0.42458774 12:0.36522787 13:0.38696432 14:0.24552778 15:0.36947638 16:0.55705881 17:0.39452353 18:0.13199085 19:0.17082183 20:0.33667318 21:0.44010164 22:0.36182295 23:0.21844429 24:0.1943355 25:0.19706803 26:0.19357836 27:0.21949959 28:0.089787996 29:0.12660852 30:0.15437198 31:0.18842666 32:0.10160304 33:0.24022136 34:0.35757678 35:0.39500463 36:0.43292752 37:0.26909889 
4 1:0.73027263 2:0.71488517 3:0.66122728 4:0.73832712 5:0.71285191 6:0.57638441 7:0.68911894 8:0.3861387 9:0.51135296 10:0.6072313 11:0.60411061 12:0.60587277 13:0.6133919 14:0.64298027 15:0.73379706 16:0.80879813 17:0.73027265 18:0.3029459 19:0.33001638 20:0.33667318 21:0.44010164 22:0.65357699 23:0.21844429 24:0.1943355 25:0.19706803 26:0.19357836 27:0.21949959 28:0.16678193 29:0.26867383 30:0.31006759 31:0.34552637 32:0.19649087 33:0.40188316 34:0.6592239 35:0.72879903 36:0.7875215 37:0.46240716 
-4 1:0.83233711 2:0.8420176 3:0.66122728 4:0.73832712 5:0.71285191 6:0.57638441 7:0.68911894 8:0.52890639 9:0.65755425 10:0.69055815 11:0.63033576 12:0.67902305 13:0.78603508 14:0.83473611 15:0.84488357 16:0.84580856 17:0.83233713 18:0.38735021 19:0.40861427 20:0.33667318 21:0.44010164 22:0.63052259 23:0.21844429 24:0.1943355 25:0.19706803 26:0.19357836 27:0.21949959 28:0.1807854 29:0.26145602 30:0.29089418 31:0.31589944 32:0.20551195 33:0.43097706 34:0.64361484 35:0.68739507 36:0.72031065 37:0.48047155 
4 1:0.90417107 2:0.9247811 3:0.66122728 4:0.73832712 5:0.71285191 6:0.57638441 7:0.68911894 8:0.61456988 9:0.73454272 10:0.74504522 11:0.66233764 12:0.73056634 13:0.88976994 14:0.93621387 15:0.91751736 16:0.89084505 17:0.90417107 18:0.55905572 19:0.56850766 20:0.33667318 21:0.44010164 22:0.83450672 23:0.21844429 24:0.1943355 25:0.19706803 26:0.19357836 27:0.21949959 28:0.27330843 29:0.36881649 30:0.38397097 31:0.39338331 32:0.30362758 33:0.62532835 34:0.87171039 35:0.88711329 36:0.89548841 37:0.68041926 
-4 1:0.82186608 2:0.82902669 3:0.66122728 4:0.73832712 5:0.71285191 6:0.57638441 7:0.68911894 8:0.51226418 9:0.64332039 10:0.68417911 11:0.62625363 12:0.67156574 13:0.76589575 14:0.81605362 15:0.83622411 16:0.83999644 17:0.82186608 18:0.37277114 19:0.39503814 20:0.33667318 21:0.44010164 22:0.60096432 23:0.21844429 24:0.1943355 25:0.19706803 26:0.19357836 27:0.21949959 28:0.16727829 29:0.24623959 30:0.27717429 31:0.30436064 32:0.19125795 33:0.4029048 34:0.61148496 35:0.65806477 36:0.69426704 37:0.45170996 
4 1:0.90038285 2:0.91992211 3:0.66122728 4:0.73832712 5:0.71285191 6:0.57638441 7:0.68911894 8:0.60577665 9:0.73052935 10:0.7425354 11:0.66088055 12:0.7278551 13:0.87919091 14:0.93100492 15:0.91414611 16:0.88875116 17:0.9003828 18:0.54537268 19:0.55576592 20:0.33667318 21:0.44010164 22:0.81344511 23:0.21844429 24:0.1943355 25:0.19706803 26:0.19357836 27:0.21949959 28:0.25961652 29:0.35798688 30:0.37601188 31:0.38762204 32:0.29027272 33:0.59672598 34:0.84877498 35:0.87006031 36:0.88246334 37:0.65333887 
-4 1:0.94160754 2:0.97500852 3:0.66122728 4:0.73832712 5:0.71285191 6:0.57638441 7:0.68911894 8:0.70549973 9:0.7829349 10:0.7692293 11:0.67369272 12:0.75737397 13:1 14:1 15:0.94987431 16:0.9068818 17:0.94160754 18:0.67919092 19:0.68037841 20:0.33667318 21:0.44010164 22:0.99999677 23:0.21844429 24:0.1943355 25:0.19706803 26:0.19357836 27:0.21949959 28:0.45163566 29:0.42911119 30:0.41954412 31:0.41598086 32:0.46042788 33:0.99999863 34:0.99999698 35:0.96355315 36:0.94664393 37:0.99999829 
-4 1:0.43650236 2:0.38277103 3:0.66122728 4:0.73832712 5:0.71285191 6:0.57638441 7:0.68911894 8:0.11474863 9:0.17989145 10:0.35991223 11:0.48723301 12:0.39542377 13:0.28564895 14:0.21048772 15:0.40364466 16:0.64398507 17:0.43650236 18:0.19572529 19:0.23017179 20:0.33667318 21:0.44010164 22:0.34406046 23:0.21844429 24:0.1943355 25:0.19706803 26:0.19357836 27:0.21949959 28:0.071590661 29:0.11493344 30:0.14967154 31:0.19084735 32:0.084671222 33:0.20210302 34:0.3329894 35:0.3850318 36:0.43829671 37:0.23478236 
-4 1:0.78297866 2:0.76480924 3:0.66122728 4:0.73832712 5:0.71285191 6:0.57638441 7:0.68911894 8:0.3599443 9:0.55470878 10:0.67886568 11:0.62154732 12:0.64396591 13:0.58201662 14:0.70034599 15:0.8289486 16:0.83291598 17:0.78297866 18:0.39451626 19:0.41528735 20:0.33667318 21:0.44010164 22:0.6438742 23:0.21844429 24:0.1943355 25:0.19706803 26:0.19357836 27:0.21949959 28:0.15285907 29:0.27366718 30:0.3098644 31:0.33786589 32:0.18593978 33:0.37270661 34:0.66954288 35:0.72803853 36:0.76991717 37:0.44089511 
-4 1:0.80348543 2:0.79856657 3:0.66122728 4:0.73832712 5:0.71285191 6:0.57638441 7:0.68911894 8:0.42331688 9:0.61271444 10:0.68254819 11:0.62093365 12:0.65828954 13:0.65858435 14:0.77591518 15:0.83431079 16:0.83274634 17:0.80348539 18:0.36643295 19:0.38913597 20:0.33667318 21:0.44010164 22:0.59853846 23:0.21844429 24:0.1943355 25:0.19706803 26:0.19357836 27:0.21949959 28:0.15824382 29:0.24738729 30:0.27887071 31:0.30640229 32:0.184209 33:0.38377001 34:0.6138586 35:0.66179429 36:0.69907095 37:0.43719009 
4 1:0.89635688 2:0.91499472 3:0.66122728 4:0.73832712 5:0.71285191 6:0.57638441 7:0.68911894 8:0.59973855 9:0.72556326 10:0.73935874 11:0.65946996 12:0.72493545 13:0.87186121 14:0.92441712 15:0.90997735 16:0.88683226 17:0.89635689 18:0.54237175 19:0.55297143 20:0.33667318 21:0.44010164 22:0.82172708 23:0.21844429 24:0.1943355 25:0.19706803 26:0.19357836 27:0.21949959 28:0.26441092 29:0.36204196 30:0.37925074 31:0.39040199 32:0.29502099 33:0.60673046 34:0.85749101 35:0.8771426 36:0.88888199 37:0.66299118 
-4 1:0.83460669 2:0.84301261 3:0.66122728 4:0.73832712 5:0.71285191 6:0.57638441 7:0.68911894 8:0.52154548 9:0.65734248 10:0.69364659 11:0.63261032 12:0.68071828 13:0.77723208 14:0.83464073 15:0.84887273 16:0.84882917 17:0.8346067 18:0.3926898 19:0.41358654 20:0.33667318 21:0.44010164 22:0.62374541 23:0.21844429 24:0.1943355 25:0.19706803 26:0.19357836 27:0.21949959 28:0.1759686 29:0.25788725 30:0.28829428 31:0.31422075 32:0.20086683 33:0.42120576 34:0.63628919 35:0.68198023 36:0.71661355 37:0.4713398 
4 1:0.89885805 2:0.91804565 3:0.66122728 4:0.73832712 5:0.71285191 6:0.57638441 7:0.68911894 8:0.6045656 9:0.72782549 10:0.74114554 11:0.66065836 12:0.72675965 13:0.87776647 14:0.92747938 15:0.91229864 16:0.88843441 17:0.89885808 18:0.54863683 19:0.55880551 20:0.33667318 21:0.44010164 22:0.82805489 23:0.21844429 24:0.1943355 25:0.19706803 26:0.19357836 27:0.21949959 28:0.26772232 29:0.36505892 30:0.38202314 31:0.39272911 32:0.2983641 33:0.61387625 34:0.86390866 35:0.88304468 36:0.89407834 37:0.66994668 
-4 1:0.84181089 2:0.83975501 3:0.48419178 4:0.53222162 5:0.53895179 6:0.45773887 7:0.52560376 8:0.34654138 9:0.48462088 10:0.57675122 11:0.56183793 12:0.56827967 13:0.73094135 14:0.80040928 15:0.86552064 16:0.87027949 17:0.84181085 18:0.44719818 19:0.45145699 20:0.37892188 21:0.44313616 22:0.7024243 23:0.62540116 24:0.487048 25:0.42020042 26:0.36908582 27:0.61761298 28:0.23990029 29:0.47455085 30:0.4967535 31:0.49253976 32:0.30025629 33:0.33593364 34:0.75400017 35:0.82594183 36:0.86023795 37:0.41977895 
4 1:0.72157592 2:0.69930684 3:0.48419178 4:0.53222162 5:0.53895179 6:0.45773887 7:0.52560376 8:0.24411849 9:0.35424591 10:0.49592165 11:0.52207676 12:0.49419645 13:0.59650142 14:0.59626536 15:0.73616476 16:0.80557924 17:0.72157589 18:0.29766073 19:0.31220666 20:0.37892188 21:0.44313616 22:0.42012823 23:0.62540116 24:0.487048 25:0.42020042 26:0.36908582 27:0.61761298 28:0.10046411 29:0.23962451 30:0.30582768 31:0.35333553 32:0.13760653 33:0.14971049 34:0.39726791 35:0.51353695 36:0.60698408 37:0.20304805 
-4 1:0.86537069 2:0.87430725 3:0.48419178 4:0.53222162 5:0.53895179 6:0.45773887 7:0.52560376 8:0.40386256 9:0.52249699 10:0.5866206 11:0.56505387 12:0.58273633 13:0.80616335 14:0.85986129 15:0.88144155 16:0.87554864 17:0.86537065 18:0.48248604 19:0.4843173 20:0.37892188 21:0.44313616 22:0.74771039 23:0.62540116 24:0.487048 25:0.42020042 26:0.36908582 27:0.61761298 28:0.29819273 29:0.50582347 30:0.51445285 31:0.50325489 32:0.35376614 33:0.41379203 34:0.80166816 35:0.85502227 36:0.87980979 37:0.49113991 
-4 1:0.46160263 2:0.42290292 3:0.48419178 4:0.53222162 5:0.53895179 6:0.45773887 7:0.52560376 8:0.11776801 9:0.14866788 10:0.29967318 11:0.41265969 12:0.33370589 13:0.43070909 14:0.27450537 15:0.42321759 16:0.62834814 17:0.46160263 18:0.19935051 19:0.22065949 20:0.37892188 21:0.44313616 22:0.22588191 23:0.62540116 24:0.487048 25:0.42020042 26:0.36908582 27:0.61761298 28:0.043612907 29:0.10835687 30:0.16039932 31:0.2127755 32:0.061521046 33:0.073758142 34:0.19786947 35:0.27540863 36:0.35096999 37:0.10163616 
-4 1:0.49135931 2:0.45408239 3:0.48419178 4:0.53222162 5:0.53895179 6:0.45773887 7:0.52560376 8:0.12726604 9:0.16933342 10:0.32974323 11:0.42218623 12:0.35232922 13:0.44314614 14:0.30674725 15:0.47074549 16:0.64310984 17:0.49135932 18:0.16830146 19:0.1917464 20:0.37892188 21:0.44313616 22:0.19456329 23:0.62540116 24:0.487048 25:0.42020042 26:0.36908582 27:0.61761298 28:0.039760263 29:0.094679166 30:0.13754306 31:0.17875195 32:0.054741485 33:0.068610902 34:0.17707703 35:0.23795609 36:0.28898014 37:0.092597481 
4 1:0.70390648 2:0.67988335 3:0.48419178 4:0.53222162 5:0.53895179 6:0.45773887 7:0.52560376 8:0.23596895 9:0.33790846 10:0.47998172 11:0.51618906 12:0.4828174 13:0.58588536 14:0.57128994 15:0.71169496 16:0.79667824 17:0.70390648 18:0.28719135 19:0.3024575 20:0.37892188 21:0.44313616 22:0.42722782 23:0.62540116 24:0.487048 25:0.42020042 26:0.36908582 27:0.61761298 28:0.10134517 29:0.24205157 30:0.31082927 31:0.36172863 32:0.13903515 33:0.15082252 34:0.40099275 35:0.52181106 36:0.62235737 37:0.20489331 
0.53675616189311603 1:0.86532595 2:0.87365004 3:0.48419178 4:0.53222162 5:0.53895179 6:0.45773887 7:0.52560376 8:0.40397289 9:0.51990049 10:0.58603556 11:0.56624191 12:0.58269094 13:0.8063123 14:0.85582491 15:0.88055915 16:0.8774763 17:0.86532596 18:0.48663864 19:0.48818423 20:0.37892188 21:0.44313616 22:0.76605155 23:0.62540116 24:0.487048 25:0.42020042 26:0.36908582 27:0.61761298 28:0.32121926 29:0.51842373 30:0.52164819 31:0.50826358 32:0.37496239 33:0.44453252 34:0.82073612 35:0.86675819 36:0.88890418 37:0.51935935 
4 1:0.66986504 2:0.63360476 3:0.48419178 4:0.53222162 5:0.53895179 6:0.45773887 7:0.52560376 8:0.18676273 9:0.28211581 10:0.4619519 11:0.5118778 12:0.46251523 13:0.52119681 14:0.48315865 15:0.68152895 16:0.78856089 17:0.66986504 18:0.21023085 19:0.23079134 20:0.37892188 21:0.44313616 22:0.3454078 23:0.62540116 24:0.487048 25:0.42020042 26:0.36908582 27:0.61761298 28:0.071681734 29:0.18330162 30:0.2507223 31:0.30925054 32:0.10187813 33:0.11126853 34:0.31168057 35:0.42325355 36:0.52662345 37:0.15543655 
-4 1:0.84914763 2:0.83238919 3:0.48419178 4:0.53222162 5:0.53895179 6:0.45773887 7:0.52560376 8:0.29400328 9:0.45281519 10:0.589238 11:0.58037679 12:0.57318485 13:0.66189994 14:0.75026438 15:0.88506614 16:0.89933765 17:0.84914762 18:0.28050688 19:0.29623288 20:0.37892188 21:0.44313616 22:0.71970142 23:0.62540116 24:0.487048 25:0.42020042 26:0.36908582 27:0.61761298 28:0.2196707 29:0.48704007 30:0.51698415 31:0.51806496 32:0.28707364 33:0.3089768 34:0.77292249 35:0.85897953 36:0.90663483 37:0.40225226 
-4 1:0.16077425 2:0.1580221 3:0.48419178 4:0.53222162 5:0.53895179 6:0.45773887 7:0.52560376 8:0.091640951 9:0.069981382 10:0.097460033 11:0.19894706 12:0.14708257 13:0.39644191 14:0.15145801 15:0.10202243 16:0.2853434 17:0.16077423 18:0.060302226 19:0.091176742 20:0.37892188 21:0.44313616 22:0.054745528 23:0.62540116 24:0.487048 25:0.42020042 26:0.36908582 27:0.61761298 28:0.0088289485 29:0.013081359 30:0.032309549 31:0.057843287 32:0.010039188 33:0.027287382 34:0.053403484 35:0.066197004 36:0.06954271 37:0.033042333 
-4 1:0.77550854 2:0.76151461 3:0.48419178 4:0.53222162 5:0.53895179 6:0.45773887 7:0.52560376 8:0.28184726 9:0.41004939 10:0.53806837 11:0.53706036 12:0.52704365 13:0.64612957 14:0.68415317 15:0.80442233 16:0.83054995 17:0.77550854 18:0.35271896 19:0.36347727 20:0.37892188 21:0.44313616 22:0.61374189 23:0.62540116 24:0.487048 25:0.42020042 26:0.36908582 27:0.61761298 28:0.18332158 29:0.40379735 30:0.44171616 31:0.45152042 32:0.23953936 33:0.2603751 34:0.64676042 35:0.7361133 36:0.78579822 37:0.33889177 
-4 1:0.72547498 2:0.70652094 3:0.48419178 4:0.53222162 5:0.53895179 6:0.45773887 7:0.52560376 8:0.26254491 9:0.36425646 10:0.49371449 11:0.52331984 12:0.49681128 13:0.6206293 14:0.61175018 15:0.73225545 16:0.80725979 17:0.72547496 18:0.31080325 19:0.32444507 20:0.37892188 21:0.44313616 22:0.48160259 23:0.62540116 24:0.487048 25:0.42020042 26:0.36908582 27:0.61761298 28:0.12004654 29:0.28570442 30:0.35213613 31:0.39296131 32:0.16370682 33:0.17598106 34:0.46703421 35:0.58887999 36:0.67858251 37:0.23793327 
4 1:0.54706027 2:0.51398241 3:0.48419178 4:0.53222162 5:0.53895179 6:0.45773887 7:0.52560376 8:0.15496786 9:0.21474557 10:0.36964783 11:0.44402083 12:0.38548815 13:0.47957337 14:0.37844686 15:0.53701052 16:0.68121738 17:0.54706028 18:0.1896213 19:0.21159958 20:0.37892188 21:0.44313616 22:0.32954461 23:0.62540116 24:0.487048 25:0.42020042 26:0.36908582 27:0.61761298 28:0.067839174 29:0.18033227 30:0.24123593 31:0.28703086 32:0.097613915 33:0.10609329 34:0.30760107 35:0.40843383 36:0.48698065 37:0.14974509 
-4 1:0.72284941 2:0.7022547 3:0.48419178 4:0.53222162 5:0.53895179 6:0.45773887 7:0.52560376 8:0.25145368 9:0.35874365 10:0.49373032 11:0.52143309 12:0.49433342 13:0.60627683 14:0.60419273 15:0.73434968 16:0.80529503 17:0.72284942 18:0.29202849 19:0.30696188 20:0.37892188 21:0.44313616 22:0.54080114 23:0.62540116 24:0.487048 25:0.42020042 26:0.36908582 27:0.61761298 28:0.14406782 29:0.3350898 30:0.39182377 31:0.42544772 32:0.1936182 33:0.20793056 34:0.54256983 35:0.65465527 36:0.73849438 37:0.27770036 
4 1:0.74120853 2:0.72460859 3:0.48419178 4:0.53222162 5:0.53895179 6:0.45773887 7:0.52560376 8:0.27045937 9:0.38077808 10:0.5079093 11:0.52612017 12:0.50611436 13:0.63112346 14:0.63800786 15:0.75574959 16:0.81240378 17:0.74120853 18:0.31496118 19:0.32831696 20:0.37892188 21:0.44313616 22:0.46612278 23:0.62540116 24:0.487048 25:0.42020042 26:0.36908582 27:0.61761298 28:0.12036626 29:0.27489563 30:0.33834188 31:0.37960459 32:0.16140758 33:0.17627787 34:0.45082855 35:0.5667483 36:0.65478577 37:0.23475135 
4 1:0.86779834 2:0.87726167 3:0.48419178 4:0.53222162 5:0.53895179 6:0.45773887 7:0.52560376 8:0.40889299 9:0.52391856 10:0.58826385 11:0.56607053 12:0.58429569 13:0.81273865 14:0.86199921 15:0.88397713 16:0.8770991 17:0.8677983 18:0.48689583 19:0.48842373 20:0.37892188 21:0.44313616 22:0.75550676 23:0.62540116 24:0.487048 25:0.42020042 26:0.36908582 27:0.61761298 28:0.31115349 29:0.51092469 30:0.51644644 31:0.50409491 32:0.36525089 33:0.43111673 34:0.80934251 35:0.85822109 36:0.88129047 37:0.50644104 
1.9031168186002225 1:0.94160754 2:0.97500852 3:0.48419178 4:0.53222162 5:0.53895179 6:0.45773887 7:0.52560376 8:0.55160007 9:0.61196453 10:0.62947196 11:0.58439604 12:0.62975913 13:1 14:1 15:0.94987431 16:0.9068818 17:0.94160754 18:0.67150676 19:0.66033474 20:0.37892188 21:0.44313616 22:0.99999852 23:0.62540116 24:0.487048 25:0.42020042 26:0.36908582 27:0.61761298 28:0.73716986 29:0.6365254 30:0.5808511 31:0.54003317 32:0.7356501 33:0.99999997 34:0.9999986 35:0.96355501 36:0.94664599 37:0.99999999 
4 1:0.32877053 2:0.29212637 3:0.48419178 4:0.53222162 5:0.53895179 6:0.45773887 7:0.52560376 8:0.054559047 9:0.086195966 10:0.20695107 11:0.33684538 12:0.25173895 13:0.34773672 14:0.17654942 15:0.2752229 16:0.50559726 17:0.32877052 18:0.17053575 19:0.19382698 20:0.37892188 21:0.44313616 22:0.13498948 23:0.62540116 24:0.487048 25:0.42020042 26:0.36908582 27:0.61761298 28:0.018236195 29:0.05225017 30:0.091928008 31:0.14127306 32:0.027736732 33:0.039850899 34:0.11281353 35:0.16360668 36:0.22112459 37:0.056620093 
-4 1:0.69013488 2:0.65704881 3:0.48419178 4:0.53222162 5:0.53895179 6:0.45773887 7:0.52560376 8:0.17944867 9:0.30416327 10:0.49870799 11:0.50523993 12:0.47467731 13:0.51162502 14:0.51782728 15:0.74083877 16:0.77879098 17:0.69013486 18:0.31211714 19:0.32566857 20:0.37892188 21:0.44313616 22:0.47647605 23:0.62540116 24:0.487048 25:0.42020042 26:0.36908582 27:0.61761298 28:0.10595191 29:0.28899997 30:0.35266462 31:0.38860371 32:0.15279452 33:0.15704335 34:0.47232762 35:0.59036307 36:0.6713731 37:0.22329836 
4 1:0.65412024 2:0.61866327 3:0.48419178 4:0.53222162 5:0.53895179 6:0.45773887 7:0.52560376 8:0.17866647 9:0.27446519 10:0.45426305 11:0.49952173 12:0.45214545 13:0.51063959 14:0.47186963 15:0.67069348 16:0.76963245 17:0.65412024 18:0.27665603 19:0.29264694 20:0.37892188 21:0.44313616 22:0.40191945 23:0.62540116 24:0.487048 25:0.42020042 26:0.36908582 27:0.61761298 28:0.090294624 29:0.22606493 30:0.29311422 31:0.34392582 32:0.12640982 33:0.13608609 34:0.37686816 35:0.49299392 36:0.5901021 37:0.18810594 
-4 1:0.85747598 2:0.86442502 3:0.48419178 4:0.53222162 5:0.53895179 6:0.45773887 7:0.52560376 8:0.39312692 9:0.51312294 10:0.58177007 11:0.56280049 12:0.57783896 13:0.79208854 14:0.8452356 15:0.87373011 16:0.87191397 17:0.85747598 18:0.47538154 19:0.47770154 20:0.37892188 21:0.44313616 22:0.75076616 23:0.62540116 24:0.487048 25:0.42020042 26:0.36908582 27:0.61761298 28:0.30672843 29:0.50692916 30:0.51382027 31:0.50291191 32:0.36085575 33:0.42517283 34:0.80330176 35:0.85396181 36:0.87917181 37:0.50056233 
4 1:0.7065161 2:0.6830197 3:0.48419178 4:0.53222162 5:0.53895179 6:0.45773887 7:0.52560376 8:0.23548389 9:0.34170523 10:0.48489775 11:0.5158045 12:0.48486466 13:0.58517852 14:0.57668155 15:0.71864104 16:0.79544564 17:0.70651615 18:0.297461 19:0.31202067 20:0.37892188 21:0.44313616 22:0.41275271 23:0.62540116 24:0.487048 25:0.42020042 26:0.36908582 27:0.61761298 28:0.098173355 29:0.23430294 30:0.300324 31:0.34842175 32:0.13455836 33:0.14665513 34:0.38915349 35:0.50449726 36:0.59801948 37:0.1989876 
4 1:0.85203291 2:0.85699149 3:0.48419178 4:0.53222162 5:0.53895179 6:0.45773887 7:0.52560376 8:0.38359384 9:0.5049352 10:0.57883241 11:0.56191655 12:0.57451347 13:0.77955924 14:0.83234158 15:0.86901443 16:0.87045703 17:0.85203293 18:0.46520088 19:0.46822124 20:0.37892188 21:0.44313616 22:0.73305896 23:0.62540116 24:0.487048 25:0.42020042 26:0.36908582 27:0.61761298 28:0.28556937 29:0.49352691 30:0.50653488 31:0.49871559 32:0.341045 33:0.39693304 34:0.78291356 35:0.84201407 36:0.87152056 37:0.47416365 
4 1:0.52942924 2:0.45591347 3:0.85009782 4:0.71310066 5:0.55262956 6:0.44648295 7:0.58015497 8:0.11770844 9:0.18982987 10:0.37581462 11:0.49118223 12:0.40445289 13:0.15734053 14:0.23385168 15:0.53375267 16:0.76827725 17:0.52942924 18:0.21885611 19:0.24312213 20:0.21427011 21:0.2040466 22:0.37145125 23:0.80366294 24:0.59899921 25:0.50952683 26:0.44150253 27:0.78875118 28:0.044626051 29:0.21971861 30:0.32578523 31:0.39541094 32:0.090172694 33:0.058373763 34:0.32084117 35:0.48598259 36:0.61692244 37:0.11402529 
4 1:0.78155989 2:0.74691024 3:0.85009782 4:0.71310066 5:0.55262956 6:0.44648295 7:0.58015497 8:0.33953819 9:0.50514997 10:0.57427156 11:0.55707823 12:0.56825781 13:0.40607233 14:0.65614546 15:0.84586158 16:0.87606925 17:0.7815599 18:0.37742883 19:0.39078617 20:0.21427011 21:0.2040466 22:0.69739704 23:0.80366294 24:0.59899921 25:0.50952683 26:0.44150253 27:0.78875118 28:0.18882861 29:0.56007619 30:0.57842748 31:0.5571373 32:0.27742846 33:0.22446697 34:0.7867688 35:0.8634676 36:0.88926994 37:0.33125763 
4 1:0.83172097 2:0.82445857 3:0.85009782 4:0.71310066 5:0.55262956 6:0.44648295 7:0.58015497 8:0.5290786 9:0.61435658 10:0.58694256 11:0.55586722 12:0.60092244 13:0.618364 14:0.80225431 15:0.86572091 16:0.87407216 17:0.83172099 18:0.42641029 19:0.43639805 20:0.21427011 21:0.2040466 22:0.71784963 23:0.80366294 24:0.59899921 25:0.50952683 26:0.44150253 27:0.78875118 28:0.27159323 29:0.56490107 30:0.56913774 31:0.5490401 32:0.34498596 33:0.31977958 34:0.79332164 35:0.84953361 36:0.87557867 37:0.40960532 
4 1:0.60462483 2:0.55389899 3:0.85009782 4:0.71310066 5:0.55262956 6:0.44648295 7:0.58015497 8:0.21168059 9:0.33173766 10:0.44178022 11:0.48685096 12:0.45343531 13:0.26264857 14:0.42374927 15:0.63728992 16:0.76096618 17:0.60462482 18:0.22601371 19:0.24978734 20:0.21427011 21:0.2040466 22:0.31570646 23:0.80366294 24:0.59899921 25:0.50952683 26:0.44150253 27:0.78875118 28:0.053950138 29:0.19384374 30:0.26727725 31:0.32906923 32:0.090177392 33:0.069119117 34:0.28532856 35:0.39836413 36:0.50485613 37:0.11403197 
4 1:0.85307925 2:0.85773308 3:0.85009782 4:0.71310066 5:0.55262956 6:0.44648295 7:0.58015497 8:0.62702978 9:0.65045948 10:0.59282572 11:0.55670649 12:0.61481932 13:0.7280632 14:0.85059453 15:0.87495334 16:0.87543106 17:0.85307925 18:0.45246459 19:0.46066001 20:0.21427011 21:0.2040466 22:0.74150414 23:0.80366294 24:0.59899921 25:0.50952683 26:0.44150253 27:0.78875118 28:0.31212688 29:0.57903176 30:0.57850313 31:0.55538715 32:0.38076565 33:0.36645636 34:0.81264946 35:0.86351581 36:0.88626235 37:0.45109941 
-2.7446647720145769 1:0.23126564 2:0.16694082 3:0.85009782 4:0.71310066 5:0.55262956 6:0.44648295 7:0.58015497 8:0.021612064 9:0.051510327 10:0.1463569 11:0.30915155 12:0.21045904 13:0.049760021 14:0.048771241 15:0.17368403 16:0.47079689 17:0.2312656 18:0.15843304 19:0.18685575 20:0.21427011 21:0.2040466 22:0.10884189 23:0.80366294 24:0.59899921 25:0.50952683 26:0.44150253 27:0.78875118 28:0.013324078 29:0.047576393 30:0.088830087 31:0.14479254 32:0.022862259 33:0.022322078 34:0.085236547 35:0.13206393 36:0.19496352 37:0.03594847 
4 1:0.79873644 2:0.78692007 3:0.85009782 4:0.71310066 5:0.55262956 6:0.44648295 7:0.58015497 8:0.49279659 9:0.57837476 10:0.56500727 11:0.54344848 12:0.57944737 13:0.57779837 14:0.75411805 15:0.83130248 16:0.85378737 17:0.79873645 18:0.38639836 19:0.39913867 20:0.21427011 21:0.2040466 22:0.65729643 23:0.80366294 24:0.59899921 25:0.50952683 26:0.44150253 27:0.78875118 28:0.2174572 29:0.50773323 30:0.53165551 31:0.52562911 32:0.28948711 33:0.25742733 34:0.7151168 35:0.79360244 36:0.83621953 37:0.34523398 
4 1:0.64895251 2:0.59904704 3:0.85009782 4:0.71310066 5:0.55262956 6:0.44648295 7:0.58015497 8:0.23041866 9:0.36280316 10:0.47603152 11:0.50938988 12:0.48213603 13:0.28368804 14:0.46541795 15:0.691373 16:0.79800965 17:0.6489525 18:0.25169694 19:0.27370375 20:0.21427011 21:0.2040466 22:0.40992746 23:0.80366294 24:0.59899921 25:0.50952683 26:0.44150253 27:0.78875118 28:0.074386372 29:0.26531443 30:0.34974986 31:0.40584883 32:0.12320259 33:0.092646897 34:0.38320327 35:0.52170951 36:0.63436472 37:0.15233181 
4 1:0.86141978 2:0.86775719 3:0.85009782 4:0.71310066 5:0.55262956 6:0.44648295 7:0.58015497 8:0.64325743 9:0.65817471 10:0.59826983 11:0.55953132 12:0.62020914 13:0.74632998 14:0.86096398 15:0.88355877 16:0.88007149 17:0.86141977 18:0.46905227 19:0.47610657 20:0.21427011 21:0.2040466 22:0.77089172 23:0.80366294 24:0.59899921 25:0.50952683 26:0.44150253 27:0.78875118 28:0.350102 29:0.60362201 30:0.59288947 31:0.56398149 32:0.41647853 33:0.41019088 34:0.84635277 35:0.88505612 36:0.90077813 37:0.49253556 
4 1:0.63300697 2:0.56814641 3:0.85009782 4:0.71310066 5:0.55262956 6:0.44648295 7:0.58015497 8:0.14360767 9:0.30214705 10:0.47732661 11:0.51798124 12:0.47164119 13:0.18638116 14:0.38439175 15:0.69366099 16:0.81221632 17:0.63300697 18:0.17194308 19:0.19943639 20:0.21427011 21:0.2040466 22:0.39653686 23:0.80366294 24:0.59899921 25:0.50952683 26:0.44150253 27:0.78875118 28:0.062914606 29:0.24880891 30:0.34017634 31:0.40444734 32:0.11066672 33:0.07942123 34:0.36070916 35:0.50761336 36:0.63228551 37:0.13778158 
-0.33394472548966542 1:0.12032654 2:0.073261456 3:0.85009782 4:0.71310066 5:0.55262956 6:0.44648295 7:0.58015497 8:0.02021972 9:0.03504113 10:0.10185059 11:0.19821232 12:0.13825766 13:0.048210418 14:0.026751308 15:0.10384145 16:0.28968072 17:0.12032649 18:0.056952085 19:0.092355962 20:0.21427011 21:0.2040466 22:0.024203421 23:0.80366294 24:0.59899921 25:0.50952683 26:0.44150253 27:0.78875118 28:0.00031165166 29:0.0034297237 30:0.02121372 31:0.048338947 32:0.00091465099 33:0.0073374441 34:0.024835389 35:0.031130638 36:0.032738229 37:0.010494081 
-4 1:0.72449771 2:0.68349698 3:0.85009782 4:0.71310066 5:0.55262956 6:0.44648295 7:0.58015497 8:0.2880785 9:0.44504839 10:0.53628026 11:0.53370956 12:0.53114979 13:0.34841296 14:0.57564755 15:0.78622273 16:0.83789898 17:0.72449773 18:0.29937893 19:0.31810556 20:0.21427011 21:0.2040466 22:0.57231175 23:0.80366294 24:0.59899921 25:0.50952683 26:0.44150253 27:0.78875118 28:0.13322908 29:0.43626717 30:0.48223262 31:0.48869838 32:0.20647405 33:0.16042453 34:0.61731008 35:0.71979114 36:0.77406038 37:0.2489448 
4 1:0.74280966 2:0.71786936 3:0.85009782 4:0.71310066 5:0.55262956 6:0.44648295 7:0.58015497 8:0.40223297 9:0.50049192 10:0.53066386 11:0.52942586 12:0.54295394 13:0.47640923 14:0.65004541 15:0.77752066 16:0.83100646 17:0.74280965 18:0.32154721 19:0.33874881 20:0.21427011 21:0.2040466 22:0.5465111 23:0.80366294 24:0.59899921 25:0.50952683 26:0.44150253 27:0.78875118 28:0.13785977 29:0.39475998 30:0.45708844 31:0.48076875 32:0.20204627 33:0.16574222 34:0.56053482 35:0.68233031 36:0.760852 37:0.24380036 
-4 1:0.41951019 2:0.34719131 3:0.85009782 4:0.71310066 5:0.55262956 6:0.44648295 7:0.58015497 8:0.062314744 9:0.13786744 10:0.29164732 11:0.42606337 12:0.33279589 13:0.095396798 14:0.16443465 15:0.4019926 16:0.66201274 17:0.41951017 18:0.16832311 19:0.19606545 20:0.21427011 21:0.2040466 22:0.24109762 23:0.80366294 24:0.59899921 25:0.50952683 26:0.44150253 27:0.78875118 28:0.031478111 29:0.12916097 30:0.20516334 31:0.27612163 32:0.057764042 33:0.043233144 34:0.19695517 35:0.30594253 36:0.41623825 37:0.076441282 
-4 1:0.713496 2:0.67286627 3:0.85009782 4:0.71310066 5:0.55262956 6:0.44648295 7:0.58015497 8:0.30311758 9:0.4292383 10:0.52552445 11:0.53019975 12:0.52400286 13:0.3651884 14:0.55447011 15:0.76936781 16:0.83214531 17:0.71349599 18:0.27620314 19:0.29652409 20:0.21427011 21:0.2040466 22:0.54941392 23:0.80366294 24:0.59899921 25:0.50952683 26:0.44150253 27:0.78875118 28:0.11689197 29:0.40751994 30:0.46737564 31:0.48341119 32:0.18764438 33:0.14160777 34:0.5779905 35:0.69762786 36:0.76518673 37:0.22710478 
4 1:0.76243267 2:0.74198839 3:0.85009782 4:0.71310066 5:0.55262956 6:0.44648295 7:0.58015497 8:0.43436512 9:0.52674907 10:0.54320133 11:0.53468012 12:0.55591899 13:0.51212757 14:0.68490836 15:0.79693087 16:0.83939358 17:0.76243263 18:0.33566027 19:0.351891 20:0.21427011 21:0.2040466 22:0.56440878 23:0.80366294 24:0.59899921 25:0.50952683 26:0.44150253 27:0.78875118 28:0.15387838 29:0.41179418 30:0.46821037 31:0.48789363 32:0.21849172 33:0.18420725 34:0.58371428 35:0.69869987 36:0.77254713 37:0.26287155 
-4 1:0.87561652 2:0.88672288 3:0.85009782 4:0.71310066 5:0.55262956 6:0.44648295 7:0.58015497 8:0.68158833 9:0.67755996 10:0.60581258 11:0.5622264 12:0.62943474 13:0.78926201 14:0.88693133 15:0.89541841 16:0.88447656 17:0.87561652 18:0.49129784 19:0.49682181 20:0.21427011 21:0.2040466 22:0.79379775 23:0.80366294 24:0.59899921 25:0.50952683 26:0.44150253 27:0.78875118 28:0.38423849 29:0.62273768 30:0.60249883 31:0.56884002 32:0.44790345 33:0.44950309 34:0.87252615 35:0.89941526 36:0.90895752 37:0.52898817 
4 1:0.72386918 2:0.69463392 3:0.85009782 4:0.71310066 5:0.55262956 6:0.44648295 7:0.58015497 8:0.36853587 9:0.47771657 10:0.51864968 11:0.52453066 12:0.53084917 13:0.43841164 14:0.61925473 15:0.75832482 16:0.82280026 17:0.72386917 18:0.30237256 19:0.32089325 20:0.21427011 21:0.2040466 22:0.50157084 23:0.80366294 24:0.59899921 25:0.50952683 26:0.44150253 27:0.78875118 28:0.11736588 29:0.3524475 30:0.42139139 31:0.45614376 32:0.17645344 33:0.14215431 34:0.50249547 35:0.62878284 36:0.71912687 37:0.21411048 
-1.2864537456713507 1:0.86897683 2:0.8781262 3:0.85009782 4:0.71310066 5:0.55262956 6:0.44648295 7:0.58015497 8:0.66415074 9:0.67061072 10:0.60133362 11:0.56081318 12:0.62512268 13:0.76971356 14:0.87762068 15:0.88836686 16:0.88217039 17:0.86897684 18:0.48516126 19:0.49110737 20:0.21427011 21:0.2040466 22:0.78790559 23:0.80366294 24:0.59899921 25:0.50952683 26:0.44150253 27:0.78875118 28:0.37537744 29:0.61808548 30:0.59990507 31:0.56752948 32:0.43979417 33:0.43931227 34:0.86615747 35:0.89553813 36:0.90674986 37:0.5195909 
4 1:0.94160754 2:0.97500852 3:0.85009782 4:0.71310066 5:0.55262956 6:0.44648295 7:0.58015497 8:0.86968775 9:0.76200883 10:0.64046429 11:0.57592445 12:0.67233344 13:1 14:1 15:0.94987431 16:0.9068818 17:0.94160754 18:0.60169324 19:0.59962278 20:0.21427011 21:0.2040466 22:0.99999911 23:0.80366294 24:0.59899921 25:0.50952683 26:0.44150253 27:0.78875118 28:0.86224339 29:0.71585356 30:0.64542753 31:0.59121896 32:0.85396016 33:0.99999943 34:0.99999932 35:0.96355632 36:0.94664687 37:0.99999931 
-1.2148046181009953 1:0.28415304 2:0.21498146 3:0.85009782 4:0.71310066 5:0.55262956 6:0.44648295 7:0.58015497 8:0.024544099 9:0.06314115 10:0.18982872 11:0.34566275 12:0.24487441 13:0.053043507 14:0.064351553 15:0.24185073 16:0.53044155 17:0.28415306 18:0.14613465 19:0.1754034 20:0.21427011 21:0.2040466 22:0.089511981 23:0.80366294 24:0.59899921 25:0.50952683 26:0.44150253 27:0.78875118 28:0.010628995 29:0.037450692 30:0.073256699 31:0.12263732 32:0.018060312 33:0.01922014 34:0.0714025 35:0.10885566 36:0.15776536 37:0.030382915 
-4 1:0.65436713 2:0.59131512 3:0.85009782 4:0.71310066 5:0.55262956 6:0.44648295 7:0.58015497 8:0.14543624 9:0.31298304 10:0.51874457 11:0.51470165 12:0.48556514 13:0.18855059 14:0.39883531 15:0.75862723 16:0.80680441 17:0.65436711 18:0.27762517 19:0.2978483 20:0.21427011 21:0.2040466 22:0.47919256 23:0.80366294 24:0.59899921 25:0.50952683 26:0.44150253 27:0.78875118 28:0.089348706 29:0.3551763 30:0.41007774 31:0.43088932 32:0.15341434 33:0.10987769 34:0.50624791 35:0.61190507 36:0.67661762 37:0.18737894 
4 1:0.64991991 2:0.60670331 3:0.85009782 4:0.71310066 5:0.55262956 6:0.44648295 7:0.58015497 8:0.26597482 9:0.38660107 10:0.47095646 11:0.50200055 12:0.48285626 13:0.32343891 14:0.4971811 15:0.68319876 16:0.78586068 17:0.64991991 18:0.25533195 19:0.27708869 20:0.21427011 21:0.2040466 22:0.4049985 23:0.80366294 24:0.59899921 25:0.50952683 26:0.44150253 27:0.78875118 28:0.082794134 29:0.26595261 30:0.34179672 31:0.39443865 32:0.1296817 33:0.10234298 34:0.38403751 35:0.5097348 36:0.61503894 37:0.15985859 
