svm_type nu_svr
kernel_type rbf
gamma 0.050000000000000003
nr_class 2
total_sv 606
rho -0.96931606153199246
SV
4 1:0.42839016 2:0.38412325 3:0.3857028 4:0.44656543 5:0.52260551 6:0.62379252 7:0.57577151 8:0.051480852 9:0.082677166 10:0.23257174 11:0.47847526 12:0.32899391 13:0.4499219 14:0.24921676 15:0.34375872 16:0.5979558 17:0.42839013 18:0.20006312 19:0.20572056 20:1 21:0.918457 22:0.340596 23:0.5259542 24:0.58899116 25:0.63108071 26:0.6805936 27:0.54086567 28:0.1199156 29:0.20414905 30:0.28500158 31:0.38379141 32:0.13537411 33:0.22061647 34:0.31756202 35:0.37256554 36:0.45130662 37:0.24732518 
4 1:0.80661964 2:0.77807954 3:0.3857028 4:0.44656543 5:0.52260551 6:0.62379252 7:0.57577151 8:0.20752181 9:0.33175739 10:0.51850978 11:0.67594639 12:0.57083837 13:0.65918443 14:0.66917591 15:0.81493955 16:0.8686649 17:0.80661962 18:0.39031189 19:0.36176373 20:1 21:0.918457 22:0.69675522 23:0.5259542 24:0.58899116 25:0.63108071 26:0.6805936 27:0.54086567 28:0.25066187 29:0.46968021 30:0.58126152 31:0.67011042 32:0.29582817 33:0.42749805 34:0.70306046 35:0.77998945 36:0.83128128 37:0.49472919 
1.7709476201382375 1:0.8677085 2:0.86850658 3:0.3857028 4:0.44656543 5:0.52260551 6:0.62379252 7:0.57577151 8:0.31421832 9:0.43238493 10:0.55512421 11:0.6845838 12:0.60996225 13:0.80106813 14:0.83651471 15:0.875613 16:0.88021823 17:0.86770846 18:0.48157939 19:0.43662187 20:1 21:0.918457 22:0.77063025 23:0.5259542 24:0.58899116 25:0.63108071 26:0.6805936 27:0.54086567 28:0.31561673 29:0.53338883 30:0.62189027 31:0.69480585 32:0.35978757 33:0.52915871 34:0.79498029 35:0.8352305 36:0.86338136 37:0.59257788 
4 1:0.77660736 2:0.76380053 3:0.3857028 4:0.44656543 5:0.52260551 6:0.62379252 7:0.57577151 8:0.24716488 9:0.3525397 10:0.49483993 11:0.64099859 12:0.55152061 13:0.70969276 14:0.6973855 15:0.77578451 16:0.82134761 17:0.77660733 18:0.32121819 19:0.30509266 20:1 21:0.918457 22:0.52434494 23:0.5259542 24:0.58899116 25:0.63108071 26:0.6805936 27:0.54086567 28:0.19609707 29:0.33949107 30:0.43355846 31:0.52592223 32:0.22469861 33:0.34058014 34:0.51437031 35:0.57743254 36:0.64044736 37:0.38469679 
-4 1:0.88285711 2:0.8920315 3:0.3857028 4:0.44656543 5:0.52260551 6:0.62379252 7:0.57577151 8:0.34912103 9:0.4557458 10:0.56287293 11:0.6871697 12:0.61963633 13:0.84817538 14:0.87692529 15:0.88834255 16:0.88395365 17:0.88285709 18:0.49302364 19:0.44600851 20:1 21:0.918457 22:0.77974438 23:0.5259542 24:0.58899116 25:0.63108071 26:0.6805936 27:0.54086567 28:0.32859287 29:0.53817035 30:0.62423509 31:0.69603413 32:0.37106586 33:0.54970016 34:0.80244421 35:0.83905875 36:0.86562998 37:0.6101246 
-4 1:0.56706349 2:0.52940621 3:0.3857028 4:0.44656543 5:0.52260551 6:0.62379252 7:0.57577151 8:0.096027192 9:0.17217344 10:0.35573427 11:0.5423929 12:0.41848914 13:0.50877917 14:0.39550193 15:0.5444436 16:0.68789274 17:0.56706347 18:0.17989697 19:0.18918017 20:1 21:0.918457 22:0.41049467 23:0.5259542 24:0.58899116 25:0.63108071 26:0.6805936 27:0.54086567 28:0.14718624 29:0.2625484 30:0.34675786 31:0.4317948 32:0.16920809 33:0.26177899 34:0.40065817 35:0.45619505 36:0.51385475 37:0.29741567 
-4 1:0.76936404 2:0.76136395 3:0.3857028 4:0.44656543 5:0.52260551 6:0.62379252 7:0.57577151 8:0.25279913 9:0.35862079 10:0.49287483 11:0.6320257 12:0.54778795 13:0.71699617 14:0.70615307 15:0.77071296 16:0.80943012 17:0.76936401 18:0.29255283 19:0.28158117 20:1 21:0.918457 22:0.5951192 23:0.5259542 24:0.58899116 25:0.63108071 26:0.6805936 27:0.54086567 28:0.22922002 29:0.40051219 30:0.49156744 31:0.57263287 32:0.26349826 33:0.3908214 34:0.60032365 35:0.65465657 36:0.70015112 37:0.44218248 
-4 1:0.73934836 2:0.72132107 3:0.3857028 4:0.44656543 5:0.52260551 6:0.62379252 7:0.57577151 8:0.22046081 9:0.32017083 10:0.46845672 11:0.62388745 12:0.52749258 13:0.673654 14:0.64216988 15:0.73271829 16:0.79840271 17:0.73934835 18:0.28732698 19:0.27729489 20:1 21:0.918457 22:0.48758692 23:0.5259542 24:0.58899116 25:0.63108071 26:0.6805936 27:0.54086567 28:0.18211641 29:0.31439018 30:0.40438411 31:0.49447453 32:0.20814498 33:0.31793154 34:0.47738728 35:0.53684573 36:0.59827065 37:0.35858677 
4 1:0.86874742 2:0.8733772 3:0.3857028 4:0.44656543 5:0.52260551 6:0.62379252 7:0.57577151 8:0.33222944 9:0.43877071 10:0.55366537 11:0.68252686 12:0.6105317 13:0.82498269 14:0.84719123 15:0.8732813 16:0.87767598 17:0.86874737 18:0.47329321 19:0.4298255 20:1 21:0.918457 22:0.76412169 23:0.5259542 24:0.58899116 25:0.63108071 26:0.6805936 27:0.54086567 28:0.31916077 29:0.52494783 30:0.61377516 31:0.68865894 32:0.36094957 33:0.53427736 34:0.78277171 35:0.8243112 36:0.8555643 37:0.59400686 
-1.9074581307553582 1:0.74754153 2:0.71421966 3:0.3857028 4:0.44656543 5:0.52260551 6:0.62379252 7:0.57577151 8:0.1677337 9:0.2865388 10:0.47964725 11:0.64484743 12:0.5329303 13:0.60695308 14:0.59522962 15:0.75238842 16:0.82459292 17:0.74754151 18:0.19061917 19:0.19797458 20:1 21:0.918457 22:0.45356002 23:0.5259542 24:0.58899116 25:0.63108071 26:0.6805936 27:0.54086567 28:0.1626958 29:0.28972671 30:0.38025419 31:0.47270963 32:0.18756356 33:0.28769073 34:0.44112662 35:0.50265438 36:0.56801199 37:0.32712717 
4 1:0.90576532 2:0.88944721 3:0.3857028 4:0.44656543 5:0.52260551 6:0.62379252 7:0.57577151 8:0.26258717 9:0.42117755 10:0.58417904 11:0.72418427 12:0.6343108 13:0.73430779 14:0.82348956 15:0.92420402 16:0.93318248 17:0.90576527 18:0.24454363 19:0.24220374 20:1 21:0.918457 22:0.77655784 23:0.5259542 24:0.58899116 25:0.63108071 26:0.6805936 27:0.54086567 28:0.29946416 29:0.53958014 30:0.63516565 31:0.71255516 32:0.34843574 33:0.50394199 34:0.8037187 35:0.85339346 36:0.88705315 37:0.57510376 
-4 1:0.26731774 2:0.2559128 3:0.3857028 4:0.44656543 5:0.52260551 6:0.62379252 7:0.57577151 8:0.03932956 9:0.058870427 10:0.1537729 11:0.33361653 12:0.22701696 13:0.4327362 14:0.20677831 15:0.21252606 16:0.39775304 17:0.26731772 18:0.039797274 19:0.074269571 20:1 21:0.918457 22:0.1351888 23:0.5259542 24:0.58899116 25:0.63108071 26:0.6805936 27:0.54086567 28:0.062204533 29:0.08468463 30:0.11833886 31:0.15918925 32:0.061972875 33:0.12773759 34:0.14268041 35:0.14162468 36:0.15024879 37:0.13257183 
4 1:0.81205005 2:0.79674774 3:0.3857028 4:0.44656543 5:0.52260551 6:0.62379252 7:0.57577151 8:0.24898524 9:0.36558674 10:0.52001336 11:0.66513924 12:0.5739905 13:0.71345923 14:0.72345576 15:0.81803836 16:0.85406932 17:0.81205001 18:0.36871721 19:0.34405164 20:1 21:0.918457 22:0.68096235 23:0.5259542 24:0.58899116 25:0.63108071 26:0.6805936 27:0.54086567 28:0.25873108 29:0.46194851 30:0.56040585 31:0.64349642 32:0.30008113 33:0.4396472 34:0.69168764 35:0.75133512 36:0.79602086 37:0.50083012 
-4 1:0.67795733 2:0.66158903 3:0.3857028 4:0.44656543 5:0.52260551 6:0.62379252 7:0.57577151 8:0.20511651 9:0.28445421 10:0.42242876 11:0.58805864 12:0.4878429 13:0.65427516 14:0.58472792 15:0.65816389 16:0.750215 17:0.6779573 18:0.26845734 19:0.2618179 20:1 21:0.918457 22:0.43753746 23:0.5259542 24:0.58899116 25:0.63108071 26:0.6805936 27:0.54086567 28:0.1545323 29:0.2799549 30:0.36934085 31:0.46049385 32:0.17894954 33:0.27276381 34:0.42603931 35:0.48730075 36:0.55170701 37:0.31204025 
-4 1:0.47288104 2:0.44239675 3:0.3857028 4:0.44656543 5:0.52260551 6:0.62379252 7:0.57577151 8:0.072306145 9:0.13075326 10:0.29448683 11:0.47706959 12:0.35788014 13:0.4771581 14:0.32648501 15:0.44341774 16:0.60137974 17:0.47288104 18:0.12043489 19:0.14040901 20:1 21:0.918457 22:0.29505747 23:0.5259542 24:0.58899116 25:0.63108071 26:0.6805936 27:0.54086567 28:0.10853537 29:0.18241314 30:0.24979636 31:0.32444711 32:0.12096321 33:0.20141265 34:0.28551576 35:0.32430811 36:0.37311285 37:0.22394686 
4 1:0.76663388 2:0.74048812 3:0.3857028 4:0.44656543 5:0.52260551 6:0.62379252 7:0.57577151 8:0.21318555 9:0.31806442 10:0.48132305 11:0.65209806 12:0.54487193 13:0.66522404 14:0.64216711 15:0.7541055 16:0.83619063 17:0.76663383 18:0.33571892 19:0.31698625 20:1 21:0.918457 22:0.63523251 23:0.5259542 24:0.58899116 25:0.63108071 26:0.6805936 27:0.54086567 28:0.22868925 29:0.41751482 30:0.52798248 31:0.6302539 32:0.26762108 33:0.39224233 34:0.62708291 35:0.70647339 36:0.77799122 37:0.45083764 
4 1:0.78285157 2:0.77244096 3:0.3857028 4:0.44656543 5:0.52260551 6:0.62379252 7:0.57577151 8:0.25615365 9:0.36047458 10:0.49829279 11:0.64319997 12:0.55557227 13:0.72193266 14:0.71226283 15:0.78170736 16:0.82373369 17:0.78285153 18:0.33179436 19:0.3137673 20:1 21:0.918457 22:0.54574067 23:0.5259542 24:0.58899116 25:0.63108071 26:0.6805936 27:0.54086567 28:0.20776298 29:0.35581115 30:0.44979132 31:0.54063199 32:0.23737804 33:0.35898836 34:0.53770997 35:0.59919698 36:0.6593114 37:0.40415435 
-4 1:0.88245449 2:0.89180828 3:0.3857028 4:0.44656543 5:0.52260551 6:0.62379252 7:0.57577151 8:0.35002752 9:0.45517102 10:0.56292674 11:0.68673524 12:0.61939158 13:0.84946533 14:0.8760409 15:0.88845405 16:0.88334442 17:0.88245448 18:0.49707685 19:0.44933298 20:1 21:0.918457 22:0.78421471 23:0.5259542 24:0.58899116 25:0.63108071 26:0.6805936 27:0.54086567 28:0.33399725 29:0.54151196 30:0.62630675 31:0.69735804 32:0.37602371 33:0.5579481 34:0.80696086 35:0.84162257 36:0.86715065 37:0.61746286 
4 1:0.75744319 2:0.74208569 3:0.3857028 4:0.44656543 5:0.52260551 6:0.62379252 7:0.57577151 8:0.23029995 9:0.33339007 10:0.48255854 11:0.63276022 12:0.53926777 13:0.68803563 14:0.66878725 15:0.75632662 16:0.80898497 17:0.75744316 18:0.3108309 19:0.29657295 20:1 21:0.918457 22:0.50354186 23:0.5259542 24:0.58899116 25:0.63108071 26:0.6805936 27:0.54086567 28:0.18744536 29:0.32457832 30:0.41759683 31:0.51041854 32:0.21466579 33:0.32719781 34:0.49216922 35:0.55445333 36:0.61851338 37:0.36935627 
-4 1:0.87985328 2:0.88868359 3:0.3857028 4:0.44656543 5:0.52260551 6:0.62379252 7:0.57577151 8:0.34565728 9:0.45329569 10:0.56099445 11:0.68568307 12:0.61768353 13:0.84383767 14:0.87333444 15:0.88542232 16:0.88178921 17:0.87985325 18:0.49198077 19:0.44515314 20:1 21:0.918457 22:0.77471832 23:0.5259542 24:0.58899116 25:0.63108071 26:0.6805936 27:0.54086567 28:0.32506315 29:0.53436203 30:0.62120938 31:0.69382988 32:0.3674976 33:0.54416395 34:0.79659908 35:0.8345147 36:0.86231739 37:0.60457495 
-4 1:0.94441978 2:0.9777373 3:0.3857028 4:0.44656543 5:0.52260551 6:0.62379252 7:0.57577151 8:0.45964867 9:0.52530858 10:0.6003263 11:0.70592364 12:0.65896835 13:1 14:1 15:0.9507739 16:0.9096956 17:0.94441974 18:0.71193845 19:0.62556373 20:1 21:0.918457 22:0.99999878 23:0.5259542 24:0.58899116 25:0.63108071 26:0.6805936 27:0.54086567 28:0.61376657 29:0.66744098 30:0.70773308 31:0.75260192 32:0.62418799 33:0.99999954 34:0.98996417 35:0.95364224 36:0.94053299 37:0.99999914 
4 1:0.49044378 2:0.44962106 3:0.41633819 4:0.44683109 5:0.52450556 6:0.63641162 7:0.5841916 8:0.092500895 9:0.12956199 10:0.28581793 11:0.5106365 12:0.3724909 13:0.4751313 14:0.32698792 15:0.43180748 16:0.63238894 17:0.49044379 18:0.18748416 19:0.20219051 20:0.96074723 21:0.88254783 22:0.28519863 23:0.50550772 24:0.56524338 25:0.60615733 26:0.65426485 27:0.51969414 28:0.098482293 29:0.16745068 30:0.23407692 31:0.3118227 32:0.10983169 33:0.19205615 34:0.27343417 35:0.31317693 36:0.36787051 37:0.2142445 
4 1:0.77511869 2:0.74511638 3:0.41633819 4:0.44683109 5:0.52450556 6:0.63641162 7:0.5841916 8:0.21473169 9:0.30567964 10:0.50470609 11:0.66400201 12:0.5563942 13:0.63792532 14:0.626085 15:0.79041501 16:0.84021079 17:0.77511864 18:0.34140857 19:0.32844022 20:0.96074723 21:0.88254783 22:0.59791988 23:0.50550772 24:0.56524338 25:0.60615733 26:0.65426485 27:0.51969414 28:0.20340267 29:0.38316202 30:0.48586744 31:0.57877703 32:0.23986413 33:0.36292881 34:0.595508 35:0.66909315 36:0.73205309 37:0.42048431 
-4 1:0.74089595 2:0.71668566 3:0.41633819 4:0.44683109 5:0.52450556 6:0.63641162 7:0.5841916 8:0.22219016 9:0.29887542 10:0.48002618 11:0.6371076 12:0.5342908 13:0.64794446 14:0.6117476 15:0.74948534 16:0.80421167 17:0.74089592 18:0.30488571 19:0.29848396 20:0.96074723 21:0.88254783 22:0.50887579 23:0.50550772 24:0.56524338 25:0.60615733 26:0.65426485 27:0.51969414 28:0.18078602 29:0.32097454 30:0.41068227 31:0.49892606 32:0.20838665 33:0.32526335 34:0.50227241 35:0.56264782 36:0.62311525 37:0.36981062 
-4 1:0.78926141 2:0.78033407 3:0.41633819 4:0.44683109 5:0.52450556 6:0.63641162 7:0.5841916 8:0.29443946 9:0.36272854 10:0.5024572 11:0.65565397 12:0.56554517 13:0.74224486 14:0.71770739 15:0.78660722 16:0.82857789 17:0.78926138 18:0.34041339 19:0.32762397 20:0.96074723 21:0.88254783 22:0.5507953 23:0.50550772 24:0.56524338 25:0.60615733 26:0.65426485 27:0.51969414 28:0.20264303 29:0.34754784 30:0.44066071 31:0.53064935 32:0.23153357 33:0.36156773 34:0.54234045 35:0.60496528 36:0.66597417 37:0.40731843 
-4 1:0.88414386 2:0.89333167 3:0.41633819 4:0.44683109 5:0.52450556 6:0.63641162 7:0.5841916 8:0.37747155 9:0.45398853 10:0.56507322 11:0.69772144 12:0.62680667 13:0.85310679 14:0.8750589 15:0.88988234 16:0.88548796 17:0.88414383 18:0.50668032 19:0.46399708 20:0.96074723 21:0.88254783 22:0.79670737 23:0.50550772 24:0.56524338 25:0.60615733 26:0.65426485 27:0.51969414 28:0.33097214 29:0.53521662 30:0.61730931 31:0.68570289 32:0.37216235 33:0.56921064 34:0.8215667 35:0.85386479 36:0.87707076 37:0.6293589 
-4 1:0.46992414 2:0.38654791 3:0.75736108 4:0.80236342 5:0.79312424 6:0.73087749 7:0.80630606 8:0.0818894 9:0.17166661 10:0.41028677 11:0.62210036 12:0.474832 13:0.18003092 14:0.16641986 15:0.42772831 16:0.70652294 17:0.46992415 18:0.21692826 19:0.22373752 20:0.13693853 21:0.11506936 22:0.4179824 23:0.60364704 24:0.58609485 25:0.59579353 26:0.61106175 27:0.60069611 28:0.10477099 29:0.2433579 30:0.35774097 31:0.4757135 32:0.13290711 33:0.17322508 34:0.37593425 35:0.49584164 36:0.62557939 37:0.22144345 
-4 1:0.86099557 2:0.84719043 3:0.75736108 4:0.80236342 5:0.79312424 6:0.73087749 7:0.80630606 8:0.49204404 9:0.68096618 10:0.77952497 11:0.77388393 12:0.7793807 13:0.65735695 14:0.8033068 15:0.89137819 16:0.89288819 17:0.86099557 18:0.42968678 19:0.39824332 20:0.13693853 21:0.11506936 22:0.76874344 23:0.60364704 24:0.58609485 25:0.59579353 26:0.61106175 27:0.60069611 28:0.27354029 29:0.55532957 30:0.62597672 31:0.66942942 32:0.32935371 33:0.41711582 34:0.83032178 35:0.87725023 36:0.89916685 37:0.50460459 
-4 1:0.89553642 2:0.90378 3:0.75736108 4:0.80236342 5:0.79312424 6:0.73087749 7:0.80630606 8:0.6224205 9:0.75555511 10:0.79648798 11:0.77706955 12:0.80624831 13:0.8090288 14:0.89651858 15:0.91267809 16:0.89686752 17:0.89553638 18:0.47325865 19:0.43398122 20:0.13693853 21:0.11506936 22:0.79080194 23:0.60364704 24:0.58609485 25:0.59579353 26:0.61106175 27:0.60069611 28:0.32070803 29:0.56504524 30:0.62702974 31:0.66786485 32:0.36881121 33:0.48502207 34:0.84430856 35:0.87866992 36:0.89691421 37:0.56125282 
-4 1:0.82456981 2:0.82045747 3:0.75736108 4:0.80236342 5:0.79312424 6:0.73087749 7:0.80630606 8:0.52710387 9:0.67347584 10:0.73895901 11:0.74179507 12:0.75089263 13:0.69822729 14:0.79408728 15:0.84056642 16:0.8534865 17:0.82456979 18:0.32977272 19:0.31629322 20:0.13693853 21:0.11506936 22:0.54511293 23:0.60364704 24:0.58609485 25:0.59579353 26:0.61106175 27:0.60069611 28:0.18500479 29:0.3543199 30:0.44949623 31:0.53216437 32:0.21876745 33:0.28919521 34:0.53768596 35:0.62645455 36:0.70537468 37:0.34525317 
-4 1:0.90738258 2:0.92494467 3:0.75736108 4:0.80236342 5:0.79312424 6:0.73087749 7:0.80630606 8:0.67919273 9:0.78275013 10:0.80134715 11:0.77682673 12:0.81541958 13:0.8751324 14:0.93059093 15:0.91882835 16:0.89657575 17:0.90738255 18:0.49422946 19:0.45118161 20:0.13693853 21:0.11506936 22:0.81004759 23:0.60364704 24:0.58609485 25:0.59579353 26:0.61106175 27:0.60069611 28:0.35130786 29:0.57453063 30:0.63239189 31:0.67164981 32:0.39512706 33:0.52961193 34:0.85839814 35:0.88645512 36:0.90236009 37:0.5995378 
-4 1:0.57575893 2:0.50908015 3:0.75736108 4:0.80236342 5:0.79312424 6:0.73087749 7:0.80630606 8:0.16117863 9:0.30802206 10:0.53078096 11:0.65375322 12:0.55737099 13:0.27229235 14:0.33682795 15:0.57876522 16:0.74531657 17:0.57575892 18:0.22461611 19:0.23004315 20:0.13693853 21:0.11506936 22:0.38225064 23:0.60364704 24:0.58609485 25:0.59579353 26:0.61106175 27:0.60069611 28:0.10782934 29:0.23092863 30:0.3244178 31:0.41979222 32:0.1316657 33:0.17756507 34:0.35756483 35:0.44807919 36:0.54611664 37:0.21953741 
-4 1:0.57586973 2:0.50917017 3:0.75736108 4:0.80236342 5:0.79312424 6:0.73087749 7:0.80630606 8:0.16100676 9:0.30814547 10:0.53091701 11:0.65383207 12:0.55746604 13:0.2720928 14:0.33697978 15:0.57893042 16:0.7453905 17:0.57586973 18:0.2245471 19:0.22998655 20:0.13693853 21:0.11506936 22:0.38214896 23:0.60364704 24:0.58609485 25:0.59579353 26:0.61106175 27:0.60069611 28:0.1078037 29:0.23089069 30:0.32433299 31:0.41968964 32:0.13163505 33:0.17752508 34:0.35749914 35:0.44794616 36:0.54595868 37:0.21948883 
-4 1:0.90695179 2:0.92434083 3:0.75736108 4:0.80236342 5:0.79312424 6:0.73087749 7:0.80630606 8:0.68060777 9:0.78032664 10:0.80096427 11:0.77707737 12:0.81508392 13:0.87676225 14:0.92754304 15:0.91836875 16:0.89689408 17:0.90695175 18:0.50497342 19:0.45999386 20:0.13693853 21:0.11506936 22:0.82728434 23:0.60364704 24:0.58609485 25:0.59579353 26:0.61106175 27:0.60069611 28:0.37390323 29:0.58691623 30:0.63886846 31:0.6753106 32:0.41550794 33:0.56217097 34:0.87638212 35:0.89564201 36:0.90752381 37:0.62883442 
-4 1:0.81926397 2:0.7808081 3:0.75736108 4:0.80236342 5:0.79312424 6:0.73087749 7:0.80630606 8:0.35471608 9:0.58835952 10:0.75798747 11:0.7695127 12:0.74699666 13:0.49747439 14:0.68737489 15:0.86411789 16:0.88750337 17:0.81926393 18:0.18750051 19:0.19960071 20:0.13693853 21:0.11506936 22:0.5298691 23:0.60364704 24:0.58609485 25:0.59579353 26:0.61106175 27:0.60069611 28:0.15793072 29:0.34225666 30:0.44566681 31:0.53670832 32:0.19501107 33:0.24994645 34:0.51987872 35:0.62080364 36:0.71168225 37:0.31085829 
-4 1:0.92457384 2:0.8943498 3:0.75736108 4:0.80236342 5:0.79312424 6:0.73087749 7:0.80630606 8:0.4435049 9:0.69649899 10:0.83581454 11:0.83712539 12:0.82901845 13:0.60083142 14:0.82259046 15:0.96190641 16:0.97062398 17:0.92457379 18:0.21822981 19:0.22480506 20:0.13693853 21:0.11506936 22:0.81234308 23:0.60364704 24:0.58609485 25:0.59579353 26:0.61106175 27:0.60069611 28:0.27499593 29:0.59664183 30:0.66460237 31:0.70761761 32:0.33880785 33:0.41902488 34:0.89024125 35:0.93208964 36:0.95313246 37:0.51802985 
-4 1:0.21821711 2:0.16575019 3:0.75736108 4:0.80236342 5:0.79312424 6:0.73087749 7:0.80630606 8:0.04734491 9:0.0774628 10:0.19998656 11:0.40084238 12:0.27891216 13:0.13984042 14:0.048700642 15:0.16337596 16:0.43406509 17:0.21821708 18:0.059138523 19:0.094317454 20:0.13693853 21:0.11506936 22:0.15548767 23:0.60364704 24:0.58609485 25:0.59579353 26:0.61106175 27:0.60069611 28:0.053880375 29:0.087417808 30:0.13219782 31:0.19033881 32:0.056510452 33:0.099702415 34:0.14869602 35:0.1747699 36:0.22178689 37:0.11131829 
-4 1:0.84967655 2:0.84421305 3:0.75736108 4:0.80236342 5:0.79312424 6:0.73087749 7:0.80630606 8:0.5334573 9:0.6883885 10:0.76314294 11:0.75970913 12:0.77052986 13:0.70557653 14:0.81260404 15:0.87079321 16:0.87552796 17:0.84967653 18:0.35505063 19:0.33702631 20:0.13693853 21:0.11506936 22:0.69011214 23:0.60364704 24:0.58609485 25:0.59579353 26:0.61106175 27:0.60069611 28:0.23159395 29:0.48654385 30:0.56926956 31:0.62573434 32:0.28231597 33:0.35645395 34:0.73021285 35:0.79671507 36:0.83751049 37:0.43678176 
-4 1:0.8388226 2:0.83417951 3:0.75736108 4:0.80236342 5:0.79312424 6:0.73087749 7:0.80630606 8:0.53248275 9:0.68351562 10:0.7505648 11:0.75290217 12:0.76216999 13:0.70431675 14:0.8063856 15:0.85485699 16:0.86707324 17:0.83882254 18:0.38278518 19:0.35977435 20:0.13693853 21:0.11506936 22:0.66285941 23:0.60364704 24:0.58609485 25:0.59579353 26:0.61106175 27:0.60069611 28:0.22746575 29:0.45160156 30:0.54625882 31:0.61494941 32:0.27254453 33:0.35024131 34:0.67896874 35:0.76374586 36:0.82213605 37:0.42243598 
-4 1:0.61824255 2:0.56164743 3:0.75736108 4:0.80236342 5:0.79312424 6:0.73087749 7:0.80630606 8:0.20780323 9:0.37019115 10:0.57694527 11:0.66170124 12:0.58949915 13:0.32663516 14:0.41495252 15:0.63817958 16:0.75673094 17:0.61824256 18:0.18711915 19:0.19928792 20:0.13693853 21:0.11506936 22:0.42429691 23:0.60364704 24:0.58609485 25:0.59579353 26:0.61106175 27:0.60069611 28:0.11848747 29:0.26613934 30:0.36179811 31:0.44812774 32:0.14741717 33:0.19328298 34:0.40977334 35:0.5023597 36:0.58728787 37:0.24268304 
-4 1:0.78660397 2:0.76476709 3:0.75736108 4:0.80236342 5:0.79312424 6:0.73087749 7:0.80630606 8:0.44079264 9:0.59352106 10:0.70871673 11:0.73885163 12:0.72127904 13:0.59776445 14:0.69408413 15:0.80275685 16:0.85006009 17:0.78660395 18:0.31120141 19:0.30106092 20:0.13693853 21:0.11506936 22:0.6247002 23:0.60364704 24:0.58609485 25:0.59579353 26:0.61106175 27:0.60069611 28:0.19314941 29:0.42345712 30:0.52224503 31:0.59921865 32:0.23950435 33:0.30102537 34:0.63849846 35:0.72996059 36:0.80009476 37:0.37520573 
4 1:0.85424139 2:0.85806145 3:0.75736108 4:0.80236342 5:0.79312424 6:0.73087749 7:0.80630606 8:0.58260899 9:0.71225769 10:0.76229287 11:0.75379361 12:0.77405323 13:0.76278715 14:0.84250559 15:0.86978145 16:0.86820264 17:0.8542414 18:0.37790943 19:0.35577523 20:0.13693853 21:0.11506936 22:0.63271626 23:0.60364704 24:0.58609485 25:0.59579353 26:0.61106175 27:0.60069611 28:0.22965485 29:0.42319941 30:0.51561632 31:0.5884069 32:0.26845452 33:0.35365787 34:0.63792264 35:0.72041169 36:0.78478896 37:0.41680874 
-4 1:0.84463448 2:0.84737729 3:0.75736108 4:0.80236342 5:0.79312424 6:0.73087749 7:0.80630606 8:0.57590488 9:0.70097223 10:0.75289476 11:0.74928682 12:0.76647182 13:0.75502029 14:0.82849929 15:0.85810568 16:0.86272407 17:0.84463443 18:0.35839058 19:0.33976575 20:0.13693853 21:0.11506936 22:0.59660665 23:0.60364704 24:0.58609485 25:0.59579353 26:0.61106175 27:0.60069611 28:0.21001175 29:0.39436563 30:0.48876383 31:0.56631399 32:0.24693363 33:0.32538089 34:0.59610456 35:0.68239085 36:0.75371475 37:0.38590911 
-4 1:0.90669398 2:0.92405223 3:0.75736108 4:0.80236342 5:0.79312424 6:0.73087749 7:0.80630606 8:0.67780428 9:0.78185153 10:0.80072826 11:0.77665291 12:0.81490311 13:0.87351278 14:0.92944877 15:0.91803603 16:0.89634733 17:0.90669393 18:0.50735749 19:0.4619493 20:0.13693853 21:0.11506936 22:0.82800114 23:0.60364704 24:0.58609485 25:0.59579353 26:0.61106175 27:0.60069611 28:0.37240333 29:0.5887027 30:0.64009613 31:0.6759411 32:0.41463528 33:0.5600124 34:0.87892862 35:0.89734322 36:0.90838305 37:0.62757216 
-4 1:0.94441978 2:0.9777373 3:0.75736108 4:0.80236342 5:0.79312424 6:0.73087749 7:0.80630606 8:0.78656868 9:0.8383252 10:0.82680404 11:0.78750221 12:0.84429201 13:1 14:1 15:0.9507739 16:0.9096956 17:0.94441974 18:0.61039932 19:0.54646481 20:0.13693853 21:0.11506936 22:0.99999915 23:0.60364704 24:0.58609485 25:0.59579353 26:0.61106175 27:0.60069611 28:0.67706802 29:0.6650975 30:0.67977611 31:0.69874636 32:0.67316149 33:0.99999951 34:0.98996443 35:0.95364289 36:0.94053358 37:0.9999993 
-2.7536384900075164 1:0.45892398 2:0.38251291 3:0.75736108 4:0.80236342 5:0.79312424 6:0.73087749 7:0.80630606 8:0.086592038 9:0.18198233 10:0.4228691 11:0.59379044 12:0.46699815 13:0.1854456 14:0.17902503 15:0.44219665 16:0.67057017 17:0.45892397 18:0.16800884 19:0.18361353 20:0.13693853 21:0.11506936 22:0.26174122 23:0.60364704 24:0.58609485 25:0.59579353 26:0.61106175 27:0.60069611 28:0.064531224 29:0.14760427 30:0.22653068 31:0.31733181 32:0.079194356 33:0.11502782 34:0.23627643 35:0.30890338 36:0.40130905 37:0.14394207 
-4 1:0.83975908 2:0.8303817 3:0.75736108 4:0.80236342 5:0.79312424 6:0.73087749 7:0.80630606 8:0.50741516 9:0.67480795 10:0.75397346 11:0.75772648 12:0.76282725 13:0.67522142 14:0.79566799 15:0.8592639 16:0.87298199 17:0.83975904 18:0.36188973 19:0.34263578 20:0.13693853 21:0.11506936 22:0.62530095 23:0.60364704 24:0.58609485 25:0.59579353 26:0.61106175 27:0.60069611 28:0.19700357 29:0.41954641 30:0.52274252 31:0.60104242 32:0.24202012 33:0.3064461 34:0.63242044 35:0.7303225 36:0.80244563 37:0.37864086 
-4 1:0.82652655 2:0.82346624 3:0.75736108 4:0.80236342 5:0.79312424 6:0.73087749 7:0.80630606 8:0.53161518 9:0.67855572 10:0.73996769 11:0.74185516 12:0.75235937 13:0.70352481 14:0.80047857 15:0.84189702 16:0.8536253 17:0.82652654 18:0.34141585 19:0.32584298 20:0.13693853 21:0.11506936 22:0.56823734 23:0.60364704 24:0.58609485 25:0.59579353 26:0.61106175 27:0.60069611 28:0.1949532 29:0.37249611 30:0.46762116 31:0.54812433 32:0.23044052 33:0.3036113 34:0.56424596 35:0.65231628 36:0.72799619 37:0.3621275 
-4 1:0.81507341 2:0.80971167 3:0.75736108 4:0.80236342 5:0.79312424 6:0.73087749 7:0.80630606 8:0.52051222 9:0.66108838 10:0.73007904 11:0.73761539 12:0.74346178 13:0.69058168 14:0.77866116 15:0.8294545 16:0.84834242 17:0.81507338 18:0.32360922 19:0.31123788 20:0.13693853 21:0.11506936 22:0.5321218 23:0.60364704 24:0.58609485 25:0.59579353 26:0.61106175 27:0.60069611 28:0.18186516 29:0.34488208 30:0.43825745 31:0.52056668 32:0.21423664 33:0.28466105 34:0.52394573 35:0.61048462 36:0.68902053 37:0.33872636 
4 1:0.89830635 2:0.91355263 3:0.75736108 4:0.80236342 5:0.79312424 6:0.73087749 7:0.80630606 8:0.6633085 9:0.77093655 10:0.79386973 11:0.77329328 12:0.80835895 13:0.856647 14:0.91582415 15:0.90944253 16:0.89221364 17:0.89830632 18:0.48255595 19:0.44160693 20:0.13693853 21:0.11506936 22:0.79846224 23:0.60364704 24:0.58609485 25:0.59579353 26:0.61106175 27:0.60069611 28:0.34152295 29:0.56423522 30:0.62587725 31:0.66768159 32:0.38536527 33:0.51538436 34:0.84335488 35:0.8771638 36:0.89673734 37:0.5853867 
4 1:0.34343829 2:0.29882685 3:0.60824405 4:0.83551544 5:1 6:1 7:1 8:0.15758491 9:0.16063023 10:0.32853186 11:0.64194454 12:0.46006493 13:0.38202749 14:0.13915549 15:0.24157311 16:0.5634565 17:0.34343831 18:0.089747116 19:0.11890837 20:0.84277804 21:0.92863462 22:0.14885222 23:0.88496299 24:0.92738855 25:0.9259545 26:0.91656053 27:0.89330983 28:0.04486008 29:0.11832753 30:0.21145319 31:0.33472997 32:0.058376078 33:0.054320101 34:0.10998313 35:0.17497485 36:0.28466755 37:0.069966171 
4 1:0.79389337 2:0.76309653 3:0.60824405 4:0.83551544 5:1 6:1 7:1 8:0.36699227 9:0.58276068 10:0.85333793 11:0.94568818 12:0.86486898 13:0.64197517 14:0.65338586 15:0.7958376 16:0.86323719 17:0.79389333 18:0.28030832 19:0.27520779 20:0.84277804 21:0.92863462 22:0.6082459 23:0.88496299 24:0.92738855 25:0.9259545 26:0.91656053 27:0.89330983 28:0.26919102 29:0.57619704 30:0.71622378 31:0.79860988 32:0.33365729 33:0.30072109 34:0.59996555 35:0.71361663 36:0.79122014 37:0.3697624 
4 1:0.79206584 2:0.77575466 3:0.60824405 4:0.83551544 5:1 6:1 7:1 8:0.40000726 9:0.62586825 10:0.85341972 11:0.92389998 12:0.86325176 13:0.68295961 14:0.70577285 15:0.79591658 16:0.84170066 17:0.79206583 18:0.2554634 19:0.25482984 20:0.84277804 21:0.92863462 22:0.48983493 23:0.88496299 24:0.92738855 25:0.9259545 26:0.91656053 27:0.89330983 28:0.23007809 29:0.45467565 30:0.57709731 31:0.6719529 32:0.27678658 33:0.25758097 34:0.46961097 35:0.56489009 36:0.65264125 37:0.30762824 
-4 1:0.89408537 2:0.90263608 3:0.60824405 4:0.83551544 5:1 6:1 7:1 8:0.5234423 9:0.77962299 10:0.95593763 11:0.97474626 12:0.9547148 13:0.83620429 14:0.89311623 15:0.90430752 16:0.89214621 17:0.89408534 18:0.44156708 19:0.40747318 20:0.84277804 21:0.92863462 22:0.78432636 23:0.88496299 24:0.92738855 25:0.9259545 26:0.91656053 27:0.89330983 28:0.47365889 29:0.77841802 30:0.84819485 31:0.87986644 32:0.53543835 33:0.52544195 34:0.81642055 35:0.85463456 36:0.88013822 37:0.58969245 
-4 1:0.35928622 2:0.31157386 3:0.60824405 4:0.83551544 5:1 6:1 7:1 8:0.14328868 9:0.16603692 10:0.36435498 11:0.64779857 12:0.47483506 13:0.36425803 14:0.14573029 15:0.27889344 16:0.56814363 17:0.35928621 18:0.074999287 19:0.10681211 20:0.84277804 21:0.92863462 22:0.15687816 23:0.88496299 24:0.92738855 25:0.9259545 26:0.91656053 27:0.89330983 28:0.058705239 29:0.13495732 30:0.22285729 31:0.32455284 32:0.072450168 33:0.069314697 34:0.12695656 35:0.1857749 36:0.27173328 37:0.084966604 
4 1:0.34430865 2:0.3526108 3:0.60824405 4:0.83551544 5:1 6:1 7:1 8:0.22610209 9:0.31587224 10:0.43853266 11:0.51196916 12:0.4620601 13:0.46674585 14:0.32788602 15:0.35647462 16:0.43273427 17:0.34430866 18:0.010753836 19:0.054117616 20:0.84277804 21:0.92863462 22:0.1307074 23:0.88496299 24:0.92738855 25:0.9259545 26:0.91656053 27:0.89330983 28:0.07962901 29:0.14446888 30:0.18872316 31:0.22991587 32:0.088638985 33:0.092656099 34:0.13763611 35:0.1495047 36:0.16792674 37:0.10299598 
-4 1:0.77065304 2:0.75228594 3:0.60824405 4:0.83551544 5:1 6:1 7:1 8:0.38565855 9:0.60123881 10:0.82956414 11:0.90940739 12:0.84332786 13:0.66512594 14:0.67622642 15:0.77151185 16:0.82796925 17:0.770653 18:0.23684769 19:0.23956113 20:0.84277804 21:0.92863462 22:0.46963957 23:0.88496299 24:0.92738855 25:0.9259545 26:0.91656053 27:0.89330983 28:0.22027133 29:0.43475163 30:0.55362519 31:0.64807769 32:0.2646823 33:0.24738511 34:0.44966712 35:0.54131918 36:0.62792202 37:0.29516833 
4 1:0.8850697 2:0.89184505 3:0.60824405 4:0.83551544 5:1 6:1 7:1 8:0.51537737 9:0.76670767 10:0.94533129 11:0.97048084 12:0.94650606 13:0.82617633 14:0.87743487 15:0.89323705 16:0.88804608 17:0.88506969 18:0.42318949 19:0.39239977 20:0.84277804 21:0.92863462 22:0.76703453 23:0.88496299 24:0.92738855 25:0.9259545 26:0.91656053 27:0.89330983 28:0.45558592 29:0.7566171 30:0.83398517 31:0.87178103 32:0.51688192 33:0.50587359 34:0.7934736 35:0.83974163 36:0.87147721 37:0.56978635 
-4 1:0.65590383 2:0.60695875 3:0.60824405 4:0.83551544 5:1 6:1 7:1 8:0.2599414 9:0.41348107 10:0.70202251 11:0.86670584 12:0.741791 13:0.50896955 14:0.44661206 15:0.63490522 16:0.78435925 17:0.65590377 18:0.11978378 19:0.14354462 20:0.84277804 21:0.92863462 22:0.25678232 23:0.88496299 24:0.92738855 25:0.9259545 26:0.91656053 27:0.89330983 28:0.10053932 29:0.22331883 30:0.33234441 31:0.44493365 32:0.12513056 33:0.11517036 34:0.22135365 35:0.30252007 36:0.40327609 37:0.14222715 
-4 1:0.8907949 2:0.87560839 3:0.60824405 4:0.83551544 5:1 6:1 7:1 8:0.44368226 9:0.71745856 10:0.95486425 11:1 12:0.95194306 13:0.73717546 14:0.81725065 15:0.90305086 16:0.91706538 17:0.89079486 18:0.24090942 19:0.24289258 20:0.84277804 21:0.92863462 22:0.70161063 23:0.88496299 24:0.92738855 25:0.9259545 26:0.91656053 27:0.89330983 28:0.35424092 29:0.68682849 30:0.79372148 31:0.85613543 32:0.42281899 33:0.39399987 34:0.71845139 35:0.79664889 36:0.85442899 37:0.46677563 
-3.9775021642292505 1:0.16208108 2:0.14995567 3:0.60824405 4:0.83551544 5:1 6:1 7:1 8:0.11777238 9:0.10304581 10:0.19885592 11:0.42268848 12:0.29748421 13:0.33259996 14:0.06912884 15:0.10415523 16:0.34568474 17:0.16208109 19:0.045297256 20:0.84277804 21:0.92863462 22:0.0076964024 23:0.88496299 24:0.92738855 25:0.9259545 26:0.91656053 27:0.89330983 28:0.016084879 29:0.023785917 30:0.05726666 31:0.10369278 32:0.01255571 33:0.022626721 34:0.0082849557 35:0.0093112715 36:0.030690883 37:0.01989994 
-4 1:0.81079849 2:0.79725094 3:0.60824405 4:0.83551544 5:1 6:1 7:1 8:0.4181712 9:0.64772428 10:0.87378033 11:0.93474418 12:0.87996793 13:0.70552097 14:0.73243922 15:0.81750044 16:0.8526101 17:0.81079847 18:0.29455483 19:0.28689286 20:0.84277804 21:0.92863462 22:0.61541298 23:0.88496299 24:0.92738855 25:0.9259545 26:0.91656053 27:0.89330983 28:0.30143939 29:0.59470999 30:0.70821357 31:0.77798198 32:0.36200406 33:0.3360948 34:0.61997262 35:0.70535657 36:0.76890729 37:0.40063182 
-4 1:0.76654668 2:0.74670424 3:0.60824405 4:0.83551544 5:1 6:1 7:1 8:0.38667455 9:0.59156255 10:0.81938446 11:0.91193855 12:0.83965426 13:0.66641487 14:0.66449663 15:0.76075812 16:0.83030372 17:0.76654666 18:0.257224 19:0.2562739 20:0.84277804 21:0.92863462 22:0.51859093 23:0.88496299 24:0.92738855 25:0.9259545 26:0.91656053 27:0.89330983 28:0.23776575 29:0.48426278 30:0.60957412 31:0.70223356 32:0.28910166 33:0.26670696 34:0.50258019 35:0.60075027 36:0.68668491 37:0.32183605 
-4 1:0.59527885 2:0.55647984 3:0.60824405 4:0.83551544 5:1 6:1 7:1 8:0.25319453 9:0.39125079 10:0.64496324 11:0.80080203 12:0.68644467 13:0.50071922 14:0.41989512 15:0.57581667 16:0.72031461 17:0.59527881 18:0.1038169 19:0.13044849 20:0.84277804 21:0.92863462 22:0.28927176 23:0.88496299 24:0.92738855 25:0.9259545 26:0.91656053 27:0.89330983 28:0.11293271 29:0.26102399 30:0.37145007 31:0.46773645 32:0.14268272 33:0.12904922 34:0.26293631 35:0.34611881 36:0.43022235 37:0.16178541 
-4 1:0.76587925 2:0.74379365 3:0.60824405 4:0.83551544 5:1 6:1 7:1 8:0.38388406 9:0.58372455 10:0.81541421 11:0.91770042 12:0.83971428 13:0.66295576 14:0.65446092 15:0.75585597 16:0.83558524 17:0.76587922 18:0.23198203 19:0.23557028 20:0.84277804 21:0.92863462 22:0.52977772 23:0.88496299 24:0.92738855 25:0.9259545 26:0.91656053 27:0.89330983 28:0.23205624 29:0.49132283 30:0.6247962 31:0.72954186 32:0.28643738 33:0.25994194 34:0.50940355 35:0.61627433 36:0.71579283 37:0.31838348 
-3.0289733318461165 1:0.79841973 2:0.78654959 3:0.60824405 4:0.83551544 5:1 6:1 7:1 8:0.41647582 9:0.64352299 10:0.85889955 11:0.92374303 12:0.8688591 13:0.70340118 14:0.7273307 15:0.80175706 16:0.84165878 17:0.79841968 18:0.27097057 19:0.26754892 20:0.84277804 21:0.92863462 22:0.52894382 23:0.88496299 24:0.92738855 25:0.9259545 26:0.91656053 27:0.89330983 28:0.26316776 29:0.49708547 30:0.61308088 31:0.69879287 32:0.31163229 33:0.29404548 34:0.51521902 35:0.60352787 36:0.68217604 37:0.34572303 
-4 1:0.89224835 2:0.90137214 3:0.60824405 4:0.83551544 5:1 6:1 7:1 8:0.52526076 9:0.77909424 10:0.95367421 11:0.97296324 12:0.95310266 13:0.83844932 14:0.89243045 15:0.90187067 16:0.890368 17:0.89224832 18:0.44251533 19:0.40825094 20:0.84277804 21:0.92863462 22:0.78913096 23:0.88496299 24:0.92738855 25:0.9259545 26:0.91656053 27:0.89330983 28:0.48278209 29:0.7828528 30:0.85047673 31:0.88109197 32:0.54356361 33:0.53537727 34:0.8209893 35:0.85692487 36:0.88137024 37:0.59844224 
4 1:0.77796242 2:0.75990186 3:0.60824405 4:0.83551544 5:1 6:1 7:1 8:0.38901005 9:0.60877416 10:0.83806881 11:0.91508911 12:0.85037786 13:0.66931831 14:0.68509167 15:0.77995269 16:0.83317959 17:0.77796245 18:0.24755661 19:0.24834464 20:0.84277804 21:0.92863462 22:0.47355057 23:0.88496299 24:0.92738855 25:0.9259545 26:0.91656053 27:0.89330983 28:0.22239267 29:0.43834573 30:0.55873719 31:0.65429455 32:0.26719871 33:0.24935854 34:0.45259789 35:0.5457706 36:0.63378531 37:0.29745162 
-4 1:0.88665883 2:0.89297629 3:0.60824405 4:0.83551544 5:1 6:1 7:1 8:0.51183706 9:0.76807123 10:0.94899266 11:0.97126453 12:0.94813142 13:0.8217854 14:0.87897687 15:0.89688352 16:0.88864435 17:0.88665881 18:0.43087137 19:0.39870049 20:0.84277804 21:0.92863462 22:0.77519863 23:0.88496299 24:0.92738855 25:0.9259545 26:0.91656053 27:0.89330983 28:0.46343577 29:0.76813046 30:0.84136797 31:0.87566219 32:0.52531198 33:0.51404585 34:0.80518438 35:0.84717341 36:0.87542211 37:0.57848095 
-0.74119021462286649 1:0.94441978 2:0.9777373 3:0.60824405 4:0.83551544 5:1 6:1 7:1 8:0.65540157 9:0.86749101 10:1 11:0.99252287 12:1 13:1 14:1 15:0.9507739 16:0.9096956 17:0.94441974 18:0.58515259 19:0.52524287 20:0.84277804 21:0.92863462 22:0.99999983 23:0.88496299 24:0.92738855 25:0.9259545 26:0.91656053 27:0.89330983 28:0.90627502 29:0.9412684 30:0.94135778 31:0.9353715 32:0.91267725 33:0.99999991 34:0.9899651 35:0.95364371 36:0.94053431 37:1 
4 1:0.42715686 2:0.36409929 3:0.60824405 4:0.83551544 5:1 6:1 7:1 8:0.12102641 9:0.18865853 10:0.43326438 11:0.72005369 12:0.53568695 13:0.3366315 14:0.17309663 15:0.35188353 16:0.6402363 17:0.42715686 18:0.10023523 19:0.12751078 20:0.84277804 21:0.92863462 22:0.14959261 23:0.88496299 24:0.92738855 25:0.9259545 26:0.91656053 27:0.89330983 28:0.050181468 29:0.12220389 30:0.21273392 31:0.32853439 32:0.063253718 33:0.059994458 34:0.11363496 35:0.1755799 36:0.27702911 37:0.075045162 
4 1:0.76503485 2:0.72780586 3:0.60824405 4:0.83551544 5:1 6:1 7:1 8:0.31201446 9:0.54261056 10:0.85174948 11:0.91407577 12:0.8389602 13:0.57373557 14:0.60427503 15:0.79427477 16:0.83226047 17:0.76503486 18:0.26196755 19:0.26016459 20:0.84277804 21:0.92863462 22:0.52827522 23:0.88496299 24:0.92738855 25:0.9259545 26:0.91656053 27:0.89330983 28:0.22338393 29:0.50470546 30:0.62991434 31:0.71628351 32:0.28164559 33:0.25000817 34:0.5230237 35:0.62143346 36:0.70137902 37:0.31270446 
4 1:0.75626424 2:0.73287373 3:0.60824405 4:0.83551544 5:1 6:1 7:1 8:0.35502177 9:0.57883047 10:0.82051673 11:0.89997065 12:0.83024258 13:0.62713972 14:0.64897544 15:0.76218774 16:0.81888715 17:0.75626418 18:0.23131368 19:0.2350221 20:0.84277804 21:0.92863462 22:0.45234442 23:0.88496299 24:0.92738855 25:0.9259545 26:0.91656053 27:0.89330983 28:0.20708823 29:0.41819948 30:0.53662145 31:0.63219052 32:0.25070795 33:0.23298379 34:0.43224635 35:0.52350968 36:0.61088137 37:0.28006377 
3.8171116843114259 1:0.88492385 2:0.89098691 3:0.60824405 4:0.83551544 5:1 6:1 7:1 8:0.51104475 9:0.76547482 10:0.94681033 11:0.9700983 12:0.94635759 13:0.82079469 14:0.87596438 15:0.89480276 16:0.88764935 17:0.88492384 18:0.42564953 19:0.39441751 20:0.84277804 21:0.92863462 22:0.76938071 23:0.88496299 24:0.92738855 25:0.9259545 26:0.91656053 27:0.89330983 28:0.46013617 29:0.76010387 30:0.83467663 31:0.87085793 32:0.52110486 33:0.51099262 34:0.79728129 35:0.840527 36:0.87050276 37:0.57450341 
4 1:0.76897089 2:0.74846056 3:0.60824405 4:0.83551544 5:1 6:1 7:1 8:0.37589078 9:0.59535695 10:0.82958716 11:0.91049931 12:0.84234563 13:0.65303385 14:0.66871893 15:0.77093492 16:0.82861452 17:0.76897089 18:0.24282102 19:0.24446049 20:0.84277804 21:0.92863462 22:0.45992076 23:0.88496299 24:0.92738855 25:0.9259545 26:0.91656053 27:0.89330983 28:0.21423227 29:0.42444582 30:0.54493506 31:0.6419333 32:0.25782869 33:0.24033667 34:0.43756566 35:0.53084055 36:0.6200653 37:0.2871694 
4 1:0.89514545 2:0.90392782 3:0.60824405 4:0.83551544 5:1 6:1 7:1 8:0.52572507 9:0.78051465 10:0.95673109 11:0.97574487 12:0.95574279 13:0.83902898 14:0.89412687 15:0.90506771 16:0.8930998 17:0.89514543 18:0.45222106 19:0.41621164 20:0.84277804 21:0.92863462 22:0.80185029 23:0.88496299 24:0.92738855 25:0.9259545 26:0.91656053 27:0.89330983 28:0.4924344 29:0.79809974 30:0.86248876 31:0.88978552 32:0.55424519 33:0.54591615 34:0.83718854 35:0.86967202 36:0.89082916 37:0.61000318 
4 1:0.62039936 2:0.60777002 3:0.08284534 4:0.1304795 5:0.18214895 6:0.18842265 7:0.17937768 8:0.044321506 9:0.069865583 10:0.1673298 11:0.28929632 12:0.21173689 13:0.75932938 14:0.53012025 15:0.53619424 16:0.70581214 17:0.62039933 18:0.39439975 19:0.31176046 20:0.0025757921 21:0.003188801 22:0.55240883 23:0.19258278 24:0.21182257 25:0.21684814 26:0.22238574 27:0.19670424 28:0.11760082 29:0.1724575 30:0.22083028 31:0.2701493 32:0.12511428 33:0.39972818 34:0.5338564 35:0.59025744 36:0.65440254 37:0.43578797 
-4 1:0.88907508 2:0.90634419 3:0.08284534 4:0.1304795 5:0.18214895 6:0.18842265 7:0.17937768 8:0.1329455 9:0.20652665 10:0.29509861 11:0.36398448 12:0.31844641 13:0.90230767 14:0.89128607 15:0.89392517 16:0.88496011 17:0.88907502 18:0.64400177 19:0.51648551 20:0.0025757921 21:0.003188801 22:0.87633766 23:0.19258278 24:0.21182257 25:0.21684814 26:0.22238574 27:0.19670424 28:0.24096202 29:0.32357639 30:0.3540529 31:0.37933243 32:0.2539698 33:0.72967798 34:0.89684334 35:0.89509789 36:0.89919774 37:0.770353 
-4 1:0.81317709 2:0.8221071 3:0.08284534 4:0.1304795 5:0.18214895 6:0.18842265 7:0.17937768 8:0.10014684 9:0.16819151 10:0.26326359 11:0.34109976 12:0.28844061 13:0.84928011 14:0.78921216 15:0.80420267 16:0.82991645 17:0.81317705 18:0.45011863 19:0.35746141 20:0.0025757921 21:0.003188801 22:0.64460118 23:0.19258278 24:0.21182257 25:0.21684814 26:0.22238574 27:0.19670424 28:0.1619991 29:0.21643255 30:0.25499814 31:0.29255795 32:0.16918627 33:0.51860394 34:0.63911782 35:0.66791064 36:0.70403596 37:0.55020701 
-4 1:0.90094733 2:0.92393754 3:0.08284534 4:0.1304795 5:0.18214895 6:0.18842265 7:0.17937768 8:0.15003484 9:0.21975301 10:0.29889632 11:0.36465407 12:0.32319318 13:0.92989965 14:0.92633246 15:0.90443952 16:0.88650582 17:0.90094727 18:0.63813718 19:0.51167534 20:0.0025757921 21:0.003188801 22:0.88008602 23:0.19258278 24:0.21182257 25:0.21684814 26:0.22238574 27:0.19670424 28:0.24549146 29:0.32369015 30:0.3543043 31:0.38008009 32:0.25764348 33:0.74141516 34:0.89690953 35:0.89553919 36:0.90077329 37:0.77956152 
4 1:0.38176762 2:0.38823749 3:0.08284534 4:0.1304795 5:0.18214895 6:0.18842265 7:0.17937768 8:0.013111381 9:0.022824437 10:0.076936566 11:0.17753201 12:0.11730687 13:0.70878947 14:0.40489398 15:0.28255825 16:0.43730504 17:0.38176759 18:0.27974538 19:0.21772027 20:0.0025757921 21:0.003188801 22:0.33732729 23:0.19258278 24:0.21182257 25:0.21684814 26:0.22238574 27:0.19670424 28:0.088002914 29:0.091177246 30:0.10904459 31:0.13135925 32:0.083129423 33:0.32127259 34:0.33932551 35:0.33514127 36:0.34393114 37:0.32749232 
-4 1:0.81421756 2:0.82066935 3:0.08284534 4:0.1304795 5:0.18214895 6:0.18842265 7:0.17937768 8:0.098823755 9:0.16486564 10:0.26184384 11:0.34430331 12:0.28891955 13:0.84701247 14:0.77992681 15:0.80009919 16:0.83751264 17:0.81421754 18:0.49245525 19:0.39218616 20:0.0025757921 21:0.003188801 22:0.76609285 23:0.19258278 24:0.21182257 25:0.21684814 26:0.22238574 27:0.19670424 28:0.19405701 29:0.27013102 30:0.31156009 31:0.34790527 32:0.20600155 33:0.60435784 34:0.76840532 35:0.79776382 36:0.82863525 37:0.64588862 
-4 1:0.84224117 2:0.85721705 3:0.08284534 4:0.1304795 5:0.18214895 6:0.18842265 7:0.17937768 8:0.11773265 9:0.18777093 10:0.27523849 11:0.34756379 12:0.29982989 13:0.877678 14:0.84142188 15:0.8384381 16:0.84576924 17:0.84224113 18:0.5063764 19:0.40360437 20:0.0025757921 21:0.003188801 22:0.73796514 23:0.19258278 24:0.21182257 25:0.21684814 26:0.22238574 27:0.19670424 28:0.19046547 29:0.25775912 30:0.29642109 31:0.33155274 32:0.20045788 33:0.59501703 34:0.7389955 35:0.76338321 36:0.7921539 37:0.63176785 
4 1:0.9053659 2:0.92969775 3:0.11798198 4:0.14076472 5:0.19359459 6:0.21096606 7:0.19782199 8:0.18973806 9:0.23038167 10:0.30918723 11:0.38230321 12:0.33923346 13:0.94539847 14:0.93214714 15:0.90772843 16:0.88863124 17:0.90536581 18:0.66094621 19:0.54567571 21:0.00035269362 22:0.89132705 23:0.18247216 24:0.20075267 25:0.20617518 26:0.21232004 27:0.18642447 28:0.24536555 29:0.3199774 30:0.3496302 31:0.37518562 32:0.25674004 33:0.75844574 34:0.90831692 35:0.90360261 36:0.9069544 37:0.79526918 
-4 1:0.90756855 2:0.9206014 3:0.11798198 4:0.14076472 5:0.19359459 6:0.21096606 7:0.19782199 8:0.16465561 9:0.21182727 10:0.31171989 11:0.39137167 12:0.34002715 13:0.90582243 14:0.88427328 15:0.91489823 16:0.90960574 17:0.90756852 18:0.34539296 19:0.28685708 21:0.00035269362 22:0.82745125 23:0.18247216 24:0.20075267 25:0.20617518 26:0.21232004 27:0.18642447 28:0.2054656 29:0.28893221 30:0.33130104 31:0.3681008 32:0.21904475 33:0.65054846 34:0.83298091 35:0.8614177 36:0.89112029 37:0.69634424 
4 1:0.47058077 2:0.50149626 3:0.11798198 4:0.14076472 5:0.19359459 6:0.21096606 7:0.19782199 8:0.11508513 9:0.091228204 10:0.12320773 11:0.20220155 12:0.16178559 13:0.82749704 14:0.57097204 15:0.39930312 16:0.47298667 17:0.47058074 18:0.10921285 19:0.093140756 21:0.00035269362 22:0.31696842 23:0.18247216 24:0.20075267 25:0.20617518 26:0.21232004 27:0.18642447 28:0.084202105 29:0.082481898 30:0.095446899 31:0.11008936 32:0.078009002 33:0.31847148 34:0.32655059 35:0.31155551 36:0.30309879 37:0.32172944 
-4 1:0.85661898 2:0.87164763 3:0.11798198 4:0.14076472 5:0.19359459 6:0.21096606 7:0.19782199 8:0.16119603 9:0.19802145 10:0.2884041 11:0.37005563 12:0.31934164 13:0.90027998 14:0.84804215 15:0.85085477 16:0.86021937 17:0.85661893 18:0.45700648 19:0.37840315 21:0.00035269362 22:0.80787371 23:0.18247216 24:0.20075267 25:0.20617518 26:0.21232004 27:0.18642447 28:0.20530626 29:0.28293561 30:0.32038541 31:0.35259369 32:0.2174273 33:0.64972894 34:0.81796487 35:0.83575011 36:0.85566857 37:0.69169191 
-4 1:0.89100628 2:0.91180008 3:0.11798198 4:0.14076472 5:0.19359459 6:0.21096606 7:0.19782199 8:0.17929946 9:0.21953737 10:0.30257011 11:0.37932413 12:0.33318886 13:0.92899016 14:0.90459114 15:0.89027458 16:0.8820809 17:0.8910063 18:0.62853843 19:0.51909466 21:0.00035269362 22:0.86330625 23:0.18247216 24:0.20075267 25:0.20617518 26:0.21232004 27:0.18642447 28:0.22742707 29:0.30799171 30:0.34176687 31:0.36971377 32:0.24009653 33:0.71069966 34:0.8798665 35:0.88590012 36:0.89490636 37:0.75230783 
-4 1:0.66098373 2:0.67082146 3:0.11798198 4:0.14076472 5:0.19359459 6:0.21096606 7:0.19782199 8:0.11946698 9:0.12242618 10:0.20037249 11:0.29718209 12:0.2394558 13:0.83423015 14:0.65148632 15:0.60993926 16:0.69242049 17:0.66098371 18:0.28611947 19:0.23824061 21:0.00035269362 22:0.52469319 23:0.18247216 24:0.20075267 25:0.20617518 26:0.21232004 27:0.18642447 28:0.12427263 29:0.15969473 30:0.1946695 31:0.23163288 32:0.1271471 33:0.42816192 34:0.51580286 35:0.54272366 36:0.57996247 37:0.45217392 
-4 1:0.86137637 2:0.87719004 3:0.11798198 4:0.14076472 5:0.19359459 6:0.21096606 7:0.19782199 8:0.16339603 9:0.20166148 10:0.2895682 11:0.37161267 12:0.32122787 13:0.90371563 14:0.85764626 15:0.85421146 16:0.86398384 17:0.86137632 18:0.51043604 19:0.42222638 21:0.00035269362 22:0.80859856 23:0.18247216 24:0.20075267 25:0.20617518 26:0.21232004 27:0.18642447 28:0.19925836 29:0.28084722 30:0.32343047 31:0.36068476 32:0.21242461 33:0.63328513 34:0.81305666 35:0.84300834 36:0.87419469 37:0.67853983 
-4 1:0.83854737 2:0.84799546 3:0.11798198 4:0.14076472 5:0.19359459 6:0.21096606 7:0.19782199 8:0.1457594 9:0.18112879 10:0.28263664 11:0.36639777 12:0.31194376 13:0.87592031 14:0.80433017 15:0.83487766 16:0.85181324 17:0.83854731 18:0.48752965 19:0.40343843 21:0.00035269362 22:0.7140956 23:0.18247216 24:0.20075267 25:0.20617518 26:0.21232004 27:0.18642447 28:0.17847698 29:0.24099768 30:0.27905847 31:0.31449437 32:0.18738655 33:0.57588915 34:0.71444114 35:0.73882053 36:0.76832669 37:0.61145982 
4 1:0.91064598 2:0.93580382 3:0.11798198 4:0.14076472 5:0.19359459 6:0.21096606 7:0.19782199 8:0.19256267 9:0.23343223 10:0.31156288 11:0.38374482 12:0.34139403 13:0.94988912 14:0.94015836 15:0.91419758 16:0.89191785 17:0.91064595 18:0.67224238 19:0.5549409 21:0.00035269362 22:0.89966919 23:0.18247216 24:0.20075267 25:0.20617518 26:0.21232004 27:0.18642447 28:0.24997173 29:0.32394456 30:0.35221768 31:0.37663001 32:0.26117521 33:0.77110005 34:0.91802054 35:0.90960552 36:0.91023014 37:0.80707449 
-4 1:0.83457866 2:0.85183501 3:0.11798198 4:0.14076472 5:0.19359459 6:0.21096606 7:0.19782199 8:0.16152371 9:0.19424601 10:0.2793015 11:0.35937524 12:0.31046758 13:0.90072832 14:0.83769419 15:0.82530162 16:0.83552354 17:0.83457865 18:0.4671677 19:0.38673744 21:0.00035269362 22:0.67040861 23:0.18247216 24:0.20075267 25:0.20617518 26:0.21232004 27:0.18642447 28:0.1679236 29:0.22163104 30:0.25880854 31:0.29496889 32:0.17492879 33:0.54674835 34:0.66674721 35:0.69140793 36:0.72364076 37:0.57814033 
4 1:0.90292366 2:0.92718437 3:0.11798198 4:0.14076472 5:0.19359459 6:0.21096606 7:0.19782199 8:0.18843716 9:0.22956659 10:0.30837284 11:0.38129661 12:0.33826107 13:0.94332222 14:0.92989078 15:0.90542142 16:0.88627685 17:0.90292362 18:0.64693576 19:0.53418426 21:0.00035269362 22:0.87838357 23:0.18247216 24:0.20075267 25:0.20617518 26:0.21232004 27:0.18642447 28:0.23949278 29:0.31430893 30:0.34513803 31:0.37163695 32:0.25092947 33:0.74210886 34:0.89415056 35:0.89293577 36:0.89872909 37:0.77958089 
-4 1:0.94441978 2:0.9777373 3:0.11798198 4:0.14076472 5:0.19359459 6:0.21096606 7:0.19782199 8:0.22415468 9:0.25627755 10:0.32487903 11:0.39142765 12:0.35513974 13:1 14:1 15:0.9507739 16:0.9096956 17:0.94441974 18:0.86731028 19:0.71493674 21:0.00035269362 22:0.99999648 23:0.18247216 24:0.20075267 25:0.20617518 26:0.21232004 27:0.18642447 28:0.33390864 29:0.35328292 30:0.37108687 31:0.38989877 32:0.33406399 33:0.99999816 34:0.98996226 35:0.95363987 36:0.94052971 37:0.99999778 
-4 1:0.87529994 2:0.89145397 3:0.11798198 4:0.14076472 5:0.19359459 6:0.21096606 7:0.19782199 8:0.16545508 9:0.208585 10:0.29503308 11:0.37727819 12:0.3270993 13:0.9067956 14:0.87481731 15:0.86836097 16:0.87683997 17:0.87529985 18:0.56889658 19:0.47017606 21:0.00035269362 22:0.82482326 23:0.18247216 24:0.20075267 25:0.20617518 26:0.21232004 27:0.18642447 28:0.20390808 29:0.28981556 30:0.33178131 31:0.36586333 32:0.21792971 33:0.64477358 34:0.83397738 35:0.86175755 36:0.88559224 37:0.69197991 
-4 1:0.8766295 2:0.89725885 3:0.11798198 4:0.14076472 5:0.19359459 6:0.21096606 7:0.19782199 8:0.17544224 9:0.2144626 10:0.29747639 11:0.37341594 12:0.32753492 13:0.92271869 14:0.8903178 15:0.87555538 16:0.86815431 17:0.87662942 18:0.56552415 19:0.46740998 21:0.00035269362 22:0.8033282 23:0.18247216 24:0.20075267 25:0.20617518 26:0.21232004 27:0.18642447 28:0.2097092 29:0.28006693 30:0.31593719 31:0.34763441 32:0.2203038 33:0.66102782 34:0.81034829 35:0.82495621 36:0.84405494 37:0.69862976 
4 1:0.90933117 2:0.9334598 3:0.08284534 4:0.1304795 5:0.18214895 6:0.18842265 7:0.17937768 8:0.15551673 9:0.22386194 10:0.30211525 11:0.36708566 12:0.32644245 13:0.93884021 14:0.93758121 15:0.91371709 16:0.89246393 17:0.90933112 18:0.68450428 19:0.54970591 20:0.0025757921 21:0.003188801 22:0.90740251 23:0.19258278 24:0.21182257 25:0.21684814 26:0.22238574 27:0.19670424 28:0.25952576 29:0.33613776 30:0.36333867 31:0.38661524 32:0.27127549 33:0.779266 34:0.92719143 35:0.91649559 36:0.91563385 37:0.81528284 
-4 1:0.86051191 2:0.87838015 3:0.08284534 4:0.1304795 5:0.18214895 6:0.18842265 7:0.17937768 8:0.12891985 9:0.19868287 10:0.28253627 11:0.3527537 12:0.30724027 13:0.89567603 14:0.86990279 15:0.85834045 16:0.85784551 17:0.86051188 18:0.5446262 19:0.43497708 20:0.0025757921 21:0.003188801 22:0.77732587 23:0.19258278 24:0.21182257 25:0.21684814 26:0.22238574 27:0.19670424 28:0.20564929 29:0.27606275 30:0.31296349 31:0.34543211 32:0.21628057 33:0.63495376 34:0.78224016 35:0.8006114 36:0.82276613 37:0.67216906 
4 1:0.90758221 2:0.93139889 3:0.08284534 4:0.1304795 5:0.18214895 6:0.18842265 7:0.17937768 8:0.15422104 9:0.22290554 10:0.30144921 11:0.36665613 12:0.32577965 13:0.93673026 14:0.9349594 15:0.91174604 16:0.89135614 17:0.90758215 18:0.67478606 19:0.54173497 20:0.0025757921 21:0.003188801 22:0.90174654 23:0.19258278 24:0.21182257 25:0.21684814 26:0.22238574 27:0.19670424 28:0.25671028 29:0.33356384 30:0.36145239 31:0.38517157 32:0.26852468 33:0.7716671 34:0.92091647 35:0.91211083 36:0.91234796 37:0.80806721 
4 1:0.37419887 2:0.32457067 3:0.62718275 4:0.76916574 5:0.73198736 6:0.55676568 7:0.69014377 8:0.089715053 9:0.13756449 10:0.29853975 11:0.44847018 12:0.34720458 13:0.28530563 14:0.13950035 15:0.3170338 16:0.60846992 17:0.37419888 18:0.18652656 19:0.1742979 20:0.3419425 21:0.42458217 22:0.3301246 23:0.31058308 24:0.30507772 25:0.30556126 26:0.30511229 27:0.30949869 28:0.059848275 29:0.10784508 30:0.15971479 31:0.22070497 32:0.065817844 33:0.18586743 34:0.30699581 35:0.37173992 36:0.45932535 37:0.21633853 
-4 1:0.82400627 2:0.81406601 3:0.62718275 4:0.76916574 5:0.73198736 6:0.55676568 7:0.69014377 8:0.39752654 9:0.62294028 10:0.69674497 11:0.62894526 12:0.66577813 13:0.66219397 14:0.76021041 15:0.84566027 16:0.87186015 17:0.82400623 18:0.38541343 19:0.33742609 20:0.3419425 21:0.42458217 22:0.7069763 23:0.31058308 24:0.30507772 25:0.30556126 26:0.30511229 27:0.30949869 28:0.17067595 29:0.30982789 30:0.36952666 31:0.4111127 32:0.19618572 33:0.42459969 34:0.72527467 35:0.79259709 36:0.83943774 37:0.49346672 
4 1:0.89117145 2:0.90547901 3:0.62718275 4:0.76916574 5:0.73198736 6:0.55676568 7:0.69014377 8:0.53695995 9:0.73752687 10:0.74282663 11:0.63964582 12:0.71317034 13:0.83373232 14:0.90770556 15:0.90719826 16:0.88759849 17:0.89117143 18:0.49979518 19:0.43124267 20:0.3419425 21:0.42458217 22:0.78742349 23:0.31058308 24:0.30507772 25:0.30556126 26:0.30511229 27:0.30949869 28:0.22982808 29:0.35635663 30:0.39704307 31:0.42503825 32:0.25219272 33:0.55122118 34:0.82105141 35:0.8473845 36:0.86690625 37:0.61181268 
-4 1:0.83037058 2:0.83806666 3:0.62718275 4:0.76916574 5:0.73198736 6:0.55676568 7:0.69014377 8:0.47581666 9:0.6781027 10:0.6962968 11:0.61038036 12:0.67008341 13:0.75824799 14:0.83071966 15:0.84536286 16:0.84518617 17:0.83037055 18:0.35836193 19:0.31523828 20:0.3419425 21:0.42458217 22:0.57533725 23:0.31058308 24:0.30507772 25:0.30556126 26:0.30511229 27:0.30949869 28:0.14644359 29:0.24158626 30:0.29093769 31:0.33177397 32:0.1623349 33:0.37166855 34:0.58327856 35:0.63438797 36:0.68052427 37:0.42079258 
4 1:0.90747331 2:0.92809804 3:0.62718275 4:0.76916574 5:0.73198736 6:0.55676568 7:0.69014377 8:0.57860039 9:0.76263456 10:0.75240754 11:0.64347 12:0.72471847 13:0.88492356 14:0.93999264 15:0.91992705 16:0.89315443 17:0.90747327 18:0.52181001 19:0.44929937 20:0.3419425 21:0.42458217 22:0.81019945 23:0.31058308 24:0.30507772 25:0.30556126 26:0.30511229 27:0.30949869 28:0.24665381 29:0.36617291 30:0.40490962 31:0.4316429 32:0.26761066 33:0.58753936 34:0.84166664 35:0.86342981 36:0.88031805 37:0.64472262 
4 1:0.31623407 2:0.28444982 3:0.62718275 4:0.76916574 5:0.73198736 6:0.55676568 7:0.69014377 8:0.074819428 9:0.16782462 10:0.30250135 11:0.35328143 12:0.30587241 13:0.26622265 14:0.17669105 15:0.32242807 16:0.47221847 17:0.31623406 18:0.11225609 19:0.11338082 20:0.3419425 21:0.42458217 22:0.23191425 23:0.31058308 24:0.30507772 25:0.30556126 26:0.30511229 27:0.30949869 28:0.051402463 29:0.07198246 30:0.10008745 31:0.13360944 32:0.050384031 33:0.1677527 34:0.23291533 35:0.25243211 36:0.28586682 37:0.18362672 
-4 1:0.68062894 2:0.67772991 3:0.62718275 4:0.76916574 5:0.73198736 6:0.55676568 7:0.69014377 8:0.35572984 9:0.53302054 10:0.58632703 11:0.5298188 12:0.56317317 13:0.61079366 14:0.64469646 15:0.70125227 16:0.73015949 17:0.68062896 18:0.22972706 19:0.20973121 20:0.3419425 21:0.42458217 22:0.50214544 23:0.31058308 24:0.30507772 25:0.30556126 26:0.30511229 27:0.30949869 28:0.11661238 29:0.20340837 30:0.25373165 31:0.29853215 32:0.13067091 33:0.30782814 34:0.50476636 35:0.56047311 36:0.61502452 37:0.35389918 
-4 1:0.77004536 2:0.77061699 3:0.62718275 4:0.76916574 5:0.73198736 6:0.55676568 7:0.69014377 8:0.41338222 9:0.61630995 10:0.65190691 11:0.58061671 12:0.62698063 13:0.68091523 14:0.75055603 15:0.78718881 16:0.80255565 17:0.77004535 18:0.2927057 19:0.26138666 20:0.3419425 21:0.42458217 22:0.48874857 23:0.31058308 24:0.30507772 25:0.30556126 26:0.30511229 27:0.30949869 28:0.11811497 29:0.19656677 30:0.24420047 31:0.28733386 32:0.13034617 33:0.31090428 34:0.49057922 35:0.54127551 36:0.5924814 37:0.35309296 
1.1843758326123137 1:0.89444507 2:0.91275814 3:0.62718275 4:0.76916574 5:0.73198736 6:0.55676568 7:0.69014377 8:0.56270965 9:0.74638794 10:0.74251675 11:0.63858819 12:0.7154499 13:0.86540758 14:0.91916255 15:0.90684784 16:0.88609196 17:0.89444504 18:0.49740565 19:0.42928277 20:0.3419425 21:0.42458217 22:0.79149768 23:0.31058308 24:0.30507772 25:0.30556126 26:0.30511229 27:0.30949869 28:0.23673019 29:0.35481799 30:0.39669006 31:0.42638528 32:0.25749573 33:0.56619789 34:0.81825872 35:0.84706827 36:0.86995287 37:0.62326662 
-4 1:0.79410884 2:0.76937137 3:0.62718275 4:0.76916574 5:0.73198736 6:0.55676568 7:0.69014377 8:0.29623756 9:0.56628775 10:0.69813222 11:0.61544288 12:0.64446057 13:0.53825195 14:0.68783496 15:0.84766673 16:0.85267664 17:0.7941088 18:0.19505865 19:0.18129597 20:0.3419425 21:0.42458217 22:0.48845696 23:0.31058308 24:0.30507772 25:0.30556126 26:0.30511229 27:0.30949869 28:0.10709115 29:0.19644251 30:0.24870388 31:0.29575048 32:0.12171138 33:0.28728081 34:0.49004647 35:0.54992915 36:0.60888258 37:0.33476369 
4 1:0.92618199 2:0.91545864 3:0.62718275 4:0.76916574 5:0.73198736 6:0.55676568 7:0.69014377 8:0.41816031 9:0.70803503 10:0.7904822 11:0.68162818 12:0.73803832 13:0.68824091 14:0.87036477 15:0.97033359 16:0.94878937 17:0.92618196 18:0.24239758 19:0.22012364 20:0.3419425 21:0.42458217 22:0.80470456 23:0.31058308 24:0.30507772 25:0.30556126 26:0.30511229 27:0.30949869 28:0.20528228 29:0.36927941 30:0.41840976 31:0.45176701 32:0.23553787 33:0.49901849 34:0.84828344 35:0.8906654 36:0.92066225 37:0.57699405 
-4 1:0.12552572 2:0.09851546 3:0.62718275 4:0.76916574 5:0.73198736 6:0.55676568 7:0.69014377 8:0.0172363 9:0.04122413 10:0.12237772 11:0.24848183 12:0.17054123 13:0.19581622 14:0.015769788 15:0.084103804 16:0.31872961 17:0.12552575 18:0.045833321 19:0.058900477 20:0.3419425 21:0.42458217 22:0.17796235 23:0.31058308 24:0.30507772 25:0.30556126 26:0.30511229 27:0.30949869 28:0.044380024 29:0.049971769 30:0.067894331 31:0.090938716 32:0.039694862 33:0.15265575 34:0.18725817 35:0.18770122 36:0.20048973 37:0.16093052 
-4 1:0.82527581 2:0.82884005 3:0.62718275 4:0.76916574 5:0.73198736 6:0.55676568 7:0.69014377 8:0.46317263 9:0.65812224 10:0.69247371 11:0.61397689 12:0.6665296 13:0.74223976 14:0.80473911 15:0.84035064 16:0.85027355 17:0.82527582 18:0.36675965 19:0.32212615 20:0.3419425 21:0.42458217 22:0.68891336 23:0.31058308 24:0.30507772 25:0.30556126 26:0.30511229 27:0.30949869 28:0.17642484 29:0.30229225 30:0.35462679 31:0.39241786 32:0.19889717 33:0.43635771 34:0.70917839 35:0.76243893 36:0.80195747 37:0.49865086 
-4 1:0.81950793 2:0.82266511 3:0.62718275 4:0.76916574 5:0.73198736 6:0.55676568 7:0.69014377 8:0.45799702 9:0.65378209 10:0.68621924 11:0.61176431 12:0.66237065 13:0.73616896 14:0.79918966 15:0.83212511 16:0.84719997 17:0.81950793 18:0.38945861 19:0.34074396 20:0.3419425 21:0.42458217 22:0.64003163 23:0.31058308 24:0.30507772 25:0.30556126 26:0.30511229 27:0.30949869 28:0.15968057 29:0.27421403 30:0.32910511 31:0.37162856 32:0.17988573 33:0.39974199 34:0.65067508 35:0.71090246 36:0.76009148 37:0.45772361 
2.2360540708462864 1:0.34742535 2:0.30672402 3:0.62718275 4:0.76916574 5:0.73198736 6:0.55676568 7:0.69014377 8:0.063413172 9:0.15941624 10:0.31688186 11:0.39208644 12:0.32768071 13:0.25240295 14:0.16663106 15:0.34224306 16:0.52989643 17:0.34742535 18:0.11534325 19:0.11591293 20:0.3419425 21:0.42458217 22:0.29928721 23:0.31058308 24:0.30507772 25:0.30556126 26:0.30511229 27:0.30949869 28:0.0637792 29:0.10102419 30:0.1393502 31:0.18319173 32:0.066807687 33:0.19400907 34:0.29242861 35:0.33061999 36:0.38450849 37:0.21803263 
4 1:0.72408157 2:0.70822856 3:0.62718275 4:0.76916574 5:0.73198736 6:0.55676568 7:0.69014377 8:0.33941206 9:0.52519644 10:0.60950448 11:0.58278928 12:0.59468398 13:0.59063858 14:0.63442225 15:0.73049451 16:0.80514632 17:0.72408151 18:0.27535219 19:0.2471532 20:0.3419425 21:0.42458217 22:0.61922065 23:0.31058308 24:0.30507772 25:0.30556126 26:0.30511229 27:0.30949869 28:0.1437396 29:0.25865268 30:0.32139111 31:0.37235488 32:0.16434593 33:0.36607289 34:0.61893611 35:0.69589458 36:0.76200815 37:0.42531402 
-4 1:0.8311128 2:0.84110578 3:0.62718275 4:0.76916574 5:0.73198736 6:0.55676568 7:0.69014377 8:0.49196864 9:0.68043304 10:0.69533186 11:0.60940611 12:0.67056029 13:0.77822554 14:0.83388898 15:0.84424327 16:0.84375891 17:0.83111276 18:0.35997564 19:0.31656186 20:0.3419425 21:0.42458217 22:0.59069731 23:0.31058308 24:0.30507772 25:0.30556126 26:0.30511229 27:0.30949869 28:0.15602268 29:0.24904917 30:0.29712668 31:0.33667914 32:0.17148148 33:0.3922199 34:0.59880439 35:0.64692162 36:0.69046201 37:0.44018924 
4 1:0.90602015 2:0.92665775 3:0.62718275 4:0.76916574 5:0.73198736 6:0.55676568 7:0.69014377 8:0.57920746 9:0.76076211 10:0.75097379 11:0.64295307 12:0.72370914 13:0.88561335 14:0.93758515 15:0.91800084 16:0.89237998 17:0.90602008 18:0.52670157 19:0.45331145 20:0.3419425 21:0.42458217 22:0.81749006 23:0.31058308 24:0.30507772 25:0.30556126 26:0.30511229 27:0.30949869 28:0.25215972 29:0.36961771 30:0.40752941 31:0.4336187 32:0.27269254 33:0.59919158 34:0.84864654 35:0.86857442 36:0.88418094 37:0.65533613 
-4 1:0.81998854 2:0.82750288 3:0.62718275 4:0.76916574 5:0.73198736 6:0.55676568 7:0.69014377 8:0.47466414 9:0.66591078 10:0.68858769 11:0.60487569 12:0.66271197 13:0.75694106 14:0.81523469 15:0.83513864 16:0.8370942 17:0.81998845 18:0.34658615 19:0.30557972 20:0.3419425 21:0.42458217 22:0.5584794 23:0.31058308 24:0.30507772 25:0.30556126 26:0.30511229 27:0.30949869 28:0.14215007 29:0.23226922 30:0.28121059 31:0.32257247 32:0.15697357 33:0.36271138 34:0.56429371 35:0.61513249 36:0.66235604 37:0.4096961 
4 1:0.90178766 2:0.92138619 3:0.62718275 4:0.76916574 5:0.73198736 6:0.55676568 7:0.69014377 8:0.5704966 9:0.7562711 10:0.7482317 11:0.64120634 12:0.72071355 13:0.87496651 14:0.93186243 15:0.91433958 16:0.88981098 17:0.90178764 18:0.5131757 19:0.44221746 20:0.3419425 21:0.42458217 22:0.79404503 23:0.31058308 24:0.30507772 25:0.30556126 26:0.30511229 27:0.30949869 28:0.23791845 29:0.35737263 30:0.39800628 31:0.42633925 32:0.2589013 33:0.5687082 34:0.82336072 35:0.849487 36:0.86963382 37:0.6261731 
-4 1:0.94441978 2:0.9777373 3:0.62718275 4:0.76916574 5:0.73198736 6:0.55676568 7:0.69014377 8:0.67206053 9:0.80911924 10:0.77562036 11:0.65486181 12:0.75091069 13:1 14:1 15:0.9507739 16:0.9096956 17:0.94441974 18:0.65063861 19:0.55496535 20:0.3419425 21:0.42458217 22:0.99999604 23:0.31058308 24:0.30507772 25:0.30556126 26:0.30511229 27:0.30949869 28:0.43828877 29:0.43770075 30:0.44982831 31:0.46177092 32:0.43480455 33:0.99999787 34:0.98996135 35:0.95363936 36:0.94052975 37:0.99999744 
-4 1:0.77811952 2:0.75837785 3:0.62718275 4:0.76916574 5:0.73198736 6:0.55676568 7:0.69014377 8:0.31942739 9:0.5613382 10:0.68341085 11:0.6017461 12:0.63330159 13:0.5665356 14:0.68183223 15:0.828068 16:0.83207303 17:0.7781195 18:0.36511253 19:0.32077516 20:0.3419425 21:0.42458217 22:0.61755482 23:0.31058308 24:0.30507772 25:0.30556126 26:0.30511229 27:0.30949869 28:0.13712425 29:0.26679104 30:0.32277432 31:0.36697238 32:0.16031457 33:0.35208531 34:0.63559784 35:0.69838466 36:0.75097523 37:0.41689444 
-4 1:0.79952018 2:0.7928379 3:0.62718275 4:0.76916574 5:0.73198736 6:0.55676568 7:0.69014377 8:0.36855724 9:0.63314454 10:0.68712832 11:0.59921007 12:0.64811269 13:0.6267239 14:0.77310308 15:0.83349213 16:0.8291365 17:0.79952015 18:0.34051678 19:0.30060159 20:0.3419425 21:0.42458217 22:0.55653659 23:0.31058308 24:0.30507772 25:0.30556126 26:0.30511229 27:0.30949869 28:0.13320938 29:0.23381031 30:0.28345782 31:0.32542031 32:0.15014103 33:0.3432377 34:0.56732898 35:0.61965692 36:0.6681779 37:0.39494212 
4 1:0.89762605 2:0.91636993 3:0.62718275 4:0.76916574 5:0.73198736 6:0.55676568 7:0.69014377 8:0.56446364 9:0.7512835 10:0.74489541 11:0.63975892 12:0.71773231 13:0.86751987 14:0.92539901 15:0.90997798 16:0.88777064 17:0.89762601 18:0.51064349 19:0.44014052 20:0.3419425 21:0.42458217 22:0.80404244 23:0.31058308 24:0.30507772 25:0.30556126 26:0.30511229 27:0.30949869 28:0.24326318 29:0.36236243 30:0.40221788 31:0.43013828 32:0.26417253 33:0.58013116 34:0.83381902 35:0.85810937 36:0.87740178 37:0.63734434 
-4 1:0.83336217 2:0.84191158 3:0.62738749 4:0.76998437 5:0.73364185 6:0.55924488 7:0.69203148 8:0.48410614 9:0.68054424 10:0.69971989 11:0.61350673 12:0.67361245 13:0.76846047 14:0.83343335 15:0.84825856 16:0.8469081 17:0.83336215 18:0.36536274 19:0.3209802 20:0.34194022 21:0.42457978 22:0.58358241 23:0.31058016 24:0.30508103 25:0.30562092 26:0.30526971 27:0.30950036 28:0.15114201 29:0.24516959 30:0.29422702 31:0.33490025 32:0.16682497 33:0.38212177 34:0.59109538 35:0.64126832 36:0.68686912 37:0.43069041 
4 1:0.90067174 2:0.91992308 3:0.62738749 4:0.76998437 5:0.73364185 6:0.55924488 7:0.69203148 8:0.56966562 9:0.7545214 10:0.74848231 11:0.6431032 12:0.72138952 13:0.87377779 14:0.92876596 15:0.91291369 16:0.88984146 17:0.9006717 18:0.51659442 19:0.44502132 20:0.34194022 21:0.42457978 22:0.81125567 23:0.31058016 24:0.30508103 25:0.30562092 26:0.30526971 27:0.30950036 28:0.24673376 29:0.36581772 30:0.40564036 31:0.43333009 32:0.2676613 33:0.58783169 34:0.84098954 35:0.86483776 36:0.88346699 37:0.64493204 
4 1:0.40940841 2:0.40095091 3:0.51850959 4:0.56365535 5:0.57261844 6:0.48879113 7:0.55937119 8:0.25496533 9:0.19379414 10:0.2337102 11:0.37736823 12:0.30940279 13:0.58444952 14:0.33097658 15:0.31080138 16:0.55575811 17:0.4094084 18:0.17212293 19:0.17526535 20:0.35800633 21:0.39597039 22:0.18111216 23:0.66516435 24:0.59357908 25:0.56041661 26:0.53314134 27:0.64913003 28:0.030572566 29:0.08436434 30:0.15351455 31:0.23885174 32:0.038529679 33:0.058485167 34:0.14205521 35:0.21900386 36:0.33068562 37:0.077490083 
4 1:0.77795263 2:0.75497941 3:0.51850959 4:0.56365535 5:0.57261844 6:0.48879113 7:0.55937119 8:0.31327958 9:0.38131665 10:0.54181774 11:0.57180307 12:0.54126752 13:0.65980372 14:0.61966036 15:0.79343201 16:0.86044807 17:0.77795263 18:0.33416401 19:0.3081724 20:0.35800633 21:0.39597039 22:0.62003391 23:0.66516435 24:0.59357908 25:0.56041661 26:0.53314134 27:0.64913003 28:0.1604843 29:0.42585191 30:0.5201435 31:0.56415477 32:0.21323608 33:0.23410355 34:0.63562978 35:0.75972262 36:0.82728765 37:0.3165176 
-4 1:0.85034371 2:0.85101186 3:0.51850959 4:0.56365535 5:0.57261844 6:0.48879113 7:0.55937119 8:0.39525922 9:0.50228094 10:0.590373 11:0.58133497 12:0.58684927 13:0.76576495 14:0.80568437 15:0.86924996 16:0.87535659 17:0.85034372 18:0.42439579 19:0.38218104 20:0.35800633 21:0.39597039 22:0.69899111 23:0.66516435 24:0.59357908 25:0.56041661 26:0.53314134 27:0.64913003 28:0.2399812 29:0.5010205 30:0.55838393 31:0.58276715 32:0.29054304 33:0.34154304 34:0.7439697 35:0.81584191 36:0.85551382 37:0.42224778 
4 1:0.73945486 2:0.72354164 3:0.51850959 4:0.56365535 5:0.57261844 6:0.48879113 7:0.55937119 8:0.31977638 9:0.37877386 10:0.51160058 11:0.54347908 12:0.51731361 13:0.66818586 14:0.6155769 15:0.74535581 16:0.81550261 17:0.73945481 18:0.28368145 19:0.26676631 20:0.35800633 21:0.39597039 22:0.41654618 23:0.66516435 24:0.59357908 25:0.56041661 26:0.53314134 27:0.64913003 28:0.10482821 29:0.25680157 30:0.34872255 31:0.42160885 32:0.1342451 33:0.15888636 34:0.39095963 35:0.50644769 36:0.60923866 37:0.20843986 
-1.2257452284147667 1:0.87209656 2:0.88259064 3:0.51850959 4:0.56365535 5:0.57261844 6:0.48879113 7:0.55937119 8:0.44303768 9:0.53949617 10:0.60002098 11:0.58439344 12:0.60042774 13:0.82752746 14:0.86310331 15:0.88453177 16:0.88024071 17:0.87209652 18:0.45741191 19:0.40926106 20:0.35800633 21:0.39597039 22:0.744325 23:0.66516435 24:0.59357908 25:0.56041661 26:0.53314134 27:0.64913003 28:0.29658457 29:0.53348326 30:0.57779452 31:0.59517432 32:0.34197231 33:0.41805848 34:0.79108372 35:0.84461195 36:0.87455636 37:0.49266954 
-4 1:0.51798608 2:0.49635428 3:0.51850959 4:0.56365535 5:0.57261844 6:0.48879113 7:0.55937119 8:0.25575831 9:0.21647769 10:0.33055322 11:0.44488296 12:0.37833927 13:0.58545554 14:0.36577858 15:0.46148575 16:0.65980186 17:0.51798607 18:0.19211154 19:0.19166013 20:0.35800633 21:0.39597039 22:0.22097577 23:0.66516435 24:0.59357908 25:0.56041661 26:0.53314134 27:0.64913003 28:0.048435895 29:0.11903588 30:0.18830142 31:0.25897991 32:0.059815349 33:0.082641059 34:0.19172098 35:0.2695091 36:0.36039673 37:0.10658225 
-4 1:0.54270056 2:0.52096822 3:0.51850959 4:0.56365535 5:0.57261844 6:0.48879113 7:0.55937119 8:0.25984928 9:0.22974879 10:0.35726714 11:0.4539916 12:0.39406159 13:0.59073702 14:0.38613468 15:0.50294387 16:0.67366906 17:0.54270053 18:0.1629377 19:0.16773157 20:0.35800633 21:0.39597039 22:0.18966765 23:0.66516435 24:0.59357908 25:0.56041661 26:0.53314134 27:0.64913003 28:0.044719514 29:0.10479319 30:0.16315913 31:0.21968565 32:0.053297985 33:0.077617997 34:0.17111625 35:0.23236261 36:0.30027039 37:0.097664126 
4 1:0.72260744 2:0.70538753 3:0.51850959 4:0.56365535 5:0.57261844 6:0.48879113 7:0.55937119 8:0.31444941 9:0.3631944 10:0.49570373 11:0.53762785 12:0.50628571 13:0.66135895 14:0.59217658 15:0.72143265 16:0.80683997 17:0.72260741 18:0.27299656 19:0.25800249 20:0.35800633 21:0.39597039 22:0.4214702 23:0.66516435 24:0.59357908 25:0.56041661 26:0.53314134 27:0.64913003 28:0.10528737 29:0.25775856 30:0.35223797 31:0.42931564 32:0.13496495 33:0.15946437 34:0.39246118 35:0.51181626 36:0.62120207 37:0.20939675 
4 1:0.87228957 2:0.88213859 3:0.51850959 4:0.56365535 5:0.57261844 6:0.48879113 7:0.55937119 8:0.44329311 9:0.53686844 10:0.5995903 11:0.58576307 12:0.60053061 13:0.82786846 14:0.85908839 15:0.88390342 16:0.88240668 17:0.87228952 18:0.46133375 19:0.41247777 20:0.35800633 21:0.39597039 22:0.76219252 23:0.66516435 24:0.59357908 25:0.56041661 26:0.53314134 27:0.64913003 28:0.31798654 29:0.54620368 30:0.58563429 31:0.60100775 32:0.36151713 33:0.44697935 34:0.80941555 35:0.8561501 36:0.8834559 37:0.51939078 
4 1:0.66620695 2:0.62614428 3:0.44721268 4:0.56254205 5:0.57032665 6:0.46566641 7:0.543329 8:0.12928709 9:0.28211091 10:0.46987831 11:0.51251663 12:0.46161696 13:0.48579643 14:0.46719685 15:0.68147144 16:0.79049618 17:0.66620692 18:0.1877133 19:0.16620767 20:0.42455914 21:0.46898396 22:0.29043437 23:0.71255053 24:0.62949951 25:0.58550502 26:0.5485053 27:0.69365687 28:0.050847667 29:0.17096903 30:0.26212762 31:0.34494991 32:0.073446844 33:0.079552767 34:0.25256016 35:0.36451101 36:0.48092565 37:0.116671 
-4 1:0.84804205 2:0.82786186 3:0.44721268 4:0.56254205 5:0.57032665 6:0.46566641 7:0.543329 8:0.24531576 9:0.45554043 10:0.59968625 11:0.5814864 12:0.57389731 13:0.64096148 14:0.73438665 15:0.88622715 16:0.90229611 17:0.84804198 18:0.25662805 19:0.22273196 20:0.42455914 21:0.46898396 22:0.6979146 23:0.71255053 24:0.62949951 25:0.58550502 26:0.5485053 27:0.69365687 28:0.20799685 29:0.52276144 30:0.5908565 31:0.62077228 32:0.26981337 33:0.28192038 34:0.74256206 35:0.83730564 36:0.896001 37:0.37331971 
-4 1:0.26581351 2:0.27580309 3:0.51850959 4:0.56365535 5:0.57261844 6:0.48879113 7:0.55937119 8:0.21109519 9:0.15940537 10:0.16897571 11:0.25374158 12:0.21898958 13:0.52771713 14:0.27805802 15:0.20970259 16:0.36178034 17:0.26581352 18:0.055625235 19:0.079713255 20:0.35800633 21:0.39597039 22:0.042985739 23:0.66516435 24:0.59357908 25:0.56041661 26:0.53314134 27:0.64913003 28:0.01149341 29:0.015652939 30:0.042509183 31:0.07421371 32:0.0067708675 33:0.032704141 34:0.042544297 35:0.054820375 36:0.078548407 37:0.034036826 
-4 1:0.78655975 2:0.77662462 3:0.51850959 4:0.56365535 5:0.57261844 6:0.48879113 7:0.55937119 8:0.34293014 9:0.42787848 10:0.55066377 11:0.55729123 12:0.54651483 13:0.69817338 14:0.69155637 15:0.80753284 16:0.83786817 17:0.78655971 18:0.33378718 19:0.30786332 20:0.35800633 21:0.39597039 22:0.60712894 23:0.66516435 24:0.59357908 25:0.56041661 26:0.53314134 27:0.64913003 28:0.18332969 29:0.42494178 30:0.49587514 31:0.53332078 32:0.23027299 33:0.26497894 34:0.63421071 35:0.72384873 36:0.78016829 37:0.33981553 
-4 1:0.74324498 2:0.72962142 3:0.51850959 4:0.56365535 5:0.57261844 6:0.48879113 7:0.55937119 8:0.3315276 9:0.38800464 10:0.5102273 11:0.54526385 12:0.51994753 13:0.68332419 14:0.62945476 15:0.74272589 16:0.81793913 17:0.74324496 18:0.29583418 19:0.27673405 20:0.35800633 21:0.39597039 22:0.47542289 23:0.66516435 24:0.59357908 25:0.56041661 26:0.53314134 27:0.64913003 28:0.12294877 29:0.3027121 30:0.39753902 31:0.46566161 32:0.15824473 33:0.18346682 34:0.45701574 35:0.57793854 36:0.67595246 37:0.24133848 
4 1:0.58378015 2:0.56308281 3:0.51850959 4:0.56365535 5:0.57261844 6:0.48879113 7:0.55937119 8:0.26411048 9:0.26136565 10:0.39234122 11:0.46957464 12:0.41883663 13:0.59626189 14:0.43511807 15:0.56010441 16:0.70064211 17:0.5837801 18:0.18080942 19:0.18239006 20:0.35800633 21:0.39597039 22:0.32219971 23:0.66516435 24:0.59357908 25:0.56041661 26:0.53314134 27:0.64913003 28:0.071351014 29:0.19218867 30:0.27495342 31:0.34248014 32:0.093717233 33:0.11361318 34:0.29799705 35:0.39825075 36:0.48900042 37:0.15300972 
-4 1:0.73808527 2:0.72286639 3:0.51850959 4:0.56365535 5:0.57261844 6:0.48879113 7:0.55937119 8:0.31843982 9:0.38143288 10:0.50878994 11:0.54172108 12:0.51590304 13:0.66653098 14:0.62030608 15:0.74236677 16:0.81346628 17:0.73808525 18:0.27697257 19:0.26126364 20:0.35800633 21:0.39597039 22:0.53593155 23:0.66516435 24:0.59357908 25:0.56041661 26:0.53314134 27:0.64913003 28:0.14554887 29:0.35439723 30:0.44252548 31:0.50511702 32:0.18657057 33:0.21392455 34:0.53245477 35:0.64536429 36:0.73722941 37:0.28006367 
4 1:0.75679579 2:0.74529848 3:0.51850959 4:0.56365535 5:0.57261844 6:0.48879113 7:0.55937119 8:0.33713432 9:0.40305423 10:0.52326585 11:0.54718207 12:0.52802394 13:0.69065629 14:0.65315025 15:0.7640999 16:0.82155404 17:0.75679577 18:0.29960936 19:0.27983047 20:0.35800633 21:0.39597039 22:0.46124389 23:0.66516435 24:0.59357908 25:0.56041661 26:0.53314134 27:0.64913003 28:0.12394934 29:0.29253739 30:0.3832502 31:0.45079547 32:0.15678226 33:0.18471933 34:0.44262595 35:0.55741428 36:0.65385186 37:0.23926246 
4 1:0.8747102 2:0.88567736 3:0.51850959 4:0.56365535 5:0.57261844 6:0.48879113 7:0.55937119 8:0.44781158 9:0.54108853 10:0.60178899 11:0.58559824 12:0.60213122 13:0.83367618 14:0.86546385 15:0.88721299 16:0.88204133 17:0.87471014 18:0.4615016 19:0.41261545 20:0.35800633 21:0.39597039 22:0.75184235 23:0.66516435 24:0.59357908 25:0.56041661 26:0.53314134 27:0.64913003 28:0.30876193 29:0.53850544 30:0.57990057 31:0.59614436 32:0.3526355 33:0.43452763 34:0.79826755 35:0.84765377 36:0.87598929 37:0.50725021 
1.0082478661806782 1:0.71398546 2:0.69645686 3:0.51850959 4:0.56365535 5:0.57261844 6:0.48879113 7:0.55937119 8:0.3078295 9:0.35738405 10:0.49265986 11:0.53217476 12:0.50125328 13:0.65275881 14:0.58282369 15:0.71580353 16:0.79769335 17:0.71398542 18:0.27340939 19:0.2583411 20:0.35800633 21:0.39597039 22:0.39024542 23:0.66516435 24:0.59357908 25:0.56041661 26:0.53314134 27:0.64913003 28:0.096321324 29:0.2371637 30:0.3272664 31:0.40158833 32:0.12334002 33:0.14739012 34:0.36255712 35:0.47475758 36:0.57861255 37:0.19352419 
4 1:0.86677707 2:0.87606258 3:0.51850959 4:0.56365535 5:0.57261844 6:0.48879113 7:0.55937119 8:0.43632311 9:0.53345764 10:0.59649333 11:0.58283777 12:0.59711517 13:0.81884333 14:0.85376228 15:0.87895182 16:0.87776618 17:0.866777 18:0.4577507 19:0.40953893 20:0.35800633 21:0.39597039 22:0.75043571 23:0.66516435 24:0.59357908 25:0.56041661 26:0.53314134 27:0.64913003 28:0.30592386 29:0.53820815 30:0.57944636 31:0.59593214 32:0.3502894 33:0.43068691 34:0.79784972 35:0.84700229 36:0.87568204 37:0.50403623 
-4 1:0.94441978 2:0.9777373 3:0.51850959 4:0.56365535 5:0.57261844 6:0.48879113 7:0.55937119 8:0.57646887 9:0.62831954 10:0.64219703 11:0.60307801 12:0.64578435 13:1 14:1 15:0.9507739 16:0.9096956 17:0.94441974 18:0.63339552 19:0.55360385 20:0.35800633 21:0.39597039 22:0.99999868 23:0.66516435 24:0.59357908 25:0.56041661 26:0.53314134 27:0.64913003 28:0.72719059 29:0.67115328 30:0.65174695 31:0.63839239 32:0.71280669 33:1 34:0.98996392 35:0.95364196 36:0.94053264 37:1 
4 1:0.38918979 2:0.36057433 3:0.51850959 4:0.56365535 5:0.57261844 6:0.48879113 7:0.55937119 8:0.12013451 9:0.15017124 10:0.25137766 11:0.37080397 12:0.29722798 13:0.41003721 14:0.26353233 15:0.33785763 16:0.54396948 17:0.38918976 18:0.16179694 19:0.16679591 20:0.35800633 21:0.39597039 22:0.12327762 23:0.66516435 24:0.59357908 25:0.56041661 26:0.53314134 27:0.64913003 28:0.01824273 29:0.056116458 30:0.10876805 31:0.17267546 32:0.021914987 33:0.041824094 34:0.10094755 35:0.15241823 36:0.2287538 37:0.054744425 
-4 1:0.70726085 2:0.68177731 3:0.51850959 4:0.56365535 5:0.57261844 6:0.48879113 7:0.55937119 8:0.26026292 9:0.33062691 10:0.51143101 11:0.52555234 12:0.49701795 13:0.59120652 14:0.54128081 15:0.74522574 16:0.78780523 17:0.70726082 18:0.29569496 19:0.27661986 20:0.35800633 21:0.39597039 22:0.46917226 23:0.66516435 24:0.59357908 25:0.56041661 26:0.53314134 27:0.64913003 28:0.10702244 29:0.30589849 30:0.39783106 31:0.46020879 32:0.14591022 33:0.16184359 34:0.46197256 35:0.57907876 36:0.66843457 37:0.22439225 
4 1:0.67908313 2:0.65410261 3:0.51850959 4:0.56365535 5:0.57261844 6:0.48879113 7:0.55937119 8:0.28170339 9:0.30765426 10:0.46998319 11:0.52206543 12:0.47898285 13:0.61900095 14:0.50654455 15:0.68118987 16:0.78232096 17:0.67908315 18:0.26344806 19:0.25017076 20:0.35800633 21:0.39597039 22:0.39623258 23:0.66516435 24:0.59357908 25:0.56041661 26:0.53314134 27:0.64913003 28:0.094276537 29:0.24112982 30:0.33302537 31:0.40906765 32:0.12260275 33:0.14459064 34:0.36853708 35:0.48359451 36:0.59035483 37:0.19250185 
4 1:0.72609482 2:0.70922084 3:0.51850959 4:0.56365535 5:0.57261844 6:0.48879113 7:0.55937119 8:0.31345673 9:0.36722442 10:0.50132631 11:0.53783769 12:0.50886153 13:0.66002587 14:0.59786203 15:0.72937337 16:0.80670474 17:0.72609478 18:0.28348175 19:0.26660251 20:0.35800633 21:0.39597039 22:0.40964498 23:0.66516435 24:0.59357908 25:0.56041661 26:0.53314134 27:0.64913003 28:0.1026339 29:0.2515753 30:0.34314208 31:0.41637065 32:0.13140448 33:0.15592623 34:0.38338063 35:0.49818715 36:0.60121481 37:0.20455754 
4 1:0.85974719 2:0.86660845 3:0.51850959 4:0.56365535 5:0.57261844 6:0.48879113 7:0.55937119 8:0.42597001 9:0.52225498 10:0.59236691 11:0.58157712 12:0.59267861 13:0.80546374 14:0.83654079 15:0.87252884 16:0.87580446 17:0.85974713 18:0.44124262 19:0.39599891 20:0.35800633 21:0.39597039 22:0.7290091 23:0.66516435 24:0.59357908 25:0.56041661 26:0.53314134 27:0.64913003 28:0.28366196 29:0.52009045 30:0.56879469 31:0.58976024 32:0.32909616 33:0.40059109 34:0.77165022 35:0.83128389 36:0.86625497 37:0.47502912 
-4 1:0.56720332 2:0.53844483 3:0.44591679 4:0.40481795 5:0.38189482 6:0.34646748 7:0.39394706 8:0.20694133 9:0.16747179 10:0.24610407 11:0.38685349 12:0.31107021 13:0.59528415 14:0.42543901 15:0.48465337 16:0.70735011 17:0.5672033 18:0.34470022 19:0.31853625 20:0.0064815192 22:0.52997607 23:0.26485232 24:0.30704763 25:0.35195597 26:0.41494843 27:0.27583367 28:0.094945983 29:0.2103021 30:0.2986356 31:0.38861776 32:0.11682662 33:0.29872504 34:0.52477349 35:0.60532013 36:0.66949821 37:0.35805449 
4 1:0.86292401 2:0.86189257 3:0.44591679 4:0.40481795 5:0.38189482 6:0.34646748 7:0.39394706 8:0.33590468 9:0.38023926 10:0.45037416 11:0.48486227 12:0.4694559 13:0.76586039 14:0.80545908 15:0.88632833 16:0.89046808 17:0.862924 18:0.5505063 19:0.48781528 20:0.0064815192 22:0.84429095 23:0.26485232 24:0.30704763 25:0.35195597 26:0.41494843 27:0.27583367 28:0.23814911 29:0.38375179 30:0.45446741 31:0.52666638 32:0.26624317 33:0.62657648 34:0.87701467 35:0.89400796 36:0.90583793 37:0.68811048 
4 1:0.90373344 2:0.92181497 3:0.44591679 4:0.40481795 5:0.38189482 6:0.34646748 7:0.39394706 8:0.42669474 9:0.44394663 10:0.46619169 11:0.48786463 12:0.49185951 13:0.88575961 14:0.91826807 15:0.91612113 16:0.8949857 17:0.90373339 18:0.60582103 19:0.53270908 20:0.0064815192 22:0.84026122 23:0.26485232 24:0.30704763 25:0.35195597 26:0.41494843 27:0.27583367 28:0.24746058 29:0.38044007 30:0.44677781 31:0.51756348 32:0.27283665 33:0.64723362 34:0.86968598 35:0.87926475 36:0.889776 37:0.70203153 
4 1:0.82511527 2:0.82802286 3:0.44591679 4:0.40481795 5:0.38189482 6:0.34646748 7:0.39394706 8:0.34748831 9:0.36851682 10:0.42440737 11:0.46410803 12:0.44934994 13:0.78127154 14:0.78474418 15:0.83522436 16:0.85092351 17:0.82511522 18:0.42768794 19:0.38707893 20:0.0064815192 22:0.60590677 23:0.26485232 24:0.30704763 25:0.35195597 26:0.41494843 27:0.27583367 28:0.16285777 29:0.25148905 30:0.31769271 31:0.39182002 32:0.17862059 33:0.45476906 34:0.6096431 35:0.64204887 36:0.67644311 37:0.49527195 
4 1:0.90891044 2:0.93116633 3:0.44591679 4:0.40481795 5:0.38189482 6:0.34646748 7:0.39394706 8:0.44964525 9:0.45317881 10:0.46633773 11:0.48718088 12:0.49438355 13:0.91625725 14:0.93554583 15:0.91739557 16:0.89393507 17:0.90891039 18:0.599744 19:0.52772466 20:0.0064815192 22:0.84307797 23:0.26485232 24:0.30704763 25:0.35195597 26:0.41494843 27:0.27583367 28:0.24894039 29:0.37954535 30:0.44795099 31:0.52055344 32:0.27395536 33:0.65123132 34:0.86842699 35:0.88186521 36:0.89526776 37:0.70509223 
4 1:0.43488281 2:0.4265683 3:0.44591679 4:0.40481795 5:0.38189482 6:0.34646748 7:0.39394706 8:0.20334669 9:0.14922857 10:0.18583926 11:0.2906868 12:0.24059392 13:0.59081396 14:0.39362849 15:0.36676385 16:0.52728066 17:0.43488281 18:0.2315492 19:0.22620478 20:0.0064815192 22:0.36234224 23:0.26485232 24:0.30704763 25:0.35195597 26:0.41494843 27:0.27583367 28:0.1030504 29:0.13861166 30:0.17569143 31:0.21722956 32:0.10593953 33:0.31483301 34:0.37636042 35:0.3745259 36:0.37231163 37:0.33140985 
-4 1:0.84658006 2:0.85815488 3:0.44591679 4:0.40481795 5:0.38189482 6:0.34646748 7:0.39394706 8:0.39315707 9:0.40261281 10:0.43787273 11:0.46786996 12:0.46388341 13:0.84066098 14:0.84147039 15:0.85425672 16:0.84994816 17:0.84658003 18:0.45846721 19:0.41232427 20:0.0064815192 22:0.7176279 23:0.26485232 24:0.30704763 25:0.35195597 26:0.41494843 27:0.27583367 28:0.19879042 29:0.31463144 30:0.38674055 31:0.4636951 32:0.22064936 33:0.53215851 34:0.73072541 35:0.76185682 36:0.78996465 37:0.58264013 
-4 1:0.83206883 2:0.83644629 3:0.44591679 4:0.40481795 5:0.38189482 6:0.34646748 7:0.39394706 8:0.36025122 9:0.37527907 10:0.42879628 11:0.46684703 12:0.45398025 13:0.79774577 14:0.79553787 15:0.84180367 16:0.85336944 17:0.83206878 18:0.45085168 19:0.4060684 20:0.0064815192 22:0.66736404 23:0.26485232 24:0.30704763 25:0.35195597 26:0.41494843 27:0.27583367 28:0.18037568 29:0.28279819 30:0.35494394 31:0.43483857 32:0.19939863 33:0.49357117 34:0.67123958 35:0.70875202 36:0.74736158 37:0.53968125 
-4 1:0.90563878 2:0.92658253 3:0.44591679 4:0.40481795 5:0.38189482 6:0.34646748 7:0.39394706 8:0.44529095 9:0.44778572 10:0.46459342 11:0.48701917 12:0.49258098 13:0.91044359 14:0.92588494 15:0.91399085 16:0.89393915 17:0.90563874 18:0.62328062 19:0.5475052 20:0.0064815192 22:0.88083692 23:0.26485232 24:0.30704763 25:0.35195597 26:0.41494843 27:0.27583367 28:0.26900849 29:0.40221337 30:0.46545822 31:0.53339801 32:0.29441677 33:0.69645087 34:0.91375596 35:0.91381698 36:0.91695763 37:0.74958634 
-4 1:0.87760326 2:0.87291444 3:0.44591679 4:0.40481795 5:0.38189482 6:0.34646748 7:0.39394706 8:0.33043738 9:0.38093929 10:0.46253198 11:0.49530472 12:0.47841335 13:0.75842098 14:0.80601508 15:0.90763794 16:0.9048074 17:0.87760324 18:0.2232252 19:0.21937738 20:0.0064815192 22:0.83308293 23:0.26485232 24:0.30704763 25:0.35195597 26:0.41494843 27:0.27583367 28:0.22407485 29:0.37059612 30:0.4542863 31:0.53939259 32:0.25297002 33:0.59378073 34:0.84965374 35:0.89281758 36:0.92645055 37:0.65818438 
4 1:0.93324529 2:0.93078105 3:0.44591679 4:0.40481795 5:0.38189482 6:0.34646748 7:0.39394706 8:0.35536068 9:0.41727483 10:0.48999018 11:0.52234449 12:0.50826623 13:0.79151137 14:0.87096959 15:0.96161312 16:0.95477698 17:0.93324522 18:0.23037813 19:0.22524426 20:0.0064815192 22:0.94976463 23:0.26485232 24:0.30704763 25:0.35195597 26:0.41494843 27:0.27583367 28:0.27522437 29:0.4451685 30:0.51252863 31:0.58258576 32:0.308367 33:0.71000783 34:1 35:1 36:1 37:0.77965758 
4 1:0.39401367 2:0.37930912 3:0.44591679 4:0.40481795 5:0.38189482 6:0.34646748 7:0.39394706 8:0.16360822 9:0.12465318 10:0.16143702 11:0.27796439 12:0.21999166 13:0.53749364 14:0.34754787 15:0.31557916 16:0.49883448 17:0.39401367 18:0.074275075 19:0.096731951 20:0.0064815192 22:0.23698871 23:0.26485232 24:0.30704763 25:0.35195597 26:0.41494843 27:0.27583367 28:0.064598541 29:0.078090168 30:0.10228358 31:0.13114152 32:0.062008838 33:0.22814244 34:0.25563576 35:0.24117968 36:0.2280947 37:0.23593189 
-4 1:0.81525289 2:0.80854691 3:0.44591679 4:0.40481795 5:0.38189482 6:0.34646748 7:0.39394706 8:0.3029402 9:0.34784854 10:0.42584537 11:0.46777501 12:0.44570328 13:0.72155151 14:0.74431923 15:0.83264182 16:0.8547538 17:0.81525287 18:0.42189027 19:0.38252959 20:0.0064815192 22:0.76513 23:0.26485232 24:0.30704763 25:0.35195597 26:0.41494843 27:0.27583367 28:0.20799814 29:0.33967676 30:0.41374629 31:0.4893766 32:0.23322624 33:0.55583375 34:0.78566902 35:0.8169714 36:0.84050501 37:0.61344159 
-4 1:0.90402708 2:0.92407035 3:0.44591679 4:0.40481795 5:0.38189482 6:0.34646748 7:0.39394706 8:0.44109044 9:0.44608283 10:0.46441299 11:0.48716224 12:0.49207524 13:0.90469973 14:0.92170964 15:0.91255192 16:0.89381086 17:0.90402701 18:0.61934762 19:0.54427934 20:0.0064815192 22:0.86668815 23:0.26485232 24:0.30704763 25:0.35195597 26:0.41494843 27:0.27583367 28:0.25927039 29:0.3954767 30:0.46068722 31:0.53004466 32:0.28532336 33:0.6730849 34:0.89927649 35:0.90438855 36:0.9106786 37:0.72850297 
-4 1:0.57240733 2:0.54557707 3:0.44591679 4:0.40481795 5:0.38189482 6:0.34646748 7:0.39394706 8:0.19396064 9:0.18168087 10:0.27149154 11:0.38133751 12:0.31837463 13:0.57731701 14:0.44731308 15:0.52501748 16:0.68230343 17:0.57240731 18:0.23722261 19:0.23137035 20:0.0064815192 22:0.5474905 23:0.26485232 24:0.30704763 25:0.35195597 26:0.41494843 27:0.27583367 28:0.14793501 29:0.224757 30:0.28759657 31:0.35859329 32:0.16100264 33:0.41629426 34:0.54936113 35:0.5795202 36:0.61166914 37:0.45158059 
-4 1:0.78061016 2:0.76842562 3:0.44591679 4:0.40481795 5:0.38189482 6:0.34646748 7:0.39394706 8:0.2842623 9:0.31691927 10:0.40474985 11:0.45879122 12:0.42809802 13:0.69637504 14:0.68724143 15:0.78823381 16:0.83633985 17:0.78061011 18:0.36966074 19:0.33948468 20:0.0064815192 22:0.77200309 23:0.26485232 24:0.30704763 25:0.35195597 26:0.41494843 27:0.27583367 28:0.2111194 29:0.34257659 30:0.41742398 31:0.49479701 32:0.23637653 33:0.56225505 34:0.79070338 35:0.82311349 36:0.84941343 37:0.61965714 
4 1:0.87436387 2:0.88853277 3:0.44591679 4:0.40481795 5:0.38189482 6:0.34646748 7:0.39394706 8:0.40670903 9:0.41822412 10:0.44935491 11:0.47770568 12:0.47588215 13:0.85953468 14:0.87310839 15:0.88380065 16:0.8762988 17:0.87436384 18:0.50820326 19:0.45264241 20:0.0064815192 22:0.71896301 23:0.26485232 24:0.30704763 25:0.35195597 26:0.41494843 27:0.27583367 28:0.198565 29:0.31023944 30:0.38230496 31:0.46059973 32:0.21958412 33:0.53655481 34:0.72858149 35:0.7611315 36:0.79342354 37:0.58569363 
4 1:0.9142261 2:0.93777566 3:0.44591679 4:0.40481795 5:0.38189482 6:0.34646748 7:0.39394706 8:0.45767352 9:0.45774157 10:0.46918575 11:0.48859972 12:0.49722718 13:0.92686616 14:0.94366271 15:0.92298957 16:0.89671927 17:0.91422609 18:0.63527921 19:0.55687085 20:0.0064815192 22:0.87990246 23:0.26485232 24:0.30704763 25:0.35195597 26:0.41494843 27:0.27583367 28:0.27004879 29:0.40096411 30:0.46416323 31:0.53229929 32:0.29499801 33:0.69905976 34:0.91142807 35:0.91153192 36:0.9151093 37:0.75108533 
4 1:0.86769206 2:0.88088384 3:0.44591679 4:0.40481795 5:0.38189482 6:0.34646748 7:0.39394706 8:0.40001184 9:0.41295835 10:0.44634696 11:0.47500407 12:0.47230668 13:0.85071187 14:0.86383357 15:0.87792408 16:0.87097904 17:0.86769203 18:0.48871824 19:0.43666068 20:0.0064815192 22:0.69167304 23:0.26485232 24:0.30704763 25:0.35195597 26:0.41494843 27:0.27583367 28:0.18939486 29:0.29579453 30:0.36678015 31:0.44477802 32:0.20922167 33:0.51563859 34:0.69946289 35:0.73264733 36:0.76662662 37:0.56291546 
-4 1:0.91111402 2:0.93384617 3:0.44591679 4:0.40481795 5:0.38189482 6:0.34646748 7:0.39394706 8:0.45234491 9:0.45501963 10:0.46696255 11:0.48790556 12:0.4954047 13:0.9198709 14:0.93907392 15:0.91906383 16:0.89571759 17:0.91111397 18:0.63206331 19:0.55423315 20:0.0064815192 22:0.8768527 23:0.26485232 24:0.30704763 25:0.35195597 26:0.41494843 27:0.27583367 28:0.26737606 29:0.39998351 30:0.46317691 31:0.53124274 32:0.29264976 33:0.69303442 34:0.90948342 35:0.90975777 36:0.91336291 37:0.74598115 
-4 1:0.94441978 2:0.9777373 3:0.44591679 4:0.40481795 5:0.38189482 6:0.34646748 7:0.39394706 8:0.51261442 9:0.48858086 10:0.4825236 11:0.4946542 12:0.51280208 13:1 14:1 15:0.9507739 16:0.9096956 17:0.94441974 18:0.75531873 19:0.66028954 20:0.0064815192 22:0.99999716 23:0.26485232 24:0.30704763 25:0.35195597 26:0.41494843 27:0.27583367 28:0.40102931 29:0.43929512 30:0.48658656 31:0.54684586 32:0.40724886 33:0.99999849 34:0.98996184 35:0.95364031 36:0.94053207 37:0.99999813 
4 1:0.56219742 2:0.5164362 3:0.44591679 4:0.40481795 5:0.38189482 6:0.34646748 7:0.39394706 8:0.090085051 9:0.14285159 10:0.27400653 11:0.38970146 12:0.31109181 13:0.43999825 14:0.37929827 15:0.53346678 16:0.70308668 17:0.5621974 18:0.29559012 19:0.27825586 20:0.0064815192 22:0.44474585 23:0.26485232 24:0.30704763 25:0.35195597 26:0.41494843 27:0.27583367 28:0.11128936 29:0.17387417 30:0.22914366 31:0.29286936 32:0.12078009 33:0.33404327 34:0.44872847 35:0.47448666 36:0.50309499 37:0.36466129 
4 1:0.76339318 2:0.74060316 3:0.44591679 4:0.40481795 5:0.38189482 6:0.34646748 7:0.39394706 8:0.20806635 9:0.28078115 10:0.413984 11:0.45026409 12:0.41664905 13:0.59631797 14:0.62709258 15:0.81268126 16:0.82467239 17:0.76339312 18:0.43174555 19:0.39048087 20:0.0064815192 22:0.67952488 23:0.26485232 24:0.30704763 25:0.35195597 26:0.41494843 27:0.27583367 28:0.16960758 29:0.29024012 30:0.36839064 31:0.45307653 32:0.19258139 33:0.46913533 34:0.68709395 35:0.734627 36:0.77981722 37:0.52498774 
-4 1:0.86460294 2:0.87049744 3:0.44591679 4:0.40481795 5:0.38189482 6:0.34646748 7:0.39394706 8:0.3493619 9:0.40323003 10:0.45048989 11:0.47767261 12:0.47057652 13:0.783694 14:0.84641077 15:0.88629673 16:0.87618141 17:0.86460289 18:0.54065875 19:0.47973826 20:0.0064815192 22:0.80166439 23:0.26485232 24:0.30704763 25:0.35195597 26:0.41494843 27:0.27583367 28:0.22284194 29:0.3565746 30:0.4313985 31:0.50891927 32:0.24864681 33:0.59148076 34:0.82168064 35:0.8510778 36:0.87518477 37:0.64916111 
-4 1:0.91204732 2:0.93475204 3:0.44591679 4:0.40481795 5:0.38189482 6:0.34646748 7:0.39394706 8:0.45314175 9:0.4549368 10:0.46795017 11:0.4883262 12:0.49596527 13:0.92088709 14:0.9387862 15:0.92076622 16:0.89649569 17:0.91204727 18:0.64185981 19:0.56274397 20:0.0064815192 22:0.89305413 23:0.26485232 24:0.30704763 25:0.35195597 26:0.41494843 27:0.27583367 28:0.27764732 29:0.40912447 30:0.46962952 31:0.53596616 32:0.30262504 33:0.7162772 34:0.9278793 35:0.92163226 36:0.92142646 37:0.76777415 
4 1:0.87644718 2:0.89089216 3:0.44591679 4:0.40481795 5:0.38189482 6:0.34646748 7:0.39394706 8:0.40779574 9:0.42066331 10:0.44928126 11:0.47880762 12:0.47687404 13:0.8610027 14:0.87768237 15:0.88404732 16:0.87859524 17:0.87644712 18:0.51233864 19:0.45603427 20:0.0064815192 22:0.71898525 23:0.26485232 24:0.30704763 25:0.35195597 26:0.41494843 27:0.27583367 28:0.19810021 29:0.31056296 30:0.38254798 31:0.46039167 32:0.21926869 33:0.53563925 34:0.72935149 35:0.76167816 36:0.79316282 37:0.58513712 
3.4568611701300478 1:0.90904436 2:0.93138325 3:0.44591679 4:0.40481795 5:0.38189482 6:0.34646748 7:0.39394706 8:0.4499788 9:0.45266341 10:0.46633542 11:0.48708752 12:0.49426754 13:0.91676414 14:0.93484407 15:0.9178333 16:0.894456 17:0.90904433 18:0.62826405 19:0.55111698 20:0.0064815192 22:0.87886886 23:0.26485232 24:0.30704763 25:0.35195597 26:0.41494843 27:0.27583367 28:0.266882 29:0.40093814 30:0.46489722 31:0.5331894 32:0.29248445 33:0.69211557 34:0.91159872 35:0.91308713 36:0.91682514 37:0.74581838 
4 1:0.56951317 2:0.50413886 3:0.89327301 4:0.71023777 5:0.56908898 6:0.47611332 7:0.6017399 8:0.23028023 9:0.23766346 10:0.38987617 11:0.51579573 12:0.43496794 13:0.25596168 14:0.29915908 15:0.55762773 16:0.78568095 17:0.56951314 18:0.21924264 19:0.2286098 20:0.1689383 21:0.14891302 22:0.38526031 23:0.79307349 24:0.67742441 25:0.6368418 26:0.60159324 27:0.76782189 28:0.06023563 29:0.24433817 30:0.37697196 31:0.48154638 32:0.098038149 33:0.08112546 34:0.33280258 35:0.49528265 36:0.64094058 37:0.13385894 
2.5137525682971789 1:0.79366333 2:0.76154571 3:0.89327301 4:0.71023777 5:0.56908898 6:0.47611332 7:0.6017399 8:0.39959601 9:0.51440296 10:0.57538815 11:0.57545528 12:0.58132711 13:0.44245363 14:0.67248822 15:0.85015657 16:0.88100002 17:0.79366332 18:0.3692105 19:0.35161433 20:0.1689383 21:0.14891302 22:0.69969926 23:0.79307349 24:0.67742441 25:0.6368418 26:0.60159324 27:0.76782189 28:0.19677874 29:0.57907544 30:0.64088947 31:0.65577277 32:0.27183952 33:0.24383439 34:0.77751207 35:0.85604442 36:0.88966319 37:0.34532294 
4 1:0.83943494 2:0.83332203 3:0.89327301 4:0.71023777 5:0.56908898 6:0.47611332 7:0.6017399 8:0.58095216 9:0.61351658 10:0.58715446 11:0.57430146 12:0.61128099 13:0.64201034 14:0.80604586 15:0.86865063 16:0.87914371 17:0.8394349 18:0.41454099 19:0.38879467 20:0.1689383 21:0.14891302 22:0.72122815 23:0.79307349 24:0.67742441 25:0.6368418 26:0.60159324 27:0.76782189 28:0.27586097 29:0.58724904 30:0.63181125 31:0.64476213 32:0.33623886 33:0.33807053 34:0.78833417 35:0.84359649 36:0.87390872 37:0.42366856 
4 1:0.62926563 2:0.58256177 3:0.89327301 4:0.71023777 5:0.56908898 6:0.47611332 7:0.6017399 8:0.29502293 9:0.35110467 10:0.44894377 11:0.50975344 12:0.47410165 13:0.32720362 14:0.45201981 15:0.6506033 16:0.7758211 17:0.62926561 18:0.2250328 19:0.23335893 20:0.1689383 21:0.14891302 22:0.3306015 23:0.79307349 24:0.67742441 25:0.6368418 26:0.60159324 27:0.76782189 28:0.069800841 29:0.21901044 30:0.3161279 31:0.40429462 32:0.098782189 33:0.092532609 34:0.29909499 35:0.41197353 36:0.53041249 37:0.13477224 
4 1:0.85929339 2:0.86448049 3:0.89327301 4:0.71023777 5:0.56908898 6:0.47611332 7:0.6017399 8:0.6725797 9:0.64790624 10:0.59287662 11:0.57489063 12:0.62426132 13:0.74284199 14:0.85243053 15:0.87766308 16:0.88008116 17:0.85929336 18:0.43795235 19:0.4079968 20:0.1689383 21:0.14891302 22:0.74405569 23:0.79307349 24:0.67742441 25:0.6368418 26:0.60159324 27:0.76782189 28:0.31348051 29:0.60120232 30:0.64124245 31:0.65155581 32:0.36907718 33:0.38289502 34:0.80685836 35:0.85647835 36:0.88360126 37:0.46361543 
-3.7318949778696173 1:0.32679328 2:0.2778052 3:0.89327301 4:0.71023777 5:0.56908898 6:0.47611332 7:0.6017399 8:0.19441271 9:0.15104758 10:0.20089986 11:0.35329463 12:0.27623317 13:0.21652379 14:0.18245604 15:0.26019122 16:0.5263867 17:0.32679327 18:0.15935447 19:0.17948918 20:0.1689383 21:0.14891302 22:0.12845122 23:0.79307349 24:0.67742441 25:0.6368418 26:0.60159324 27:0.76782189 28:0.030665657 29:0.071532644 30:0.12767265 31:0.20091502 32:0.03528234 33:0.045885739 34:0.10323747 35:0.15458326 36:0.24036045 37:0.057502955 
4 1:0.80766181 2:0.7965824 3:0.89327301 4:0.71023777 5:0.56908898 6:0.47611332 7:0.6017399 8:0.54290015 9:0.57787718 10:0.56577557 11:0.56279988 12:0.5904886 13:0.60020196 14:0.75802655 15:0.83500147 16:0.86080855 17:0.80766182 18:0.37564834 19:0.35689468 20:0.1689383 21:0.14891302 22:0.66009868 23:0.79307349 24:0.67742441 25:0.6368418 26:0.60159324 27:0.76782189 28:0.22323174 29:0.5284674 30:0.59101291 31:0.61832972 32:0.2829381 33:0.27534355 34:0.71026948 35:0.78787758 36:0.8362195 37:0.35881351 
4 1:0.67087484 2:0.62448183 3:0.89327301 4:0.71023777 5:0.56908898 6:0.47611332 7:0.6017399 8:0.30980656 9:0.3785461 10:0.48197393 11:0.53162021 12:0.50117072 13:0.34350657 14:0.48911759 15:0.70287018 16:0.81094426 17:0.67087481 18:0.24973538 19:0.25362013 20:0.1689383 21:0.14891302 22:0.42223955 23:0.79307349 24:0.67742441 25:0.6368418 26:0.60159324 27:0.76782189 28:0.089229062 29:0.29033614 30:0.40276613 31:0.48915724 32:0.12960616 33:0.11566983 34:0.39386138 35:0.53047584 36:0.6516962 37:0.172257 
4 1:0.66753215 2:0.61030855 3:0.89327301 4:0.71023777 5:0.56908898 6:0.47611332 7:0.6017399 8:0.26572106 9:0.33251083 10:0.48677239 11:0.54444056 12:0.49886621 13:0.29498393 14:0.42721674 15:0.71062777 16:0.83157638 17:0.66753216 18:0.17490646 19:0.19224501 20:0.1689383 21:0.14891302 22:0.40669581 23:0.79307349 24:0.67742441 25:0.6368418 26:0.60159324 27:0.76782189 28:0.077955769 29:0.27250694 30:0.3904949 31:0.48487036 32:0.11724574 33:0.10222002 34:0.37023471 35:0.51384593 36:0.64578107 37:0.1572026 
-4 1:0.83236738 2:0.79650911 3:0.89327301 4:0.71023777 5:0.56908898 6:0.47611332 7:0.6017399 8:0.38767741 9:0.53213087 10:0.60620453 11:0.60147715 12:0.60662068 13:0.42932006 14:0.69636744 15:0.89872621 16:0.92252062 17:0.83236736 18:0.23969023 19:0.24538104 20:0.1689383 21:0.14891302 22:0.74389376 23:0.79307349 24:0.67742441 25:0.6368418 26:0.60159324 27:0.76782189 28:0.20803441 29:0.6231856 30:0.67692576 31:0.69136668 32:0.28949016 33:0.25724283 34:0.83611049 35:0.90530393 36:0.94047521 37:0.3667931 
3.3855124225999811 1:0.27326479 2:0.23598801 3:0.89327301 4:0.71023777 5:0.56908898 6:0.47611332 7:0.6017399 8:0.19562855 9:0.15446299 10:0.18596511 11:0.29086279 12:0.24118922 13:0.2178738 14:0.18707513 15:0.23673458 16:0.42695476 17:0.27326477 18:0.062863656 19:0.10034684 20:0.1689383 21:0.14891302 22:0.043298603 23:0.79307349 24:0.67742441 25:0.6368418 26:0.60159324 27:0.76782189 28:0.016031124 29:0.025450638 30:0.054573687 31:0.09203045 32:0.012569043 33:0.02844934 34:0.042039177 35:0.054731412 36:0.085063656 37:0.029872483 
-4 1:0.74274764 2:0.70519062 3:0.89327301 4:0.71023777 5:0.56908898 6:0.47611332 7:0.6017399 8:0.36044639 9:0.4594349 10:0.54016621 11:0.55460595 12:0.54805025 13:0.39935063 14:0.59831239 15:0.79468934 16:0.84775141 17:0.74274763 18:0.29680964 19:0.29223072 20:0.1689383 21:0.14891302 22:0.58081033 23:0.79307349 24:0.67742441 25:0.6368418 26:0.60159324 27:0.76782189 28:0.14456289 29:0.45905865 30:0.54233797 31:0.5828954 32:0.20666551 33:0.18160815 34:0.61807974 35:0.7213682 36:0.78565822 37:0.26602275 
-4 1:0.47263651 2:0.41150357 3:0.89327301 4:0.71023777 5:0.56908898 6:0.47611332 7:0.6017399 8:0.20192765 9:0.19890698 10:0.31323942 11:0.45450366 12:0.37150147 13:0.22480351 14:0.24702031 15:0.43721869 16:0.68804401 17:0.47263649 18:0.17193804 19:0.18981029 20:0.1689383 21:0.14891302 22:0.26023923 23:0.79307349 24:0.67742441 25:0.6368418 26:0.60159324 27:0.76782189 28:0.047949419 29:0.1547441 30:0.2521011 31:0.35148928 32:0.068250667 33:0.066482328 34:0.21381798 35:0.32472404 36:0.45542006 37:0.097618695 
-4 1:0.72767835 2:0.68987584 3:0.89327301 4:0.71023777 5:0.56908898 6:0.47611332 7:0.6017399 8:0.36609325 9:0.44164845 10:0.52818153 11:0.54810419 12:0.53820706 13:0.40549922 14:0.57432523 15:0.77582057 16:0.83736928 17:0.7276783 18:0.27513307 19:0.27445146 20:0.1689383 21:0.14891302 22:0.5574958 23:0.79307349 24:0.67742441 25:0.6368418 26:0.60159324 27:0.76782189 28:0.128818 29:0.43040162 30:0.52602346 31:0.57555329 32:0.18882849 33:0.162844 34:0.58003291 35:0.69909464 36:0.775201 37:0.24432126 
4 1:0.7740942 2:0.75457967 3:0.89327301 4:0.71023777 5:0.56908898 6:0.47611332 7:0.6017399 8:0.48674913 9:0.5297316 10:0.54528342 11:0.55483738 12:0.56862814 13:0.53820843 14:0.69299446 15:0.80262918 16:0.84802327 17:0.77409419 18:0.32842385 19:0.31816088 20:0.1689383 21:0.14891302 22:0.57089527 23:0.79307349 24:0.67742441 25:0.6368418 26:0.60159324 27:0.76782189 28:0.16407884 29:0.43452718 30:0.52544789 31:0.57759852 32:0.21781004 33:0.20487465 34:0.58542987 35:0.69818024 36:0.77798512 37:0.27958284 
-4 1:0.88102062 2:0.89247577 3:0.89327301 4:0.71023777 5:0.56908898 6:0.47611332 7:0.6017399 8:0.72489774 9:0.67430584 10:0.60551115 11:0.58036252 12:0.63842314 13:0.80050705 14:0.88809331 15:0.89761663 16:0.88884014 17:0.88102056 18:0.47445859 19:0.43793944 20:0.1689383 21:0.14891302 22:0.79580211 23:0.79307349 24:0.67742441 25:0.6368418 26:0.60159324 27:0.76782189 28:0.3818356 29:0.64517937 30:0.66672299 31:0.66646271 32:0.43201094 33:0.46432918 34:0.86531419 35:0.89134365 36:0.90491343 37:0.54018048 
4 1:0.73696167 2:0.70905262 3:0.89327301 4:0.71023777 5:0.56908898 6:0.47611332 7:0.6017399 8:0.42454856 9:0.4829231 10:0.52144335 11:0.54444494 12:0.54436906 13:0.46977488 14:0.6298538 15:0.76504315 16:0.83142936 17:0.73696163 18:0.2966419 19:0.29209313 20:0.1689383 21:0.14891302 22:0.50878695 23:0.79307349 24:0.67742441 25:0.6368418 26:0.60159324 27:0.76782189 28:0.12918623 29:0.37471105 30:0.47549928 31:0.54220048 32:0.178179 33:0.16329327 34:0.50597681 35:0.62993051 36:0.72748259 37:0.23136521 
-4 1:0.87482003 2:0.8844385 3:0.89327301 4:0.71023777 5:0.56908898 6:0.47611332 7:0.6017399 8:0.70909774 9:0.66752293 10:0.60124699 11:0.57906701 12:0.63437696 13:0.78310192 14:0.87893734 15:0.89089024 16:0.88677169 17:0.87481999 18:0.46839169 19:0.43296332 20:0.1689383 21:0.14891302 22:0.79000979 23:0.79307349 24:0.67742441 25:0.6368418 26:0.60159324 27:0.76782189 28:0.37346443 29:0.64046437 30:0.66400384 31:0.6651007 32:0.42442844 33:0.4543728 34:0.85905305 35:0.88762635 36:0.90296815 37:0.53096878 
-2.0691078992527006 1:0.94441978 2:0.9777373 3:0.89327301 4:0.71023777 5:0.56908898 6:0.47611332 7:0.6017399 8:0.90612024 9:0.7572768 10:0.63924217 11:0.59341991 12:0.679844 13:1 14:1 15:0.9507739 16:0.9096956 17:0.94441974 18:0.57800747 19:0.52287083 20:0.1689383 21:0.14891302 22:0.99999928 23:0.79307349 24:0.67742441 25:0.6368418 26:0.60159324 27:0.76782189 28:0.83140629 29:0.73900025 30:0.71229812 31:0.69141256 32:0.80996031 33:0.99999959 34:0.98996455 35:0.95364312 36:0.94053365 37:0.99999962 
