svm_type nu_svr
kernel_type rbf
gamma 0.050000000000000003
nr_class 2
total_sv 609
rho -1.2622766501363274
SV
4 1:0.42523339 2:0.38346761 3:0.36365345 4:0.49866396 5:0.61124132 6:0.68284815 7:0.64347631 8:0.064153369 9:0.10237541 10:0.26817376 11:0.51686123 12:0.36357241 13:0.48098406 14:0.2423585 15:0.33479479 16:0.59912382 17:0.42523337 18:0.20394882 19:0.24686565 20:0.2211896 21:0.23706052 22:0.3607836 23:0.32637083 24:0.33178045 25:0.32651468 26:0.33040962 27:0.33767053 28:0.088057927 29:0.13988012 30:0.16838992 31:0.21444415 32:0.10478172 33:0.21765723 34:0.33433462 35:0.39073416 36:0.45801566 37:0.25085286 
-4 1:0.83020944 2:0.81246041 3:0.38879348 4:0.50060807 5:0.61025466 6:0.67332854 7:0.6404469 8:0.24764262 9:0.40788853 10:0.6028191 11:0.72778721 12:0.63958293 13:0.70726085 14:0.74005895 15:0.83218109 16:0.87551349 17:0.83020941 18:0.42351006 19:0.43087397 20:0.21462968 21:0.23001428 22:0.75034118 23:0.34265219 24:0.35156308 25:0.35034837 26:0.35955416 27:0.35552489 28:0.23485218 29:0.36001461 30:0.39733425 31:0.42689046 32:0.27382101 33:0.51222054 34:0.75012672 35:0.80461041 36:0.84118005 37:0.57397819 
-4 1:0.89482066 2:0.90457512 3:0.38879348 4:0.50060807 5:0.61025466 6:0.67332854 7:0.6404469 8:0.34738084 9:0.50258022 10:0.65133982 11:0.74162972 12:0.68398585 13:0.842635 14:0.8945523 15:0.90427592 16:0.89318408 17:0.89482065 18:0.53782603 19:0.5238123 20:0.21462968 21:0.23001428 22:0.83162074 23:0.34265219 24:0.35156308 25:0.35034837 26:0.35955416 27:0.35552489 28:0.2874479 29:0.41150562 30:0.43183358 31:0.44794453 32:0.32706958 33:0.61927065 34:0.84994701 35:0.86945552 36:0.88157328 37:0.67763412 
-4 1:0.82728208 2:0.82979682 3:0.38879348 4:0.50060807 5:0.61025466 6:0.67332854 7:0.6404469 8:0.30428728 9:0.44892176 10:0.5986358 11:0.70723757 12:0.63821322 13:0.7833726 14:0.80492486 15:0.82509079 16:0.8488609 17:0.82728205 18:0.37150951 19:0.38859779 20:0.21462968 21:0.23001428 22:0.62351445 23:0.34265219 24:0.35156308 25:0.35034837 26:0.35955416 27:0.35552489 28:0.1980411 29:0.28933209 30:0.32206648 31:0.35685523 32:0.22782746 33:0.43582182 34:0.61214723 35:0.66238081 36:0.70621308 37:0.4830561 
4 1:0.90593404 2:0.92383447 3:0.38879348 4:0.50060807 5:0.61025466 6:0.67332854 7:0.6404469 8:0.38190577 9:0.5226247 10:0.6568867 11:0.74260835 12:0.69160789 13:0.88985327 14:0.92757892 15:0.91249156 16:0.8944381 17:0.90593406 18:0.54396396 19:0.5288024 20:0.21462968 21:0.23001428 22:0.84018555 23:0.34265219 24:0.35156308 25:0.35034837 26:0.35955416 27:0.35552489 28:0.29942055 29:0.41426043 30:0.43303067 31:0.44868789 32:0.33731875 33:0.64316904 34:0.85505272 35:0.87157383 36:0.88292767 37:0.69717495 
-4 1:0.79861305 2:0.80046933 3:0.38879348 4:0.50060807 5:0.61025466 6:0.67332854 7:0.6404469 8:0.28952294 9:0.43046616 10:0.58178052 11:0.68838411 12:0.61943085 13:0.76258303 14:0.77292843 15:0.79858539 16:0.82397275 17:0.79861305 18:0.34661836 19:0.3683614 20:0.21462968 21:0.23001428 22:0.67520991 23:0.34265219 24:0.35156308 25:0.35034837 26:0.35955416 27:0.35552489 28:0.21713043 29:0.320292 30:0.35110272 31:0.38122171 32:0.25014681 33:0.47472264 34:0.67203043 35:0.71683849 36:0.75288027 37:0.5264965 
-4 1:0.7911191 2:0.78785113 3:0.38879348 4:0.50060807 5:0.61025466 6:0.67332854 7:0.6404469 8:0.27430898 9:0.41572096 10:0.5718058 11:0.68974372 12:0.6134714 13:0.74230953 14:0.75051507 15:0.78511601 16:0.8264554 17:0.79111913 18:0.33151907 19:0.35608575 20:0.21462968 21:0.23001428 22:0.57793963 23:0.34265219 24:0.35156308 25:0.35034837 26:0.35955416 27:0.35552489 28:0.18082036 29:0.26423016 30:0.29640417 31:0.33335151 32:0.20818737 33:0.40098982 34:0.56370557 35:0.61430295 36:0.66121621 37:0.44503875 
4 1:0.89524163 2:0.91036927 3:0.38879348 4:0.50060807 5:0.61025466 6:0.67332854 7:0.6404469 8:0.36890441 9:0.51138934 10:0.64908337 11:0.73831661 12:0.68429942 13:0.87201875 14:0.9090481 15:0.90086523 16:0.88894518 17:0.89524165 18:0.53026166 19:0.5176625 20:0.21462968 21:0.23001428 22:0.83133943 23:0.34265219 24:0.35156308 25:0.35034837 26:0.35955416 27:0.35552489 28:0.29561377 29:0.40829409 30:0.42830671 31:0.44544594 32:0.33296585 33:0.63556351 34:0.84356569 35:0.86273712 36:0.87672911 37:0.68882316 
-4 1:0.84253249 2:0.82405918 3:0.38879348 4:0.50060807 5:0.61025466 6:0.67332854 7:0.6404469 8:0.24186852 9:0.41568045 10:0.61644235 11:0.73402186 12:0.64814099 13:0.69977174 14:0.7530614 15:0.85215074 16:0.88326583 17:0.84253246 18:0.17333948 19:0.22748652 20:0.21462968 21:0.23001428 22:0.59457746 23:0.34265219 24:0.35156308 25:0.35034837 26:0.35955416 27:0.35552489 28:0.17747046 29:0.27213118 30:0.30900912 31:0.34952171 32:0.20753714 33:0.39488576 34:0.57958435 35:0.63845838 36:0.69261707 37:0.44446183 
0.44929864197476488 1:0.97130946 2:0.96251545 3:0.38879348 4:0.50060807 5:0.61025466 6:0.67332854 7:0.6404469 8:0.32236141 9:0.5169683 10:0.69977271 11:0.81281325 12:0.73602793 13:0.81014841 14:0.92005048 15:0.97655639 16:0.98420583 17:0.97130944 18:0.19668837 19:0.24646905 20:0.21462968 21:0.23001428 22:0.87841084 23:0.34265219 24:0.35156308 25:0.35034837 26:0.35955416 27:0.35552489 28:0.2923319 29:0.43835547 30:0.46215182 31:0.47991489 32:0.3372878 33:0.63027998 34:0.90240118 35:0.92667242 36:0.94305726 37:0.69841799 
-4 1:0.83316719 2:0.82673583 3:0.38879348 4:0.50060807 5:0.61025466 6:0.67332854 7:0.6404469 8:0.27664791 9:0.43540458 10:0.60467809 11:0.71851108 12:0.64192165 13:0.74653644 14:0.78394426 15:0.83437836 16:0.86349197 17:0.83316718 18:0.39510219 19:0.40777852 20:0.21462968 21:0.23001428 22:0.72960578 23:0.34265219 24:0.35156308 25:0.35034837 26:0.35955416 27:0.35552489 28:0.2348985 29:0.34988498 30:0.38192114 31:0.41040839 32:0.27128447 33:0.51197125 34:0.73025347 35:0.77547478 36:0.80945407 37:0.56871332 
-4 1:0.84783833 2:0.85031479 3:0.38879348 4:0.50060807 5:0.61025466 6:0.67332854 7:0.6404469 8:0.31656053 9:0.45803903 10:0.61316968 11:0.72091948 12:0.65195208 13:0.80063319 14:0.82113715 15:0.8471704 16:0.86659607 17:0.84783837 18:0.43930733 19:0.44371708 20:0.21462968 21:0.23001428 22:0.72711897 23:0.34265219 24:0.35156308 25:0.35034837 26:0.35955416 27:0.35552489 28:0.22923977 29:0.34758375 30:0.38280135 31:0.41333128 32:0.26636355 33:0.50014541 34:0.72575038 35:0.77710283 36:0.81503808 37:0.55890638 
-0.5932552283647281 1:0.47143216 2:0.43736119 3:0.38879348 4:0.50060807 5:0.61025466 6:0.67332854 7:0.6404469 8:0.073847178 9:0.15245198 10:0.33699844 11:0.51652569 12:0.39508995 13:0.46994981 14:0.3215021 15:0.43541324 16:0.60389235 17:0.47143211 18:0.15295476 19:0.21091385 20:0.21462968 21:0.23001428 22:0.39398746 23:0.34265219 24:0.35156308 25:0.35034837 26:0.35955416 27:0.35552489 28:0.12018765 29:0.16895297 30:0.19110929 31:0.22625282 32:0.13695614 33:0.27705219 34:0.37874996 35:0.41609048 36:0.45533853 37:0.30585948 
-4 1:0.79072138 2:0.778001 3:0.38879348 4:0.50060807 5:0.61025466 6:0.67332854 7:0.6404469 8:0.25620512 9:0.39496844 10:0.56581418 11:0.70203742 12:0.61301728 13:0.71844426 14:0.71711472 15:0.77617632 16:0.84238656 17:0.79072132 18:0.35258287 19:0.37321052 20:0.21462968 21:0.23001428 22:0.70243793 23:0.34265219 24:0.35156308 25:0.35034837 26:0.35955416 27:0.35552489 28:0.2188793 29:0.33084388 30:0.36846416 31:0.40580895 32:0.25438203 33:0.4790448 34:0.69316558 35:0.7500925 36:0.80060671 37:0.53553117 
-4 1:0.82876169 2:0.83327726 3:0.38879348 4:0.50060807 5:0.61025466 6:0.67332854 7:0.6404469 8:0.31301815 9:0.45216783 10:0.59990612 11:0.70637545 12:0.63923875 13:0.79521099 14:0.81040128 15:0.82692419 16:0.84773879 17:0.82876166 18:0.37787864 19:0.39377586 20:0.21462968 21:0.23001428 22:0.64488222 23:0.34265219 24:0.35156308 25:0.35034837 26:0.35955416 27:0.35552489 28:0.210181 29:0.30155559 30:0.33212401 31:0.36444733 32:0.2402938 33:0.46068533 34:0.63595413 35:0.68135964 36:0.72082352 37:0.50747067 
4 1:0.90469595 2:0.92270073 3:0.38879348 4:0.50060807 5:0.61025466 6:0.67332854 7:0.6404469 8:0.38171094 9:0.52199512 10:0.65599004 11:0.74169192 12:0.69074394 13:0.88962724 14:0.92662587 15:0.91118033 16:0.89327341 17:0.90469594 18:0.5541832 19:0.5371106 20:0.21462968 21:0.23001428 22:0.84867014 23:0.34265219 24:0.35156308 25:0.35034837 26:0.35955416 27:0.35552489 28:0.30615684 29:0.41888561 30:0.43599817 31:0.45055946 32:0.34372858 33:0.65720662 34:0.86418666 35:0.87724693 36:0.8865728 37:0.70993264 
-4 1:0.82737957 2:0.83151426 3:0.38879348 4:0.50060807 5:0.61025466 6:0.67332854 7:0.6404469 8:0.31306242 9:0.45014553 10:0.59798974 11:0.70640826 12:0.6382824 13:0.7952186 14:0.80717473 15:0.82413471 16:0.8477631 17:0.82737953 18:0.36884196 19:0.38642908 20:0.21462968 21:0.23001428 22:0.61616374 23:0.34265219 24:0.35156308 25:0.35034837 26:0.35955416 27:0.35552489 28:0.19645348 29:0.28516593 30:0.31732156 31:0.35238065 32:0.22557218 33:0.43267424 34:0.60415218 35:0.65352259 36:0.69766775 37:0.47874943 
4 1:0.90196871 2:0.91924084 3:0.38879348 4:0.50060807 5:0.61025466 6:0.67332854 7:0.6404469 8:0.37806226 9:0.51917442 10:0.65397368 11:0.74063964 12:0.68888167 13:0.88465137 14:0.92203221 15:0.90818233 16:0.8919124 17:0.90196874 18:0.54214222 19:0.52732134 20:0.21462968 21:0.23001428 22:0.83128233 23:0.34265219 24:0.35156308 25:0.35034837 26:0.35955416 27:0.35552489 28:0.29390795 29:0.40881953 30:0.42906386 31:0.44593564 32:0.33170952 33:0.63208745 34:0.84458466 35:0.86415602 36:0.87766448 37:0.68637739 
-4 1:0.58142254 2:0.52462654 3:0.38879348 4:0.50060807 5:0.61025466 6:0.67332854 7:0.6404469 8:0.081413085 9:0.1668685 10:0.40382014 11:0.6176671 12:0.46970688 13:0.48054634 14:0.34621297 15:0.5354883 16:0.73385849 17:0.58142254 18:0.22851687 19:0.27234547 20:0.21462968 21:0.23001428 22:0.39679148 23:0.34265219 24:0.35156308 25:0.35034837 26:0.35955416 27:0.35552489 28:0.10858107 29:0.16630981 30:0.19717337 31:0.24148543 32:0.12749985 33:0.2533823 34:0.37378864 35:0.42765953 36:0.48475092 37:0.28749623 
4 1:0.79538461 2:0.76656122 3:0.38879348 4:0.50060807 5:0.61025466 6:0.67332854 7:0.6404469 8:0.18902302 9:0.36251298 10:0.59300106 11:0.70863154 12:0.61595276 13:0.62774953 14:0.66658686 15:0.81694835 16:0.8506256 17:0.79538461 18:0.36792024 19:0.38567972 20:0.21462968 21:0.23001428 22:0.64931867 23:0.34265219 24:0.35156308 25:0.35034837 26:0.35955416 27:0.35552489 28:0.18545641 29:0.30543889 30:0.34573969 31:0.38319142 32:0.22167537 33:0.41088818 34:0.64363241 35:0.70700953 36:0.75680689 37:0.47167265 
-4 1:0.81835956 2:0.81026052 3:0.38879348 4:0.50060807 5:0.61025466 6:0.67332854 7:0.6404469 8:0.24898894 9:0.42876281 10:0.60069175 11:0.70618212 12:0.63189158 13:0.70875346 14:0.77273779 15:0.82828487 16:0.84762374 17:0.81835952 18:0.3763715 19:0.39255056 20:0.21462968 21:0.23001428 22:0.63513856 23:0.34265219 24:0.35156308 25:0.35034837 26:0.35955416 27:0.35552489 28:0.19908465 29:0.29699732 30:0.32966236 31:0.36376981 32:0.23039174 33:0.43823485 34:0.6271379 35:0.67679141 36:0.7196023 37:0.48829662 
4 1:0.90297004 2:0.92053435 3:0.38879348 4:0.50060807 5:0.61025466 6:0.67332854 7:0.6404469 8:0.38081568 9:0.51969932 10:0.65451307 11:0.74117663 12:0.6895636 13:0.88835226 14:0.92281099 15:0.90900292 16:0.8926148 17:0.90297004 18:0.55094323 19:0.53447652 20:0.21462968 21:0.23001428 22:0.84819262 23:0.34265219 24:0.35156308 25:0.35034837 26:0.35955416 27:0.35552489 28:0.30563129 29:0.41876366 30:0.43589807 31:0.45055875 32:0.34327685 33:0.65592581 34:0.86388756 35:0.87703135 36:0.88655833 37:0.70888677 
-4 1:0.83970739 2:0.84474697 3:0.38879348 4:0.50060807 5:0.61025466 6:0.67332854 7:0.6404469 8:0.31562476 9:0.46053324 10:0.60832761 11:0.71218253 12:0.64643633 13:0.79912304 14:0.82486512 15:0.83994561 16:0.85541457 17:0.83970745 18:0.3952186 19:0.40787316 20:0.21462968 21:0.23001428 22:0.6501346 23:0.34265219 24:0.35156308 25:0.35034837 26:0.35955416 27:0.35552489 28:0.20926419 29:0.30383809 30:0.33611031 31:0.36927768 32:0.24016345 33:0.45925464 34:0.64072728 35:0.68913131 36:0.73030706 37:0.5076402 
4 1:0.90609564 2:0.92378259 3:0.38879348 4:0.50060807 5:0.61025466 6:0.67332854 7:0.6404469 8:0.38153617 9:0.52193929 10:0.65681804 11:0.74298734 12:0.69163446 13:0.88950915 14:0.92682981 15:0.91254049 16:0.89496076 17:0.90609563 18:0.56071058 19:0.54241733 20:0.21462968 21:0.23001428 22:0.85525875 23:0.34265219 24:0.35156308 25:0.35034837 26:0.35955416 27:0.35552489 28:0.30879146 29:0.42285724 30:0.43946891 31:0.45337048 32:0.34672848 33:0.66275451 34:0.87202816 35:0.88385863 36:0.8920195 37:0.71594813 
4 1:0.60426223 2:0.56585146 3:0.33728004 4:0.43007145 5:0.62343172 6:0.86144956 7:0.71838767 8:0.184277 9:0.18519931 10:0.38831842 11:0.73790936 12:0.53260633 13:0.67217209 14:0.43279949 15:0.50344905 16:0.73056705 17:0.60426221 18:0.25262641 19:0.23623967 20:0.224338 21:0.18391816 22:0.49888994 23:0.85369582 24:0.93652234 25:0.93973274 26:0.94391451 27:0.89953483 28:0.24155562 29:0.44783443 30:0.56482872 31:0.66764276 32:0.30405149 33:0.2763136 34:0.46084676 35:0.55474847 36:0.64605104 37:0.32882055 
4 1:0.86646974 2:0.85539271 3:0.33728004 4:0.43007145 5:0.62343172 6:0.86144956 7:0.71838767 8:0.27355732 9:0.38419736 10:0.64033171 11:0.88134392 12:0.72487903 13:0.79822485 14:0.78600696 15:0.87256727 16:0.88543864 17:0.86646973 18:0.45750064 19:0.40280142 20:0.224338 21:0.18391816 22:0.81667433 23:0.85369582 24:0.93652234 25:0.93973274 26:0.94391451 27:0.89953483 28:0.51172827 29:0.80882359 30:0.87138332 31:0.88838377 32:0.60088643 33:0.58113898 34:0.83714853 35:0.86589888 36:0.87929515 37:0.64698051 
-4 1:0.89015336 2:0.89455449 3:0.33728004 4:0.43007145 5:0.62343172 6:0.86144956 7:0.71838767 8:0.31128794 9:0.42865693 10:0.65718242 11:0.88574125 12:0.74224832 13:0.85148882 14:0.86489228 15:0.89724457 16:0.89018616 17:0.89015334 18:0.50914968 19:0.44479183 20:0.224338 21:0.18391816 22:0.84830983 23:0.85369582 24:0.93652234 25:0.93973274 26:0.94391451 27:0.89953483 28:0.5553002 29:0.84497409 30:0.8920348 31:0.90106296 32:0.64349124 33:0.63029936 34:0.8748368 35:0.88686545 36:0.89269702 37:0.69264704 
4 1:0.80048896 2:0.7940156 3:0.33728004 4:0.43007145 5:0.62343172 6:0.86144956 7:0.71838767 8:0.26810192 9:0.35461336 10:0.58375907 11:0.83167373 12:0.6764932 13:0.79051981 14:0.73350086 15:0.78970865 16:0.83180032 17:0.80048892 18:0.31923248 19:0.29039009 20:0.224338 21:0.18391816 22:0.5859107 23:0.85369582 24:0.93652234 25:0.93973274 26:0.94391451 27:0.89953483 28:0.34650614 29:0.54517967 30:0.63651492 31:0.70686341 32:0.40946046 33:0.39469581 34:0.56229582 35:0.62748859 36:0.68747461 37:0.44177407 
4 1:0.89921298 2:0.91507191 3:0.33728004 4:0.43007145 5:0.62343172 6:0.86144956 7:0.71838767 8:0.34780099 9:0.45312646 10:0.65961297 11:0.88503627 12:0.74888508 13:0.90303629 14:0.90832449 15:0.90080983 16:0.88943138 17:0.89921299 18:0.51419396 19:0.44889281 20:0.224338 21:0.18391816 22:0.84711417 23:0.85369582 24:0.93652234 25:0.93973274 26:0.94391451 27:0.89953483 28:0.5678413 29:0.83707102 30:0.88553867 31:0.89687229 32:0.65198425 33:0.6444565 34:0.86659656 35:0.88026831 36:0.88826562 37:0.70175522 
-4 1:0.62183774 2:0.58810336 3:0.33728004 4:0.43007145 5:0.62343172 6:0.86144956 7:0.71838767 8:0.18886022 9:0.19790888 10:0.42073367 11:0.73763013 12:0.54553002 13:0.67863983 14:0.45533402 15:0.55088487 16:0.73020127 17:0.62183773 18:0.22858833 19:0.21669684 20:0.224338 21:0.18391816 22:0.43332985 23:0.85369582 24:0.93652234 25:0.93973274 26:0.94391451 27:0.89953483 28:0.25330891 29:0.39191031 30:0.47265588 31:0.55595902 32:0.29885732 33:0.28948996 34:0.4024481 35:0.46109412 36:0.52795345 37:0.32316394 
4 1:0.85103656 2:0.84963515 3:0.33728004 4:0.43007145 5:0.62343172 6:0.86144956 7:0.71838767 8:0.2912155 9:0.39421011 10:0.62468499 11:0.86336485 12:0.71357111 13:0.82314797 14:0.80376885 15:0.84962486 16:0.86600996 17:0.85103654 18:0.40721995 19:0.36192347 20:0.224338 21:0.18391816 22:0.74139452 23:0.85369582 24:0.93652234 25:0.93973274 26:0.94391451 27:0.89953483 28:0.45754299 29:0.71855688 30:0.79591581 31:0.83269183 32:0.53755686 33:0.51998642 34:0.74304234 35:0.78929589 36:0.82044794 37:0.5790858 
4 1:0.79359031 2:0.77787758 3:0.26088275 4:0.41698344 5:0.61288354 6:0.85121266 7:0.70310341 8:0.17163149 9:0.33127359 10:0.57202181 11:0.82539336 12:0.660276 13:0.73916414 14:0.70803132 15:0.78392092 16:0.83312122 17:0.79359031 18:0.30582526 19:0.24345315 20:0.24799364 21:0.20416765 22:0.58251658 23:0.90984387 24:1 25:1 26:1 27:0.95889284 28:0.35693096 29:0.57032245 30:0.66923704 31:0.74390661 32:0.42403506 33:0.38604078 34:0.5569219 35:0.62618865 36:0.69001042 37:0.43409628 
4 1:0.89652613 2:0.90932606 3:0.26088275 4:0.41698344 5:0.61288354 6:0.85121266 7:0.70310341 8:0.27022922 9:0.43835403 10:0.64932475 11:0.87699079 12:0.73477453 13:0.88397547 14:0.90083968 15:0.8984151 16:0.88933827 17:0.89652614 18:0.513275 19:0.41210876 20:0.24799364 21:0.20416765 22:0.85050772 23:0.90984387 24:1 25:1 26:1 27:0.95889284 28:0.60016709 29:0.88714628 30:0.93431863 31:0.94186599 32:0.68939716 33:0.64760118 34:0.87138472 35:0.88314945 36:0.89053514 37:0.70517471 
-4 1:0.760351 2:0.72505615 3:0.26088275 4:0.41698344 5:0.61288354 6:0.85121266 7:0.70310341 8:0.12396885 9:0.27660322 10:0.54479734 11:0.81887284 12:0.63616626 13:0.669135 14:0.60970517 15:0.74372228 16:0.82606581 17:0.76035099 18:0.20960291 19:0.16522485 20:0.24799364 21:0.20416765 22:0.51506392 23:0.90984387 24:1 25:1 26:1 27:0.95889284 28:0.30306556 29:0.49149984 30:0.59583666 31:0.69117457 32:0.36306134 33:0.3281789 34:0.47877534 35:0.55512149 36:0.63666617 37:0.37187754 
3.35171366248355 1:0.94101609 2:0.928821 3:0.26088275 4:0.41698344 5:0.61288354 6:0.85121266 7:0.70310341 8:0.22239923 9:0.42835933 10:0.67743524 11:0.93245144 12:0.76698369 13:0.81372824 14:0.88281102 15:0.94004765 16:0.94972062 17:0.94101608 18:0.2842827 19:0.22593915 20:0.24799364 21:0.20416765 22:0.89430546 23:0.90984387 24:1 25:1 26:1 27:0.95889284 28:0.60524425 29:0.93845283 30:0.99151027 31:1 32:0.70540677 33:0.65303442 34:0.92229602 35:0.93859063 36:0.94942979 37:0.7215067 
-3.1935292790188128 1:0.29909752 2:0.29740782 3:0.26088275 4:0.41698344 5:0.61288354 6:0.85121266 7:0.70310341 8:0.038215823 9:0.071844125 10:0.19996212 11:0.45179037 12:0.30250049 13:0.54317259 14:0.24064683 15:0.2325922 16:0.42611754 17:0.29909749 18:0.0063730856 20:0.24799364 21:0.20416765 22:0.097909265 23:0.90984387 24:1 25:1 26:1 27:0.95889284 28:0.080083905 29:0.10781167 30:0.12380547 31:0.15673252 32:0.090278954 33:0.088264237 34:0.097744915 35:0.097343219 36:0.095112051 37:0.093067126 
-4 1:0.83623828 2:0.82374868 3:0.26088275 4:0.41698344 5:0.61288354 6:0.85121266 7:0.70310341 8:0.18959445 9:0.35986348 10:0.60919163 11:0.85139881 12:0.69115537 13:0.76553634 14:0.75945659 15:0.83893808 16:0.86145448 17:0.83623827 18:0.3578463 19:0.285746 20:0.24799364 21:0.20416765 22:0.72382068 23:0.90984387 24:1 25:1 26:1 27:0.95889284 28:0.46652661 29:0.74534381 30:0.82012459 31:0.85027257 32:0.55067956 33:0.50387388 34:0.73061495 35:0.77243714 36:0.79774304 37:0.56344881 
4 1:0.83803834 2:0.83120832 3:0.26088275 4:0.41698344 5:0.61288354 6:0.85121266 7:0.70310341 8:0.20694416 9:0.37129471 10:0.60587992 11:0.850386 12:0.69247617 13:0.79098924 14:0.77995226 15:0.83404699 16:0.86033119 17:0.83803836 18:0.40723659 19:0.32590006 20:0.24799364 21:0.20416765 22:0.73626673 23:0.90984387 24:1 25:1 26:1 27:0.95889284 28:0.46341577 29:0.75355148 30:0.83890835 31:0.87598295 32:0.55063808 33:0.50048031 34:0.73872126 35:0.79061753 36:0.82377137 37:0.56336048 
-3.1260943953371849 1:0.64991797 2:0.60697963 3:0.26088275 4:0.41698344 5:0.61288354 6:0.85121266 7:0.70310341 8:0.081395883 9:0.19898192 10:0.45496144 11:0.74829251 12:0.55631503 13:0.60660724 14:0.46966095 15:0.61035239 16:0.74923145 17:0.64991803 18:0.19591135 19:0.15409368 20:0.24799364 21:0.20416765 22:0.46119813 23:0.90984387 24:1 25:1 26:1 27:0.95889284 28:0.28126897 29:0.45013531 30:0.53541143 31:0.60580865 32:0.3347741 33:0.30465986 34:0.43760021 35:0.49643429 36:0.55010565 37:0.34289088 
-4 1:0.79077869 2:0.77027741 3:0.26088275 4:0.41698344 5:0.61288354 6:0.85121266 7:0.70310341 8:0.1651893 9:0.31886587 10:0.56997891 11:0.82764648 12:0.65823891 13:0.72970772 14:0.68565984 15:0.78083629 16:0.83561767 17:0.79077868 18:0.30175169 19:0.24014136 20:0.24799364 21:0.20416765 22:0.65149213 23:0.90984387 24:1 25:1 26:1 27:0.95889284 28:0.41030506 29:0.65648644 30:0.74284244 31:0.79529595 32:0.48587296 33:0.44342589 34:0.64242724 35:0.69752342 36:0.74205289 37:0.49725452 
4 1:0.83702672 2:0.83648429 3:0.26088275 4:0.41698344 5:0.61288354 6:0.85121266 7:0.70310341 8:0.21922602 9:0.38197254 10:0.60522111 11:0.84421205 12:0.69171921 13:0.80907364 14:0.79930038 15:0.83305445 16:0.85363119 17:0.83702671 18:0.37519011 19:0.29984643 20:0.24799364 21:0.20416765 22:0.67713274 23:0.90984387 24:1 25:1 26:1 27:0.95889284 28:0.43202492 29:0.67906457 30:0.76942109 31:0.8226264 32:0.50880727 33:0.46677627 34:0.66483191 35:0.72328377 36:0.76973169 37:0.52067746 
-1.7606649203420968 1:0.90570272 2:0.92244579 3:0.26088275 4:0.41698344 5:0.61288354 6:0.85121266 7:0.70310341 8:0.2836962 9:0.44903162 10:0.65692986 11:0.88019591 12:0.74141279 13:0.90376136 14:0.92007793 15:0.90967555 16:0.89283438 17:0.90570272 18:0.53875765 19:0.43282603 20:0.24799364 21:0.20416765 22:0.86775535 23:0.90984387 24:1 25:1 26:1 27:0.95889284 28:0.62662032 29:0.90645851 30:0.94597241 31:0.94890741 32:0.71476368 33:0.67604614 34:0.89055014 35:0.89444575 36:0.89766809 37:0.73108637 
4 1:0.82423055 2:0.82037718 3:0.26088275 4:0.41698344 5:0.61288354 6:0.85121266 7:0.70310341 8:0.20732268 9:0.36887155 10:0.59604809 11:0.83738457 12:0.68245322 13:0.7915921 14:0.77571686 15:0.81947163 16:0.8461978 17:0.82423056 18:0.35252464 19:0.28141951 20:0.24799364 21:0.20416765 22:0.64008861 23:0.90984387 24:1 25:1 26:1 27:0.95889284 28:0.39916478 29:0.63623788 30:0.73220643 31:0.79396962 32:0.47287423 33:0.43144291 34:0.62232997 35:0.68721634 36:0.74071183 37:0.4839737 
-4 1:0.9017598 2:0.91636655 3:0.26088275 4:0.41698344 5:0.61288354 6:0.85121266 7:0.70310341 8:0.27559415 9:0.44439118 10:0.65364606 11:0.8791045 12:0.73856028 13:0.89186351 14:0.91171529 15:0.90481014 16:0.89164403 17:0.90175978 18:0.53078286 19:0.42634257 20:0.24799364 21:0.20416765 22:0.86230621 23:0.90984387 24:1 25:1 26:1 27:0.95889284 28:0.61410857 29:0.90159485 30:0.94408959 31:0.94831922 32:0.70368557 33:0.66259325 34:0.88572397 35:0.89262141 36:0.89707284 37:0.71977085 
-4 1:0.943332 2:0.97736989 3:0.26088275 4:0.41698344 5:0.61288354 6:0.85121266 7:0.70310341 8:0.34921359 9:0.49340424 10:0.68376052 11:0.8949026 12:0.76863898 13:1 14:1 15:0.94942767 16:0.90886026 17:0.94333199 18:0.72051729 19:0.58059573 20:0.24799364 21:0.20416765 22:1 23:0.90984387 24:1 25:1 26:1 27:0.95889284 28:0.92783866 29:1 30:1 31:0.98227183 32:0.97796902 33:1 34:0.98341092 35:0.94682975 36:0.93147242 37:1 
4 1:0.50800522 2:0.46399577 3:0.26088275 4:0.41698344 5:0.61288354 6:0.85121266 7:0.70310341 8:0.041459743 9:0.11864797 10:0.33554715 11:0.65174624 12:0.45365138 13:0.54793141 14:0.32497662 15:0.43348699 16:0.64395797 17:0.50800519 18:0.15183608 19:0.1182607 20:0.24799364 21:0.20416765 22:0.27558986 23:0.90984387 24:1 25:1 26:1 27:0.95889284 28:0.17027744 29:0.2621298 30:0.32309354 31:0.40089392 32:0.20111633 33:0.18527156 34:0.25094332 35:0.29056534 36:0.34248253 37:0.20631442 
4 1:0.83589714 2:0.82671986 3:0.26088275 4:0.41698344 5:0.61288354 6:0.85121266 7:0.70310341 8:0.18764425 9:0.37039187 10:0.60834354 11:0.84801339 12:0.69090547 13:0.76268081 14:0.77842579 15:0.83769257 16:0.85776215 17:0.83589711 18:0.38157356 19:0.30503614 20:0.24799364 21:0.20416765 22:0.69708069 23:0.90984387 24:1 25:1 26:1 27:0.95889284 28:0.44127914 29:0.70420407 30:0.79362343 31:0.84128664 32:0.52187621 33:0.47672709 34:0.68979177 35:0.74675488 36:0.78864573 37:0.53402936 
-4 1:0.90392926 2:0.91930688 3:0.26088275 4:0.41698344 5:0.61288354 6:0.85121266 7:0.70310341 8:0.27904426 9:0.44645836 10:0.65522145 11:0.88014212 12:0.74013079 13:0.89692262 14:0.91543503 15:0.90714847 16:0.89277404 17:0.90392927 18:0.53789335 19:0.43212336 20:0.24799364 21:0.20416765 22:0.86957328 23:0.90984387 24:1 25:1 26:1 27:0.95889284 28:0.6265962 29:0.90912955 30:0.94838068 31:0.95099458 32:0.71532913 33:0.6760198 34:0.89320437 35:0.89678247 36:0.89978403 37:0.73166443 
4 1:0.80022282 2:0.78964738 3:0.26088275 4:0.41698344 5:0.61288354 6:0.85121266 7:0.70310341 8:0.18469189 9:0.34410151 10:0.5770917 11:0.8258705 12:0.66508485 13:0.75835288 14:0.73109378 15:0.7913714 16:0.83365102 17:0.80022276 18:0.32567213 19:0.25958856 20:0.24799364 21:0.20416765 22:0.59305138 23:0.90984387 24:1 25:1 26:1 27:0.95889284 28:0.36491003 29:0.58324553 30:0.68078849 31:0.75196046 32:0.43331366 33:0.39460136 34:0.56972286 35:0.6373647 36:0.69815149 37:0.44355393 
4 1:0.89758899 2:0.91033684 3:0.26088275 4:0.41698344 5:0.61288354 6:0.85121266 7:0.70310341 8:0.27010302 9:0.43874662 10:0.65063282 11:0.87755582 12:0.73554226 13:0.88379903 14:0.90155334 15:0.90034579 16:0.88995642 17:0.89758897 18:0.51696576 19:0.41510934 20:0.24799364 21:0.20416765 22:0.85290833 23:0.90984387 24:1 25:1 26:1 27:0.95889284 28:0.60160161 29:0.89024478 30:0.93702189 31:0.94389134 32:0.69123174 33:0.64914258 34:0.87445795 35:0.88576944 36:0.89258686 37:0.70704748 
-0.32666307394462818 1:0.34524091 2:0.30287018 3:0.60031351 4:0.83422475 5:0.98160313 6:0.97714359 7:0.9838853 8:0.16066421 9:0.16346116 10:0.32870818 11:0.64304969 12:0.46131778 13:0.39299357 14:0.15339774 15:0.24186451 16:0.56266044 17:0.34524093 18:0.089104521 19:0.14292188 20:0.90374211 21:0.903669 22:0.19170884 23:0.8669608 24:0.82858293 25:0.77334156 26:0.73431423 27:0.88240611 28:0.061959707 29:0.13157955 30:0.18918651 31:0.27559049 32:0.083701328 33:0.072504704 34:0.15056646 35:0.21628018 36:0.30811448 37:0.09459921 
4 1:0.79345185 2:0.76384315 3:0.60031351 4:0.83422475 5:0.98160313 6:0.97714359 7:0.9838853 8:0.36331996 9:0.57560401 10:0.85315318 11:0.9477918 12:0.86510449 13:0.64545542 14:0.65757759 15:0.79465504 16:0.86232167 17:0.79345185 18:0.28042496 19:0.29846445 20:0.90374211 21:0.903669 22:0.62804031 23:0.8669608 24:0.82858293 25:0.77334156 26:0.73431423 27:0.88240611 28:0.27842869 29:0.53842002 30:0.62263367 31:0.65858033 32:0.35195012 33:0.31405668 34:0.61444335 35:0.72153835 36:0.78970453 37:0.38637448 
4 1:0.865583 2:0.86298443 3:0.60031351 4:0.83422475 5:0.98160313 6:0.97714359 7:0.9838853 8:0.46003909 9:0.71835958 10:0.93250013 11:0.96662769 12:0.93014296 13:0.76583059 14:0.83180218 15:0.87809708 16:0.88088036 17:0.865583 18:0.39244349 19:0.38953497 20:0.90374211 21:0.903669 22:0.74922936 23:0.8669608 24:0.82858293 25:0.77334156 26:0.73431423 27:0.88240611 28:0.41802898 29:0.6749393 30:0.70538493 31:0.70476534 32:0.49278349 33:0.46972542 34:0.76984455 35:0.81787409 36:0.84768883 37:0.53945039 
4 1:0.78930505 2:0.77466251 3:0.60031351 4:0.83422475 5:0.98160313 6:0.97714359 7:0.9838853 8:0.39575595 9:0.61810286 10:0.85165469 11:0.92327335 12:0.86158743 13:0.68582387 14:0.70931636 15:0.79285597 16:0.83788282 17:0.78930501 18:0.25420737 19:0.27714968 20:0.90374211 21:0.903669 22:0.51172568 23:0.8669608 24:0.82858293 25:0.77334156 26:0.73431423 27:0.88240611 28:0.2389678 29:0.42722837 30:0.49966036 31:0.55035812 32:0.29439515 33:0.26980472 34:0.487204 35:0.57772649 36:0.65312261 37:0.32350945 
-4 1:0.89277213 2:0.90205894 3:0.60031351 4:0.83422475 5:0.98160313 6:0.97714359 7:0.9838853 8:0.51642596 9:0.76880909 10:0.9557424 11:0.97664846 12:0.95442482 13:0.83610862 14:0.89363761 15:0.90282779 16:0.89094623 17:0.8927721 18:0.44133016 19:0.42927959 20:0.90374211 21:0.903669 22:0.79388504 23:0.8669608 24:0.82858293 25:0.77334156 26:0.73431423 27:0.88240611 28:0.47440372 29:0.71665942 30:0.7351726 31:0.7249716 32:0.54720332 33:0.53280569 34:0.81764993 35:0.85284169 36:0.87331028 37:0.59885104 
-4 1:0.3597191 2:0.31490688 3:0.60031351 4:0.83422475 5:0.98160313 6:0.97714359 7:0.9838853 8:0.14849136 9:0.16830256 10:0.36480651 11:0.64665898 12:0.47510125 13:0.37780804 14:0.15930538 15:0.27923245 16:0.56463986 17:0.35971912 18:0.07324411 19:0.13002744 20:0.90374211 21:0.903669 22:0.19741554 23:0.8669608 24:0.82858293 25:0.77334156 26:0.73431423 27:0.88240611 28:0.074650561 29:0.14495587 30:0.19707877 31:0.26511792 32:0.096528376 33:0.086467333 34:0.16501453 35:0.22411118 36:0.29304727 37:0.10823878 
4 1:0.34222122 2:0.35157523 3:0.60031351 4:0.83422475 5:0.98160313 6:0.97714359 7:0.9838853 8:0.2250364 9:0.31137927 10:0.43659928 11:0.51223227 12:0.4611305 13:0.4725805 14:0.33279881 15:0.35237153 16:0.429993 17:0.34222123 18:0.0099915253 19:0.078603401 20:0.90374211 21:0.903669 22:0.17391466 23:0.8669608 24:0.82858293 25:0.77334156 26:0.73431423 27:0.88240611 28:0.095327785 29:0.15460026 30:0.16980262 31:0.19000861 32:0.11302018 33:0.1095428 34:0.17576983 35:0.19167251 36:0.19737155 37:0.12613587 
-4 1:0.76963585 2:0.75069958 3:0.52905293 4:0.85174238 5:1 6:1 7:1 8:0.31842949 9:0.60377054 10:0.84290768 11:0.92818035 12:0.85445041 13:0.65667079 14:0.67800963 15:0.77054241 16:0.82720456 17:0.76963585 18:0.22413902 19:0.23447187 20:1 21:1 22:0.47668003 23:0.93304182 24:0.89561137 25:0.83212891 26:0.78499936 27:0.95026794 28:0.22810071 29:0.41989678 30:0.49574002 31:0.54979315 32:0.28413995 33:0.24293045 34:0.45034343 35:0.54087003 36:0.61809599 37:0.29430946 
4 1:0.88354024 2:0.89110013 3:0.60031351 4:0.83422475 5:0.98160313 6:0.97714359 7:0.9838853 8:0.50842373 9:0.75612653 10:0.94474174 11:0.97215413 12:0.94599336 13:0.82612584 14:0.87817498 15:0.89135487 16:0.88663892 17:0.88354024 18:0.42306889 19:0.41443327 20:0.90374211 21:0.903669 22:0.77793873 23:0.8669608 24:0.82858293 25:0.77334156 26:0.73431423 27:0.88240611 28:0.45767402 29:0.69784624 30:0.72328155 31:0.71844707 32:0.52980859 33:0.51433528 34:0.79650214 35:0.83920646 36:0.86526278 37:0.58015434 
3.2113962848520834 1:0.65449883 2:0.60821008 3:0.60031351 4:0.83422475 5:0.98160313 6:0.97714359 7:0.9838853 8:0.26052274 9:0.41085097 10:0.70367787 11:0.86481496 12:0.74137066 13:0.51722078 14:0.45520728 15:0.63551615 16:0.77900316 17:0.6544988 18:0.11888871 19:0.16713628 20:0.90374211 21:0.903669 22:0.29229131 23:0.8669608 24:0.82858293 25:0.77334156 26:0.73431423 27:0.88240611 28:0.11502278 29:0.2237512 30:0.29141751 31:0.36422435 32:0.14792614 33:0.13137753 34:0.25458156 35:0.33385701 36:0.41761905 37:0.16397226 
-4 1:0.88835001 2:0.87462111 3:0.60031351 4:0.83422475 5:0.98160313 6:0.97714359 7:0.9838853 8:0.43897125 9:0.70744247 10:0.95445414 11:1 12:0.95076 13:0.73960854 14:0.81839665 15:0.90130379 16:0.91370642 17:0.88835002 18:0.23914654 19:0.2649053 20:0.90374211 21:0.903669 22:0.71432881 23:0.8669608 24:0.82858293 25:0.77334156 26:0.73431423 27:0.88240611 28:0.35876589 29:0.63447572 30:0.68743024 31:0.70433705 32:0.43694621 33:0.40353579 34:0.72391599 35:0.79724089 36:0.84748032 37:0.47868018 
-4 1:0.17143476 2:0.1611033 3:0.60031351 4:0.83422475 5:0.98160313 6:0.97714359 7:0.9838853 8:0.12763225 9:0.11151062 10:0.20208493 11:0.43214584 12:0.30520439 13:0.35190022 14:0.089889782 15:0.10745098 16:0.3540181 17:0.17143473 18:5.5511151e-17 19:0.07048034 20:0.90374211 21:0.903669 22:0.058727481 23:0.8669608 24:0.82858293 25:0.77334156 26:0.73431423 27:0.88240611 28:0.03460653 29:0.047954072 30:0.057497938 31:0.086674874 32:0.039499262 33:0.041933143 34:0.054800569 35:0.061829844 36:0.069107415 37:0.046410087 
-4 1:0.80885445 2:0.79569945 3:0.60031351 4:0.83422475 5:0.98160313 6:0.97714359 7:0.9838853 8:0.41044375 9:0.63712712 10:0.87226929 11:0.93658123 12:0.8789651 13:0.70410108 14:0.73257364 15:0.8147323 16:0.8515031 17:0.80885445 18:0.29405219 19:0.30954333 20:0.90374211 21:0.903669 22:0.63501619 23:0.8669608 24:0.82858293 25:0.77334156 26:0.73431423 27:0.88240611 28:0.30913539 29:0.55520444 30:0.61630834 31:0.64203357 32:0.37932348 33:0.34822472 34:0.6336153 35:0.71429433 36:0.76900088 37:0.4160729 
-4 1:0.76372991 2:0.74558042 3:0.60031351 4:0.83422475 5:0.98160313 6:0.97714359 7:0.9838853 8:0.38312015 9:0.58354003 10:0.81788025 11:0.91080693 12:0.83775894 13:0.67017014 14:0.66771063 15:0.75810944 16:0.82612999 17:0.76372989 18:0.25635513 19:0.2788958 20:0.90374211 21:0.903669 22:0.54065125 23:0.8669608 24:0.82858293 25:0.77334156 26:0.73431423 27:0.88240611 28:0.24682953 29:0.45485686 30:0.5292571 31:0.57711428 32:0.30707767 33:0.27916145 34:0.51990949 35:0.61341163 36:0.68781754 37:0.33800676 
-4 1:0.59033072 2:0.55350995 3:0.60031351 4:0.83422475 5:0.98160313 6:0.97714359 7:0.9838853 8:0.25075047 9:0.38469554 10:0.64039687 11:0.79745883 12:0.68242437 13:0.505267 14:0.42382377 15:0.57020623 16:0.71409127 17:0.59033072 18:0.10212684 19:0.15350896 20:0.90374211 21:0.903669 22:0.3257289 23:0.8669608 24:0.82858293 25:0.77334156 26:0.73431423 27:0.88240611 28:0.12819138 29:0.25904321 30:0.32717657 31:0.38600638 32:0.1664437 33:0.14636534 34:0.29606845 35:0.3774097 36:0.44712644 37:0.18458399 
-4 1:0.76193319 2:0.74087989 3:0.60031351 4:0.83422475 5:0.98160313 6:0.97714359 7:0.9838853 8:0.37774271 9:0.57397581 10:0.81137224 11:0.91736526 12:0.8369223 13:0.66339618 14:0.65530882 15:0.75045004 16:0.83214844 17:0.76193321 18:0.23107212 19:0.25834083 20:0.90374211 21:0.903669 22:0.552866 23:0.8669608 24:0.82858293 25:0.77334156 26:0.73431423 27:0.88240611 28:0.24239358 29:0.4627766 30:0.54361983 31:0.60055583 32:0.30570149 33:0.27383839 34:0.52837201 35:0.62957247 36:0.7166888 37:0.33608691 
4 1:0.79423726 2:0.78372696 3:0.60031351 4:0.83422475 5:0.98160313 6:0.97714359 7:0.9838853 8:0.41074871 9:0.63363 10:0.85541973 11:0.92265733 12:0.8659976 13:0.70449059 14:0.72828243 15:0.79678254 16:0.83735384 17:0.79423727 18:0.26904591 19:0.28921335 20:0.90374211 21:0.903669 22:0.54813332 23:0.8669608 24:0.82858293 25:0.77334156 26:0.73431423 27:0.88240611 28:0.27025568 29:0.46415458 30:0.52998741 31:0.57214514 32:0.32767005 33:0.30480445 34:0.5294771 35:0.61327648 36:0.68073051 37:0.35981146 
-4 1:0.89047235 2:0.90031037 3:0.60031351 4:0.83422475 5:0.98160313 6:0.97714359 7:0.9838853 8:0.51794657 9:0.76793146 10:0.95296036 11:0.97457578 12:0.95242425 13:0.8379674 14:0.89247685 15:0.89981457 16:0.88886695 17:0.89047234 18:0.44198887 19:0.42981512 20:0.90374211 21:0.903669 22:0.79816793 23:0.8669608 24:0.82858293 25:0.77334156 26:0.73431423 27:0.88240611 28:0.48305448 29:0.72028721 30:0.73688577 31:0.72582683 32:0.55493072 33:0.54236093 34:0.82159848 35:0.85468462 36:0.87427369 37:0.60714407 
4 1:0.77564732 2:0.75949011 3:0.60031351 4:0.83422475 5:0.98160313 6:0.97714359 7:0.9838853 8:0.38571968 9:0.6021819 10:0.83675407 11:0.91440292 12:0.84905558 13:0.67335557 14:0.69003331 15:0.77740725 16:0.82935155 17:0.77564733 18:0.24653056 19:0.27090847 20:0.90374211 21:0.903669 22:0.49659213 23:0.8669608 24:0.82858293 25:0.77334156 26:0.73431423 27:0.88240611 28:0.23185675 29:0.41310997 30:0.48421358 31:0.53584624 32:0.28538146 33:0.26208162 34:0.47154796 35:0.56017809 36:0.63530357 37:0.31396232 
0.4276435561750272 1:0.88541709 2:0.89260092 3:0.60031351 4:0.83422475 5:0.98160313 6:0.97714359 7:0.9838853 8:0.50540412 9:0.75779723 10:0.9487336 11:0.97314892 12:0.94791375 13:0.82235768 14:0.88008266 15:0.89533055 16:0.88741433 17:0.88541712 18:0.43113901 19:0.42099423 20:0.90374211 21:0.903669 22:0.78573683 23:0.8669608 24:0.82858293 25:0.77334156 26:0.73431423 27:0.88240611 28:0.46520113 29:0.70806237 30:0.72964924 31:0.72166098 32:0.53798326 33:0.52239077 34:0.80764156 35:0.84624083 36:0.86903041 37:0.58866048 
-4 1:0.943332 2:0.97736989 3:0.60031351 4:0.83422475 5:0.98160313 6:0.97714359 7:0.9838853 8:0.64807947 9:0.85595428 10:1 11:0.99478884 12:1 13:1 14:1 15:0.94942767 16:0.90886026 17:0.94333199 18:0.58630928 19:0.54714691 20:0.90374211 21:0.903669 22:0.99999964 23:0.8669608 24:0.82858293 25:0.77334156 26:0.73431423 27:0.88240611 28:0.8935147 29:0.86257372 30:0.81609411 31:0.7713722 32:0.91638808 33:0.99999988 34:0.9834107 35:0.94682933 36:0.93147179 37:1 
4 1:0.43583569 2:0.37260454 3:0.60031351 4:0.83422475 5:0.98160313 6:0.97714359 7:0.9838853 8:0.11913675 9:0.19094484 10:0.44008931 11:0.73005074 12:0.54314061 13:0.34141527 14:0.18700489 15:0.35913892 16:0.64814552 17:0.43583565 18:0.10070521 19:0.15235318 20:0.90374211 21:0.903669 22:0.19282016 23:0.8669608 24:0.82858293 25:0.77334156 26:0.73431423 27:0.88240611 28:0.066448714 29:0.13512056 30:0.19093283 31:0.27151066 32:0.087984931 33:0.077396177 34:0.15420102 35:0.21766194 36:0.30217908 37:0.099087793 
4 1:0.76641064 2:0.73030626 3:0.60031351 4:0.83422475 5:0.98160313 6:0.97714359 7:0.9838853 8:0.3102891 9:0.53665091 10:0.85270772 11:0.91792751 12:0.84068046 13:0.57943723 14:0.60970972 15:0.79436516 16:0.83339706 17:0.76641064 18:0.26249866 19:0.28389046 20:0.90374211 21:0.903669 22:0.55202846 23:0.8669608 24:0.82858293 25:0.77334156 26:0.73431423 27:0.88240611 28:0.23367873 29:0.47455228 30:0.54871725 31:0.59094764 32:0.30077501 33:0.26379239 34:0.5412213 35:0.63532176 36:0.70477772 37:0.33035917 
4 1:0.75433734 2:0.73307322 3:0.60031351 4:0.83422475 5:0.98160313 6:0.97714359 7:0.9838853 8:0.35296747 9:0.57263458 10:0.82066401 11:0.89854519 12:0.82911676 13:0.63263075 14:0.65437324 15:0.7613048 16:0.81447339 17:0.75433735 18:0.2300935 19:0.25754523 20:0.90374211 21:0.903669 22:0.47756368 23:0.8669608 24:0.82858293 25:0.77334156 26:0.73431423 27:0.88240611 28:0.21770501 29:0.39619595 30:0.46626181 31:0.51872518 32:0.27003854 33:0.24665334 34:0.45334568 35:0.54048992 36:0.6149663 37:0.29776538 
4 1:0.88357115 2:0.89050042 3:0.60031351 4:0.83422475 5:0.98160313 6:0.97714359 7:0.9838853 8:0.50457986 9:0.75512415 10:0.94645098 11:0.97179113 12:0.94599346 13:0.82134702 14:0.87699005 15:0.89316752 16:0.88626939 17:0.88357114 18:0.42565271 19:0.4165339 20:0.90374211 21:0.903669 22:0.78024985 23:0.8669608 24:0.82858293 25:0.77334156 26:0.73431423 27:0.88240611 28:0.46217986 29:0.70104527 30:0.72393911 31:0.71771223 32:0.53403722 33:0.51946878 34:0.8002176 35:0.84001379 36:0.8643635 37:0.5848578 
4 1:0.76687433 2:0.74830276 3:0.60031351 4:0.83422475 5:0.98160313 6:0.97714359 7:0.9838853 8:0.37311993 9:0.58881755 10:0.82881029 11:0.90979866 12:0.84120462 13:0.65766848 14:0.6736705 15:0.76900133 16:0.82476139 17:0.76687436 18:0.24203363 19:0.2672525 20:0.90374211 21:0.903669 22:0.48379646 23:0.8669608 24:0.82858293 25:0.77334156 26:0.73431423 27:0.88240611 28:0.22416598 29:0.40096895 30:0.47245835 31:0.52563181 32:0.2764401 33:0.25345544 34:0.45757467 35:0.54629259 36:0.62223356 37:0.30417576 
4 1:0.89398158 2:0.90363626 3:0.60031351 4:0.83422475 5:0.98160313 6:0.97714359 7:0.9838853 8:0.51936429 9:0.77010581 10:0.95659451 11:0.97768339 12:0.95559683 13:0.8397472 14:0.89513451 15:0.90364602 16:0.89192607 17:0.89398157 18:0.45259626 19:0.43843888 20:0.90374211 21:0.903669 22:0.81124564 23:0.8669608 24:0.82858293 25:0.77334156 26:0.73431423 27:0.88240611 28:0.49330757 29:0.73485121 30:0.74796406 31:0.73347369 32:0.56631388 33:0.55378592 34:0.83814456 35:0.86756947 36:0.88388041 37:0.61950255 
-4 1:0.85594468 2:0.86467542 3:0.081230073 4:0.13163855 5:0.1839925 6:0.19848636 7:0.18517717 8:0.10574887 9:0.17930288 10:0.28157454 11:0.36153149 12:0.3069136 13:0.86205146 14:0.82491417 15:0.85371399 16:0.87171547 17:0.85594468 18:0.56158606 19:0.47031073 20:0.026774528 21:0.024209033 22:0.83350792 23:0.18898233 24:0.18899707 25:0.18024116 26:0.17642194 27:0.19445779 28:0.22382017 29:0.29232461 30:0.29930949 31:0.30603385 32:0.2477608 33:0.65746857 34:0.83703022 35:0.85828502 36:0.87351891 37:0.70456345 
-4 1:0.88896065 2:0.90728299 3:0.081230073 4:0.13163855 5:0.1839925 6:0.19848636 7:0.18517717 8:0.1320064 9:0.20587999 10:0.29581649 11:0.36690178 12:0.32021722 13:0.90438528 14:0.89466361 15:0.89313513 16:0.88435909 17:0.88896063 18:0.64410156 19:0.53739543 20:0.026774528 21:0.024209033 22:0.88153903 23:0.18898233 24:0.18899707 25:0.18024116 26:0.17642194 27:0.19445779 28:0.25212964 29:0.3148617 30:0.31258197 31:0.31311361 32:0.27525907 33:0.73342152 34:0.89410771 35:0.891105 36:0.89160115 37:0.77501143 
-4 1:0.81434846 2:0.82453426 3:0.081230073 4:0.13163855 5:0.1839925 6:0.19848636 7:0.18517717 8:0.10002847 9:0.16832728 10:0.26472289 11:0.3438402 12:0.29048008 13:0.85267735 14:0.79491593 15:0.80589757 16:0.82948845 17:0.81434841 18:0.4498064 19:0.37943442 20:0.026774528 21:0.024209033 22:0.65998022 23:0.18898233 24:0.18899707 25:0.18024116 26:0.17642194 27:0.19445779 28:0.17503949 29:0.21862761 30:0.2266231 31:0.24089015 32:0.19169478 33:0.52509489 34:0.64853008 35:0.67643789 36:0.70486392 37:0.55931673 
-4 1:0.90031924 2:0.92404857 3:0.069461646 4:0.13254846 5:0.18667612 6:0.19965629 7:0.18612452 8:0.13731096 9:0.21928496 10:0.30190681 11:0.36843084 12:0.32555339 13:0.92916242 14:0.92798027 15:0.90381665 16:0.88578943 17:0.90031927 18:0.63586809 19:0.50949301 20:0.031035794 21:0.028456011 22:0.87677707 23:0.17529478 24:0.17276459 25:0.15987512 26:0.1502307 27:0.17948454 28:0.24208739 29:0.30038876 30:0.29541581 31:0.29269464 32:0.2636699 33:0.72752833 34:0.88707688 35:0.88697529 36:0.89039678 37:0.76884403 
4 1:0.38341034 2:0.38988501 3:0.081230073 4:0.13163855 5:0.1839925 6:0.19848636 7:0.18517717 8:0.011948859 9:0.022496662 10:0.077410831 11:0.17938422 12:0.11824876 13:0.71044452 14:0.41011512 15:0.28391196 16:0.43858232 17:0.38341031 18:0.27962292 19:0.24107608 20:0.026774528 21:0.024209033 22:0.37021372 23:0.18898233 24:0.18899707 25:0.18024116 26:0.17642194 27:0.19445779 28:0.10403095 29:0.10768718 30:0.10161542 31:0.10852285 32:0.10823899 33:0.33358324 34:0.36673789 35:0.36602591 36:0.36487259 37:0.34453777 
-4 1:0.81433238 2:0.82171057 3:0.081230073 4:0.13163855 5:0.1839925 6:0.19848636 7:0.18517717 8:0.098177999 9:0.16427506 10:0.26250437 11:0.34709657 12:0.29056106 13:0.84957165 14:0.78381514 15:0.79956366 16:0.83700023 17:0.81433234 18:0.49168702 19:0.41348315 20:0.026774528 21:0.024209033 22:0.77565441 23:0.18898233 24:0.18899707 25:0.18024116 26:0.17642194 27:0.19445779 28:0.20617616 29:0.26663626 30:0.27549154 31:0.28681061 32:0.22779935 33:0.60931523 34:0.77116054 35:0.79859387 36:0.82370484 37:0.65260932 
-4 1:0.84290754 2:0.85918539 3:0.081230073 4:0.13163855 5:0.1839925 6:0.19848636 7:0.18517717 8:0.11749381 9:0.18766592 10:0.27652471 11:0.35021566 12:0.30175802 13:0.88090645 14:0.84643602 15:0.83953877 16:0.84491208 17:0.84290753 18:0.50631781 19:0.42537791 20:0.026774528 21:0.024209033 22:0.74988771 23:0.18898233 24:0.18899707 25:0.18024116 26:0.17642194 27:0.19445779 28:0.20292591 29:0.25596272 30:0.26284355 31:0.27371555 32:0.22264628 33:0.60079441 34:0.74426593 35:0.76733683 36:0.790134 37:0.63958406 
4 1:0.89961167 2:0.92330491 3:0.06950964 4:0.13267518 5:0.18646423 6:0.19742844 7:0.18502164 8:0.13747495 9:0.21871249 10:0.30141502 11:0.36646374 12:0.32433421 13:0.92940825 14:0.92650621 15:0.90316564 16:0.88530993 17:0.89961168 18:0.65529713 19:0.52528874 20:0.031035743 21:0.028455951 22:0.88591712 23:0.17528975 24:0.17286057 25:0.16018859 26:0.15108954 27:0.17951937 28:0.24660915 29:0.30404911 30:0.29821826 31:0.29522102 32:0.26811621 33:0.74055701 34:0.89693923 35:0.89391301 36:0.89566312 37:0.78103777 
-4 1:0.90273676 2:0.91355359 3:0.081230073 4:0.13163855 5:0.1839925 6:0.19848636 7:0.18517717 8:0.11492378 9:0.19830459 10:0.30291539 11:0.37752743 12:0.32554794 13:0.87696983 14:0.87537382 15:0.91336713 16:0.90986029 17:0.90273675 18:0.34180758 19:0.29163191 20:0.026774528 21:0.024209033 22:0.83061379 23:0.18898233 24:0.18899707 25:0.18024116 26:0.17642194 27:0.19445779 28:0.22002436 29:0.2888387 30:0.29847925 31:0.30954337 32:0.24408143 33:0.64773253 34:0.82862626 35:0.85655311 36:0.88276886 37:0.69557478 
0.91153301842091317 1:0.95353959 2:0.9679495 3:0.081230073 4:0.13163855 5:0.1839925 6:0.19848636 7:0.18517717 8:0.13668089 9:0.22264646 10:0.3201889 11:0.39647435 12:0.3459038 13:0.91212696 14:0.93975126 15:0.96140329 16:0.95468854 17:0.95353957 18:0.35176509 19:0.29972731 20:0.026774528 21:0.024209033 22:0.95581694 23:0.18898233 24:0.18899707 25:0.18024116 26:0.17642194 27:0.19445779 28:0.27003038 29:0.34571712 30:0.34402141 31:0.34436008 32:0.2967708 33:0.78265052 34:0.97325558 35:0.96979524 36:0.97237723 37:0.83127205 
4 1:0.36046955 2:0.37543111 3:0.081230073 4:0.13163855 5:0.1839925 6:0.19848636 7:0.18517717 8:0.012212775 9:0.026016005 10:0.077056056 11:0.16005864 12:0.10923139 13:0.71085284 14:0.41943603 15:0.2828973 16:0.39206125 17:0.36046956 18:0.10642965 19:0.1002708 20:0.026774528 21:0.024209033 22:0.3350977 23:0.18898233 24:0.18899707 25:0.18024116 26:0.17642194 27:0.19445779 28:0.097910757 29:0.097035444 30:0.086857869 31:0.087743651 32:0.10058967 33:0.31660864 34:0.33895204 35:0.32848685 36:0.31041133 37:0.32429654 
-4 1:0.84365897 2:0.85619107 3:0.081230073 4:0.13163855 5:0.1839925 6:0.19848636 7:0.18517717 8:0.10913689 9:0.18221012 10:0.27654249 11:0.35368677 12:0.3020822 13:0.86752398 14:0.83249269 15:0.83944529 16:0.85286383 17:0.84365897 18:0.45161447 19:0.38090437 20:0.026774528 21:0.024209033 22:0.81374714 23:0.18898233 24:0.18899707 25:0.18024116 26:0.17642194 27:0.19445779 28:0.22049442 29:0.28440129 30:0.28961405 31:0.29684917 32:0.24318764 33:0.64850382 34:0.81697298 35:0.83419937 36:0.84987851 37:0.69281212 
-4 1:0.88390669 2:0.9033905 3:0.081230073 4:0.13163855 5:0.1839925 6:0.19848636 7:0.18517717 8:0.13518692 9:0.20577167 10:0.29227209 11:0.36435558 12:0.31795583 13:0.90972791 14:0.89550589 15:0.88410599 16:0.87871894 17:0.88390667 18:0.6246955 19:0.52161839 20:0.026774528 21:0.024209033 22:0.86691831 23:0.18898233 24:0.18899707 25:0.18024116 26:0.17642194 27:0.19445779 28:0.24290956 29:0.30740288 30:0.30842472 31:0.3111239 32:0.26629301 33:0.7097575 34:0.87613462 35:0.88144579 36:0.8869488 37:0.75306032 
-4 1:0.61149283 2:0.60958213 3:0.081230073 4:0.13163855 5:0.1839925 6:0.19848636 7:0.18517717 8:0.039982888 9:0.08086642 10:0.17732438 11:0.27430684 12:0.20930378 13:0.75576267 14:0.5645357 15:0.56282065 16:0.66416165 17:0.6114928 18:0.28231926 19:0.24326819 20:0.026774528 21:0.024209033 22:0.53891164 23:0.18898233 24:0.18899707 25:0.18024116 26:0.17642194 27:0.19445779 28:0.13862085 29:0.16953585 30:0.17680559 31:0.19344567 32:0.15106089 33:0.42694485 34:0.52387466 35:0.55273389 36:0.58297233 37:0.45479726 
-4 1:0.85337394 2:0.86789951 3:0.081230073 4:0.13163855 5:0.1839925 6:0.19848636 7:0.18517717 8:0.11749336 9:0.18879662 10:0.27911377 11:0.35649545 12:0.30589379 13:0.88101724 14:0.85013795 15:0.84690953 16:0.85971661 17:0.85337393 18:0.50578281 19:0.42494296 20:0.026774528 21:0.024209033 22:0.81404136 23:0.18898233 24:0.18899707 25:0.18024116 26:0.17642194 27:0.19445779 28:0.2145741 29:0.28223032 30:0.29201663 31:0.30338634 32:0.23817973 33:0.63272081 34:0.81167187 35:0.84037338 36:0.86686217 37:0.68011126 
-4 1:0.82341677 2:0.82808403 3:0.081230073 4:0.13163855 5:0.1839925 6:0.19848636 7:0.18517717 8:0.085174147 9:0.16128296 10:0.27155013 11:0.35046967 12:0.29396639 13:0.82888864 14:0.77735972 15:0.82537454 16:0.84524386 17:0.82341681 18:0.48209696 19:0.40568648 20:0.026774528 21:0.024209033 22:0.71719497 23:0.18898233 24:0.18899707 25:0.18024116 26:0.17642194 27:0.19445779 28:0.19179268 29:0.24293925 30:0.25018793 31:0.26209364 32:0.21070622 33:0.57050208 34:0.71061723 35:0.73534832 36:0.75975531 37:0.60850608 
4 1:0.90582329 2:0.93064398 3:0.081230073 4:0.13163855 5:0.1839925 6:0.19848636 7:0.18517717 8:0.1522979 9:0.22139965 10:0.30188137 11:0.36885879 12:0.32693775 13:0.93722684 14:0.93596746 15:0.91014003 16:0.88902232 17:0.90582328 18:0.66831538 19:0.55708114 20:0.026774528 21:0.024209033 22:0.9021309 23:0.18898233 24:0.18899707 25:0.18024116 26:0.17642194 27:0.19445779 28:0.26554329 29:0.32225721 30:0.31782636 31:0.3170967 32:0.28768401 33:0.76975863 34:0.91310346 35:0.9042763 36:0.90193822 37:0.80716864 
-4 1:0.82041301 2:0.83476946 3:0.081230073 4:0.13163855 5:0.1839925 6:0.19848636 7:0.18517717 8:0.10964078 9:0.17719163 10:0.26740208 11:0.34297603 12:0.29297683 13:0.86816855 14:0.81826477 15:0.81316697 16:0.82726668 17:0.82041299 18:0.46181296 19:0.38919569 20:0.026774528 21:0.024209033 22:0.67440502 23:0.18898233 24:0.18899707 25:0.18024116 26:0.17642194 27:0.19445779 28:0.18102968 29:0.22482491 30:0.2319102 31:0.24519005 32:0.19789426 33:0.54102159 34:0.66412366 35:0.68948252 36:0.71588902 37:0.57506954 
4 1:0.89696971 2:0.92047611 3:0.081230073 4:0.13163855 5:0.1839925 6:0.19848636 7:0.18517717 8:0.14650836 9:0.21691806 10:0.29822415 11:0.36638244 12:0.32343434 13:0.92779618 14:0.92385708 15:0.89981108 16:0.88312872 17:0.89696972 18:0.64263831 19:0.53620581 20:0.026774528 21:0.024209033 22:0.88080093 23:0.18898233 24:0.18899707 25:0.18024116 26:0.17642194 27:0.19445779 28:0.25471508 29:0.31298341 30:0.31122223 31:0.31261471 32:0.27697001 33:0.74010562 34:0.88919106 35:0.88763112 36:0.8902482 37:0.77916897 
4 1:0.56680624 2:0.56062948 3:0.081230073 4:0.13163855 5:0.1839925 6:0.19848636 7:0.18517717 8:0.02741652 9:0.058509999 10:0.1577293 11:0.26082507 12:0.19172058 13:0.73545282 14:0.50519263 15:0.50706837 16:0.63129777 17:0.56680619 18:0.32237734 19:0.27583522 20:0.026774528 21:0.024209033 22:0.43545524 23:0.18898233 24:0.18899707 25:0.18024116 26:0.17642194 27:0.19445779 28:0.10900375 29:0.13080446 30:0.13399678 31:0.1491036 32:0.11806351 33:0.34643794 34:0.42493673 35:0.4459116 36:0.46856759 37:0.36925781 
-4 1:0.86410239 2:0.87814182 3:0.081230073 4:0.13163855 5:0.1839925 6:0.19848636 7:0.18517717 8:0.12010469 9:0.19193254 10:0.28357684 11:0.36136405 12:0.31043552 13:0.88507646 14:0.8571995 15:0.85833634 16:0.87092285 17:0.86410238 18:0.56377208 19:0.47208795 20:0.026774528 21:0.024209033 22:0.82762604 23:0.18898233 24:0.18899707 25:0.18024116 26:0.17642194 27:0.19445779 28:0.2182616 29:0.28950757 30:0.29875364 31:0.30749898 32:0.24275612 33:0.64143255 34:0.82917228 35:0.85646701 36:0.87706005 37:0.69073715 
-4 1:0.86752224 2:0.88663809 3:0.081230073 4:0.13163855 5:0.1839925 6:0.19848636 7:0.18517717 8:0.12932843 9:0.20045108 10:0.28659315 11:0.35787773 12:0.311671 13:0.8999602 14:0.8799839 15:0.86732245 16:0.86300388 17:0.86752222 18:0.56102174 19:0.46985194 20:0.026774528 21:0.024209033 22:0.80704139 23:0.18898233 24:0.18899707 25:0.18024116 26:0.17642194 27:0.19445779 28:0.22430783 29:0.28066422 30:0.28465929 31:0.29176151 32:0.24537363 33:0.65819907 34:0.80690607 35:0.82145152 36:0.83645987 37:0.69786352 
4 1:0.90871575 2:0.93376133 3:0.081230073 4:0.13163855 5:0.1839925 6:0.19848636 7:0.18517717 8:0.15385007 9:0.22269899 10:0.30283621 11:0.36991003 12:0.3280761 13:0.93973235 14:0.93943486 15:0.91287791 16:0.89156333 17:0.90871577 18:0.68503773 19:0.57067633 20:0.026774528 21:0.024209033 22:0.91196361 23:0.18898233 24:0.18899707 25:0.18024116 26:0.17642194 27:0.19445779 28:0.27050316 29:0.32650176 30:0.32091513 31:0.31939809 32:0.29259634 33:0.78301472 34:0.92393499 35:0.91200738 36:0.90790303 37:0.81973742 
-4 1:0.86124578 2:0.88030992 3:0.081230073 4:0.13163855 5:0.1839925 6:0.19848636 7:0.18517717 8:0.12824558 9:0.19847269 10:0.28383264 11:0.35558312 12:0.30923731 13:0.89819758 14:0.87454327 15:0.8593759 16:0.85737076 17:0.86124573 18:0.54444792 19:0.4563775 20:0.026774528 21:0.024209033 22:0.78700231 23:0.18898233 24:0.18899707 25:0.18024116 26:0.17642194 27:0.19445779 28:0.21761286 29:0.27220673 30:0.27697701 31:0.28500915 32:0.23808487 33:0.63986113 34:0.78500218 35:0.80198248 36:0.81877337 37:0.67878552 
4 1:0.90701804 2:0.93169384 3:0.081230073 4:0.13163855 5:0.1839925 6:0.19848636 7:0.18517717 8:0.15256542 9:0.22170133 10:0.30212466 11:0.36955634 12:0.32742739 13:0.93763947 14:0.93668216 15:0.91075416 16:0.89067934 17:0.90701804 18:0.67513046 19:0.56262177 20:0.026774528 21:0.024209033 22:0.90650564 23:0.18898233 24:0.18899707 25:0.18024116 26:0.17642194 27:0.19445779 28:0.26770264 29:0.3241632 30:0.31927962 31:0.31820012 32:0.28983834 33:0.77537316 34:0.91788784 35:0.90786926 36:0.90476962 37:0.81254603 
4 1:0.37673296 2:0.32560788 3:0.64836331 4:0.76844317 5:0.71920247 6:0.5569951 7:0.68602458 8:0.0939329 9:0.13859931 10:0.298127 11:0.45431885 12:0.35042755 13:0.27510745 14:0.15157046 15:0.31718744 16:0.60989637 17:0.37673294 18:0.1915901 19:0.2131497 20:0.37279682 21:0.41597678 22:0.40596281 23:0.32927914 24:0.30212563 25:0.28970155 26:0.28521867 27:0.3328785 28:0.10073253 29:0.15173867 30:0.17838001 31:0.22007945 32:0.11759492 33:0.24256873 34:0.3787101 35:0.4409165 36:0.51396896 37:0.27874825 
-4 1:0.82438561 2:0.81413922 3:0.64836331 4:0.76844317 5:0.71920247 6:0.5569951 7:0.68602458 8:0.41001198 9:0.61273076 10:0.69822387 11:0.63644786 12:0.66984839 13:0.65836578 14:0.75954479 15:0.84739917 16:0.87265072 17:0.82438558 18:0.39281982 19:0.37674847 20:0.37279682 21:0.41597678 22:0.73953628 23:0.32927914 24:0.30212563 25:0.28970155 26:0.28521867 27:0.3328785 28:0.20671627 29:0.32925366 30:0.35634143 31:0.37451545 32:0.24339237 33:0.46434382 34:0.75050119 35:0.80797608 36:0.8449697 37:0.5335781 
-4 1:0.82886932 2:0.83690648 3:0.64836331 4:0.76844317 5:0.71920247 6:0.5569951 7:0.68602458 8:0.49133276 9:0.6678661 10:0.69474689 11:0.61666169 12:0.67285058 13:0.75718214 14:0.83028676 15:0.84309531 16:0.84452472 17:0.82886932 18:0.36149064 19:0.351278 20:0.37279682 21:0.41597678 22:0.62439136 23:0.32927914 24:0.30212563 25:0.28970155 26:0.28521867 27:0.3328785 28:0.18460602 29:0.26963894 30:0.29009051 31:0.31030559 32:0.21168079 33:0.41743198 34:0.62509168 35:0.67090606 36:0.70700598 37:0.46872077 
4 1:0.3224715 2:0.28872007 3:0.64836331 4:0.76844317 5:0.71920247 6:0.5569951 7:0.68602458 8:0.081220721 9:0.16809926 10:0.30297801 11:0.36299992 12:0.31139894 13:0.25893614 14:0.18776239 15:0.32383978 16:0.48085282 17:0.32247151 18:0.11449997 19:0.15047581 20:0.37279682 21:0.41597678 22:0.31910038 23:0.32927914 24:0.30212563 25:0.28970155 26:0.28521867 27:0.3328785 28:0.092844515 29:0.12013783 30:0.12774256 31:0.14860934 32:0.10284075 33:0.22612438 34:0.31267361 35:0.33671843 36:0.36113949 37:0.2489362 
-4 1:0.68135564 2:0.67815437 3:0.64836331 4:0.76844317 5:0.71920247 6:0.5569951 7:0.68602458 8:0.36836852 9:0.52573629 10:0.58505402 11:0.53722978 12:0.56668392 13:0.60765528 14:0.64770051 15:0.69973273 16:0.73251666 17:0.68135562 18:0.23244188 19:0.246362 20:0.37279682 21:0.41597678 22:0.55860384 23:0.32927914 24:0.30212563 25:0.28970155 26:0.28521867 27:0.3328785 28:0.15545138 29:0.2358788 30:0.25818692 31:0.282843 32:0.18055674 33:0.35682626 34:0.55490423 35:0.60574308 36:0.64887971 37:0.40607178 
-4 1:0.76882438 2:0.7696505 3:0.64836331 4:0.76844317 5:0.71920247 6:0.5569951 7:0.68602458 8:0.42752639 9:0.60798512 10:0.64995967 11:0.58667828 12:0.62964817 13:0.67892039 14:0.75231081 15:0.78438921 16:0.80206579 17:0.76882442 18:0.29632689 19:0.29830019 20:0.37279682 21:0.41597678 22:0.54764093 23:0.32927914 24:0.30212563 25:0.28970155 26:0.28521867 27:0.3328785 28:0.15740188 29:0.23013318 30:0.25050417 31:0.27413688 32:0.18073069 33:0.36073655 34:0.54280295 35:0.58978561 36:0.63004233 37:0.40628972 
-4 1:0.79447248 2:0.77124963 3:0.64836331 4:0.76844317 5:0.71920247 6:0.5569951 7:0.68602458 8:0.32087478 9:0.55864271 10:0.69652977 11:0.62270574 12:0.64838859 13:0.55047236 14:0.69028542 15:0.84520431 16:0.85334232 17:0.79447249 18:0.19970317 19:0.21974559 20:0.37279682 21:0.41597678 22:0.54690764 23:0.32927914 24:0.30212563 25:0.28970155 26:0.28521867 27:0.3328785 28:0.14658861 29:0.2299355 30:0.25421007 31:0.28082458 32:0.17214976 33:0.33823123 34:0.54215939 35:0.59711606 36:0.64404641 37:0.38894074 
4 1:0.92512838 2:0.91513587 3:0.62775618 4:0.77793807 5:0.72626273 6:0.55551556 7:0.6882435 8:0.41785989 9:0.70622162 10:0.7959642 11:0.68736614 12:0.74342623 13:0.68787844 14:0.87130166 15:0.96894792 16:0.94791797 17:0.92512838 18:0.24149533 19:0.242718 20:0.38624806 21:0.43042508 22:0.81462472 23:0.30795938 24:0.27616952 25:0.25855937 26:0.24756404 27:0.30949833 28:0.21911977 29:0.35833123 30:0.37117946 31:0.37667018 32:0.25912691 33:0.50875932 34:0.84932474 35:0.88777293 36:0.91261114 37:0.58828783 
-4 1:0.1259721 2:0.098778237 3:0.62775618 4:0.77793807 5:0.72626273 6:0.55551556 7:0.6882435 8:0.016174152 9:0.04112756 10:0.12336503 11:0.25035235 12:0.17169783 13:0.19488123 14:0.022882899 15:0.084505147 16:0.31843939 17:0.12597212 18:0.044696984 19:0.082721908 20:0.38624806 21:0.43042508 22:0.21971879 23:0.30795938 24:0.27616952 25:0.25855937 26:0.24756404 27:0.30949833 28:0.062388714 29:0.071940428 30:0.0673888 31:0.076500263 32:0.06649235 33:0.16913108 34:0.2237375 35:0.22858469 36:0.22909131 37:0.18333272 
-4 1:0.82441124 2:0.82857936 3:0.62775618 4:0.77793807 5:0.72626273 6:0.55551556 7:0.6882435 8:0.46295773 9:0.65643733 10:0.69729635 11:0.61911082 12:0.67138433 13:0.74194007 14:0.80615028 15:0.83922707 16:0.84949303 17:0.82441128 18:0.36600551 19:0.34394416 20:0.38624806 21:0.43042508 22:0.7047153 23:0.30795938 24:0.27616952 25:0.25855937 26:0.24756404 27:0.30949833 28:0.19101042 29:0.29824965 30:0.31589895 31:0.32729813 32:0.22308649 33:0.44731688 34:0.71767721 35:0.76753156 36:0.79994776 37:0.51203632 
-4 1:0.81865417 2:0.82240884 3:0.62775618 4:0.77793807 5:0.72626273 6:0.55551556 7:0.6882435 8:0.45777229 9:0.65210836 10:0.69099981 11:0.61687847 12:0.66719437 13:0.73586221 14:0.80064093 15:0.83101812 16:0.84642228 17:0.81865419 18:0.3887315 19:0.36242028 20:0.38624806 21:0.43042508 22:0.65831659 23:0.30795938 24:0.27616952 25:0.25855937 26:0.24756404 27:0.30949833 28:0.17470022 29:0.27306596 30:0.29377939 31:0.3100037 32:0.20438651 33:0.4114131 34:0.6623103 35:0.71920444 36:0.76021251 37:0.47220177 
4 1:0.34745601 2:0.30683757 3:0.62775618 4:0.77793807 5:0.72626273 6:0.55551556 7:0.6882435 8:0.062438757 9:0.15901536 10:0.31917771 11:0.39523916 12:0.33000896 13:0.25153374 14:0.17265389 15:0.34212388 16:0.52941143 17:0.34745602 18:0.1142897 19:0.13930044 20:0.38624806 21:0.43042508 22:0.33488078 23:0.30795938 24:0.27616952 25:0.25855937 26:0.24756404 27:0.30949833 28:0.081284988 29:0.11772995 30:0.12931938 31:0.15324474 32:0.093160993 33:0.20968036 34:0.32326968 35:0.36260343 36:0.40374456 37:0.23891027 
4 1:0.72340658 2:0.70805432 3:0.62775618 4:0.77793807 5:0.72626273 6:0.55551556 7:0.6882435 8:0.33896202 9:0.52385378 10:0.61376895 11:0.58764474 12:0.59900303 13:0.59016263 14:0.63706431 15:0.72959246 16:0.80440743 17:0.72340655 18:0.27448919 19:0.26954184 20:0.38624806 21:0.43042508 22:0.63856273 23:0.30795938 24:0.27616952 25:0.25855937 26:0.24756404 27:0.30949833 28:0.1591725 29:0.25910881 30:0.28709369 31:0.31060792 32:0.18910129 33:0.37839864 34:0.63227289 35:0.70513115 36:0.76203164 37:0.44065748 
-4 1:0.8302373 2:0.8408363 3:0.62775618 4:0.77793807 5:0.72626273 6:0.55551556 7:0.6882435 8:0.49180845 9:0.6786907 10:0.70017373 11:0.61449922 12:0.67544508 13:0.77796769 14:0.83508948 15:0.84311185 16:0.8429844 17:0.83023728 18:0.35921343 19:0.33842223 20:0.38624806 21:0.43042508 22:0.61148827 23:0.30795938 24:0.27616952 25:0.25855937 26:0.24756404 27:0.30949833 28:0.17113716 29:0.25049531 30:0.26606378 31:0.28092958 32:0.19611995 33:0.40403727 34:0.61322044 35:0.6592079 36:0.69412678 37:0.45513555 
4 1:0.90500431 2:0.92632695 3:0.62775618 4:0.77793807 5:0.72626273 6:0.55551556 7:0.6882435 8:0.57921302 9:0.75881294 10:0.75619 11:0.64834571 12:0.72899021 13:0.88548036 14:0.93803623 15:0.91672069 16:0.89156062 17:0.90500427 18:0.52613791 19:0.47413101 20:0.38624806 21:0.43042508 22:0.82676076 23:0.30795938 24:0.27616952 25:0.25855937 26:0.24756404 27:0.30949833 28:0.26478196 29:0.35863465 30:0.36174949 31:0.36157276 32:0.29567289 33:0.6069847 34:0.84966838 35:0.86705764 36:0.87798652 37:0.66453826 
-4 1:0.81913388 2:0.82724315 3:0.62775618 4:0.77793807 5:0.72626273 6:0.55551556 7:0.6882435 8:0.47447107 9:0.66420583 10:0.6933842 11:0.60992835 12:0.66753824 13:0.75665847 14:0.81657 15:0.83402558 16:0.83632583 17:0.81913381 18:0.34580799 19:0.32752367 20:0.38624806 21:0.43042508 22:0.58090692 23:0.30795938 24:0.27616952 25:0.25855937 26:0.24756404 27:0.30949833 28:0.15762418 29:0.23544517 30:0.25226936 31:0.26919437 32:0.18184972 33:0.37510249 34:0.5805599 35:0.62939839 36:0.66745125 37:0.42545654 
4 1:0.90077975 2:0.92105917 3:0.62775618 4:0.77793807 5:0.72626273 6:0.55551556 7:0.6882435 8:0.5704856 9:0.75433349 10:0.75342946 11:0.64658339 12:0.72597228 13:0.87482114 14:0.93235487 15:0.91306681 16:0.88899398 17:0.90077976 18:0.51259593 19:0.46312146 20:0.38624806 21:0.43042508 22:0.80450665 23:0.30795938 24:0.27616952 25:0.25855937 26:0.24756404 27:0.30949833 28:0.25090988 29:0.3476519 30:0.35349582 31:0.35551704 32:0.28210759 33:0.57709402 34:0.82573815 35:0.84915885 36:0.86417977 37:0.63615386 
-4 1:0.943332 2:0.97736989 3:0.62775618 4:0.77793807 5:0.72626273 6:0.55551556 7:0.6882435 8:0.6722425 9:0.80704556 10:0.78100238 11:0.66036079 12:0.75639458 13:1 14:1 15:0.94942767 16:0.90886026 17:0.94333199 18:0.65022255 19:0.57501122 20:0.38624806 21:0.43042508 22:0.99999609 23:0.30795938 24:0.27616952 25:0.25855937 26:0.24756404 27:0.30949833 28:0.44608583 29:0.41969914 30:0.39840982 31:0.38499234 32:0.45512906 33:0.99999791 34:0.9834072 35:0.9468253 36:0.9314675 37:0.9999975 
3.9825172712233203 1:0.39846152 2:0.34432185 3:0.62775618 4:0.77793807 5:0.72626273 6:0.55551556 7:0.6882435 8:0.055913575 9:0.15193394 10:0.34177371 11:0.45768158 12:0.36660596 13:0.24358311 14:0.16362556 15:0.37144854 16:0.61762172 17:0.39846151 18:0.17424963 19:0.18804757 20:0.38624806 21:0.43042508 22:0.33423934 23:0.30795938 24:0.27616952 25:0.25855937 26:0.24756404 27:0.30949833 28:0.076902979 29:0.1143977 30:0.13028003 31:0.15816155 32:0.08912273 33:0.20056033 34:0.31651657 35:0.36514985 36:0.41519104 37:0.23088197 
-4 1:0.7773433 2:0.75816767 3:0.62775618 4:0.77793807 5:0.72626273 6:0.55551556 7:0.6882435 8:0.31893938 9:0.55990249 10:0.68817253 11:0.60677082 12:0.63790857 13:0.56603163 14:0.68413165 15:0.8269692 16:0.83130929 17:0.7773433 18:0.36435643 19:0.34260346 20:0.38624806 21:0.43042508 22:0.63698152 23:0.30795938 24:0.27616952 25:0.25855937 26:0.24756404 27:0.30949833 28:0.15272866 29:0.2664082 30:0.28829251 31:0.30613027 32:0.18513598 33:0.36468304 34:0.64804137 35:0.70746616 36:0.75156022 37:0.43246269 
-4 1:0.79870386 2:0.79260301 3:0.62775618 4:0.77793807 5:0.72626273 6:0.55551556 7:0.6882435 8:0.36816258 9:0.63152395 10:0.69191501 11:0.60421215 12:0.65283011 13:0.6262899 14:0.77474288 15:0.83238239 16:0.82837547 17:0.79870385 18:0.33973139 19:0.32258343 20:0.38624806 21:0.43042508 22:0.5790628 23:0.30795938 24:0.27616952 25:0.25855937 26:0.24756404 27:0.30949833 28:0.14891527 29:0.23682739 30:0.25421702 31:0.27156346 32:0.17512911 33:0.35600746 34:0.58343245 35:0.63364107 36:0.67297681 37:0.41109647 
4 1:0.89662594 2:0.91604651 3:0.62775618 4:0.77793807 5:0.72626273 6:0.55551556 7:0.6882435 8:0.56444118 9:0.74935873 10:0.75007072 11:0.64512304 12:0.72296882 13:0.86736584 14:0.92593816 15:0.90871402 16:0.88695553 17:0.89662593 18:0.5100607 19:0.46106033 20:0.38624806 21:0.43042508 22:0.81399624 23:0.30795938 24:0.27616952 25:0.25855937 26:0.24756404 27:0.30949833 28:0.25611606 29:0.35212731 30:0.357146 31:0.35867742 32:0.28729246 33:0.58829488 34:0.83563577 35:0.85724428 36:0.87155239 37:0.64702683 
-4 1:0.83220423 2:0.8415155 3:0.62775618 4:0.77793807 5:0.72626273 6:0.55551556 7:0.6882435 8:0.48392459 9:0.67842531 10:0.7033467 11:0.61631417 12:0.67690317 13:0.76838003 14:0.83497116 15:0.84714754 16:0.84542225 17:0.83220421 18:0.36460775 19:0.34280779 20:0.38624806 21:0.43042508 22:0.60458125 23:0.30795938 24:0.27616952 25:0.25855937 26:0.24756404 27:0.30949833 28:0.16638317 29:0.24698824 30:0.2634479 31:0.27919902 32:0.19152809 33:0.39413384 34:0.60586866 35:0.65374948 36:0.69032696 37:0.44586713 
4 1:0.89941999 2:0.91940798 3:0.62775618 4:0.77793807 5:0.72626273 6:0.55551556 7:0.6882435 8:0.56967181 9:0.75175526 10:0.75213968 11:0.64644563 12:0.7249954 13:0.87385199 14:0.92909557 15:0.91138105 16:0.88877933 17:0.89942001 18:0.5160208 19:0.46590586 20:0.38624806 21:0.43042508 22:0.82079331 23:0.30795938 24:0.27616952 25:0.25855937 26:0.24756404 27:0.30949833 28:0.25949789 29:0.35521323 30:0.36004924 31:0.36118265 32:0.29071853 33:0.59584538 34:0.84239837 35:0.86350059 36:0.87719012 37:0.65440226 
-4 1:0.31742091 2:0.28813369 3:0.44664068 4:0.56841338 5:0.56557939 6:0.46522886 7:0.54215542 8:0.07270049 9:0.087587356 10:0.1796092 11:0.34200166 12:0.24633372 13:0.41165886 14:0.17436646 15:0.22485215 16:0.51316263 17:0.31742087 18:0.1581207 19:0.1659404 20:0.47349524 21:0.47311892 22:0.17034791 23:0.70654617 24:0.56929229 25:0.49376509 26:0.44080053 27:0.69345732 28:0.021998517 29:0.073253795 30:0.1121403 31:0.17018492 32:0.036831146 33:0.036884319 34:0.1284968 35:0.20346423 36:0.29675997 37:0.058965441 
4 1:0.75946153 2:0.72826062 3:0.44664068 4:0.56841338 5:0.56557939 6:0.46522886 7:0.54215542 8:0.18985514 9:0.36096235 10:0.5350568 11:0.55620498 12:0.52165224 13:0.56831514 14:0.59446237 15:0.78037701 16:0.85647997 17:0.75946147 18:0.31650674 19:0.29470747 20:0.47349524 21:0.47311892 22:0.61716891 23:0.70654617 24:0.56929229 25:0.49376509 26:0.44080053 27:0.69345732 28:0.15953612 29:0.40955312 30:0.46199108 31:0.47021262 32:0.22444497 33:0.21518637 34:0.62312297 35:0.74870982 36:0.81405728 37:0.30168387 
-4 1:0.84200671 2:0.83867876 3:0.44664068 4:0.56841338 5:0.56557939 6:0.46522886 7:0.54215542 8:0.29997134 9:0.49215619 10:0.59019718 11:0.56616824 12:0.57313297 13:0.71553671 14:0.79570224 15:0.86629514 16:0.87242295 17:0.84200669 18:0.40888295 19:0.36980887 20:0.47349524 21:0.47311892 22:0.69446542 23:0.70654617 24:0.56929229 25:0.49376509 26:0.44080053 27:0.69345732 28:0.24135064 29:0.48248665 30:0.49781202 31:0.48653846 32:0.30511244 33:0.32122347 34:0.73004442 35:0.80421326 36:0.84197537 37:0.40600187 
-4 1:0.86695553 2:0.87642473 3:0.49554362 4:0.5600583 5:0.55464368 6:0.46606546 7:0.54016823 8:0.40695992 9:0.52741538 10:0.59066332 11:0.56990238 12:0.58701427 13:0.80557423 14:0.86005474 15:0.88102708 16:0.87745874 17:0.86695548 18:0.45705597 19:0.42684457 20:0.40729907 21:0.40706305 22:0.75508871 23:0.66883787 24:0.54081002 25:0.47474064 26:0.43073455 27:0.65722719 28:0.30719206 29:0.50682843 30:0.50915732 31:0.49427072 32:0.36330327 33:0.42377279 34:0.79360314 35:0.84376748 36:0.86841139 37:0.50096134 
-4 1:0.46244801 2:0.42392715 3:0.49554362 4:0.5600583 5:0.55464368 6:0.46606546 7:0.54016823 8:0.11867121 9:0.15006732 10:0.30173839 11:0.41620057 12:0.33615566 13:0.42897887 14:0.27550685 15:0.42301859 16:0.62971894 17:0.462448 18:0.18814462 19:0.20822096 20:0.40729907 21:0.40706305 22:0.24852131 23:0.66883787 24:0.54081002 25:0.47474064 26:0.43073455 27:0.65722719 28:0.059126783 29:0.12659394 30:0.16438405 31:0.20897701 32:0.07878336 33:0.089528292 34:0.21575499 35:0.29337934 36:0.36946007 37:0.11897535 
-4 1:0.49225919 2:0.45518213 3:0.49554362 4:0.5600583 5:0.55464368 6:0.46606546 7:0.54016823 8:0.12824209 9:0.17092739 10:0.33201566 11:0.42580885 12:0.35491571 13:0.44145373 14:0.30770423 15:0.47052415 16:0.64451285 17:0.4922592 18:0.15865541 19:0.18424638 20:0.40729907 21:0.40706305 22:0.21811862 23:0.66883787 24:0.54081002 25:0.47474064 26:0.43073455 27:0.65722719 28:0.055372726 29:0.11350923 30:0.14212689 31:0.17556085 32:0.07218301 33:0.084468689 34:0.19585618 35:0.25781524 36:0.31097371 37:0.11011113 
4 1:0.70519561 2:0.68152995 3:0.49554362 4:0.5600583 5:0.55464368 6:0.46606546 7:0.54016823 8:0.23777867 9:0.34108927 10:0.48328953 11:0.52061828 12:0.48636183 13:0.58462676 14:0.57188174 15:0.71136031 16:0.79841628 17:0.70519561 18:0.2715725 19:0.27604742 20:0.40729907 21:0.40706305 22:0.44397878 23:0.66883787 24:0.54081002 25:0.47474064 26:0.43073455 27:0.65722719 28:0.11538171 29:0.25449232 30:0.31087101 31:0.355271 32:0.15424846 33:0.16528058 34:0.41014828 35:0.52735757 36:0.62550943 37:0.22023955 
3.9342012701496434 1:0.86691071 2:0.87576593 3:0.49554362 4:0.5600583 5:0.55464368 6:0.46606546 7:0.54016823 8:0.40707109 9:0.52479443 10:0.59007425 11:0.57110061 12:0.58696855 13:0.80572363 14:0.85602393 15:0.8801451 16:0.87939061 17:0.86691071 18:0.46099996 19:0.43005101 20:0.40729907 21:0.40706305 22:0.77289347 23:0.66883787 24:0.54081002 25:0.47474064 26:0.43073455 27:0.65722719 28:0.32962935 29:0.5188824 30:0.51616406 31:0.49918999 32:0.38393922 33:0.45398989 34:0.81185158 35:0.85491165 36:0.8769918 37:0.52863613 
4 1:0.67109183 2:0.63513929 3:0.49554362 4:0.5600583 5:0.55464368 6:0.46606546 7:0.54016823 8:0.18819507 9:0.28477144 10:0.46513546 11:0.51627002 12:0.46591061 13:0.51974161 14:0.48387211 15:0.68120849 16:0.79028121 17:0.67109183 18:0.19847835 19:0.21662223 20:0.40729907 21:0.40706305 22:0.36455162 23:0.66883787 24:0.54081002 25:0.47474064 26:0.43073455 27:0.65722719 28:0.086477345 29:0.19828947 30:0.25233953 31:0.30372976 32:0.11807365 33:0.12640003 34:0.32467462 35:0.43376956 36:0.53518611 37:0.17173735 
-4 1:0.85070276 2:0.83440515 3:0.49554362 4:0.5600583 5:0.55464368 6:0.46606546 7:0.54016823 8:0.29625809 9:0.45707764 10:0.59329876 11:0.58535678 12:0.57739267 13:0.66087237 14:0.75060912 15:0.88464998 16:0.90129964 17:0.85070274 18:0.26522385 19:0.270886 20:0.40729907 21:0.40706305 22:0.72789888 23:0.66883787 24:0.54081002 25:0.47474064 26:0.43073455 27:0.65722719 28:0.23067936 29:0.48885938 30:0.51162227 31:0.50881639 32:0.29837372 33:0.32074214 34:0.76609292 35:0.8475252 36:0.89372036 37:0.4137893 
-4 1:0.11787671 2:0.11006033 3:0.44762157 4:0.5692759 5:0.56739901 6:0.46723811 7:0.54394241 8:0.015201126 9:0.028350598 10:0.082803642 11:0.18215672 12:0.12256354 13:0.33391183 14:0.083012929 15:0.073574748 16:0.25517551 17:0.11787671 18:0.042818244 19:0.072199886 20:0.47348451 21:0.47310956 22:0.036322897 23:0.70653117 24:0.56986258 25:0.49547621 26:0.44513307 27:0.69366167 28:0.0049131247 29:0.0095468319 30:0.011039721 31:0.02624764 32:0.0061695848 33:0.014753786 34:0.034561936 35:0.045165746 36:0.046739033 37:0.019295263 
-4 1:0.77255873 2:0.75711129 3:0.44762157 4:0.5692759 5:0.56739901 6:0.46723811 7:0.54394241 8:0.23791968 9:0.41312921 10:0.54943134 11:0.5419033 12:0.53088464 13:0.63164922 14:0.67392721 15:0.80102169 16:0.8314229 17:0.77255871 18:0.31733827 19:0.29538332 20:0.47348451 21:0.47310956 22:0.6007696 23:0.70653117 24:0.56986258 25:0.49547621 26:0.44513307 27:0.69366167 28:0.1836199 29:0.40775095 30:0.43836358 31:0.44114485 32:0.24237226 33:0.24640315 34:0.61990387 35:0.71010598 36:0.75886926 37:0.32478639 
-4 1:0.72386007 2:0.70367355 3:0.44762157 4:0.5692759 5:0.56739901 6:0.46723811 7:0.54394241 8:0.22084709 9:0.36641088 10:0.50597393 11:0.52876039 12:0.50122257 13:0.60867386 14:0.60146034 15:0.73171697 16:0.80926161 17:0.72386004 18:0.27905258 19:0.26425724 20:0.47348451 21:0.47310956 22:0.46261599 23:0.70653117 24:0.56986258 25:0.49547621 26:0.44513307 27:0.69366167 28:0.11753044 29:0.28405937 30:0.34118165 31:0.37502723 32:0.16258472 33:0.16085001 34:0.4375549 35:0.55802577 36:0.64446549 37:0.22166759 
4 1:0.54165427 2:0.50615498 3:0.44664068 4:0.56841338 5:0.56557939 6:0.46522886 7:0.54215542 8:0.10185678 9:0.21083149 10:0.37727938 11:0.44664073 12:0.38541313 13:0.45065705 14:0.36409389 15:0.53523714 16:0.68191038 17:0.54165427 18:0.16671816 19:0.17293008 20:0.47349524 21:0.47311892 22:0.31369489 23:0.70654617 24:0.56929229 25:0.49376509 26:0.44080053 27:0.69345732 28:0.065287301 29:0.1785518 30:0.22726005 31:0.26647128 32:0.096015855 33:0.09299948 34:0.28345488 35:0.38303098 36:0.46291357 37:0.13553912 
-4 1:0.72095685 2:0.69957376 3:0.44664068 4:0.56841338 5:0.56557939 6:0.46522886 7:0.54215542 8:0.2089921 9:0.36188284 10:0.5048185 11:0.52433974 12:0.49724259 13:0.59398442 14:0.59649723 15:0.73413673 16:0.80566918 17:0.72095684 18:0.26272724 19:0.25098499 20:0.47349524 21:0.47311892 22:0.53015436 23:0.70654617 24:0.56929229 25:0.49376509 26:0.44080053 27:0.69345732 28:0.14405738 29:0.33871196 30:0.38749333 31:0.41327411 32:0.19590715 33:0.19511996 34:0.51901513 35:0.63272545 36:0.71596659 37:0.26478062 
4 1:0.74073598 2:0.72308891 3:0.44664068 4:0.56841338 5:0.56557939 6:0.46522886 7:0.54215542 8:0.22584729 9:0.38614075 10:0.51933984 11:0.53036491 12:0.51004898 13:0.6164418 14:0.63311773 15:0.75562985 16:0.81468194 17:0.74073602 18:0.28134261 19:0.2661192 20:0.47349524 21:0.47311892 22:0.44709136 23:0.70654617 24:0.56929229 25:0.49376509 26:0.44080053 27:0.69345732 28:0.11744374 29:0.27185304 30:0.32511418 31:0.36053684 32:0.15957542 33:0.1606293 34:0.42026438 35:0.53494837 36:0.62454536 37:0.21774915 
4 1:0.86874671 2:0.87772571 3:0.44664068 4:0.56841338 5:0.56557939 6:0.46522886 7:0.54215542 8:0.36513716 9:0.53423321 10:0.60148927 11:0.57052059 12:0.58974955 13:0.80263335 14:0.86039944 15:0.88402611 16:0.87938035 17:0.86874673 18:0.44667779 19:0.40053589 20:0.47349524 21:0.47311892 22:0.74765 23:0.70654617 24:0.56929229 25:0.49376509 26:0.44080053 27:0.69345732 28:0.31409621 29:0.51991793 30:0.51862142 31:0.49894903 32:0.37161455 33:0.41553154 34:0.78522053 35:0.83672729 36:0.86343184 37:0.4920866 
4 1:0.69256447 2:0.66665465 3:0.44664068 4:0.56841338 5:0.56557939 6:0.46522886 7:0.54215542 8:0.18080442 9:0.33455568 10:0.48764709 11:0.51388684 12:0.48024069 13:0.55619567 14:0.55382229 15:0.70568473 16:0.78781179 17:0.69256446 18:0.25687637 19:0.24622827 20:0.47349524 21:0.47311892 22:0.37639288 23:0.70654617 24:0.56929229 25:0.49376509 26:0.44080053 27:0.69345732 28:0.089036155 29:0.21838929 30:0.27257969 31:0.31605256 32:0.12460445 33:0.12382466 34:0.3416097 35:0.45299762 36:0.54773557 37:0.17252766 
-4 1:0.943332 2:0.97736989 3:0.44664068 4:0.56841338 5:0.56557939 6:0.46522886 7:0.54215542 8:0.51277186 9:0.624985 10:0.6431892 11:0.58874694 12:0.63601969 13:1 14:1 15:0.94942767 16:0.90886026 17:0.94333199 18:0.63477088 19:0.55345465 20:0.47349524 21:0.47311892 22:0.99999843 23:0.70654617 24:0.56929229 25:0.49376509 26:0.44080053 27:0.69345732 28:0.76511766 29:0.65469818 30:0.58925112 31:0.53838265 32:0.76426178 33:0.99999957 34:0.98340961 35:0.94682768 36:0.93147012 37:0.99999929 
4 1:0.32210314 2:0.28637535 3:0.44664068 4:0.56841338 5:0.56557939 6:0.46522886 7:0.54215542 8:0.028263989 9:0.078080001 10:0.20818934 11:0.33834568 12:0.24985099 13:0.35218622 14:0.15946207 15:0.26876831 16:0.50539616 17:0.32210315 18:0.14793658 19:0.15766076 20:0.47349524 21:0.47311892 22:0.12327087 23:0.70654617 24:0.56929229 25:0.49376509 26:0.44080053 27:0.69345732 28:0.020718025 29:0.053023841 30:0.075750792 31:0.11517092 32:0.030178024 33:0.03524515 34:0.098496153 35:0.1462072 36:0.20105746 37:0.05036377 
-4 1:0.68633837 2:0.651538 3:0.44664068 4:0.56841338 5:0.56557939 6:0.46522886 7:0.54215542 8:0.13698328 9:0.30155173 10:0.50904092 11:0.50798041 12:0.47630322 13:0.4975577 14:0.50278553 15:0.73926111 16:0.77901596 17:0.68633834 18:0.27833752 19:0.26367608 20:0.47349524 21:0.47311892 22:0.46490428 23:0.70654617 24:0.56929229 25:0.49376509 26:0.44080053 27:0.69345732 28:0.10684255 29:0.29032175 30:0.34494671 31:0.37498286 32:0.15515181 33:0.14690126 34:0.4475051 35:0.56608669 36:0.64975125 37:0.21204676 
4 1:0.64828402 2:0.6093442 3:0.44664068 4:0.56841338 5:0.56557939 6:0.46522886 7:0.54215542 8:0.11890349 9:0.27144061 10:0.46305928 11:0.50235964 12:0.45230557 13:0.47342326 14:0.45720245 15:0.66828903 16:0.76988219 17:0.64828401 18:0.24699485 19:0.23819464 20:0.47349524 21:0.47311892 22:0.38408892 23:0.70654617 24:0.56929229 25:0.49376509 26:0.44080053 27:0.69345732 28:0.087595132 29:0.22345985 30:0.27926807 31:0.32372407 32:0.12467442 33:0.1219164 34:0.34932506 35:0.46378321 36:0.56130929 37:0.17260095 
-0.057894091211009982 1:0.85792645 2:0.86406594 3:0.44664068 4:0.56841338 5:0.56557939 6:0.46522886 7:0.54215542 8:0.34780053 9:0.52239434 10:0.59472709 11:0.5671867 12:0.58291391 13:0.77949172 14:0.84238426 15:0.87358796 16:0.87414926 17:0.85792643 18:0.43566108 19:0.39157936 20:0.47349524 21:0.47311892 22:0.74303542 23:0.70654617 24:0.56929229 25:0.49376509 26:0.44080053 27:0.69345732 28:0.30977636 29:0.51595547 30:0.51590649 31:0.49769298 32:0.36729723 33:0.40990241 34:0.77943222 35:0.83254404 36:0.86130727 37:0.48648585 
4 1:0.70494457 2:0.6800773 3:0.44664068 4:0.56841338 5:0.56557939 6:0.46522886 7:0.54215542 8:0.18883687 9:0.34507631 10:0.49589808 11:0.51949271 12:0.48794904 13:0.56692196 14:0.56987045 15:0.71854815 16:0.79697182 17:0.70494458 18:0.26691123 19:0.25438656 20:0.47349524 21:0.47311892 22:0.39590487 23:0.70654617 24:0.56929229 25:0.49376509 26:0.44080053 27:0.69345732 28:0.095519456 29:0.23243439 30:0.28768831 31:0.32948687 32:0.13307032 33:0.13223276 34:0.36225203 35:0.47654703 36:0.57092441 37:0.18347944 
4 1:0.85235853 2:0.85658063 3:0.44664068 4:0.56841338 5:0.56557939 6:0.46522886 7:0.54215542 8:0.3388524 9:0.51394979 10:0.59177674 11:0.5661231 12:0.57948697 13:0.7675111 14:0.82932876 15:0.86894211 16:0.87241988 17:0.85235855 18:0.42664374 19:0.38424831 20:0.47349524 21:0.47311892 22:0.72575667 23:0.70654617 24:0.56929229 25:0.49376509 26:0.44080053 27:0.69345732 28:0.28869772 29:0.50254792 30:0.50847823 31:0.49334993 32:0.34751836 33:0.38259683 34:0.75966927 35:0.82092901 36:0.85378992 37:0.46089436 
-4 1:0.47447582 2:0.43011327 3:0.3825364 4:0.41006301 5:0.33934958 6:0.30349409 7:0.3558901 8:0.057611933 9:0.077835875 10:0.19343431 11:0.32866963 12:0.24180854 13:0.45540029 14:0.2704929 15:0.41479726 16:0.646852 17:0.47447578 18:0.33347233 19:0.30993402 20:0.037423919 21:0.02715798 22:0.51097638 23:0.26329964 24:0.27929877 25:0.2978576 26:0.33670265 27:0.27661806 28:0.08790217 29:0.19562486 30:0.2506014 31:0.30735861 32:0.11873562 33:0.25756475 34:0.49904288 35:0.58667093 36:0.64162681 37:0.32333366 
4 1:0.84442423 2:0.84046241 3:0.3825364 4:0.41006301 5:0.33934958 6:0.30349409 7:0.3558901 8:0.25524665 9:0.36313096 10:0.41088777 11:0.44889885 12:0.43201546 13:0.72503957 14:0.77762305 15:0.86844423 16:0.88504037 17:0.84442419 18:0.54327165 19:0.48245384 20:0.037423919 21:0.02715798 22:0.83887901 23:0.26329964 24:0.27929877 25:0.2978576 26:0.33670265 27:0.27661806 28:0.240466 29:0.3669351 30:0.39866051 31:0.4355313 32:0.27972096 33:0.60857863 34:0.86511101 35:0.88330212 36:0.8918497 37:0.67457846 
4 1:0.89561763 2:0.91274427 3:0.3825364 4:0.41006301 5:0.33934958 6:0.30349409 7:0.3558901 8:0.35500277 9:0.43974346 10:0.43057564 11:0.45297326 12:0.45905416 13:0.86088551 14:0.91230595 15:0.90759941 16:0.89179501 17:0.89561764 18:0.60389961 19:0.52979007 20:0.037423919 21:0.02715798 22:0.83505228 23:0.26329964 24:0.27929877 25:0.2978576 26:0.33670265 27:0.27661806 28:0.24899955 29:0.36374348 30:0.39202764 31:0.42917063 32:0.28574722 33:0.62737637 34:0.85757722 35:0.86941197 36:0.87882773 37:0.68692368 
4 1:0.80287675 2:0.80318444 3:0.3825364 4:0.41006301 5:0.33934958 6:0.30349409 7:0.3558901 8:0.26072018 9:0.35750535 10:0.38239587 11:0.42643177 12:0.41093923 13:0.73266972 14:0.7675902 15:0.80864716 16:0.83925278 17:0.80287674 18:0.41982961 19:0.38204843 20:0.037423919 21:0.02715798 22:0.59198474 23:0.26329964 24:0.27929877 25:0.2978576 26:0.33670265 27:0.27661806 28:0.16057455 29:0.23736211 30:0.26876199 31:0.31297405 32:0.18573822 33:0.42533054 34:0.58951628 35:0.62456945 36:0.65413496 37:0.47026039 
-4 1:0.90224321 2:0.92431421 3:0.3825364 4:0.41006301 5:0.33934958 6:0.30349409 7:0.3558901 8:0.3840095 9:0.45029931 10:0.4308381 11:0.45212722 12:0.46211759 13:0.90069667 14:0.93237925 15:0.90929879 16:0.8904069 17:0.90224323 18:0.59715367 19:0.52430566 20:0.037423919 21:0.02715798 22:0.8382533 23:0.26329964 24:0.27929877 25:0.2978576 26:0.33670265 27:0.27661806 28:0.25049121 29:0.36297176 30:0.39333211 31:0.4320253 32:0.28690967 33:0.63155612 34:0.85660922 35:0.87256016 36:0.8849019 37:0.69018372 
1.0301156364637309 1:0.26683434 2:0.23701956 3:0.3825364 4:0.41006301 5:0.33934958 6:0.30349409 7:0.3558901 8:0.0090575399 9:0.031166996 10:0.09013096 11:0.20689176 12:0.13729556 13:0.38883375 14:0.18605845 15:0.19729796 16:0.39651254 17:0.26683435 18:0.2234058 19:0.22235684 20:0.037423919 21:0.02715798 22:0.33902037 23:0.26329964 24:0.27929877 25:0.2978576 26:0.33670265 27:0.27661806 28:0.097074827 29:0.12713864 30:0.1344463 31:0.15341252 32:0.10781587 33:0.27563529 34:0.34922092 35:0.35026321 36:0.336329 37:0.29629826 
-4 1:0.82586019 2:0.834793 3:0.3825364 4:0.41006301 5:0.33934958 6:0.30349409 7:0.3558901 8:0.31636953 9:0.39261016 10:0.39802998 11:0.43019721 12:0.42697705 13:0.80703661 14:0.82360096 15:0.83047284 16:0.83379345 17:0.8258602 18:0.45212514 19:0.40830454 20:0.037423919 21:0.02715798 22:0.70831054 23:0.26329964 24:0.27929877 25:0.2978576 26:0.33670265 27:0.27661806 28:0.19861733 29:0.29943739 30:0.33505102 31:0.37981793 32:0.2308331 33:0.50736947 34:0.71427343 35:0.74843555 36:0.77391912 37:0.56249723 
-4 1:0.80867005 2:0.81005354 3:0.3825364 4:0.41006301 5:0.33934958 6:0.30349409 7:0.3558901 8:0.27585529 9:0.36046355 10:0.38701176 11:0.42885326 12:0.41498063 13:0.75266739 14:0.77108148 15:0.81594362 16:0.84068452 17:0.80867004 18:0.44422209 19:0.40019718 20:0.037423919 21:0.02715798 22:0.65708677 23:0.26329964 24:0.27929877 25:0.2978576 26:0.33670265 27:0.27661806 28:0.17958298 29:0.26876318 30:0.3050293 31:0.35311049 32:0.20854121 33:0.46755031 34:0.65439503 35:0.69465722 36:0.72939743 37:0.51829577 
-4 1:0.89784032 2:0.91848291 3:0.3825364 4:0.41006301 5:0.33934958 6:0.30349409 7:0.3558901 8:0.37879876 9:0.44369156 10:0.42896028 11:0.45157788 12:0.45981471 13:0.89349498 14:0.92050634 15:0.9054167 16:0.88967133 17:0.89784034 18:0.62400278 19:0.54804884 20:0.037423919 21:0.02715798 22:0.87879172 23:0.26329964 24:0.27929877 25:0.2978576 26:0.33670265 27:0.27661806 28:0.2725004 29:0.38624705 30:0.41055656 31:0.44415954 32:0.30964341 33:0.68130771 34:0.9054992 35:0.90648237 36:0.90819495 37:0.73892552 
-4 1:0.85393537 2:0.84341292 3:0.3825364 4:0.41006301 5:0.33934958 6:0.30349409 7:0.3558901 8:0.22622195 9:0.35954553 10:0.41971459 11:0.45909556 12:0.43773153 13:0.68530113 14:0.7707475 15:0.88470432 16:0.90075256 17:0.85393538 18:0.21410691 19:0.21479688 20:0.037423919 21:0.02715798 22:0.83486516 23:0.26329964 24:0.27929877 25:0.2978576 26:0.33670265 27:0.27661806 28:0.22725223 29:0.35702327 30:0.40206918 31:0.45201812 32:0.26760667 33:0.578023 34:0.84378544 35:0.8898217 36:0.92350541 37:0.6479833 
4 1:0.92286442 2:0.91541722 3:0.3825364 4:0.41006301 5:0.33934958 6:0.30349409 7:0.3558901 8:0.26286673 9:0.40079907 10:0.45220196 11:0.49097034 12:0.47315531 13:0.73554559 14:0.84443316 15:0.95230899 16:0.96359837 17:0.92286444 18:0.22121924 19:0.22057917 20:0.037423919 21:0.02715798 22:0.9561167 23:0.26329964 24:0.27929877 25:0.2978576 26:0.33670265 27:0.27661806 28:0.28164557 29:0.43069595 30:0.45745131 31:0.49141085 32:0.32722 33:0.70214984 34:1 35:1 36:1 37:0.77701686 
4 1:0.26818244 2:0.24182802 3:0.3825364 4:0.41006301 5:0.33934958 6:0.30349409 7:0.3558901 8:0.012340626 9:0.035227016 10:0.10167421 11:0.19766105 12:0.13741115 13:0.39326471 14:0.19324872 15:0.22149679 16:0.38087602 17:0.26818242 18:0.064061017 19:0.090903949 20:0.037423919 21:0.02715798 22:0.21395606 23:0.26329964 24:0.27929877 25:0.2978576 26:0.33670265 27:0.27661806 28:0.057828962 29:0.069369346 30:0.066737871 31:0.077069447 32:0.06232699 33:0.18755615 34:0.22892284 35:0.21836501 36:0.19181612 37:0.1995315 
-4 1:0.81273129 2:0.80659932 3:0.44493653 4:0.41949313 5:0.36710522 6:0.34239902 7:0.38916307 8:0.29898032 9:0.35122157 10:0.41767625 11:0.46423478 12:0.44214945 13:0.71811237 14:0.74153757 15:0.83259571 16:0.85309466 17:0.8127313 18:0.42195684 19:0.40517837 20:0.031737213 21:0.022025469 22:0.77903317 23:0.2653577 24:0.28187903 25:0.3021663 26:0.34162341 27:0.27895653 28:0.22487681 29:0.33530256 30:0.37078903 31:0.41162809 32:0.26017927 33:0.5686642 34:0.79207316 35:0.81975978 36:0.83675198 37:0.6274741 
-4 1:0.90206653 2:0.92293748 3:0.44493653 4:0.41949313 5:0.36710522 6:0.34239902 7:0.38916307 8:0.43749084 9:0.45345869 10:0.45438824 11:0.48354525 12:0.48878408 13:0.90169569 14:0.92357705 15:0.90985068 16:0.89228785 17:0.9020665 18:0.61853509 19:0.56479106 20:0.031737213 21:0.022025469 22:0.87427429 23:0.2653577 24:0.28187903 25:0.3021663 26:0.34162341 27:0.27895653 28:0.27423435 29:0.38495218 30:0.41132481 31:0.44563568 32:0.31087471 33:0.68174196 34:0.89805456 35:0.90088045 36:0.90321157 37:0.73768842 
-4 1:0.48502058 2:0.44303903 3:0.3825364 4:0.41006301 5:0.33934958 6:0.30349409 7:0.3558901 8:0.039807109 9:0.10494385 10:0.21541156 11:0.32644217 12:0.25158828 13:0.43062941 14:0.31532622 15:0.45199724 16:0.62620038 17:0.48502058 18:0.22186248 19:0.21997705 20:0.037423919 21:0.02715798 22:0.53471377 23:0.26329964 24:0.27929877 25:0.2978576 26:0.33670265 27:0.27661806 28:0.1464828 29:0.21265769 30:0.24155936 31:0.28272487 32:0.16856847 33:0.3889859 34:0.53111562 35:0.56375042 36:0.58758484 37:0.42839574 
-0.60834030273828998 1:0.76215322 2:0.74643135 3:0.3825364 4:0.41006301 5:0.33934958 6:0.30349409 7:0.3558901 8:0.20386051 9:0.29571457 10:0.37015477 11:0.42459119 12:0.39232798 13:0.65381337 14:0.65218103 15:0.77654357 16:0.83061906 17:0.76215321 18:0.35489162 19:0.32925416 20:0.037423919 21:0.02715798 22:0.76953316 23:0.26329964 24:0.27929877 25:0.2978576 26:0.33670265 27:0.27661806 28:0.21470603 29:0.32881788 30:0.36544295 31:0.4085888 32:0.25054901 33:0.54733575 34:0.78131619 35:0.81486197 36:0.83765833 37:0.60888544 
4 1:0.86114994 2:0.87403037 3:0.3825364 4:0.41006301 5:0.33934958 6:0.30349409 7:0.3558901 8:0.33369373 9:0.41117555 10:0.4107762 11:0.44193189 12:0.44106416 13:0.83208838 14:0.86258533 15:0.86731431 16:0.86991045 17:0.86114994 18:0.50177123 19:0.4467602 20:0.037423919 21:0.02715798 22:0.71008264 23:0.26329964 24:0.27929877 25:0.2978576 26:0.33670265 27:0.27661806 28:0.19814162 29:0.29506488 30:0.33073792 31:0.37710125 32:0.22948144 33:0.51181523 34:0.71244928 35:0.74809102 36:0.77851245 37:0.56564206 
-0.32963580846475254 1:0.90839849 2:0.93182736 3:0.3825364 4:0.41006301 5:0.33934958 6:0.30349409 7:0.3558901 8:0.39309193 9:0.45487546 10:0.43413079 11:0.45375557 12:0.4652801 13:0.91307656 14:0.94039824 15:0.91608674 16:0.89391714 17:0.90839846 18:0.63583696 19:0.55575498 20:0.037423919 21:0.02715798 22:0.87657018 23:0.26329964 24:0.27929877 25:0.2978576 26:0.33670265 27:0.27661806 28:0.27272117 29:0.38434152 30:0.40892388 31:0.44285289 32:0.30941074 33:0.6820984 34:0.90167937 35:0.90334702 36:0.9056903 37:0.73868424 
4 1:0.85387028 2:0.86601517 3:0.3825364 4:0.41006301 5:0.33934958 6:0.30349409 7:0.3558901 8:0.32523427 9:0.40716207 10:0.40822705 11:0.43835329 12:0.43731549 13:0.82064003 14:0.85562776 15:0.86194424 16:0.86253396 17:0.85387026 18:0.48189963 19:0.43060469 20:0.037423919 21:0.02715798 22:0.68102199 23:0.26329964 24:0.27929877 25:0.2978576 26:0.33670265 27:0.27661806 28:0.18842474 29:0.28062809 30:0.3155724 31:0.36179199 32:0.21830147 33:0.48955338 34:0.68184534 35:0.71802419 36:0.74897059 37:0.54138267 
-4 1:0.90465411 2:0.92724532 3:0.3825364 4:0.41006301 5:0.33934958 6:0.30349409 7:0.3558901 8:0.38680942 9:0.45194892 10:0.43190341 11:0.45269896 12:0.46318426 13:0.90456761 14:0.93562561 15:0.91192673 16:0.89211367 17:0.90465414 18:0.63289723 19:0.553365 20:0.037423919 21:0.02715798 22:0.87378724 23:0.26329964 24:0.27929877 25:0.2978576 26:0.33670265 27:0.27661806 28:0.27030336 29:0.38355185 30:0.40804987 31:0.44188196 32:0.3072653 33:0.67662384 34:0.90003253 35:0.90164854 36:0.90385554 37:0.73408072 
-4 1:0.943332 2:0.97736989 3:0.3825364 4:0.41006301 5:0.33934958 6:0.30349409 7:0.3558901 8:0.45632859 9:0.48739092 10:0.44915885 11:0.46046173 12:0.48253922 13:1 14:1 15:0.94942767 16:0.90886026 17:0.94333199 18:0.77999364 19:0.68278375 20:0.037423919 21:0.02715798 22:0.99999672 23:0.26329964 24:0.27929877 25:0.2978576 26:0.33670265 27:0.27661806 28:0.41034009 29:0.422208 30:0.43029578 31:0.45575065 32:0.42865677 33:0.99999793 34:0.98340721 35:0.94682583 36:0.93146943 37:0.9999974 
4 1:0.49928958 2:0.44555872 3:0.3825364 4:0.41006301 5:0.33934958 6:0.30349409 7:0.3558901 8:0.025291136 9:0.078836239 10:0.21295221 11:0.35122536 12:0.25772367 13:0.4109824 14:0.27024011 15:0.44893439 16:0.67830137 17:0.49928959 18:0.27798564 19:0.26482362 20:0.037423919 21:0.02715798 22:0.44311551 23:0.26329964 24:0.27929877 25:0.2978576 26:0.33670265 27:0.27661806 28:0.11940374 29:0.16941013 30:0.19099122 31:0.22635541 32:0.13639522 33:0.3284366 34:0.44128087 35:0.46545142 36:0.48108354 37:0.36018382 
4 1:0.7373906 2:0.70993829 3:0.3825364 4:0.41006301 5:0.33934958 6:0.30349409 7:0.3558901 8:0.12558676 9:0.2498495 10:0.37664972 11:0.41491111 12:0.37755741 13:0.54801879 14:0.57510071 15:0.79432637 16:0.81618809 17:0.73739059 18:0.42323277 19:0.38333186 20:0.037423919 21:0.02715798 22:0.67713285 23:0.26329964 24:0.27929877 25:0.2978576 26:0.33670265 27:0.27661806 28:0.17502427 29:0.27812498 30:0.31925803 31:0.3717434 32:0.20725716 33:0.45784863 34:0.67535437 35:0.72432147 36:0.76725 37:0.51634989 
-4 1:0.84813261 2:0.85080071 3:0.3825364 4:0.41006301 5:0.33934958 6:0.30349409 7:0.3558901 8:0.25943795 9:0.39316268 10:0.41239231 11:0.44162718 12:0.43429819 13:0.7307962 14:0.83061614 15:0.87074198 16:0.86936899 17:0.84813263 18:0.53710149 19:0.47738989 20:0.037423919 21:0.02715798 22:0.79835349 23:0.26329964 24:0.27929877 25:0.2978576 26:0.33670265 27:0.27661806 28:0.22491109 29:0.34188062 30:0.37865048 31:0.42226854 32:0.26178804 33:0.57264534 34:0.81137354 35:0.84296016 36:0.86561382 37:0.63528603 
-4 1:0.90535466 2:0.9278223 3:0.3825364 4:0.41006301 5:0.33934958 6:0.30349409 7:0.3558901 8:0.38743294 9:0.45176648 10:0.43225505 11:0.45332892 12:0.46361276 13:0.90536973 14:0.93509691 15:0.91247262 16:0.89328697 17:0.90535466 18:0.64412358 19:0.56452218 20:0.037423919 21:0.02715798 22:0.89106187 23:0.26329964 24:0.27929877 25:0.2978576 26:0.33670265 27:0.27661806 28:0.28139273 29:0.39287213 30:0.41438453 31:0.44637917 32:0.31818812 33:0.70182265 34:0.91975889 35:0.91424993 36:0.9126062 37:0.75763404 
4 1:0.86403024 2:0.87729951 3:0.3825364 4:0.41006301 5:0.33934958 6:0.30349409 7:0.3558901 8:0.33386662 9:0.41427192 10:0.41212111 11:0.44271114 12:0.44242871 13:0.83237269 14:0.86837426 15:0.87047743 16:0.87168795 17:0.86403027 18:0.50563602 19:0.44990226 20:0.037423919 21:0.02715798 22:0.7089003 23:0.26329964 24:0.27929877 25:0.2978576 26:0.33670265 27:0.27661806 28:0.19736955 29:0.29477239 30:0.33027769 31:0.37626076 32:0.22877607 33:0.51017984 34:0.71192381 35:0.7472503 36:0.7769447 37:0.56423387 
4 1:0.53039884 2:0.45701764 3:0.85957577 4:0.7343625 5:0.56754853 6:0.45529331 7:0.59221611 8:0.11861118 9:0.19161678 10:0.37840456 11:0.49539688 12:0.40742203 13:0.15477948 14:0.23490928 15:0.5335017 16:0.76995333 17:0.53039883 18:0.20667029 19:0.22684686 20:0.23150491 21:0.18898779 22:0.38983342 23:0.8211024 24:0.63546878 25:0.55224225 26:0.49406553 27:0.80029072 28:0.060114001 29:0.2331276 30:0.32543495 31:0.38835201 32:0.10667763 33:0.074405847 34:0.33344151 35:0.49333565 36:0.62038167 37:0.13112536 
4 1:0.78299124 2:0.74871918 3:0.85957577 4:0.7343625 5:0.56754853 6:0.45529331 7:0.59221611 8:0.34214222 9:0.50990507 10:0.57822917 11:0.5618583 12:0.57242946 13:0.40426724 14:0.65662013 15:0.84546385 16:0.87798048 17:0.78299125 18:0.35727663 19:0.34928908 20:0.23150491 21:0.18898779 22:0.70624679 23:0.8211024 24:0.63546878 25:0.55224225 26:0.49406553 27:0.80029072 28:0.2006265 29:0.55872902 30:0.57145508 31:0.54719122 32:0.28898349 33:0.23767117 34:0.77934414 35:0.85178698 36:0.87733688 37:0.34416493 
4 1:0.83324418 2:0.82645532 3:0.85957577 4:0.7343625 5:0.56754853 6:0.45529331 7:0.59221611 8:0.53313627 9:0.62013966 10:0.5909875 11:0.56063691 12:0.60533388 13:0.61720411 14:0.80252728 15:0.86531384 16:0.87597904 17:0.83324419 18:0.40379736 19:0.3871102 20:0.23150491 21:0.18898779 22:0.72610123 23:0.8211024 24:0.63546878 25:0.55224225 26:0.49406553 27:0.80029072 28:0.28127323 29:0.56334472 30:0.56240884 31:0.53923856 32:0.35475519 33:0.33136099 34:0.78561535 35:0.83855556 36:0.86441941 37:0.42100045 
4 1:0.60573214 2:0.55524048 3:0.85957577 4:0.7343625 5:0.56754853 6:0.45529331 7:0.59221611 8:0.21330403 9:0.33486038 10:0.44482476 11:0.49102844 12:0.45676403 13:0.26040758 14:0.42454474 15:0.63699026 16:0.7626263 17:0.60573212 18:0.21346831 19:0.23237362 20:0.23150491 21:0.18898779 22:0.33571891 23:0.8211024 24:0.63546878 25:0.55224225 26:0.49406553 27:0.80029072 28:0.06919949 29:0.20837453 30:0.26846055 31:0.32319465 32:0.10668221 33:0.084968251 34:0.29945519 35:0.41013513 36:0.51464902 37:0.13113192 
4 1:0.85464158 2:0.85981042 3:0.85957577 4:0.7343625 5:0.56754853 6:0.45529331 7:0.59221611 8:0.63183868 9:0.6565824 10:0.59691119 11:0.56148338 12:0.61933278 13:0.72723672 14:0.85080078 15:0.87454193 16:0.8773409 17:0.85464157 18:0.42854275 19:0.40722808 20:0.23150491 21:0.18898779 22:0.74906397 23:0.8211024 24:0.63546878 25:0.55224225 26:0.49406553 27:0.80029072 28:0.32076964 29:0.57686278 30:0.57152875 31:0.54547231 32:0.38958908 33:0.37724304 34:0.80411248 35:0.85183276 36:0.87449927 37:0.46169367 
-4 1:0.23168918 2:0.16734513 3:0.85957577 4:0.7343625 5:0.56754853 6:0.45529331 7:0.59221611 8:0.021777814 9:0.051995205 10:0.14736552 11:0.31180426 12:0.21200404 13:0.046872007 14:0.050084337 15:0.17360236 16:0.47182399 17:0.23168914 18:0.14928276 19:0.18019108 20:0.23150491 21:0.18898779 22:0.13490418 23:0.8211024 24:0.63546878 25:0.55224225 26:0.49406553 27:0.80029072 28:0.029613027 29:0.068448587 30:0.094690748 31:0.14220769 32:0.041146477 33:0.038967976 34:0.10796289 35:0.15726241 36:0.22227063 37:0.054555491 
4 1:0.80019925 2:0.78882591 3:0.85957577 4:0.7343625 5:0.56754853 6:0.45529331 7:0.59221611 8:0.496576 9:0.58381914 10:0.56890104 11:0.54811161 12:0.58370117 13:0.5765152 14:0.75445747 15:0.8309116 16:0.85565 17:0.80019925 18:0.36579555 19:0.35621492 20:0.23150491 21:0.18898779 22:0.66731894 23:0.8211024 24:0.63546878 25:0.55224225 26:0.49406553 27:0.80029072 28:0.22852251 29:0.50865538 30:0.52590908 31:0.51624552 32:0.30072339 33:0.27007034 34:0.71077166 35:0.78544458 36:0.82728473 37:0.35787153 
4 1:0.65014101 2:0.60049787 3:0.85957577 4:0.7343625 5:0.56754853 6:0.45529331 7:0.59221611 8:0.23218581 9:0.36621831 10:0.47931211 11:0.51376076 12:0.48567545 13:0.28151099 14:0.46615589 15:0.69104791 16:0.79975059 17:0.65014099 18:0.23786127 19:0.25220497 20:0.23150491 21:0.18898779 22:0.42718438 23:0.8211024 24:0.63546878 25:0.55224225 26:0.49406553 27:0.80029072 28:0.089112773 29:0.27674662 30:0.34877144 31:0.39860357 32:0.13883442 33:0.10809545 34:0.39312337 35:0.52726114 36:0.63683816 37:0.16869253 
4 1:0.86299738 2:0.86985881 3:0.85957577 4:0.7343625 5:0.56754853 6:0.45529331 7:0.59221611 8:0.64819078 9:0.66437026 10:0.60239282 11:0.56433244 12:0.62476217 13:0.74555901 14:0.86115591 15:0.88314331 16:0.88199146 17:0.86299736 18:0.44429709 19:0.42003628 20:0.23150491 21:0.18898779 22:0.77759209 23:0.8211024 24:0.63546878 25:0.55224225 26:0.49406553 27:0.80029072 28:0.357773 29:0.60038692 30:0.585538 31:0.55391322 32:0.42435793 33:0.42023295 34:0.83636726 35:0.87228694 36:0.88819467 37:0.50233006 
4 1:0.63416626 2:0.5695224 3:0.85957577 4:0.7343625 5:0.56754853 6:0.45529331 7:0.59221611 8:0.14470904 9:0.30499123 10:0.48061613 11:0.52242584 12:0.47510356 13:0.18390837 14:0.38524155 15:0.69333482 16:0.81398826 17:0.63416625 18:0.16211408 19:0.19062288 20:0.23150491 21:0.18898779 22:0.4141854 23:0.8211024 24:0.63546878 25:0.55224225 26:0.49406553 27:0.80029072 28:0.077934563 29:0.2609567 30:0.33944885 31:0.39722709 32:0.12662992 33:0.095094961 34:0.37159603 35:0.51387575 36:0.63487646 37:0.15442314 
-4 1:0.81820175 2:0.77830073 3:0.85957577 4:0.7343625 5:0.56754853 6:0.45529331 7:0.59221611 8:0.31402267 9:0.52000932 10:0.61075122 11:0.58655833 12:0.59545537 13:0.37288387 14:0.66998079 15:0.89620012 16:0.91807588 17:0.81820168 18:0.22628897 19:0.24279676 20:0.23150491 21:0.18898779 22:0.75540742 23:0.8211024 24:0.63546878 25:0.55224225 26:0.49406553 27:0.80029072 28:0.21221077 29:0.60482344 30:0.60894648 31:0.58429272 32:0.30832016 33:0.25112609 34:0.84246702 35:0.90640761 36:0.93734486 37:0.36675531 
-4 1:0.12054691 2:0.073438888 3:0.85957577 4:0.7343625 5:0.56754853 6:0.45529331 7:0.59221611 8:0.020374791 9:0.03537098 10:0.1025525 11:0.19991311 12:0.13927262 13:0.045317694 14:0.028094801 15:0.10379262 16:0.29031269 17:0.12054686 18:0.052900004 19:0.10183238 20:0.23150491 21:0.18898779 22:0.052740996 23:0.8211024 24:0.63546878 25:0.55224225 26:0.49406553 27:0.80029072 28:0.016933581 29:0.026215891 30:0.028846705 31:0.047475994 32:0.01977903 33:0.024238469 34:0.050157702 35:0.061418421 36:0.069213835 37:0.029592394 
-4 1:0.72582455 2:0.68515234 3:0.85957577 4:0.7343625 5:0.56754853 6:0.45529331 7:0.59221611 8:0.29028787 9:0.44923773 10:0.53997606 11:0.53828911 12:0.53504903 13:0.34643262 14:0.57623333 15:0.78585304 16:0.83972694 17:0.72582457 18:0.28314781 19:0.28902271 20:0.23150491 21:0.18898779 22:0.58481968 23:0.8211024 24:0.63546878 25:0.55224225 26:0.49406553 27:0.80029072 28:0.14644973 29:0.44028773 30:0.47778163 31:0.47997408 32:0.21990469 33:0.1747191 34:0.61716855 35:0.71535502 36:0.76863863 37:0.26344081 
4 1:0.74417004 2:0.71960797 3:0.85957577 4:0.7343625 5:0.56754853 6:0.45529331 7:0.59221611 8:0.40531783 9:0.50520317 10:0.53432095 11:0.53396866 12:0.54693983 13:0.47481791 14:0.6505285 15:0.77715506 16:0.83281939 17:0.74417003 18:0.30420239 19:0.30613998 20:0.23150491 21:0.18898779 22:0.55977357 23:0.8211024 24:0.63546878 25:0.55224225 26:0.49406553 27:0.80029072 28:0.15096192 29:0.40058008 30:0.45329652 31:0.472186 32:0.21559396 33:0.17994626 34:0.56283342 35:0.67978306 36:0.75617675 37:0.25839567 
-4 1:0.42027848 2:0.34803217 3:0.85957577 4:0.7343625 5:0.56754853 6:0.45529331 7:0.59221611 8:0.062792656 9:0.13916522 10:0.29365722 11:0.42971925 12:0.33523898 13:0.092647486 14:0.16558809 15:0.40180358 16:0.66345699 17:0.42027845 18:0.15867597 19:0.18782772 20:0.23150491 21:0.18898779 22:0.26329204 23:0.8211024 24:0.63546878 25:0.55224225 26:0.49406553 27:0.80029072 28:0.047302509 29:0.14649607 30:0.20797474 31:0.27119227 32:0.075125669 33:0.059523011 34:0.21487999 35:0.32237364 36:0.43103956 37:0.094266757 
-4 1:0.7148027 2:0.67449589 3:0.85957577 4:0.7343625 5:0.56754853 6:0.45529331 7:0.59221611 8:0.30544229 9:0.43327882 10:0.52914612 11:0.53474919 12:0.52784963 13:0.36325905 14:0.55508512 15:0.76900605 16:0.83396072 17:0.71480268 18:0.26113632 19:0.27112748 20:0.23150491 21:0.18898779 22:0.5625915 23:0.8211024 24:0.63546878 25:0.55224225 26:0.49406553 27:0.80029072 28:0.13053068 29:0.41278683 30:0.46331407 31:0.47478127 32:0.20157276 33:0.15622272 34:0.57953888 35:0.69430926 36:0.76026649 37:0.24202232 
4 1:0.76382899 2:0.74378541 3:0.85957577 4:0.7343625 5:0.56754853 6:0.45529331 7:0.59221611 8:0.4376964 9:0.53170748 10:0.54694482 11:0.539268 12:0.56000006 13:0.5106448 14:0.68534332 15:0.79655615 16:0.84122481 17:0.76382894 18:0.31760644 19:0.31703741 20:0.23150491 21:0.18898779 22:0.57714783 23:0.8211024 24:0.63546878 25:0.55224225 26:0.49406553 27:0.80029072 28:0.16657063 29:0.41687576 30:0.46412693 31:0.47918369 32:0.23160468 33:0.1980969 34:0.58501665 35:0.69532722 36:0.7672109 37:0.27709876 
-4 1:0.87722013 2:0.88887043 3:0.85957577 4:0.7343625 5:0.56754853 6:0.45529331 7:0.59221611 8:0.68681565 9:0.68393799 10:0.60998756 11:0.56705065 12:0.6340555 13:0.78862152 14:0.88708741 15:0.89499737 16:0.88640614 17:0.87722011 18:0.46542509 19:0.43721325 20:0.23150491 21:0.18898779 22:0.79982823 23:0.8211024 24:0.63546878 25:0.55224225 26:0.49406553 27:0.80029072 28:0.39103596 29:0.61867384 30:0.59489549 31:0.55868502 32:0.45495216 33:0.45887583 34:0.86141574 35:0.88592206 36:0.89591178 37:0.5380791 
4 1:0.72519487 2:0.69631625 3:0.85957577 4:0.7343625 5:0.56754853 6:0.45529331 7:0.59221611 8:0.37136229 9:0.48221343 10:0.52222397 11:0.52903146 12:0.53474619 13:0.43670483 14:0.61978032 15:0.75796825 16:0.82459528 17:0.72519486 18:0.28599104 19:0.29133424 20:0.23150491 21:0.18898779 22:0.51614761 23:0.8211024 24:0.63546878 25:0.55224225 26:0.49406553 27:0.80029072 28:0.13099246 29:0.36010205 30:0.41853514 31:0.44800063 32:0.19067764 33:0.15675995 34:0.50728853 35:0.62893558 36:0.7168098 37:0.22927882 
