svm_type nu_svr
kernel_type rbf
gamma 0.050000000000000003
nr_class 2
total_sv 605
rho -0.90355081002849358
SV
4 1:0.43361236 2:0.39234645 3:0.3771807 4:0.5212876 5:0.61456287 6:0.68978707 7:0.64536737 8:0.066545758 9:0.10638053 10:0.26633829 11:0.51246397 12:0.36092283 13:0.47421503 14:0.24254723 15:0.34317856 16:0.60897986 17:0.43361236 18:0.20492903 19:0.23405657 20:0.20664064 21:0.2590875 22:0.36127515 23:0.31899804 24:0.33335013 25:0.32637831 26:0.32787119 27:0.33488082 28:0.088056746 29:0.14290883 30:0.17180024 31:0.21834202 32:0.10482264 33:0.21765622 34:0.33681037 35:0.39508744 36:0.46501144 37:0.25089484 
-4 1:0.84589795 2:0.83010671 3:0.3771807 4:0.5212876 5:0.61456287 6:0.68978707 7:0.64536737 8:0.23471971 9:0.42287623 10:0.59785712 11:0.72853591 12:0.63675137 13:0.70059428 14:0.74087747 15:0.85056958 16:0.88951294 17:0.84589798 18:0.41848492 19:0.41658891 20:0.20664064 21:0.2590875 22:0.7378441 23:0.31899804 24:0.33335013 25:0.32637831 26:0.32787119 27:0.33488082 28:0.21798859 29:0.34845939 30:0.38345582 31:0.40976685 32:0.25578675 33:0.49127171 34:0.7424968 35:0.80430779 36:0.84571703 37:0.55478697 
-4 1:0.91210126 2:0.92417714 3:0.3771807 4:0.5212876 5:0.61456287 6:0.68978707 7:0.64536737 8:0.33481183 9:0.51921324 10:0.64789896 11:0.74270272 12:0.68114343 13:0.83509941 14:0.89240179 15:0.92724064 16:0.90788893 17:0.91210128 18:0.5379115 19:0.51866622 20:0.20664064 21:0.2590875 22:0.82237058 23:0.31899804 24:0.33335013 25:0.32637831 26:0.32787119 27:0.33488082 28:0.27028588 29:0.40176216 30:0.41896094 31:0.43189839 32:0.30894013 33:0.60051561 34:0.84748979 35:0.87284772 36:0.88966623 37:0.66111484 
-4 1:0.84380327 2:0.84861108 3:0.3771807 4:0.5212876 5:0.61456287 6:0.68978707 7:0.64536737 8:0.29342858 9:0.46433637 10:0.59501225 11:0.70881507 12:0.6359484 13:0.77880364 14:0.80412958 15:0.84526728 16:0.86354487 17:0.84380329 18:0.36932028 19:0.37456648 20:0.20664064 21:0.2590875 22:0.60252612 23:0.31899804 24:0.33335013 25:0.32637831 26:0.32787119 27:0.33488082 28:0.17923803 29:0.27409265 30:0.30448731 31:0.33686155 32:0.20773218 33:0.40866109 34:0.5949715 35:0.6510505 36:0.70032522 37:0.45710352 
3.5803005324144053 1:0.92364202 2:0.94463483 3:0.3771807 4:0.5212876 5:0.61456287 6:0.68978707 7:0.64536737 8:0.37223523 9:0.54099868 10:0.65323767 11:0.74362807 12:0.68887277 13:0.88573677 14:0.92699731 15:0.93537587 16:0.90909355 17:0.92364203 18:0.54446125 19:0.52426449 20:0.20664064 21:0.2590875 22:0.83173739 23:0.31899804 24:0.33335013 25:0.32637831 26:0.32787119 27:0.33488082 28:0.28265456 29:0.40486592 30:0.42041235 31:0.4328417 32:0.31957112 33:0.62584216 34:0.85335291 35:0.87551231 36:0.89147076 37:0.68193531 
-4 1:0.26615252 2:0.24801172 3:0.3771807 4:0.5212876 5:0.61456287 6:0.68978707 7:0.64536737 8:0.018753031 9:0.063220275 10:0.16978637 11:0.37134951 12:0.25011483 13:0.40876899 14:0.1725843 15:0.19394244 16:0.42420379 17:0.26615253 18:0.13119094 19:0.17103051 20:0.20664064 21:0.2590875 22:0.24291259 23:0.31899804 24:0.33335013 25:0.32637831 26:0.32787119 27:0.33488082 28:0.073069293 29:0.093315151 30:0.098663262 31:0.11986254 32:0.080212411 33:0.18621561 34:0.23900021 35:0.2537877 36:0.26925788 37:0.20147786 
-4 1:0.81471098 2:0.81842119 3:0.3771807 4:0.5212876 5:0.61456287 6:0.68978707 7:0.64536737 8:0.2779861 9:0.44471469 10:0.57764581 11:0.69069576 12:0.61730107 13:0.75734165 14:0.77135146 15:0.81725575 16:0.83926631 17:0.81471095 18:0.34483992 19:0.35364241 20:0.20664064 21:0.2590875 22:0.65820918 23:0.31899804 24:0.33335013 25:0.32637831 26:0.32787119 27:0.33488082 28:0.19904932 29:0.30696223 30:0.33541955 31:0.36286237 32:0.23092021 33:0.45011511 34:0.65954127 35:0.71058976 36:0.7518121 37:0.50348782 
-4 1:0.80610023 2:0.80425654 3:0.3771807 4:0.5212876 5:0.61456287 6:0.68978707 7:0.64536737 8:0.26055559 9:0.42840644 10:0.56759255 11:0.69138551 12:0.61076467 13:0.73430476 14:0.74736375 15:0.8031836 16:0.84083506 17:0.80610025 18:0.32928092 19:0.34034369 20:0.20664064 21:0.2590875 22:0.55462347 23:0.31899804 24:0.33335013 25:0.32637831 26:0.32787119 27:0.33488082 28:0.16179913 29:0.24806615 30:0.27790997 31:0.31240167 32:0.18782319 33:0.37247044 34:0.54394366 35:0.59990742 36:0.65183313 37:0.41751135 
4 1:0.91272695 2:0.93077672 3:0.3771807 4:0.5212876 5:0.61456287 6:0.68978707 7:0.64536737 8:0.35865708 9:0.52938708 10:0.64527515 11:0.73944788 12:0.68159038 13:0.86730551 14:0.90853521 15:0.92315342 16:0.90366366 17:0.91272695 18:0.53064698 19:0.51245704 20:0.20664064 21:0.2590875 22:0.82256616 23:0.31899804 24:0.33335013 25:0.32637831 26:0.32787119 27:0.33488082 28:0.27894174 29:0.39875649 30:0.4155466 31:0.42943541 32:0.3152879 33:0.61824017 34:0.84139932 35:0.86615739 36:0.88471939 37:0.67349696 
-4 1:0.85981581 2:0.84132152 3:0.3771807 4:0.5212876 5:0.61456287 6:0.68978707 7:0.64536737 8:0.215866 9:0.43190414 10:0.61315111 11:0.73643432 12:0.64615083 13:0.67553352 14:0.75532714 15:0.8737026 16:0.89956769 17:0.85981582 18:0.16942557 19:0.20371075 20:0.20664064 21:0.2590875 22:0.57575064 23:0.31899804 24:0.33335013 25:0.32637831 26:0.32787119 27:0.33488082 28:0.15959231 29:0.25780102 30:0.29285457 31:0.33144386 32:0.18849752 33:0.36871792 34:0.56376381 35:0.62927764 36:0.6900562 37:0.41967902 
-4 1:0.84983448 2:0.84577414 3:0.3771807 4:0.5212876 5:0.61456287 6:0.68978707 7:0.64536737 8:0.26564486 9:0.45093777 10:0.6016241 11:0.71939932 12:0.63968985 13:0.74210199 14:0.78401028 15:0.85575291 16:0.87745451 17:0.8498345 18:0.39178476 19:0.39376752 20:0.20664064 21:0.2590875 22:0.71556442 23:0.31899804 24:0.33335013 25:0.32637831 26:0.32787119 27:0.33488082 28:0.21783139 29:0.33789603 30:0.36733469 31:0.39224311 32:0.25302167 33:0.49060325 34:0.72145996 35:0.77303137 36:0.81081701 37:0.54893063 
-4 1:0.86377037 2:0.8686733 3:0.3771807 4:0.5212876 5:0.61456287 6:0.68978707 7:0.64536737 8:0.30700963 9:0.47228404 10:0.60950944 11:0.72146497 12:0.64895113 13:0.79765946 14:0.81780321 15:0.86803297 16:0.88023631 17:0.86377038 18:0.43788592 19:0.4331715 20:0.20664064 21:0.2590875 22:0.71224859 23:0.31899804 24:0.33335013 25:0.32637831 26:0.32787119 27:0.33488082 28:0.2112605 29:0.33516407 30:0.36802653 31:0.39533755 32:0.24728886 33:0.4764733 34:0.71599791 35:0.77430773 36:0.81692012 37:0.53715879 
-2.2272241881721593 1:0.47871031 2:0.44562883 3:0.3771807 4:0.5212876 5:0.61456287 6:0.68978707 7:0.64536737 8:0.058658736 9:0.15728352 10:0.33309817 11:0.51604056 12:0.39249107 13:0.46279612 14:0.32113953 15:0.44311748 16:0.61204304 17:0.47871031 18:0.15043426 19:0.18747833 20:0.20664064 21:0.2590875 22:0.36466897 23:0.31899804 24:0.33335013 25:0.32637831 26:0.32787119 27:0.33488082 28:0.10161555 29:0.15056663 30:0.17055971 31:0.20366282 32:0.11691402 33:0.24621231 34:0.35166764 35:0.39238852 36:0.4355092 37:0.27514166 
-4 1:0.80577338 2:0.7965402 3:0.3771807 4:0.5212876 5:0.61456287 6:0.68978707 7:0.64536737 8:0.24873258 9:0.40984278 10:0.56424349 11:0.70033248 12:0.61042321 13:0.71904036 14:0.71853986 15:0.79811385 16:0.85261116 17:0.8057734 18:0.34806642 19:0.35640019 20:0.20664064 21:0.2590875 22:0.68779992 23:0.31899804 24:0.33335013 25:0.32637831 26:0.32787119 27:0.33488082 28:0.20164136 29:0.31871376 30:0.35422351 31:0.38740848 32:0.23604685 33:0.45643151 34:0.68348145 35:0.74761815 36:0.80117089 37:0.51466957 
-4 1:0.84464535 2:0.8514388 3:0.3771807 4:0.5212876 5:0.61456287 6:0.68978707 7:0.64536737 8:0.30101697 9:0.46751929 10:0.59605104 11:0.70745996 12:0.6365387 13:0.78894239 14:0.80920269 15:0.84684849 16:0.86174133 17:0.84464537 18:0.37566235 19:0.37998723 20:0.20664064 21:0.2590875 22:0.62470234 23:0.31899804 24:0.33335013 25:0.32637831 26:0.32787119 27:0.33488082 28:0.19149124 29:0.28676391 30:0.31481929 31:0.34441929 32:0.22032485 33:0.43442952 34:0.62005911 35:0.67108313 36:0.71537766 37:0.48245929 
4 1:0.92244594 2:0.94348158 3:0.3771807 4:0.5212876 5:0.61456287 6:0.68978707 7:0.64536737 8:0.37178594 9:0.54031249 10:0.65241255 11:0.74280007 12:0.68805814 13:0.8851522 14:0.92598287 15:0.93414073 16:0.90803048 17:0.92244596 18:0.55493034 19:0.53321272 20:0.20664064 21:0.2590875 22:0.84038809 23:0.31899804 24:0.33335013 25:0.32637831 26:0.32787119 27:0.33488082 28:0.28943064 29:0.40959757 30:0.42336589 31:0.43457004 32:0.32601009 33:0.64035112 34:0.86285193 35:0.88131233 36:0.89495454 37:0.69511768 
-4 1:0.84407598 2:0.85031709 3:0.3771807 4:0.5212876 5:0.61456287 6:0.68978707 7:0.64536737 8:0.30110339 9:0.46553292 10:0.59461972 11:0.70823559 12:0.63613146 13:0.78907694 14:0.80631103 15:0.84466141 16:0.86274393 17:0.844076 18:0.36668624 19:0.37231509 20:0.20664064 21:0.2590875 22:0.59472537 23:0.31899804 24:0.33335013 25:0.32637831 26:0.32787119 27:0.33488082 28:0.1775794 29:0.26977203 30:0.29955495 31:0.33213348 32:0.20540182 33:0.4053022 34:0.58655895 35:0.64160099 36:0.69098228 37:0.45254585 
4 1:0.91962331 2:0.9399761 3:0.3771807 4:0.5212876 5:0.61456287 6:0.68978707 7:0.64536737 8:0.36851755 9:0.53742065 10:0.65027528 11:0.74171418 12:0.68617773 13:0.88075932 14:0.92144177 15:0.93086824 16:0.90660397 17:0.91962332 18:0.54243446 19:0.52253213 20:0.20664064 21:0.2590875 22:0.82202035 23:0.31899804 24:0.33335013 25:0.32637831 26:0.32787119 27:0.33488082 28:0.27692203 29:0.39902863 30:0.41612071 31:0.42974629 32:0.31372213 33:0.61401159 34:0.8419389 35:0.86726603 36:0.88533917 37:0.67036193 
-4 1:0.9619198 2:1 3:0.3771807 4:0.5212876 5:0.61456287 6:0.68978707 7:0.64536737 8:0.45609957 9:0.58645777 10:0.67768177 11:0.75488144 12:0.71426344 13:1 14:1 15:0.97320278 16:0.9238117 17:0.96191981 18:0.73061238 19:0.68337319 20:0.20664064 21:0.2590875 22:0.99999708 23:0.31899804 24:0.33335013 25:0.32637831 26:0.32787119 27:0.33488082 28:0.46082217 29:0.47403068 30:0.46207915 31:0.4589478 32:0.47783527 33:0.99999885 34:0.99028668 35:0.95631644 36:0.94350896 37:0.9999984 
4 1:0.59325576 2:0.53520793 3:0.3771807 4:0.5212876 5:0.61456287 6:0.68978707 7:0.64536737 8:0.060641654 9:0.17217038 10:0.3993477 11:0.6206256 12:0.46832656 13:0.46569438 14:0.34573929 15:0.5455472 16:0.74851901 17:0.59325575 18:0.22142232 19:0.24815386 20:0.20664064 21:0.2590875 22:0.37781546 23:0.31899804 24:0.33335013 25:0.32637831 26:0.32787119 27:0.33488082 28:0.099437521 29:0.15303745 30:0.18004402 31:0.22026495 32:0.11613132 33:0.2418104 34:0.35677305 35:0.41093241 36:0.46872239 37:0.27377582 
4 1:0.81088888 2:0.78213156 3:0.3771807 4:0.5212876 5:0.61456287 6:0.68978707 7:0.64536737 8:0.17315585 9:0.37184124 10:0.58861632 11:0.71113258 12:0.61356945 13:0.61788615 14:0.6611311 15:0.83571229 16:0.86648387 17:0.81088891 18:0.36486591 19:0.3707592 20:0.20664064 21:0.2590875 22:0.63438203 23:0.31899804 24:0.33335013 25:0.32637831 26:0.32787119 27:0.33488082 28:0.17148695 29:0.29214815 30:0.32999928 31:0.36525396 32:0.20585064 33:0.39338729 34:0.63083894 35:0.70044356 36:0.7567622 37:0.45411311 
-4 1:0.83415452 2:0.82753339 3:0.3771807 4:0.5212876 5:0.61456287 6:0.68978707 7:0.64536737 8:0.23435588 9:0.44271596 10:0.59683395 11:0.70759595 12:0.62931581 13:0.69974961 14:0.77062036 15:0.84823093 16:0.86204925 17:0.83415451 18:0.37422608 19:0.37875961 20:0.20664064 21:0.2590875 22:0.61509129 23:0.31899804 24:0.33335013 25:0.32637831 26:0.32787119 27:0.33488082 28:0.18042919 29:0.28228446 30:0.3125433 31:0.34413891 32:0.21049422 33:0.41146949 34:0.61123255 35:0.66672515 36:0.71488066 37:0.46289963 
4 1:0.92053412 2:0.94119385 3:0.3771807 4:0.5212876 5:0.61456287 6:0.68978707 7:0.64536737 8:0.37145519 9:0.53786122 10:0.65066188 11:0.74223579 12:0.68678758 13:0.8846743 14:0.92207583 15:0.9314545 16:0.90729234 17:0.92053417 18:0.55197559 19:0.5306872 20:0.20664064 21:0.2590875 22:0.8403234 23:0.31899804 24:0.33335013 25:0.32637831 26:0.32787119 27:0.33488082 28:0.28915136 29:0.40969998 30:0.42344452 31:0.43475751 32:0.32580605 33:0.63953366 34:0.862982 35:0.88143172 36:0.89531055 37:0.69452466 
-4 1:0.85611118 2:0.86345667 3:0.3771807 4:0.5212876 5:0.61456287 6:0.68978707 7:0.64536737 8:0.30375047 9:0.47639883 10:0.60460071 11:0.71351149 12:0.64392179 13:0.79297154 14:0.82399538 15:0.86044416 16:0.86982105 17:0.85611123 18:0.39301572 19:0.39481966 20:0.20664064 21:0.2590875 22:0.63020605 23:0.31899804 24:0.33335013 25:0.32637831 26:0.32787119 27:0.33488082 28:0.19056037 29:0.2890804 30:0.31891162 31:0.34940501 32:0.22018298 33:0.43297147 34:0.6250022 35:0.67928463 36:0.72550761 37:0.48264568 
4 1:0.9239207 2:0.94466871 3:0.3771807 4:0.5212876 5:0.61456287 6:0.68978707 7:0.64536737 8:0.37183134 9:0.54034683 10:0.65317768 11:0.74414831 12:0.68898187 13:0.88535124 14:0.92632382 15:0.93544567 16:0.90980578 17:0.92392072 18:0.56188509 19:0.53915714 20:0.20664064 21:0.2590875 22:0.84766876 23:0.31899804 24:0.33335013 25:0.32637831 26:0.32787119 27:0.33488082 28:0.2922753 29:0.41390348 30:0.42712515 31:0.43765748 32:0.32923464 33:0.64649882 34:0.87149278 35:0.88866864 36:0.90114593 37:0.70176332 
4 1:0.5956689 2:0.54006042 3:0.30176058 4:0.43813701 5:0.6121252 6:0.84905623 7:0.70034732 8:0.088564393 9:0.1460688 10:0.37038396 11:0.7134051 12:0.50177197 13:0.57414718 14:0.36283481 15:0.50428505 16:0.73925318 17:0.5956689 18:0.24960626 19:0.20333663 20:0.21790696 21:0.20944034 22:0.49517801 23:0.88573223 24:1 25:1 26:1 27:0.94736825 28:0.24510716 29:0.46847828 30:0.59143578 31:0.69980278 32:0.30974201 33:0.27154282 34:0.45971088 35:0.55702482 36:0.65199425 37:0.32423538 
4 1:0.87915145 2:0.86569194 3:0.30176058 4:0.43813701 5:0.6121252 6:0.84905623 7:0.70034732 8:0.21880722 9:0.38455739 10:0.6233829 11:0.85530872 12:0.70053476 13:0.75800262 14:0.77514293 15:0.89295071 16:0.89943625 17:0.87915145 18:0.45453665 19:0.3784965 20:0.21790696 21:0.20944034 22:0.81616669 23:0.88573223 24:1 25:1 26:1 27:0.94736825 28:0.52642256 29:0.8516565 30:0.91609354 31:0.93409251 32:0.61871453 33:0.57994708 34:0.84219848 35:0.87430774 36:0.89065346 37:0.64595896 
-4 1:0.9035436 2:0.90731809 3:0.30176058 4:0.43813701 5:0.6121252 6:0.84905623 7:0.70034732 8:0.26289581 9:0.4318012 10:0.63927562 11:0.8590719 12:0.71763699 13:0.82024867 14:0.85680922 15:0.9173429 16:0.90368852 17:0.9035436 18:0.50573813 19:0.42225988 20:0.21790696 21:0.20944034 22:0.84723081 23:0.88573223 24:1 25:1 26:1 27:0.94736825 28:0.57055591 29:0.88916966 30:0.93729728 31:0.9469832 32:0.66188409 33:0.62832878 34:0.87964712 35:0.89503466 36:0.90378887 37:0.6909098 
4 1:0.80762579 2:0.79806738 3:0.30176058 4:0.43813701 5:0.6121252 6:0.84905623 7:0.70034732 8:0.20961645 9:0.35130066 10:0.56476476 11:0.80458361 12:0.65037893 13:0.7450439 14:0.71765484 15:0.80287257 16:0.84217499 17:0.80762582 18:0.31595636 19:0.26004796 20:0.21790696 21:0.20944034 22:0.58231415 23:0.88573223 24:1 25:1 26:1 27:0.94736825 28:0.35432349 29:0.57100513 30:0.66625158 31:0.74037267 32:0.41922576 33:0.39125235 34:0.56203297 35:0.63012432 36:0.69330504 37:0.4382149 
4 1:0.91449443 2:0.93208448 3:0.30176058 4:0.43813701 5:0.6121252 6:0.84905623 7:0.70034732 8:0.31062684 9:0.45930896 10:0.64208689 11:0.85857333 12:0.72531089 13:0.8876212 14:0.90436442 15:0.92166151 16:0.90312938 17:0.91449442 18:0.5109086 19:0.42667922 20:0.21790696 21:0.20944034 22:0.84604866 23:0.88573223 24:1 25:1 26:1 27:0.94736825 28:0.58346658 29:0.8808787 30:0.93050515 31:0.94260671 32:0.67063006 33:0.64248741 34:0.87136725 35:0.88839205 36:0.89932656 37:0.7000192 
-4 1:0.6085783 2:0.55631706 3:0.30176058 4:0.43813701 5:0.6121252 6:0.84905623 7:0.70034732 8:0.081704965 9:0.1571061 10:0.39809306 11:0.71049851 12:0.51087132 13:0.56445465 14:0.38189494 15:0.54685082 16:0.73586246 17:0.60857833 18:0.22625056 19:0.18337384 20:0.21790696 21:0.20944034 22:0.42972016 23:0.88573223 24:1 25:1 26:1 27:0.94736825 28:0.2583805 29:0.40981984 30:0.49428448 31:0.58186736 32:0.3053331 33:0.28602745 34:0.40108066 35:0.46200465 36:0.53179429 37:0.31957457 
4 1:0.861392 2:0.85807893 3:0.30176058 4:0.43813701 5:0.6121252 6:0.84905623 7:0.70034732 8:0.23897432 9:0.39343741 10:0.60604822 11:0.83651457 12:0.68809082 13:0.78646958 14:0.79048369 15:0.86628208 16:0.87820786 17:0.86139203 18:0.40422778 19:0.33549607 20:0.21790696 21:0.20944034 22:0.74002158 23:0.88573223 24:1 25:1 26:1 27:0.94736825 28:0.46986819 29:0.75559998 30:0.83606721 31:0.8750338 32:0.55264518 33:0.51793335 34:0.74630902 35:0.79609936 36:0.83049631 37:0.57715147 
4 1:0.80779603 2:0.795209 3:0.30176058 4:0.43813701 5:0.6121252 6:0.84905623 7:0.70034732 8:0.20398941 9:0.34598552 10:0.56399171 11:0.80766501 12:0.65048099 13:0.73709818 14:0.70850343 15:0.80176024 16:0.84566499 17:0.80779601 18:0.31385935 19:0.25825558 20:0.21790696 21:0.20944034 22:0.59552965 23:0.88573223 24:1 25:1 26:1 27:0.94736825 28:0.36339804 29:0.58376431 30:0.68052918 31:0.75501954 32:0.42949167 33:0.40121169 34:0.5747843 35:0.64409006 36:0.70823388 37:0.44891622 
4 1:0.91372777 2:0.93028313 3:0.30176058 4:0.43813701 5:0.6121252 6:0.84905623 7:0.70034732 8:0.30760015 9:0.45728645 10:0.64148053 11:0.85888241 12:0.72477521 13:0.88334276 14:0.9008639 15:0.92074164 16:0.90347554 17:0.9137278 18:0.51787953 19:0.43263748 20:0.21790696 21:0.20944034 22:0.8550486 23:0.88573223 24:1 25:1 26:1 27:0.94736825 28:0.59663284 29:0.89120554 30:0.93667654 31:0.94642528 32:0.6833558 33:0.65692058 34:0.88167773 35:0.89442462 36:0.90321727 37:0.71327001 
-4 1:0.77449848 2:0.74251482 3:0.30176058 4:0.43813701 5:0.6121252 6:0.84905623 7:0.70034732 8:0.15852491 9:0.28907951 10:0.53734775 11:0.80162834 12:0.62707978 13:0.67290032 14:0.61025619 15:0.76103574 16:0.83887824 17:0.7744985 18:0.21696816 19:0.1754399 20:0.21790696 21:0.20944034 22:0.52902289 23:0.88573223 24:1 25:1 26:1 27:0.94736825 28:0.31128669 29:0.50610181 30:0.60819884 31:0.70241659 32:0.37052661 33:0.34412599 34:0.49732594 35:0.57346172 36:0.65469686 37:0.38756648 
1.0069821086998092 1:0.9596818 2:0.9528645 3:0.30176058 4:0.43813701 5:0.6121252 6:0.84905623 7:0.70034732 8:0.26377732 9:0.44880947 10:0.67055592 11:0.91238508 12:0.75701169 13:0.82149158 14:0.88618206 15:0.96538007 16:0.96385385 17:0.95968177 18:0.2905353 19:0.23831984 20:0.21790696 21:0.20944034 22:0.89551787 23:0.88573223 24:1 25:1 26:1 27:0.94736825 28:0.60061517 29:0.93941301 30:0.99005745 31:1 32:0.69751316 33:0.66126637 34:0.92978955 35:0.94659558 36:0.95779894 37:0.7279952 
0.03411401870633321 1:0.29861605 2:0.29686488 3:0.30176058 4:0.43813701 5:0.6121252 6:0.84905623 7:0.70034732 8:0.05637559 9:0.073825108 10:0.1894804 11:0.43882016 12:0.29354763 13:0.52869765 14:0.2379046 15:0.22641698 16:0.42914466 17:0.29861603 18:0.014395544 19:0.002295288 20:0.21790696 21:0.20944034 22:0.12245202 23:0.88573223 24:1 25:1 26:1 27:0.94736825 28:0.096545863 29:0.12984857 30:0.14747868 31:0.18146461 32:0.10810783 33:0.1085895 34:0.12159175 35:0.1230452 36:0.12388359 37:0.11418886 
-4 1:0.85227217 2:0.84334433 3:0.30176058 4:0.43813701 5:0.6121252 6:0.84905623 7:0.70034732 8:0.22340865 9:0.37659463 10:0.601826 11:0.83358086 12:0.68169006 13:0.76449543 14:0.76135358 15:0.85982777 16:0.87490771 17:0.8522722 18:0.37263179 19:0.30849007 20:0.21790696 21:0.20944034 22:0.73323093 23:0.88573223 24:1 25:1 26:1 27:0.94736825 28:0.46780037 29:0.75531218 30:0.82796483 31:0.85894107 32:0.55041472 33:0.51565788 34:0.74600583 35:0.78816524 36:0.81408868 37:0.57481866 
-4 1:0.85426471 2:0.85100578 3:0.30176058 4:0.43813701 5:0.6121252 6:0.84905623 7:0.70034732 8:0.24063999 9:0.3889691 10:0.59847789 11:0.83276043 12:0.68311352 13:0.78879412 14:0.78268221 15:0.85468822 16:0.87395089 17:0.85426472 18:0.41305581 19:0.34304164 20:0.21790696 21:0.20944034 22:0.74398343 23:0.88573223 24:1 25:1 26:1 27:0.94736825 28:0.46488553 29:0.76085412 30:0.84389844 31:0.88347434 32:0.54990357 33:0.51242729 34:0.75151384 35:0.80372225 36:0.83907272 37:0.57425448 
-4 1:0.66356697 2:0.62334417 3:0.30176058 4:0.43813701 5:0.6121252 6:0.84905623 7:0.70034732 8:0.11190437 9:0.21078047 10:0.44917186 11:0.73364335 12:0.54939388 13:0.60709711 14:0.47467812 15:0.62533485 16:0.7620718 17:0.66356697 18:0.21022783 19:0.16967876 20:0.21790696 21:0.20944034 22:0.47780865 23:0.88573223 24:1 25:1 26:1 27:0.94736825 28:0.29115876 29:0.46718872 30:0.55084365 31:0.6197601 32:0.34437085 33:0.32199754 34:0.45839347 35:0.51732508 36:0.57042974 37:0.36026197 
-4 1:0.80626954 2:0.78899784 3:0.30176058 4:0.43813701 5:0.6121252 6:0.84905623 7:0.70034732 8:0.19670744 9:0.33484797 10:0.56302153 11:0.81063474 12:0.64942449 13:0.72682427 14:0.68921606 15:0.8002437 16:0.84900354 17:0.80626955 18:0.31876437 19:0.26244804 20:0.21790696 21:0.20944034 22:0.66358795 23:0.88573223 24:1 25:1 26:1 27:0.94736825 28:0.41493422 29:0.66913889 30:0.75337709 31:0.80589721 32:0.48929875 33:0.45770522 34:0.6599928 35:0.7152714 36:0.76005207 37:0.51118446 
4 1:0.85282679 2:0.85575601 3:0.30176058 4:0.43813701 5:0.6121252 6:0.84905623 7:0.70034732 8:0.25356234 9:0.39911951 10:0.59770905 11:0.8264295 12:0.6820762 13:0.8070762 14:0.80032104 15:0.85348959 16:0.8668326 17:0.85282682 18:0.38226222 19:0.31672148 20:0.21790696 21:0.20944034 22:0.68731012 23:0.88573223 24:1 25:1 26:1 27:0.94736825 28:0.43550259 29:0.68953361 30:0.7774695 31:0.83142894 32:0.51070256 33:0.48025146 34:0.68034732 35:0.73881469 36:0.78605808 37:0.53346889 
4 1:0.83967405 2:0.83907819 3:0.30176058 4:0.43813701 5:0.6121252 6:0.84905623 7:0.70034732 8:0.24112815 9:0.38536405 10:0.58807502 11:0.82000642 12:0.67284897 13:0.78952679 14:0.77654929 15:0.83869601 16:0.85958518 17:0.83967407 18:0.35976344 19:0.29749112 20:0.21790696 21:0.20944034 22:0.65148112 23:0.88573223 24:1 25:1 26:1 27:0.94736825 28:0.40401506 29:0.6479548 30:0.74152972 31:0.80385239 32:0.4763433 33:0.44573272 34:0.63884841 35:0.70369708 36:0.75797296 37:0.4976937 
-4 1:0.91903316 2:0.93746913 3:0.30176058 4:0.43813701 5:0.6121252 6:0.84905623 7:0.70034732 8:0.31337895 9:0.46362202 10:0.64561456 11:0.86096238 12:0.72849526 13:0.89150881 14:0.91181771 15:0.92708198 16:0.90582526 17:0.91903317 18:0.5346542 19:0.44697527 20:0.21790696 21:0.20944034 22:0.86646328 23:0.88573223 24:1 25:1 26:1 27:0.94736825 28:0.60997507 29:0.90512158 30:0.94610057 31:0.95272098 32:0.6969921 33:0.67154873 34:0.89556748 35:0.90363516 36:0.90963178 37:0.72746968 
-2.3010817907480678 1:0.9619198 2:1 3:0.30176058 4:0.43813701 5:0.6121252 6:0.84905623 7:0.70034732 8:0.3902361 9:0.51462701 10:0.67564329 11:0.8768897 12:0.75856218 13:1 14:1 15:0.97320278 16:0.9238117 17:0.96191981 18:0.70709177 19:0.5943626 20:0.21790696 21:0.20944034 22:1 23:0.88573223 24:1 25:1 26:1 27:0.94736825 28:0.90952965 29:1 30:1 31:0.98597537 32:0.95868067 33:1 34:0.99028926 35:0.95632013 36:0.94351301 37:1 
-3.3574340466452361 1:0.51380211 2:0.47145828 3:0.30176058 4:0.43813701 5:0.6121252 6:0.84905623 7:0.70034732 8:0.069203614 9:0.12316008 10:0.32632807 11:0.63599944 12:0.44439503 13:0.54680628 14:0.32321348 15:0.43665289 16:0.65176448 17:0.5138021 18:0.16265659 19:0.12901825 20:0.21790696 21:0.20944034 22:0.29366355 23:0.88573223 24:1 25:1 26:1 27:0.94736825 28:0.17781237 29:0.27961168 30:0.34154094 31:0.42030012 32:0.20991867 33:0.19769908 34:0.2711112 35:0.31273452 36:0.36721704 37:0.22022183 
-4 1:0.88368201 2:0.87646579 3:0.30176058 4:0.43813701 5:0.6121252 6:0.84905623 7:0.70034732 8:0.23875549 9:0.4000843 10:0.62036468 11:0.85649562 12:0.70371406 13:0.7861893 14:0.80201652 15:0.88827337 16:0.90076626 17:0.88368202 18:0.42578507 19:0.35392171 20:0.21790696 21:0.20944034 22:0.76626402 23:0.88573223 24:1 25:1 26:1 27:0.94736825 28:0.47645418 29:0.78634993 30:0.8719822 31:0.90435163 32:0.56498371 33:0.52517489 34:0.77700831 35:0.83119683 36:0.86035886 37:0.59001614 
4 1:0.85190382 2:0.84652704 3:0.30176058 4:0.43813701 5:0.6121252 6:0.84905623 7:0.70034732 8:0.22338709 9:0.38728398 10:0.60059011 11:0.83033815 12:0.68143282 13:0.76447785 14:0.77984711 15:0.85792091 16:0.87124339 17:0.85190383 18:0.38894097 19:0.32242999 20:0.21790696 21:0.20944034 22:0.70669608 23:0.88573223 24:1 25:1 26:1 27:0.94736825 28:0.44452496 29:0.71421679 30:0.80104229 31:0.84923147 32:0.52336088 33:0.49014148 34:0.70499199 35:0.76186049 36:0.80420231 37:0.5466503 
-4 1:0.92129257 2:0.94053492 3:0.30176058 4:0.43813701 5:0.6121252 6:0.84905623 7:0.70034732 8:0.31697338 9:0.46583223 10:0.64726647 11:0.86196179 12:0.73007945 13:0.89657353 14:0.91563616 15:0.92962259 16:0.90695406 17:0.92129259 18:0.54161308 19:0.45292322 20:0.21790696 21:0.20944034 22:0.87355765 23:0.88573223 24:1 25:1 26:1 27:0.94736825 28:0.62204693 29:0.91246207 30:0.95027593 31:0.9552782 32:0.70822875 33:0.68478149 34:0.90289637 35:0.90771687 36:0.91223734 37:0.73916939 
4 1:0.81489283 2:0.8075527 3:0.30176058 4:0.43813701 5:0.6121252 6:0.84905623 7:0.70034732 8:0.21770472 9:0.35951156 10:0.56940112 11:0.80825934 12:0.6554782 13:0.75646314 14:0.73184634 15:0.8099941 16:0.84631813 17:0.81489286 18:0.33325515 19:0.27483373 20:0.21790696 21:0.20944034 22:0.6059689 23:0.88573223 24:1 25:1 26:1 27:0.94736825 28:0.37128409 29:0.59646109 30:0.69176807 31:0.76324365 32:0.43858958 33:0.40984225 34:0.58743799 35:0.65505724 36:0.71660018 37:0.45837371 
4 1:0.91479272 2:0.93134775 3:0.30176058 4:0.43813701 5:0.6121252 6:0.84905623 7:0.70034732 8:0.30758979 9:0.4577929 10:0.64271344 11:0.85941014 12:0.72552204 13:0.88333614 14:0.90174456 15:0.92262468 16:0.90407188 17:0.91479275 18:0.52141062 19:0.4356556 20:0.21790696 21:0.20944034 22:0.85742808 23:0.88573223 24:1 25:1 26:1 27:0.94736825 28:0.59807967 29:0.89424888 30:0.93932364 31:0.94845577 32:0.68517544 33:0.65850574 34:0.88471351 35:0.89701128 36:0.90528624 37:0.71516352 
-3.447229899643355 1:0.47936989 2:0.45141104 3:0.43267905 4:0.47295665 5:0.52403881 6:0.63829882 7:0.5850932 8:0.158379 9:0.14163582 10:0.25597289 11:0.49518621 12:0.35957791 13:0.54935163 14:0.34137407 15:0.38959879 16:0.62319963 17:0.47936989 18:0.20438404 19:0.22542827 20:0.97127114 21:0.95157907 22:0.38194842 23:0.49577849 24:0.51995251 25:0.51921563 26:0.5346089 27:0.52154688 28:0.13647355 29:0.21305914 30:0.25697108 31:0.31955882 32:0.16056159 33:0.24332373 34:0.35786203 35:0.41374632 36:0.47972008 37:0.27513121 
4 1:0.82876966 2:0.80712189 3:0.43267905 4:0.47295665 5:0.52403881 6:0.63829882 7:0.5850932 8:0.26625008 9:0.35340715 10:0.52204114 11:0.68605972 12:0.58123318 13:0.68976858 14:0.68654226 15:0.83763661 16:0.88371622 17:0.82876964 18:0.39475642 19:0.38814499 20:0.97127114 21:0.95157907 22:0.71528792 23:0.49577849 24:0.51995251 25:0.51921563 26:0.5346089 27:0.52154688 28:0.25899885 29:0.44693859 30:0.50841898 31:0.55342791 32:0.3123996 33:0.44353135 34:0.72037285 35:0.79386889 36:0.83965077 37:0.51276273 
-4 1:0.88727345 2:0.89377406 3:0.43267905 4:0.47295665 5:0.52403881 6:0.63829882 7:0.5850932 8:0.36465259 9:0.45137707 10:0.5580457 11:0.69458678 12:0.61841957 13:0.81628346 14:0.84311358 15:0.89859434 16:0.89510624 17:0.88727344 18:0.4862579 19:0.46635393 20:0.97127114 21:0.95157907 22:0.78538948 23:0.49577849 24:0.51995251 25:0.51921563 26:0.5346089 27:0.52154688 28:0.32073056 29:0.50362322 30:0.54342849 31:0.57407543 32:0.37374439 33:0.54333429 34:0.80764566 35:0.8461587 36:0.87075767 37:0.60803541 
4 1:0.79835092 2:0.79187617 3:0.43267905 4:0.47295665 5:0.52403881 6:0.63829882 7:0.5850932 8:0.30199898 9:0.37274122 10:0.49951164 11:0.6517901 12:0.56198016 13:0.7341197 14:0.71186626 15:0.79947132 16:0.83718063 17:0.79835095 18:0.32610973 19:0.32947071 20:0.97127114 21:0.95157907 22:0.55550186 23:0.49577849 24:0.51995251 25:0.51921563 26:0.5346089 27:0.52154688 28:0.20866438 29:0.33325719 30:0.38401329 31:0.43673453 32:0.24595603 33:0.36077566 34:0.54453881 35:0.60638431 36:0.66057149 37:0.40848839 
-4 1:0.90154665 2:0.91589262 3:0.43267905 4:0.47295665 5:0.52403881 6:0.63829882 7:0.5850932 8:0.39673651 9:0.4742041 10:0.56551423 11:0.69701338 12:0.6274784 13:0.85785926 14:0.88073724 15:0.91110324 16:0.89856029 17:0.90154668 18:0.49756164 19:0.47601556 20:0.97127114 21:0.95157907 22:0.79383318 23:0.49577849 24:0.51995251 25:0.51921563 26:0.5346089 27:0.52154688 28:0.33287599 29:0.50771844 30:0.54531558 31:0.57497534 32:0.38437957 33:0.56323803 34:0.81453282 35:0.84961832 36:0.87276225 37:0.62487919 
-4 1:0.60162025 2:0.57543928 3:0.43267905 4:0.47295665 5:0.52403881 6:0.63829882 7:0.5850932 8:0.18154962 9:0.20881309 10:0.3659758 11:0.55646778 12:0.43806937 13:0.57949114 14:0.44883542 15:0.57285433 16:0.70788997 17:0.60162024 18:0.18596796 19:0.20968752 20:0.97127114 21:0.95157907 22:0.44906405 23:0.49577849 24:0.51995251 25:0.51921563 26:0.5346089 27:0.52154688 28:0.16260825 29:0.26557714 30:0.31060758 31:0.36019868 32:0.19329639 33:0.28408336 34:0.43768248 35:0.49362537 36:0.54116329 37:0.32434848 
-4 1:0.79100073 2:0.78910375 3:0.43267905 4:0.47295665 5:0.52403881 6:0.63829882 7:0.5850932 8:0.30597943 9:0.37860362 10:0.49759869 11:0.64289938 12:0.55813593 13:0.73914124 14:0.72051901 15:0.79464542 16:0.82503469 17:0.79100074 18:0.29811581 19:0.3055435 20:0.97127114 21:0.95157907 22:0.62151341 23:0.49577849 24:0.51995251 25:0.51921563 26:0.5346089 27:0.52154688 28:0.23969971 29:0.38694118 30:0.43314683 31:0.47457627 32:0.28264958 33:0.40935658 34:0.62521336 35:0.67823364 36:0.71661961 37:0.46363284 
-4 1:0.76337851 2:0.75236969 3:0.43267905 4:0.47295665 5:0.52403881 6:0.63829882 7:0.5850932 8:0.27991968 9:0.34219542 10:0.47418591 11:0.635842 12:0.53965931 13:0.7055244 14:0.66224061 15:0.75722398 16:0.81576176 17:0.76337853 18:0.29226815 19:0.30054534 20:0.97127114 21:0.95157907 22:0.52091065 23:0.49577849 24:0.51995251 25:0.51921563 26:0.5346089 27:0.52154688 28:0.19545535 29:0.31105167 30:0.35918188 31:0.41091946 32:0.23018351 33:0.33866025 34:0.50958955 35:0.56838595 36:0.62038876 37:0.38321808 
4 1:0.8881356 2:0.89823403 3:0.43267905 4:0.47295665 5:0.52403881 6:0.63829882 7:0.5850932 8:0.38133212 9:0.45760376 10:0.55677523 11:0.6925817 12:0.61890587 13:0.83763542 14:0.85306471 15:0.89649095 16:0.89257012 17:0.88813564 18:0.47769899 19:0.45903839 20:0.97127114 21:0.95157907 22:0.7788951 23:0.49577849 24:0.51995251 25:0.51921563 26:0.5346089 27:0.52154688 28:0.32377091 29:0.49585626 30:0.53627606 31:0.56884343 32:0.37454654 33:0.54787068 34:0.79569047 35:0.83560219 36:0.86304666 37:0.60898293 
-4 1:0.77727082 2:0.75342862 3:0.43267905 4:0.47295665 5:0.52403881 6:0.63829882 7:0.5850932 8:0.24452832 9:0.31451257 10:0.48740753 11:0.65772483 12:0.54840528 13:0.66276018 14:0.6256427 15:0.78084095 16:0.84397369 17:0.77727084 18:0.19545128 19:0.21779319 20:0.97127114 21:0.95157907 22:0.48905073 23:0.49577849 24:0.51995251 25:0.51921563 26:0.5346089 27:0.52154688 28:0.17714842 29:0.2893798 30:0.33880352 31:0.39330556 32:0.2106351 33:0.30915278 34:0.47547746 35:0.53653828 36:0.59189386 37:0.35281439 
4 1:0.92718425 2:0.91792776 3:0.43267905 4:0.47295665 5:0.52403881 6:0.63829882 7:0.5850932 8:0.32279844 9:0.44165886 10:0.58702208 11:0.73407231 12:0.64361169 13:0.76425781 14:0.83252845 15:0.94808821 16:0.94817751 17:0.92718428 18:0.24925772 19:0.26378309 20:0.97127114 21:0.95157907 22:0.79027262 23:0.49577849 24:0.51995251 25:0.51921563 26:0.5346089 27:0.52154688 28:0.30501786 29:0.50867906 30:0.55441386 31:0.58823084 32:0.36245334 33:0.5179346 34:0.81523906 35:0.86267878 36:0.89265827 37:0.5903437 
-4 1:0.33431967 2:0.33913592 3:0.43267905 4:0.47295665 5:0.52403881 6:0.63829882 7:0.5850932 8:0.14793952 9:0.12504265 10:0.19103949 11:0.35993736 12:0.26833164 13:0.53602908 14:0.31392175 15:0.27933964 16:0.43756564 17:0.33431965 18:0.044206344 19:0.088519805 20:0.97127114 21:0.95157907 22:0.18929642 23:0.49577849 24:0.51995251 25:0.51921563 26:0.5346089 27:0.52154688 28:0.08240656 29:0.10758674 30:0.11513943 31:0.13608932 32:0.091054762 33:0.15344023 34:0.19292755 35:0.19752647 36:0.19423938 37:0.16479334 
4 1:0.83319829 2:0.82412632 3:0.43267905 4:0.47295665 5:0.52403881 6:0.63829882 7:0.5850932 8:0.30247417 9:0.38584671 10:0.52393472 11:0.67543089 12:0.58381492 13:0.73562615 14:0.7366751 15:0.84137571 16:0.86941952 17:0.83319829 18:0.3732022 19:0.36972199 20:0.97127114 21:0.95157907 22:0.70058017 23:0.49577849 24:0.51995251 25:0.51921563 26:0.5346089 27:0.52154688 28:0.26669447 29:0.44014503 30:0.49071775 31:0.53162259 32:0.31653406 33:0.45553141 34:0.70974439 35:0.76717217 36:0.8061773 37:0.51882325 
-4 1:0.70364387 2:0.69438613 3:0.43267905 4:0.47295665 5:0.52403881 6:0.63829882 7:0.5850932 8:0.26439538 9:0.30953077 10:0.42986038 11:0.60055796 12:0.50156979 13:0.68610072 14:0.61147867 15:0.68361528 16:0.76811129 17:0.7036439 18:0.27297361 19:0.28405374 20:0.97127114 21:0.95157907 22:0.47326668 23:0.49577849 24:0.51995251 25:0.51921563 26:0.5346089 27:0.52154688 28:0.16924678 29:0.2801226 30:0.32876899 31:0.38252947 32:0.2021294 33:0.29446115 34:0.4604866 35:0.52123784 36:0.5753815 37:0.33794536 
-4 1:0.51583772 2:0.50016815 3:0.43267905 4:0.47295665 5:0.52403881 6:0.63829882 7:0.5850932 8:0.17413875 9:0.17804208 10:0.310476 11:0.49344191 12:0.38337025 13:0.57054851 14:0.39990793 15:0.4793612 16:0.62424844 17:0.51583774 18:0.12527125 19:0.1578083 20:0.97127114 21:0.95157907 22:0.33977052 23:0.49577849 24:0.51995251 25:0.51921563 26:0.5346089 27:0.52154688 28:0.12591528 29:0.19410087 30:0.22730883 31:0.27150664 32:0.14705525 33:0.22495919 34:0.32810874 35:0.36915528 36:0.40637771 37:0.25293499 
4 1:0.78885545 2:0.76970143 3:0.43267905 4:0.47295665 5:0.52403881 6:0.63829882 7:0.5850932 8:0.27154854 9:0.33933789 10:0.48638137 11:0.66206525 12:0.55568384 13:0.69556995 14:0.66048644 15:0.77782373 16:0.85095202 17:0.78885546 18:0.34029246 19:0.34159309 20:0.97127114 21:0.95157907 22:0.65789811 23:0.49577849 24:0.51995251 25:0.51921563 26:0.5346089 27:0.52154688 28:0.23853139 29:0.40113407 30:0.4633314 31:0.5208973 32:0.28583749 33:0.40964222 34:0.64918416 35:0.7254971 36:0.78919274 37:0.47083715 
4 1:0.80509855 2:0.80073096 3:0.43267905 4:0.47295665 5:0.52403881 6:0.63829882 7:0.5850932 8:0.31043458 9:0.38042166 10:0.50325414 11:0.65455476 12:0.56626849 13:0.74517087 14:0.72561983 15:0.80605074 16:0.84055525 17:0.80509857 18:0.33660797 19:0.33844385 20:0.97127114 21:0.95157907 22:0.57537853 23:0.49577849 24:0.51995251 25:0.51921563 26:0.5346089 27:0.52154688 28:0.21954808 29:0.34752598 30:0.39771325 31:0.44870133 32:0.25789329 33:0.37849574 34:0.56628052 35:0.62652895 36:0.67832416 37:0.42706107 
-4 1:0.90125578 2:0.91577925 3:0.43267905 4:0.47295665 5:0.52403881 6:0.63829882 7:0.5850932 8:0.3977676 9:0.47360607 10:0.56558341 11:0.69668995 12:0.62729778 13:0.8593074 14:0.8799288 15:0.91124728 16:0.89811974 17:0.90125578 18:0.50154823 19:0.47942301 20:0.97127114 21:0.95157907 22:0.79795905 23:0.49577849 24:0.51995251 25:0.51921563 26:0.5346089 27:0.52154688 28:0.33789246 29:0.51061646 30:0.54705953 31:0.57607581 32:0.38902394 33:0.57111398 34:0.81868494 35:0.85197075 36:0.87422098 37:0.63182646 
4 1:0.78083636 2:0.77212187 3:0.43267905 4:0.47295665 5:0.52403881 6:0.63829882 7:0.5850932 8:0.287977 9:0.35497048 10:0.48796835 11:0.64417419 12:0.55079882 13:0.71679943 14:0.68640025 15:0.7809256 16:0.82596512 17:0.78083638 18:0.3156783 19:0.32055467 20:0.97127114 21:0.95157907 22:0.53593588 23:0.49577849 24:0.51995251 25:0.51921563 26:0.5346089 27:0.52154688 28:0.20053414 29:0.32012324 30:0.37048654 31:0.42409068 32:0.236445 33:0.34772051 34:0.52355329 35:0.58486279 36:0.63971834 37:0.39365032 
-4 1:0.89877796 2:0.9127779 3:0.43267905 4:0.47295665 5:0.52403881 6:0.63829882 7:0.5850932 8:0.39365059 9:0.47177355 10:0.5636874 11:0.69572932 12:0.62568707 13:0.85416206 14:0.8773505 15:0.90820888 16:0.89669634 17:0.89877794 18:0.49654013 19:0.47514245 20:0.97127114 21:0.95157907 22:0.78915285 23:0.49577849 24:0.51995251 25:0.51921563 26:0.5346089 27:0.52154688 28:0.32956581 29:0.5044158 30:0.54280441 31:0.57323785 32:0.38101283 33:0.55783245 34:0.80906752 35:0.84542572 36:0.86969038 37:0.61951898 
-4 1:0.9619198 2:1 3:0.43267905 4:0.47295665 5:0.52403881 6:0.63829882 7:0.5850932 8:0.50456559 9:0.54470643 10:0.60198186 11:0.71543884 12:0.665699 13:1 14:1 15:0.97320278 16:0.9238117 17:0.96191981 18:0.7135139 19:0.66059615 20:0.97127114 21:0.95157907 22:0.99999869 23:0.49577849 24:0.51995251 25:0.51921563 26:0.5346089 27:0.52154688 28:0.60078682 29:0.62125534 30:0.61606965 31:0.62105458 32:0.62438127 33:0.99999953 34:0.99028819 35:0.95631833 36:0.94351119 37:0.99999916 
4 1:0.49986573 2:0.460043 3:0.43267905 4:0.47295665 5:0.52403881 6:0.63829882 7:0.5850932 8:0.094996985 9:0.13429402 10:0.28593426 11:0.5104676 12:0.37241928 13:0.46766774 14:0.33201827 15:0.44231332 16:0.64220314 17:0.49986576 18:0.18751463 19:0.21100951 20:0.97127114 21:0.95157907 22:0.3220296 23:0.49577849 24:0.51995251 25:0.51921563 26:0.5346089 27:0.52154688 28:0.1150873 29:0.18111256 30:0.21560187 31:0.26498222 32:0.13551967 33:0.20776438 34:0.30757232 35:0.35018892 36:0.3942026 37:0.23526613 
4 1:0.78960615 2:0.76216355 3:0.43267905 4:0.47295665 5:0.52403881 6:0.63829882 7:0.5850932 8:0.22202687 9:0.31683053 10:0.50478676 11:0.66388604 12:0.55634357 13:0.63277666 14:0.62887978 15:0.80915971 16:0.85324897 17:0.78960615 18:0.34146407 19:0.3425945 20:0.97127114 21:0.95157907 22:0.61863745 23:0.49577849 24:0.51995251 25:0.51921563 26:0.5346089 27:0.52154688 28:0.21728786 29:0.37859372 30:0.4377473 31:0.49109581 32:0.26341597 33:0.37531489 34:0.614447 35:0.68702417 36:0.74353334 37:0.43598832 
-4 1:0.75477446 2:0.73309539 3:0.43267905 4:0.47295665 5:0.52403881 6:0.63829882 7:0.5850932 8:0.22977817 9:0.30977832 10:0.48011088 11:0.63698235 12:0.53423765 13:0.64293828 14:0.61464954 15:0.7672897 16:0.81669139 17:0.75477447 18:0.30493527 19:0.31137229 20:0.97127114 21:0.95157907 22:0.53418148 23:0.49577849 24:0.51995251 25:0.51921563 26:0.5346089 27:0.52154688 28:0.1952575 29:0.32166182 30:0.37141422 31:0.42346106 32:0.23245559 33:0.33838173 34:0.52561134 35:0.58628546 36:0.63903812 37:0.38667032 
-4 1:0.89320704 2:0.90529213 3:0.43267905 4:0.47295665 5:0.52403881 6:0.63829882 7:0.5850932 8:0.38686508 9:0.46491037 10:0.56023529 11:0.69380061 12:0.62212623 13:0.84507464 14:0.86539358 15:0.90235641 16:0.89424549 17:0.89320707 18:0.48971332 19:0.46930737 20:0.97127114 21:0.95157907 22:0.78859144 23:0.49577849 24:0.51995251 25:0.51921563 26:0.5346089 27:0.52154688 28:0.33089475 29:0.50366297 30:0.54180932 31:0.57245886 32:0.38191446 33:0.55951095 34:0.8077412 35:0.84391781 36:0.86856662 37:0.62051356 
-4 1:0.80400054 2:0.79817085 3:0.43267905 4:0.47295665 5:0.52403881 6:0.63829882 7:0.5850932 8:0.30486417 9:0.37595867 10:0.50253825 11:0.65553512 12:0.56549559 13:0.73857962 14:0.71981735 15:0.80526444 16:0.84143561 17:0.80400055 18:0.34046873 19:0.34174375 20:0.97127114 21:0.95157907 22:0.57394103 23:0.49577849 24:0.51995251 25:0.51921563 26:0.5346089 27:0.52154688 28:0.21654792 29:0.34598936 30:0.39786308 31:0.45033108 32:0.25522227 33:0.37398027 34:0.56378851 35:0.62633425 36:0.6801492 37:0.42317468 
-4 1:0.90057132 2:0.91370193 3:0.43267905 4:0.47295665 5:0.52403881 6:0.63829882 7:0.5850932 8:0.39115631 9:0.47054477 10:0.56514406 11:0.69761711 12:0.62676408 13:0.85101799 14:0.87599276 15:0.91091226 16:0.89922853 17:0.90057135 18:0.50676269 19:0.48387996 20:0.97127114 21:0.95157907 22:0.80718214 23:0.49577849 24:0.51995251 25:0.51921563 26:0.5346089 27:0.52154688 28:0.34155041 29:0.51779789 30:0.55371359 31:0.58166333 32:0.39354084 33:0.57758614 34:0.82983766 35:0.86189004 36:0.88263699 37:0.63927481 
-4 1:0.47506334 2:0.39351579 3:0.76722357 4:0.85900589 5:0.80240746 6:0.73005217 7:0.80952942 8:0.065495213 9:0.18611361 10:0.41452159 11:0.61538032 12:0.47325052 13:0.1621257 14:0.17794102 15:0.43763819 16:0.71090587 17:0.47506336 18:0.21246985 19:0.22419619 20:0.17156207 21:0.1578049 22:0.41388612 23:0.57464839 24:0.51136193 25:0.47499021 26:0.4554814 27:0.58193462 28:0.094967272 29:0.2176798 30:0.2883677 31:0.36089904 32:0.1293963 33:0.15511844 34:0.36929086 35:0.49170118 36:0.61033367 37:0.20716213 
-4 1:0.87482831 2:0.86492436 3:0.76722357 4:0.85900589 5:0.80240746 6:0.73005217 7:0.80952942 8:0.50407643 9:0.70643202 10:0.78561824 11:0.77112241 12:0.77980082 13:0.66471964 14:0.79605833 15:0.91051307 16:0.90548748 17:0.87482833 18:0.42557348 19:0.40634197 20:0.17156207 21:0.1578049 22:0.76899817 23:0.57464839 24:0.51136193 25:0.47499021 26:0.4554814 27:0.58193462 28:0.26252104 29:0.51092182 30:0.53143517 31:0.53255291 32:0.32681614 33:0.40428756 34:0.82838805 35:0.8780325 36:0.89904684 37:0.49578348 
-4 1:0.91175675 2:0.9236277 3:0.76722357 4:0.85900589 5:0.80240746 6:0.73005217 7:0.80952942 8:0.62538522 9:0.79051202 10:0.80439596 11:0.77523157 12:0.8080872 13:0.80371459 14:0.89585401 15:0.93446005 16:0.91069992 17:0.91175677 18:0.47249792 19:0.44644963 20:0.17156207 21:0.1578049 22:0.78988744 23:0.57464839 24:0.51136193 25:0.47499021 26:0.4554814 27:0.58193462 28:0.30738058 29:0.51913375 30:0.53215189 31:0.53184114 32:0.36462687 33:0.47076955 34:0.84108683 35:0.8790959 36:0.89780705 37:0.55085739 
-4 1:0.83934435 2:0.83904155 3:0.76722357 4:0.85900589 5:0.80240746 6:0.73005217 7:0.80952942 8:0.53093437 9:0.70594323 10:0.74623308 11:0.7391855 12:0.75246315 13:0.69558894 14:0.79560385 15:0.86043964 16:0.86564212 17:0.83934434 18:0.32613671 19:0.32135051 20:0.17156207 21:0.1578049 22:0.54041629 23:0.57464839 24:0.51136193 25:0.47499021 26:0.4554814 27:0.58193462 28:0.17239701 29:0.32019275 30:0.3700591 31:0.41175363 32:0.21347838 33:0.27029875 34:0.52992205 35:0.62168637 36:0.69593973 37:0.33014537 
-4 1:0.92419496 2:0.94604943 3:0.76722357 4:0.85900589 5:0.80240746 6:0.73005217 7:0.80952942 8:0.68526048 9:0.82091953 10:0.80911342 11:0.77488787 12:0.81757265 13:0.87236606 14:0.93204526 15:0.94051989 16:0.91026867 17:0.92419498 18:0.49478818 19:0.46550176 20:0.17156207 21:0.1578049 22:0.80923509 23:0.57464839 24:0.51136193 25:0.47499021 26:0.4554814 27:0.58193462 28:0.33768337 29:0.52826397 30:0.53723882 31:0.53513909 32:0.39100424 33:0.51622477 34:0.85566974 35:0.8873529 36:0.90346323 37:0.589792 
-4 1:0.58241637 2:0.51805872 3:0.76722357 4:0.85900589 5:0.80240746 6:0.73005217 7:0.80952942 8:0.16194366 9:0.3167374 10:0.53571912 11:0.64834326 12:0.55566192 13:0.27264383 14:0.33301587 15:0.5918016 16:0.75210795 17:0.5824164 18:0.22070496 19:0.23123497 20:0.17156207 21:0.1578049 22:0.37686931 23:0.57464839 24:0.51136193 25:0.47499021 26:0.4554814 27:0.58193462 28:0.096662853 29:0.20518458 30:0.25729718 31:0.31386301 32:0.12687959 33:0.15754732 34:0.3494303 35:0.4418962 36:0.53067662 37:0.20334821 
3.9410268394258821 1:0.85392772 2:0.85868776 3:0.76722357 4:0.85900589 5:0.80240746 6:0.73005217 7:0.80952942 8:0.56738231 9:0.72618472 10:0.75607899 11:0.74471171 12:0.76363568 13:0.7373383 14:0.81961847 15:0.87298091 16:0.87258385 17:0.85392773 18:0.34501843 19:0.33748925 20:0.17156207 21:0.1578049 22:0.5843357 23:0.57464839 24:0.51136193 25:0.47499021 26:0.4554814 27:0.58193462 28:0.19073769 29:0.35129463 30:0.40120577 31:0.43907373 32:0.23519669 33:0.29754654 34:0.57862986 35:0.67125244 36:0.74198801 37:0.36187915 
-4 1:0.92365787 2:0.94534372 3:0.76722357 4:0.85900589 5:0.80240746 6:0.73005217 7:0.80952942 8:0.68673247 9:0.81837171 10:0.80850321 11:0.77514657 12:0.8171605 13:0.87403559 14:0.92899998 15:0.93977962 16:0.9105964 17:0.92365791 18:0.50627146 19:0.47531685 20:0.17156207 21:0.1578049 22:0.82679326 23:0.57464839 24:0.51136193 25:0.47499021 26:0.4554814 27:0.58193462 28:0.36037747 29:0.54020632 30:0.54327519 31:0.53841527 32:0.41172296 33:0.54988315 34:0.87431246 35:0.89692526 36:0.90896551 37:0.62000453 
-4 1:0.93877924 2:0.91159892 3:0.76722357 4:0.85900589 5:0.80240746 6:0.73005217 7:0.80952942 8:0.44790815 9:0.72063524 10:0.84399426 11:0.83325058 12:0.82896203 13:0.60035234 14:0.81278445 15:0.98465715 16:0.98324294 17:0.93877931 18:0.21129335 19:0.2231906 20:0.17156207 21:0.1578049 22:0.81188726 23:0.57464839 24:0.51136193 25:0.47499021 26:0.4554814 27:0.58193462 28:0.26249242 29:0.54882772 30:0.56576226 31:0.56554383 32:0.33497276 33:0.40406949 34:0.88746262 35:0.93248546 36:0.95454136 37:0.50751823 
-4 1:0.20538943 2:0.1578323 3:0.76722357 4:0.85900589 5:0.80240746 6:0.73005217 7:0.80952942 8:0.034044962 9:0.078529311 10:0.20762315 11:0.37279652 12:0.26654059 13:0.1260954 14:0.050266205 15:0.17412728 16:0.4068753 17:0.20538946 18:0.055921539 19:0.090389864 20:0.17156207 21:0.1578049 22:0.15286705 23:0.57464839 24:0.51136193 25:0.47499021 26:0.4554814 27:0.58193462 28:0.046810679 29:0.073790634 30:0.086446691 31:0.11813256 32:0.055079831 33:0.083504635 34:0.14388853 35:0.17038069 36:0.20121702 37:0.098486159 
-4 1:0.86478045 2:0.86392129 3:0.76722357 4:0.85900589 5:0.80240746 6:0.73005217 7:0.80952942 8:0.54472912 9:0.72008051 10:0.77088422 11:0.75633926 12:0.77204002 13:0.71138531 14:0.81224036 15:0.89171653 16:0.88711746 17:0.8647805 18:0.35109931 19:0.34268676 20:0.17156207 21:0.1578049 22:0.69225693 23:0.57464839 24:0.51136193 25:0.47499021 26:0.4554814 27:0.58193462 28:0.22397357 29:0.44787642 30:0.48137854 31:0.49478456 32:0.28240522 33:0.34694599 34:0.72977927 35:0.79858266 36:0.83558881 37:0.43085986 
-4 1:0.85353822 2:0.85214133 3:0.76722357 4:0.85900589 5:0.80240746 6:0.73005217 7:0.80952942 8:0.5350167 9:0.71309931 10:0.75866916 11:0.75056413 12:0.7635363 13:0.70010604 14:0.80384685 15:0.87598859 16:0.87978558 17:0.85353827 18:0.38002947 19:0.3674142 20:0.17156207 21:0.1578049 22:0.66036796 23:0.57464839 24:0.51136193 25:0.47499021 26:0.4554814 27:0.58193462 28:0.21483583 29:0.41215951 30:0.45859224 31:0.48441911 32:0.26789638 33:0.33309303 34:0.67349819 35:0.76210715 36:0.81799127 37:0.40937023 
-4 1:0.6283114 2:0.57317967 3:0.76722357 4:0.85900589 5:0.80240746 6:0.73005217 7:0.80952942 8:0.20126649 9:0.38323631 10:0.58628234 11:0.65788841 12:0.58988436 13:0.31778487 14:0.41237363 15:0.65772736 16:0.76578858 17:0.62831142 18:0.18367662 19:0.19958579 20:0.17156207 21:0.1578049 22:0.42332098 23:0.57464839 24:0.51136193 25:0.47499021 26:0.4554814 27:0.58193462 28:0.10827059 29:0.23985737 30:0.29358681 31:0.34296889 32:0.14397003 33:0.17514269 34:0.40466351 35:0.50074559 36:0.58088917 37:0.22879681 
-4 1:0.80046031 2:0.7823156 3:0.76722357 4:0.85900589 5:0.80240746 6:0.73005217 7:0.80952942 8:0.44637492 9:0.62003412 10:0.71721395 11:0.73531217 12:0.72255957 13:0.59866032 14:0.69357778 15:0.82366331 16:0.86106296 17:0.80046032 18:0.30736182 19:0.30530308 20:0.17156207 21:0.1578049 22:0.62431116 23:0.57464839 24:0.51136193 25:0.47499021 26:0.4554814 27:0.58193462 28:0.18251095 29:0.38746154 30:0.43838139 31:0.47128987 32:0.23651607 33:0.28540386 34:0.63535668 35:0.73035082 36:0.79612796 37:0.36389416 
4 1:0.86992879 2:0.87784145 3:0.76722357 4:0.85900589 5:0.80240746 6:0.73005217 7:0.80952942 8:0.58748276 9:0.74750605 10:0.76973737 11:0.75145334 12:0.77597844 13:0.76036754 14:0.84489858 15:0.89032126 16:0.88091606 17:0.86992881 18:0.37469203 19:0.36285213 20:0.17156207 21:0.1578049 22:0.62892191 23:0.57464839 24:0.51136193 25:0.47499021 26:0.4554814 27:0.58193462 28:0.21659682 29:0.38488205 30:0.43013811 31:0.46095058 32:0.2632874 33:0.33597415 34:0.63111711 35:0.7171198 36:0.77866599 37:0.40290722 
-4 1:0.85985059 2:0.86672517 3:0.76722357 4:0.85900589 5:0.80240746 6:0.73005217 7:0.80952942 8:0.5816698 9:0.73476314 10:0.76059662 11:0.74649329 12:0.76814667 13:0.75373474 14:0.82987415 15:0.87876551 16:0.87480341 17:0.85985058 18:0.35507454 19:0.3460845 20:0.17156207 21:0.1578049 22:0.59256343 23:0.57464839 24:0.51136193 25:0.47499021 26:0.4554814 27:0.58193462 28:0.19723401 29:0.35789854 30:0.40581021 31:0.44160237 32:0.24180208 33:0.30729456 34:0.58906194 35:0.67862644 36:0.74626694 37:0.37162393 
-2.9387784738396809 1:0.92341716 2:0.94505947 3:0.76722357 4:0.85900589 5:0.80240746 6:0.73005217 7:0.80952942 8:0.68376396 9:0.81990774 10:0.80844454 11:0.77465298 12:0.81699365 13:0.87064872 14:0.93082583 15:0.93965642 16:0.90996709 17:0.92341717 18:0.50909622 19:0.47773125 20:0.17156207 21:0.1578049 22:0.82791718 23:0.57464839 24:0.51136193 25:0.47499021 26:0.4554814 27:0.58193462 28:0.3592236 29:0.54217836 30:0.54457078 31:0.53911265 32:0.41118131 33:0.54817176 34:0.87733985 35:0.89893739 36:0.91010642 37:0.61920389 
4 1:0.9619198 2:1 3:0.76722357 4:0.85900589 5:0.80240746 6:0.73005217 7:0.80952942 8:0.79671921 9:0.87820032 10:0.83476507 11:0.78572655 12:0.84653299 13:1 14:1 15:0.97320278 16:0.9238117 17:0.96191981 18:0.62303614 19:0.57511896 20:0.17156207 21:0.1578049 22:0.99999884 23:0.57464839 24:0.51136193 25:0.47499021 26:0.4554814 27:0.58193462 28:0.66323128 29:0.61447763 30:0.58075386 31:0.55900987 32:0.67178972 33:0.99999939 34:0.99028822 35:0.95631875 36:0.94351148 37:0.99999903 
4 1:0.46478801 2:0.38842925 3:0.76722357 4:0.85900589 5:0.80240746 6:0.73005217 7:0.80952942 8:0.068803443 9:0.18799763 10:0.42972093 11:0.58978018 12:0.46609256 13:0.16585385 14:0.17989338 15:0.45547494 16:0.67787901 17:0.46478802 18:0.16118596 19:0.18036238 20:0.17156207 21:0.1578049 22:0.27100621 23:0.57464839 24:0.51136193 25:0.47499021 26:0.4554814 27:0.58193462 28:0.068813192 29:0.13743112 30:0.17683274 31:0.23054029 32:0.088617609 33:0.11617635 34:0.24346011 35:0.31406054 36:0.39046083 37:0.14746422 
-4 1:0.85455421 2:0.84842026 3:0.76722357 4:0.85900589 5:0.80240746 6:0.73005217 7:0.80952942 8:0.50873787 9:0.70578931 10:0.76084199 11:0.75575825 12:0.76423868 13:0.67006609 14:0.79532315 15:0.87890885 16:0.88625376 17:0.85455427 18:0.3577012 19:0.34832959 20:0.17156207 21:0.1578049 22:0.62609409 23:0.57464839 24:0.51136193 25:0.47499021 26:0.4554814 27:0.58193462 28:0.19074364 29:0.3832106 30:0.43772373 31:0.47321743 32:0.24246962 33:0.29749589 34:0.62832446 35:0.72895795 36:0.79910132 37:0.37240584 
4 1:0.91466958 2:0.93418522 3:0.76722357 4:0.85900589 5:0.80240746 6:0.73005217 7:0.80952942 8:0.66879432 9:0.80857366 10:0.80147895 11:0.7710127 12:0.81027695 13:0.8534979 14:0.917384 15:0.93080665 16:0.90539387 17:0.91466961 18:0.48299821 19:0.45542453 20:0.17156207 21:0.1578049 22:0.79820418 23:0.57464839 24:0.51136193 25:0.47499021 26:0.4554814 27:0.58193462 28:0.3285072 29:0.51908761 30:0.53164843 31:0.53183398 32:0.38174014 33:0.50248613 34:0.84125451 35:0.87843877 36:0.89788119 37:0.57616378 
0.85595566508998833 1:0.35024442 2:0.30586788 3:0.63356698 4:0.88321994 5:1 6:1 7:1 8:0.16263636 9:0.16649459 10:0.32864123 11:0.64182096 12:0.46000331 13:0.37324 14:0.14558977 15:0.24770838 16:0.57220135 17:0.35024445 18:0.089761706 19:0.12420788 20:0.85489872 21:1 22:0.19270862 23:0.87614626 24:0.8599869 25:0.79914769 26:0.75406738 27:0.90469145 28:0.062855111 29:0.1361409 30:0.19564178 31:0.28438496 32:0.084909351 33:0.072706229 34:0.15183478 35:0.21939598 36:0.31439277 37:0.094847736 
4 1:0.80871491 2:0.78054683 3:0.63356698 4:0.88321994 5:1 6:1 7:1 8:0.38026558 9:0.60401021 10:0.85336182 11:0.94566944 12:0.86485355 13:0.6368841 14:0.65597658 15:0.81470688 16:0.87663258 17:0.80871492 18:0.28035388 19:0.28711248 20:0.85489872 21:1 22:0.62843141 23:0.87614626 24:0.8599869 25:0.79914769 26:0.75406738 27:0.90469145 28:0.28137081 29:0.55531497 30:0.64098216 31:0.67729693 32:0.35566832 33:0.31431663 34:0.6186942 35:0.7291607 36:0.80028747 37:0.3866234 
-4 1:0.91068973 2:0.92321495 3:0.63356698 4:0.88321994 5:1 6:1 7:1 8:0.54285823 9:0.80804746 10:0.95594481 11:0.97473755 12:0.95470963 13:0.83387514 14:0.89391512 15:0.92566886 16:0.90599007 17:0.91068975 18:0.44163886 19:0.42496737 20:0.85489872 21:1 22:0.79543908 23:0.87614626 24:0.8599869 25:0.79914769 26:0.75406738 27:0.90469145 28:0.48053835 29:0.74044587 30:0.75741534 31:0.74612224 32:0.55413459 33:0.53466841 34:0.82493436 35:0.86261855 36:0.88557935 37:0.60066957 
-4 1:0.36637435 2:0.31890068 3:0.63356698 4:0.88321994 5:1 6:1 7:1 8:0.14777883 9:0.17209832 10:0.36445852 11:0.64767701 12:0.47477512 13:0.35521786 14:0.15211543 15:0.28588614 16:0.57696118 17:0.36637435 18:0.07501148 19:0.11160044 20:0.85489872 21:1 22:0.20032102 23:0.87614626 24:0.8599869 25:0.79914769 26:0.75406738 27:0.90469145 28:0.076341369 29:0.15136528 30:0.2057032 31:0.27576481 32:0.098752236 33:0.087409297 34:0.1680072 35:0.22961702 36:0.30198598 37:0.10944686 
4 1:0.35113026 2:0.3608577 3:0.63356698 4:0.88321994 5:1 6:1 7:1 8:0.2338437 9:0.32739462 10:0.43862412 11:0.51180072 12:0.4619987 13:0.45916304 14:0.33290966 15:0.36524972 16:0.43945119 17:0.35113028 18:0.010755584 19:0.056679088 20:0.85489872 21:1 22:0.17549874 23:0.87614626 24:0.8599869 25:0.79914769 26:0.75406738 27:0.90469145 28:0.096722741 29:0.16007299 30:0.17558792 31:0.19560614 32:0.11467511 33:0.11029689 34:0.17818277 35:0.1952913 36:0.20241281 37:0.12699389 
-4 1:0.78506105 2:0.76949385 3:0.63356698 4:0.88321994 5:1 6:1 7:1 8:0.39966474 9:0.6231618 10:0.8295919 11:0.90937612 12:0.84330998 13:0.66036407 14:0.67864643 15:0.78982226 16:0.84081752 17:0.78506105 18:0.2368862 19:0.2499594 20:0.85489872 21:1 22:0.49696696 23:0.87614626 24:0.8599869 25:0.79914769 26:0.75406738 27:0.90469145 28:0.23371925 29:0.42582339 30:0.49752745 31:0.54979432 32:0.28782644 33:0.26201762 34:0.47548858 35:0.56610027 36:0.64364887 37:0.31402497 
4 1:0.90151364 2:0.91218198 3:0.63356698 4:0.88321994 5:1 6:1 7:1 8:0.53447665 9:0.79466142 10:0.9453402 11:0.97047065 12:0.94649996 13:0.82370458 14:0.87835096 15:0.91434405 16:0.90182633 17:0.90151368 18:0.42325828 19:0.40925696 20:0.85489872 21:1 22:0.77903823 23:0.87614626 24:0.8599869 25:0.79914769 26:0.75406738 27:0.90469145 28:0.46293387 29:0.72048738 30:0.74487867 31:0.7392738 32:0.535883 33:0.5154805 34:0.80307031 35:0.84852404 36:0.87727155 37:0.58129603 
-4 1:0.66826998 2:0.62090832 3:0.63356698 4:0.88321994 5:1 6:1 7:1 8:0.26901163 9:0.42856095 10:0.70207105 11:0.86665984 12:0.74176153 13:0.50198716 14:0.45074829 15:0.65007715 16:0.79653099 17:0.66826996 18:0.11980326 19:0.14988526 20:0.85489872 21:1 22:0.29507747 23:0.87614626 24:0.8599869 25:0.79914769 26:0.75406738 27:0.90469145 28:0.117091 29:0.23225918 30:0.30229962 31:0.37772883 32:0.15056721 33:0.13237342 34:0.25794956 35:0.34010338 36:0.4281643 37:0.16517549 
-4 1:0.90734072 2:0.89558129 3:0.63356698 4:0.88321994 5:1 6:1 7:1 8:0.45996661 9:0.74361735 10:0.9548716 11:1 12:0.95193758 13:0.73343813 14:0.81861659 15:0.92438333 16:0.93129582 17:0.90734073 18:0.24094858 19:0.25343164 20:0.85489872 21:1 22:0.71698539 23:0.87614626 24:0.8599869 25:0.79914769 26:0.75406738 27:0.90469145 28:0.364216 29:0.65659674 30:0.7093555 31:0.72602178 32:0.44336531 33:0.40578186 34:0.73158851 35:0.80774153 36:0.86091858 37:0.4810412 
-4 1:0.82592085 2:0.815467 3:0.63356698 4:0.88321994 5:1 6:1 7:1 8:0.43345392 9:0.67134151 10:0.87380089 11:0.93472166 12:0.87995423 13:0.70133352 14:0.73443907 15:0.83686742 16:0.86584063 17:0.82592087 18:0.29460271 19:0.29929136 20:0.85489872 21:1 22:0.63522919 23:0.87614626 24:0.8599869 25:0.79914769 26:0.75406738 27:0.90469145 28:0.31278322 29:0.57226336 30:0.63391505 31:0.65982485 32:0.38354943 33:0.34900259 34:0.6377571 35:0.72134348 36:0.77888456 37:0.41666696 
-4 1:0.78088161 2:0.76378701 3:0.63356698 4:0.88321994 5:1 6:1 7:1 8:0.40072064 9:0.61313288 10:0.81941388 11:0.91190816 12:0.83963596 13:0.66167133 14:0.66700431 15:0.77882147 16:0.84318821 17:0.78088164 18:0.25726582 19:0.26737845 20:0.85489872 21:1 22:0.54339603 23:0.87614626 24:0.8599869 25:0.79914769 26:0.75406738 27:0.90469145 28:0.25076016 29:0.47115026 30:0.54688912 31:0.59566501 32:0.31184465 33:0.28096381 34:0.5259046 35:0.62234521 36:0.70001533 37:0.33997924 
-4 1:0.60656624 2:0.56929763 3:0.63356698 4:0.88321994 5:1 6:1 7:1 8:0.26199986 9:0.40552046 10:0.64502107 11:0.80073328 12:0.68640889 13:0.49361951 14:0.42423104 15:0.58963106 16:0.73149282 17:0.60656623 18:0.10383378 19:0.13623569 20:0.85489872 21:1 22:0.32589285 23:0.87614626 24:0.8599869 25:0.79914769 26:0.75406738 27:0.90469145 28:0.12916312 29:0.2667778 30:0.3368011 31:0.39704308 32:0.16783103 33:0.14598244 34:0.29756987 35:0.38136476 36:0.45401165 37:0.1842105 
-4 1:0.78020232 2:0.76081116 3:0.63356698 4:0.88321994 5:1 6:1 7:1 8:0.39782058 9:0.60500921 10:0.81544428 11:0.91767202 12:0.83969599 13:0.65816303 14:0.65704361 15:0.77380669 16:0.84855166 17:0.78020232 18:0.23201974 19:0.2457999 20:0.85489872 21:1 22:0.55400641 23:0.87614626 24:0.8599869 25:0.79914769 26:0.75406738 27:0.90469145 28:0.24519867 29:0.47761365 30:0.560319 31:0.61879547 32:0.30922413 33:0.27433032 34:0.53240595 35:0.63703701 36:0.72793618 37:0.33661904 
-1.2352466740330146 1:0.81332181 2:0.80452572 3:0.63356698 4:0.88321994 5:1 6:1 7:1 8:0.43169197 9:0.66698709 10:0.85892254 11:0.92371671 12:0.86884413 13:0.69918358 14:0.72936873 15:0.82076234 16:0.85471942 17:0.81332182 18:0.27101462 19:0.27912995 20:0.85489872 21:1 22:0.55321548 23:0.87614626 24:0.8599869 25:0.79914769 26:0.75406738 27:0.90469145 28:0.27550369 29:0.48288928 30:0.549983 31:0.5927507 32:0.33400515 33:0.3077708 34:0.53794698 35:0.6249739 36:0.69569034 37:0.36322716 
-4 1:0.90882003 2:0.92192268 3:0.63356698 4:0.88321994 5:1 6:1 7:1 8:0.54474809 9:0.80749944 10:0.95368176 11:0.97295391 12:0.95309731 13:0.83615209 14:0.89323446 15:0.92317602 16:0.90418427 17:0.90882005 18:0.44258727 19:0.425778 20:0.85489872 21:1 22:0.79999612 23:0.87614626 24:0.8599869 25:0.79914769 26:0.75406738 27:0.90469145 28:0.48942505 29:0.74450585 30:0.75942856 31:0.74716028 32:0.56212637 33:0.54441056 34:0.82928751 35:0.86478606 36:0.88676113 37:0.60918528 
4 1:0.79250049 2:0.77728053 3:0.63356698 4:0.88321994 5:1 6:1 7:1 8:0.40314784 9:0.63097179 10:0.83809519 11:0.9150598 12:0.85036078 13:0.66461606 14:0.68744542 15:0.79845702 16:0.84610869 17:0.79250056 18:0.24759685 19:0.2591141 20:0.85489872 21:1 22:0.50067644 23:0.87614626 24:0.8599869 25:0.79914769 26:0.75406738 27:0.90469145 28:0.23578559 29:0.42911374 30:0.50203758 31:0.55506008 32:0.29030151 33:0.26395269 34:0.47828104 35:0.57031305 36:0.64927305 37:0.31624718 
-4 1:0.90313104 2:0.91333858 3:0.63356698 4:0.88321994 5:1 6:1 7:1 8:0.53079733 9:0.79607468 10:0.94900097 11:0.97125461 12:0.9481255 13:0.81925121 14:0.87988144 15:0.91807429 16:0.90243388 17:0.90313108 18:0.43094141 19:0.41582395 20:0.85489872 21:1 22:0.78678167 23:0.87614626 24:0.8599869 25:0.79914769 26:0.75406738 27:0.90469145 28:0.47058024 29:0.73102773 30:0.75139224 31:0.74256119 32:0.54417458 33:0.52349387 34:0.81422844 35:0.85555739 36:0.88105557 37:0.58975802 
4 1:0.43545268 2:0.37260377 3:0.63356698 4:0.88321994 5:1 6:1 7:1 8:0.12464249 9:0.19554442 10:0.43335669 11:0.71995706 12:0.53563395 13:0.32719849 14:0.17927722 15:0.36055314 16:0.65017224 17:0.4354527 18:0.10025152 19:0.13317383 20:0.85489872 21:1 22:0.19341086 23:0.87614626 24:0.8599869 25:0.79914769 26:0.75406738 27:0.90469145 28:0.068038555 29:0.13968966 30:0.19677172 31:0.27913723 32:0.089706862 33:0.078270265 34:0.15531427 35:0.21996859 36:0.30706583 37:0.099790847 
4 1:0.77934289 2:0.74446491 3:0.63356698 4:0.88321994 5:1 6:1 7:1 8:0.3231292 9:0.56239675 10:0.85177363 11:0.91404611 12:0.83894182 13:0.56767414 14:0.60723283 15:0.81310815 16:0.84517531 17:0.77934293 18:0.26201014 19:0.27143355 20:0.85489872 21:1 22:0.55258132 23:0.87614626 24:0.8599869 25:0.79914769 26:0.75406738 27:0.90469145 28:0.23675116 29:0.48986529 30:0.56483454 31:0.60756549 32:0.30451106 33:0.26458969 34:0.54538334 35:0.64191956 36:0.71411019 37:0.33109195 
4 1:0.77041621 2:0.74964641 3:0.63356698 4:0.88321994 5:1 6:1 7:1 8:0.36782508 9:0.59993676 10:0.82054596 11:0.89993613 12:0.8302232 13:0.62183769 14:0.65159913 15:0.78028393 16:0.83159453 17:0.7704162 18:0.23135129 19:0.24522856 20:0.85489872 21:1 22:0.48056296 23:0.87614626 24:0.8599869 25:0.79914769 26:0.75406738 27:0.90469145 28:0.22087788 29:0.41067009 30:0.48252568 31:0.5363377 32:0.27408165 33:0.24789629 34:0.45888991 35:0.54924555 36:0.62730316 37:0.29932451 
4 1:0.9013652 2:0.9113046 3:0.63356698 4:0.88321994 5:1 6:1 7:1 8:0.52997392 9:0.79338364 10:0.946819 11:0.97008798 12:0.94635147 13:0.81824642 14:0.87689147 15:0.91594573 16:0.90142345 17:0.90136523 18:0.42571872 19:0.41135997 20:0.85489872 21:1 22:0.78126353 23:0.87614626 24:0.8599869 25:0.79914769 26:0.75406738 27:0.90469145 28:0.46736617 29:0.72367948 30:0.74548872 31:0.73849192 32:0.54003657 33:0.5205 34:0.80669831 35:0.8492673 36:0.87633684 37:0.58588689 
4 1:0.78334896 2:0.76558271 3:0.63356698 4:0.88321994 5:1 6:1 7:1 8:0.38951346 9:0.61706557 10:0.82961492 11:0.91046842 12:0.84232764 13:0.64810003 14:0.67119505 15:0.78923207 16:0.8414728 17:0.783349 18:0.24286049 19:0.2550658 20:0.85489872 21:1 22:0.48774893 23:0.87614626 24:0.8599869 25:0.79914769 26:0.75406738 27:0.90469145 28:0.22783673 29:0.41638855 30:0.48986047 31:0.54458995 32:0.28108542 33:0.25510622 34:0.4639582 35:0.55618341 36:0.63611255 37:0.30624004 
4 1:0.91176868 2:0.92453566 3:0.63356698 4:0.88321994 5:1 6:1 7:1 8:0.54523062 9:0.80897162 10:0.95673814 11:0.9757365 12:0.95573774 13:0.83673999 14:0.8949182 15:0.92644651 16:0.90695845 17:0.91176872 18:0.45229457 19:0.43407511 20:0.85489872 21:1 22:0.81206007 23:0.87614626 24:0.8599869 25:0.79914769 26:0.75406738 27:0.90469145 28:0.49882715 29:0.75846424 30:0.77002633 31:0.75452382 32:0.57263248 33:0.55474454 34:0.84472228 35:0.87684983 36:0.8958343 37:0.62043692 
4 1:0.63130698 2:0.62063497 3:0.06950069 4:0.1386214 5:0.18209859 6:0.19373795 7:0.18105761 8:0.037619495 9:0.070148049 10:0.16662139 11:0.29036664 12:0.21126445 13:0.76194759 14:0.52863235 15:0.54538174 16:0.71827513 17:0.63130698 18:0.38798362 19:0.29754922 20:0.028994384 21:0.031100061 22:0.53941323 23:0.16626849 24:0.16842116 25:0.1540205 26:0.142153 27:0.17266256 28:0.11367616 29:0.1624889 30:0.17846097 31:0.20005916 32:0.12900533 33:0.37030657 34:0.51909684 35:0.5807225 36:0.63846103 37:0.41071344 
4 1:0.87212245 2:0.88333194 3:0.06950069 4:0.1386214 5:0.18209859 6:0.19373795 7:0.18105761 8:0.096080934 9:0.18591924 10:0.28201757 11:0.3593936 12:0.30513886 13:0.85468586 14:0.8221124 15:0.87584967 16:0.8861661 17:0.87212249 18:0.55363863 19:0.4391393 20:0.028994384 21:0.031100061 22:0.82063319 23:0.16626849 24:0.16842116 25:0.1540205 26:0.142153 27:0.17266256 28:0.20822227 29:0.28205298 30:0.28632276 31:0.28957754 32:0.23134887 33:0.63436335 34:0.82991227 35:0.85838669 36:0.87962006 37:0.68376474 
-4 1:0.90584709 2:0.92707263 3:0.06950069 4:0.1386214 5:0.18209859 6:0.19373795 7:0.18105761 8:0.12367886 9:0.21383787 10:0.29607205 11:0.36471294 12:0.31838169 13:0.89845565 14:0.89242904 15:0.91581212 16:0.89899457 17:0.90584709 18:0.64225106 19:0.51487888 20:0.028994384 21:0.031100061 22:0.87262287 23:0.16626849 24:0.16842116 25:0.1540205 26:0.142153 27:0.17266256 28:0.23750424 29:0.3064449 30:0.30063663 31:0.29710753 32:0.25990639 33:0.71521741 34:0.89277787 35:0.89486542 36:0.89967991 37:0.75914466 
-4 1:0.82941108 2:0.84189302 3:0.06950069 4:0.1386214 5:0.18209859 6:0.19373795 7:0.18105761 8:0.089741949 9:0.17417922 10:0.2652063 11:0.34177372 12:0.28868551 13:0.84446008 14:0.7912722 15:0.82694272 16:0.84309305 17:0.82941107 18:0.4447028 19:0.34602873 20:0.028994384 21:0.031100061 22:0.63221476 23:0.16626849 24:0.16842116 25:0.1540205 26:0.142153 27:0.17266256 28:0.15734325 29:0.20351895 30:0.20887832 31:0.22015817 32:0.17284754 33:0.49208309 34:0.62518892 35:0.65832141 36:0.6918293 37:0.5274002 
-4 1:0.9180595 2:0.94544408 3:0.06950069 4:0.1386214 5:0.18209859 6:0.19373795 7:0.18105761 8:0.14243152 9:0.22786381 10:0.29984045 11:0.36529637 12:0.32318088 13:0.92823855 14:0.92799821 15:0.9264496 16:0.90036134 17:0.91805955 18:0.63640467 19:0.50988181 20:0.028994384 21:0.031100061 22:0.87687183 23:0.16626849 24:0.16842116 25:0.1540205 26:0.142153 27:0.17266256 28:0.24208641 29:0.30674181 30:0.30110752 31:0.29801484 32:0.26370356 33:0.72752797 34:0.89330179 35:0.89591273 36:0.9019997 37:0.76885699 
4 1:0.38571621 2:0.39487926 3:0.06950069 4:0.1386214 5:0.18209859 6:0.19373795 7:0.18105761 8:0.0052644451 9:0.021694472 10:0.07668365 11:0.17611232 12:0.11581299 13:0.71041506 14:0.40497264 15:0.28765051 16:0.44009721 17:0.38571619 18:0.27623111 19:0.20203115 20:0.028994384 21:0.031100061 22:0.32048792 23:0.16626849 24:0.16842116 25:0.1540205 26:0.142153 27:0.17266256 28:0.084087057 29:0.086245153 30:0.07695541 31:0.08034741 32:0.086643114 33:0.2887259 34:0.32198977 35:0.32051102 36:0.31708799 37:0.29879167 
-4 1:0.82827728 2:0.83822566 3:0.06950069 4:0.1386214 5:0.18209859 6:0.19373795 7:0.18105761 8:0.088615319 9:0.16983549 10:0.26279982 11:0.34420888 12:0.28832777 13:0.84257427 14:0.77974452 15:0.81996689 16:0.84879735 17:0.82827728 18:0.48804051 19:0.38307071 20:0.028994384 21:0.031100061 22:0.7592028 23:0.16626849 24:0.16842116 25:0.1540205 26:0.142153 27:0.17266256 28:0.19019636 29:0.25528245 30:0.26152065 31:0.26953874 32:0.21095751 33:0.58361548 34:0.75991594 35:0.79418679 36:0.82536775 37:0.62896155 
-4 1:0.85872932 2:0.87761489 3:0.06950069 4:0.1386214 5:0.18209859 6:0.19373795 7:0.18105761 8:0.10870101 9:0.1947398 10:0.27654028 11:0.34831157 12:0.29998137 13:0.87460833 14:0.84381263 15:0.86002243 16:0.85930819 17:0.85872932 18:0.50106144 19:0.39420007 20:0.028994384 21:0.031100061 22:0.72909445 23:0.16626849 24:0.16842116 25:0.1540205 26:0.142153 27:0.17266256 28:0.1861831 29:0.2431331 30:0.24721007 31:0.25479297 32:0.20489911 33:0.57272023 34:0.72870142 35:0.75765655 36:0.78585069 37:0.61312492 
4 1:0.91762593 2:0.94493811 3:0.06950069 4:0.1386214 5:0.18209859 6:0.19373795 7:0.18105761 8:0.14262873 9:0.22725882 10:0.29960197 11:0.3651598 12:0.32294671 13:0.92860455 14:0.92677428 15:0.92601486 16:0.9001306 17:0.91762597 18:0.65579393 19:0.52645436 20:0.028994384 21:0.031100061 22:0.8861116 23:0.16626849 24:0.16842116 25:0.1540205 26:0.142153 27:0.17266256 28:0.24660579 29:0.31041822 30:0.3037659 31:0.30002227 32:0.26812363 33:0.74054229 34:0.90326239 35:0.90304372 36:0.90760164 37:0.78103977 
-4 1:0.91910191 2:0.93230696 3:0.06950069 4:0.1386214 5:0.18209859 6:0.19373795 7:0.18105761 8:0.10282201 9:0.20572886 10:0.30316834 11:0.37503443 12:0.32338018 13:0.86549622 14:0.87263268 15:0.93648635 16:0.92431169 17:0.91910191 18:0.3385374 19:0.25528612 20:0.028994384 21:0.031100061 22:0.8209932 23:0.16626849 24:0.16842116 25:0.1540205 26:0.142153 27:0.17266256 28:0.20497997 29:0.27957123 30:0.28683363 31:0.29496282 32:0.22837601 33:0.62594386 34:0.82404719 35:0.86011788 36:0.89437403 37:0.6764451 
-2.0928713934279255 1:0.97208473 2:0.98894722 3:0.06950069 4:0.1386214 5:0.18209859 6:0.19373795 7:0.18105761 8:0.12621747 9:0.23155388 10:0.3199713 11:0.39478736 12:0.3440792 13:0.90268489 14:0.93822953 15:0.98444213 16:0.97212465 17:0.97208475 18:0.34859308 19:0.26388099 20:0.028994384 21:0.031100061 22:0.95813506 23:0.16626849 24:0.16842116 25:0.1540205 26:0.142153 27:0.17266256 28:0.25730481 29:0.34108856 30:0.33611961 31:0.33260792 32:0.283674 33:0.77133087 34:0.98332677 35:0.98653366 36:0.99551358 37:0.82327164 
4 1:0.360826 2:0.37925109 3:0.06950069 4:0.1386214 5:0.18209859 6:0.19373795 7:0.18105761 8:0.0061509146 9:0.025127025 10:0.076832973 11:0.15545136 12:0.10628166 13:0.71181855 14:0.41372782 15:0.28791381 16:0.38933824 17:0.36082604 18:0.10377286 19:0.054626136 20:0.028994384 21:0.031100061 22:0.28464432 23:0.16626849 24:0.16842116 25:0.1540205 26:0.142153 27:0.17266256 28:0.078626696 29:0.075682912 30:0.062132917 31:0.059163212 32:0.079589982 33:0.27305722 34:0.29383504 35:0.2814812 36:0.25897791 37:0.27946891 
-4 1:0.85944195 2:0.87426754 3:0.06950069 4:0.1386214 5:0.18209859 6:0.19373795 7:0.18105761 8:0.099891637 9:0.18820825 10:0.27697157 11:0.35176162 12:0.30029461 13:0.86073254 14:0.82776977 15:0.86106788 16:0.86733805 17:0.85944196 18:0.4443385 19:0.34571735 20:0.028994384 21:0.031100061 22:0.80049882 23:0.16626849 24:0.16842116 25:0.1540205 26:0.142153 27:0.17266256 28:0.20609765 29:0.27401733 30:0.27616241 31:0.27973195 32:0.22774207 33:0.62857092 34:0.80919845 35:0.83232125 36:0.85312332 37:0.67429011 
-4 1:0.90076727 2:0.92347971 3:0.06950069 4:0.1386214 5:0.18209859 6:0.19373795 7:0.18105761 8:0.12818113 9:0.21402969 10:0.29256989 11:0.36198453 12:0.31615492 13:0.9058305 14:0.89406241 15:0.90663416 16:0.89282623 17:0.90076727 18:0.62266892 19:0.49814147 20:0.028994384 21:0.031100061 22:0.85693778 23:0.16626849 24:0.16842116 25:0.1540205 26:0.142153 27:0.17266256 28:0.22789508 29:0.29850847 30:0.29623841 31:0.29492594 32:0.25056185 33:0.68993645 34:0.87342902 35:0.88441893 36:0.89439598 37:0.73567566 
4 1:0.62521688 2:0.62455698 3:0.06950069 4:0.1386214 5:0.18209859 6:0.19373795 7:0.18105761 8:0.0294703 9:0.083158248 10:0.17872389 11:0.27435015 12:0.20903645 13:0.7488977 14:0.56131541 15:0.58004747 16:0.67880085 17:0.62521692 18:0.278002 19:0.20354477 20:0.028994384 21:0.031100061 22:0.50481921 23:0.16626849 24:0.16842116 25:0.1540205 26:0.142153 27:0.17266256 28:0.12102186 29:0.15232223 30:0.15709291 31:0.17110197 32:0.13205812 33:0.3914043 34:0.49294539 35:0.52580111 36:0.5604024 37:0.41936234 
-4 1:0.87050312 2:0.88841866 3:0.06950069 4:0.1386214 5:0.18209859 6:0.19373795 7:0.18105761 8:0.11100325 9:0.19705848 10:0.27992161 11:0.3542386 12:0.30451263 13:0.8784239 14:0.85068203 15:0.86983798 16:0.87355663 17:0.87050313 18:0.49810137 19:0.39167001 20:0.028994384 21:0.031100061 22:0.80204155 23:0.16626849 24:0.16842116 25:0.1540205 26:0.142153 27:0.17266256 28:0.20000758 29:0.27209644 30:0.27925741 31:0.28733946 32:0.22268341 33:0.61174994 34:0.80447578 35:0.84050801 36:0.87377096 37:0.66099618 
-4 1:0.83751055 2:0.84383992 3:0.06950069 4:0.1386214 5:0.18209859 6:0.19373795 7:0.18105761 8:0.071977535 9:0.16603477 10:0.27150702 11:0.34828896 12:0.29170234 13:0.81647822 14:0.77172566 15:0.84540731 16:0.8589691 17:0.83751057 18:0.4777014 19:0.37423357 20:0.028994384 21:0.031100061 22:0.69485166 23:0.16626849 24:0.16842116 25:0.1540205 26:0.142153 27:0.17266256 28:0.17500497 29:0.22976975 30:0.23425211 31:0.2428158 32:0.19290668 33:0.54134487 34:0.69343379 35:0.7237577 36:0.75307198 37:0.58087679 
4 1:0.92337786 2:0.95174053 3:0.06950069 4:0.1386214 5:0.18209859 6:0.19373795 7:0.18105761 8:0.14662838 9:0.23062663 10:0.30199133 11:0.36659332 12:0.32519734 13:0.93499845 14:0.93536976 15:0.93281878 16:0.90357066 17:0.92337787 18:0.66737351 19:0.53635176 20:0.028994384 21:0.031100061 22:0.89463516 23:0.16626849 24:0.16842116 25:0.1540205 26:0.142153 27:0.17266256 28:0.25125822 29:0.31429715 30:0.30621011 31:0.30129332 32:0.27266933 33:0.75360991 34:0.91333592 35:0.90931948 36:0.91102787 37:0.79322158 
-4 1:0.83536673 2:0.85233883 3:0.06950069 4:0.1386214 5:0.18209859 6:0.19373795 7:0.18105761 8:0.1003844 9:0.18358144 10:0.26781159 11:0.34066223 12:0.29108668 13:0.86132555 14:0.8149601 15:0.83410946 16:0.84025037 17:0.83536673 18:0.4568244 19:0.3563894 20:0.028994384 21:0.031100061 22:0.64779774 23:0.16626849 24:0.16842116 25:0.1540205 26:0.142153 27:0.17266256 28:0.16356612 29:0.21015086 30:0.21452459 31:0.22469396 32:0.17929993 33:0.50908836 34:0.64215571 35:0.67268082 36:0.70397989 37:0.54427283 
4 1:0.91451078 2:0.94142152 3:0.06950069 4:0.1386214 5:0.18209859 6:0.19373795 7:0.18105761 8:0.1401566 9:0.22595778 10:0.29847293 11:0.36423326 12:0.32177737 13:0.92462264 14:0.92322383 15:0.92265627 16:0.89781543 17:0.91451082 18:0.64042065 19:0.51331438 20:0.028994384 21:0.031100061 22:0.8714971 23:0.16626849 24:0.16842116 25:0.1540205 26:0.142153 27:0.17266256 28:0.23999811 29:0.30432408 30:0.29913436 31:0.29655888 32:0.26150318 33:0.72179249 34:0.88710336 35:0.89088601 36:0.89810565 37:0.76307847 
-4 1:0.9619198 2:1 3:0.06950069 4:0.1386214 5:0.18209859 6:0.19373795 7:0.18105761 8:0.1874064 9:0.25588637 10:0.31603752 11:0.37488266 12:0.34015721 13:1 14:1 15:0.97320278 16:0.9238117 17:0.96191981 18:0.90444148 19:0.73898055 20:0.028994384 21:0.031100061 22:0.99999626 23:0.16626849 24:0.16842116 25:0.1540205 26:0.142153 27:0.17266256 28:0.33989991 29:0.34390647 30:0.32444343 31:0.3133235 32:0.35048287 33:0.99999863 34:0.99028614 35:0.95631567 36:0.94350726 37:0.99999801 
4 1:0.57605339 2:0.57073561 3:0.06950069 4:0.1386214 5:0.18209859 6:0.19373795 7:0.18105761 8:0.01608953 9:0.058183538 10:0.15766919 11:0.25976578 12:0.19015522 13:0.72761728 14:0.49756968 15:0.51872852 16:0.64246452 17:0.57605339 18:0.31226192 19:0.23282771 20:0.028994384 21:0.031100061 22:0.40709165 23:0.16626849 24:0.16842116 25:0.1540205 26:0.142153 27:0.17266256 28:0.1006171 29:0.11639089 30:0.11497053 31:0.12516376 32:0.10719845 33:0.33437031 34:0.39952523 35:0.41736575 36:0.43665171 37:0.35300796 
-4 1:0.87953177 2:0.89611164 3:0.06950069 4:0.1386214 5:0.18209859 6:0.19373795 7:0.18105761 8:0.11051612 9:0.19873107 10:0.28352201 11:0.35901696 12:0.30829759 13:0.87744669 14:0.85345099 15:0.8791743 16:0.88481738 17:0.8795318 18:0.55878987 19:0.44354221 20:0.028994384 21:0.031100061 22:0.81762671 23:0.16626849 24:0.16842116 25:0.1540205 26:0.142153 27:0.17266256 28:0.20545144 29:0.27972577 30:0.28626868 31:0.29158665 32:0.22872571 33:0.62557035 34:0.82304543 35:0.85770638 36:0.88473864 37:0.67578773 
-4 1:0.88393172 2:0.90607786 3:0.06950069 4:0.1386214 5:0.18209859 6:0.19373795 7:0.18105761 8:0.12133713 9:0.20841709 10:0.28683637 11:0.35565597 12:0.30987781 13:0.89461274 14:0.87829702 15:0.88926945 16:0.87702673 17:0.88393177 18:0.55645509 19:0.44154661 20:0.028994384 21:0.031100061 22:0.79125886 23:0.16626849 24:0.16842116 25:0.1540205 26:0.142153 27:0.17266256 28:0.20836599 29:0.26959305 30:0.27061487 31:0.27421312 32:0.22854675 33:0.63403517 34:0.79703331 35:0.81756285 36:0.83791975 37:0.67563232 
4 1:0.92657753 2:0.95513578 3:0.06950069 4:0.1386214 5:0.18209859 6:0.19373795 7:0.18105761 8:0.14818702 9:0.23203634 10:0.30299841 11:0.36778856 12:0.32642913 13:0.93747273 14:0.93897612 15:0.93576824 16:0.90651521 17:0.92657756 18:0.68494678 19:0.55137214 20:0.028994384 21:0.031100061 22:0.90526968 23:0.16626849 24:0.16842116 25:0.1540205 26:0.142153 27:0.17266256 28:0.25641956 29:0.31884814 30:0.30950607 31:0.3037298 32:0.27778913 33:0.76780237 34:0.9251625 35:0.91783394 36:0.91762368 37:0.80671706 
-4 1:0.87723693 2:0.89950701 3:0.06950069 4:0.1386214 5:0.18209859 6:0.19373795 7:0.18105761 8:0.12036751 9:0.20653429 10:0.28412222 11:0.35305105 12:0.30734456 13:0.89305934 14:0.87329808 15:0.88123763 16:0.87049731 17:0.87723693 18:0.53994676 19:0.42743647 20:0.028994384 21:0.031100061 22:0.76971622 23:0.16626849 24:0.16842116 25:0.1540205 26:0.142153 27:0.17266256 28:0.20152962 29:0.26070133 30:0.26252177 31:0.26700027 32:0.22108492 33:0.61470756 34:0.77351024 35:0.79633237 36:0.81814359 37:0.65544542 
4 1:0.92487623 2:0.95311403 3:0.06950069 4:0.1386214 5:0.18209859 6:0.19373795 7:0.18105761 8:0.14691968 9:0.231078 10:0.30235246 11:0.36737398 12:0.32578978 13:0.93543787 14:0.93645388 15:0.9338098 16:0.90546864 17:0.9248763 18:0.67455582 19:0.54249069 20:0.028994384 21:0.031100061 22:0.89949219 23:0.16626849 24:0.16842116 25:0.1540205 26:0.142153 27:0.17266256 28:0.2535555 29:0.31639202 30:0.3078072 31:0.30251136 32:0.27496661 33:0.75974437 34:0.91868052 35:0.91338663 36:0.91428668 37:0.79911836 
4 1:0.44136306 2:0.40457603 3:0.69932189 4:0.79304961 5:0.72403796 6:0.58380359 7:0.69887261 8:0.23082284 9:0.21398829 10:0.32674683 11:0.48313954 12:0.39247245 13:0.40534311 14:0.24441557 15:0.36785937 16:0.64880921 17:0.44136307 18:0.19606495 19:0.21061172 20:0.3383678 21:0.44186119 22:0.41020282 23:0.31380151 24:0.29345028 25:0.27945274 26:0.27307425 27:0.32129563 28:0.10114868 29:0.15415123 30:0.18015659 31:0.22085351 32:0.11771917 33:0.24708272 34:0.38614497 35:0.4495966 36:0.52314772 37:0.283259 
-4 1:0.84611635 2:0.83956865 3:0.69932189 4:0.79304961 5:0.72403796 6:0.58380359 7:0.69887261 8:0.46121738 9:0.63270276 10:0.69552566 11:0.65020837 12:0.67633095 13:0.67495785 14:0.76387579 15:0.87202719 16:0.88990707 17:0.84611636 18:0.39737392 19:0.38267626 20:0.3383678 21:0.44186119 22:0.74116701 23:0.31380151 24:0.29345028 25:0.27945274 26:0.27307425 27:0.32129563 28:0.20502349 29:0.33140867 30:0.35733733 31:0.37541188 32:0.24094143 33:0.46731813 34:0.75752968 35:0.81690157 36:0.85613282 37:0.53621529 
4 1:0.90960658 2:0.92822551 3:0.69932189 4:0.79304961 5:0.72403796 6:0.58380359 7:0.69887261 8:0.60093021 9:0.74817913 10:0.73713069 11:0.6593491 12:0.72068252 13:0.83930894 14:0.90845527 15:0.92924762 16:0.90320021 17:0.90960658 18:0.50458086 19:0.4743091 20:0.3383678 21:0.44186119 22:0.81306867 23:0.31380151 24:0.29345028 25:0.27945274 26:0.27307425 27:0.32129563 28:0.2619074 29:0.37218349 30:0.38063507 31:0.3865477 32:0.29507642 33:0.58719206 34:0.84247024 35:0.86487472 36:0.87989432 37:0.64670525 
-4 1:0.84966216 2:0.86082499 3:0.69932189 4:0.79304961 5:0.72403796 6:0.58380359 7:0.69887261 8:0.53798331 9:0.68679871 10:0.69185416 11:0.63121177 12:0.67862599 13:0.76502916 14:0.83121373 15:0.86726937 16:0.86286932 17:0.84966217 18:0.36554198 19:0.35546859 20:0.3383678 21:0.44186119 22:0.6279032 23:0.31380151 24:0.29345028 25:0.27945274 26:0.27307425 27:0.32129563 28:0.18368841 29:0.27224143 30:0.29177858 31:0.31188579 32:0.21024214 33:0.421438 34:0.63301047 35:0.68057364 36:0.71893589 37:0.47257573 
4 1:0.92491844 2:0.94967342 3:0.69932189 4:0.79304961 5:0.72403796 6:0.58380359 7:0.69887261 8:0.64106362 9:0.77219015 10:0.74646232 11:0.6626885 12:0.73141752 13:0.88649876 14:0.93847961 15:0.94200418 16:0.90800502 17:0.92491846 18:0.52553745 19:0.4922213 20:0.3383678 21:0.44186119 22:0.83286266 23:0.31380151 24:0.29345028 25:0.27945274 26:0.27307425 27:0.32129563 28:0.27770944 29:0.38060107 30:0.38706912 31:0.39167628 32:0.30964225 33:0.62079426 34:0.86036613 35:0.87843283 36:0.89111655 37:0.67675394 
4 1:0.38457875 2:0.36405838 3:0.69932189 4:0.79304961 5:0.72403796 6:0.58380359 7:0.69887261 8:0.22170249 9:0.22868311 10:0.32678364 11:0.39793398 12:0.35239472 13:0.39433616 14:0.26161017 15:0.36797721 16:0.52818445 17:0.38457877 18:0.11803981 19:0.14392139 20:0.3383678 21:0.44186119 22:0.32450125 23:0.31380151 24:0.29345028 25:0.27945274 26:0.27307425 27:0.32129563 28:0.093570602 29:0.12274429 30:0.12991465 31:0.14980548 32:0.10343273 33:0.23107341 34:0.32049201 35:0.34569665 36:0.37046693 37:0.25400295 
-4 1:0.70650305 2:0.70604923 3:0.69932189 4:0.79304961 5:0.72403796 6:0.58380359 7:0.69887261 8:0.41972975 9:0.54444037 10:0.58666499 11:0.55566729 12:0.57740615 13:0.62617916 14:0.65407242 15:0.72528099 16:0.7562331 17:0.70650306 18:0.23609576 19:0.2448272 20:0.3383678 21:0.44186119 22:0.56221868 23:0.31380151 24:0.29345028 25:0.27945274 26:0.27307425 27:0.32129563 28:0.15500847 29:0.23841669 30:0.25982581 31:0.28397158 32:0.17963421 33:0.36104792 34:0.56270498 35:0.61502326 36:0.6595772 37:0.41016202 
-4 1:0.79231616 2:0.79629627 3:0.69932189 4:0.79304961 5:0.72403796 6:0.58380359 7:0.69887261 8:0.47838146 9:0.6269223 10:0.64902199 11:0.60360206 12:0.63805232 13:0.6945455 14:0.75584514 15:0.80937244 16:0.82379198 17:0.79231617 18:0.30026181 19:0.29967176 20:0.3383678 21:0.44186119 22:0.55140887 23:0.31380151 24:0.29345028 25:0.27945274 26:0.27307425 27:0.32129563 28:0.15683366 29:0.23258348 30:0.25217368 31:0.2756098 32:0.17972406 33:0.3647394 34:0.5503973 35:0.59902728 36:0.64137272 37:0.41020252 
4 1:0.91241175 2:0.93459969 3:0.69932189 4:0.79304961 5:0.72403796 6:0.58380359 7:0.69887261 8:0.62449904 9:0.75586251 10:0.73687007 11:0.65838461 12:0.72261206 13:0.86703977 14:0.9181232 15:0.92895804 16:0.90183683 17:0.91241175 18:0.5018057 19:0.47193709 20:0.3383678 21:0.44186119 22:0.81601833 23:0.31380151 24:0.29345028 25:0.27945274 26:0.27307425 27:0.32129563 28:0.26814663 29:0.37048873 30:0.37999828 31:0.38734166 32:0.29983413 33:0.60054013 34:0.83925638 35:0.86386564 36:0.88187007 37:0.6566486 
-4 1:0.82049999 2:0.80281527 3:0.69932189 4:0.79304961 5:0.72403796 6:0.58380359 7:0.69887261 8:0.39244811 9:0.57934294 10:0.69388291 11:0.6396228 12:0.65824509 13:0.59476973 14:0.69782588 15:0.86983177 16:0.87507154 17:0.82049999 18:0.20533079 19:0.21853149 20:0.3383678 21:0.44186119 22:0.55016366 23:0.31380151 24:0.29345028 25:0.27945274 26:0.27307425 27:0.32129563 28:0.14606294 29:0.23221878 30:0.25565917 31:0.28195555 32:0.17113376 33:0.3420045 34:0.54935857 35:0.60589192 36:0.65466349 37:0.39257581 
4 1:0.94701657 2:0.9427191 3:0.69932189 4:0.79304961 5:0.72403796 6:0.58380359 7:0.69887261 8:0.50021693 9:0.71902208 10:0.78309259 11:0.70253977 12:0.7470109 13:0.7214315 14:0.87249829 15:0.99191529 16:0.96539123 17:0.94701659 18:0.25421572 19:0.26031485 20:0.3383678 21:0.44186119 22:0.82415495 23:0.31380151 24:0.29345028 25:0.27945274 26:0.27307425 27:0.32129563 28:0.23723963 29:0.38190458 30:0.39699996 31:0.40638856 32:0.27759081 33:0.53552913 34:0.86321826 35:0.89912112 36:0.92292667 37:0.61134938 
0.55645042978896664 1:0.22481004 2:0.21111967 3:0.69932189 4:0.79304961 5:0.72403796 6:0.58380359 7:0.69887261 8:0.17632381 9:0.14092842 10:0.17991446 11:0.30199251 12:0.2401945 13:0.34102733 14:0.15296264 15:0.16781963 16:0.38938984 17:0.22481 18:0.055393846 19:0.090376094 20:0.3383678 21:0.44186119 22:0.27350038 23:0.31380151 24:0.29345028 25:0.27945274 26:0.27307425 27:0.32129563 28:0.084892318 29:0.10187445 30:0.10107942 31:0.11349548 32:0.091286572 33:0.21266177 34:0.27668367 35:0.28577483 36:0.29205525 37:0.22905805 
-4 1:0.84528514 2:0.85081304 3:0.69932189 4:0.79304961 5:0.72403796 6:0.58380359 7:0.69887261 8:0.51709135 9:0.66461366 10:0.69010826 11:0.63587199 12:0.67562934 13:0.7400913 14:0.80311445 15:0.86495841 16:0.86941721 17:0.84528515 18:0.37812052 19:0.36621983 20:0.3383678 21:0.44186119 22:0.7242403 23:0.31380151 24:0.29345028 25:0.27945274 26:0.27307425 27:0.32129563 28:0.20847955 29:0.32421842 30:0.34458269 31:0.36065531 32:0.24184705 33:0.47408206 34:0.74208641 35:0.79026674 36:0.82424813 37:0.53756677 
-4 1:0.84133303 2:0.84808683 3:0.69932189 4:0.79304961 5:0.72403796 6:0.58380359 7:0.69887261 8:0.5206519 9:0.66671427 10:0.68298944 11:0.63365458 12:0.6727314 13:0.74451375 14:0.8059257 15:0.85534102 16:0.86639472 17:0.84133305 18:0.39537848 19:0.3809707 20:0.3383678 21:0.44186119 22:0.68286689 23:0.31380151 24:0.29345028 25:0.27945274 26:0.27307425 27:0.32129563 28:0.19551356 29:0.2999334 30:0.32300924 31:0.34341607 32:0.22614459 33:0.44616236 34:0.69094898 35:0.74532935 36:0.78690827 37:0.50493796 
4 1:0.40303418 2:0.37488355 3:0.69932189 4:0.79304961 5:0.72403796 6:0.58380359 7:0.69887261 8:0.20700535 9:0.21660456 10:0.33420855 11:0.42458774 12:0.36522787 13:0.37708162 14:0.24675695 15:0.37855055 16:0.56745812 17:0.40303416 18:0.12523113 19:0.15006802 20:0.3383678 21:0.44186119 22:0.3809631 23:0.31380151 24:0.29345028 25:0.27945274 26:0.27307425 27:0.32129563 28:0.10411912 29:0.14716945 30:0.16174765 31:0.18842666 32:0.11784616 33:0.25315635 34:0.37130643 35:0.41144805 36:0.45366172 37:0.28324607 
4 1:0.74602599 2:0.73320916 3:0.69932189 4:0.79304961 5:0.72403796 6:0.58380359 7:0.69887261 8:0.40361034 9:0.53635987 10:0.6072313 11:0.60411061 12:0.60587277 13:0.60715942 14:0.64356192 15:0.75181878 16:0.82389698 17:0.74602602 18:0.28743096 19:0.28870487 20:0.3383678 21:0.44186119 22:0.66396688 23:0.31380151 24:0.29345028 25:0.27945274 26:0.27307425 27:0.32129563 28:0.17914292 29:0.28589033 30:0.31608527 31:0.34552637 32:0.21022151 33:0.41206592 34:0.66194722 35:0.73133978 36:0.79177985 37:0.47281271 
-4 1:0.8502922 2:0.86360025 3:0.69932189 4:0.79304961 5:0.72403796 6:0.58380359 7:0.69887261 8:0.55283784 9:0.6897109 10:0.69055815 11:0.63033576 12:0.67902305 13:0.78258577 14:0.83500536 15:0.86563352 16:0.86159833 17:0.85029223 18:0.36751263 19:0.35715296 20:0.3383678 21:0.44186119 22:0.64160392 23:0.31380151 24:0.29345028 25:0.27945274 26:0.27307425 27:0.32129563 28:0.19278807 29:0.27884244 30:0.29707909 31:0.31589944 32:0.21900372 33:0.4406645 34:0.64690768 35:0.69166031 36:0.72769188 37:0.49052744 
4 1:0.92367575 2:0.94848515 3:0.69932189 4:0.79304961 5:0.72403796 6:0.58380359 7:0.69887261 8:0.64237735 9:0.77046437 10:0.74504522 11:0.66233764 12:0.73056634 13:0.88799293 14:0.93631779 15:0.94005116 16:0.90747557 17:0.92367577 18:0.5304245 19:0.4963984 20:0.3383678 21:0.44186119 22:0.83947018 23:0.31380151 24:0.29345028 25:0.27945274 26:0.27307425 27:0.32129563 28:0.28294361 29:0.38367549 30:0.38934405 31:0.39338331 32:0.31452141 33:0.63170702 34:0.86668061 35:0.88306018 36:0.89473018 37:0.686605 
-4 1:0.83959529 2:0.85027636 3:0.69932189 4:0.79304961 5:0.72403796 6:0.58380359 7:0.69887261 8:0.53544262 9:0.67478095 10:0.68417911 11:0.62625363 12:0.67156574 13:0.76212177 14:0.8163533 15:0.85676139 16:0.85567771 17:0.8395953 18:0.35368021 19:0.34532999 20:0.3383678 21:0.44186119 22:0.61293217 23:0.31380151 24:0.29345028 25:0.27945274 26:0.27307425 27:0.32129563 28:0.17962658 29:0.26398422 30:0.28347886 31:0.30436064 32:0.20512715 33:0.41307016 34:0.61595014 35:0.66355163 36:0.70285836 37:0.46232256 
4 1:0.91980581 2:0.94350161 3:0.69932189 4:0.79304961 5:0.72403796 6:0.58380359 7:0.69887261 8:0.63318625 9:0.76625473 10:0.7425354 11:0.66088055 12:0.7278551 13:0.87724335 14:0.93111733 15:0.93659712 16:0.90534259 17:0.91980578 18:0.51744221 19:0.48530207 20:0.3383678 21:0.44186119 22:0.81904025 23:0.31380151 24:0.29345028 25:0.27945274 26:0.27307425 27:0.32129563 28:0.26960204 29:0.37310082 30:0.38145438 31:0.38762204 32:0.30152017 33:0.60359159 34:0.84458205 35:0.86671747 36:0.88231031 37:0.66004878 
-4 1:0.9619198 2:1 3:0.69932189 4:0.79304961 5:0.72403796 6:0.58380359 7:0.69887261 8:0.73742151 9:0.82122309 10:0.7692293 11:0.67369272 12:0.75737397 13:1 14:1 15:0.97320278 16:0.9238117 17:0.96191981 18:0.64440715 19:0.59382264 20:0.3383678 21:0.44186119 22:0.99999687 23:0.31380151 24:0.29345028 25:0.27945274 26:0.27307425 27:0.32129563 28:0.45670777 29:0.44255076 30:0.42460693 31:0.41598086 32:0.46716988 33:0.99999865 34:0.99028634 35:0.95631629 36:0.94350881 37:0.99999832 
4 1:0.44591854 2:0.39258224 3:0.69932189 4:0.79304961 5:0.72403796 6:0.58380359 7:0.69887261 8:0.11994066 9:0.18868875 10:0.35991223 11:0.48723301 12:0.39542377 13:0.27413295 14:0.21177398 15:0.41355798 16:0.65600714 17:0.44591855 18:0.1857015 19:0.20175378 20:0.3383678 21:0.44186119 22:0.36373335 23:0.31380151 24:0.29345028 25:0.27945274 26:0.27307425 27:0.32129563 28:0.08638742 29:0.13576922 30:0.15708821 31:0.19084735 32:0.10136267 33:0.21568697 34:0.34761618 35:0.4018906 36:0.45878144 37:0.24959377 
-4 1:0.79986899 2:0.78441288 3:0.69932189 4:0.79304961 5:0.72403796 6:0.58380359 7:0.69887261 8:0.37623071 9:0.58183594 10:0.67886568 11:0.62154732 12:0.64396591 13:0.57527834 14:0.70083418 15:0.8493072 16:0.84846507 17:0.79986901 18:0.37431168 19:0.3629643 20:0.3383678 21:0.44186119 22:0.65455509 23:0.31380151 24:0.29345028 25:0.27945274 26:0.27307425 27:0.32129563 28:0.16557632 29:0.29076613 30:0.31588385 31:0.33786589 32:0.19994979 33:0.38338608 34:0.67188967 35:0.73061095 36:0.77499348 37:0.45171704 
-4 1:0.82081813 2:0.81903548 3:0.69932189 4:0.79304961 5:0.72403796 6:0.58380359 7:0.69887261 8:0.44247072 9:0.64267827 10:0.68254819 11:0.62093365 12:0.65828954 13:0.65308041 14:0.77628025 15:0.85480108 16:0.84829226 17:0.8208181 18:0.34766662 19:0.34019001 20:0.3383678 21:0.44186119 22:0.61057906 23:0.31380151 24:0.29345028 25:0.27945274 26:0.27307425 27:0.32129563 28:0.17082329 29:0.26510491 30:0.28516049 31:0.30640229 32:0.19826484 33:0.39426114 34:0.61823718 35:0.66712581 36:0.70743906 37:0.44808373 
4 1:0.91569299 2:0.93844793 3:0.69932189 4:0.79304961 5:0.72403796 6:0.58380359 7:0.69887261 8:0.62687494 9:0.76104579 10:0.73935874 11:0.65946996 12:0.72493545 13:0.86979549 14:0.92454025 15:0.93232598 16:0.90338786 17:0.91569302 18:0.51459497 19:0.48286845 20:0.3383678 21:0.44186119 22:0.82707382 23:0.31380151 24:0.29345028 25:0.27945274 26:0.27307425 27:0.32129563 28:0.27427377 29:0.37706044 30:0.38466499 31:0.39040199 32:0.30614271 33:0.61342575 34:0.85298006 35:0.87350478 36:0.88843072 37:0.66951426 
-4 1:0.85261074 2:0.86462076 3:0.69932189 4:0.79304961 5:0.72403796 6:0.58380359 7:0.69887261 8:0.54514387 9:0.68948878 10:0.69364659 11:0.63261032 12:0.68071828 13:0.77364085 14:0.83491013 15:0.86972065 16:0.86467533 17:0.85261076 18:0.37257876 19:0.36148313 20:0.3383678 21:0.44186119 22:0.63503 23:0.31380151 24:0.29345028 25:0.27945274 26:0.27307425 27:0.32129563 28:0.18809452 29:0.27535768 30:0.29450186 31:0.31422075 32:0.2144816 33:0.43105955 34:0.63984933 35:0.686471 36:0.72416656 37:0.48157245 
4 1:0.91824812 2:0.94157705 3:0.69932189 4:0.79304961 5:0.72403796 6:0.58380359 7:0.69887261 8:0.6319204 9:0.76341864 10:0.74114554 11:0.66065836 12:0.72675965 13:0.87579595 14:0.92759753 15:0.93470428 16:0.90501992 17:0.91824817 18:0.52053919 19:0.48794914 20:0.3383678 21:0.44186119 22:0.83321186 23:0.31380151 24:0.29345028 25:0.27945274 26:0.27307425 27:0.32129563 28:0.27750044 29:0.38000638 30:0.38741321 31:0.39272911 32:0.3093973 33:0.62044989 34:0.85916354 35:0.87916103 36:0.89338562 37:0.67633513 
-0.88592399188220672 1:0.57805753 2:0.55147375 3:0.46219047 4:0.43853775 5:0.3658846 6:0.34027892 7:0.38718511 8:0.21410464 9:0.17560611 10:0.24402592 11:0.37819936 12:0.30644633 13:0.59107083 14:0.4245074 15:0.50754785 16:0.71343087 17:0.57805753 18:0.34447018 19:0.33273802 20:0.029649666 21:0.024072012 22:0.55463109 23:0.25731713 24:0.28159309 25:0.30119442 26:0.33942974 27:0.27467016 28:0.11293719 29:0.22253193 30:0.27513706 31:0.33275783 32:0.14395572 33:0.31365076 34:0.54773603 35:0.62688689 36:0.68297147 37:0.37643199 
4 1:0.87617107 2:0.87920073 3:0.46219047 4:0.43853775 5:0.3658846 6:0.34027892 7:0.38718511 8:0.3401666 9:0.40214356 10:0.4379451 11:0.47579456 12:0.46181275 13:0.7539205 14:0.8079757 15:0.9066913 16:0.90115051 17:0.87617111 18:0.55110787 19:0.50985293 20:0.029649666 21:0.024072012 22:0.85431112 23:0.25731713 24:0.28159309 25:0.30119442 26:0.33942974 27:0.27467016 28:0.25444746 29:0.38290224 30:0.41396819 31:0.45103582 32:0.29289323 33:0.63817469 34:0.88450573 35:0.9009091 36:0.91066861 37:0.70024635 
4 1:0.91971725 2:0.94212512 3:0.46219047 4:0.43853775 5:0.3658846 6:0.34027892 7:0.38718511 8:0.4385706 9:0.46895484 10:0.45313108 11:0.48031825 12:0.48510224 13:0.88081938 14:0.92002383 15:0.93652756 16:0.9085712 17:0.91971727 18:0.60612243 19:0.55637969 20:0.029649666 21:0.024072012 22:0.85044098 23:0.25731713 24:0.28159309 25:0.30119442 26:0.33942974 27:0.27467016 28:0.26336254 29:0.37988718 30:0.40719663 31:0.44335481 32:0.29925631 33:0.65794706 34:0.87758508 35:0.88705989 36:0.89541355 37:0.7134322 
4 1:0.83762955 2:0.84451157 3:0.46219047 4:0.43853775 5:0.3658846 6:0.34027892 7:0.38718511 8:0.35157082 9:0.39093325 10:0.41262951 11:0.45474177 12:0.4418934 13:0.76878519 14:0.78932567 15:0.85421771 16:0.85986375 17:0.83762953 18:0.42743484 19:0.40414605 20:0.029649666 21:0.024072012 22:0.62775076 23:0.25731713 24:0.28159309 25:0.30119442 26:0.33942974 27:0.27467016 28:0.1805467 29:0.26101049 30:0.29233542 31:0.33550948 32:0.20606473 33:0.46923119 34:0.62969115 35:0.6621623 36:0.6896564 37:0.51214374 
4 1:0.43795933 2:0.42877108 3:0.46219047 4:0.43853775 5:0.3658846 6:0.34027892 7:0.38718511 8:0.20377385 9:0.15311966 10:0.17644804 11:0.28483663 12:0.2340291 13:0.5778265 14:0.38675418 15:0.36828097 16:0.53263499 17:0.43795934 18:0.23152726 19:0.23669823 20:0.029649666 21:0.024072012 22:0.39703802 23:0.25731713 24:0.28159309 25:0.30119442 26:0.33942974 27:0.27467016 28:0.12172429 29:0.15714289 30:0.16655889 31:0.18717219 32:0.13400403 33:0.33132203 34:0.40763695 35:0.40961813 36:0.39900035 37:0.35218691 
-4 1:0.86269637 2:0.87822325 3:0.46219047 4:0.43853775 5:0.3658846 6:0.34027892 7:0.38718511 8:0.40290677 9:0.42528508 10:0.42457995 11:0.46121254 12:0.45730901 13:0.83423804 14:0.84368631 15:0.87316207 16:0.86663084 17:0.86269638 18:0.45913574 19:0.43124172 20:0.029649666 21:0.024072012 22:0.73511845 23:0.25731713 24:0.28159309 25:0.30119442 26:0.33942974 27:0.27467016 28:0.21601166 29:0.31971433 30:0.3543738 31:0.39797046 32:0.24799421 33:0.54580812 34:0.74618537 35:0.776979 36:0.8008137 37:0.59800777 
-4 1:0.84469857 2:0.85253532 3:0.46219047 4:0.43853775 5:0.3658846 6:0.34027892 7:0.38718511 8:0.36498138 9:0.39676248 10:0.41548853 11:0.4587698 12:0.44647271 13:0.78565715 14:0.79776286 15:0.85821506 16:0.86482634 17:0.84469856 18:0.45129232 19:0.42450831 20:0.029649666 21:0.024072012 22:0.68757586 23:0.25731713 24:0.28159309 25:0.30119442 26:0.33942974 27:0.27467016 28:0.19820244 29:0.2906054 30:0.32622077 31:0.37312227 32:0.22719391 33:0.50843195 34:0.68992854 35:0.72684254 36:0.75942111 37:0.55662091 
-4 1:0.92133729 2:0.94672218 3:0.46219047 4:0.43853775 5:0.3658846 6:0.34027892 7:0.38718511 8:0.45855065 9:0.47272442 10:0.45144558 11:0.4791459 12:0.48563403 13:0.90672427 14:0.92719129 15:0.93403057 16:0.90695342 17:0.92133731 18:0.62328015 19:0.57154065 20:0.029649666 21:0.024072012 22:0.88800659 23:0.25731713 24:0.28159309 25:0.30119442 26:0.33942974 27:0.27467016 28:0.28396477 29:0.39937403 30:0.42337404 31:0.45661884 32:0.32007818 33:0.70510102 34:0.91838576 35:0.91895489 36:0.92103188 37:0.75861008 
-4 1:0.89117545 2:0.88947055 3:0.46219047 4:0.43853775 5:0.3658846 6:0.34027892 7:0.38718511 8:0.33360446 9:0.40025942 10:0.44796542 11:0.48852574 12:0.47072485 13:0.74525217 14:0.80417376 15:0.92458586 16:0.9202395 17:0.89117545 18:0.2233942 19:0.22974668 20:0.029649666 21:0.024072012 22:0.84453567 23:0.25731713 24:0.28159309 25:0.30119442 26:0.33942974 27:0.27467016 28:0.24099444 29:0.37136599 30:0.4142497 31:0.4621719 32:0.28015405 33:0.60672921 34:0.85964586 35:0.90064127 36:0.93098096 37:0.67193135 
4 1:0.94716517 2:0.94852339 3:0.46219047 4:0.43853775 5:0.3658846 6:0.34027892 7:0.38718511 8:0.36024484 9:0.43856561 10:0.47540765 11:0.51396263 12:0.49992675 13:0.7797788 14:0.8690892 15:0.98113341 16:0.96873681 17:0.94716521 18:0.23045158 19:0.23577882 20:0.029649666 21:0.024072012 22:0.95291418 23:0.25731713 24:0.28159309 25:0.30119442 26:0.33942974 27:0.27467016 28:0.29000855 29:0.43867769 30:0.46491161 31:0.49820485 32:0.33378631 33:0.71831532 34:1 35:1 36:1 37:0.78770529 
4 1:0.40993514 2:0.39815869 3:0.46219047 4:0.43853775 5:0.3658846 6:0.34027892 7:0.38718511 8:0.17591369 9:0.13804493 10:0.16759913 11:0.27082312 12:0.220293 13:0.541338 14:0.35966468 15:0.34764845 16:0.50267847 17:0.40993516 18:0.078324783 19:0.10525592 20:0.029649666 21:0.024072012 22:0.28182565 23:0.25731713 24:0.28159309 25:0.30119442 26:0.33942974 27:0.27467016 28:0.084511504 29:0.10294494 30:0.1035451 31:0.11677845 32:0.091295077 33:0.24736698 34:0.29593271 35:0.28774744 36:0.26645808 37:0.26091012 
-4 1:0.82874567 2:0.82527539 3:0.46219047 4:0.43853775 5:0.3658846 6:0.34027892 7:0.38718511 8:0.31012981 9:0.36496203 10:0.41481752 11:0.46028524 12:0.43892723 13:0.71443598 14:0.74160195 15:0.85344517 16:0.86712871 17:0.82874571 18:0.42271314 19:0.40032502 20:0.029649666 21:0.024072012 22:0.77920309 23:0.25731713 24:0.28159309 25:0.30119442 26:0.33942974 27:0.27467016 28:0.2248758 29:0.34237873 30:0.37783445 31:0.41911009 32:0.26021309 33:0.56866363 34:0.79765369 35:0.82807629 36:0.8477833 37:0.62749497 
-4 1:0.91984122 2:0.94430725 3:0.46219047 4:0.43853775 5:0.3658846 6:0.34027892 7:0.38718511 8:0.45380563 9:0.47119887 10:0.45127824 11:0.47943143 12:0.48522201 13:0.9004136 14:0.92359608 15:0.93263472 16:0.90696666 17:0.91984121 18:0.61908947 19:0.56795876 20:0.029649666 21:0.024072012 22:0.87437097 23:0.25731713 24:0.28159309 25:0.30119442 26:0.33942974 27:0.27467016 28:0.27423341 29:0.39305665 30:0.41909826 31:0.45373583 32:0.31090621 33:0.68174154 34:0.90435394 35:0.90994634 36:0.91495103 37:0.73770312 
-4 1:0.57679226 2:0.5492595 3:0.46219047 4:0.43853775 5:0.3658846 6:0.34027892 7:0.38718511 8:0.19020422 9:0.18209314 10:0.26272935 11:0.37413126 12:0.31038329 13:0.55925976 14:0.43171426 15:0.53578162 16:0.69024232 17:0.57679227 18:0.23795471 19:0.24270941 20:0.029649666 21:0.024072012 22:0.5725465 23:0.25731713 24:0.28159309 25:0.30119442 26:0.33942974 27:0.27467016 28:0.16581628 29:0.23650872 30:0.26577232 31:0.30741876 32:0.18857362 33:0.43123313 34:0.57252498 35:0.603324 36:0.62799779 37:0.46947715 
-4 1:0.79167689 2:0.78197158 3:0.46219047 4:0.43853775 5:0.3658846 6:0.34027892 7:0.38718511 8:0.28525301 9:0.33187934 10:0.39344696 11:0.45079555 12:0.42052672 13:0.68173747 14:0.68370885 15:0.80648767 16:0.8474872 17:0.7916769 18:0.37089701 19:0.35582155 20:0.029649666 21:0.024072012 22:0.78642881 23:0.25731713 24:0.28159309 25:0.30119442 26:0.33942974 27:0.27467016 28:0.22809387 29:0.34544245 30:0.38149744 31:0.42426775 32:0.26354828 33:0.57525214 34:0.80321598 35:0.83462529 36:0.85730889 37:0.63394793 
4 1:0.88830721 2:0.90645247 3:0.46219047 4:0.43853775 5:0.3658846 6:0.34027892 7:0.38718511 8:0.41649987 9:0.4408977 10:0.43614299 11:0.46954915 12:0.46847681 13:0.85253648 14:0.8733381 15:0.90235561 16:0.88818176 17:0.88830724 18:0.50850142 19:0.47294021 20:0.029649666 21:0.024072012 22:0.73704284 23:0.25731713 24:0.28159309 25:0.30119442 26:0.33942974 27:0.27467016 28:0.21611428 29:0.31602983 30:0.35080531 31:0.39557081 32:0.24728139 33:0.55083506 34:0.74487363 35:0.77698544 36:0.8045423 37:0.60169222 
4 1:0.88130354 2:0.898758 3:0.46219047 4:0.43853775 5:0.3658846 6:0.34027892 7:0.38718511 8:0.40902555 9:0.43673613 10:0.43337328 11:0.46616708 12:0.46482887 13:0.84293474 14:0.86644398 15:0.89660797 16:0.8814009 17:0.88130356 18:0.4889754 19:0.45625077 20:0.029649666 21:0.024072012 22:0.71067659 23:0.25731713 24:0.28159309 25:0.30119442 26:0.33942974 27:0.27467016 28:0.2069642 29:0.30253057 30:0.33682405 31:0.38170161 32:0.23684932 33:0.52992756 34:0.71673243 35:0.74965106 36:0.77812147 37:0.57912025 
-4 1:0.92741098 2:0.95451422 3:0.46219047 4:0.43853775 5:0.3658846 6:0.34027892 7:0.38718511 8:0.46601037 9:0.48002861 10:0.45415294 11:0.48036729 12:0.48870926 13:0.91646015 14:0.93986323 15:0.93994059 16:0.90937527 17:0.927411 18:0.63207598 19:0.57856293 20:0.029649666 21:0.024072012 22:0.88430712 23:0.25731713 24:0.28159309 25:0.30119442 26:0.33942974 27:0.27467016 28:0.28243933 29:0.397353 30:0.42135652 31:0.45481473 32:0.31839615 33:0.70190911 34:0.91438158 35:0.91512834 36:0.91765003 37:0.75523617 
-4 1:0.9619198 2:1 3:0.46219047 4:0.43853775 5:0.3658846 6:0.34027892 7:0.38718511 8:0.53033755 9:0.51497319 10:0.46972687 11:0.48714047 12:0.5062394 13:1 14:1 15:0.97320278 16:0.9238117 17:0.96191981 18:0.7544403 19:0.68828418 20:0.029649666 21:0.024072012 22:0.99999704 23:0.25731713 24:0.28159309 25:0.30119442 26:0.33942974 27:0.27467016 28:0.41198666 29:0.43319567 30:0.44196889 31:0.46801184 32:0.43056562 33:0.9999981 34:0.99028587 35:0.95631657 36:0.94351033 37:0.99999757 
4 1:0.56436773 2:0.51600083 3:0.46219047 4:0.43853775 5:0.3658846 6:0.34027892 7:0.38718511 8:0.082878657 9:0.13882294 10:0.25753086 11:0.38692875 12:0.30229313 13:0.42080482 14:0.35997014 15:0.52819651 16:0.71910801 17:0.56436774 18:0.29550837 19:0.29088895 20:0.029649666 21:0.024072012 22:0.47524903 23:0.25731713 24:0.28159309 25:0.30119442 26:0.33942974 27:0.27467016 28:0.12979477 29:0.18947381 30:0.21395011 31:0.25208052 32:0.14866406 33:0.35023198 34:0.47626808 35:0.50402804 36:0.52511922 37:0.38456417 
4 1:0.77441423 2:0.75447702 3:0.46219047 4:0.43853775 5:0.3658846 6:0.34027892 7:0.38718511 8:0.21656949 9:0.29316916 10:0.39933295 11:0.44418571 12:0.40927058 13:0.59381858 14:0.62271281 15:0.82516745 16:0.83910662 17:0.77441425 18:0.43239356 19:0.40846641 20:0.029649666 21:0.024072012 22:0.69929587 23:0.25731713 24:0.28159309 25:0.30119442 26:0.33942974 27:0.27467016 28:0.18800941 29:0.29749062 30:0.33802642 31:0.38872334 32:0.22074024 33:0.48526979 34:0.7051007 35:0.75106978 36:0.79064845 37:0.54294735 
-4 1:0.87863365 2:0.88801111 3:0.46219047 4:0.43853775 5:0.3658846 6:0.34027892 7:0.38718511 8:0.35525797 9:0.42490365 10:0.43728869 11:0.47024387 12:0.46337285 13:0.77344036 14:0.84635187 15:0.90481493 16:0.88944522 17:0.87863363 18:0.54104452 19:0.50125151 20:0.029649666 21:0.024072012 22:0.81440168 23:0.25731713 24:0.28159309 25:0.30119442 26:0.33942974 27:0.27467016 28:0.23964941 29:0.35819863 30:0.39371125 31:0.43616215 32:0.27571263 33:0.60416174 34:0.83247415 35:0.86072525 36:0.8817588 37:0.66279097 
-4 1:0.9280098 2:0.95507427 3:0.46219047 4:0.43853775 5:0.3658846 6:0.34027892 7:0.38718511 8:0.46663783 9:0.47999935 10:0.45467497 11:0.48072353 12:0.48908419 13:0.91723617 14:0.93962326 15:0.94082864 16:0.90998622 17:0.92800982 18:0.64179852 19:0.58736884 20:0.029649666 21:0.024072012 22:0.89934295 23:0.25731713 24:0.28159309 25:0.30119442 26:0.33942974 27:0.27467016 28:0.29223303 29:0.40560674 30:0.42700048 31:0.45876224 32:0.32801411 33:0.72410986 34:0.93155865 35:0.9261949 36:0.92522409 37:0.77591841 
