svm_type nu_svr
kernel_type rbf
gamma 0.050000000000000003
nr_class 2
total_sv 604
rho -1.1555354681267604
SV
4 1:0.42337363 2:0.38334696 3:0.36882509 4:0.48843582 5:0.60538821 6:0.67766076 7:0.63849048 8:0.067485213 9:0.10245141 10:0.26550959 11:0.50557743 12:0.36019128 13:0.4855011 14:0.2443548 15:0.3359807 16:0.59301209 17:0.42337365 18:0.21304519 19:0.24368169 20:0.21546587 21:0.23167777 22:0.36236829 23:0.32534884 24:0.33141279 25:0.32605071 26:0.32955625 27:0.33651789 28:0.089277617 29:0.14027819 30:0.1685498 31:0.21363154 32:0.10463481 33:0.22113291 34:0.32903869 35:0.38473996 36:0.45014666 37:0.25384978 
-4 1:0.81948445 2:0.80376043 3:0.36882509 4:0.48843582 5:0.60538821 6:0.67766076 7:0.63849048 8:0.23206798 9:0.40056513 10:0.59114061 11:0.7163797 12:0.63262146 13:0.70832335 14:0.74025391 15:0.82209764 16:0.8622558 17:0.81948448 18:0.42493206 19:0.41472637 20:0.21546587 21:0.23167777 22:0.74109645 23:0.32534884 24:0.33141279 25:0.32605071 26:0.32955625 27:0.33651789 28:0.22099794 29:0.34200044 30:0.37655463 31:0.40111247 32:0.25537526 33:0.4993383 34:0.72528987 35:0.78378793 36:0.8207117 37:0.56159341 
-4 1:0.88374366 2:0.89484987 3:0.36882509 4:0.48843582 5:0.60538821 6:0.67766076 7:0.63849048 8:0.32880518 9:0.49271148 10:0.64058626 11:0.73034542 12:0.67690925 13:0.83907042 14:0.89336112 15:0.89602709 16:0.88008593 17:0.88374373 18:0.54441806 19:0.51118089 20:0.21546587 21:0.23167777 22:0.82599604 23:0.32534884 24:0.33141279 25:0.32605071 26:0.32955625 27:0.33651789 28:0.27383154 29:0.39417608 30:0.4113214 31:0.42267661 32:0.30833682 33:0.61002418 34:0.82757608 35:0.85037901 36:0.86326146 37:0.66903444 
-4 1:0.81791681 2:0.82232542 3:0.36882509 4:0.48843582 5:0.60538821 6:0.67766076 7:0.63849048 8:0.28883369 9:0.44117219 10:0.58911053 11:0.69657474 12:0.63211852 13:0.78436938 14:0.80575202 15:0.81816206 16:0.83665428 17:0.81791684 18:0.37632128 19:0.37548554 20:0.21546587 21:0.23167777 22:0.60456244 23:0.32534884 24:0.33141279 25:0.32605071 26:0.32955625 27:0.33651789 28:0.1812296 29:0.26880338 30:0.29878575 31:0.32965827 32:0.20698447 33:0.41432135 34:0.58076798 35:0.63401879 36:0.67907091 37:0.46183971 
4 1:0.89518978 2:0.91490418 3:0.36882509 4:0.48843582 5:0.60538821 6:0.67766076 7:0.63849048 8:0.36564446 9:0.51353521 10:0.64593811 11:0.73147966 12:0.68478677 13:0.88920302 14:0.92829859 15:0.90400379 16:0.88153688 17:0.89518979 18:0.55421773 19:0.51909162 20:0.21546587 21:0.23167777 22:0.83564839 23:0.32534884 24:0.33141279 25:0.32605071 26:0.32955625 27:0.33651789 28:0.28641631 29:0.39729959 30:0.41284097 31:0.42370123 32:0.31903804 33:0.63586483 34:0.83345361 35:0.85315529 36:0.86521637 37:0.69028804 
-2.0386772959648281 1:0.26291837 2:0.24482004 3:0.36882509 4:0.48843582 5:0.60538821 6:0.67766076 7:0.63849048 8:0.020167886 9:0.061783019 10:0.17042677 11:0.36813554 12:0.25095155 13:0.42034943 14:0.17464309 15:0.19273204 16:0.41617939 17:0.26291837 18:0.13973429 19:0.18450181 20:0.21546587 21:0.23167777 22:0.24391077 23:0.32534884 24:0.33141279 25:0.32605071 26:0.32955625 27:0.33651789 28:0.074407396 29:0.091630604 30:0.096720587 31:0.11748823 32:0.080389771 33:0.18985438 34:0.23354597 35:0.24703951 36:0.26021364 37:0.20448238 
-4 1:0.79034629 2:0.79350013 3:0.36882509 4:0.48843582 5:0.60538821 6:0.67766076 7:0.63849048 8:0.27417115 9:0.42223133 10:0.57192766 11:0.67947307 12:0.61390217 13:0.76388908 14:0.77242709 15:0.79117644 16:0.81420792 17:0.79034635 18:0.3520164 19:0.35586554 20:0.21546587 21:0.23167777 22:0.66137585 23:0.32534884 24:0.33141279 25:0.32605071 26:0.32955625 27:0.33651789 28:0.20169967 29:0.30141743 30:0.32957787 31:0.35548131 32:0.23052755 33:0.45731082 34:0.6445609 35:0.69285557 36:0.72991637 37:0.50963202 
-4 1:0.78171548 2:0.77950315 3:0.36882509 4:0.48843582 5:0.60538821 6:0.67766076 7:0.63849048 8:0.25660099 9:0.4068171 10:0.56183289 11:0.68005147 12:0.60726486 13:0.74048545 14:0.74846003 15:0.77726509 16:0.81547093 17:0.78171548 18:0.33616723 19:0.34307138 20:0.21546587 21:0.23167777 22:0.55676589 23:0.32534884 24:0.33141279 25:0.32605071 26:0.32955625 27:0.33651789 28:0.16375375 29:0.24340894 30:0.27283585 31:0.3059098 32:0.18729934 33:0.37795555 34:0.53121919 35:0.58447539 36:0.63229041 37:0.42214624 
4 1:0.88451088 2:0.90138707 3:0.36882509 4:0.48843582 5:0.60538821 6:0.67766076 7:0.63849048 8:0.35230686 9:0.50241674 10:0.63805449 11:0.72725921 12:0.67746052 13:0.87098388 14:0.90963146 15:0.89218414 16:0.87614589 17:0.88451089 18:0.53714023 19:0.50530589 20:0.21546587 21:0.23167777 22:0.82639019 23:0.32534884 24:0.33141279 25:0.32605071 26:0.32955625 27:0.33651789 28:0.28269183 29:0.39126803 30:0.40802478 31:0.42032495 32:0.31478452 33:0.6282249 34:0.82171045 35:0.84396934 36:0.85856775 37:0.68179607 
-4 1:0.83518168 2:0.81633487 3:0.36882509 4:0.48843582 5:0.60538821 6:0.67766076 7:0.63849048 8:0.209225 9:0.41145016 10:0.60829625 11:0.72550273 12:0.64347981 13:0.67767464 14:0.75857192 15:0.84748928 16:0.87372358 17:0.83518171 18:0.17680157 19:0.2144242 20:0.21546587 21:0.23167777 22:0.57735863 23:0.32534884 24:0.33141279 25:0.32605071 26:0.32955625 27:0.33651789 28:0.16122066 29:0.2526697 30:0.28726882 31:0.3242765 32:0.18764482 33:0.37351803 34:0.55000788 35:0.61263567 36:0.66894998 37:0.42367591 
-4 1:0.823731 2:0.8193158 3:0.36882509 4:0.48843582 5:0.60538821 6:0.67766076 7:0.63849048 8:0.26212677 9:0.42744825 10:0.59523932 11:0.70756381 12:0.63582121 13:0.74890575 14:0.78399318 15:0.82771206 16:0.85083647 17:0.82373102 18:0.39899621 19:0.39378978 20:0.21546587 21:0.23167777 22:0.71878163 23:0.32534884 24:0.33141279 25:0.32605071 26:0.32955625 27:0.33651789 28:0.22092542 29:0.33162233 30:0.36066747 31:0.38397124 32:0.25270189 33:0.49884569 34:0.70472218 35:0.75320544 36:0.78678171 37:0.55584501 
-4 1:0.83756752 2:0.84181285 3:0.36882509 4:0.48843582 5:0.60538821 6:0.67766076 7:0.63849048 8:0.30203107 9:0.44841323 10:0.60325721 11:0.70973874 12:0.64528501 13:0.80280202 14:0.8190148 15:0.83982655 16:0.85371284 17:0.83756754 18:0.44418802 19:0.43027065 20:0.21546587 21:0.23167777 22:0.71505917 23:0.32534884 24:0.33141279 25:0.32605071 26:0.32955625 27:0.33651789 28:0.21383 29:0.32881663 30:0.36131253 31:0.38697458 32:0.24659055 33:0.48355942 34:0.6991406 35:0.7543806 36:0.79266483 37:0.54313047 
-4 1:0.46516242 2:0.43358612 3:0.36882509 4:0.48843582 5:0.60538821 6:0.67766076 7:0.63849048 8:0.059900115 9:0.15029156 10:0.33137368 11:0.50646296 12:0.39022892 13:0.4744276 14:0.3223353 15:0.43220587 16:0.59306238 17:0.46516241 18:0.15880518 19:0.19989669 20:0.21546587 21:0.23167777 22:0.36594305 23:0.32534884 24:0.33141279 25:0.32605071 26:0.32955625 27:0.33651789 28:0.10333951 29:0.14779668 30:0.16726372 31:0.19909451 32:0.11698874 33:0.25084149 34:0.34355455 35:0.38197526 36:0.42110071 37:0.27898065 
-4 1:0.78105999 2:0.77174055 3:0.36882509 4:0.48843582 5:0.60538821 6:0.67766076 7:0.63849048 8:0.24493892 9:0.38920536 10:0.55813937 11:0.68864842 12:0.60666523 13:0.72531744 14:0.71949293 15:0.77186177 16:0.82665259 17:0.78106002 18:0.35572158 19:0.35885653 20:0.21546587 21:0.23167777 22:0.69087937 23:0.32534884 24:0.33141279 25:0.32605071 26:0.32955625 27:0.33651789 28:0.20472191 29:0.31282776 30:0.34771938 31:0.37918446 32:0.2359068 33:0.46454343 34:0.6676872 35:0.72830318 36:0.77729169 37:0.5214657 
-4 1:0.81875496 2:0.82489588 3:0.36882509 4:0.48843582 5:0.60538821 6:0.67766076 7:0.63849048 8:0.29624911 9:0.44374133 10:0.58986453 11:0.69559122 12:0.63271628 13:0.79434105 14:0.81011525 15:0.81927157 16:0.83535499 17:0.81875498 18:0.38236773 19:0.38036651 20:0.21546587 21:0.23167777 22:0.62733484 23:0.32534884 24:0.33141279 25:0.32605071 26:0.32955625 27:0.33651789 28:0.19376656 29:0.28143626 30:0.3091774 31:0.33733491 32:0.21971105 33:0.44077031 34:0.60566458 35:0.6540145 36:0.6942718 37:0.48783332 
4 1:0.89390529 2:0.91363414 3:0.36882509 4:0.48843582 5:0.60538821 6:0.67766076 7:0.63849048 8:0.36508462 9:0.5126702 10:0.645177 11:0.73054302 12:0.68389119 13:0.8884581 14:0.92692821 15:0.90288307 16:0.88034791 17:0.89390532 18:0.56187711 19:0.52527462 20:0.21546587 21:0.23167777 22:0.84445177 23:0.32534884 24:0.33141279 25:0.32605071 26:0.32955625 27:0.33651789 28:0.29335961 29:0.40195314 30:0.41576085 31:0.42542362 32:0.32554146 33:0.65077523 34:0.84275227 35:0.85884493 36:0.86866654 37:0.70379043 
-4 1:0.81772671 2:0.82354057 3:0.36882509 4:0.48843582 5:0.60538821 6:0.67766076 7:0.63849048 8:0.29650792 9:0.44216355 10:0.58793284 11:0.69590927 12:0.63197814 13:0.7947082 14:0.80773464 15:0.81640912 16:0.83576865 17:0.81772671 18:0.37334572 19:0.37308354 20:0.21546587 21:0.23167777 22:0.59682972 23:0.32534884 24:0.33141279 25:0.32605071 26:0.32955625 27:0.33651789 28:0.17959345 29:0.26459908 30:0.29398485 31:0.32509227 32:0.204706 33:0.41100454 34:0.57262462 35:0.62489679 36:0.67010926 37:0.45732627 
4 1:0.89116161 2:0.91026413 3:0.36882509 4:0.48843582 5:0.60538821 6:0.67766076 7:0.63849048 8:0.36188966 9:0.51008184 10:0.64297245 11:0.72947254 12:0.68201506 13:0.88414016 14:0.92263144 15:0.89957988 16:0.87896321 17:0.89116162 18:0.54918821 19:0.51503156 20:0.21546587 21:0.23167777 22:0.82581641 23:0.32534884 24:0.33141279 25:0.32605071 26:0.32955625 27:0.33651789 28:0.28053129 29:0.3915542 30:0.4086156 31:0.42069167 32:0.31312898 33:0.62368593 34:0.82227302 35:0.84509977 36:0.85929216 37:0.67843197 
-4 1:0.93158211 2:0.96750829 3:0.36882509 4:0.48843582 5:0.60538821 6:0.67766076 7:0.63849048 8:0.44651061 9:0.55578596 10:0.66971551 11:0.74231967 12:0.70961018 13:1 14:1 15:0.9398872 16:0.89547136 17:0.93158213 18:0.73320348 19:0.66357703 20:0.21546587 21:0.23167777 22:0.99999721 23:0.32534884 24:0.33141279 25:0.32605071 26:0.32955625 27:0.33651789 28:0.4593273 29:0.46378641 30:0.45291514 31:0.44859082 32:0.47100821 33:0.99999897 34:0.96447255 35:0.93027577 36:0.91452972 37:0.99999862 
4 1:0.78643116 2:0.75845774 3:0.36882509 4:0.48843582 5:0.60538821 6:0.67766076 7:0.63849048 8:0.17121309 9:0.35359784 10:0.58317361 11:0.69903628 12:0.61005068 13:0.62610159 14:0.66282727 15:0.80968404 16:0.83979329 17:0.78643119 18:0.37269696 19:0.37255983 20:0.21546587 21:0.23167777 22:0.63763668 23:0.32534884 24:0.33141279 25:0.32605071 26:0.32955625 27:0.33651789 28:0.17386789 29:0.28701384 30:0.32444356 31:0.35800267 32:0.20555837 33:0.39989553 34:0.61684752 35:0.68339345 36:0.73515289 37:0.45980239 
-4 1:0.80862902 2:0.8019505 3:0.36882509 4:0.48843582 5:0.60538821 6:0.67766076 7:0.63849048 8:0.23092543 9:0.42057959 10:0.59092107 11:0.69547864 12:0.62554439 13:0.70641924 14:0.77210821 15:0.82106739 16:0.83533142 17:0.80862905 18:0.3808188 19:0.37911615 20:0.21546587 21:0.23167777 22:0.61728766 23:0.32534884 24:0.33141279 25:0.32605071 26:0.32955625 27:0.33651789 28:0.18251932 29:0.27687906 30:0.3067433 31:0.33683128 32:0.20980531 33:0.41734955 34:0.59672347 35:0.64938539 36:0.69333747 37:0.46783806 
4 1:0.89212861 2:0.91154676 3:0.36882509 4:0.48843582 5:0.60538821 6:0.67766076 7:0.63849048 8:0.36470796 9:0.51058583 10:0.64353802 11:0.7299431 12:0.68267278 13:0.88790573 14:0.92341493 15:0.90043782 16:0.87958595 17:0.89212861 18:0.55872925 19:0.52273352 20:0.21546587 21:0.23167777 22:0.84429512 23:0.32534884 24:0.33141279 25:0.32605071 26:0.32955625 27:0.33651789 28:0.29308616 29:0.40200141 30:0.41578289 31:0.42552945 32:0.32533243 33:0.64996373 34:0.8427776 35:0.85885607 36:0.86885963 37:0.70317847 
-4 1:0.82989364 2:0.83652913 3:0.36882509 4:0.48843582 5:0.60538821 6:0.67766076 7:0.63849048 8:0.29905584 9:0.45217512 10:0.59811161 11:0.70174159 12:0.64009846 13:0.79849228 14:0.82493355 15:0.8320896 16:0.84340636 17:0.82989363 18:0.39967767 19:0.39433988 20:0.21546587 21:0.23167777 22:0.63265344 23:0.32534884 24:0.33141279 25:0.32605071 26:0.32955625 27:0.33651789 28:0.1927333 29:0.28361422 30:0.31310478 31:0.34212507 32:0.21946851 33:0.4390938 34:0.61030378 35:0.66183093 36:0.70395072 37:0.48781232 
4 1:0.89535337 2:0.91480508 3:0.36882509 4:0.48843582 5:0.60538821 6:0.67766076 7:0.63849048 8:0.36517094 9:0.5127081 10:0.64592393 11:0.73190312 12:0.68482503 13:0.88870124 14:0.9272911 15:0.90413088 16:0.882107 17:0.89535339 18:0.56880707 19:0.5308688 20:0.21546587 21:0.23167777 22:0.85176941 23:0.32534884 24:0.33141279 25:0.32605071 26:0.32955625 27:0.33651789 28:0.29627665 29:0.4061816 30:0.41944407 31:0.42839761 32:0.32878803 33:0.65710028 34:0.8512 35:0.86599858 36:0.87459617 37:0.71057866 
4 1:0.57573602 2:0.52176037 3:0.26446677 4:0.41065693 5:0.61452831 6:0.86148808 7:0.70728473 8:0.069770387 9:0.13688628 10:0.37032926 11:0.71563976 12:0.50525814 13:0.58850442 14:0.35847942 15:0.48565549 16:0.7149049 17:0.57573607 18:0.24582015 19:0.18591168 20:0.24993648 21:0.20241661 22:0.47578921 23:0.90906942 24:1 25:1 26:1 27:0.95759032 28:0.23367896 29:0.44979938 30:0.57485366 31:0.67587934 32:0.29512539 33:0.25375066 34:0.42890953 35:0.5253837 36:0.61141729 37:0.30612814 
4 1:0.85130662 2:0.83622949 3:0.26446677 4:0.41065693 5:0.61452831 6:0.86148808 7:0.70728473 8:0.18738598 9:0.36341101 10:0.62483639 11:0.8599198 12:0.70630884 13:0.75819187 14:0.77208204 15:0.86217845 16:0.87183285 17:0.85130662 18:0.44699689 19:0.34831066 20:0.24993648 21:0.20241661 22:0.80985925 23:0.90906942 24:1 25:1 26:1 27:0.95759032 28:0.53130517 29:0.84431535 30:0.91043597 31:0.92355394 32:0.61780278 33:0.57400494 34:0.8129143 35:0.844967 36:0.85832239 37:0.63974254 
-4 1:0.87567783 2:0.87740603 3:0.26446677 4:0.41065693 5:0.61452831 6:0.86148808 7:0.70728473 8:0.22998217 9:0.4087503 10:0.64154311 11:0.86432986 12:0.72409003 13:0.81965228 14:0.85485368 15:0.88689087 16:0.8766294 17:0.87567787 18:0.50686302 19:0.39663732 20:0.24993648 21:0.20241661 22:0.84514823 23:0.90906942 24:1 25:1 26:1 27:0.95759032 28:0.57917776 29:0.88635936 30:0.93574137 31:0.94091382 32:0.66461715 33:0.6255131 34:0.85383829 35:0.86906876 36:0.87563114 37:0.68814065 
4 1:0.78315423 2:0.7727816 3:0.26446677 4:0.41065693 5:0.61452831 6:0.86148808 7:0.70728473 8:0.18088735 9:0.33323559 10:0.5674873 11:0.80914569 12:0.65658596 13:0.7488304 14:0.71699672 15:0.77733829 16:0.81659524 17:0.78315427 18:0.31494676 19:0.24171381 20:0.24993648 21:0.20241661 22:0.56911254 23:0.90906942 24:1 25:1 26:1 27:0.95759032 28:0.34927054 29:0.55698973 30:0.65409162 31:0.72613765 32:0.40997198 33:0.37809685 34:0.5332137 35:0.60081736 36:0.66149916 37:0.42483465 
4 1:0.88582473 2:0.90163183 3:0.26446677 4:0.41065693 5:0.61452831 6:0.86148808 7:0.70728473 8:0.27793159 9:0.43551837 10:0.64365704 11:0.86340836 12:0.73148998 13:0.88881897 14:0.90372823 15:0.89002135 16:0.87563045 17:0.88582475 18:0.51306952 19:0.40164748 20:0.24993648 21:0.20241661 22:0.8439426 23:0.90906942 24:1 25:1 26:1 27:0.95759032 28:0.5928721 29:0.87779256 30:0.928802 31:0.93631891 32:0.67380015 33:0.64025514 34:0.84549585 35:0.86245472 36:0.8710455 37:0.69763867 
-1.3761007776404439 1:0.59027927 2:0.5373324 3:0.26446677 4:0.41065693 5:0.61452831 6:0.86148808 7:0.70728473 8:0.052957532 9:0.14704948 10:0.40084137 11:0.71507265 12:0.5159157 13:0.56424371 14:0.37700717 15:0.5307708 16:0.71419897 17:0.59027924 18:0.22619988 19:0.17007331 20:0.24993648 21:0.20241661 22:0.4121913 23:0.90906942 24:1 25:1 26:1 27:0.95759032 28:0.24901988 29:0.39232411 30:0.47764378 31:0.56340044 32:0.29237601 33:0.27017199 34:0.37286757 35:0.43271363 36:0.49921414 37:0.30319566 
4 1:0.83544492 2:0.83094026 3:0.26446677 4:0.41065693 5:0.61452831 6:0.86148808 7:0.70728473 8:0.21006048 9:0.37296227 10:0.60853107 11:0.8417454 12:0.69473902 13:0.79089606 14:0.78951091 15:0.83804454 16:0.85205784 17:0.83544501 18:0.40428545 19:0.31383205 20:0.24993648 21:0.20241661 22:0.73329211 23:0.90906942 24:1 25:1 26:1 27:0.95759032 28:0.47210871 29:0.74778966 30:0.83047323 31:0.86586167 32:0.54990028 33:0.51028963 34:0.71895237 35:0.76881638 36:0.8008145 37:0.56952307 
4 1:0.78338451 2:0.77018443 3:0.26446677 4:0.41065693 5:0.61452831 6:0.86148808 7:0.70728473 8:0.17609245 9:0.32835642 10:0.56668058 11:0.8122027 12:0.65674355 13:0.7419095 14:0.70813131 15:0.77617988 16:0.81991972 17:0.78338453 18:0.31305276 19:0.24018489 20:0.24993648 21:0.20241661 22:0.58295368 23:0.90906942 24:1 25:1 26:1 27:0.95759032 28:0.35926406 29:0.57020854 30:0.66880997 31:0.74132081 32:0.42101841 33:0.38886285 34:0.54609558 35:0.61484638 36:0.6766462 37:0.4362686 
4 1:0.88582212 2:0.90086381 3:0.26446677 4:0.41065693 5:0.61452831 6:0.86148808 7:0.70728473 8:0.27573819 9:0.43433073 10:0.64384484 11:0.86392928 12:0.73148975 13:0.88565014 14:0.90155597 15:0.89030184 16:0.87619533 17:0.88582212 18:0.51957908 19:0.40690229 20:0.24993648 21:0.20241661 22:0.85331103 23:0.90906942 24:1 25:1 26:1 27:0.95759032 28:0.607323 29:0.88845204 30:0.93503193 31:0.9399601 32:0.68750892 33:0.65580306 34:0.85587289 35:0.86838873 36:0.8746764 37:0.71181126 
-4 1:0.75322817 2:0.71973988 3:0.26446677 4:0.41065693 5:0.61452831 6:0.86148808 7:0.70728473 8:0.12504975 9:0.27473894 10:0.54271889 11:0.80777385 12:0.63468063 13:0.66825784 14:0.61038263 15:0.74086342 16:0.81515163 17:0.75322818 18:0.21715365 19:0.16277078 20:0.24993648 21:0.20241661 22:0.51551436 23:0.90906942 24:1 25:1 26:1 27:0.95759032 28:0.3050637 29:0.49171344 30:0.59571544 31:0.68855679 32:0.36054112 33:0.33059783 34:0.46977408 35:0.54531428 36:0.62411054 37:0.37380459 
4 1:0.93056117 2:0.92113985 3:0.26446677 4:0.41065693 5:0.61452831 6:0.86148808 7:0.70728473 8:0.22607184 9:0.42558278 10:0.67338576 11:0.91834421 12:0.76414033 13:0.81401124 14:0.8855518 15:0.93398422 16:0.93537184 17:0.93056119 18:0.29047118 19:0.22195602 20:0.24993648 21:0.20241661 22:0.8993709 23:0.90906942 24:1 25:1 26:1 27:0.95759032 28:0.61423978 29:0.94223164 30:0.99449818 31:1 32:0.70535275 33:0.66322222 34:0.90821242 35:0.92502667 36:0.93454014 37:0.73024136 
-3.1923111314732151 1:0.28176692 2:0.28732087 3:0.26446677 4:0.41065693 5:0.61452831 6:0.86148808 7:0.70728473 8:0.046804703 9:0.071981643 10:0.19396634 11:0.42637207 12:0.29084263 13:0.55537459 14:0.23992202 15:0.2247188 16:0.40015174 17:0.28176695 18:0.015516328 20:0.24993648 21:0.20241661 22:0.097910829 23:0.90906942 24:1 25:1 26:1 27:0.95759032 28:0.080624545 29:0.10789503 30:0.12362064 31:0.15564042 32:0.089678583 33:0.088945065 34:0.09598151 35:0.095521293 36:0.092678005 37:0.093596276 
-4 1:0.82496919 2:0.81500375 3:0.26446677 4:0.41065693 5:0.61452831 6:0.86148808 7:0.70728473 8:0.19409559 9:0.35639506 10:0.60281486 11:0.83761196 12:0.68709579 13:0.76786781 14:0.75924807 15:0.82959414 16:0.84757114 17:0.8249692 18:0.36260937 19:0.28018923 20:0.24993648 21:0.20241661 22:0.72430483 23:0.90906942 24:1 25:1 26:1 27:0.95759032 28:0.47072874 29:0.74516854 30:0.81923179 31:0.84594294 32:0.54766643 33:0.50879626 34:0.71638278 35:0.75809294 36:0.7809429 37:0.56720245 
-4 1:0.63869531 2:0.59899766 3:0.26446677 4:0.41065693 5:0.61452831 6:0.86148808 7:0.70728473 8:0.08492335 9:0.19746339 10:0.44867549 11:0.7334238 12:0.55122097 13:0.61037225 14:0.46904737 15:0.60150084 16:0.73422479 17:0.63869533 18:0.20325385 19:0.15155023 20:0.24993648 21:0.20241661 22:0.45956412 23:0.90906942 24:1 25:1 26:1 27:0.95759032 28:0.28285587 29:0.44918631 30:0.53300919 31:0.59909453 32:0.33190634 33:0.30662509 34:0.42827239 35:0.48549552 36:0.53484743 37:0.34411424 
-4 1:0.77714091 2:0.76014676 3:0.26446677 4:0.41065693 5:0.61452831 6:0.86148808 7:0.70728473 8:0.16958327 9:0.31583898 10:0.56266682 11:0.81076309 12:0.65220207 13:0.73252771 14:0.68524998 15:0.77020144 16:0.81835784 17:0.77714097 18:0.30702843 19:0.23532178 20:0.24993648 21:0.20241661 22:0.64990435 23:0.90906942 24:1 25:1 26:1 27:0.95759032 28:0.4130978 29:0.65507708 30:0.73992884 31:0.78782087 32:0.48214163 33:0.44678947 34:0.62869778 35:0.68257014 36:0.72299882 37:0.49946221 
4 1:0.827196 2:0.82892089 3:0.26446677 4:0.41065693 5:0.61452831 6:0.86148808 7:0.70728473 8:0.22384333 9:0.378876 10:0.60021692 11:0.83163668 12:0.68871926 13:0.81079915 14:0.80031866 15:0.82574969 16:0.84106023 17:0.82719601 18:0.38209064 19:0.2959154 20:0.24993648 21:0.20241661 22:0.6782247 23:0.90906942 24:1 25:1 26:1 27:0.95759032 28:0.43541065 29:0.67930803 30:0.76939515 31:0.82042497 32:0.50574806 33:0.47079122 34:0.65227328 35:0.71062247 36:0.75548933 37:0.52386076 
4 1:0.81440341 2:0.81292257 3:0.26446677 4:0.41065693 5:0.61452831 6:0.86148808 7:0.70728473 8:0.21187572 9:0.36596708 10:0.59113451 11:0.82463651 12:0.6793808 13:0.7935368 14:0.77676275 15:0.81232482 16:0.83344908 17:0.81440342 18:0.35956323 19:0.27773025 20:0.24993648 21:0.20241661 22:0.64098153 23:0.90906942 24:1 25:1 26:1 27:0.95759032 28:0.40199599 29:0.63636524 30:0.73214827 31:0.79184584 32:0.46976102 33:0.43483562 34:0.61047908 35:0.67515783 36:0.72700734 37:0.48665497 
-4 1:0.89100325 2:0.90777149 3:0.26446677 4:0.41065693 5:0.61452831 6:0.86148808 7:0.70728473 8:0.28107761 9:0.44025405 10:0.64796141 11:0.86617501 12:0.73526969 13:0.89336208 14:0.91237059 15:0.89638637 16:0.87863772 17:0.89100329 18:0.53723244 19:0.42115289 20:0.24993648 21:0.20241661 22:0.86536026 23:0.90906942 24:1 25:1 26:1 27:0.95759032 28:0.6216007 29:0.90308906 30:0.94499787 31:0.9466047 32:0.70194538 33:0.67116992 34:0.87012159 35:0.87788266 36:0.88130337 37:0.72674024 
-4 1:0.93158211 2:0.96750829 3:0.26446677 4:0.41065693 5:0.61452831 6:0.86148808 7:0.70728473 8:0.3549968 9:0.48824708 10:0.67736564 11:0.8816447 12:0.76487055 13:1 14:1 15:0.9398872 16:0.89547136 17:0.93158213 18:0.72339203 19:0.57142935 20:0.24993648 21:0.20241661 22:1 23:0.90906942 24:1 25:1 26:1 27:0.95759032 28:0.92712748 29:1 30:1 31:0.9799282 32:0.96618701 33:1 34:0.96447492 35:0.93027926 36:0.91453354 37:1 
4 1:0.50057541 2:0.45839027 3:0.26446677 4:0.41065693 5:0.61452831 6:0.86148808 7:0.70728473 8:0.043230469 9:0.11727516 10:0.33122242 11:0.6410047 12:0.45045941 13:0.55020764 14:0.3226559 15:0.42779828 16:0.63364166 17:0.50057541 18:0.16080023 19:0.11727975 20:0.24993648 21:0.20241661 22:0.27530288 23:0.90906942 24:1 25:1 26:1 27:0.95759032 28:0.17099648 29:0.26168874 30:0.32238784 31:0.39883736 32:0.19928046 33:0.18621416 34:0.24571133 35:0.28485498 36:0.335163 37:0.20694234 
-3.8344292934878754 1:0.85728929 2:0.84876746 3:0.26446677 4:0.41065693 5:0.61452831 6:0.86148808 7:0.70728473 8:0.20839314 9:0.37963414 10:0.62321109 11:0.86192825 12:0.7106786 13:0.7885218 14:0.80173112 15:0.85975381 16:0.87400476 17:0.85728931 18:0.42502475 19:0.33057375 20:0.24993648 21:0.20241661 22:0.76045066 23:0.90906942 24:1 25:1 26:1 27:0.95759032 28:0.47980931 29:0.77883838 30:0.86719535 31:0.89618051 32:0.56322809 33:0.51860733 34:0.74918325 35:0.80378721 36:0.83103733 37:0.58332828 
4 1:0.82578039 2:0.81893569 3:0.26446677 4:0.41065693 5:0.61452831 6:0.86148808 7:0.70728473 8:0.19154724 9:0.36735446 10:0.6030399 11:0.83514506 12:0.68769281 13:0.76420365 14:0.77925917 15:0.82992767 16:0.8448732 17:0.82578038 18:0.38831528 19:0.3009402 20:0.24993648 21:0.20241661 22:0.69822948 23:0.90906942 24:1 25:1 26:1 27:0.95759032 28:0.44497912 29:0.70454809 30:0.79359986 31:0.83880322 32:0.51893488 33:0.48108649 34:0.676848 35:0.73368292 36:0.77382188 37:0.53749591 
-4 1:0.89313734 2:0.91071729 3:0.26446677 4:0.41065693 5:0.61452831 6:0.86148808 7:0.70728473 8:0.284624 9:0.44232647 10:0.64962124 11:0.86710677 12:0.73682683 13:0.89846787 14:0.91615148 15:0.89884492 16:0.87965273 17:0.89313737 18:0.54436355 19:0.42690944 20:0.24993648 21:0.20241661 22:0.87266914 23:0.90906942 24:1 25:1 26:1 27:0.95759032 28:0.63448632 29:0.91055981 30:0.94918239 31:0.94915876 32:0.71375748 33:0.68503341 34:0.87739426 35:0.88186827 36:0.88384982 37:0.73895164 
4 1:0.7907986 2:0.7826252 3:0.26446677 4:0.41065693 5:0.61452831 6:0.86148808 7:0.70728473 8:0.18896447 9:0.3415625 10:0.5724709 11:0.81331032 12:0.66216517 13:0.7604857 14:0.7321958 15:0.7847019 16:0.82112174 17:0.79079865 18:0.33290641 19:0.25621165 20:0.24993648 21:0.20241661 22:0.59374583 23:0.90906942 24:1 25:1 26:1 27:0.95759032 28:0.36735124 29:0.58328952 30:0.68066099 31:0.74976897 32:0.43032135 33:0.39754843 34:0.55880766 35:0.62611606 36:0.68505442 37:0.44586964 
4 1:0.88701703 2:0.90199395 3:0.26446677 4:0.41065693 5:0.61452831 6:0.86148808 7:0.70728473 8:0.27546778 9:0.43487006 10:0.64522775 11:0.86460706 12:0.73236205 13:0.88526948 14:0.90254578 15:0.89234219 16:0.87692998 17:0.88701702 18:0.52361275 19:0.41015845 20:0.24993648 21:0.20241661 22:0.85575572 23:0.90906942 24:1 25:1 26:1 27:0.95759032 28:0.60878236 29:0.89159656 30:0.93777967 31:0.94202595 32:0.68935267 33:0.65737423 34:0.85893402 35:0.87100718 36:0.87673769 37:0.7137183 
4 1:0.78151369 2:0.75456018 3:0.54119965 4:0.83504008 5:1 6:1 7:1 8:0.31184225 9:0.58380601 10:0.84569257 11:0.93892054 12:0.86311076 13:0.63968948 14:0.66562334 15:0.77897116 16:0.84866207 17:0.78151371 18:0.27320556 19:0.26280076 20:1 21:1 22:0.61495207 23:0.93203288 24:0.89492521 25:0.83082316 26:0.78241944 27:0.94858934 28:0.28261753 29:0.55861984 30:0.64864535 31:0.68177718 32:0.35609079 33:0.30034251 34:0.58761767 35:0.69745817 36:0.76557907 37:0.3723974 
4 1:0.85648257 2:0.85369503 3:0.54119965 4:0.83504008 5:1 6:1 7:1 8:0.39973018 9:0.71964382 10:0.93568065 11:0.96028701 12:0.93152016 13:0.75047481 14:0.83194909 15:0.87276272 16:0.86963229 17:0.85648258 18:0.38910913 19:0.35636337 20:1 21:1 22:0.74290358 23:0.93203288 24:0.89492521 25:0.83082316 26:0.78241944 27:0.94858934 28:0.43327309 29:0.7104463 30:0.74218693 31:0.73572674 32:0.50731917 33:0.459506 34:0.74807052 35:0.79935698 36:0.82955791 37:0.52996402 
4 1:0.7819109 2:0.76702718 3:0.54119965 4:0.83504008 5:1 6:1 7:1 8:0.33931843 9:0.61808387 10:0.854981 11:0.91884067 12:0.86356366 13:0.6743263 14:0.70743342 15:0.7886437 16:0.82898398 17:0.78191089 18:0.2510788 19:0.24493903 20:1 21:1 22:0.49612777 23:0.93203288 24:0.89492521 25:0.83082316 26:0.78241944 27:0.94858934 28:0.23830993 29:0.43842209 30:0.51667517 31:0.56762973 32:0.29332528 33:0.25333062 34:0.46020809 35:0.55351666 36:0.63000426 37:0.3067899 
-4 1:0.88254008 2:0.89262932 3:0.54119965 4:0.83504008 5:1 6:1 7:1 8:0.46101327 9:0.77036755 10:0.95705581 11:0.96952606 12:0.95516631 13:0.82775717 14:0.89423796 15:0.89520061 16:0.87878001 17:0.88254008 18:0.43854104 19:0.39626705 20:1 21:1 22:0.78885811 23:0.93203288 24:0.89492521 25:0.83082316 26:0.78241944 27:0.94858934 28:0.49420406 29:0.75597225 30:0.77462555 31:0.75768633 32:0.56554681 33:0.5240008 34:0.79633703 35:0.83484495 36:0.8557378 37:0.59077541 
-4 1:0.34570554 2:0.29901119 3:0.54119965 4:0.83504008 5:1 6:1 7:1 8:0.061377602 9:0.17439682 10:0.34949603 11:0.63837504 12:0.465983 13:0.323913 14:0.16330833 15:0.26117216 16:0.55422225 17:0.34570554 18:0.072909477 19:0.10111268 20:1 21:1 22:0.16934837 23:0.93203288 24:0.89492521 25:0.83082316 26:0.78241944 27:0.94858934 28:0.06028901 29:0.13070814 30:0.18501705 31:0.25515092 32:0.080876554 33:0.065239118 34:0.13435311 35:0.19133504 36:0.25813957 37:0.085348524 
4 1:0.3326921 2:0.34257204 3:0.54119965 4:0.83504008 5:1 6:1 7:1 8:0.17088119 9:0.30560919 10:0.43460401 11:0.50277984 12:0.45515155 13:0.46147252 14:0.32317576 15:0.34867952 16:0.42024608 17:0.33269213 18:0.011479969 19:0.051524 20:1 21:1 22:0.14796447 23:0.93203288 24:0.89492521 25:0.83082316 26:0.78241944 27:0.94858934 28:0.083013579 29:0.14294875 30:0.15795041 31:0.17732257 32:0.09923891 33:0.089662529 34:0.14777707 35:0.16200688 36:0.16552027 37:0.10493053 
-4 1:0.76012633 2:0.74368815 3:0.54119965 4:0.83504008 5:1 6:1 7:1 8:0.32737783 9:0.59374936 10:0.83067231 11:0.9031879 12:0.84292895 13:0.65925074 14:0.67806054 15:0.76414183 16:0.81432111 17:0.76012636 18:0.23247058 19:0.22991764 20:1 21:1 22:0.47677382 23:0.93203288 24:0.89492521 25:0.83082316 26:0.78241944 27:0.94858934 28:0.22850542 29:0.41952639 30:0.49489601 31:0.54670572 32:0.28110639 33:0.24361756 34:0.4416206 35:0.5312794 36:0.6065738 37:0.29485164 
4 1:0.87333773 2:0.8817375 3:0.54119965 4:0.83504008 5:1 6:1 7:1 8:0.4529345 9:0.75775215 10:0.94618465 11:0.96485451 12:0.94665121 13:0.81755244 14:0.87881253 15:0.88401429 16:0.87432343 17:0.87333776 18:0.41996012 19:0.38126769 20:1 21:1 22:0.77217992 23:0.93203288 24:0.89492521 25:0.83082316 26:0.78241944 27:0.94858934 28:0.47591735 29:0.73505319 30:0.76138876 31:0.75040061 32:0.54667917 33:0.50501194 34:0.77461627 35:0.82071061 36:0.84728454 37:0.57146513 
-0.77943310420172907 1:0.64830109 2:0.59929385 3:0.54119965 4:0.83504008 5:1 6:1 7:1 8:0.18946566 9:0.40985592 10:0.70657591 11:0.86238218 12:0.74265449 13:0.48525859 14:0.45147035 15:0.63268566 16:0.77285763 17:0.64830109 18:0.11585817 19:0.13578281 20:1 21:1 22:0.26907938 23:0.93203288 24:0.89492521 25:0.83082316 26:0.78241944 27:0.94858934 28:0.10399963 29:0.21637201 30:0.28922563 31:0.36619199 32:0.13607902 33:0.11131688 34:0.22476821 35:0.30470289 36:0.38981588 37:0.14273768 
-4 1:0.8820851 2:0.86574276 3:0.54119965 4:0.83504008 5:1 6:1 7:1 8:0.37394132 9:0.70528252 10:0.95856539 11:1 12:0.95497361 13:0.71795516 14:0.81422187 15:0.89662007 16:0.90853725 17:0.88208514 18:0.23031363 19:0.22817645 20:1 21:1 22:0.7191335 23:0.93203288 24:0.89492521 25:0.83082316 26:0.78241944 27:0.94858934 28:0.37338066 29:0.67642121 30:0.7354447 31:0.74983913 32:0.45334079 33:0.39607202 34:0.71230387 35:0.7923721 36:0.84669452 37:0.47361475 
-4 1:0.13670507 2:0.12090689 3:0.54119965 4:0.83504008 5:1 6:1 7:1 8:0.033016898 9:0.06678179 10:0.19027721 11:0.40078257 12:0.2752798 13:0.28820154 14:0.03130357 15:0.095312461 16:0.32169374 17:0.13670507 19:0.042256848 20:1 21:1 22:0.027325165 23:0.93203288 24:0.89492521 25:0.83082316 26:0.78241944 27:0.94858934 28:0.016807072 29:0.026594428 30:0.034959717 31:0.06419184 32:0.019949142 33:0.01945306 34:0.024571371 35:0.028224916 36:0.032118269 37:0.022064189 
-4 1:0.79939855 2:0.7885886 3:0.54119965 4:0.83504008 5:1 6:1 7:1 8:0.3630046 9:0.64088271 10:0.87343292 11:0.92796348 12:0.87937983 13:0.70418887 14:0.7354531 15:0.80791043 16:0.83817985 17:0.79939851 18:0.28591992 19:0.27306436 20:1 21:1 22:0.62113317 23:0.93203288 24:0.89492521 25:0.83082316 26:0.78241944 27:0.94858934 28:0.3154391 29:0.57619709 30:0.64130996 31:0.66200481 32:0.38490273 33:0.33495916 34:0.60638277 35:0.68975442 36:0.74233842 37:0.4024044 
-4 1:0.75589466 2:0.73802607 3:0.54119965 4:0.83504008 5:1 6:1 7:1 8:0.33257578 9:0.58041515 10:0.82113489 11:0.90586687 12:0.83909124 13:0.66585266 14:0.66185129 15:0.75424044 16:0.81672254 17:0.75589467 18:0.25420117 19:0.24745955 20:1 21:1 22:0.52645937 23:0.93203288 24:0.89492521 25:0.83082316 26:0.78241944 27:0.94858934 28:0.24731998 29:0.46903691 30:0.54940291 31:0.5961545 32:0.30744444 33:0.26364747 34:0.4939802 35:0.59044308 36:0.66488156 37:0.3224145 
-4 1:0.58565809 2:0.54671291 3:0.54119965 4:0.83504008 5:1 6:1 7:1 8:0.1906161 9:0.37953224 10:0.64483141 11:0.79673706 12:0.68447219 13:0.48687609 14:0.41471973 15:0.56964795 16:0.71002884 17:0.5856581 18:0.098955642 19:0.12213833 20:1 21:1 22:0.30107616 23:0.93203288 24:0.89492521 25:0.83082316 26:0.78241944 27:0.94858934 28:0.11812231 29:0.25305332 30:0.3252133 31:0.38586864 32:0.15537562 33:0.12654483 34:0.26482492 35:0.34579588 36:0.41530154 37:0.16334089 
-4 1:0.7537924 2:0.73521469 3:0.54119965 4:0.83504008 5:1 6:1 7:1 8:0.33060229 9:0.57765858 10:0.81599122 11:0.90806624 12:0.83790412 13:0.66334799 14:0.65786907 15:0.74799965 16:0.81851743 17:0.75379244 18:0.22503636 19:0.22391639 20:1 21:1 22:0.53674239 23:0.93203288 24:0.89492521 25:0.83082316 26:0.78241944 27:0.94858934 28:0.24335442 29:0.47663191 30:0.5632675 31:0.61615386 32:0.30635033 33:0.25888917 34:0.50122628 35:0.60475159 36:0.68778363 37:0.32064917 
4 1:0.78736844 2:0.77684626 3:0.54119965 4:0.83504008 5:1 6:1 7:1 8:0.35460483 9:0.63490342 10:0.85970672 11:0.91813064 12:0.86848017 13:0.69360373 14:0.72809245 15:0.79356207 16:0.82837095 17:0.78736841 18:0.26607706 19:0.25704631 20:1 21:1 22:0.53399457 23:0.93203288 24:0.89492521 25:0.83082316 26:0.78241944 27:0.94858934 28:0.27240891 29:0.47899296 30:0.54991086 31:0.59140066 32:0.32923818 33:0.28948018 34:0.50331585 35:0.58992164 36:0.65839508 37:0.34435258 
-4 1:0.88034406 2:0.89095474 3:0.54119965 4:0.83504008 5:1 6:1 7:1 8:0.46198003 9:0.76984792 10:0.95427907 11:0.96752778 12:0.9532176 13:0.82895479 14:0.89353535 15:0.892242 16:0.87680015 17:0.88034409 18:0.43896727 19:0.39661112 20:1 21:1 22:0.79291435 23:0.93203288 24:0.89492521 25:0.83082316 26:0.78241944 27:0.94858934 28:0.50329016 29:0.75962526 30:0.77617762 31:0.7583016 32:0.57352935 33:0.53349434 34:0.80000818 35:0.83638156 36:0.85635516 37:0.59897256 
4 1:0.76810747 2:0.75181427 3:0.54119965 4:0.83504008 5:1 6:1 7:1 8:0.33007017 9:0.60166701 10:0.84008578 11:0.90963364 12:0.85074871 13:0.66268179 14:0.68747333 15:0.77337689 16:0.82016585 17:0.76810752 18:0.24347894 19:0.23880409 20:1 21:1 22:0.48027229 23:0.93203288 24:0.89492521 25:0.83082316 26:0.78241944 27:0.94858934 28:0.23030923 29:0.42271865 30:0.49954593 31:0.5519217 32:0.28334713 33:0.24514967 34:0.44411308 35:0.53537566 36:0.61185907 37:0.29671544 
-1.0799744796554269 1:0.87517154 2:0.88297744 3:0.54119965 4:0.83504008 5:1 6:1 7:1 8:0.44935051 9:0.75887065 10:0.95007301 11:0.96606828 12:0.94854109 13:0.81303642 14:0.88005625 15:0.88783098 16:0.87532614 17:0.87517156 18:0.42829406 19:0.38799522 20:1 21:1 22:0.78083079 23:0.93203288 24:0.89492521 25:0.83082316 26:0.78241944 27:0.94858934 28:0.48463396 29:0.74708421 30:0.76892389 31:0.75425672 32:0.5560795 33:0.51371163 34:0.7867187 35:0.82847103 36:0.85155705 37:0.58072114 
-4 1:0.93158211 2:0.96750829 3:0.54119965 4:0.83504008 5:1 6:1 7:1 8:0.59766917 9:0.85675793 10:1 11:0.98662462 12:1 13:1 14:1 15:0.9398872 16:0.89547136 17:0.93158213 18:0.58848756 19:0.51731068 20:1 21:1 22:0.99999963 23:0.93203288 24:0.89492521 25:0.83082316 26:0.78241944 27:0.94858934 28:0.94553051 29:0.91572895 30:0.86266911 31:0.80749224 32:0.95901041 33:0.99999987 34:0.96447469 35:0.93027881 36:0.91453292 37:1 
4 1:0.42009102 2:0.35898351 3:0.54119965 4:0.83504008 5:1 6:1 7:1 8:0.073798678 9:0.18079997 10:0.43226453 11:0.71581025 12:0.53358573 13:0.33960619 14:0.17111948 15:0.34773712 16:0.63068267 17:0.42009106 18:0.098986987 19:0.12216363 20:1 21:1 22:0.16912714 23:0.93203288 24:0.89492521 25:0.83082316 26:0.78241944 27:0.94858934 28:0.057167 29:0.12365806 30:0.18144593 31:0.26516882 32:0.077127265 33:0.062069149 34:0.1273149 35:0.18816276 36:0.27112175 37:0.081632136 
4 1:0.75641339 2:0.71929955 3:0.54119965 4:0.83504008 5:1 6:1 7:1 8:0.25310032 9:0.53009525 10:0.85535163 11:0.91136464 12:0.84024725 13:0.56564938 14:0.59948827 15:0.78919821 16:0.82197351 17:0.75641341 18:0.25875035 19:0.25113186 20:1 21:1 22:0.5410414 23:0.93203288 24:0.89492521 25:0.83082316 26:0.78241944 27:0.94858934 28:0.23701086 29:0.49171642 30:0.57228417 31:0.61498965 32:0.30420103 33:0.25175774 34:0.51643351 35:0.61424893 36:0.68648482 37:0.31792576 
4 1:0.74687402 2:0.72432337 3:0.54119965 4:0.83504008 5:1 6:1 7:1 8:0.29164148 9:0.57129241 10:0.82315992 11:0.89512608 12:0.8306732 13:0.61428055 14:0.65064325 15:0.75658162 16:0.80665809 17:0.74687404 18:0.22741761 19:0.22583865 20:1 21:1 22:0.46039781 23:0.93203288 24:0.89492521 25:0.83082316 26:0.78241944 27:0.94858934 28:0.21495355 29:0.4039115 30:0.47951904 31:0.53303957 32:0.26678555 33:0.22942812 34:0.42548555 35:0.51495959 36:0.59079814 37:0.28010683 
4 1:0.87332518 2:0.88089424 3:0.54119965 4:0.83504008 5:1 6:1 7:1 8:0.44857235 9:0.75621919 10:0.94777762 11:0.96473173 12:0.94662075 13:0.81205151 14:0.87697169 15:0.88567739 16:0.87417894 17:0.8733252 18:0.42260489 19:0.38340267 20:1 21:1 22:0.77458347 23:0.93203288 24:0.89492521 25:0.83082316 26:0.78241944 27:0.94858934 28:0.48071224 29:0.73861751 30:0.76214887 31:0.74959578 32:0.55115678 33:0.51022394 34:0.77847282 35:0.82159436 36:0.84637017 37:0.57626996 
4 1:0.75894485 2:0.73985114 3:0.54119965 4:0.83504008 5:1 6:1 7:1 8:0.31509852 9:0.587863 10:0.8313634 11:0.90507045 12:0.84242601 13:0.6438184 14:0.67053671 15:0.7642533 16:0.81565973 17:0.75894488 18:0.23893554 19:0.23513645 20:1 21:1 22:0.46672371 23:0.93203288 24:0.89492521 25:0.83082316 26:0.78241944 27:0.94858934 28:0.22186692 29:0.40924706 30:0.48647237 31:0.54042391 32:0.2736093 33:0.23616598 34:0.42970938 35:0.52093997 36:0.59799681 37:0.28648641 
4 1:0.88340095 2:0.89384749 3:0.54119965 4:0.83504008 5:1 6:1 7:1 8:0.4637456 9:0.77132726 10:0.95754199 11:0.97032426 12:0.95603433 13:0.83119027 14:0.89533101 15:0.89563415 16:0.87951389 17:0.88340098 18:0.44989493 19:0.40543243 20:1 21:1 22:0.80707237 23:0.93203288 24:0.89492521 25:0.83082316 26:0.78241944 27:0.94858934 28:0.51504059 29:0.7763059 30:0.78878803 31:0.7669792 32:0.58641935 33:0.54586117 34:0.81755151 35:0.85006108 36:0.86662081 37:0.61234703 
-4 1:0.87787338 2:0.89767648 3:0.070210581 4:0.12939473 5:0.17885747 6:0.18559689 7:0.17675985 8:0.1231618 9:0.204371 10:0.29311016 11:0.35958595 12:0.31727391 13:0.90147421 14:0.89295875 15:0.88480684 16:0.87198903 17:0.87787339 18:0.65211841 19:0.50897153 20:0.024575625 21:0.022025428 22:0.87744496 23:0.17508821 24:0.1727703 25:0.16001624 26:0.15073386 27:0.17920437 28:0.24134401 29:0.30091777 30:0.29541636 31:0.29146416 32:0.26013746 33:0.7281315 34:0.87218197 35:0.8721159 36:0.87319377 37:0.76977872 
-4 1:0.8031543 2:0.81466241 3:0.070210581 4:0.12939473 5:0.17885747 6:0.18559689 7:0.17675985 8:0.089835367 9:0.16678604 10:0.26221096 11:0.33669274 12:0.28744437 13:0.8481642 14:0.79171913 15:0.79788367 16:0.81710008 17:0.80315431 18:0.45177716 19:0.34724699 20:0.024575625 21:0.022025428 22:0.63462057 23:0.17508821 24:0.1727703 25:0.16001624 26:0.15073386 27:0.17920437 28:0.15917307 29:0.19970762 30:0.2051007 31:0.21595196 32:0.17238803 33:0.49881865 34:0.61037405 35:0.64122595 36:0.67077513 37:0.53298453 
-4 1:0.89016368 2:0.91589757 3:0.070210581 4:0.12939473 5:0.17885747 6:0.18559689 7:0.17675985 8:0.14149303 9:0.21784389 10:0.29703241 11:0.36033634 12:0.32223735 13:0.93074835 14:0.92901865 15:0.89566669 16:0.87372582 17:0.89016372 18:0.6482879 19:0.50587937 20:0.024575625 21:0.022025428 22:0.88200136 23:0.17508821 24:0.1727703 25:0.16001624 26:0.15073386 27:0.17920437 28:0.24600981 29:0.30130174 30:0.29600427 31:0.29249399 32:0.26398065 33:0.74069005 34:0.87292964 35:0.87344971 36:0.87581276 37:0.77973995 
4 1:0.37451074 2:0.38299114 3:0.070210581 4:0.12939473 5:0.17885747 6:0.18559689 7:0.17675985 8:0.0064739436 9:0.022210895 10:0.076534017 11:0.1736619 12:0.11575109 13:0.71511417 14:0.40506028 15:0.27917457 16:0.4269715 17:0.37451076 18:0.28358511 19:0.21147475 20:0.024575625 21:0.022025428 22:0.32100084 23:0.17508821 24:0.1727703 25:0.16001624 26:0.15073386 27:0.17920437 28:0.084835211 29:0.084503876 30:0.075258598 31:0.078759264 32:0.086231476 33:0.29192782 34:0.31401484 35:0.31151979 36:0.30589562 37:0.30135623 
-4 1:0.80348938 2:0.81246974 3:0.070210581 4:0.12939473 5:0.17885747 6:0.18559689 7:0.17675985 8:0.088892867 9:0.16278875 10:0.26078205 11:0.33955184 12:0.28765495 13:0.84654414 14:0.78051175 15:0.79365701 16:0.82379621 17:0.80348939 18:0.4955354 19:0.38257063 20:0.024575625 21:0.022025428 22:0.76268275 23:0.17508821 24:0.1727703 25:0.16001624 26:0.15073386 27:0.17920437 28:0.19280175 29:0.2505987 30:0.25693581 31:0.26441 32:0.21072226 33:0.59275614 34:0.74216489 35:0.77389667 36:0.80082435 37:0.63655062 
-4 1:0.83196139 2:0.84983148 3:0.070210581 4:0.12939473 5:0.17885747 6:0.18559689 7:0.17675985 8:0.1084583 9:0.1864709 10:0.27409525 11:0.34292834 12:0.29884919 13:0.87793198 14:0.84486615 15:0.83183708 16:0.83229059 17:0.83196144 18:0.50813097 19:0.39273834 20:0.024575625 21:0.022025428 22:0.73224138 23:0.17508821 24:0.1727703 25:0.16001624 26:0.15073386 27:0.17920437 28:0.18860711 29:0.23865649 30:0.2428086 31:0.24984634 32:0.20457607 33:0.58132656 34:0.71163866 35:0.73814116 36:0.76210964 37:0.62025779 
4 1:0.88940716 2:0.91515245 3:0.070210581 4:0.12939473 5:0.17885747 6:0.18559689 7:0.17675985 8:0.14172077 9:0.21730404 10:0.29667668 11:0.360006 12:0.32187494 13:0.93116235 14:0.92788999 15:0.8948908 16:0.87301677 17:0.88940724 18:0.66595661 19:0.52014235 20:0.024575625 21:0.022025428 22:0.89080574 23:0.17508821 24:0.1727703 25:0.16001624 26:0.15073386 27:0.17920437 28:0.25052153 29:0.30472686 30:0.29840071 31:0.29417652 32:0.26830182 33:0.75372151 34:0.88218571 35:0.87985717 36:0.88052249 37:0.79182417 
-4 1:0.90126556 2:0.91077268 3:0.070210581 4:0.12939473 5:0.17885747 6:0.18559689 7:0.17675985 8:0.10161932 9:0.19659648 10:0.30279964 11:0.37650911 12:0.32640042 13:0.86723912 14:0.87289991 15:0.91239973 16:0.91291167 17:0.90126556 18:0.32837225 19:0.24762896 20:0.024575625 21:0.022025428 22:0.83124358 23:0.17508821 24:0.1727703 25:0.16001624 26:0.15073386 27:0.17920437 28:0.20891098 29:0.27675993 30:0.28456965 31:0.29239456 32:0.22955746 33:0.63898314 34:0.81087299 35:0.84526954 36:0.87622907 37:0.68858593 
-4 1:0.95978948 2:0.97195699 3:0.070210581 4:0.12939473 5:0.17885747 6:0.18559689 7:0.17675985 8:0.12513718 9:0.22224038 10:0.32186169 11:0.39969291 12:0.34988453 13:0.90484355 14:0.94165038 15:0.96552633 16:0.96821217 17:0.9597895 18:0.33690264 19:0.25451507 20:0.024575625 21:0.022025428 22:0.97238995 23:0.17508821 24:0.1727703 25:0.16001624 26:0.15073386 27:0.17920437 28:0.26377713 29:0.33827474 30:0.3337826 31:0.3299507 32:0.28651489 33:0.79188099 34:0.96936128 35:0.97043745 36:0.97633023 37:0.84194784 
4 1:0.35623367 2:0.37224124 3:0.070210581 4:0.12939473 5:0.17885747 6:0.18559689 7:0.17675985 8:0.0081314803 9:0.025516992 10:0.077166515 11:0.15754028 12:0.10860714 13:0.71776509 14:0.41397218 15:0.28106161 16:0.38775144 17:0.35623366 18:0.11263615 19:0.073477001 20:0.024575625 21:0.022025428 22:0.28505269 23:0.17508821 24:0.1727703 25:0.16001624 26:0.15073386 27:0.17920437 28:0.079260115 29:0.074172631 30:0.060724951 31:0.058043036 32:0.079170604 33:0.27588768 34:0.28660507 35:0.2735597 36:0.24948727 37:0.28174346 
-4 1:0.833265 2:0.84717376 3:0.070210581 4:0.12939473 5:0.17885747 6:0.18559689 7:0.17675985 8:0.09999185 9:0.18049168 10:0.27461 11:0.34662471 12:0.29937647 13:0.8645365 14:0.82936862 15:0.83309025 16:0.84093526 17:0.83326503 18:0.45332838 19:0.34849921 20:0.024575625 21:0.022025428 22:0.80470447 23:0.17508821 24:0.1727703 25:0.16001624 26:0.15073386 27:0.17920437 28:0.20915647 29:0.26914196 30:0.27145537 31:0.27449837 32:0.2277176 33:0.63910911 34:0.79069532 35:0.81140436 36:0.82811858 37:0.68307847 
-4 1:0.87320297 2:0.89450427 3:0.070210581 4:0.12939473 5:0.17885747 6:0.18559689 7:0.17675985 8:0.12790987 9:0.20462159 10:0.28974427 11:0.35698667 12:0.31516585 13:0.90927907 14:0.89478812 15:0.87632891 16:0.86613376 17:0.87320297 18:0.63150769 19:0.49233362 20:0.024575625 21:0.022025428 22:0.86129035 23:0.17508821 24:0.1727703 25:0.16001624 26:0.15073386 27:0.17920437 28:0.23131435 29:0.29304277 30:0.29104968 31:0.28926177 32:0.25054312 33:0.70164744 34:0.85307058 35:0.86183287 36:0.8679044 37:0.745325 
-4 1:0.60393357 2:0.60369773 3:0.070210581 4:0.12939473 5:0.17885747 6:0.18559689 7:0.17675985 8:0.03096244 9:0.080340617 10:0.17772404 11:0.26830641 12:0.20753136 13:0.75427632 14:0.56119772 15:0.56239784 16:0.65329988 17:0.60393356 18:0.28552807 19:0.21304319 20:0.024575625 21:0.022025428 22:0.50614384 23:0.17508821 24:0.1727703 25:0.16001624 26:0.15073386 27:0.17920437 28:0.12237832 29:0.14942374 30:0.15403032 31:0.16746965 32:0.13164965 33:0.3965675 34:0.48114203 35:0.51163943 36:0.54191539 37:0.42359904 
-4 1:0.84329911 2:0.86010988 3:0.070210581 4:0.12939473 5:0.17885747 6:0.18559689 7:0.17675985 8:0.11093902 9:0.18843853 10:0.27711843 11:0.34895263 12:0.30331244 13:0.88206386 14:0.85110451 15:0.84064493 16:0.8465447 17:0.84329914 18:0.5063948 19:0.39133682 20:0.024575625 21:0.022025428 22:0.80546745 23:0.17508821 24:0.1727703 25:0.16001624 26:0.15073386 27:0.17920437 28:0.20291921 29:0.26712054 30:0.27420512 31:0.28138233 32:0.22255732 33:0.62183461 34:0.78573695 35:0.81865056 36:0.84669953 37:0.66932724 
-4 1:0.81128845 2:0.81685864 3:0.070210581 4:0.12939473 5:0.17885747 6:0.18559689 7:0.17675985 8:0.072427872 9:0.15888657 10:0.2689722 11:0.34306162 12:0.29055791 13:0.82057303 14:0.7717109 15:0.81724252 16:0.8323311 17:0.81128846 18:0.48446846 19:0.37363689 20:0.024575625 21:0.022025428 22:0.69766062 23:0.17508821 24:0.1727703 25:0.16001624 26:0.15073386 27:0.17920437 28:0.17720148 29:0.22548356 30:0.23002654 31:0.23811408 32:0.1925221 33:0.54922621 34:0.67704551 35:0.7049727 36:0.73022027 37:0.58739431 
4 1:0.89521745 2:0.9219389 3:0.070210581 4:0.12939473 5:0.17885747 6:0.18559689 7:0.17675985 8:0.14569262 9:0.22051631 10:0.29910997 11:0.36154441 12:0.32420788 13:0.93754791 14:0.93655795 15:0.90166307 16:0.87665862 17:0.89521745 18:0.67881882 19:0.53052531 20:0.024575625 21:0.022025428 22:0.89965739 23:0.17508821 24:0.1727703 25:0.16001624 26:0.15073386 27:0.17920437 28:0.25534796 29:0.30859997 30:0.30088201 31:0.29553327 32:0.27295197 33:0.76731766 34:0.89219588 35:0.8861746 36:0.8841437 37:0.80446195 
-4 1:0.80916315 2:0.8250153 3:0.070210581 4:0.12939473 5:0.17885747 6:0.18559689 7:0.17675985 8:0.10027904 9:0.17569625 10:0.26496127 11:0.33563774 12:0.28991832 13:0.86480195 14:0.81548702 15:0.80541463 16:0.81443552 17:0.8091632 18:0.46395815 19:0.35708004 20:0.024575625 21:0.022025428 22:0.65038099 23:0.17508821 24:0.1727703 25:0.16001624 26:0.15073386 27:0.17920437 28:0.16553609 29:0.206248 30:0.21067747 31:0.22038758 32:0.17888759 33:0.51625502 34:0.62702388 35:0.65529094 36:0.68256474 37:0.5502173 
4 1:0.88631757 2:0.91170976 3:0.070210581 4:0.12939473 5:0.17885747 6:0.18559689 7:0.17675985 8:0.13930874 9:0.21602793 10:0.29567119 11:0.35896622 12:0.32067787 13:0.92725713 14:0.92421281 15:0.89193515 16:0.87048638 17:0.88631762 18:0.65070797 19:0.50783295 20:0.024575625 21:0.022025428 22:0.8761937 23:0.17508821 24:0.1727703 25:0.16001624 26:0.15073386 27:0.17920437 28:0.24374762 29:0.29880854 30:0.29392954 31:0.29089224 32:0.26163715 33:0.73445463 34:0.8665653 35:0.86820788 36:0.87156851 37:0.77349508 
-4 1:0.93158211 2:0.96750829 3:0.070210581 4:0.12939473 5:0.17885747 6:0.18559689 7:0.17675985 8:0.18464982 9:0.24401454 10:0.3127153 11:0.36937831 12:0.33871574 13:1 14:1 15:0.9398872 16:0.89547136 17:0.93158213 18:0.9056693 19:0.7136493 20:0.024575625 21:0.022025428 22:0.99999636 23:0.17508821 24:0.1727703 25:0.16001624 26:0.15073386 27:0.17920437 28:0.33890678 29:0.336554 30:0.31813569 31:0.30687168 32:0.34558284 33:0.99999832 34:0.96447216 35:0.93027508 36:0.91452821 37:0.99999795 
4 1:0.55818529 2:0.55269549 3:0.070210581 4:0.12939473 5:0.17885747 6:0.18559689 7:0.17675985 8:0.017592378 9:0.056782861 10:0.15617527 11:0.25592948 12:0.18949408 13:0.73288808 14:0.49770689 15:0.50084039 16:0.62304367 17:0.55818528 18:0.32147446 19:0.24206075 20:0.024575625 21:0.022025428 22:0.40830986 23:0.17508821 24:0.1727703 25:0.16001624 26:0.15073386 27:0.17920437 28:0.10162715 29:0.1141407 30:0.1127388 31:0.12295193 32:0.10678974 33:0.33841715 34:0.38986016 35:0.4062235 36:0.42289064 37:0.35632932 
-4 1:0.85313155 2:0.86854001 3:0.070210581 4:0.12939473 5:0.17885747 6:0.18559689 7:0.17675985 8:0.11039845 9:0.19019763 10:0.28135283 11:0.35403624 12:0.30751185 13:0.88098982 14:0.85436949 15:0.85126964 16:0.85844617 17:0.85313156 18:0.56842193 19:0.44140794 20:0.024575625 21:0.022025428 22:0.82215957 23:0.17508821 24:0.1727703 25:0.16001624 26:0.15073386 27:0.17920437 28:0.20848485 29:0.27482725 30:0.28151769 31:0.28633332 32:0.22869407 33:0.6360335 34:0.80446942 35:0.83650085 36:0.85943603 37:0.68460064 
-4 1:0.85662676 2:0.87738802 3:0.070210581 4:0.12939473 5:0.17885747 6:0.18559689 7:0.17675985 8:0.12099923 9:0.19921642 10:0.2840738 11:0.35058002 12:0.30881012 13:0.89789571 14:0.87878268 15:0.85943372 16:0.85045128 17:0.8566268 18:0.56426043 19:0.43804858 20:0.024575625 21:0.022025428 22:0.79496911 23:0.17508821 24:0.1727703 25:0.16001624 26:0.15073386 27:0.17920437 28:0.21127183 29:0.26462824 30:0.26582818 31:0.26893638 32:0.22835023 33:0.6441371 34:0.77836704 35:0.79655826 36:0.81288705 37:0.68396487 
4 1:0.89812049 2:0.92512455 3:0.070210581 4:0.12939473 5:0.17885747 6:0.18559689 7:0.17675985 8:0.14716117 9:0.22194886 10:0.30012491 11:0.36251954 12:0.32535254 13:0.93989407 14:0.94042392 15:0.90456127 16:0.87904394 17:0.8981205 18:0.696736 19:0.54498887 20:0.024575625 21:0.022025428 22:0.91033373 23:0.17508821 24:0.1727703 25:0.16001624 26:0.15073386 27:0.17920437 28:0.2606401 29:0.31303259 30:0.30408143 31:0.29787563 32:0.27811155 33:0.78189893 34:0.90365521 35:0.89437091 36:0.89044014 37:0.81824235 
-4 1:0.85017451 2:0.87096499 3:0.070210581 4:0.12939473 5:0.17885747 6:0.18559689 7:0.17675985 8:0.12018233 9:0.19734195 10:0.28115959 11:0.34820687 12:0.30630166 13:0.8965807 14:0.87349946 15:0.85105795 16:0.84460613 17:0.85017455 18:0.54743974 19:0.42447016 20:0.024575625 21:0.022025428 22:0.77343351 23:0.17508821 24:0.1727703 25:0.16001624 26:0.15073386 27:0.17920437 28:0.20428896 29:0.2559685 30:0.25795708 31:0.26197728 32:0.2208693 33:0.62434107 34:0.75557059 35:0.77607811 36:0.79393839 37:0.663445 
4 1:0.8966258 2:0.92323165 3:0.070210581 4:0.12939473 5:0.17885747 6:0.18559689 7:0.17675985 8:0.14600859 9:0.22086314 10:0.29954699 11:0.36225086 12:0.32477985 13:0.93802922 14:0.93741386 15:0.90282883 16:0.87836284 17:0.89662583 18:0.68631143 19:0.53657368 20:0.024575625 21:0.022025428 22:0.90455294 23:0.17508821 24:0.1727703 25:0.16001624 26:0.15073386 27:0.17920437 28:0.25770898 29:0.31065413 30:0.30243995 31:0.29671187 32:0.27527378 33:0.77363421 34:0.89740928 35:0.89010933 36:0.88727539 37:0.81049986 
2.9135973984286569 1:0.37171353 2:0.32368679 3:0.63867197 4:0.7644542 5:0.72293819 6:0.55486783 7:0.68843153 8:0.092812321 9:0.13640729 10:0.29622134 11:0.44544666 12:0.34765881 13:0.28955113 14:0.14677797 15:0.31563212 16:0.60065715 17:0.37171355 18:0.19435837 19:0.1953087 20:0.39204813 21:0.43017169 22:0.36634251 23:0.3067885 24:0.27547169 25:0.25782368 26:0.24656715 27:0.30817791 28:0.078598876 29:0.12419495 30:0.14719822 31:0.18429437 32:0.092122904 33:0.20519121 34:0.33194986 35:0.39547662 36:0.46816466 37:0.24037659 
-4 1:0.81369804 2:0.80660988 3:0.63867197 4:0.7644542 5:0.72293819 6:0.55486783 7:0.68843153 8:0.40667271 9:0.61239972 10:0.69075415 11:0.62357269 12:0.66517709 13:0.66640401 14:0.76176213 15:0.83724384 16:0.85830061 17:0.81369803 18:0.39200693 19:0.35485958 20:0.39204813 21:0.43017169 22:0.72506486 23:0.3067885 24:0.27547169 25:0.25782368 26:0.24656715 27:0.30817791 28:0.18751829 29:0.30539282 30:0.32883917 31:0.34176536 32:0.21965513 33:0.44216939 34:0.72089814 35:0.7835385 36:0.82222166 37:0.51256429 
3.2391785954808459 1:0.88015606 2:0.89715079 3:0.63867197 4:0.7644542 5:0.72293819 6:0.55486783 7:0.68843153 8:0.54650464 9:0.72604909 10:0.73636103 11:0.63465296 12:0.71275681 13:0.83510407 14:0.90956813 15:0.89789595 16:0.87444157 17:0.88015608 18:0.5063777 19:0.44718485 20:0.39204813 21:0.43017169 22:0.80186368 23:0.3067885 24:0.27547169 25:0.25782368 26:0.24656715 27:0.30817791 28:0.24545708 29:0.34720775 30:0.35274585 31:0.35326602 32:0.27438323 33:0.56741497 34:0.81013157 35:0.8342664 36:0.84782548 37:0.62866003 
-4 1:0.82072122 2:0.8310887 3:0.63867197 4:0.7644542 5:0.72293819 6:0.55486783 7:0.68843153 8:0.4846459 9:0.6684886 10:0.69103835 11:0.60540437 12:0.670045 13:0.76020133 14:0.83416761 15:0.83789201 16:0.83240062 17:0.82072122 18:0.36507605 19:0.33311975 20:0.39204813 21:0.43017169 22:0.59972304 23:0.3067885 24:0.27547169 25:0.25782368 26:0.24656715 27:0.30817791 28:0.16318728 29:0.24412105 30:0.26088184 31:0.2764028 32:0.18615525 33:0.38848591 34:0.58874614 35:0.63784135 36:0.67480054 37:0.44034944 
4 1:0.31753089 2:0.28646781 3:0.63867197 4:0.7644542 5:0.72293819 6:0.55486783 7:0.68843153 8:0.077420891 9:0.16643012 10:0.30173462 11:0.35423335 12:0.30850423 13:0.27022893 14:0.18406566 15:0.32305766 16:0.4712945 17:0.31753091 18:0.12101498 19:0.1361026 20:0.39204813 21:0.43017169 22:0.27308295 23:0.3067885 24:0.27547169 25:0.25782368 26:0.24656715 27:0.30817791 28:0.070408692 29:0.092047028 30:0.095604792 31:0.11219046 32:0.077150789 33:0.18746288 34:0.26313599 35:0.28554994 36:0.30645224 37:0.20853296 
-4 1:0.67365792 2:0.67278652 3:0.63867197 4:0.7644542 5:0.72293819 6:0.55486783 7:0.68843153 8:0.36304589 9:0.52471098 10:0.58183966 11:0.52643523 12:0.56350185 13:0.61376742 14:0.64795865 15:0.69529329 16:0.72078682 17:0.67365795 18:0.237692 19:0.23028957 20:0.39204813 21:0.43017169 22:0.53005002 23:0.3067885 24:0.27547169 25:0.25782368 26:0.24656715 27:0.30817791 28:0.13425472 29:0.20992104 30:0.2286309 31:0.2485788 32:0.15547198 33:0.32597985 34:0.51586303 35:0.56961036 36:0.61303693 37:0.37529743 
-4 1:0.76119351 2:0.76431073 3:0.63867197 4:0.7644542 5:0.72293819 6:0.55486783 7:0.68843153 8:0.42148927 9:0.60740256 10:0.64699509 11:0.57582383 12:0.62691598 13:0.68349824 14:0.75411026 15:0.78032896 16:0.79040386 17:0.76119354 18:0.29986829 19:0.28048109 20:0.39204813 21:0.43017169 22:0.51766491 23:0.3067885 24:0.27547169 25:0.25782368 26:0.24656715 27:0.30817791 28:0.13562367 29:0.20386138 30:0.2205553 31:0.23979447 32:0.15510583 33:0.32876885 34:0.50280784 35:0.55225802 36:0.59310756 37:0.37437204 
-4 1:0.79031698 2:0.76790797 3:0.63867197 4:0.7644542 5:0.72293819 6:0.55486783 7:0.68843153 8:0.30137264 9:0.56025184 10:0.7001641 11:0.6125938 12:0.64825336 13:0.54004971 14:0.69438768 15:0.84983234 16:0.84289865 17:0.79031703 18:0.18400326 19:0.18694959 20:0.39204813 21:0.43017169 22:0.51949252 23:0.3067885 24:0.27547169 25:0.25782368 26:0.24656715 27:0.30817791 28:0.12414893 29:0.20459206 30:0.22594263 31:0.2488867 32:0.14634803 33:0.30392995 34:0.50412535 35:0.5634271 36:0.61317732 37:0.35570891 
4 1:0.92243047 2:0.91382756 3:0.63867197 4:0.7644542 5:0.72293819 6:0.55486783 7:0.68843153 8:0.42823293 9:0.69861513 10:0.78919741 11:0.68290398 12:0.74317656 13:0.6930145 14:0.87445099 15:0.96766033 16:0.94414397 17:0.92243046 18:0.21931482 19:0.21545468 20:0.39204813 21:0.43017169 22:0.83141802 23:0.3067885 24:0.27547169 25:0.25782368 26:0.24656715 27:0.30817791 28:0.22165672 29:0.36559054 30:0.37906561 31:0.38383159 32:0.25985319 33:0.51630513 34:0.85002458 35:0.89086213 36:0.91687015 37:0.59822665 
-4 1:0.1250531 2:0.098875741 3:0.63867197 4:0.7644542 5:0.72293819 6:0.55486783 7:0.68843153 8:0.018691674 9:0.041615784 10:0.1193355 11:0.24609132 12:0.16987642 13:0.19981334 14:0.023821679 15:0.082860059 16:0.3145016 17:0.12505308 18:0.054995492 19:0.082808673 20:0.39204813 21:0.43017169 22:0.22167231 23:0.3067885 24:0.27547169 25:0.25782368 26:0.24656715 27:0.30817791 28:0.063592256 29:0.072285634 30:0.067666923 31:0.076744914 32:0.066769809 33:0.17265033 34:0.22061572 35:0.22568106 36:0.2265307 37:0.18638663 
-4 1:0.81607863 2:0.82263666 3:0.63867197 4:0.7644542 5:0.72293819 6:0.55486783 7:0.68843153 8:0.47480477 9:0.64883911 10:0.68753571 11:0.60899061 12:0.66676574 13:0.74787866 14:0.80830557 15:0.8332853 16:0.83745725 17:0.81607863 18:0.37290595 19:0.3394404 20:0.39204813 21:0.43017169 22:0.70800499 23:0.3067885 24:0.27547169 25:0.25782368 26:0.24656715 27:0.30817791 28:0.19317968 29:0.29852127 30:0.31592916 31:0.32647788 32:0.22232301 33:0.4538609 34:0.70570354 35:0.75573358 36:0.7877602 37:0.51768932 
-4 1:0.81026423 2:0.81585664 3:0.63867197 4:0.7644542 5:0.72293819 6:0.55486783 7:0.68843153 8:0.46607144 9:0.64381916 10:0.68093604 11:0.60747144 12:0.6625001 13:0.73761964 14:0.80192553 15:0.82471019 16:0.83537898 17:0.81026426 18:0.39597397 19:0.35806195 20:0.39204813 21:0.43017169 22:0.66106083 23:0.3067885 24:0.27547169 25:0.25782368 26:0.24656715 27:0.30817791 28:0.17628065 29:0.2732857 30:0.29379301 31:0.30914916 32:0.20335446 33:0.41653337 34:0.65119326 35:0.70811977 36:0.74844859 37:0.47668504 
4 1:0.3428936 2:0.30367773 3:0.63867197 4:0.7644542 5:0.72293819 6:0.55486783 7:0.68843153 8:0.065425912 9:0.15659692 10:0.31096091 11:0.38879091 12:0.32639422 13:0.25598332 14:0.17211144 15:0.33594665 16:0.52234787 17:0.34289356 18:0.12430368 19:0.13875738 20:0.39204813 21:0.43017169 22:0.3373622 23:0.3067885 24:0.27547169 25:0.25782368 26:0.24656715 27:0.30817791 28:0.082767017 29:0.11818473 30:0.12965906 31:0.15326751 32:0.093379878 33:0.21393387 34:0.31862254 35:0.35774338 36:0.3984623 37:0.24265263 
4 1:0.71364266 2:0.70084716 3:0.63867197 4:0.7644542 5:0.72293819 6:0.55486783 7:0.68843153 8:0.34716159 9:0.51662793 10:0.60518506 11:0.57472798 12:0.59297788 13:0.5944988 14:0.6372822 15:0.72467821 16:0.78833832 17:0.71364272 18:0.28341056 19:0.26719567 20:0.39204813 21:0.43017169 22:0.64228044 23:0.3067885 24:0.27547169 25:0.25782368 26:0.24656715 27:0.30817791 28:0.16139274 29:0.25961125 30:0.28728854 31:0.31041532 32:0.18882124 33:0.3848253 34:0.62228905 35:0.69464141 36:0.75174063 37:0.44629464 
-4 1:0.82142777 2:0.83394617 3:0.63867197 4:0.7644542 5:0.72293819 6:0.55486783 7:0.68843153 8:0.50143278 9:0.67001244 10:0.68926477 11:0.6051894 12:0.67050889 13:0.78058341 14:0.83633579 15:0.83570961 16:0.83208749 17:0.82142778 18:0.36669915 19:0.33442999 20:0.39204813 21:0.43017169 22:0.61460621 23:0.3067885 24:0.27547169 25:0.25782368 26:0.24656715 27:0.30817791 28:0.17270997 29:0.25093392 30:0.26635948 31:0.28052855 32:0.19522814 33:0.40911239 34:0.60343096 35:0.64964864 36:0.68420556 37:0.45965918 
4 1:0.89427018 2:0.91751189 3:0.63867197 4:0.7644542 5:0.72293819 6:0.55486783 7:0.68843153 8:0.58935557 9:0.74804577 10:0.74390308 11:0.63787172 12:0.72291638 13:0.88670525 14:0.93815574 15:0.90785036 16:0.87906637 17:0.89427021 18:0.53300035 19:0.46867585 20:0.39204813 21:0.43017169 22:0.83044959 23:0.3067885 24:0.27547169 25:0.25782368 26:0.24656715 27:0.30817791 28:0.26750308 29:0.35902536 30:0.36172882 31:0.36024713 32:0.29453137 33:0.61523455 34:0.83561071 35:0.85359063 36:0.86364511 37:0.67159651 
-4 1:0.81081441 2:0.82091617 3:0.63867197 4:0.7644542 5:0.72293819 6:0.55486783 7:0.68843153 8:0.48336148 9:0.65674295 10:0.68333528 11:0.60038223 12:0.66291504 13:0.75877022 14:0.81909419 15:0.82771828 16:0.82507853 17:0.81081441 18:0.35346164 19:0.32374407 20:0.39204813 21:0.43017169 22:0.583864 23:0.3067885 24:0.27547169 25:0.25782368 26:0.24656715 27:0.30817791 28:0.15903644 29:0.23583309 30:0.25254815 31:0.26889199 32:0.18098418 33:0.37974066 34:0.57124173 35:0.62027096 36:0.6580952 37:0.42960495 
4 1:0.89032514 2:0.91257045 3:0.63867197 4:0.7644542 5:0.72293819 6:0.55486783 7:0.68843153 8:0.58048341 9:0.74413485 10:0.74148861 11:0.63608351 12:0.72008415 13:0.87606761 14:0.93311355 15:0.90463858 16:0.87645595 17:0.89032517 18:0.51959648 19:0.45785565 20:0.39204813 21:0.43017169 22:0.80803243 23:0.3067885 24:0.27547169 25:0.25782368 26:0.24656715 27:0.30817791 28:0.25333845 29:0.34802587 30:0.35350813 31:0.35429466 32:0.28088686 33:0.58461116 34:0.81206685 35:0.83604128 36:0.85024783 37:0.64262775 
-4 1:0.93158211 2:0.96750829 3:0.63867197 4:0.7644542 5:0.72293819 6:0.55486783 7:0.68843153 8:0.68314452 9:0.79546506 10:0.76810318 11:0.64925338 12:0.74972634 13:1 14:1 15:0.9398872 16:0.89547136 17:0.93158213 18:0.65388691 19:0.56626097 20:0.39204813 21:0.43017169 22:0.99999617 23:0.3067885 24:0.27547169 25:0.25782368 26:0.24656715 27:0.30817791 28:0.44445246 29:0.4189207 30:0.39753116 31:0.38282078 32:0.44841247 33:0.99999804 34:0.9644712 35:0.93027489 36:0.91452894 37:0.99999755 
4 1:0.39625573 2:0.34362993 3:0.63867197 4:0.7644542 5:0.72293819 6:0.55486783 7:0.68843153 8:0.059181719 9:0.15056455 10:0.33864742 11:0.45071954 12:0.36494704 13:0.24851154 14:0.16423654 15:0.37222082 16:0.60966509 17:0.39625572 18:0.18470841 19:0.18751882 20:0.39204813 21:0.43017169 22:0.33638881 23:0.3067885 24:0.27547169 25:0.25782368 26:0.24656715 27:0.30817791 28:0.078155834 29:0.11470941 30:0.1305051 31:0.15805556 32:0.08917404 33:0.20429534 34:0.31169875 35:0.36002005 36:0.4094782 37:0.23415533 
-4 1:0.76883726 2:0.75170892 3:0.63867197 4:0.7644542 5:0.72293819 6:0.55486783 7:0.68843153 8:0.32259693 9:0.55458968 10:0.6778452 11:0.59642036 12:0.63299652 13:0.56545687 14:0.68742421 15:0.82030235 16:0.81886604 17:0.76883727 18:0.37135503 19:0.33818843 20:0.39204813 21:0.43017169 22:0.63907711 23:0.3067885 24:0.27547169 25:0.25782368 26:0.24656715 27:0.30817791 28:0.15410483 29:0.26631251 30:0.28802967 31:0.30504792 32:0.18409418 33:0.36922698 34:0.63649844 35:0.69596326 36:0.73937188 37:0.43635116 
-4 1:0.79058882 2:0.78654231 3:0.63867197 4:0.7644542 5:0.72293819 6:0.55486783 7:0.68843153 8:0.37536278 9:0.6241075 10:0.68236225 11:0.59444787 12:0.64827529 13:0.62879342 14:0.77673223 15:0.82667007 16:0.81684413 17:0.79058884 18:0.34730172 19:0.31877151 20:0.39204813 21:0.43017169 22:0.58171559 23:0.3067885 24:0.27547169 25:0.25782368 26:0.24656715 27:0.30817791 28:0.15027562 29:0.23710634 30:0.25434895 31:0.27105431 32:0.17427292 33:0.36046426 34:0.57382175 35:0.62412553 36:0.66308016 37:0.41505222 
4 1:0.88617459 2:0.90753834 3:0.63867197 4:0.7644542 5:0.72293819 6:0.55486783 7:0.68843153 8:0.57404212 9:0.7392857 10:0.73811825 11:0.63463555 12:0.71707322 13:0.8682856 14:0.92674676 15:0.90024197 16:0.87443438 17:0.88617455 18:0.51675434 19:0.45556134 20:0.39204813 21:0.43017169 22:0.81746682 23:0.3067885 24:0.27547169 25:0.25782368 26:0.24656715 27:0.30817791 28:0.25874098 29:0.35245373 30:0.35705658 31:0.35726784 32:0.28615538 33:0.59627496 34:0.82168499 35:0.84377827 36:0.8570961 37:0.65383764 
-4 1:0.8233668 2:0.83452427 3:0.63867197 4:0.7644542 5:0.72293819 6:0.55486783 7:0.68843153 8:0.49267777 9:0.66976761 10:0.69239828 11:0.60702203 12:0.67194654 13:0.77012433 14:0.83623518 15:0.83974839 16:0.83455534 17:0.82336686 18:0.37207069 19:0.33876614 20:0.39204813 21:0.43017169 22:0.6075395 23:0.3067885 24:0.27547169 25:0.25782368 26:0.24656715 27:0.30817791 28:0.16784721 29:0.24735096 30:0.26367588 31:0.27879649 32:0.19058602 33:0.39895128 34:0.59604947 35:0.64413234 36:0.68045163 37:0.45015273 
4 1:0.88885704 2:0.91071726 3:0.63867197 4:0.7644542 5:0.72293819 6:0.55486783 7:0.68843153 8:0.5790675 9:0.74133213 10:0.74011363 11:0.6359912 12:0.71902631 13:0.87440767 14:0.92950918 15:0.9028332 16:0.8763048 17:0.88885709 18:0.52286228 19:0.46049194 20:0.39204813 21:0.43017169 22:0.82439227 23:0.3067885 24:0.27547169 25:0.25782368 26:0.24656715 27:0.30817791 28:0.26217959 29:0.35558185 30:0.36000243 31:0.35981096 32:0.2895971 33:0.60398226 34:0.82842379 35:0.85003255 36:0.86275006 37:0.66135942 
-4 1:0.31440139 2:0.28655177 3:0.45546817 4:0.55970039 5:0.56062029 6:0.45747613 7:0.53813607 8:0.075892818 9:0.08788765 10:0.17714822 11:0.33413522 12:0.24374064 13:0.41428812 14:0.1748842 15:0.22465129 16:0.50571156 17:0.31440139 18:0.16617392 19:0.1626865 20:0.47177053 21:0.47133978 22:0.17079023 23:0.70580088 24:0.56916829 25:0.49318966 26:0.43930627 27:0.69231723 28:0.022217014 29:0.073313375 30:0.11214565 31:0.16970077 32:0.036599367 33:0.037290539 34:0.12617418 35:0.20018593 36:0.29214356 37:0.059349349 
3.5249146021658966 1:0.74920969 2:0.72042752 3:0.45546817 4:0.55970039 5:0.56062029 6:0.45747613 7:0.53813607 8:0.19440777 9:0.35695706 10:0.52501758 11:0.54329372 12:0.51525723 13:0.56975574 14:0.59404717 15:0.77135337 16:0.84336869 17:0.74920971 18:0.32285541 19:0.28916691 20:0.47177053 21:0.47133978 22:0.61823125 23:0.70580088 24:0.56916829 25:0.49318966 26:0.43930627 27:0.69231723 28:0.16049693 29:0.40969343 30:0.46187561 31:0.46846464 32:0.22267384 33:0.21675074 34:0.61154921 35:0.73626169 36:0.80047933 37:0.30311256 
-4 1:0.83202986 2:0.83077608 3:0.45546817 4:0.55970039 5:0.56062029 6:0.45747613 7:0.53813607 8:0.30665566 9:0.48659481 10:0.58036595 11:0.55380694 12:0.56705401 13:0.71696855 14:0.79562589 15:0.85804018 16:0.8603014 17:0.83202986 18:0.41500592 19:0.36355497 20:0.47177053 21:0.47133978 22:0.69576032 23:0.70580088 24:0.56916829 25:0.49318966 26:0.43930627 27:0.69231723 28:0.24244037 29:0.48286193 30:0.49788095 31:0.48465602 32:0.3025635 33:0.32307065 34:0.71678351 35:0.79113046 36:0.82779787 37:0.40772782 
4 1:0.7113834 2:0.68988022 3:0.45546817 4:0.55970039 5:0.56062029 6:0.45747613 7:0.53813607 8:0.20318719 9:0.35363969 10:0.49865884 11:0.51408039 12:0.49192543 13:0.58123261 14:0.5886193 15:0.72922134 16:0.79554903 17:0.71138342 18:0.27421986 19:0.24990608 20:0.47177053 21:0.47133978 22:0.40314264 23:0.70580088 24:0.56916829 25:0.49318966 26:0.43930627 27:0.69231723 28:0.098080707 29:0.23731732 30:0.29257422 31:0.33282814 32:0.13469192 33:0.13577696 34:0.36248794 35:0.47628203 36:0.56923986 37:0.18785732 
-4 1:0.8559388 2:0.86630906 3:0.45546817 4:0.55970039 5:0.56062029 6:0.45747613 7:0.53813607 8:0.36723053 9:0.52663871 10:0.58989188 11:0.55692388 12:0.58186676 13:0.79641381 14:0.85815327 15:0.87320123 16:0.86543935 17:0.85593884 18:0.4500483 19:0.39184277 20:0.47177053 21:0.47133978 22:0.74267267 23:0.70580088 24:0.56916829 25:0.49318966 26:0.43930627 27:0.69231723 28:0.30352823 29:0.5161676 30:0.51729711 31:0.49651815 32:0.35818118 33:0.4023492 34:0.76505467 35:0.82105399 36:0.84810064 37:0.48065429 
-4 1:0.44674468 2:0.40624829 3:0.45546817 4:0.55970039 5:0.56062029 6:0.45747613 7:0.53813607 8:0.05909678 9:0.13910491 10:0.2978632 11:0.4055786 12:0.32705961 13:0.39222415 14:0.25442001 15:0.41334144 16:0.61911662 17:0.44674466 18:0.18106125 19:0.17470423 20:0.47177053 21:0.47133978 22:0.20464906 23:0.70580088 24:0.56916829 25:0.49318966 26:0.43930627 27:0.69231723 28:0.039631567 29:0.10335652 30:0.14002766 31:0.18291498 32:0.056996875 33:0.059902208 34:0.16906071 35:0.24206947 36:0.31349627 37:0.086040478 
-4 1:0.47924947 2:0.44073205 3:0.45546817 4:0.55970039 5:0.56062029 6:0.45747613 7:0.53813607 8:0.073535601 9:0.16281939 10:0.32899497 11:0.41635668 12:0.34755499 13:0.41115337 14:0.29130109 15:0.46198702 16:0.63589474 17:0.47924949 18:0.14981658 19:0.14948212 20:0.47177053 21:0.47133978 22:0.17348967 23:0.70580088 24:0.56916829 25:0.49318966 26:0.43930627 27:0.69231723 28:0.035679581 29:0.089597277 30:0.116544 31:0.14842842 32:0.050133714 33:0.054774893 34:0.14919783 35:0.20602404 36:0.25469901 37:0.077049966 
4 1:0.69254873 2:0.66931889 3:0.45546817 4:0.55970039 5:0.56062029 6:0.45747613 7:0.53813607 8:0.19473583 9:0.33660827 10:0.48093419 11:0.50798908 12:0.4796598 13:0.57019902 14:0.56275151 15:0.702471 16:0.78629732 17:0.69254875 18:0.26326272 19:0.24106099 20:0.47177053 21:0.47133978 22:0.41021134 23:0.70580088 24:0.56916829 25:0.49318966 26:0.43930627 27:0.69231723 28:0.099322619 29:0.23973081 30:0.29746009 31:0.34126995 32:0.13639326 33:0.13732285 34:0.36603558 35:0.48389913 36:0.58374968 37:0.19002868 
3.9350288273517018 1:0.8552747 2:0.86505167 3:0.45546817 4:0.55970039 5:0.56062029 6:0.45747613 7:0.53813607 8:0.36723915 9:0.52356292 10:0.5889 11:0.55778494 12:0.58143828 13:0.79643082 14:0.85339895 15:0.87169026 16:0.86682397 17:0.85527472 18:0.45229845 19:0.39365919 20:0.47177053 21:0.47133978 22:0.7606354 23:0.70580088 24:0.56916829 25:0.49318966 26:0.43930627 27:0.69231723 28:0.32729998 29:0.52866177 30:0.52441695 31:0.50148533 32:0.37973028 33:0.43316913 34:0.78300813 35:0.83193096 36:0.8565394 37:0.50884491 
4 1:0.65925174 2:0.62193706 3:0.45546817 4:0.55970039 5:0.56062029 6:0.45747613 7:0.53813607 8:0.13183802 9:0.27945291 10:0.46500458 11:0.50479555 12:0.45962599 13:0.48761185 14:0.47287989 15:0.67590803 16:0.78011032 17:0.65925171 18:0.17848657 19:0.17262583 20:0.47177053 21:0.47133978 22:0.33321159 23:0.70580088 24:0.56916829 25:0.49318966 26:0.43930627 27:0.69231723 28:0.070488049 29:0.18323137 30:0.23923843 31:0.29126236 32:0.10066462 33:0.099973878 34:0.28437784 35:0.39435483 36:0.49826092 37:0.14328268 
-4 1:0.83974711 2:0.82218134 3:0.45546817 4:0.55970039 5:0.56062029 6:0.45747613 7:0.53813607 8:0.24842951 9:0.45045865 10:0.59341452 11:0.57430235 12:0.57223393 13:0.64050851 14:0.73895739 15:0.87819423 16:0.89266606 17:0.83974712 18:0.23362577 19:0.21713669 20:0.47177053 21:0.47133978 22:0.72513812 23:0.70580088 24:0.56916829 25:0.49318966 26:0.43930627 27:0.69231723 28:0.22637556 29:0.50222713 30:0.52686704 31:0.52109147 32:0.29457897 33:0.30227392 34:0.74462066 35:0.8354629 36:0.88977072 37:0.39728659 
-4 1:0.11418385 2:0.10768078 3:0.45546817 4:0.55970039 5:0.56062029 6:0.45747613 7:0.53813607 8:0.015859311 9:0.028914743 10:0.08212703 11:0.17238034 12:0.11861664 13:0.33552121 14:0.083069139 15:0.075967559 16:0.24400679 17:0.11418388 18:0.053513109 19:0.071741592 20:0.47177053 21:0.47133978 22:0.037360452 23:0.70580088 24:0.56916829 25:0.49318966 26:0.43930627 27:0.69231723 28:0.0052363879 29:0.0097716082 30:0.01132957 31:0.026663991 32:0.0064133403 33:0.015271404 34:0.034326408 35:0.045245668 36:0.048056127 37:0.019814429 
-4 1:0.76368413 2:0.75054102 3:0.45546817 4:0.55970039 5:0.56062029 6:0.45747613 7:0.53813607 8:0.24323924 9:0.40873374 10:0.53926286 11:0.52841503 12:0.52408037 13:0.63384765 14:0.67493688 15:0.79406134 16:0.81957234 17:0.76368415 18:0.32351673 19:0.28970075 20:0.47177053 21:0.47133978 22:0.60368764 23:0.70580088 24:0.56916829 25:0.49318966 26:0.43930627 27:0.69231723 28:0.18494417 29:0.40809449 30:0.43833065 31:0.43914374 32:0.24071869 33:0.24847026 34:0.60911687 35:0.70007049 36:0.75051535 37:0.32673758 
-4 1:0.71498576 2:0.69719312 3:0.45546817 4:0.55970039 5:0.56062029 6:0.45747613 7:0.53813607 8:0.22537863 9:0.36285667 10:0.4965671 11:0.51496478 12:0.49444113 13:0.61026243 14:0.60270962 15:0.72543227 16:0.79654248 17:0.71498578 18:0.2859843 19:0.25940288 20:0.47177053 21:0.47133978 22:0.46425831 23:0.70580088 24:0.56916829 25:0.49318966 26:0.43930627 27:0.69231723 28:0.11798203 29:0.28384935 30:0.34058648 31:0.37287341 32:0.16102284 33:0.16169746 34:0.42932706 35:0.54935882 36:0.63679923 37:0.22242315 
4 1:0.53364845 2:0.50032384 3:0.45546817 4:0.55970039 5:0.56062029 6:0.45747613 7:0.53813607 8:0.10525132 9:0.20885383 10:0.37006038 11:0.43520194 12:0.38010148 13:0.45281104 14:0.36365315 15:0.5292294 16:0.66977711 17:0.53364842 18:0.17553635 19:0.17024429 20:0.47177053 21:0.47133978 22:0.3142229 23:0.70580088 24:0.56916829 25:0.49318966 26:0.43930627 27:0.69231723 28:0.065903763 29:0.1786847 30:0.22714992 31:0.26522116 32:0.095431085 33:0.093983148 34:0.27830303 35:0.37661731 36:0.45480766 37:0.136426 
-4 1:0.71109746 2:0.69214891 3:0.45546817 4:0.55970039 5:0.56062029 6:0.45747613 7:0.53813607 8:0.21428232 9:0.35850431 10:0.49551199 11:0.51151967 12:0.49104064 13:0.59590601 14:0.59706887 15:0.72592922 16:0.79233948 17:0.71109749 18:0.27087611 19:0.24720686 20:0.47177053 21:0.47133978 22:0.53123845 23:0.70580088 24:0.56916829 25:0.49318966 26:0.43930627 27:0.69231723 28:0.145157 29:0.33885443 30:0.38734583 31:0.41190675 32:0.19457249 33:0.1968426 34:0.50941497 35:0.62213677 36:0.70432668 37:0.26631553 
4 1:0.73038411 2:0.71497277 3:0.45546817 4:0.55970039 5:0.56062029 6:0.45747613 7:0.53813607 8:0.23138755 9:0.38143404 10:0.50944435 11:0.51769163 12:0.50356795 13:0.6182571 14:0.63211807 15:0.74664737 16:0.80168496 17:0.73038415 18:0.28836086 19:0.26132134 20:0.47177053 21:0.47133978 22:0.44742603 23:0.70580088 24:0.56916829 25:0.49318966 26:0.43930627 27:0.69231723 28:0.11789827 29:0.27172538 30:0.32472223 31:0.35879605 32:0.15807593 33:0.16147769 34:0.41214857 35:0.52560245 36:0.61347823 37:0.21847619 
4 1:0.85787847 2:0.8688993 3:0.45546817 4:0.55970039 5:0.56062029 6:0.45747613 7:0.53813607 8:0.37287154 9:0.5278615 10:0.5912308 11:0.55760348 12:0.58315814 13:0.80378696 14:0.85995026 15:0.87518937 16:0.86640647 17:0.85787851 18:0.45225348 19:0.39362289 20:0.47177053 21:0.47133978 22:0.74919411 23:0.70580088 24:0.56916829 25:0.49318966 26:0.43930627 27:0.69231723 28:0.31619466 29:0.52034757 30:0.51853819 31:0.49678826 32:0.36910878 33:0.41878938 34:0.77099453 35:0.82287685 36:0.84850004 37:0.49495405 
4 1:0.68414652 2:0.66031749 3:0.45546817 4:0.55970039 5:0.56062029 6:0.45747613 7:0.53813607 8:0.18619588 9:0.33066701 10:0.4790568 11:0.50262002 12:0.47489469 13:0.55895929 14:0.55301916 15:0.69847384 16:0.776865 17:0.68414652 18:0.2644549 19:0.24202336 20:0.47177053 21:0.47133978 22:0.37671691 23:0.70580088 24:0.56916829 25:0.49318966 26:0.43930627 27:0.69231723 28:0.08935465 29:0.21824526 30:0.27226429 31:0.31466314 32:0.12339831 33:0.12445702 34:0.33496023 35:0.44511908 36:0.53827662 37:0.17306912 
-4 1:0.93158211 2:0.96750829 3:0.45546817 4:0.55970039 5:0.56062029 6:0.45747613 7:0.53813607 8:0.52248959 9:0.61766818 10:0.63224539 11:0.57543899 12:0.62899848 13:1 14:1 15:0.9398872 16:0.89547136 17:0.93158213 18:0.63789563 19:0.54348164 20:0.47177053 21:0.47133978 22:0.99999852 23:0.70580088 24:0.56916829 25:0.49318966 26:0.43930627 27:0.69231723 28:0.76422595 29:0.65446855 30:0.58859181 31:0.53556974 32:0.75468578 33:0.99999998 34:0.96447361 35:0.93027717 36:0.91453127 37:0.99999999 
4 1:0.31608766 2:0.28222795 3:0.45546817 4:0.55970039 5:0.56062029 6:0.45747613 7:0.53813607 8:0.029886608 9:0.078504341 10:0.20296982 11:0.32858208 12:0.24545292 13:0.35388346 14:0.15994404 15:0.26443817 16:0.49464714 17:0.31608763 18:0.15728789 19:0.15551329 20:0.47177053 21:0.47133978 22:0.12362995 23:0.70580088 24:0.56916829 25:0.49318966 26:0.43930627 27:0.69231723 28:0.021002781 29:0.053045085 30:0.075716965 31:0.11485929 32:0.030065401 33:0.035736543 34:0.096686635 35:0.14381018 36:0.19798723 37:0.05079638 
-4 1:0.67915369 2:0.64638398 3:0.45546817 4:0.55970039 5:0.56062029 6:0.45747613 7:0.53813607 8:0.14122434 9:0.29869915 10:0.50112514 11:0.49754781 12:0.47177733 13:0.49993319 14:0.50287857 15:0.73324723 16:0.76917105 17:0.6791537 18:0.28649044 19:0.25981145 20:0.47177053 21:0.47133978 22:0.46627035 23:0.70580088 24:0.56916829 25:0.49318966 26:0.43930627 27:0.69231723 28:0.10740973 29:0.29085483 30:0.34541356 31:0.37410678 32:0.15395355 33:0.14788225 34:0.43980829 35:0.55750916 36:0.63977815 37:0.21309577 
4 1:0.64057835 2:0.60379221 3:0.45546817 4:0.55970039 5:0.56062029 6:0.45747613 7:0.53813607 8:0.12243037 9:0.26900967 10:0.45492163 11:0.49132359 12:0.44730168 13:0.47531582 14:0.45734459 15:0.66163327 16:0.75926764 17:0.64057838 18:0.25436518 19:0.23387849 20:0.47177053 21:0.47133978 22:0.38432209 23:0.70580088 24:0.56916829 25:0.49318966 26:0.43930627 27:0.69231723 28:0.087919147 29:0.22325197 30:0.27885818 31:0.32221803 32:0.1234566 33:0.12255263 34:0.34243533 35:0.45558087 36:0.5514735 37:0.17312685 
-0.57345549687569453 1:0.84747805 2:0.85564604 3:0.45546817 4:0.55970039 5:0.56062029 6:0.45747613 7:0.53813607 8:0.35526089 9:0.51632587 10:0.58470479 11:0.55454775 12:0.57655988 13:0.78072569 14:0.84216229 15:0.86507305 16:0.86160969 17:0.84747807 18:0.44134801 19:0.3848195 20:0.47177053 21:0.47133978 22:0.74469184 23:0.70580088 24:0.56916829 25:0.49318966 26:0.43930627 27:0.69231723 28:0.31208516 29:0.51639245 30:0.51585623 31:0.49559907 32:0.36501311 33:0.41342539 34:0.76532655 35:0.81881435 36:0.84651851 37:0.48957159 
4 1:0.69589709 2:0.67321069 3:0.45546817 4:0.55970039 5:0.56062029 6:0.45747613 7:0.53813607 8:0.19410839 9:0.34119194 10:0.48686358 11:0.50770683 12:0.48223464 13:0.56932621 14:0.56929608 15:0.71073619 16:0.78520844 17:0.69589707 18:0.27421659 19:0.24990344 20:0.47177053 21:0.47133978 22:0.39608766 23:0.70580088 24:0.56916829 25:0.49318966 26:0.43930627 27:0.69231723 28:0.095811384 29:0.23222309 30:0.28726605 31:0.32785727 32:0.1317282 33:0.13284003 34:0.35511429 35:0.46811589 36:0.56075155 37:0.18398096 
4 1:0.8418122 2:0.8480543 3:0.45546817 4:0.55970039 5:0.56062029 6:0.45747613 7:0.53813607 8:0.34601199 9:0.5078987 10:0.58159591 11:0.55348837 12:0.57306362 13:0.76857904 14:0.82895293 15:0.86015415 16:0.85987122 17:0.84181224 18:0.43235567 19:0.37756048 20:0.47177053 21:0.47133978 22:0.72717272 23:0.70580088 24:0.56916829 25:0.49318966 26:0.43930627 27:0.69231723 28:0.29062044 29:0.50288292 30:0.50834924 31:0.49122014 32:0.34513113 33:0.38559072 34:0.7457905 35:0.80726924 36:0.83903794 37:0.46352357 
-4 1:0.47534492 2:0.43153623 3:0.38697087 4:0.40406175 5:0.34307762 6:0.2918163 7:0.35261693 8:0.060023122 9:0.077978588 10:0.19324043 11:0.32962854 12:0.2442725 13:0.4598938 14:0.26981977 15:0.40791665 16:0.65417548 17:0.47534491 18:0.34106884 19:0.30728055 20:0.032137683 21:0.02174773 22:0.51545734 23:0.26114575 24:0.27878746 25:0.29704694 26:0.33478603 27:0.27454534 28:0.090678958 29:0.19715008 30:0.25155433 31:0.30616017 32:0.1199068 33:0.2657891 34:0.49331551 35:0.5794347 36:0.63167468 37:0.33073999 
4 1:0.83476713 2:0.83289085 3:0.38697087 4:0.40406175 5:0.34307762 6:0.2918163 7:0.35261693 8:0.25667796 9:0.36045275 10:0.41300932 11:0.43870191 12:0.43017878 13:0.72357359 14:0.77859584 15:0.86208626 16:0.87239853 17:0.83476714 18:0.55009037 19:0.47668524 20:0.032137683 21:0.02174773 22:0.84741764 23:0.26114575 24:0.27878746 25:0.29704694 26:0.33478603 27:0.27454534 28:0.24903641 29:0.36833858 30:0.39907493 31:0.43361878 32:0.28364501 33:0.63210808 34:0.85260104 35:0.87041328 36:0.87754306 37:0.69377438 
4 1:0.88527745 2:0.90435319 3:0.38697087 4:0.40406175 5:0.34307762 6:0.2918163 7:0.35261693 8:0.35953712 9:0.43576731 10:0.4322277 11:0.44291169 12:0.45705775 13:0.86121338 14:0.91278383 15:0.89978062 16:0.8793501 17:0.8852775 18:0.61170848 19:0.52575313 20:0.032137683 21:0.02174773 22:0.84278891 23:0.26114575 24:0.27878746 25:0.29704694 26:0.33478603 27:0.27454534 28:0.25697172 29:0.36497487 30:0.39219054 31:0.42687659 32:0.28907727 33:0.64960027 34:0.84482435 35:0.85623203 36:0.86394066 37:0.70499003 
4 1:0.79528736 2:0.79754361 3:0.38697087 4:0.40406175 5:0.34307762 6:0.2918163 7:0.35261693 8:0.26416966 9:0.35365501 10:0.38682944 11:0.41719934 12:0.41007012 13:0.73375531 14:0.76637561 15:0.8075169 16:0.82797766 17:0.79528736 18:0.42688688 19:0.37842879 20:0.032137683 21:0.02174773 22:0.59724717 23:0.26114575 24:0.27878746 25:0.29704694 26:0.33478603 27:0.27454534 28:0.16614535 29:0.23816389 30:0.26875014 31:0.31112545 32:0.18820788 33:0.44094366 34:0.58064843 35:0.61482759 36:0.642729 37:0.48292193 
-1.8693657955749237 1:0.89235878 2:0.91642705 3:0.38697087 4:0.40406175 5:0.34307762 6:0.2918163 7:0.35261693 8:0.38899275 9:0.44665798 10:0.43283583 11:0.4422265 12:0.46036141 13:0.90094116 14:0.93371396 15:0.90231807 16:0.87830895 17:0.8923588 18:0.60485442 19:0.52022023 20:0.032137683 21:0.02174773 22:0.84569883 23:0.26114575 24:0.27878746 25:0.29704694 26:0.33478603 27:0.27454534 28:0.2584576 29:0.36408434 30:0.39329693 31:0.4294635 32:0.29019042 33:0.6538179 34:0.84362092 35:0.8589288 36:0.86939768 37:0.70820506 
-4 1:0.81751939 2:0.82807149 3:0.38697087 4:0.40406175 5:0.34307762 6:0.2918163 7:0.35261693 8:0.32113377 9:0.38861628 10:0.40037417 11:0.42164135 12:0.42580364 13:0.80862361 14:0.822891 15:0.82453031 16:0.82396768 17:0.8175194 18:0.4596527 19:0.40487884 20:0.032137683 21:0.02174773 22:0.71532559 23:0.26114575 24:0.27878746 25:0.29704694 26:0.33478603 27:0.27454534 28:0.20577608 29:0.30074281 30:0.3353583 31:0.37782992 32:0.23416067 33:0.52695422 34:0.70420747 35:0.7374019 36:0.7609009 37:0.57850952 
-4 1:0.80001676 2:0.80325895 3:0.38697087 4:0.40406175 5:0.34307762 6:0.2918163 7:0.35261693 8:0.278972 9:0.35706428 10:0.38981517 11:0.41960433 12:0.41362765 13:0.75296619 14:0.77074581 15:0.81096482 16:0.82941231 17:0.80001681 18:0.45099971 19:0.39624182 20:0.032137683 21:0.02174773 22:0.66363592 23:0.26114575 24:0.27878746 25:0.29704694 26:0.33478603 27:0.27454534 28:0.18609533 29:0.26993468 30:0.30534741 31:0.35140528 32:0.21158515 33:0.4855384 34:0.64515362 35:0.68449975 36:0.71743439 37:0.53300772 
-4 1:0.88723394 2:0.90982062 3:0.38697087 4:0.40406175 5:0.34307762 6:0.2918163 7:0.35261693 8:0.38330989 9:0.43969186 10:0.43045992 11:0.44141326 12:0.45767113 13:0.89323648 14:0.92103882 15:0.89742501 16:0.87701324 17:0.88723396 18:0.63177192 19:0.54382975 20:0.032137683 21:0.02174773 22:0.88696962 23:0.26114575 24:0.27878746 25:0.29704694 26:0.33478603 27:0.27454534 28:0.28111854 29:0.38737848 30:0.41064957 31:0.44181532 32:0.31319703 33:0.70531549 34:0.89168408 35:0.89259163 36:0.89286152 37:0.75832935 
-4 1:0.84988692 2:0.84119406 3:0.38697087 4:0.40406175 5:0.34307762 6:0.2918163 7:0.35261693 8:0.22826357 9:0.35672202 10:0.42288924 11:0.45286894 12:0.43832768 13:0.68536243 14:0.77182831 15:0.88166932 16:0.89901009 17:0.84988697 18:0.21485294 19:0.20539335 20:0.032137683 21:0.02174773 22:0.85484757 23:0.26114575 24:0.27878746 25:0.29704694 26:0.33478603 27:0.27454534 28:0.23916385 29:0.36328261 30:0.40810411 31:0.45661613 32:0.27548339 33:0.60955329 34:0.84235873 35:0.88844075 36:0.92201734 37:0.6759765 
4 1:0.92120957 2:0.91509447 3:0.38697087 4:0.40406175 5:0.34307762 6:0.2918163 7:0.35261693 8:0.26586778 9:0.39708086 10:0.4558601 11:0.48701848 12:0.47513978 13:0.73600582 14:0.84492456 15:0.94989947 16:0.96734745 17:0.92120956 18:0.22154522 19:0.21079567 20:0.032137683 21:0.02174773 22:0.98138276 23:0.26114575 24:0.27878746 25:0.29704694 26:0.33478603 27:0.27454534 28:0.29730294 29:0.43888132 30:0.46495645 31:0.49713763 32:0.33782058 33:0.74310994 34:1 35:1 36:1 37:0.81326453 
4 1:0.27289019 2:0.24627871 3:0.38697087 4:0.40406175 5:0.34307762 6:0.2918163 7:0.35261693 8:0.014496091 9:0.036332215 10:0.10232497 11:0.20197347 12:0.14120047 13:0.39849109 14:0.19330806 15:0.21792674 16:0.39304562 17:0.27289019 18:0.074648034 19:0.092213602 20:0.032137683 21:0.02174773 22:0.21694788 23:0.26114575 24:0.27878746 25:0.29704694 26:0.33478603 27:0.27454534 28:0.060876353 29:0.06992059 30:0.066883197 31:0.076710772 32:0.06415459 33:0.196028 34:0.22601659 35:0.21530533 36:0.18888343 37:0.20640371 
-4 1:0.78690983 2:0.77808258 3:0.38697087 4:0.40406175 5:0.34307762 6:0.2918163 7:0.35261693 8:0.22058732 9:0.32375595 10:0.39034328 11:0.42367942 12:0.40698725 13:0.67453512 14:0.70888312 15:0.81017783 16:0.83921378 17:0.78690983 18:0.41769455 19:0.3691363 20:0.032137683 21:0.02174773 22:0.76752748 23:0.26114575 24:0.27878746 25:0.29704694 26:0.33478603 27:0.27454534 28:0.2189474 29:0.32594964 30:0.36094479 31:0.39991655 32:0.25032846 33:0.56106354 34:0.76209997 35:0.79395827 36:0.81139168 37:0.6184446 
-4 1:0.88622555 2:0.90764401 3:0.38697087 4:0.40406175 5:0.34307762 6:0.2918163 7:0.35261693 8:0.37918315 9:0.43760377 10:0.43055727 11:0.44237032 12:0.45759978 13:0.88747313 14:0.91572038 15:0.89642877 16:0.8782404 17:0.88622558 18:0.62728825 19:0.54018281 20:0.032137683 21:0.02174773 22:0.87093596 23:0.26114575 24:0.27878746 25:0.29704694 26:0.33478603 27:0.27454534 28:0.27004879 29:0.38039847 30:0.40588744 31:0.43780001 32:0.3028856 33:0.67845834 34:0.87614789 35:0.8825386 36:0.88450021 37:0.73431216 
-4 1:0.48312597 2:0.44266712 3:0.38697087 4:0.40406175 5:0.34307762 6:0.2918163 7:0.35261693 8:0.042164387 9:0.10445857 10:0.21833175 11:0.3226798 12:0.2527165 13:0.43547256 14:0.31412434 15:0.45074994 16:0.62414358 17:0.48312596 18:0.22974788 19:0.21741723 20:0.032137683 21:0.02174773 22:0.54017073 23:0.26114575 24:0.27878746 25:0.29704694 26:0.33478603 27:0.27454534 28:0.15256327 29:0.21373701 30:0.24163607 31:0.28064036 32:0.17169065 33:0.40548112 34:0.52387615 35:0.55516042 36:0.57663133 37:0.44180386 
-4 1:0.75472453 2:0.74128096 3:0.38697087 4:0.40406175 5:0.34307762 6:0.2918163 7:0.35261693 8:0.20556874 9:0.29458099 10:0.37326355 11:0.41533356 12:0.39137679 13:0.65396916 14:0.65429132 15:0.77295218 16:0.81962178 17:0.75472456 18:0.36249595 19:0.32457748 20:0.032137683 21:0.02174773 22:0.77833877 23:0.26114575 24:0.27878746 25:0.29704694 26:0.33478603 27:0.27454534 28:0.22383283 29:0.33073399 30:0.36602095 31:0.4062557 32:0.25534252 33:0.5717948 34:0.77137841 35:0.80336881 36:0.82321799 37:0.62895055 
4 1:0.85100848 2:0.86607247 3:0.38697087 4:0.40406175 5:0.34307762 6:0.2918163 7:0.35261693 8:0.33826865 9:0.40717265 10:0.41331178 11:0.43139926 12:0.43903339 13:0.83297889 14:0.86240558 15:0.86174584 16:0.85648314 17:0.85100849 18:0.50876334 19:0.44265115 20:0.032137683 21:0.02174773 22:0.71654266 23:0.26114575 24:0.27878746 25:0.29704694 26:0.33478603 27:0.27454534 28:0.20487806 29:0.29612963 30:0.33082699 31:0.37488834 32:0.23243291 33:0.53059447 34:0.70195572 35:0.73665876 36:0.76497319 37:0.58092274 
4 1:0.8445878 2:0.85872651 3:0.38697087 4:0.40406175 5:0.34307762 6:0.2918163 7:0.35261693 8:0.33053697 9:0.40270159 10:0.41115241 11:0.42857033 12:0.43573294 13:0.82267985 14:0.85457218 15:0.85713779 16:0.85038259 17:0.84458781 18:0.488849 19:0.42657539 20:0.032137683 21:0.02174773 22:0.68728149 23:0.26114575 24:0.27878746 25:0.29704694 26:0.33478603 27:0.27454534 28:0.19495764 29:0.28168357 30:0.31567104 31:0.359643 32:0.22121663 33:0.50774554 34:0.67187742 35:0.70707624 36:0.73590579 37:0.55619161 
-4 1:0.89421839 2:0.91878909 3:0.38697087 4:0.40406175 5:0.34307762 6:0.2918163 7:0.35261693 8:0.39210371 9:0.44799798 10:0.43334002 11:0.44266669 12:0.46114308 13:0.90516834 14:0.93646245 15:0.90378608 16:0.87972696 17:0.89421838 18:0.64141617 19:0.54973453 20:0.032137683 21:0.02174773 22:0.88194482 23:0.26114575 24:0.27878746 25:0.29704694 26:0.33478603 27:0.27454534 28:0.2788248 29:0.38473819 30:0.40817589 31:0.43954158 32:0.31077936 33:0.70039135 34:0.88643552 35:0.88790542 36:0.88858943 37:0.75332239 
-4 1:0.93158211 2:0.96750829 3:0.38697087 4:0.40406175 5:0.34307762 6:0.2918163 7:0.35261693 8:0.46242299 9:0.48252019 10:0.45016525 11:0.44988333 12:0.47997648 13:1 14:1 15:0.9398872 16:0.89547136 17:0.93158213 18:0.78200572 19:0.67308865 20:0.032137683 21:0.02174773 22:0.99999669 23:0.26114575 24:0.27878746 25:0.29704694 26:0.33478603 27:0.27454534 28:0.40787395 29:0.42158011 30:0.42937118 31:0.45273609 32:0.42159747 33:0.99999783 34:0.96447129 35:0.93027539 36:0.91453058 37:0.99999739 
4 1:0.49409506 2:0.44289591 3:0.38697087 4:0.40406175 5:0.34307762 6:0.2918163 7:0.35261693 8:0.027572416 9:0.079119056 10:0.21473561 11:0.34437792 12:0.25717345 13:0.41606269 14:0.2698252 15:0.44527044 16:0.67070931 17:0.49409509 18:0.28748799 19:0.26402766 20:0.032137683 21:0.02174773 22:0.44804801 23:0.26114575 24:0.27878746 25:0.29704694 26:0.33478603 27:0.27454534 28:0.12421743 29:0.17019842 30:0.19135549 31:0.22548262 32:0.13884244 33:0.3417394 34:0.43505494 35:0.45895348 36:0.47370431 37:0.3710219 
4 1:0.73048271 2:0.70427103 3:0.38697087 4:0.40406175 5:0.34307762 6:0.2918163 7:0.35261693 8:0.12718785 9:0.24694737 10:0.37748336 11:0.40817397 12:0.37684609 13:0.54984172 14:0.57302676 15:0.78558105 16:0.80982246 17:0.73048273 18:0.42711326 19:0.3767395 20:0.032137683 21:0.02174773 22:0.68297963 23:0.26114575 24:0.27878746 25:0.29704694 26:0.33478603 27:0.27454534 28:0.18127028 29:0.27870614 30:0.31912424 31:0.36993678 32:0.20998335 33:0.47519293 34:0.6645058 35:0.71281727 36:0.75460442 37:0.53033615 
-4 1:0.83857397 2:0.84321339 3:0.38697087 4:0.40406175 5:0.34307762 6:0.2918163 7:0.35261693 8:0.26159081 9:0.38985778 10:0.41466727 11:0.43165098 12:0.43254111 13:0.73018541 14:0.8312648 15:0.86469326 16:0.85683557 17:0.83857397 18:0.54415356 19:0.47309176 20:0.032137683 21:0.02174773 22:0.80574156 23:0.26114575 24:0.27878746 25:0.29704694 26:0.33478603 27:0.27454534 28:0.23256018 29:0.34302012 30:0.37882593 31:0.42000763 32:0.26511943 33:0.59384893 34:0.79925966 35:0.83021425 36:0.85094022 37:0.65253156 
-4 1:0.89469865 2:0.91913453 3:0.38697087 4:0.40406175 5:0.34307762 6:0.2918163 7:0.35261693 8:0.39264037 9:0.44769843 10:0.43367971 11:0.44317773 12:0.46148641 13:0.90583617 14:0.93568672 15:0.90421957 16:0.88059136 17:0.89469865 18:0.65235003 19:0.56055449 20:0.032137683 21:0.02174773 22:0.89936446 23:0.26114575 24:0.27878746 25:0.29704694 26:0.33478603 27:0.27454534 28:0.29020489 29:0.39398541 30:0.41444819 31:0.44399546 32:0.32179435 33:0.7263979 34:0.90565742 35:0.90018599 36:0.89714614 37:0.7774635 
4 1:0.85406069 2:0.8695239 3:0.38697087 4:0.40406175 5:0.34307762 6:0.2918163 7:0.35261693 8:0.33824849 9:0.41067297 10:0.41471528 11:0.43223349 12:0.44051263 13:0.83299835 14:0.86896685 15:0.86497303 16:0.85829119 17:0.8540607 18:0.5127613 19:0.44587848 20:0.032137683 21:0.02174773 22:0.71557977 23:0.26114575 24:0.27878746 25:0.29704694 26:0.33478603 27:0.27454534 28:0.20407711 29:0.29589969 30:0.33050102 31:0.37432998 32:0.23173173 33:0.5288857 34:0.70157145 35:0.73609418 36:0.76396312 37:0.57950125 
4 1:0.52300741 2:0.45169404 3:0.88424929 4:0.72866881 5:0.56484256 6:0.45095249 7:0.59289561 8:0.12122498 9:0.19217342 10:0.37181801 11:0.48663493 12:0.40422061 13:0.15258568 14:0.23517892 15:0.52677793 16:0.75881079 17:0.5230074 18:0.21278412 19:0.22077937 20:0.23044841 21:0.18724242 22:0.39013314 23:0.82442945 24:0.63740483 25:0.55149468 26:0.48889407 27:0.80266995 28:0.059957347 29:0.23206726 30:0.32454618 31:0.38701766 32:0.10512354 33:0.073961557 34:0.32487623 35:0.48407424 36:0.61342992 37:0.13034208 
4 1:0.7721784 2:0.73979662 3:0.88424929 4:0.72866881 5:0.56484256 6:0.45095249 7:0.59289561 8:0.34967648 9:0.50549669 10:0.56964324 11:0.55182683 12:0.5680685 13:0.40180918 14:0.65404103 15:0.83643381 16:0.86505743 17:0.77217842 18:0.36093524 19:0.34037367 20:0.23044841 21:0.18724242 22:0.70656367 23:0.82442945 24:0.63740483 25:0.55149468 26:0.48889407 27:0.80266995 28:0.20073009 29:0.55814104 30:0.57080976 31:0.54418859 32:0.28563197 33:0.23706592 34:0.76199442 35:0.83698437 36:0.86536359 37:0.34320248 
4 1:0.82243416 2:0.81736922 3:0.88424929 4:0.72866881 5:0.56484256 6:0.45095249 7:0.59289561 8:0.54594039 9:0.6149889 10:0.58255777 11:0.55094836 12:0.60119164 13:0.61568128 14:0.80027165 15:0.8565942 16:0.86361102 17:0.82243419 18:0.40714526 19:0.37767649 20:0.23044841 21:0.18724242 22:0.7261862 23:0.82442945 24:0.63740483 25:0.55149468 26:0.48889407 27:0.80266995 28:0.281024 29:0.56348614 30:0.56217796 31:0.53519267 32:0.35049072 33:0.3300855 34:0.76911432 35:0.82456781 36:0.85089964 37:0.4196657 
4 1:0.59639899 2:0.54753913 3:0.88424929 4:0.72866881 5:0.56484256 6:0.45095249 7:0.59289561 8:0.21879342 9:0.33078369 10:0.43694893 11:0.48225337 12:0.4526114 13:0.25896989 14:0.4203346 15:0.62854367 16:0.75141252 17:0.59639899 18:0.21953861 19:0.2262319 20:0.23044841 21:0.18724242 22:0.33508261 23:0.82442945 24:0.63740483 25:0.55149468 26:0.48889407 27:0.80266995 28:0.069295761 29:0.20744546 30:0.26717865 31:0.32026313 32:0.10531408 33:0.084788158 34:0.29179142 35:0.40169192 36:0.50612386 37:0.13057019 
4 1:0.84404403 2:0.85098903 3:0.88424929 4:0.72866881 5:0.56484256 6:0.45095249 7:0.59289561 8:0.64753266 9:0.65196273 10:0.58867791 11:0.55182018 12:0.61542222 13:0.72637714 14:0.84969181 15:0.86615614 16:0.86502051 17:0.84404404 18:0.43240165 19:0.39806459 20:0.23044841 21:0.18724242 22:0.74902155 23:0.82442945 24:0.63740483 25:0.55149468 26:0.48889407 27:0.80266995 28:0.32045246 29:0.57722789 30:0.57125444 31:0.54105621 32:0.38490109 33:0.37576052 34:0.7875219 35:0.83756653 36:0.86029634 37:0.46023207 
-4 1:0.22708566 2:0.16349172 3:0.88424929 4:0.72866881 5:0.56484256 6:0.45095249 7:0.59289561 8:0.022416249 9:0.052812601 10:0.13963448 11:0.30773427 12:0.20933831 13:0.04496143 14:0.049040528 15:0.16395474 16:0.46760498 17:0.22708568 18:0.15668683 19:0.1754951 20:0.23044841 21:0.18724242 22:0.13477966 23:0.82442945 24:0.63740483 25:0.55149468 26:0.48889407 27:0.80266995 28:0.029878378 29:0.068113017 30:0.094183431 31:0.14077721 32:0.040801436 33:0.039111286 34:0.10511892 35:0.1540583 36:0.2187943 37:0.054497185 
4 1:0.78952043 2:0.77974644 3:0.88424929 4:0.72866881 5:0.56484256 6:0.45095249 7:0.59289561 8:0.51104537 9:0.57664559 10:0.5602846 11:0.53911615 12:0.57949574 13:0.57773062 14:0.74907594 15:0.8217979 16:0.84436809 17:0.78952046 18:0.37014097 19:0.34780495 20:0.23044841 21:0.18724242 22:0.66724742 23:0.82442945 24:0.63740483 25:0.55149468 26:0.48889407 27:0.80266995 28:0.22851735 29:0.50855163 30:0.52537702 31:0.51216252 32:0.29722 33:0.2692497 34:0.69552204 35:0.77189967 36:0.81404683 37:0.35685765 
4 1:0.640499 2:0.59256366 3:0.88424929 4:0.72866881 5:0.56484256 6:0.45095249 7:0.59289561 8:0.23865009 9:0.36146215 10:0.47135656 11:0.50475852 12:0.48150254 13:0.28066348 14:0.46140705 15:0.68257856 16:0.78832373 17:0.64049904 18:0.24336166 19:0.24546294 20:0.23044841 21:0.18724242 22:0.42627545 23:0.82442945 24:0.63740483 25:0.55149468 26:0.48889407 27:0.80266995 28:0.089211743 29:0.27555588 30:0.34715863 31:0.39492393 32:0.1370392 33:0.10785201 34:0.38312171 35:0.51640675 36:0.62598445 37:0.16796727 
4 1:0.85156892 2:0.86014115 3:0.88424929 4:0.72866881 5:0.56484256 6:0.45095249 7:0.59289561 8:0.66365834 9:0.65900919 10:0.59353205 11:0.55431819 12:0.62033962 13:0.74404006 14:0.85914769 15:0.87378945 16:0.86911995 17:0.85156893 18:0.4464706 19:0.40942169 20:0.23044841 21:0.18724242 22:0.77651843 23:0.82442945 24:0.63740483 25:0.55149468 26:0.48889407 27:0.80266995 28:0.35781666 29:0.60010169 30:0.58422176 31:0.54827439 32:0.41939189 33:0.41904483 34:0.81822036 35:0.85618807 36:0.87190168 37:0.50090841 
4 1:0.62734568 2:0.56425574 3:0.88424929 4:0.72866881 5:0.56484256 6:0.45095249 7:0.59289561 8:0.14850889 9:0.30182711 10:0.47429471 11:0.51544085 12:0.47272224 13:0.18235784 14:0.381892 15:0.68740883 16:0.8058786 17:0.62734565 18:0.16866369 19:0.18516336 20:0.23044841 21:0.18724242 22:0.41689336 23:0.82442945 24:0.63740483 25:0.55149468 26:0.48889407 27:0.80266995 28:0.078068755 29:0.26129638 30:0.34095364 31:0.39814723 32:0.12544299 33:0.094927095 34:0.36408798 35:0.50769097 36:0.63139493 37:0.15428128 
-4 1:0.81123922 2:0.7731749 3:0.88424929 4:0.72866881 5:0.56484256 6:0.45095249 7:0.59289561 8:0.31879263 9:0.51975081 10:0.60448378 11:0.57876884 12:0.59377782 13:0.36811744 14:0.67306935 15:0.89094401 16:0.90891798 17:0.81123925 18:0.2277887 19:0.23289175 20:0.23044841 21:0.18724242 22:0.77283433 23:0.82442945 24:0.63740483 25:0.55149468 26:0.48889407 27:0.80266995 28:0.21331684 29:0.6193273 30:0.62392042 31:0.59454361 32:0.30892174 33:0.25164405 34:0.84401321 35:0.91308656 36:0.94606587 37:0.37065957 
-4 1:0.12833054 2:0.079761848 3:0.88424929 4:0.72866881 5:0.56484256 6:0.45095249 7:0.59289561 8:0.021590994 9:0.036244236 10:0.10190795 11:0.20772158 12:0.14428168 13:0.044063746 14:0.026929949 15:0.10505913 16:0.30490537 17:0.12833052 18:0.062603789 19:0.099547 20:0.23044841 21:0.18724242 22:0.053279913 23:0.82442945 24:0.63740483 25:0.55149468 26:0.48889407 27:0.80266995 28:0.017026254 29:0.026107999 30:0.028913962 31:0.047937296 32:0.019617189 33:0.024223414 34:0.048837444 35:0.060607269 36:0.070158953 37:0.029522425 
-4 1:0.71648282 2:0.67750473 3:0.88424929 4:0.72866881 5:0.56484256 6:0.45095249 7:0.59289561 8:0.29206893 9:0.44813264 10:0.53252882 11:0.52876469 12:0.53140482 13:0.33901976 14:0.5773456 15:0.77842951 16:0.82754315 17:0.71648282 18:0.28836824 19:0.2817943 20:0.23044841 21:0.18724242 22:0.58547117 23:0.82442945 24:0.63740483 25:0.55149468 26:0.48889407 27:0.80266995 28:0.14659752 29:0.43965719 30:0.47730919 31:0.47803638 32:0.21738755 33:0.17434341 34:0.60318669 35:0.70304333 36:0.7593675 37:0.26272708 
0.46241175808676538 1:0.73422261 2:0.71146524 3:0.88424929 4:0.72866881 5:0.56484256 6:0.45095249 7:0.59289561 8:0.41483785 9:0.50149531 10:0.52664814 11:0.52433113 12:0.5429783 13:0.47293503 14:0.64883237 15:0.76933921 16:0.82043701 17:0.73422264 18:0.30866258 19:0.29817681 20:0.23044841 21:0.18724242 22:0.55823851 23:0.82442945 24:0.63740483 25:0.55149468 26:0.48889407 27:0.80266995 28:0.15076423 29:0.39916712 30:0.45138674 31:0.46724742 32:0.2126215 33:0.1791516 34:0.54893394 35:0.66598069 36:0.74219938 37:0.25709344 
-4 1:0.413659 2:0.34330668 3:0.88424929 4:0.72866881 5:0.56484256 6:0.45095249 7:0.59289561 8:0.065721135 9:0.13822385 10:0.28961737 11:0.42073005 12:0.33206279 13:0.092203628 14:0.16322703 15:0.39857216 16:0.6517446 17:0.41365904 18:0.16610666 19:0.18309921 20:0.23044841 21:0.18724242 22:0.26307572 23:0.82442945 24:0.63740483 25:0.55149468 26:0.48889407 27:0.80266995 28:0.047411754 29:0.14567632 30:0.2069072 31:0.26943702 32:0.07416604 33:0.059427389 34:0.20912834 35:0.31565049 36:0.42512522 37:0.09384555 
-4 1:0.70572685 2:0.66708633 3:0.88424929 4:0.72866881 5:0.56484256 6:0.45095249 7:0.59289561 8:0.30970132 9:0.43124422 10:0.5214979 11:0.52582171 12:0.52433209 13:0.35816159 14:0.55476667 15:0.76121147 16:0.82274729 17:0.70572684 18:0.26701226 19:0.26455478 20:0.23044841 21:0.18724242 22:0.56239112 23:0.82442945 24:0.63740483 25:0.55149468 26:0.48889407 27:0.80266995 28:0.13062371 29:0.41165403 30:0.46219483 31:0.47183306 32:0.19909837 33:0.15583479 34:0.56567144 35:0.68140836 36:0.74944469 37:0.24116188 
4 1:0.7522831 2:0.73389318 3:0.88424929 4:0.72866881 5:0.56484256 6:0.45095249 7:0.59289561 8:0.4473653 9:0.52607792 10:0.53793464 11:0.52916792 12:0.55507395 13:0.50810793 14:0.68140136 15:0.78674338 16:0.82809137 17:0.75228313 18:0.32173784 19:0.30873175 20:0.23044841 21:0.18724242 22:0.57550323 23:0.82442945 24:0.63740483 25:0.55149468 26:0.48889407 27:0.80266995 28:0.16652041 29:0.41550773 30:0.46205866 31:0.4739199 32:0.22856439 33:0.19742844 34:0.57073023 35:0.68106289 36:0.75263003 37:0.27589603 
-4 1:0.86563962 2:0.87906323 3:0.88424929 4:0.72866881 5:0.56484256 6:0.45095249 7:0.59289561 8:0.70342358 9:0.67873571 10:0.60109115 11:0.55682289 12:0.62959524 13:0.78737497 14:0.88552328 15:0.8856221 16:0.87319537 17:0.86563967 18:0.46769021 19:0.42655111 20:0.23044841 21:0.18724242 22:0.79880024 23:0.82442945 24:0.63740483 25:0.55149468 26:0.48889407 27:0.80266995 28:0.39103132 29:0.61870524 30:0.5936401 31:0.55291783 32:0.44965028 33:0.45752195 34:0.84316392 35:0.86968667 36:0.87934358 37:0.53658679 
4 1:0.71474231 2:0.68747912 3:0.88424929 4:0.72866881 5:0.56484256 6:0.45095249 7:0.59289561 8:0.37949508 9:0.47727787 10:0.5139672 11:0.51956487 12:0.5303693 13:0.43416059 14:0.61617596 15:0.74923145 16:0.81246124 17:0.71474232 18:0.2910972 19:0.28399723 20:0.23044841 21:0.18724242 22:0.51504642 23:0.82442945 24:0.63740483 25:0.55149468 26:0.48889407 27:0.80266995 28:0.13098151 29:0.35894029 30:0.41689889 31:0.44362406 32:0.18819939 33:0.15625268 34:0.4949179 35:0.61637908 36:0.70410991 37:0.22830157 
-4 1:0.85900563 2:0.87042327 3:0.88424929 4:0.72866881 5:0.56484256 6:0.45095249 7:0.59289561 8:0.68536584 9:0.6715355 10:0.59653016 11:0.55550915 12:0.62523369 13:0.76767965 14:0.87589411 15:0.87847894 16:0.87106163 17:0.85900564 18:0.46164922 19:0.42167456 20:0.23044841 21:0.18724242 22:0.79312315 23:0.82442945 24:0.63740483 25:0.55149468 26:0.48889407 27:0.80266995 28:0.38240792 29:0.61414123 30:0.59116437 31:0.55176272 32:0.44183913 33:0.44754717 34:0.83704697 35:0.86613831 36:0.87749203 37:0.52738704 
-4 1:0.27970601 2:0.21147193 3:0.88424929 4:0.72866881 5:0.56484256 6:0.45095249 7:0.59289561 8:0.025700721 9:0.06391933 10:0.18379237 11:0.34393012 12:0.24400688 13:0.04853991 14:0.063894367 15:0.23292576 16:0.52642644 17:0.27970606 18:0.14681894 19:0.16752928 20:0.23044841 21:0.18724242 22:0.11683954 23:0.82442945 24:0.63740483 25:0.55149468 26:0.48889407 27:0.80266995 28:0.027297753 29:0.058652925 30:0.079540245 31:0.12052603 32:0.036291558 33:0.036123373 34:0.092461012 35:0.13312595 36:0.18642667 37:0.049183678 
-4 1:0.6467023 2:0.58571563 3:0.88424929 4:0.72866881 5:0.56484256 6:0.45095249 7:0.59289561 8:0.14842893 9:0.31367699 10:0.5147041 11:0.51015739 12:0.48549122 13:0.18238621 14:0.39766327 15:0.75051214 16:0.79723022 17:0.64670231 18:0.2680707 19:0.2654092 20:0.23044841 21:0.18724242 22:0.49431829 23:0.82442945 24:0.63740483 25:0.55149468 26:0.48889407 27:0.80266995 28:0.10375761 29:0.36205755 30:0.40653009 31:0.42034281 32:0.16621806 33:0.12470218 34:0.49911254 35:0.6015464 36:0.66680712 37:0.20237482 
4 1:0.64128022 2:0.599946 3:0.88424929 4:0.72866881 5:0.56484256 6:0.45095249 7:0.59289561 8:0.27462888 9:0.3858022 10:0.46560168 11:0.49754232 12:0.48211754 13:0.31978986 14:0.49384027 15:0.67341742 16:0.77645794 17:0.64128022 18:0.24655271 19:0.24803891 20:0.23044841 21:0.18724242 22:0.42125725 23:0.82442945 24:0.63740483 25:0.55149468 26:0.48889407 27:0.80266995 28:0.097384329 29:0.27609538 30:0.33925748 31:0.38348224 32:0.14323619 33:0.11733485 34:0.38381892 35:0.50500975 36:0.60754938 37:0.17528845 
4 1:0.85013466 2:0.85876228 3:0.88424929 4:0.72866881 5:0.56484256 6:0.45095249 7:0.59289561 8:0.66202742 9:0.65952471 10:0.59200912 11:0.55342586 12:0.61939439 13:0.7422325 14:0.85984838 15:0.87141059 16:0.86766555 17:0.85013471 18:0.44601713 19:0.40905562 20:0.23044841 21:0.18724242 22:0.77448445 23:0.82442945 24:0.63740483 25:0.55149468 26:0.48889407 27:0.80266995 28:0.35401695 29:0.59896222 30:0.58346479 31:0.54782504 32:0.41611346 33:0.4146565 34:0.81670587 35:0.85511063 36:0.87118499 37:0.49705508 
