svm_type nu_svr
kernel_type rbf
gamma 0.050000000000000003
nr_class 2
total_sv 604
rho -1.0115653744322624
SV
4 1:0.40591101 2:0.37643996 3:0.37199012 4:0.49261994 5:0.67082086 6:0.70306416 7:0.69090745 8:0.066530653 9:0.096274043 10:0.26394513 11:0.48479121 12:0.34866369 13:0.48252622 14:0.24254723 15:0.32494172 16:0.51491276 17:0.40591102 18:0.19369016 19:0.22450767 20:0.21270845 21:0.26754154 22:0.36127515 23:0.32637066 24:0.34045992 25:0.33395765 26:0.33636817 27:0.34237889 28:0.088056746 29:0.14290883 30:0.17180024 31:0.20299751 32:0.10482264 33:0.21765622 34:0.33681037 35:0.39508744 36:0.46501144 37:0.25089484 
-4 1:0.82550337 2:0.80769065 3:0.37199012 4:0.49261994 5:0.67082086 6:0.70306416 7:0.69090745 8:0.23176771 9:0.39967897 10:0.63152645 11:0.72488292 12:0.65575159 13:0.70532704 14:0.74087747 15:0.83018865 16:0.85320499 17:0.8255034 18:0.41022054 19:0.39959316 20:0.21270845 21:0.26754154 22:0.7378441 23:0.32637066 24:0.34045992 25:0.33395765 26:0.33636817 27:0.34237889 28:0.21798859 29:0.34845939 30:0.38345582 31:0.39818015 32:0.25578675 33:0.49127171 34:0.7424968 35:0.80430779 36:0.84571703 37:0.55478697 
-4 1:0.89287997 2:0.90036225 3:0.37199012 4:0.49261994 5:0.67082086 6:0.70306416 7:0.69090745 8:0.33011189 9:0.49203132 10:0.68701182 11:0.74062459 12:0.70517456 13:0.83770602 14:0.89240179 15:0.90653571 16:0.87536443 17:0.89288 18:0.53131053 19:0.49750599 20:0.21270845 21:0.26754154 22:0.82237058 23:0.32637066 24:0.34045992 25:0.33395765 26:0.33636817 27:0.34237889 28:0.27028588 29:0.40176216 30:0.41896094 31:0.42074615 32:0.30894013 33:0.60051561 34:0.84748979 35:0.87284772 36:0.88966623 37:0.66111484 
-4 1:0.82337157 2:0.82591986 3:0.37199012 4:0.49261994 5:0.67082086 6:0.70306416 7:0.69090745 8:0.28945133 9:0.43942425 10:0.62837212 11:0.70296979 12:0.65485763 13:0.78230013 14:0.80412958 15:0.82490875 16:0.82189034 17:0.82337159 18:0.36037111 19:0.35928514 20:0.21270845 21:0.26754154 22:0.60252612 23:0.32637066 24:0.34045992 25:0.33395765 26:0.33636817 27:0.34237889 28:0.17923803 29:0.27409265 30:0.30448731 31:0.32384367 32:0.20773218 33:0.40866109 34:0.5949715 35:0.6510505 36:0.70032522 37:0.45710352 
0.047833220009866798 1:0.90462527 2:0.92051572 3:0.37199012 4:0.49261994 5:0.67082086 6:0.70306416 7:0.69090745 8:0.36688175 9:0.51291568 10:0.69293128 11:0.74165281 12:0.71377986 13:0.88754295 14:0.92699731 15:0.91463657 16:0.87681706 17:0.90462528 18:0.53795151 19:0.50287586 20:0.21270845 21:0.26754154 22:0.83173739 23:0.32637066 24:0.34045992 25:0.33395765 26:0.33636817 27:0.34237889 28:0.28265456 29:0.40486592 30:0.42041235 31:0.42170798 32:0.31957112 33:0.62584216 34:0.85335291 35:0.87551231 36:0.89147076 37:0.68193531 
-4 1:0.23548334 2:0.23425151 3:0.37199012 4:0.49261994 5:0.67082086 6:0.70306416 7:0.69090745 8:0.019572549 9:0.054898962 10:0.15689034 11:0.32798966 12:0.22529793 13:0.41811469 14:0.1725843 15:0.17633622 16:0.29209301 17:0.23548338 18:0.11892502 19:0.16405291 20:0.21270845 21:0.26754154 22:0.24291259 23:0.32637066 24:0.34045992 25:0.33395765 26:0.33636817 27:0.34237889 28:0.073069293 29:0.093315151 30:0.098663262 31:0.10258481 32:0.080212411 33:0.18621561 34:0.23900021 35:0.2537877 36:0.26925788 37:0.20147786 
-4 1:0.79376368 2:0.7961789 3:0.37199012 4:0.49261994 5:0.67082086 6:0.70306416 7:0.69090745 8:0.27427853 9:0.42061415 10:0.60911656 11:0.68283624 12:0.63409702 13:0.7611774 14:0.77135146 15:0.79701559 16:0.79261305 17:0.79376366 18:0.33554978 19:0.33921472 20:0.21270845 21:0.26754154 22:0.65820918 23:0.32637066 24:0.34045992 25:0.33395765 26:0.33636817 27:0.34237889 28:0.19904932 29:0.30696223 30:0.33541955 31:0.3503549 32:0.23092021 33:0.45011511 34:0.65954127 35:0.71058976 36:0.7518121 37:0.50348782 
-4 1:0.78500033 2:0.78222488 3:0.37199012 4:0.49261994 5:0.67082086 6:0.70306416 7:0.69090745 8:0.25715241 9:0.40498044 10:0.59796971 11:0.68360267 12:0.62681985 13:0.73850466 14:0.74736375 15:0.78300291 16:0.79450479 17:0.78500036 18:0.31977407 19:0.32645855 20:0.21270845 21:0.26754154 22:0.55462347 23:0.32637066 24:0.34045992 25:0.33395765 26:0.33636817 27:0.34237889 28:0.16179913 29:0.24806615 30:0.27790997 31:0.29890362 32:0.18782319 33:0.37247044 34:0.54394366 35:0.59990742 36:0.65183313 37:0.41751135 
4 1:0.89351675 2:0.90686369 3:0.37199012 4:0.49261994 5:0.67082086 6:0.70306416 7:0.69090745 8:0.35354072 9:0.50178435 10:0.6841026 11:0.73700792 12:0.70567217 13:0.86940304 14:0.90853521 15:0.90246577 16:0.87026922 17:0.89351676 18:0.52394483 19:0.49155012 20:0.21270845 21:0.26754154 22:0.82256616 23:0.32637066 24:0.34045992 25:0.33395765 26:0.33636817 27:0.34237889 28:0.27894174 29:0.39875649 30:0.4155466 31:0.41823482 32:0.3152879 33:0.61824017 34:0.84139932 35:0.86615739 36:0.88471939 37:0.67349696 
-4 1:0.83966788 2:0.8187387 3:0.37199012 4:0.49261994 5:0.67082086 6:0.70306416 7:0.69090745 8:0.21324326 9:0.40833347 10:0.64848411 11:0.73365936 12:0.66621629 13:0.68066243 14:0.75532714 15:0.85322391 16:0.86532992 17:0.83966791 18:0.1576922 19:0.19539988 20:0.21270845 21:0.26754154 22:0.57575064 23:0.32637066 24:0.34045992 25:0.33395765 26:0.33636817 27:0.34237889 28:0.15959231 29:0.25780102 30:0.29285457 31:0.31831963 32:0.18849752 33:0.36871792 34:0.56376381 35:0.62927764 36:0.6900562 37:0.41967902 
-4 1:0.97193918 2:0.95761899 3:0.37199012 4:0.49261994 5:0.67082086 6:0.70306416 7:0.69090745 8:0.29662586 9:0.50910074 10:0.73950553 11:0.81947612 12:0.76267296 13:0.79389558 14:0.92224859 15:0.97898762 16:0.98644031 17:0.97193919 18:0.18108722 19:0.21431699 20:0.21270845 21:0.26754154 22:0.87728555 23:0.32637066 24:0.34045992 25:0.33395765 26:0.33636817 27:0.34237889 28:0.27711694 29:0.43240812 30:0.45340172 31:0.45788906 32:0.32147455 33:0.6160713 34:0.90832965 35:0.93960613 36:0.96217737 37:0.68726115 
-4 1:0.29743436 2:0.28682397 3:0.37199012 4:0.49261994 5:0.67082086 6:0.70306416 7:0.69090745 8:0.031296502 9:0.071369465 10:0.20187544 11:0.37920534 12:0.26923838 13:0.4342497 14:0.20148048 15:0.24032348 16:0.36595315 17:0.29743436 18:0.0680958 19:0.12295263 20:0.21270845 21:0.26754154 22:0.24100246 23:0.32637066 24:0.34045992 25:0.33395765 26:0.33636817 27:0.34237889 28:0.072921929 29:0.092817466 30:0.09738461 31:0.100312 32:0.079932345 33:0.18603024 34:0.23818188 35:0.25148652 36:0.26498762 37:0.20106011 
-4 1:0.82950966 2:0.82312511 3:0.37199012 4:0.49261994 5:0.67082086 6:0.70306416 7:0.69090745 8:0.26215281 9:0.42657983 10:0.63570321 11:0.71473066 12:0.65902309 13:0.74617863 14:0.78401028 15:0.83535007 16:0.83866384 17:0.82950969 18:0.38314849 19:0.37770282 20:0.21270845 21:0.26754154 22:0.71556442 23:0.32637066 24:0.34045992 25:0.33395765 26:0.33636817 27:0.34237889 28:0.21783139 29:0.33789603 30:0.36733469 31:0.38031241 32:0.25302167 33:0.49060325 34:0.72145996 35:0.77303137 36:0.81081701 37:0.54893063 
-4 1:0.84369254 2:0.84568375 3:0.37199012 4:0.49261994 5:0.67082086 6:0.70306416 7:0.69090745 8:0.30279521 9:0.44704318 10:0.6444463 11:0.71702594 12:0.66933394 13:0.80085789 14:0.81780321 15:0.84757825 16:0.84201839 17:0.84369255 18:0.42989176 19:0.41549923 20:0.21270845 21:0.26754154 22:0.71224859 23:0.32637066 24:0.34045992 25:0.33395765 26:0.33636817 27:0.34237889 28:0.2112605 29:0.33516407 30:0.36802653 31:0.38346759 32:0.24728886 33:0.4764733 34:0.71599791 35:0.77430773 36:0.81692012 37:0.53715879 
-4 1:0.45180821 2:0.42893002 3:0.37199012 4:0.49261994 5:0.67082086 6:0.70306416 7:0.69090745 8:0.058781365 9:0.14507159 10:0.33796713 11:0.48876539 12:0.38380953 13:0.4712878 14:0.32113953 15:0.42445832 16:0.51860661 17:0.45180823 18:0.13843637 19:0.1798297 20:0.21270845 21:0.26754154 22:0.36466897 23:0.32637066 24:0.34045992 25:0.33395765 26:0.33636817 27:0.34237889 28:0.10161555 29:0.15056663 30:0.17055971 31:0.18803015 32:0.11691402 33:0.24621231 34:0.35166764 35:0.39238852 36:0.4355092 37:0.27514166 
-4 1:0.78466769 2:0.77462329 3:0.37199012 4:0.49261994 5:0.67082086 6:0.70306416 7:0.69090745 8:0.24553588 9:0.38718459 10:0.59425634 11:0.69354424 12:0.6264397 13:0.72348155 14:0.71853986 15:0.77795458 16:0.80870548 17:0.78466771 18:0.33882122 19:0.34185999 20:0.21270845 21:0.26754154 22:0.68779992 23:0.32637066 24:0.34045992 25:0.33395765 26:0.33636817 27:0.34237889 28:0.20164136 29:0.31871376 30:0.35422351 31:0.37538287 32:0.23604685 33:0.45643151 34:0.68348145 35:0.74761815 36:0.80117089 37:0.51466957 
-4 1:0.82422857 2:0.82870554 3:0.37199012 4:0.49261994 5:0.67082086 6:0.70306416 7:0.69090745 8:0.2969072 9:0.44247552 10:0.62952391 11:0.70146404 12:0.65551483 13:0.79227862 14:0.80920269 15:0.82648328 16:0.81971547 17:0.8242286 18:0.36680151 19:0.36448473 20:0.21270845 21:0.26754154 22:0.62470234 23:0.32637066 24:0.34045992 25:0.33395765 26:0.33636817 27:0.34237889 28:0.19149124 29:0.28676391 30:0.31481929 31:0.33154977 32:0.22032485 33:0.43442952 34:0.62005911 35:0.67108313 36:0.71537766 37:0.48245929 
4 1:0.90340798 2:0.91937962 3:0.37199012 4:0.49261994 5:0.67082086 6:0.70306416 7:0.69090745 8:0.3664403 9:0.51225787 10:0.6920164 11:0.74073276 12:0.71287291 13:0.88696762 14:0.92598287 15:0.91340665 16:0.87553512 17:0.90340802 18:0.54856642 19:0.51145902 20:0.21270845 21:0.26754154 22:0.84038809 23:0.32637066 24:0.34045992 25:0.33395765 26:0.33636817 27:0.34237889 28:0.28943064 29:0.40959757 30:0.42336589 31:0.42347024 32:0.32601009 33:0.64035112 34:0.86285193 35:0.88131233 36:0.89495454 37:0.69511768 
-4 1:0.8236491 2:0.8276005 3:0.37199012 4:0.49261994 5:0.67082086 6:0.70306416 7:0.69090745 8:0.29699211 9:0.4405713 10:0.62793689 11:0.7023259 12:0.65506144 13:0.79241104 14:0.80631103 15:0.82430545 16:0.82092449 17:0.82364914 18:0.35770038 19:0.3571256 20:0.21270845 21:0.26754154 22:0.59472537 23:0.32637066 24:0.34045992 25:0.33395765 26:0.33636817 27:0.34237889 28:0.1775794 29:0.26977203 30:0.29955495 31:0.31902278 32:0.20540182 33:0.4053022 34:0.58655895 35:0.64160099 36:0.69098228 37:0.45254585 
4 1:0.90053534 2:0.91592627 3:0.37199012 4:0.49261994 5:0.67082086 6:0.70306416 7:0.69090745 8:0.36322899 9:0.50948564 10:0.68964664 11:0.73952616 12:0.7107794 13:0.88264418 14:0.92144177 15:0.91014798 16:0.87381491 17:0.90053535 18:0.53589649 19:0.50121418 20:0.21270845 21:0.26754154 22:0.82202035 23:0.32637066 24:0.34045992 25:0.33395765 26:0.33636817 27:0.34237889 28:0.27692203 29:0.39902863 30:0.41612071 31:0.4185518 32:0.31372213 33:0.61401159 34:0.8419389 35:0.86726603 36:0.88533917 37:0.67036193 
-4 1:0.94358142 2:0.9750576 3:0.37199012 4:0.49261994 5:0.67082086 6:0.70306416 7:0.69090745 8:0.44928153 9:0.55649451 10:0.7200344 11:0.75415717 12:0.74204803 13:1 14:1 15:0.95230363 16:0.89456555 17:0.94358145 18:0.72669542 19:0.65549333 20:0.21270845 21:0.26754154 22:0.99999708 23:0.32637066 24:0.34045992 25:0.33395765 26:0.33636817 27:0.34237889 28:0.46082217 29:0.47403068 30:0.46207915 31:0.44832656 32:0.47783527 33:0.99999885 34:0.99028668 35:0.95631644 36:0.94350896 37:0.9999984 
4 1:0.78987384 2:0.7604289 3:0.37199012 4:0.49261994 5:0.67082086 6:0.70306416 7:0.69090745 8:0.17127897 9:0.35075487 10:0.62128045 11:0.70554494 12:0.62994249 13:0.62392629 14:0.6611311 15:0.81539413 16:0.82543445 17:0.78987388 18:0.3558547 19:0.35563319 20:0.21270845 21:0.26754154 22:0.63438203 23:0.32637066 24:0.34045992 25:0.33395765 26:0.33636817 27:0.34237889 28:0.17148695 29:0.29214815 30:0.32999928 31:0.35279344 32:0.20585064 33:0.39338729 34:0.63083894 35:0.70044356 36:0.7567622 37:0.45411311 
-4 1:0.81355181 2:0.8051556 3:0.37199012 4:0.49261994 5:0.67082086 6:0.70306416 7:0.69090745 8:0.23141024 9:0.41869809 10:0.63039199 11:0.70161516 12:0.64747337 13:0.70449572 14:0.77062036 15:0.82785988 16:0.82008678 17:0.81355182 18:0.36534525 19:0.3633072 20:0.21270845 21:0.26754154 22:0.61509129 23:0.32637066 24:0.34045992 25:0.33395765 26:0.33636817 27:0.34237889 28:0.18042919 29:0.28228446 30:0.3125433 31:0.33126389 32:0.21049422 33:0.41146949 34:0.61123255 35:0.66672515 36:0.71488066 37:0.46289963 
4 1:0.90146229 2:0.91712591 3:0.37199012 4:0.49261994 5:0.67082086 6:0.70306416 7:0.69090745 8:0.36611533 9:0.50990799 10:0.69007529 11:0.74010575 12:0.71145836 13:0.88649728 14:0.92207583 15:0.91073177 16:0.87464501 17:0.90146234 18:0.54557051 19:0.50903654 20:0.21270845 21:0.26754154 22:0.8403234 23:0.32637066 24:0.34045992 25:0.33395765 26:0.33636817 27:0.34237889 28:0.28915136 29:0.40969998 30:0.42344452 31:0.4236614 32:0.32580605 33:0.63953366 34:0.862982 35:0.88143172 36:0.89531055 37:0.69452466 
-4 1:0.8358976 2:0.8405447 3:0.37199012 4:0.49261994 5:0.67082086 6:0.70306416 7:0.69090745 8:0.29959296 9:0.45098778 10:0.63900361 11:0.7081883 12:0.66373463 13:0.79624408 14:0.82399538 15:0.8400215 16:0.82945872 17:0.83589766 18:0.3843966 19:0.37871204 20:0.21270845 21:0.26754154 22:0.63020605 23:0.32637066 24:0.34045992 25:0.33395765 26:0.33636817 27:0.34237889 28:0.19056037 29:0.2890804 30:0.31891162 31:0.33663337 32:0.22018298 33:0.43297147 34:0.6250022 35:0.67928463 36:0.72550761 37:0.48264568 
4 1:0.90490889 2:0.9205491 3:0.37199012 4:0.49261994 5:0.67082086 6:0.70306416 7:0.69090745 8:0.36648491 9:0.51229079 10:0.69286476 11:0.74223088 12:0.71390133 13:0.88716351 14:0.92632382 15:0.91470607 16:0.87767593 17:0.90490891 18:0.55561804 19:0.51716093 20:0.21270845 21:0.26754154 22:0.84766876 23:0.32637066 24:0.34045992 25:0.33395765 26:0.33636817 27:0.34237889 28:0.2922753 29:0.41390348 30:0.42712515 31:0.42661829 32:0.32923464 33:0.64649882 34:0.87149278 35:0.88866864 36:0.90114593 37:0.70176332 
4 1:0.57083961 2:0.5219574 3:0.29819457 4:0.41384289 5:0.66816332 6:0.86681107 7:0.75000434 8:0.088164767 9:0.13432074 10:0.37930885 11:0.70807009 12:0.50547511 13:0.58087872 14:0.36283481 15:0.48536742 16:0.67200814 17:0.57083962 18:0.23898968 19:0.19504102 20:0.22430867 21:0.21625699 22:0.49517801 23:0.88696931 24:1 25:1 26:1 27:0.94796158 28:0.24510716 29:0.46847828 30:0.59143578 31:0.69390969 32:0.30974201 33:0.27154282 34:0.45971088 35:0.55702482 36:0.65199425 37:0.32423538 
4 1:0.8593462 2:0.84274672 3:0.29819457 4:0.41384289 5:0.66816332 6:0.86681107 7:0.75000434 8:0.21613311 9:0.36294505 10:0.65982892 11:0.86574851 12:0.7267635 13:0.76182792 14:0.77514293 15:0.87239068 16:0.86517142 17:0.85934622 18:0.44677441 19:0.36305483 20:0.22430867 21:0.21625699 22:0.81616669 23:0.88696931 24:1 25:1 26:1 27:0.94796158 28:0.52642256 29:0.8516565 30:0.91609354 31:0.9327987 32:0.61871453 33:0.57994708 34:0.84219848 35:0.87430774 36:0.89065346 37:0.64595896 
-4 1:0.88417065 2:0.88375389 3:0.29819457 4:0.41384289 5:0.66816332 6:0.86681107 7:0.75000434 8:0.25945176 9:0.40823479 10:0.67745044 11:0.86993003 12:0.7458039 13:0.82309004 14:0.85680922 15:0.8966798 16:0.8702992 17:0.88417066 18:0.49868904 19:0.40503277 20:0.22430867 21:0.21625699 22:0.84723081 23:0.88696931 24:1 25:1 26:1 27:0.94796158 28:0.57055591 29:0.88916966 30:0.93729728 31:0.94594244 32:0.66188409 33:0.62832878 34:0.87964712 35:0.89503466 36:0.90378887 37:0.6909098 
4 1:0.78655292 2:0.77612776 3:0.29819457 4:0.41384289 5:0.66816332 6:0.86681107 7:0.75000434 8:0.20710285 9:0.33106387 10:0.59483432 11:0.80938451 12:0.67092355 13:0.74907404 14:0.71765484 15:0.78269319 16:0.79612059 17:0.78655297 18:0.30626393 19:0.24943868 20:0.22430867 21:0.21625699 22:0.58231415 23:0.88696931 24:1 25:1 26:1 27:0.94796158 28:0.35432349 29:0.57100513 30:0.66625158 31:0.735276 32:0.41922576 33:0.39125235 34:0.56203297 35:0.63012432 36:0.69330504 37:0.4382149 
4 1:0.89531555 2:0.908152 3:0.29819457 4:0.41384289 5:0.66816332 6:0.86681107 7:0.75000434 8:0.30634925 9:0.43460477 10:0.68056752 11:0.86937603 12:0.75434748 13:0.8893976 14:0.90436442 15:0.90098016 16:0.86962492 17:0.89531555 18:0.50393153 19:0.40927181 20:0.22430867 21:0.21625699 22:0.84604866 23:0.88696931 24:1 25:1 26:1 27:0.94796158 28:0.58346658 29:0.8808787 30:0.93050515 31:0.94148004 32:0.67063006 33:0.64248741 34:0.87136725 35:0.88839205 36:0.89932656 37:0.7000192 
-4 1:0.58397779 2:0.5379723 3:0.29819457 4:0.41384289 5:0.66816332 6:0.86681107 7:0.75000434 8:0.081425129 9:0.14490152 10:0.41003213 11:0.70484038 12:0.51560569 13:0.5713394 14:0.38189494 15:0.52775332 16:0.6679193 17:0.58397784 18:0.21530867 19:0.17589266 20:0.22430867 21:0.21625699 22:0.42972016 23:0.88696931 24:1 25:1 26:1 27:0.94796158 28:0.2583805 29:0.40981984 30:0.49428448 31:0.57365912 32:0.3053331 33:0.28602745 34:0.40108066 35:0.46200465 36:0.53179429 37:0.31957457 
4 1:0.84127202 2:0.83524693 3:0.29819457 4:0.41384289 5:0.66816332 6:0.86681107 7:0.75000434 8:0.23594802 9:0.37145778 10:0.64060858 11:0.8448651 12:0.7129093 13:0.7898449 14:0.79048369 15:0.84583475 16:0.8395723 17:0.84127205 18:0.39576482 19:0.3218087 20:0.22430867 21:0.21625699 22:0.74002158 23:0.88696931 24:1 25:1 26:1 27:0.94796158 28:0.46986819 29:0.75559998 30:0.83606721 31:0.87258063 32:0.55264518 33:0.51793335 34:0.74630902 35:0.79609936 36:0.83049631 37:0.57715147 
4 1:0.78672618 2:0.77331188 3:0.29819457 4:0.41384289 5:0.66816332 6:0.86681107 7:0.75000434 8:0.20157407 9:0.32596858 10:0.59397717 11:0.81280845 12:0.67103719 13:0.74125392 14:0.70850343 15:0.78158556 16:0.80032915 17:0.78672617 18:0.3041377 19:0.24771942 20:0.22430867 21:0.21625699 22:0.59552965 23:0.88696931 24:1 25:1 26:1 27:0.94796158 28:0.36339804 29:0.58376431 30:0.68052918 31:0.75021039 32:0.42949167 33:0.40121169 34:0.5747843 35:0.64409006 36:0.70823388 37:0.44891622 
4 1:0.89453531 2:0.90637743 3:0.29819457 4:0.41384289 5:0.66816332 6:0.86681107 7:0.75000434 8:0.30337542 9:0.43266592 10:0.6798952 11:0.86971947 12:0.75375109 13:0.88518678 14:0.9008639 15:0.90006418 16:0.87004236 17:0.89453534 18:0.51099955 19:0.41498699 20:0.22430867 21:0.21625699 22:0.8550486 23:0.88696931 24:1 25:1 26:1 27:0.94796158 28:0.59663284 29:0.89120554 30:0.93667654 31:0.94537357 32:0.6833558 33:0.65692058 34:0.88167773 35:0.89442462 36:0.90321727 37:0.71327001 
-4 1:0.75283851 2:0.72140127 3:0.29819457 4:0.41384289 5:0.66816332 6:0.86681107 7:0.75000434 8:0.15690354 9:0.27141629 10:0.56443489 11:0.80610071 12:0.64498394 13:0.67807084 14:0.61025619 15:0.74103315 16:0.79214508 17:0.75283855 18:0.20589697 19:0.16828241 20:0.22430867 21:0.21625699 22:0.52902289 23:0.88696931 24:1 25:1 26:1 27:0.94796158 28:0.31128669 29:0.50610181 30:0.60819884 31:0.69657482 32:0.37052661 33:0.34412599 34:0.49732594 35:0.57346172 36:0.65469686 37:0.38756648 
-4 1:0.83199055 2:0.82073143 3:0.29819457 4:0.41384289 5:0.66816332 6:0.86681107 7:0.75000434 8:0.22065419 9:0.35531164 10:0.63592707 11:0.84160526 12:0.70578314 13:0.76821809 14:0.76135358 15:0.83940771 16:0.83559268 17:0.83199059 18:0.36372875 19:0.29590448 20:0.22430867 21:0.21625699 22:0.73323093 23:0.88696931 24:1 25:1 26:1 27:0.94796158 28:0.46780037 29:0.75531218 30:0.82796483 31:0.85617199 32:0.55041472 33:0.51565788 34:0.74600583 35:0.78816524 36:0.81408868 37:0.57481866 
-4 1:0.83401841 2:0.82827895 3:0.29819457 4:0.41384289 5:0.66816332 6:0.86681107 7:0.75000434 8:0.23758461 9:0.36717428 10:0.63221475 11:0.84069362 12:0.70736792 13:0.79213269 14:0.78268221 15:0.83428989 16:0.83443886 17:0.83401843 18:0.40471581 19:0.32904643 20:0.22430867 21:0.21625699 22:0.74398343 23:0.88696931 24:1 25:1 26:1 27:0.94796158 28:0.46488553 29:0.76085412 30:0.84389844 31:0.88118685 32:0.54990357 33:0.51242729 34:0.75151384 35:0.80372225 36:0.83907272 37:0.57425448 
-4 1:0.63994101 2:0.6040027 3:0.29819457 4:0.41384289 5:0.66816332 6:0.86681107 7:0.75000434 8:0.11109715 9:0.19635583 10:0.46666727 11:0.73055813 12:0.55849398 13:0.6133078 14:0.47467812 15:0.60590569 16:0.6995249 17:0.63994102 18:0.19906277 19:0.1627563 20:0.22430867 21:0.21625699 22:0.47780865 23:0.88696931 24:1 25:1 26:1 27:0.94796158 28:0.29115876 29:0.46718872 30:0.55084365 31:0.61229572 32:0.34437085 33:0.32199754 34:0.45839347 35:0.51732508 36:0.57042974 37:0.36026197 
-4 1:0.78517264 2:0.76719308 3:0.29819457 4:0.41384289 5:0.66816332 6:0.86681107 7:0.75000434 8:0.19441927 9:0.31529169 10:0.59290146 11:0.81610832 12:0.66986095 13:0.73114241 14:0.68921606 15:0.78007542 16:0.80435508 17:0.78517266 18:0.30911104 19:0.25174085 20:0.22430867 21:0.21625699 22:0.66358795 23:0.88696931 24:1 25:1 26:1 27:0.94796158 28:0.41493422 29:0.66913889 30:0.75337709 31:0.80208683 32:0.48929875 33:0.45770522 34:0.6599928 35:0.7152714 36:0.76005207 37:0.51118446 
4 1:0.83255501 2:0.83295855 3:0.29819457 4:0.41384289 5:0.66816332 6:0.86681107 7:0.75000434 8:0.25028129 9:0.37690486 10:0.63136228 11:0.83365892 12:0.70621305 13:0.81012579 14:0.80032104 15:0.83309632 16:0.82585498 17:0.83255505 18:0.37349332 19:0.30380006 20:0.22430867 21:0.21625699 22:0.68731012 23:0.88696931 24:1 25:1 26:1 27:0.94796158 28:0.43550259 29:0.68953361 30:0.7774695 31:0.82811977 32:0.51070256 33:0.48025146 34:0.68034732 35:0.73881469 36:0.78605808 37:0.53346889 
2.7432321751701649 1:0.90415966 2:0.9196902 3:0.29819457 4:0.41384289 5:0.66816332 6:0.86681107 7:0.75000434 8:0.3172543 9:0.44351598 10:0.68820609 11:0.87328275 12:0.76113239 13:0.90481544 14:0.92043604 15:0.91151865 16:0.87440929 17:0.90415974 18:0.53581878 19:0.4350557 20:0.22430867 21:0.21625699 22:0.87180099 23:0.88696931 24:1 25:1 26:1 27:0.94796158 28:0.62203071 29:0.90986802 30:0.94796142 31:0.95236686 32:0.70766003 33:0.68476517 34:0.9003046 35:0.90545314 36:0.91020457 37:0.73857768 
4 1:0.81916916 2:0.81652873 3:0.29819457 4:0.41384289 5:0.66816332 6:0.86681107 7:0.75000434 8:0.23806424 9:0.36371835 10:0.62068025 11:0.82652181 12:0.6959401 13:0.79285378 14:0.77654929 15:0.81836525 16:0.81711538 17:0.81916919 18:0.35068116 19:0.28535426 20:0.22430867 21:0.21625699 22:0.65148112 23:0.88696931 24:1 25:1 26:1 27:0.94796158 28:0.40401506 29:0.6479548 30:0.74152972 31:0.80000187 32:0.4763433 33:0.44573272 34:0.63884841 35:0.70369708 36:0.75797296 37:0.4976937 
-4 1:0.89993472 2:0.91345658 3:0.29819457 4:0.41384289 5:0.66816332 6:0.86681107 7:0.75000434 8:0.3090533 9:0.43873944 10:0.68447893 11:0.87203066 12:0.75789272 13:0.89322375 14:0.91181771 15:0.90637773 16:0.87287587 17:0.89993474 18:0.52800787 19:0.42873984 20:0.22430867 21:0.21625699 22:0.86646328 23:0.88696931 24:1 25:1 26:1 27:0.94796158 28:0.60997507 29:0.90512158 30:0.94610057 31:0.95179286 32:0.6969921 33:0.67154873 34:0.89556748 35:0.90363516 36:0.90963178 37:0.72746968 
-4 1:0.94358142 2:0.9750576 3:0.29819457 4:0.41384289 5:0.66816332 6:0.86681107 7:0.75000434 8:0.38456826 9:0.48763478 10:0.71777417 11:0.88972856 12:0.79136711 13:1 14:1 15:0.95230363 16:0.89456555 17:0.94358145 18:0.70284721 19:0.57011414 20:0.22430867 21:0.21625699 22:1 23:0.88696931 24:1 25:1 26:1 27:0.94796158 28:0.90952965 29:1 30:1 31:0.98570006 32:0.95868067 33:1 34:0.99028926 35:0.95632013 36:0.94351301 37:1 
-4 1:0.86395706 2:0.85336037 3:0.29819457 4:0.41384289 5:0.66816332 6:0.86681107 7:0.75000434 8:0.23573302 9:0.37782974 10:0.65648238 11:0.86706736 12:0.7303031 13:0.78956904 14:0.80201652 15:0.86773311 16:0.86677526 17:0.86395708 18:0.41762237 19:0.33948262 20:0.22430867 21:0.21625699 22:0.76626402 23:0.88696931 24:1 25:1 26:1 27:0.94796158 28:0.47645418 29:0.78634993 30:0.8719822 31:0.90247398 32:0.56498371 33:0.52517489 34:0.77700831 35:0.83119683 36:0.86035886 37:0.59001614 
4 1:0.83161568 2:0.82386681 3:0.29819457 4:0.41384289 5:0.66816332 6:0.86681107 7:0.75000434 8:0.220633 9:0.36555887 10:0.63455674 11:0.83800207 12:0.70549675 13:0.76820079 14:0.77984711 15:0.83750891 16:0.83117391 17:0.8316157 18:0.38026508 19:0.30927568 20:0.22430867 21:0.21625699 22:0.70669608 23:0.88696931 24:1 25:1 26:1 27:0.94796158 28:0.44452496 29:0.71421679 30:0.80104229 31:0.84627178 32:0.52336088 33:0.49014148 34:0.70499199 35:0.76186049 36:0.80420231 37:0.5466503 
-4 1:0.90223417 2:0.91647678 3:0.29819457 4:0.41384289 5:0.66816332 6:0.86681107 7:0.75000434 8:0.31258496 9:0.44085824 10:0.68631053 11:0.87314117 12:0.75965645 13:0.89820841 14:0.91563616 15:0.9089076 16:0.87423708 17:0.9022342 18:0.53506367 19:0.43444513 20:0.22430867 21:0.21625699 22:0.87355765 23:0.88696931 24:1 25:1 26:1 27:0.94796158 28:0.62204693 29:0.91246207 30:0.95027593 31:0.95440028 32:0.70822875 33:0.68478149 34:0.90289637 35:0.90771687 36:0.91223734 37:0.73916939 
4 1:0.79394875 2:0.78547203 3:0.29819457 4:0.41384289 5:0.66816332 6:0.86681107 7:0.75000434 8:0.21504987 9:0.33893516 10:0.59997502 11:0.81346886 12:0.67660072 13:0.76031277 14:0.73184634 15:0.78978463 16:0.80111677 17:0.7939488 18:0.32380365 19:0.26362122 20:0.22430867 21:0.21625699 22:0.6059689 23:0.88696931 24:1 25:1 26:1 27:0.94796158 28:0.37128409 29:0.59646109 30:0.69176807 31:0.75859596 32:0.43858958 33:0.40984225 34:0.58743799 35:0.65505724 36:0.71660018 37:0.45837371 
4 1:0.89561913 2:0.90742622 3:0.29819457 4:0.41384289 5:0.66816332 6:0.86681107 7:0.75000434 8:0.30336524 9:0.43315143 10:0.68126223 11:0.87030587 12:0.75458256 13:0.88518027 14:0.90174456 15:0.90193926 16:0.87076148 17:0.89561917 18:0.51457982 19:0.41788198 20:0.22430867 21:0.21625699 22:0.85742808 23:0.88696931 24:1 25:1 26:1 27:0.94796158 28:0.59807967 29:0.89424888 30:0.93932364 31:0.94744392 32:0.68517544 33:0.65850574 34:0.88471351 35:0.89701128 36:0.90528624 37:0.71516352 
2.8442544955726641 1:0.45247947 2:0.43462625 3:0.42629302 4:0.44683109 5:0.57213197 6:0.65012836 7:0.62611989 8:0.15676017 9:0.13007111 10:0.25245219 11:0.46559275 12:0.34716635 13:0.55647511 14:0.34137407 15:0.37116578 16:0.53206024 17:0.4524795 18:0.19313759 19:0.21623138 20:1 21:0.9828719 22:0.38194842 23:0.50123726 24:0.5250722 25:0.52462523 26:0.54049232 27:0.52694061 28:0.13647355 29:0.21305914 30:0.25697108 31:0.30620127 32:0.16056159 33:0.24332373 34:0.35786203 35:0.41374632 36:0.47972008 37:0.27513121 
4 1:0.80807152 2:0.78504762 3:0.42629302 4:0.44683109 5:0.57213197 6:0.65012836 7:0.62611989 8:0.26274746 9:0.33308324 10:0.54746324 11:0.67768483 12:0.59394159 13:0.69467247 14:0.68654226 15:0.81731032 16:0.84621478 17:0.80807151 18:0.38616153 19:0.37230969 20:1 21:0.9828719 22:0.71528792 23:0.50123726 24:0.5250722 25:0.52462523 26:0.54049232 27:0.52694061 28:0.25899885 29:0.44693859 30:0.50841898 31:0.54466138 32:0.3123996 33:0.44353135 34:0.72037285 35:0.79386889 36:0.83965077 37:0.51276273 
4 1:0.77711368 2:0.77002861 3:0.42629302 4:0.44683109 5:0.57213197 6:0.65012836 7:0.62611989 8:0.29787206 9:0.35161762 10:0.52248299 11:0.63960562 12:0.57250665 13:0.73832252 14:0.71186626 15:0.77930631 16:0.79009794 17:0.77711373 18:0.31655871 19:0.31602916 20:1 21:0.9828719 22:0.55550186 23:0.50123726 24:0.5250722 25:0.52462523 26:0.54049232 27:0.52694061 28:0.20866438 29:0.33325719 30:0.38401329 31:0.42567723 32:0.24595603 33:0.36077566 34:0.54453881 35:0.60638431 36:0.66057149 37:0.40848839 
-4 1:0.8821383 2:0.89220091 3:0.42629302 4:0.44683109 5:0.57213197 6:0.65012836 7:0.62611989 8:0.39095515 9:0.44888383 10:0.59566531 11:0.68985617 12:0.64542773 13:0.8601061 14:0.88073724 15:0.89046651 16:0.86411511 17:0.88213834 18:0.49039866 19:0.45659536 20:1 21:0.9828719 22:0.79383318 23:0.50123726 24:0.5250722 25:0.52462523 26:0.54049232 27:0.52694061 28:0.33287599 29:0.50771844 30:0.54531558 31:0.56663181 32:0.38437957 33:0.56323803 34:0.81453282 35:0.84961832 36:0.87276225 37:0.62487919 
-4 1:0.57689643 2:0.55681017 3:0.42629302 4:0.44683109 5:0.57213197 6:0.65012836 7:0.62611989 8:0.17952615 9:0.19446982 10:0.37442118 11:0.53368672 12:0.43455317 13:0.5861382 14:0.44883542 15:0.55364694 16:0.63418754 17:0.57689644 18:0.17446499 19:0.20113281 20:1 21:0.9828719 22:0.44906405 23:0.50123726 24:0.5250722 25:0.52462523 26:0.54049232 27:0.52694061 28:0.16260825 29:0.26557714 30:0.31060758 31:0.34763892 32:0.19329639 33:0.28408336 34:0.43768248 35:0.49362537 36:0.54116329 37:0.32434848 
-4 1:0.76963323 2:0.76729741 3:0.42629302 4:0.44683109 5:0.57213197 6:0.65012836 7:0.62611989 8:0.301783 9:0.35723754 10:0.52036195 11:0.62972655 12:0.56822675 13:0.74326468 14:0.72051901 15:0.77450081 16:0.77545127 17:0.76963325 18:0.28817488 19:0.29307812 20:1 21:0.9828719 22:0.62151341 23:0.50123726 24:0.5250722 25:0.52462523 26:0.54049232 27:0.52694061 28:0.23969971 29:0.38694118 30:0.43314683 31:0.46426183 32:0.28264958 33:0.40935658 34:0.62521336 35:0.67823364 36:0.71661961 37:0.46363284 
-4 1:0.74152147 2:0.7311096 3:0.42629302 4:0.44683109 5:0.57213197 6:0.65012836 7:0.62611989 8:0.27617834 9:0.32233524 10:0.49440234 11:0.62188463 12:0.54765619 13:0.71017923 14:0.66224061 15:0.7372375 16:0.76426913 17:0.7415215 18:0.28224578 19:0.28828387 20:1 21:0.9828719 22:0.52091065 23:0.50123726 24:0.5250722 25:0.52462523 26:0.54049232 27:0.52694061 28:0.19545535 29:0.31105167 30:0.35918188 31:0.39935539 32:0.23018351 33:0.33866025 34:0.50958955 35:0.56838595 36:0.62038876 37:0.38321808 
4 1:0.86848958 2:0.87480491 3:0.42629302 4:0.44683109 5:0.57213197 6:0.65012836 7:0.62611989 8:0.37581977 9:0.43297011 10:0.58597569 11:0.68493183 12:0.63588369 13:0.84020194 14:0.85306471 15:0.87591597 16:0.85689162 17:0.86848963 18:0.47025936 19:0.44031082 20:1 21:0.9828719 22:0.7788951 23:0.50123726 24:0.5250722 25:0.52462523 26:0.54049232 27:0.52694061 28:0.32377091 29:0.49585626 30:0.53627606 31:0.56037951 32:0.37454654 33:0.54787068 34:0.79569047 35:0.83560219 36:0.86304666 37:0.60898293 
-4 1:0.75565998 2:0.73215278 3:0.42629302 4:0.44683109 5:0.57213197 6:0.65012836 7:0.62611989 8:0.24140503 9:0.2957974 10:0.5090622 11:0.64620008 12:0.55739333 13:0.66809099 14:0.6256427 15:0.76075467 16:0.79828963 17:0.75566002 18:0.1840804 19:0.20890779 20:1 21:0.9828719 22:0.48905073 23:0.50123726 24:0.5250722 25:0.52462523 26:0.54049232 27:0.52694061 28:0.17714842 29:0.2893798 30:0.33880352 31:0.38139572 32:0.2106351 33:0.30915278 34:0.47547746 35:0.53653828 36:0.59189386 37:0.35281439 
4 1:0.90823027 2:0.8942058 3:0.42629302 4:0.44683109 5:0.57213197 6:0.65012836 7:0.62611989 8:0.31830829 9:0.41768472 10:0.61951278 11:0.73103478 12:0.66338939 13:0.76798423 14:0.83252845 15:0.92729519 16:0.92394805 17:0.9082303 18:0.23863628 19:0.25302143 20:1 21:0.9828719 22:0.79027262 23:0.50123726 24:0.5250722 25:0.52462523 26:0.54049232 27:0.52694061 28:0.30501786 29:0.50867906 30:0.55441386 31:0.58014752 32:0.36245334 33:0.5179346 34:0.81523906 35:0.86267878 36:0.89265827 37:0.5903437 
-4 1:0.30485859 2:0.32402068 3:0.42629302 4:0.44683109 5:0.57213197 6:0.65012836 7:0.62611989 8:0.146503 9:0.11416426 10:0.18045536 11:0.31530887 12:0.24557923 13:0.54336315 14:0.31392175 15:0.26137256 16:0.30820594 17:0.30485859 18:0.030728871 19:0.084908427 20:1 21:0.9828719 22:0.18929642 23:0.50123726 24:0.5250722 25:0.52462523 26:0.54049232 27:0.52694061 28:0.08240656 29:0.10758674 30:0.11513943 31:0.11913014 32:0.091054762 33:0.15344023 34:0.19292755 35:0.19752647 36:0.19423938 37:0.16479334 
4 1:0.81257864 2:0.8017992 3:0.42629302 4:0.44683109 5:0.57213197 6:0.65012836 7:0.62611989 8:0.29833896 9:0.36418104 10:0.5495628 11:0.66587444 12:0.59681591 13:0.73980516 14:0.7366751 15:0.82103363 16:0.82897452 17:0.81257864 18:0.36430711 19:0.35463829 20:1 21:0.9828719 22:0.70058017 23:0.50123726 24:0.5250722 25:0.52462523 26:0.54049232 27:0.52694061 28:0.26669447 29:0.44014503 30:0.49071775 31:0.522428 32:0.31653406 33:0.45553141 34:0.70974439 35:0.76717217 36:0.8061773 37:0.51882325 
-4 1:0.68072818 2:0.67398826 3:0.42629302 4:0.44683109 5:0.57213197 6:0.65012836 7:0.62611989 8:0.26092515 9:0.29102165 10:0.44525509 11:0.58267821 12:0.50525003 13:0.69106258 14:0.61147867 15:0.66393985 16:0.70680787 17:0.68072822 18:0.26268249 19:0.27246508 20:1 21:0.9828719 22:0.47326668 23:0.50123726 24:0.5250722 25:0.52462523 26:0.54049232 27:0.52694061 28:0.16924678 29:0.2801226 30:0.32876899 31:0.37040808 32:0.2021294 33:0.29446115 34:0.4604866 35:0.52123784 36:0.5753815 37:0.33794536 
-4 1:0.48959361 2:0.48265833 3:0.42629302 4:0.44683109 5:0.57213197 6:0.65012836 7:0.62611989 8:0.1722447 9:0.16497156 10:0.31288413 11:0.46365454 12:0.37365505 13:0.57733693 14:0.39990793 15:0.46054889 16:0.533325 17:0.48959365 18:0.11292288 19:0.15137013 20:1 21:0.9828719 22:0.33977052 23:0.50123726 24:0.5250722 25:0.52462523 26:0.54049232 27:0.52694061 28:0.12591528 29:0.19410087 30:0.22730883 31:0.25720579 32:0.14705525 33:0.22495919 34:0.32810874 35:0.36915528 36:0.40637771 37:0.25293499 
4 1:0.76744992 2:0.74818361 3:0.42629302 4:0.44683109 5:0.57213197 6:0.65012836 7:0.62611989 8:0.26795338 9:0.31959591 10:0.50792441 11:0.65102301 12:0.56549676 13:0.70038213 14:0.66048644 15:0.7577502 16:0.80670473 17:0.76744994 18:0.33093899 19:0.32765698 20:1 21:0.9828719 22:0.65789811 23:0.50123726 24:0.5250722 25:0.52462523 26:0.54049232 27:0.52694061 28:0.23853139 29:0.40113407 30:0.4633314 31:0.51149217 32:0.28583749 33:0.40964222 34:0.64918416 35:0.7254971 36:0.78919274 37:0.47083715 
4 1:0.7839809 2:0.77875173 3:0.42629302 4:0.44683109 5:0.57213197 6:0.65012836 7:0.62611989 8:0.30616035 9:0.35898039 10:0.5266326 11:0.64267761 12:0.57728096 13:0.74919901 14:0.72561983 15:0.78585793 16:0.79416736 17:0.78398092 18:0.32720317 19:0.32463622 20:1 21:0.9828719 22:0.57537853 23:0.50123726 24:0.5250722 25:0.52462523 26:0.54049232 27:0.52694061 28:0.21954808 29:0.34752598 30:0.39771325 31:0.43787894 32:0.25789329 33:0.37849574 34:0.56628052 35:0.62652895 36:0.67832416 37:0.42706107 
-4 1:0.88184228 2:0.89208923 3:0.42629302 4:0.44683109 5:0.57213197 6:0.65012836 7:0.62611989 8:0.39196824 9:0.44831054 10:0.59574202 11:0.68949679 12:0.64522664 13:0.86153135 14:0.8799288 15:0.89060994 16:0.86358385 17:0.88184229 18:0.49444078 19:0.4598638 20:1 21:0.9828719 22:0.79795905 23:0.50123726 24:0.5250722 25:0.52462523 26:0.54049232 27:0.52694061 28:0.33789246 29:0.51061646 30:0.54705953 31:0.56775388 32:0.38902394 33:0.57111398 34:0.81868494 35:0.85197075 36:0.87422098 37:0.63182646 
4 1:0.75928872 2:0.75056806 3:0.42629302 4:0.44683109 5:0.57213197 6:0.65012836 7:0.62611989 8:0.28409495 9:0.33458191 10:0.50968402 11:0.63114307 12:0.56005813 13:0.72127604 14:0.68640025 15:0.76083896 16:0.77657327 17:0.75928874 18:0.30598199 19:0.30747687 20:1 21:0.9828719 22:0.53593588 23:0.50123726 24:0.5250722 25:0.52462523 26:0.54049232 27:0.52694061 28:0.20053414 29:0.32012324 30:0.37048654 31:0.41278517 32:0.236445 33:0.34772051 34:0.52355329 35:0.58486279 36:0.63971834 37:0.39365032 
-4 1:0.87932055 2:0.88913251 3:0.42629302 4:0.44683109 5:0.57213197 6:0.65012836 7:0.62611989 8:0.38792312 9:0.44655382 10:0.59363977 11:0.68842936 12:0.64343339 13:0.85646735 14:0.8773505 15:0.88758438 16:0.86186739 17:0.87932053 18:0.48936293 19:0.45575787 20:1 21:0.9828719 22:0.78915285 23:0.50123726 24:0.5250722 25:0.52462523 26:0.54049232 27:0.52694061 28:0.32956581 29:0.5044158 30:0.54280441 31:0.5648602 32:0.38101283 33:0.55783245 34:0.80906752 35:0.84542572 36:0.86969038 37:0.61951898 
-4 1:0.94358142 2:0.9750576 3:0.42629302 4:0.44683109 5:0.57213197 6:0.65012836 7:0.62611989 8:0.49690117 9:0.51647007 10:0.63609988 11:0.7103299 12:0.68797983 13:1 14:1 15:0.95230363 16:0.89456555 17:0.94358145 18:0.70935879 19:0.63364554 20:1 21:0.9828719 22:0.99999869 23:0.50123726 24:0.5250722 25:0.52462523 26:0.54049232 27:0.52694061 28:0.60078682 29:0.62125534 30:0.61606965 31:0.61361561 32:0.62438127 33:0.99999953 34:0.99028819 35:0.95631833 36:0.94351119 37:0.99999916 
4 1:0.47333856 2:0.44312985 3:0.42629302 4:0.44683109 5:0.57213197 6:0.65012836 7:0.62611989 8:0.094485025 9:0.12303298 10:0.28567275 11:0.4825729 12:0.36146302 13:0.47608241 14:0.33201827 15:0.42365756 16:0.5549764 17:0.47333861 18:0.17603321 19:0.20240086 20:1 21:0.9828719 22:0.3220296 23:0.50123726 24:0.5250722 25:0.52462523 26:0.54049232 27:0.52694061 28:0.1150873 29:0.18111256 30:0.21560187 31:0.2505533 32:0.13551967 33:0.20776438 34:0.30757232 35:0.35018892 36:0.3942026 37:0.23526613 
4 1:0.76821393 2:0.74075782 3:0.42629302 4:0.44683109 5:0.57213197 6:0.65012836 7:0.62611989 8:0.21929654 9:0.29801949 10:0.52833194 11:0.6530462 12:0.56623127 13:0.63858143 14:0.62887978 15:0.78895376 16:0.8094746 17:0.76821394 18:0.33212691 19:0.32861753 20:1 21:0.9828719 22:0.61863745 23:0.50123726 24:0.5250722 25:0.52462523 26:0.54049232 27:0.52694061 28:0.21728786 29:0.37859372 30:0.4377473 31:0.48110566 32:0.26341597 33:0.37531489 34:0.614447 35:0.68702417 36:0.74353334 37:0.43598832 
-2.8579951812886941 1:0.73276493 2:0.71212191 3:0.42629302 4:0.44683109 5:0.57213197 6:0.65012836 7:0.62611989 8:0.22691248 9:0.29125897 10:0.50097182 11:0.62315175 12:0.5416201 13:0.64858242 14:0.61464954 15:0.74726068 16:0.76539016 17:0.73276495 18:0.29508933 19:0.29866911 20:1 21:0.9828719 22:0.53418148 23:0.50123726 24:0.5250722 25:0.52462523 26:0.54049232 27:0.52694061 28:0.1952575 29:0.32166182 30:0.37141422 31:0.41214319 32:0.23245559 33:0.33838173 34:0.52561134 35:0.58628546 36:0.63903812 37:0.38667032 
-1.9194399604480732 1:0.87365089 2:0.88175806 3:0.42629302 4:0.44683109 5:0.57213197 6:0.65012836 7:0.62611989 8:0.38125611 9:0.4399745 10:0.58981213 11:0.68628624 12:0.63946901 13:0.84752358 14:0.86539358 15:0.88175664 16:0.85891193 17:0.87365093 18:0.48244103 19:0.45016085 20:1 21:0.9828719 22:0.78859144 23:0.50123726 24:0.5250722 25:0.52462523 26:0.54049232 27:0.52694061 28:0.33089475 29:0.50366297 30:0.54180932 31:0.56406592 32:0.38191446 33:0.55951095 34:0.8077412 35:0.84391781 36:0.86856662 37:0.62051356 
-4 1:0.78286342 2:0.77622968 3:0.42629302 4:0.44683109 5:0.57213197 6:0.65012836 7:0.62611989 8:0.30068721 9:0.35470199 10:0.52583883 11:0.64376694 12:0.57642047 13:0.74271194 14:0.71981735 15:0.78507495 16:0.79522898 17:0.78286345 18:0.33111771 19:0.32780149 20:1 21:0.9828719 22:0.57394103 23:0.50123726 24:0.5250722 25:0.52462523 26:0.54049232 27:0.52694061 28:0.21654792 29:0.34598936 30:0.39786308 31:0.43954068 32:0.25522227 33:0.37398027 34:0.56378851 35:0.62633425 36:0.6801492 37:0.42317468 
-4 1:0.88114569 2:0.8900428 3:0.42629302 4:0.44683109 5:0.57213197 6:0.65012836 7:0.62611989 8:0.3854724 9:0.44537585 10:0.59525488 11:0.69052701 12:0.64463246 13:0.85337297 14:0.87599276 15:0.89027634 16:0.86492092 17:0.88114573 18:0.49972787 19:0.46413891 20:1 21:0.9828719 22:0.80718214 23:0.50123726 24:0.5250722 25:0.52462523 26:0.54049232 27:0.52694061 28:0.34155041 29:0.51779789 30:0.55371359 31:0.57345108 32:0.39354084 33:0.57758614 34:0.82983766 35:0.86189004 36:0.88263699 37:0.63927481 
-1.6162302756547873 1:0.44809661 2:0.37759192 3:0.75363132 4:0.812575 5:0.87560809 6:0.74446129 7:0.86736209 8:0.065498453 9:0.17270923 10:0.42824775 11:0.59914831 12:0.47372136 13:0.17537013 14:0.17794102 15:0.41900219 16:0.63782439 17:0.44809664 18:0.20133601 19:0.21504957 20:0.17659028 21:0.16291858 22:0.41388612 23:0.57925331 24:0.51657323 25:0.48089742 26:0.46236515 27:0.58664759 28:0.094967272 29:0.2176798 30:0.2883677 31:0.34835303 32:0.1293963 33:0.15511844 34:0.36929086 35:0.49170118 36:0.61033367 37:0.20716213 
-4 1:0.85494645 2:0.84199056 3:0.75363132 4:0.812575 5:0.87560809 6:0.74446129 7:0.86736209 8:0.49642056 9:0.67150642 10:0.83971215 11:0.77220358 12:0.8150127 13:0.67001948 14:0.79605833 15:0.88987883 16:0.87246854 17:0.85494648 18:0.41740783 19:0.38976427 20:0.17659028 21:0.16291858 22:0.76899817 23:0.57925331 24:0.51657323 25:0.48089742 26:0.46236515 27:0.58664759 28:0.26252104 29:0.51092182 30:0.53143517 31:0.52337659 32:0.32681614 33:0.40428756 34:0.82838805 35:0.8780325 36:0.89904684 37:0.49578348 
-4 1:0.89252936 2:0.89982097 3:0.75363132 4:0.812575 5:0.87560809 6:0.74446129 7:0.86736209 8:0.61561088 9:0.75210874 10:0.86053251 11:0.77676954 12:0.84650474 13:0.80681731 14:0.89585401 15:0.91372462 16:0.87875418 17:0.89252938 18:0.46498585 19:0.42823565 20:0.17659028 21:0.16291858 22:0.78988744 23:0.57925331 24:0.51657323 25:0.48089742 26:0.46236515 27:0.58664759 28:0.30738058 29:0.51913375 30:0.53215189 31:0.52265085 32:0.36462687 33:0.47076955 34:0.84108683 35:0.8790959 36:0.89780705 37:0.55085739 
-4 1:0.81883362 2:0.81649263 3:0.75363132 4:0.812575 5:0.87560809 6:0.74446129 7:0.86736209 8:0.52280946 9:0.67103786 10:0.79604269 11:0.73671638 12:0.78457687 13:0.70040082 14:0.79560385 15:0.840017 16:0.8244194 17:0.81883362 18:0.31658607 19:0.30824025 20:0.17659028 21:0.16291858 22:0.54041629 23:0.57925331 24:0.51657323 25:0.48089742 26:0.46236515 27:0.58664759 28:0.17239701 29:0.32019275 30:0.3700591 31:0.40020593 32:0.21347838 33:0.27029875 34:0.52992205 35:0.62168637 36:0.69593973 37:0.33014537 
-4 1:0.905188 2:0.92190929 3:0.75363132 4:0.812575 5:0.87560809 6:0.74446129 7:0.86736209 8:0.67444051 9:0.78125854 10:0.86576313 11:0.77638763 12:0.85706517 13:0.87438359 14:0.93204526 15:0.91975886 16:0.87823413 17:0.90518803 18:0.48758658 19:0.44651049 20:0.17659028 21:0.16291858 22:0.80923509 23:0.57925331 24:0.51657323 25:0.48089742 26:0.46236515 27:0.58664759 28:0.33768337 29:0.52826397 30:0.53723882 31:0.52601354 32:0.39100424 33:0.51622477 34:0.85566974 35:0.8873529 36:0.90346323 37:0.589792 
-4 1:0.55735221 2:0.50028286 3:0.75363132 4:0.812575 5:0.87560809 6:0.74446129 7:0.86736209 8:0.16026258 9:0.29793021 10:0.5626291 11:0.63577561 12:0.56547236 13:0.28414129 14:0.33301587 15:0.57251414 16:0.68750958 17:0.55735226 18:0.20968582 19:0.22180119 20:0.17659028 21:0.16291858 22:0.37686931 23:0.57925331 24:0.51657323 25:0.48089742 26:0.46236515 27:0.58664759 28:0.096662853 29:0.20518458 30:0.25729718 31:0.30039365 32:0.12687959 33:0.15754732 34:0.3494303 35:0.4418962 36:0.53067662 37:0.20334821 
-4 1:0.83367544 2:0.83584669 3:0.75363132 4:0.812575 5:0.87560809 6:0.74446129 7:0.86736209 8:0.5586209 9:0.69044213 10:0.80695964 11:0.74285691 12:0.79701557 13:0.74149025 14:0.81961847 15:0.85250528 16:0.83279036 17:0.83367547 18:0.33573077 19:0.32372057 20:0.17659028 21:0.16291858 22:0.5843357 23:0.57925331 24:0.51657323 25:0.48089742 26:0.46236515 27:0.58664759 28:0.19073769 29:0.35129463 30:0.40120577 31:0.42806235 32:0.23519669 33:0.29754654 34:0.57862986 35:0.67125244 36:0.74198801 37:0.36187915 
-4 1:0.90464139 2:0.92121407 3:0.75363132 4:0.812575 5:0.87560809 6:0.74446129 7:0.86736209 8:0.6758868 9:0.77881611 10:0.86508654 11:0.77667508 12:0.85660631 13:0.87602674 14:0.92899998 15:0.91902171 16:0.87862934 17:0.90464144 18:0.4992298 19:0.45592515 20:0.17659028 21:0.16291858 22:0.82679326 23:0.57925331 24:0.51657323 25:0.48089742 26:0.46236515 27:0.58664759 28:0.36037747 29:0.54020632 30:0.54327519 31:0.52935403 32:0.41172296 33:0.54988315 34:0.87431246 35:0.89692526 36:0.90896551 37:0.62000453 
-3.190983227320273 1:0.81006365 2:0.77298029 3:0.75363132 4:0.812575 5:0.87560809 6:0.74446129 7:0.86736209 8:0.34452529 9:0.58051214 10:0.81868454 11:0.7635117 12:0.77749981 13:0.49561663 14:0.68318642 15:0.86554456 16:0.86062008 17:0.81006364 18:0.1693655 19:0.18919836 20:0.17659028 21:0.16291858 22:0.52408874 23:0.57925331 24:0.51657323 25:0.48089742 26:0.46236515 27:0.58664759 28:0.14540474 29:0.30821869 30:0.36573759 31:0.40291421 32:0.18940022 33:0.2300259 34:0.51092808 35:0.61459795 36:0.70027243 37:0.29478301 
-4 1:0.92003076 2:0.88797107 3:0.75363132 4:0.812575 5:0.87560809 6:0.74446129 7:0.86736209 8:0.44123316 9:0.68512218 10:0.9044383 11:0.84123827 12:0.8697453 13:0.60666965 14:0.81278445 15:0.9637096 16:0.96623313 17:0.92003083 18:0.20014312 19:0.214085 20:0.17659028 21:0.16291858 22:0.81188726 23:0.57925331 24:0.51657323 25:0.48089742 26:0.46236515 27:0.58664759 28:0.26249242 29:0.54882772 30:0.56576226 31:0.55701515 32:0.33497276 33:0.40406949 34:0.88746262 35:0.93248546 36:0.95454136 37:0.50751823 
-4 1:0.17364337 2:0.14541307 3:0.75363132 4:0.812575 5:0.87560809 6:0.74446129 7:0.86736209 8:0.034597431 9:0.069574791 10:0.19884298 11:0.32959753 12:0.2435852 13:0.13990937 14:0.050266205 15:0.15660479 16:0.27119673 17:0.17364343 18:0.04260724 19:0.086702192 20:0.17659028 21:0.16291858 22:0.15286705 23:0.57925331 24:0.51657323 25:0.48089742 26:0.46236515 27:0.58664759 28:0.046810679 29:0.073790634 30:0.086446691 31:0.10082087 32:0.055079831 33:0.083504635 34:0.14388853 35:0.17038069 36:0.20121702 37:0.098486159 
-4 1:0.84472051 2:0.84100241 3:0.75363132 4:0.812575 5:0.87560809 6:0.74446129 7:0.86736209 8:0.53636331 9:0.68459039 10:0.82337537 11:0.75577705 12:0.80637237 13:0.71594749 14:0.81224036 15:0.87116172 16:0.8503163 17:0.84472058 18:0.34189635 19:0.32870602 20:0.17659028 21:0.16291858 22:0.69225693 23:0.57925331 24:0.51657323 25:0.48089742 26:0.46236515 27:0.58664759 28:0.22397357 29:0.44787642 30:0.48137854 31:0.48486682 32:0.28240522 33:0.34694599 34:0.72977927 35:0.79858266 36:0.83558881 37:0.43085986 
-4 1:0.83327904 2:0.82939762 3:0.75363132 4:0.812575 5:0.87560809 6:0.74446129 7:0.86736209 8:0.5268205 9:0.67789794 10:0.80983157 11:0.74935992 12:0.79690493 13:0.70484652 14:0.80384685 15:0.85550024 16:0.84147486 17:0.8332791 18:0.37122946 19:0.35242465 20:0.17659028 21:0.16291858 22:0.66036796 23:0.57925331 24:0.51657323 25:0.48089742 26:0.46236515 27:0.58664759 28:0.21483583 29:0.41215951 30:0.45859224 31:0.47429789 32:0.26789638 33:0.33309303 34:0.67349819 35:0.76210715 36:0.81799127 37:0.40937023 
-4 1:0.60406062 2:0.55458416 3:0.75363132 4:0.812575 5:0.87560809 6:0.74446129 7:0.86736209 8:0.1988987 9:0.36167861 10:0.61869257 11:0.64638184 12:0.60357319 13:0.32856877 14:0.41237363 15:0.63816132 16:0.70400693 17:0.60406066 18:0.17214174 19:0.19144321 20:0.17659028 21:0.16291858 22:0.42332098 23:0.57925331 24:0.51657323 25:0.48089742 26:0.46236515 27:0.58664759 28:0.10827059 29:0.23985737 30:0.29358681 31:0.3300709 32:0.14397003 33:0.17514269 34:0.40466351 35:0.50074559 36:0.58088917 37:0.22879681 
-4 1:0.77926045 2:0.76061021 3:0.75363132 4:0.812575 5:0.87560809 6:0.74446129 7:0.86736209 8:0.4397267 9:0.58868209 10:0.76386687 11:0.73241247 12:0.75128435 13:0.60500437 14:0.69357778 15:0.80339607 16:0.81889742 17:0.77926047 18:0.29754968 19:0.2928475 20:0.17659028 21:0.16291858 22:0.62431116 23:0.57925331 24:0.51657323 25:0.48089742 26:0.46236515 27:0.58664759 28:0.18251095 29:0.38746154 30:0.43838139 31:0.46091091 32:0.23651607 33:0.28540386 34:0.63535668 35:0.73035082 36:0.79612796 37:0.36389416 
4 1:0.84996009 2:0.85471557 3:0.75363132 4:0.812575 5:0.87560809 6:0.74446129 7:0.86736209 8:0.57837032 9:0.71088157 10:0.82210377 11:0.75034798 12:0.81075713 13:0.76415545 14:0.84489858 15:0.86977234 16:0.84283809 17:0.84996013 18:0.36581768 19:0.34804871 20:0.17659028 21:0.16291858 22:0.62892191 23:0.57925331 24:0.51657323 25:0.48089742 26:0.46236515 27:0.58664759 28:0.21659682 29:0.38488205 30:0.43013811 31:0.45036865 32:0.2632874 33:0.33597415 34:0.63111711 35:0.7171198 36:0.77866599 37:0.40290722 
-4 1:0.90776303 2:0.92569658 3:0.75363132 4:0.812575 5:0.87560809 6:0.74446129 7:0.86736209 8:0.68415953 9:0.78453739 10:0.86763337 11:0.77713453 12:0.85924939 13:0.88549359 14:0.93608152 15:0.92188707 16:0.87921913 17:0.90776304 18:0.50558634 19:0.46106502 20:0.17659028 21:0.16291858 22:0.83143015 23:0.57925331 24:0.51657323 25:0.48089742 26:0.46236515 27:0.58664759 28:0.36584299 29:0.54361941 30:0.54520923 31:0.53030382 32:0.41682493 33:0.55793824 34:0.87955683 35:0.89992828 36:0.91048637 37:0.62738767 
-4 1:0.83970329 2:0.84376459 3:0.75363132 4:0.812575 5:0.87560809 6:0.74446129 7:0.86736209 8:0.57265888 9:0.69866572 10:0.81196869 11:0.74483654 12:0.8020378 13:0.7576275 14:0.82987415 15:0.85826543 16:0.83546691 17:0.83970328 18:0.34592695 19:0.33196515 20:0.17659028 21:0.16291858 22:0.59256343 23:0.57925331 24:0.51657323 25:0.48089742 26:0.46236515 27:0.58664759 28:0.19723401 29:0.35789854 30:0.40581021 31:0.43064062 32:0.24180208 33:0.30729456 34:0.58906194 35:0.67862644 36:0.74626694 37:0.37162393 
-4 1:0.90439642 2:0.92093405 3:0.75363132 4:0.812575 5:0.87560809 6:0.74446129 7:0.86736209 8:0.67297013 9:0.78028861 10:0.86502149 11:0.77612662 12:0.85642055 13:0.8726934 14:0.93082583 15:0.91889904 16:0.87787047 17:0.90439643 18:0.5020939 19:0.45824105 20:0.17659028 21:0.16291858 22:0.82791718 23:0.57925331 24:0.51657323 25:0.48089742 26:0.46236515 27:0.58664759 28:0.3592236 29:0.54217836 30:0.54457078 31:0.5300651 32:0.41118131 33:0.54817176 34:0.87733985 35:0.89893739 36:0.91010642 37:0.61920389 
-4 1:0.83431304 2:0.82573187 3:0.75363132 4:0.812575 5:0.87560809 6:0.74446129 7:0.86736209 8:0.50100059 9:0.6708903 10:0.81224075 11:0.75513145 12:0.79768691 13:0.67528142 14:0.79532315 15:0.85840816 16:0.84927478 17:0.83431311 18:0.3485902 19:0.33411864 20:0.17659028 21:0.16291858 22:0.62609409 23:0.57925331 24:0.51657323 25:0.48089742 26:0.46236515 27:0.58664759 28:0.19074364 29:0.3832106 30:0.43772373 31:0.46287631 32:0.24246962 33:0.29749589 34:0.62832446 35:0.72895795 36:0.79910132 37:0.37240584 
-4 1:0.82060789 2:0.8192154 3:0.75363132 4:0.812575 5:0.87560809 6:0.74446129 7:0.86736209 8:0.52660908 9:0.67597117 10:0.79716212 11:0.73650729 12:0.7860046 13:0.70482287 14:0.80176736 15:0.84136958 16:0.82417009 17:0.82060795 18:0.32848118 19:0.31785858 20:0.17659028 21:0.16291858 22:0.56388773 23:0.57925331 24:0.51657323 25:0.48089742 26:0.46236515 27:0.58664759 28:0.18232215 29:0.33733801 30:0.38656019 31:0.41444395 32:0.2252613 33:0.28510368 34:0.55686051 35:0.64801372 36:0.71951473 37:0.34742675 
-4 1:0.90433728 2:0.92087393 3:0.75363132 4:0.812575 5:0.87560809 6:0.74446129 7:0.86736209 8:0.67354676 9:0.78002248 10:0.86456348 11:0.77634195 12:0.85635979 13:0.87333896 14:0.93049693 15:0.91841169 16:0.87815834 17:0.90433733 18:0.4978635 19:0.45482036 20:0.17659028 21:0.16291858 22:0.82314996 23:0.57925331 24:0.51657323 25:0.48089742 26:0.46236515 27:0.58664759 28:0.35352403 29:0.53860476 30:0.54279119 31:0.5291405 32:0.40586888 33:0.53975078 34:0.87178114 35:0.89612195 36:0.90858354 37:0.61148693 
-4 1:0.80848269 2:0.80515276 3:0.75363132 4:0.812575 5:0.87560809 6:0.74446129 7:0.86736209 8:0.51598145 9:0.65746186 10:0.78662836 11:0.73134419 12:0.77583908 13:0.6925966 14:0.77886431 15:0.82928045 16:0.81715399 17:0.80848273 18:0.31029737 19:0.30315523 20:0.17659028 21:0.16291858 22:0.52717196 23:0.57925331 24:0.51657323 25:0.48089742 26:0.46236515 27:0.58664759 28:0.16925288 29:0.31132509 30:0.35982346 31:0.3897741 32:0.20889631 33:0.26562747 34:0.51605003 35:0.60543524 36:0.67876124 37:0.32345263 
1.16527732839053 1:0.8954938 2:0.9102215 3:0.75363132 4:0.812575 5:0.87560809 6:0.74446129 7:0.86736209 8:0.65826191 9:0.76942332 10:0.85729818 11:0.77208166 12:0.84894266 13:0.85581369 14:0.917384 15:0.91008666 16:0.87235565 17:0.89549384 18:0.47563239 19:0.43684439 20:0.17659028 21:0.16291858 22:0.79820418 23:0.57925331 24:0.51657323 25:0.48089742 26:0.46236515 27:0.58664759 28:0.3285072 29:0.51908761 30:0.53164843 31:0.52264355 32:0.38174014 33:0.50248613 34:0.84125451 35:0.87843877 36:0.89788119 37:0.57616378 
-0.13869055189067542 1:0.64967468 2:0.65533226 3:0.11492082 4:0.13718361 5:0.20419816 6:0.20476325 7:0.20334341 8:0.11441405 9:0.099927818 10:0.17279431 11:0.25282309 12:0.20757664 13:0.83024969 14:0.61913424 15:0.56989811 16:0.66511687 17:0.64967467 18:0.39234599 19:0.3326742 20:0.021825733 21:0.022720386 22:0.58434069 23:0.17699172 24:0.18114931 25:0.17233016 26:0.16818477 27:0.18456264 28:0.13288358 29:0.18210858 30:0.19865221 31:0.20766235 32:0.14898479 33:0.42217691 34:0.56522423 35:0.62012966 36:0.67540501 37:0.46128844 
-4 1:0.86055076 2:0.87290948 3:0.11492082 4:0.13718361 5:0.20419816 6:0.20476325 7:0.20334341 8:0.15479855 9:0.18565808 10:0.2869908 11:0.3241866 12:0.29911639 13:0.89278842 14:0.84260992 15:0.86023891 16:0.84952034 17:0.8605508 18:0.56188499 19:0.46976267 20:0.021825733 21:0.022720386 22:0.83740941 23:0.17699172 24:0.18114931 25:0.17233016 26:0.16818477 27:0.18456264 28:0.22000916 29:0.29121135 30:0.29705456 31:0.28981149 32:0.24305214 33:0.66459842 34:0.84672477 35:0.8691812 36:0.88626733 37:0.71093561 
-4 1:0.89370032 2:0.91344001 3:0.11492082 4:0.13718361 5:0.20419816 6:0.20476325 7:0.20334341 8:0.17714945 9:0.21037551 10:0.30252726 11:0.3308831 12:0.31356144 13:0.92743101 14:0.90691431 15:0.89955948 16:0.86680311 17:0.89370036 18:0.64514975 19:0.53709019 20:0.021825733 21:0.022720386 22:0.88420281 23:0.17699172 24:0.18114931 25:0.17233016 26:0.16818477 27:0.18456264 28:0.24703334 29:0.31299364 30:0.30987353 31:0.2968246 32:0.26926747 33:0.73899857 34:0.90250769 35:0.90135216 36:0.90409387 37:0.77982962 
-4 1:0.82454411 2:0.84034217 3:0.11492082 4:0.13718361 5:0.20419816 6:0.20476325 7:0.20334341 8:0.15291681 9:0.1781197 10:0.27101813 11:0.30664211 12:0.28364535 13:0.88984069 14:0.82235218 15:0.8189987 16:0.80398323 17:0.82454416 18:0.44850051 19:0.37808049 20:0.021825733 21:0.022720386 22:0.66848274 23:0.17699172 24:0.18114931 25:0.17233016 26:0.16818477 27:0.18456264 28:0.17350915 29:0.21967091 30:0.2266937 31:0.22543204 32:0.18964597 33:0.53513989 34:0.66177935 35:0.69064504 36:0.72052446 37:0.5690496 
-4 1:0.90356867 2:0.92753474 3:0.11492082 4:0.13718361 5:0.20419816 6:0.20476325 7:0.20334341 8:0.18922417 9:0.22123736 10:0.30631774 11:0.33148183 12:0.31788478 13:0.94613493 14:0.935211 15:0.90912461 16:0.86827567 17:0.9035687 18:0.63870216 19:0.5318767 20:0.021825733 21:0.022720386 22:0.88793902 23:0.17699172 24:0.18114931 25:0.17233016 26:0.16818477 27:0.18456264 28:0.25127644 29:0.31322194 30:0.31019206 31:0.29752801 32:0.27276934 33:0.75040724 34:0.90291248 35:0.90203926 36:0.90580885 37:0.78878785 
4 1:0.45669912 2:0.49114769 3:0.11492082 4:0.13718361 5:0.20419816 6:0.20476325 7:0.20334341 8:0.10602082 9:0.074009258 10:0.096683677 11:0.14525515 12:0.12394852 13:0.81719124 14:0.55117985 15:0.37659267 16:0.3872918 17:0.45669919 18:0.27478705 19:0.23761657 20:0.021825733 21:0.022720386 22:0.38496413 23:0.17699172 24:0.18114931 25:0.17233016 26:0.16818477 27:0.18456264 28:0.10560637 29:0.11152038 30:0.10511979 31:0.093878242 32:0.10987006 33:0.34713133 34:0.38392695 35:0.38423123 36:0.38427177 37:0.35835992 
-4 1:0.82428784 2:0.83750844 3:0.11492082 4:0.13718361 5:0.20419816 6:0.20476325 7:0.20334341 8:0.15161734 9:0.17444775 10:0.26822618 11:0.30994864 12:0.28358515 13:0.88774335 14:0.81249088 15:0.81171481 16:0.81244958 17:0.82428782 18:0.4902443 19:0.41183434 20:0.021825733 21:0.022720386 22:0.78049039 23:0.17699172 24:0.18114931 25:0.17233016 26:0.16818477 27:0.18456264 28:0.20299825 29:0.26601621 30:0.27376097 31:0.27060816 32:0.22382591 33:0.61698604 34:0.78144136 35:0.80997863 36:0.83678297 37:0.65963441 
-4 1:0.85050869 2:0.87037711 3:0.11492082 4:0.13718361 5:0.20419816 6:0.20476325 7:0.20334341 8:0.16663918 9:0.19454317 10:0.28276368 11:0.31338122 12:0.29477597 13:0.91113288 14:0.86553997 15:0.8494882 16:0.82175071 17:0.85050869 18:0.50566349 19:0.42430222 20:0.021825733 21:0.022720386 22:0.75604868 23:0.17699172 24:0.18114931 25:0.17233016 26:0.16818477 27:0.18456264 28:0.20009453 29:0.25591748 30:0.26177771 31:0.25790644 32:0.21913498 33:0.60918879 34:0.75571475 35:0.77993329 36:0.80438731 37:0.64748061 
4 1:0.90342579 2:0.92737791 3:0.11492082 4:0.13718361 5:0.20419816 6:0.20476325 7:0.20334341 8:0.18952817 9:0.22090459 10:0.30618968 11:0.33141563 12:0.31776474 13:0.94663876 14:0.93456709 15:0.90899593 16:0.86821485 17:0.90342587 18:0.65835024 19:0.54776404 20:0.021825733 21:0.022720386 22:0.89679721 23:0.17699172 24:0.18114931 25:0.17233016 26:0.16818477 27:0.18456264 28:0.25562931 29:0.31677856 30:0.31281821 31:0.29959336 32:0.27703289 33:0.762826 34:0.91240428 35:0.90890999 36:0.91126576 37:0.80040881 
-4 1:0.90493901 2:0.91782407 3:0.11492082 4:0.13718361 5:0.20419816 6:0.20476325 7:0.20334341 8:0.16241041 9:0.20272075 10:0.30964419 11:0.34042402 12:0.3182904 13:0.90467652 14:0.8874503 15:0.91802625 16:0.89162979 17:0.90493901 18:0.33698061 19:0.287906 20:0.021825733 21:0.022720386 22:0.8341397 23:0.17699172 24:0.18114931 25:0.17233016 26:0.16818477 27:0.18456264 28:0.21629815 29:0.28767045 30:0.29609026 31:0.29302987 32:0.23943534 33:0.65480935 34:0.83807225 35:0.86707282 36:0.8947214 37:0.70185036 
-4 1:0.95276785 2:0.96667298 3:0.11492082 4:0.13718361 5:0.20419816 6:0.20476325 7:0.20334341 8:0.17902471 9:0.22421732 10:0.32735072 11:0.3604465 12:0.33908185 13:0.93044399 14:0.94360127 15:0.9629216 16:0.94323904 17:0.95276783 18:0.34683628 19:0.29587525 20:0.021825733 21:0.022720386 22:0.95618642 23:0.17699172 24:0.18114931 25:0.17233016 26:0.16818477 27:0.18456264 28:0.26400516 29:0.342855 30:0.34021865 31:0.32751005 32:0.2896615 33:0.78685549 34:0.97992112 35:0.97839472 36:0.98299504 37:0.83450554 
4 1:0.40834658 2:0.44995562 3:0.11492082 4:0.13718361 5:0.20419816 6:0.20476325 7:0.20334341 8:0.092400184 9:0.066555646 10:0.085376154 11:0.11561334 12:0.10335636 13:0.79586801 14:0.53108026 15:0.34688598 16:0.30959695 17:0.40834657 18:0.099446279 19:0.095836802 20:0.021825733 21:0.022720386 22:0.34958789 23:0.17699172 24:0.18114931 25:0.17233016 26:0.16818477 27:0.18456264 28:0.099499481 29:0.10078306 30:0.090292339 31:0.072645873 32:0.10226632 33:0.32979504 34:0.35568386 35:0.34606049 36:0.32903324 37:0.33777475 
-4 1:0.85092999 2:0.86706534 3:0.11492082 4:0.13718361 5:0.20419816 6:0.20476325 7:0.20334341 8:0.15652358 9:0.18940823 10:0.28296419 11:0.31689234 12:0.29500129 13:0.89537655 14:0.85238942 15:0.84981626 16:0.83058027 17:0.85093003 18:0.45074433 19:0.37989483 20:0.021825733 21:0.022720386 22:0.81750751 23:0.17699172 24:0.18114931 25:0.17233016 26:0.16818477 27:0.18456264 28:0.21664935 29:0.28326163 30:0.28739453 31:0.28046853 32:0.23848549 33:0.65528935 34:0.82635795 35:0.84482351 36:0.86234474 37:0.69888252 
-4 1:0.8880595 2:0.90877558 3:0.11492082 4:0.13718361 5:0.20419816 6:0.20476325 7:0.20334341 8:0.17856782 9:0.20983373 10:0.29873436 11:0.32807166 12:0.31090474 13:0.92975388 14:0.90631767 15:0.89066976 16:0.8599304 17:0.88805954 18:0.62539504 19:0.52111661 20:0.021825733 21:0.022720386 22:0.86990552 23:0.17699172 24:0.18114931 25:0.17233016 26:0.16818477 27:0.18456264 28:0.23818486 29:0.30576173 30:0.30586324 31:0.29489949 32:0.26067849 33:0.71564503 34:0.88484458 35:0.89186694 36:0.89959766 37:0.75821185 
-4 1:0.63976255 2:0.65561888 3:0.11492082 4:0.13718361 5:0.20419816 6:0.20476325 7:0.20334341 8:0.11134718 9:0.1101508 10:0.18339705 11:0.2338501 12:0.20345368 13:0.8253768 14:0.64518253 15:0.59654412 16:0.61585219 17:0.6397626 18:0.27760888 19:0.23989829 20:0.021825733 21:0.022720386 22:0.5495186 23:0.17699172 24:0.18114931 25:0.17233016 26:0.16818477 27:0.18456264 28:0.13859485 29:0.17174095 30:0.17806475 31:0.17786121 32:0.15070667 33:0.43854325 34:0.53868871 35:0.56809186 36:0.59890489 37:0.4662683 
-4 1:0.85606416 2:0.87296776 3:0.11492082 4:0.13718361 5:0.20419816 6:0.20476325 7:0.20334341 8:0.16135842 9:0.19254166 10:0.28427943 11:0.31864318 12:0.29718139 13:0.90295933 14:0.86064582 15:0.85329181 16:0.83521895 17:0.8560642 18:0.50538995 19:0.42408103 20:0.021825733 21:0.022720386 22:0.81814491 23:0.17699172 24:0.18114931 25:0.17233016 26:0.16818477 27:0.18456264 28:0.21110369 29:0.28131334 30:0.28987878 31:0.28709013 32:0.23382699 33:0.64011262 34:0.82155841 35:0.85128278 36:0.87945092 37:0.68675961 
-4 1:0.83397511 2:0.84465098 3:0.11492082 4:0.13718361 5:0.20419816 6:0.20476325 7:0.20334341 8:0.14285837 9:0.1717168 10:0.27760568 11:0.3139162 12:0.28759549 13:0.87436009 14:0.80641948 15:0.83616728 16:0.82288611 17:0.83397514 18:0.48109803 19:0.4044387 20:0.021825733 21:0.022720386 22:0.72367906 23:0.17699172 24:0.18114931 25:0.17233016 26:0.16818477 27:0.18456264 28:0.18932437 29:0.24302563 30:0.24927838 31:0.24623036 32:0.20757785 33:0.57913327 34:0.7220907 35:0.74793092 36:0.77407871 37:0.61664853 
4 1:0.90860708 2:0.93314684 3:0.11492082 4:0.13718361 5:0.20419816 6:0.20476325 7:0.20334341 8:0.19207727 9:0.22370947 10:0.30865155 11:0.33297015 12:0.32002739 13:0.95060582 14:0.94192968 15:0.91520827 16:0.87216962 17:0.90860707 18:0.66923839 19:0.55656815 20:0.021825733 21:0.022720386 22:0.90436342 23:0.17699172 24:0.18114931 25:0.17233016 26:0.16818477 27:0.18456264 28:0.25982645 29:0.32021708 30:0.31500437 31:0.30081035 32:0.28112316 33:0.77453062 34:0.92124504 35:0.91441199 36:0.9143714 37:0.81127694 
-4 1:0.82966162 2:0.84888445 3:0.11492082 4:0.13718361 5:0.20419816 6:0.20476325 7:0.20334341 8:0.16037193 9:0.18573595 10:0.27371272 11:0.30559402 12:0.28590368 13:0.90139178 14:0.84221979 15:0.82577164 16:0.8011999 17:0.82966163 18:0.46055348 19:0.38782647 20:0.021825733 21:0.022720386 22:0.68239956 23:0.17699172 24:0.18114931 25:0.17233016 26:0.16818477 27:0.18456264 28:0.17915784 29:0.22560795 30:0.23175814 31:0.22967366 32:0.19548691 33:0.55056137 34:0.67688551 35:0.70331816 36:0.73132943 37:0.58428123 
4 1:0.90078712 2:0.92462372 3:0.11492082 4:0.13718361 5:0.20419816 6:0.20476325 7:0.20334341 8:0.18815271 9:0.21995169 10:0.30507491 11:0.3304434 12:0.31665473 13:0.94448157 14:0.9319291 15:0.90603548 16:0.86564826 17:0.90078717 18:0.64341587 19:0.53568818 20:0.021825733 21:0.022720386 22:0.88353824 23:0.17699172 24:0.18114931 25:0.17233016 26:0.16818477 27:0.18456264 28:0.24949104 29:0.31120495 30:0.30858829 31:0.29633729 32:0.27090083 33:0.74552554 34:0.89777641 35:0.89802195 36:0.90278014 37:0.78390865 
-4 1:0.94358142 2:0.9750576 3:0.11492082 4:0.13718361 5:0.20419816 6:0.20476325 7:0.20334341 8:0.22385066 9:0.24580441 10:0.32317359 11:0.34159766 12:0.33515338 13:1 14:1 15:0.95230363 16:0.89456555 17:0.94358145 18:0.87013318 19:0.71901078 20:0.021825733 21:0.022720386 22:0.99999641 23:0.17699172 24:0.18114931 25:0.17233016 26:0.16818477 27:0.18456264 28:0.34125812 29:0.34698434 30:0.33154347 31:0.31214127 32:0.35252597 33:0.99999805 34:0.99028635 35:0.95631602 36:0.94350788 37:0.99999771 
4 1:0.59001257 2:0.59457508 3:0.11492082 4:0.13718361 5:0.20419816 6:0.20476325 7:0.20334341 8:0.051594911 9:0.079120384 10:0.16507275 11:0.22206938 12:0.18216071 13:0.73213665 14:0.56364534 15:0.54894592 16:0.58462974 17:0.59001259 18:0.31863229 19:0.27306963 20:0.021825733 21:0.022720386 22:0.44784037 23:0.17699172 24:0.18114931 25:0.17233016 26:0.16818477 27:0.18456264 28:0.10976132 29:0.13378201 30:0.13637679 31:0.13394598 32:0.11871298 33:0.35810255 34:0.44062071 35:0.46250685 36:0.48615678 37:0.38117368 
-4 1:0.86945603 2:0.88595226 3:0.11492082 4:0.13718361 5:0.20419816 6:0.20476325 7:0.20334341 8:0.16166495 9:0.19857585 10:0.28990824 11:0.32470473 12:0.30319393 13:0.90330213 14:0.87564616 15:0.86683521 16:0.85053692 17:0.86945605 18:0.56388242 19:0.47137778 20:0.021825733 21:0.022720386 22:0.83107723 23:0.17699172 24:0.18114931 25:0.17233016 26:0.16818477 27:0.18456264 28:0.21442714 29:0.28825453 30:0.2962936 31:0.2910726 32:0.23800415 33:0.64816083 34:0.83848147 35:0.86686118 36:0.8892894 37:0.69671822 
-4 1:0.87375566 2:0.89501091 3:0.11492082 4:0.13718361 5:0.20419816 6:0.20476325 7:0.20334341 8:0.17553801 9:0.20559757 10:0.29329695 11:0.32159975 12:0.30493241 13:0.9248914 14:0.89422448 15:0.87601577 16:0.84284674 17:0.87375568 18:0.56106272 19:0.46909779 20:0.021825733 21:0.022720386 22:0.81168277 23:0.17699172 24:0.18114931 25:0.17233016 26:0.16818477 27:0.18456264 28:0.22051194 29:0.27987843 30:0.28286269 31:0.2756805 32:0.2408105 33:0.66544091 34:0.81715117 35:0.83300127 36:0.8497823 37:0.70449855 
4 1:0.91147719 2:0.93615333 3:0.11492082 4:0.13718361 5:0.20419816 6:0.20476325 7:0.20334341 8:0.19341705 9:0.22498349 10:0.30976242 11:0.33405739 12:0.32125181 13:0.95268451 14:0.9452755 15:0.91810714 16:0.8750437 17:0.91147722 18:0.68624386 19:0.5703187 20:0.021825733 21:0.022720386 22:0.91405049 23:0.17699172 24:0.18114931 25:0.17233016 26:0.16818477 27:0.18456264 28:0.26459331 29:0.3243781 30:0.31803301 31:0.30311585 32:0.285844 33:0.7876085 34:0.93198376 35:0.92210591 36:0.92031879 37:0.82367145 
-4 1:0.86754154 2:0.88909747 3:0.11492082 4:0.13718361 5:0.20419816 6:0.20476325 7:0.20334341 8:0.1749729 9:0.20401168 10:0.29016425 11:0.31904778 12:0.3023053 13:0.92400809 14:0.88993789 15:0.86784113 16:0.83606214 17:0.86754159 18:0.54403896 19:0.45533246 20:0.021825733 21:0.022720386 22:0.79184681 23:0.17699172 24:0.18114931 25:0.17233016 26:0.16818477 27:0.18456264 28:0.21400085 29:0.27151597 30:0.27528904 31:0.26892847 32:0.23372985 33:0.64716002 34:0.79528438 35:0.81355165 36:0.83220412 37:0.68550958 
4 1:0.90997003 2:0.93436694 3:0.11492082 4:0.13718361 5:0.20419816 6:0.20476325 7:0.20334341 8:0.19239551 9:0.22405593 10:0.30907276 11:0.33372212 12:0.32062229 13:0.951087 14:0.94277515 15:0.91626429 16:0.87412872 17:0.90997006 18:0.67605911 19:0.56208336 20:0.021825733 21:0.022720386 22:0.90859463 23:0.17699172 24:0.18114931 25:0.17233016 26:0.16818477 27:0.18456264 28:0.2618722 29:0.32204493 30:0.31639318 31:0.30189571 32:0.28316095 33:0.77999785 34:0.92588963 35:0.91790031 36:0.91714695 37:0.81650271 
-4 1:0.29485788 2:0.28093695 3:0.4579164 4:0.56254205 5:0.62213493 6:0.47549392 7:0.58229271 8:0.075380278 9:0.08201829 10:0.16758356 11:0.29408031 12:0.2205273 13:0.41271042 14:0.17483281 15:0.21344672 16:0.41088017 17:0.29485789 18:0.14727864 19:0.14298873 20:0.45539375 21:0.53403198 22:0.17008493 23:0.70653109 24:0.58476172 25:0.50675079 26:0.45312368 27:0.70332902 28:0.021996676 29:0.074877801 30:0.114516 31:0.15688749 32:0.036867832 33:0.036883315 34:0.12941276 35:0.20541196 36:0.29927444 37:0.058988605 
4 1:0.75247011 2:0.72356157 3:0.4579164 4:0.56254205 5:0.62213493 6:0.47549392 7:0.58229271 8:0.19510152 9:0.3541351 10:0.55884071 11:0.52974875 12:0.52458265 13:0.56925008 14:0.59415587 15:0.77908524 16:0.83025423 17:0.75247014 18:0.3077575 19:0.27275122 20:0.45539375 21:0.53403198 22:0.61563483 23:0.70653109 24:0.58476172 25:0.50675079 26:0.45312368 27:0.70332902 28:0.15954414 29:0.41823576 30:0.47081708 31:0.46845068 32:0.22450451 33:0.21520084 34:0.62721302 35:0.75482613 36:0.81941514 37:0.30168418 
-4 1:0.83828345 2:0.83505546 3:0.4579164 4:0.56254205 5:0.62213493 6:0.47549392 7:0.58229271 8:0.30746505 9:0.48504817 10:0.61997078 11:0.54074905 12:0.58167748 13:0.7161413 14:0.79553909 15:0.86719026 16:0.84979589 17:0.83828348 18:0.40130542 19:0.34839365 20:0.45539375 21:0.53403198 22:0.694056 23:0.70653109 24:0.58476172 25:0.50675079 26:0.45312368 27:0.70332902 28:0.24135408 29:0.49280557 30:0.50789636 31:0.4877811 32:0.30523583 33:0.32123356 34:0.7349714 35:0.8116685 36:0.8514375 37:0.4060621 
4 1:0.71206802 2:0.69199493 3:0.4579164 4:0.56254205 5:0.62213493 6:0.47549392 7:0.58229271 8:0.20352554 9:0.35126254 10:0.52833576 11:0.49643454 12:0.49803277 13:0.58023022 14:0.58947734 15:0.7343209 16:0.77022135 17:0.71206801 18:0.25738992 19:0.23202422 20:0.45539375 21:0.53403198 22:0.4023342 23:0.70653109 24:0.58476172 25:0.50675079 26:0.45312368 27:0.70332902 28:0.097816352 29:0.24261599 30:0.29881169 31:0.32816054 32:0.13614983 33:0.13520471 34:0.37225055 35:0.4890993 36:0.58471285 37:0.18740413 
-4 1:0.86347879 2:0.8713125 3:0.4579164 4:0.56254205 5:0.62213493 6:0.47549392 7:0.58229271 8:0.36821501 9:0.52544242 10:0.6306614 11:0.54444157 12:0.59829845 13:0.79556106 14:0.85792398 15:0.88283516 16:0.85647665 17:0.86347881 18:0.43657447 19:0.37691205 20:0.45539375 21:0.53403198 22:0.74073068 23:0.70653109 24:0.58476172 25:0.50675079 26:0.45312368 27:0.70332902 28:0.30169263 29:0.52669425 30:0.52777585 31:0.50048391 32:0.36088136 33:0.39945722 34:0.78432053 35:0.84248644 36:0.87276293 37:0.47810228 
-4 1:0.43574331 2:0.40442331 3:0.4579164 4:0.56254205 5:0.62213493 6:0.47549392 7:0.58229271 8:0.05856044 9:0.1340654 10:0.30533635 11:0.37515743 12:0.31483136 13:0.39068748 14:0.2548039 15:0.41165102 16:0.55291087 17:0.43574332 18:0.16212528 19:0.15499366 20:0.45539375 21:0.53403198 22:0.20432911 23:0.70653109 24:0.58476172 25:0.50675079 26:0.45312368 27:0.70332902 28:0.039425003 29:0.10585407 30:0.14328577 31:0.17122821 32:0.057586371 33:0.059487168 34:0.17384006 35:0.2488833 36:0.32204106 37:0.085754146 
-0.83238202568012687 1:0.46957309 2:0.43908382 3:0.4579164 4:0.56254205 5:0.62213493 6:0.47549392 7:0.58229271 8:0.072817609 9:0.15777461 10:0.33899661 11:0.38788211 12:0.33755081 13:0.40931555 14:0.29127864 15:0.45981027 16:0.5748898 17:0.4695731 18:0.13012765 19:0.12912052 20:0.45539375 21:0.53403198 22:0.17320086 23:0.70653109 24:0.58476172 25:0.50675079 26:0.45312368 27:0.70332902 28:0.035477361 29:0.091752149 30:0.11930246 31:0.13509918 32:0.050633396 33:0.054370901 34:0.15338446 35:0.21184717 36:0.26159455 37:0.076761052 
4 1:0.69268814 2:0.67132982 3:0.4579164 4:0.56254205 5:0.62213493 6:0.47549392 7:0.58229271 8:0.19547747 9:0.33342819 10:0.50907755 11:0.48996583 12:0.48463067 13:0.56977258 14:0.562644 15:0.70755429 16:0.75937976 17:0.69268811 18:0.24629536 19:0.22305321 20:0.45539375 21:0.53403198 22:0.40902069 23:0.70653109 24:0.58476172 25:0.50675079 26:0.45312368 27:0.70332902 28:0.098892871 29:0.24495485 30:0.30360794 31:0.33653873 32:0.13770371 33:0.13653722 34:0.37571337 35:0.49663132 36:0.59885093 37:0.18935984 
4 1:0.86326252 2:0.8704557 3:0.4579164 4:0.56254205 5:0.62213493 6:0.47549392 7:0.58229271 8:0.36830872 9:0.52251546 10:0.62987059 11:0.54575713 12:0.59813766 13:0.79568944 14:0.85345002 15:0.88175351 16:0.85880869 17:0.86326252 18:0.43968326 19:0.3794258 20:0.45539375 21:0.53403198 22:0.75856061 23:0.70653109 24:0.58476172 25:0.50675079 26:0.45312368 27:0.70332902 28:0.32481882 29:0.53954312 30:0.53517378 31:0.50576195 32:0.38218032 33:0.42940794 34:0.80287247 35:0.85385713 36:0.88156239 37:0.50561244 
4 1:0.65539967 2:0.62092707 3:0.4579164 4:0.56254205 5:0.62213493 6:0.47549392 7:0.58229271 8:0.1320479 9:0.27460214 10:0.48972191 11:0.48466276 12:0.46070097 13:0.48672821 14:0.47117922 15:0.6779782 16:0.74859419 17:0.65539969 18:0.17626559 19:0.16642745 20:0.45539375 21:0.53403198 22:0.32699555 23:0.70653109 24:0.58476172 25:0.50675079 26:0.45312368 27:0.70332902 28:0.068687485 29:0.18433356 30:0.24034996 31:0.27916327 32:0.099732539 33:0.097448316 34:0.28768338 35:0.39877094 36:0.5026472 37:0.14030305 
-4 1:0.84375029 2:0.82410049 3:0.4579164 4:0.56254205 5:0.62213493 6:0.47549392 7:0.58229271 8:0.25052634 9:0.44691778 10:0.63362686 11:0.56132605 12:0.58572021 13:0.64161209 14:0.73637195 15:0.88655297 16:0.88550415 17:0.84375028 18:0.24615156 19:0.22293694 20:0.45539375 21:0.53403198 22:0.7134798 23:0.70653109 24:0.58476172 25:0.50675079 26:0.45312368 27:0.70332902 28:0.22176295 29:0.50639531 30:0.53037525 31:0.51737443 32:0.29287322 33:0.29588145 34:0.75456136 35:0.84621864 36:0.90079523 37:0.39008554 
-4 1:0.086943552 2:0.10086193 3:0.4579164 4:0.56254205 5:0.62213493 6:0.47549392 7:0.58229271 8:0.016639649 9:0.022534805 10:0.059817271 11:0.11604314 12:0.082296967 13:0.33589097 14:0.083241351 15:0.058311807 16:0.093325492 17:0.08694359 18:0.030483114 19:0.048548393 20:0.45539375 21:0.53403198 22:0.037063957 23:0.70653109 24:0.58476172 25:0.50675079 26:0.45312368 27:0.70332902 28:0.0049118364 29:0.0098761676 30:0.011624014 31:0.0076186443 32:0.0062150172 33:0.014752518 34:0.035004372 35:0.046326749 36:0.049352541 37:0.019350216 
-4 1:0.76635699 2:0.75305023 3:0.4579164 4:0.56254205 5:0.62213493 6:0.47549392 7:0.58229271 8:0.24362929 9:0.405829 10:0.57366336 11:0.51238036 12:0.53357975 13:0.6327437 14:0.67400843 15:0.80082417 16:0.79964837 17:0.76635699 18:0.30854086 19:0.27338464 20:0.45539375 21:0.53403198 22:0.60107661 23:0.70653109 24:0.58476172 25:0.50675079 26:0.45312368 27:0.70332902 28:0.18361884 29:0.41632762 30:0.44662265 31:0.43835005 32:0.2424069 33:0.24640218 34:0.62431659 35:0.71740954 36:0.76907071 37:0.32482422 
-4 1:0.71581867 2:0.69918821 3:0.4579164 4:0.56254205 5:0.62213493 6:0.47549392 7:0.58229271 8:0.2262293 9:0.3592909 10:0.52580847 11:0.49790066 12:0.50079678 13:0.60983661 14:0.60155962 15:0.73008415 16:0.77248464 17:0.71581867 18:0.26976179 19:0.24202806 20:0.45539375 21:0.53403198 22:0.46302923 23:0.70653109 24:0.58476172 25:0.50675079 26:0.45312368 27:0.70332902 28:0.1175293 29:0.29007422 30:0.34769532 31:0.36970912 32:0.162623 33:0.16084893 34:0.44073078 35:0.56392445 36:0.65344795 37:0.22171121 
4 1:0.52575139 2:0.49906492 3:0.4579164 4:0.56254205 5:0.62213493 6:0.47549392 7:0.58229271 8:0.10506296 9:0.20440924 10:0.38377815 11:0.40855646 12:0.37328145 13:0.45153329 14:0.3637683 15:0.52750108 16:0.61591293 17:0.52575143 18:0.15598148 19:0.15002581 20:0.45539375 21:0.53403198 22:0.3135166 23:0.70653109 24:0.58476172 25:0.50675079 26:0.45312368 27:0.70332902 28:0.065282838 29:0.18241802 30:0.23197087 31:0.2578344 32:0.096079302 33:0.092995919 34:0.28541131 35:0.38667711 36:0.46795706 37:0.13558032 
4 1:0.73303492 2:0.71836093 3:0.4579164 4:0.56254205 5:0.62213493 6:0.47549392 7:0.58229271 8:0.2319297 9:0.37919427 10:0.54138289 11:0.50132156 12:0.51173377 13:0.61740176 14:0.63273917 15:0.75363956 16:0.77923251 17:0.73303495 18:0.27209854 19:0.24391755 20:0.45539375 21:0.53403198 22:0.44622502 23:0.70653109 24:0.58476172 25:0.50675079 26:0.45312368 27:0.70332902 28:0.11744237 29:0.27761479 30:0.33143075 31:0.35505335 32:0.1596214 33:0.16063075 34:0.42300604 35:0.53944411 36:0.62966706 37:0.21774969 
4 1:0.86602687 2:0.8744084 3:0.4579164 4:0.56254205 5:0.62213493 6:0.47549392 7:0.58229271 8:0.37385352 9:0.52696013 10:0.632476 11:0.54556146 12:0.60007204 13:0.80290653 14:0.86015933 15:0.88535253 16:0.85833528 17:0.86602692 18:0.43959015 19:0.37935051 20:0.45539375 21:0.53403198 22:0.74723983 23:0.70653109 24:0.58476172 25:0.50675079 26:0.45312368 27:0.70332902 28:0.31409502 29:0.53102202 30:0.52913368 31:0.50084197 32:0.37173681 33:0.41553702 34:0.79050039 35:0.84449791 36:0.87329619 37:0.49212685 
4 1:0.68341335 2:0.66173341 3:0.4579164 4:0.56254205 5:0.62213493 6:0.47549392 7:0.58229271 8:0.18574679 9:0.32792465 10:0.50634038 11:0.48357523 12:0.47894938 13:0.5570036 14:0.55371281 15:0.70258697 16:0.74718112 17:0.6834134 18:0.24731475 19:0.22387749 20:0.45539375 21:0.53403198 22:0.37582126 23:0.70653109 24:0.58476172 25:0.50675079 26:0.45312368 27:0.70332902 28:0.089034756 29:0.22305802 30:0.27800124 31:0.3090049 32:0.12465784 33:0.12382552 34:0.3438887 35:0.45697929 36:0.55268329 37:0.17254754 
1.7806577979107518 1:0.85686191 2:0.8634633 3:0.4579164 4:0.56254205 5:0.62213493 6:0.47549392 7:0.58229271 8:0.35937488 9:0.51873971 10:0.62633875 11:0.54214489 12:0.59394284 13:0.78400052 14:0.8475456 15:0.8765346 16:0.85233412 17:0.85686195 18:0.43686134 19:0.37714401 20:0.45539375 21:0.53403198 22:0.74741485 23:0.70653109 24:0.58476172 25:0.50675079 26:0.45312368 27:0.70332902 28:0.31242703 29:0.53205289 30:0.5295997 31:0.50124209 32:0.37058129 33:0.41337405 34:0.79200697 35:0.84523907 36:0.87398817 37:0.49063101 
-4 1:0.94358142 2:0.9750576 3:0.4579164 4:0.56254205 5:0.62213493 6:0.47549392 7:0.58229271 8:0.52463255 9:0.61761406 10:0.67862721 11:0.56574437 12:0.65140402 13:1 14:1 15:0.95230363 16:0.89456555 17:0.94358145 18:0.63004218 19:0.53334917 20:0.45539375 21:0.53403198 22:0.99999843 23:0.70653109 24:0.58476172 25:0.50675079 26:0.45312368 27:0.70332902 28:0.76510534 29:0.66885614 30:0.60163342 31:0.54286925 32:0.76443708 33:0.99999956 34:0.99028795 35:0.95631799 36:0.94351071 37:0.99999931 
4 1:0.67652141 2:0.64615929 3:0.4579164 4:0.56254205 5:0.62213493 6:0.47549392 7:0.58229271 8:0.14161336 9:0.29466032 10:0.52981425 11:0.47660915 12:0.47430066 13:0.49925792 14:0.50212165 15:0.73663377 16:0.73564836 17:0.67652143 18:0.26989243 19:0.24213369 20:0.45539375 21:0.53403198 22:0.46411291 23:0.70653109 24:0.58476172 25:0.50675079 26:0.45312368 27:0.70332902 28:0.10686196 29:0.29669781 30:0.35176418 31:0.370016 32:0.1552597 33:0.14692941 34:0.4507498 35:0.57103281 36:0.65497189 37:0.21212872 
4 1:0.63701528 2:0.60360424 3:0.4579164 4:0.56254205 5:0.62213493 6:0.47549392 7:0.58229271 8:0.12282653 9:0.2648039 10:0.47901058 11:0.47045834 12:0.44774793 13:0.47473295 14:0.45680007 15:0.66415521 16:0.72441412 17:0.63701533 18:0.23730245 19:0.21578158 20:0.45539375 21:0.53403198 22:0.38327358 23:0.70653109 24:0.58476172 25:0.50675079 26:0.45312368 27:0.70332902 28:0.087594244 29:0.22819176 30:0.28466758 31:0.31661403 32:0.12471159 33:0.1219179 34:0.3515927 35:0.4676308 36:0.5657504 37:0.17260018 
4 1:0.69617231 2:0.67523754 3:0.4579164 4:0.56254205 5:0.62213493 6:0.47549392 7:0.58229271 8:0.19398093 9:0.33840503 10:0.51579116 11:0.48944964 12:0.48744276 13:0.56775558 14:0.56974862 15:0.71622395 16:0.75775494 17:0.69617234 18:0.25747857 19:0.23209591 20:0.45539375 21:0.53403198 22:0.39545259 23:0.70653109 24:0.58476172 25:0.50675079 26:0.45312368 27:0.70332902 28:0.095517441 29:0.23741471 30:0.29346654 31:0.32329287 32:0.13313337 33:0.13223294 34:0.36468776 35:0.48082919 36:0.57655829 37:0.18350942 
4 1:0.84899945 2:0.85307898 3:0.4579164 4:0.56254205 5:0.62213493 6:0.47549392 7:0.58229271 8:0.34709512 9:0.50679555 10:0.62160837 11:0.54074679 12:0.58869734 13:0.76794532 14:0.82918353 15:0.86974386 16:0.84986651 17:0.84899947 18:0.41929745 19:0.36294193 20:0.45539375 21:0.53403198 22:0.725303 23:0.70653109 24:0.58476172 25:0.50675079 26:0.45312368 27:0.70332902 28:0.28869796 29:0.5132756 30:0.5187539 31:0.49488565 32:0.34763636 33:0.38260368 34:0.76476825 35:0.82850364 36:0.86336643 37:0.46093581 
0.69803346146814538 1:0.55291612 2:0.53320101 3:0.45516875 4:0.41422255 5:0.39971304 6:0.34372983 7:0.41339228 8:0.21151266 9:0.16263633 10:0.23920563 11:0.33560098 12:0.28801342 13:0.59753485 14:0.4245074 15:0.48861643 16:0.64086926 17:0.55291614 18:0.33517489 19:0.31916317 20:0.03047207 21:0.024775097 22:0.55463109 23:0.26535752 24:0.28925487 25:0.30905711 26:0.3477806 27:0.28284699 28:0.11293719 29:0.22253193 30:0.27513706 31:0.31965939 32:0.14395572 33:0.31365076 34:0.54773603 35:0.62688689 36:0.68297147 37:0.37643199 
4 1:0.85631301 2:0.85605464 3:0.45516875 4:0.41422255 5:0.39971304 6:0.34372983 7:0.41339228 8:0.33537314 9:0.37980383 10:0.45421926 11:0.44404541 12:0.46098736 13:0.75781033 14:0.8079757 15:0.88607322 16:0.86723863 17:0.85631305 18:0.5446907 19:0.48905225 20:0.03047207 21:0.024775097 22:0.85431112 23:0.26535752 24:0.28925487 25:0.30905711 26:0.3477806 27:0.28284699 28:0.25444746 29:0.38290224 30:0.41396819 31:0.44025926 32:0.29289323 33:0.63817469 34:0.88450573 35:0.9009091 36:0.91066861 37:0.70024635 
4 1:0.90063094 2:0.91804333 3:0.45516875 4:0.41422255 5:0.39971304 6:0.34372983 7:0.41339228 8:0.43205868 9:0.44385169 10:0.47105717 11:0.44907198 12:0.48691622 13:0.88270329 14:0.92002383 15:0.91578339 16:0.87618717 17:0.90063096 18:0.60047153 19:0.53368084 20:0.03047207 21:0.024775097 22:0.85044098 23:0.26535752 24:0.28925487 25:0.30905711 26:0.3477806 27:0.28284699 28:0.26336254 29:0.37988718 30:0.40719663 31:0.43242747 32:0.29925631 33:0.65794706 34:0.87758508 35:0.88705989 36:0.89541355 37:0.7134322 
4 1:0.81708842 2:0.82188131 3:0.45516875 4:0.41422255 5:0.39971304 6:0.34372983 7:0.41339228 8:0.34657821 9:0.3690572 10:0.42614986 11:0.42065227 12:0.43881057 13:0.77244005 14:0.78932567 15:0.83382136 16:0.8174513 17:0.81708842 18:0.41929511 19:0.38765794 20:0.03047207 21:0.024775097 22:0.62775076 23:0.26535752 24:0.28925487 25:0.30905711 26:0.3477806 27:0.28284699 28:0.1805467 29:0.26101049 30:0.29233542 31:0.32246506 32:0.20606473 33:0.46923119 34:0.62969115 35:0.6621623 36:0.6896564 37:0.51214374 
4 1:0.90570334 2:0.92725712 3:0.45516875 4:0.41422255 5:0.39971304 6:0.34372983 7:0.41339228 8:0.45625722 9:0.45312877 10:0.47103386 11:0.44790337 12:0.48952886 13:0.91416408 14:0.93725102 15:0.91667051 16:0.87404411 17:0.90570333 18:0.59405147 19:0.52848961 20:0.03047207 21:0.024775097 22:0.85275685 23:0.26535752 24:0.28925487 25:0.30905711 26:0.3477806 27:0.28284699 28:0.26462374 29:0.37886095 30:0.40806836 31:0.4349124 32:0.30016757 33:0.66144134 34:0.87596974 35:0.88919243 36:0.90047429 37:0.71599242 
4 1:0.41033501 2:0.41232295 3:0.45516875 4:0.41422255 5:0.39971304 6:0.34372983 7:0.41339228 8:0.20136227 9:0.14107996 10:0.16427665 11:0.23185952 12:0.20738922 13:0.58449988 14:0.38675418 15:0.34993805 16:0.42284919 17:0.41033504 18:0.22065886 19:0.22704156 20:0.03047207 21:0.024775097 22:0.39703802 23:0.26535752 24:0.28925487 25:0.30905711 26:0.3477806 27:0.28284699 28:0.12172429 29:0.15714289 30:0.16655889 31:0.1712158 32:0.13400403 33:0.33132203 34:0.40763695 35:0.40961813 36:0.39900035 37:0.35218691 
-4 1:0.84259949 2:0.85509169 3:0.45516875 4:0.41422255 5:0.39971304 6:0.34372983 7:0.41339228 8:0.39701766 9:0.40198818 10:0.43940026 11:0.42784237 12:0.45597322 13:0.83685827 14:0.84368631 15:0.85268566 16:0.82561168 17:0.84259952 18:0.45143755 19:0.41364817 20:0.03047207 21:0.024775097 22:0.73511845 23:0.26535752 24:0.28925487 25:0.30905711 26:0.3477806 27:0.28284699 28:0.21601166 29:0.31971433 30:0.3543738 31:0.38615219 32:0.24799421 33:0.54580812 34:0.74618537 35:0.776979 36:0.8008137 37:0.59800777 
-4 1:0.82428273 2:0.82978574 3:0.45516875 4:0.41422255 5:0.39971304 6:0.34372983 7:0.41339228 8:0.35975457 9:0.37464532 10:0.42931988 11:0.42512808 12:0.44390885 13:0.78904531 14:0.79776286 15:0.83780182 16:0.82343565 17:0.82428273 18:0.44348488 19:0.40718947 20:0.03047207 21:0.024775097 22:0.68757586 23:0.26535752 24:0.28925487 25:0.30905711 26:0.3477806 27:0.28284699 28:0.19820244 29:0.2906054 30:0.32622077 31:0.36081621 32:0.22719391 33:0.50843195 34:0.68992854 35:0.72684254 36:0.75942111 37:0.55662091 
-4 1:0.90227969 2:0.92257203 3:0.45516875 4:0.41422255 5:0.39971304 6:0.34372983 7:0.41339228 8:0.45168981 9:0.44746535 10:0.46918832 11:0.44776931 12:0.48750828 13:0.9081987 14:0.92719129 15:0.91329695 16:0.8742363 17:0.90227972 18:0.61786823 19:0.54822328 20:0.03047207 21:0.024775097 22:0.88800659 23:0.26535752 24:0.28925487 25:0.30905711 26:0.3477806 27:0.28284699 28:0.28396477 29:0.39937403 30:0.42337404 31:0.44595188 32:0.32007818 33:0.70510102 34:0.91838576 35:0.91895489 36:0.92103188 37:0.75861008 
-4 1:0.8715833 2:0.86617174 3:0.45516875 4:0.41422255 5:0.39971304 6:0.34372983 7:0.41339228 8:0.3289256 9:0.37799762 10:0.46532959 11:0.45819186 12:0.47090946 13:0.74927902 14:0.80417376 15:0.90389216 16:0.89025787 17:0.87158331 18:0.21241252 19:0.22037361 20:0.03047207 21:0.024775097 22:0.84453567 23:0.26535752 24:0.28925487 25:0.30905711 26:0.3477806 27:0.28284699 28:0.24099444 29:0.37136599 30:0.4142497 31:0.45161395 32:0.28015405 33:0.60672921 34:0.85964586 35:0.90064127 36:0.93098096 37:0.67193135 
4 1:0.92856531 2:0.92434646 3:0.45516875 4:0.41422255 5:0.39971304 6:0.34372983 7:0.41339228 8:0.35510075 9:0.41471941 10:0.49575698 11:0.48645645 12:0.50342078 13:0.78325988 14:0.8690892 15:0.96020076 16:0.94874032 17:0.92856536 18:0.2195682 19:0.22615965 20:0.03047207 21:0.024775097 22:0.95291418 23:0.26535752 24:0.28925487 25:0.30905711 26:0.3477806 27:0.28284699 28:0.29000855 29:0.43867769 30:0.46491161 31:0.48835426 32:0.33378631 33:0.71831532 34:1 35:1 36:1 37:0.78770529 
4 1:0.38181416 2:0.38216577 3:0.45516875 4:0.41422255 5:0.39971304 6:0.34372983 7:0.41339228 8:0.17398865 9:0.12662875 10:0.15446516 11:0.21628819 12:0.19209642 13:0.54858815 14:0.35966468 15:0.32939271 16:0.38672489 17:0.38181421 18:0.065322525 19:0.10096175 20:0.03047207 21:0.024775097 22:0.28182565 23:0.26535752 24:0.28925487 25:0.30905711 26:0.3477806 27:0.28284699 28:0.084511504 29:0.10294494 30:0.1035451 31:0.099440182 32:0.091295077 33:0.24736698 34:0.29593271 35:0.28774744 36:0.26645808 37:0.26091012 
-4 1:0.80804711 2:0.80293118 3:0.45516875 4:0.41422255 5:0.39971304 6:0.34372983 7:0.41339228 8:0.3058609 9:0.34416019 10:0.42857588 11:0.42681199 12:0.43550825 13:0.71894994 14:0.74160195 15:0.83305209 16:0.82621206 17:0.80804715 18:0.41450764 19:0.3839928 20:0.03047207 21:0.024775097 22:0.77920309 23:0.26535752 24:0.28925487 25:0.30905711 26:0.3477806 27:0.28284699 28:0.2248758 29:0.34237873 30:0.37783445 31:0.40770681 32:0.26021309 33:0.56866363 34:0.79765369 35:0.82807629 36:0.8477833 37:0.62749497 
-2.1637134502466315 1:0.9007571 2:0.92019302 3:0.45516875 4:0.41422255 5:0.39971304 6:0.34372983 7:0.41339228 8:0.44702765 9:0.4460029 10:0.46900278 11:0.44808658 12:0.48704957 13:0.90198778 14:0.92359608 15:0.91190701 16:0.87425227 17:0.9007571 18:0.61361918 19:0.54478752 20:0.03047207 21:0.024775097 22:0.87437097 23:0.26535752 24:0.28925487 25:0.30905711 26:0.3477806 27:0.28284699 28:0.27423341 29:0.39305665 30:0.41909826 31:0.44301227 32:0.31090621 33:0.68174154 34:0.90435394 35:0.90994634 36:0.91495103 37:0.73770312 
-4 1:0.55162842 2:0.53101969 3:0.45516875 4:0.41422255 5:0.39971304 6:0.34372983 7:0.41339228 8:0.18802961 9:0.16885505 10:0.25994361 11:0.33108064 12:0.29239655 13:0.56622662 14:0.43171426 15:0.51673089 16:0.6129064 17:0.55162846 18:0.22717583 19:0.2328075 20:0.03047207 21:0.024775097 22:0.5725465 23:0.26535752 24:0.28925487 25:0.30905711 26:0.3477806 27:0.28284699 28:0.16581628 29:0.23650872 30:0.26577232 31:0.2938229 32:0.18857362 33:0.43123313 34:0.57252498 35:0.603324 36:0.62799779 37:0.46947715 
-4 1:0.77032137 2:0.7602713 3:0.45516875 4:0.41422255 5:0.39971304 6:0.34372983 7:0.41339228 8:0.28141853 9:0.31244586 10:0.40488064 11:0.41626737 12:0.41502243 13:0.6867683 14:0.68370885 15:0.78629301 16:0.80252654 17:0.77032139 18:0.36196981 19:0.34130496 20:0.03047207 21:0.024775097 22:0.78642881 23:0.26535752 24:0.28925487 25:0.30905711 26:0.3477806 27:0.28284699 28:0.22809387 29:0.34544245 30:0.38149744 31:0.41296571 32:0.26354828 33:0.57525214 34:0.80321598 35:0.83462529 36:0.85730889 37:0.63394793 
4 1:0.86866423 2:0.88290114 3:0.45516875 4:0.41422255 5:0.39971304 6:0.34372983 7:0.41339228 8:0.41037337 9:0.41695504 10:0.45222112 11:0.43710572 12:0.46840665 13:0.85486746 14:0.8733381 15:0.88175585 16:0.85159973 17:0.86866427 18:0.50149081 19:0.45364548 20:0.03047207 21:0.024775097 22:0.73704284 23:0.26535752 24:0.28925487 25:0.30905711 26:0.3477806 27:0.28284699 28:0.21611428 29:0.31602983 30:0.35080531 31:0.38370543 32:0.24728139 33:0.55083506 34:0.74487363 35:0.77698544 36:0.8045423 37:0.60169222 
4 1:0.91155247 2:0.93410463 3:0.45516875 4:0.41422255 5:0.39971304 6:0.34372983 7:0.41339228 8:0.46443045 9:0.45742069 10:0.47423083 11:0.44987656 12:0.49285652 13:0.92473257 14:0.94473156 15:0.92256117 16:0.87843412 17:0.91155256 18:0.63001579 19:0.5575702 20:0.03047207 21:0.024775097 22:0.88716406 23:0.26535752 24:0.28925487 25:0.30905711 26:0.3477806 27:0.28284699 28:0.28497186 29:0.39826672 30:0.42224094 31:0.44504893 32:0.32065183 33:0.70762533 34:0.91625259 35:0.91682044 36:0.91935457 37:0.76005894 
4 1:0.86153644 2:0.87532109 3:0.45516875 4:0.41422255 5:0.39971304 6:0.34372983 7:0.41339228 8:0.40302958 9:0.4129656 10:0.44915013 11:0.43334768 12:0.46434529 13:0.8454175 14:0.86644398 15:0.87603249 16:0.84342275 17:0.86153647 18:0.48169284 19:0.43763692 20:0.03047207 21:0.024775097 22:0.71067659 23:0.26535752 24:0.28925487 25:0.30905711 26:0.3477806 27:0.28284699 28:0.2069642 29:0.30253057 30:0.33682405 31:0.36956397 32:0.23684932 33:0.52992756 34:0.71673243 35:0.74965106 36:0.77812147 37:0.57912025 
-4 1:0.90846102 2:0.93024821 3:0.45516875 4:0.41422255 5:0.39971304 6:0.34372983 7:0.41339228 8:0.45901926 9:0.45446743 10:0.47219018 11:0.44912647 12:0.49093203 13:0.91778068 14:0.93986323 15:0.919182 16:0.87715679 17:0.90846105 18:0.62678657 19:0.55495906 20:0.03047207 21:0.024775097 22:0.88430712 23:0.26535752 24:0.28925487 25:0.30905711 26:0.3477806 27:0.28284699 28:0.28243933 29:0.397353 30:0.42135652 31:0.44411236 32:0.31839615 33:0.70190911 34:0.91438158 35:0.91512834 36:0.91765003 37:0.75523617 
-4 1:0.94358142 2:0.9750576 3:0.45516875 4:0.41422255 5:0.39971304 6:0.34372983 7:0.41339228 8:0.52222306 9:0.48796665 10:0.48945824 11:0.4566526 12:0.51044883 13:1 14:1 15:0.95230363 16:0.89456555 17:0.94358145 18:0.75085522 19:0.66020397 20:0.03047207 21:0.024775097 22:0.99999704 23:0.26535752 24:0.28925487 25:0.30905711 26:0.3477806 27:0.28284699 28:0.41198666 29:0.43319567 30:0.44196889 31:0.45756854 32:0.43056562 33:0.9999981 34:0.99028587 35:0.95631657 36:0.94351033 37:0.99999757 
4 1:0.5389837 2:0.49825558 3:0.45516875 4:0.41422255 5:0.39971304 6:0.34372983 7:0.41339228 8:0.082578323 9:0.12737458 10:0.25417963 11:0.34530078 12:0.28338954 13:0.42996027 14:0.35997014 15:0.50917783 16:0.64771527 17:0.53898372 18:0.28553112 19:0.27902144 20:0.03047207 21:0.024775097 22:0.47524903 23:0.26535752 24:0.28925487 25:0.30905711 26:0.3477806 27:0.28284699 28:0.12979477 29:0.18947381 30:0.21395011 31:0.23739833 32:0.14866406 33:0.35023198 34:0.47626808 35:0.50402804 36:0.52511922 37:0.38456417 
4 1:0.75275277 2:0.73318559 3:0.45516875 4:0.41422255 5:0.39971304 6:0.34372983 7:0.41339228 8:0.21393446 9:0.27533678 10:0.41140691 11:0.40892275 12:0.40249064 13:0.60023917 14:0.62271281 15:0.80489386 16:0.79242048 17:0.7527528 18:0.4243229 19:0.39180204 20:0.03047207 21:0.024775097 22:0.69929587 23:0.26535752 24:0.28925487 25:0.30905711 26:0.3477806 27:0.28284699 28:0.18800941 29:0.29749062 30:0.33802642 31:0.37672354 32:0.22074024 33:0.48526979 34:0.7051007 35:0.75106978 36:0.79064845 37:0.54294735 
-4 1:0.85881923 2:0.864734 3:0.45516875 4:0.41422255 5:0.39971304 6:0.34372983 7:0.41339228 8:0.35020096 9:0.40162253 10:0.45349145 11:0.43787768 12:0.46272426 13:0.77702163 14:0.84635187 15:0.88420477 16:0.85312333 17:0.85881922 18:0.53448719 19:0.48080174 20:0.03047207 21:0.024775097 22:0.81440168 23:0.26535752 24:0.28925487 25:0.30905711 26:0.3477806 27:0.28284699 28:0.23964941 29:0.35819863 30:0.39371125 31:0.42509361 32:0.27571263 33:0.60416174 34:0.83247415 35:0.86072525 36:0.8817588 37:0.66279097 
-4 1:0.90907045 2:0.93079992 3:0.45516875 4:0.41422255 5:0.39971304 6:0.34372983 7:0.41339228 8:0.45963576 9:0.45443938 10:0.47276901 11:0.44952232 12:0.49134945 13:0.91854443 14:0.93962326 15:0.9200663 16:0.87789353 17:0.90907048 18:0.63664453 19:0.56340571 20:0.03047207 21:0.024775097 22:0.89934295 23:0.26535752 24:0.28925487 25:0.30905711 26:0.3477806 27:0.28284699 28:0.29223303 29:0.40560674 30:0.42700048 31:0.44813736 32:0.32801411 33:0.72410986 34:0.93155865 35:0.9261949 36:0.92522409 37:0.77591841 
4 1:0.87168326 2:0.88633081 3:0.45516875 4:0.41422255 5:0.39971304 6:0.34372983 7:0.41339228 8:0.41210646 9:0.420074 10:0.45340435 11:0.43816353 12:0.47001411 13:0.85714053 14:0.87907758 15:0.88426183 16:0.8540163 17:0.87168328 18:0.5054543 19:0.45685034 20:0.03047207 21:0.024775097 22:0.73603428 23:0.26535752 24:0.28925487 25:0.30905711 26:0.3477806 27:0.28284699 28:0.21533662 29:0.31575647 30:0.35036688 31:0.38312658 32:0.24658006 33:0.54918932 34:0.74440345 35:0.77620817 36:0.80353104 37:0.60029674 
4 1:0.90618804 2:0.92761632 3:0.45516875 4:0.41422255 5:0.39971304 6:0.34372983 7:0.41339228 8:0.45635176 9:0.45234568 10:0.47111189 11:0.44831363 12:0.48961413 13:0.91436212 14:0.93606664 15:0.91711289 16:0.87577399 17:0.90618806 18:0.62302834 19:0.55192018 20:0.03047207 21:0.024775097 22:0.88617882 23:0.26535752 24:0.28925487 25:0.30905711 26:0.3477806 27:0.28284699 28:0.28194317 29:0.39823072 30:0.42287141 31:0.44574026 32:0.31822143 33:0.70098287 34:0.9163993 35:0.91825918 36:0.92085295 37:0.7550573 
4 1:0.50391395 2:0.44924822 3:0.91282426 4:0.74103165 5:0.66780547 6:0.54530849 7:0.69570595 8:0.24261113 9:0.21898796 10:0.37292047 11:0.49507893 12:0.42338369 13:0.26661506 14:0.27210943 15:0.47694908 16:0.68319054 17:0.503914 18:0.16995724 19:0.17272429 20:0.22775343 21:0.21404127 22:0.33195221 23:0.816821 24:0.68601444 25:0.62501877 26:0.59326018 27:0.81718936 28:0.067738089 29:0.20562559 30:0.29227818 31:0.36970753 32:0.10564486 33:0.083709243 34:0.2802745 35:0.40818281 36:0.53527363 37:0.12909969 
4 1:0.7322348 2:0.69060969 3:0.91282426 4:0.74103165 5:0.66780547 6:0.54530849 7:0.69570595 8:0.34748536 9:0.44630093 10:0.60032645 11:0.58277627 12:0.59098824 13:0.37962222 14:0.57036496 15:0.79064484 16:0.82743811 17:0.73223477 18:0.28899414 19:0.268977 20:0.22775343 21:0.21404127 22:0.6173468 23:0.816821 24:0.68601444 25:0.62501877 26:0.59326018 27:0.81718936 28:0.1719142 29:0.47927541 30:0.55001754 31:0.57255151 32:0.24921672 33:0.20520278 34:0.63739531 35:0.75707357 36:0.82413784 37:0.29596883 
-4 1:0.8328701 2:0.83027433 3:0.91282426 4:0.74103165 5:0.66780547 6:0.54530849 7:0.69570595 8:0.6216922 9:0.63068026 10:0.65044227 11:0.5950095 12:0.66482241 13:0.67491632 14:0.81238759 15:0.85979901 16:0.84757614 17:0.83287014 18:0.37808633 19:0.34101655 20:0.22775343 21:0.21404127 22:0.69408633 23:0.816821 24:0.68601444 25:0.62501877 26:0.59326018 27:0.81718936 28:0.2798474 29:0.55512477 30:0.58545809 31:0.58804731 32:0.35125348 33:0.33111687 34:0.73646631 35:0.8050977 36:0.84623245 37:0.41461967 
4 1:0.72802131 2:0.70673851 3:0.91282426 4:0.74103165 5:0.66780547 6:0.54530849 7:0.69570595 8:0.45977274 9:0.50311868 10:0.57695084 11:0.55669229 12:0.58785737 13:0.50051603 14:0.6450327 15:0.75842073 16:0.78452669 17:0.72802133 18:0.25565464 19:0.24201883 20:0.22775343 21:0.21404127 22:0.45848088 23:0.816821 24:0.68601444 25:0.62501877 26:0.59326018 27:0.81718936 28:0.13236826 29:0.32683515 30:0.40018734 31:0.44985181 32:0.18387987 33:0.1591009 34:0.43844691 35:0.55423029 36:0.64939107 37:0.22005081 
4 1:0.87876647 2:0.89168075 3:0.91282426 4:0.74103165 5:0.66780547 6:0.54530849 7:0.69570595 8:0.75677158 9:0.69311265 10:0.67618004 11:0.60575538 12:0.6984785 13:0.82040037 14:0.89435877 15:0.8953467 16:0.8652808 17:0.87876649 18:0.44067318 19:0.39162399 20:0.22775343 21:0.21404127 22:0.77171408 23:0.816821 24:0.68601444 25:0.62501877 26:0.59326018 27:0.81718936 28:0.37500728 29:0.62102922 30:0.62997795 31:0.61778956 32:0.44176409 33:0.44214777 34:0.82252482 35:0.86540289 36:0.88861566 37:0.51988143 
4 1:0.47172454 2:0.41881259 3:0.91282426 4:0.74103165 5:0.66780547 6:0.54530849 7:0.69570595 8:0.22264895 9:0.20099286 10:0.35632301 11:0.46790156 12:0.39988885 13:0.24514499 14:0.24835973 15:0.45387348 16:0.63820965 17:0.47172459 18:0.17559644 19:0.17728412 20:0.22775343 21:0.21404127 22:0.2973836 23:0.816821 24:0.68601444 25:0.62501877 26:0.59326018 27:0.81718936 28:0.068976188 29:0.18770038 30:0.25785301 31:0.32243101 32:0.10170668 33:0.085136319 34:0.25658838 35:0.36120689 36:0.46759492 37:0.12447756 
-4 1:0.81604225 2:0.8130778 3:0.91282426 4:0.74103165 5:0.66780547 6:0.54530849 7:0.69570595 8:0.6149816 9:0.61427261 10:0.63740935 11:0.58584017 12:0.65248619 13:0.66770788 14:0.7908131 15:0.84181085 16:0.83245648 17:0.81604228 18:0.33178352 19:0.3035763 20:0.22775343 21:0.21404127 22:0.63033554 23:0.816821 24:0.68601444 25:0.62501877 26:0.59326018 27:0.81718936 28:0.22885478 29:0.49401109 30:0.54073728 31:0.55467688 32:0.29734475 33:0.2716031 34:0.65655483 35:0.7444398 36:0.79862308 37:0.35189961 
4 1:0.72181317 2:0.69884572 3:0.91282426 4:0.74103165 5:0.66780547 6:0.54530849 7:0.69570595 8:0.44768466 9:0.49404782 10:0.57201089 11:0.55572781 12:0.58331421 13:0.48757772 14:0.63311663 15:0.75162542 16:0.78291136 17:0.72181316 18:0.25241559 19:0.23939975 20:0.22775343 21:0.21404127 22:0.46546265 23:0.816821 24:0.68601444 25:0.62501877 26:0.59326018 27:0.81718936 28:0.13227106 29:0.33294017 30:0.4074902 31:0.45682535 32:0.18520761 33:0.15898676 34:0.44635662 35:0.56406052 36:0.65927816 37:0.22158756 
4 1:0.86286022 2:0.87061275 3:0.91282426 4:0.74103165 5:0.66780547 6:0.54530849 7:0.69570595 8:0.71511037 9:0.66979422 10:0.66675418 11:0.60238647 12:0.68680966 13:0.77555314 14:0.86374691 15:0.88233541 16:0.85973329 17:0.86286022 18:0.41940866 19:0.37442959 20:0.22775343 21:0.21404127 22:0.753739 23:0.816821 24:0.68601444 25:0.62501877 26:0.59326018 27:0.81718936 28:0.35212372 29:0.60385066 30:0.62038598 31:0.6128564 32:0.41984225 33:0.41542439 34:0.80004511 35:0.85237591 36:0.88156282 37:0.4943575 
4 1:0.65816895 2:0.6078351 3:0.91282426 4:0.74103165 5:0.66780547 6:0.54530849 7:0.69570595 8:0.29154964 9:0.35146636 10:0.5400075 11:0.55629131 12:0.53671031 13:0.31934375 14:0.44577785 15:0.70727907 16:0.78373625 17:0.65816898 18:0.16014727 19:0.164792 20:0.22775343 21:0.21404127 22:0.38438651 23:0.816821 24:0.68601444 25:0.62501877 26:0.59326018 27:0.81718936 28:0.091316412 29:0.25760737 30:0.33819255 31:0.40363372 32:0.13581881 33:0.11118222 34:0.34780016 35:0.46996175 36:0.58324976 37:0.16411439 
4 1:0.82897004 2:0.79442808 3:0.91282426 4:0.74103165 5:0.66780547 6:0.54530849 7:0.69570595 8:0.41903448 9:0.54906606 10:0.67500093 11:0.62852309 12:0.66194237 13:0.45669877 14:0.70530026 15:0.89371335 16:0.90279099 17:0.82897008 18:0.2238514 19:0.21630287 20:0.22775343 21:0.21404127 22:0.71027612 23:0.816821 24:0.68601444 25:0.62501877 26:0.59326018 27:0.81718936 28:0.22159554 29:0.57673801 30:0.62060247 31:0.62979934 32:0.30952802 33:0.2631563 34:0.76466275 35:0.85269828 36:0.90573696 37:0.3660882 
4 1:0.24130938 2:0.22213738 3:0.91282426 4:0.74103165 5:0.66780547 6:0.54530849 7:0.69570595 8:0.20693209 9:0.15188554 10:0.18152125 11:0.26292276 12:0.23079762 13:0.22823101 14:0.18392421 15:0.21273653 16:0.30071641 17:0.2413094 18:0.048026592 19:0.074131717 20:0.22775343 21:0.21404127 22:0.10251133 23:0.816821 24:0.68601444 25:0.62501877 26:0.59326018 27:0.81718936 28:0.033945592 29:0.064794873 30:0.080187957 31:0.093446373 32:0.042784051 33:0.044283014 34:0.096139659 35:0.12057993 36:0.1412917 37:0.055988614 
-4 1:0.778426 2:0.75782244 3:0.91282426 4:0.74103165 5:0.66780547 6:0.54530849 7:0.69570595 8:0.4768196 9:0.54587601 10:0.62477001 11:0.58127075 12:0.624879 13:0.5189405 14:0.70106722 15:0.82437457 16:0.82495597 17:0.77842605 18:0.30194019 19:0.27944511 20:0.22775343 21:0.21404127 22:0.61955415 23:0.816821 24:0.68601444 25:0.62501877 26:0.59326018 27:0.81718936 28:0.19378951 29:0.49127195 30:0.54173081 31:0.55645227 32:0.26848882 33:0.23071618 34:0.65302438 35:0.74581797 36:0.8011717 37:0.31836858 
-4 1:0.71063271 2:0.68550403 3:0.91282426 4:0.74103165 5:0.66780547 6:0.54530849 7:0.69570595 8:0.435809 9:0.47694813 10:0.56337511 11:0.55308005 12:0.57521009 13:0.47469234 14:0.61044792 15:0.73957303 16:0.77842435 17:0.71063275 18:0.25882449 19:0.24458195 20:0.22775343 21:0.21404127 22:0.48380569 23:0.816821 24:0.68601444 25:0.62501877 26:0.59326018 27:0.81718936 28:0.13829281 29:0.35039044 30:0.42485012 31:0.47045857 32:0.19390407 33:0.16595655 34:0.46886584 35:0.58726254 36:0.67839697 37:0.23161363 
-4 1:0.43282793 2:0.38488561 3:0.91282426 4:0.74103165 5:0.66780547 6:0.54530849 7:0.69570595 8:0.22078641 9:0.19179857 10:0.32094415 11:0.43741332 12:0.37131934 13:0.24314145 14:0.23631551 15:0.40512522 16:0.58807842 17:0.43282795 18:0.13271285 19:0.14260865 20:0.22775343 21:0.21404127 22:0.26397275 23:0.816821 24:0.68601444 25:0.62501877 26:0.59326018 27:0.81718936 28:0.060934294 29:0.16459245 30:0.22794673 31:0.28614086 32:0.089661492 33:0.075761628 34:0.22648205 35:0.3208 36:0.41600227 37:0.11048789 
-4 1:0.71149893 2:0.68301124 3:0.91282426 4:0.74103165 5:0.66780547 6:0.54530849 7:0.69570595 8:0.42146158 9:0.46256772 10:0.57082083 11:0.55651104 12:0.57577439 13:0.45929212 14:0.5917129 15:0.74992599 16:0.78419604 17:0.71149895 18:0.22768899 19:0.21940592 20:0.22775343 21:0.21404127 22:0.5283012 23:0.816821 24:0.68601444 25:0.62501877 26:0.59326018 27:0.81718936 28:0.13857108 29:0.39428474 30:0.46883914 31:0.51048487 32:0.20378755 33:0.16632096 34:0.52643901 35:0.64712909 36:0.73569395 37:0.24316928 
-1.9510237654853055 1:0.75988333 2:0.74611253 3:0.91282426 4:0.74103165 5:0.66780547 6:0.54530849 7:0.69570595 8:0.52286125 9:0.54490801 10:0.59765741 11:0.56662497 12:0.61126313 13:0.56849706 14:0.6998149 15:0.78698064 16:0.80084885 17:0.75988334 18:0.28407562 19:0.2649999 20:0.22775343 21:0.21404127 22:0.51797543 23:0.816821 24:0.68601444 25:0.62501877 26:0.59326018 27:0.81718936 28:0.1644282 29:0.38190812 30:0.44987072 31:0.48902439 32:0.22166867 33:0.19648293 34:0.51027309 35:0.62144203 36:0.7051344 37:0.26395964 
4 1:0.87892181 2:0.89175895 3:0.91282426 4:0.74103165 5:0.66780547 6:0.54530849 7:0.69570595 8:0.75733285 9:0.69230355 10:0.67662645 11:0.60595564 12:0.69860406 13:0.82098806 14:0.89326604 15:0.89594535 16:0.86560256 17:0.87892184 18:0.44184018 19:0.39256762 20:0.22775343 21:0.21404127 22:0.7771024 23:0.816821 24:0.68601444 25:0.62501877 26:0.59326018 27:0.81718936 28:0.38533987 29:0.62496261 30:0.63172974 31:0.61865175 32:0.45089482 33:0.45415395 34:0.82759421 35:0.86773162 36:0.88981491 37:0.53044453 
4 1:0.72934485 2:0.70971565 3:0.91282426 4:0.74103165 5:0.66780547 6:0.54530849 7:0.69570595 8:0.47075231 9:0.5081318 10:0.57686478 11:0.55552771 12:0.58885721 13:0.51233929 14:0.65153144 15:0.75826378 16:0.78258361 17:0.72934487 18:0.26253063 19:0.24757872 20:0.22775343 21:0.21404127 22:0.47100949 23:0.816821 24:0.68601444 25:0.62501877 26:0.59326018 27:0.81718936 28:0.13945137 29:0.33906498 30:0.41068465 31:0.45734588 32:0.19220745 33:0.16734621 34:0.4543237 35:0.56835151 36:0.65998481 37:0.22970551 
