svm_type nu_svr
kernel_type rbf
gamma 0.050000000000000003
nr_class 2
total_sv 605
rho -0.92324311878955345
SV
3.5057372208598521 1:0.42095914 2:0.37704025 3:0.37279439 4:0.44580709 5:0.51907084 6:0.60353034 7:0.5750355 8:0.032525558 9:0.076779133 10:0.23288742 11:0.46860535 12:0.32708613 13:0.44251517 14:0.24377797 15:0.34306164 16:0.58725836 17:0.42095916 18:0.19962896 19:0.1993915 20:1 21:0.94331751 22:0.33117656 23:0.52518574 24:0.58857201 25:0.62793626 26:0.67461597 27:0.54000199 28:0.11927132 29:0.20084449 30:0.26490388 31:0.36273059 32:0.13916595 33:0.20426888 34:0.2978227 35:0.35196151 36:0.41586096 37:0.23077304 
4 1:0.79431175 2:0.76760063 3:0.37279439 4:0.44580709 5:0.51907084 6:0.60353034 7:0.5750355 8:0.18914227 9:0.3272383 10:0.51485058 11:0.66341955 12:0.56948464 13:0.650194 14:0.67005911 15:0.80401244 16:0.85451106 17:0.79431173 18:0.3868327 19:0.35259662 20:1 21:0.94331751 22:0.69344687 23:0.52518574 24:0.58857201 25:0.62793626 26:0.67461597 27:0.54000199 28:0.25332961 29:0.4706592 30:0.57245217 31:0.66070335 32:0.30235953 33:0.41869973 34:0.67812902 35:0.75459866 36:0.79931344 37:0.48639525 
4 1:0.76552954 2:0.75368626 3:0.37279439 4:0.44580709 5:0.51907084 6:0.60353034 7:0.5750355 8:0.22699389 9:0.3469131 10:0.49351214 11:0.62928488 12:0.55070113 13:0.69753011 14:0.69593365 15:0.76879771 16:0.80832371 17:0.76552954 18:0.32218138 19:0.29968681 20:1 21:0.94331751 22:0.51671894 23:0.52518574 24:0.58857201 25:0.62793626 26:0.67461597 27:0.54000199 28:0.1953539 29:0.33739252 30:0.41837862 31:0.51090431 32:0.22822832 33:0.32535041 34:0.49066507 35:0.55354211 36:0.60716291 37:0.36991327 
-4 1:0.87125758 2:0.88266971 3:0.37279439 4:0.44580709 5:0.51907084 6:0.60353034 7:0.5750355 8:0.33523658 9:0.45078017 10:0.56073366 11:0.67504933 12:0.61952113 13:0.84368051 14:0.87856903 15:0.87912927 16:0.87038638 17:0.87125759 18:0.49547391 19:0.44150719 20:1 21:0.94331751 22:0.77891857 23:0.52518574 24:0.58857201 25:0.62793626 26:0.67461597 27:0.54000199 28:0.33219652 29:0.54126109 30:0.61842522 31:0.68992386 32:0.37832777 33:0.54370358 34:0.77765448 35:0.81481265 36:0.83688619 37:0.6047827 
-4 1:0.55721133 2:0.52002919 3:0.37279439 4:0.44580709 5:0.51907084 6:0.60353034 7:0.5750355 8:0.076965766 9:0.16538988 10:0.35365619 11:0.53188483 12:0.41637518 13:0.500424 14:0.38984794 15:0.53815096 16:0.67659293 17:0.5572113 18:0.17938151 19:0.18282125 20:1 21:0.94331751 22:0.40080343 23:0.52518574 24:0.58857201 25:0.62793626 26:0.67461597 27:0.54000199 28:0.14574321 29:0.25912286 30:0.32809252 31:0.412496 32:0.17218491 33:0.24448097 34:0.37827739 35:0.43339313 36:0.47875265 37:0.28028343 
-4 1:0.75841272 2:0.75205375 3:0.37279439 4:0.44580709 5:0.51907084 6:0.60353034 7:0.5750355 8:0.23680434 9:0.35318288 10:0.49152376 11:0.62012162 12:0.54704654 13:0.71075703 14:0.70507647 15:0.76361055 16:0.79609252 17:0.75841274 18:0.29171657 19:0.27475481 20:1 21:0.94331751 22:0.58906671 23:0.52518574 24:0.58857201 25:0.62793626 26:0.67461597 27:0.54000199 28:0.22973288 29:0.39967348 30:0.47895929 31:0.55987105 32:0.268086 33:0.37801234 34:0.5757273 35:0.63018677 36:0.6677392 37:0.42983467 
-4 1:0.72861911 2:0.71128732 3:0.37279439 4:0.44580709 5:0.51907084 6:0.60353034 7:0.5750355 8:0.19966477 9:0.31415389 10:0.46734815 11:0.61245622 12:0.52651621 13:0.66098074 14:0.63960043 15:0.72649483 16:0.78573898 17:0.72861912 18:0.28819266 19:0.27187088 20:1 21:0.94331751 22:0.47897265 23:0.52518574 24:0.58857201 25:0.62793626 26:0.67461597 27:0.54000199 28:0.18102238 29:0.31168776 30:0.38778814 31:0.47775332 32:0.21134688 33:0.30187579 34:0.45387241 35:0.51298845 36:0.56400646 37:0.34285492 
4 1:0.85709865 2:0.86367536 3:0.37279439 4:0.44580709 5:0.51907084 6:0.60353034 7:0.5750355 8:0.31714645 9:0.43343075 10:0.55164759 11:0.67040167 12:0.61023731 13:0.81894837 14:0.84784596 15:0.86438933 16:0.86408665 17:0.85709868 18:0.47521235 19:0.42492538 20:1 21:0.94331751 22:0.7629954 23:0.52518574 24:0.58857201 25:0.62793626 26:0.67461597 27:0.54000199 28:0.3226827 29:0.52782834 30:0.60750821 31:0.68215591 32:0.36815866 33:0.52791512 34:0.75817867 35:0.80009343 36:0.82655347 37:0.58825777 
-1.328730320915168 1:0.73812114 2:0.70404765 3:0.37279439 4:0.44580709 5:0.51907084 6:0.60353034 7:0.5750355 8:0.1391614 9:0.27958825 10:0.48023073 11:0.634668 12:0.53275293 13:0.58449975 14:0.59100489 15:0.7490269 16:0.813725 17:0.73812114 18:0.18155149 19:0.18459713 20:1 21:0.94331751 22:0.45381506 23:0.52518574 24:0.58857201 25:0.62793626 26:0.67461597 27:0.54000199 28:0.16482117 29:0.29236881 30:0.37042123 31:0.46492612 32:0.19463668 33:0.27646153 34:0.42607141 35:0.48903809 36:0.54580607 37:0.31693375 
4 1:0.89775029 2:0.88134006 3:0.37279439 4:0.44580709 5:0.51907084 6:0.60353034 7:0.5750355 8:0.24156646 9:0.41475855 10:0.58355142 11:0.71645086 12:0.63665352 13:0.7209342 14:0.82274574 15:0.91727767 16:0.92562355 17:0.89775029 18:0.22711122 19:0.22188262 20:1 21:0.94331751 22:0.8049082 23:0.52518574 24:0.58857201 25:0.62793626 26:0.67461597 27:0.54000199 28:0.31335408 29:0.56210291 30:0.65351686 31:0.73500049 32:0.36823713 33:0.51395529 34:0.80614077 35:0.85985518 36:0.89415744 37:0.588857 
-4 1:0.25942066 2:0.24952838 3:0.37279439 4:0.44580709 5:0.51907084 6:0.60353034 7:0.5750355 8:0.025000209 9:0.053951239 10:0.15331267 11:0.32259482 12:0.2231804 13:0.43205576 14:0.20279041 15:0.21172684 16:0.38595743 17:0.25942069 18:0.042211678 19:0.070563228 20:1 21:0.94331751 22:0.12372434 23:0.52518574 24:0.58857201 25:0.62793626 26:0.67461597 27:0.54000199 28:0.059756946 29:0.08039472 30:0.093470348 31:0.13194473 32:0.064471221 33:0.10737261 34:0.1266251 35:0.1257923 36:0.11577935 37:0.11208178 
4 1:0.80073998 2:0.78720491 3:0.37279439 4:0.44580709 5:0.51907084 6:0.60353034 7:0.5750355 8:0.2315578 9:0.36038583 10:0.51849058 11:0.65280445 12:0.57332195 13:0.70531918 14:0.72348121 15:0.81052797 16:0.84024016 17:0.80074 18:0.36506911 19:0.33478558 20:1 21:0.94331751 22:0.67693473 23:0.52518574 24:0.58857201 25:0.62793626 26:0.67461597 27:0.54000199 28:0.2616494 29:0.46259636 30:0.55053688 31:0.63220899 32:0.30668545 33:0.43135469 34:0.66660792 35:0.72594513 36:0.76272459 37:0.49269249 
-4 1:0.66795377 2:0.65440905 3:0.37279439 4:0.44580709 5:0.51907084 6:0.60353034 7:0.5750355 8:0.19430141 9:0.2803383 10:0.42064906 11:0.57603459 12:0.4866993 13:0.65626789 14:0.58594246 15:0.65153763 16:0.73682959 17:0.66795378 18:0.27041244 19:0.25731978 20:1 21:0.94331751 22:0.42919638 23:0.52518574 24:0.58857201 25:0.62793626 26:0.67461597 27:0.54000199 28:0.1530212 29:0.27745865 30:0.35253666 31:0.44386356 32:0.18204013 33:0.25538203 34:0.40415995 35:0.46535357 36:0.51872519 37:0.29524023 
-4 1:0.46513541 2:0.43545551 3:0.37279439 4:0.44580709 5:0.51907084 6:0.60353034 7:0.5750355 8:0.053247789 9:0.12657506 10:0.29389566 11:0.46720343 12:0.35622045 13:0.46943563 14:0.32456041 15:0.44042429 16:0.59093821 17:0.46513544 18:0.12077841 19:0.13486122 20:1 21:0.94331751 22:0.28508716 23:0.52518574 24:0.58857201 25:0.62793626 26:0.67461597 27:0.54000199 28:0.10693474 29:0.17890094 30:0.22876093 31:0.30204802 32:0.12402153 33:0.18325868 34:0.26643326 35:0.30485892 36:0.33846006 37:0.20583268 
4 1:0.75469903 2:0.7305746 3:0.37279439 4:0.44580709 5:0.51907084 6:0.60353034 7:0.5750355 8:0.19531147 9:0.31172515 10:0.48192 11:0.63770658 12:0.54335539 13:0.65688952 14:0.63937245 15:0.75059933 16:0.81954839 17:0.75469908 18:0.33126341 19:0.30711943 20:1 21:0.94331751 22:0.62910314 23:0.52518574 24:0.58857201 25:0.62793626 26:0.67461597 27:0.54000199 28:0.23026069 29:0.41710579 30:0.5163837 31:0.61603716 32:0.27310232 33:0.38126694 34:0.60236041 35:0.68089378 36:0.7413537 37:0.44012752 
4 1:0.77191359 2:0.76253886 3:0.37279439 4:0.44580709 5:0.51907084 6:0.60353034 7:0.5750355 8:0.23656404 9:0.35462351 10:0.49726977 11:0.63153762 12:0.5549099 13:0.71047371 14:0.71069971 15:0.77520266 16:0.81074774 17:0.7719136 18:0.33273308 19:0.30832219 20:1 21:0.94331751 22:0.53842141 23:0.52518574 24:0.58857201 25:0.62793626 26:0.67461597 27:0.54000199 28:0.2072724 29:0.35398905 30:0.43524418 31:0.52617907 32:0.2410961 33:0.3443623 34:0.51368641 35:0.57502515 36:0.62609507 37:0.38996954 
-4 1:0.8709578 2:0.8825437 3:0.37279439 4:0.44580709 5:0.51907084 6:0.60353034 7:0.5750355 8:0.33615075 9:0.45030621 10:0.5608125 11:0.67468461 12:0.61933145 13:0.84494911 14:0.87786663 15:0.87927412 16:0.86989405 17:0.87095781 18:0.49919864 19:0.44455545 20:1 21:0.94331751 22:0.78318844 23:0.52518574 24:0.58857201 25:0.62793626 26:0.67461597 27:0.54000199 28:0.33768594 29:0.54451704 30:0.62034805 31:0.69102409 32:0.38330022 33:0.55215328 34:0.78188335 35:0.81701619 36:0.83803773 37:0.61223467 
4 1:0.74664263 2:0.73222088 3:0.37279439 4:0.44580709 5:0.51907084 6:0.60353034 7:0.5750355 8:0.2098482 9:0.32753709 10:0.48147985 11:0.62115677 12:0.5383986 13:0.67584669 14:0.66697352 15:0.75003536 16:0.79618029 17:0.74664268 18:0.31197134 19:0.29133105 20:1 21:0.94331751 22:0.4953983 23:0.52518574 24:0.58857201 25:0.62793626 26:0.67461597 27:0.54000199 28:0.18648958 29:0.32217008 30:0.40172799 31:0.49461511 32:0.21801288 33:0.31150744 34:0.4686299 35:0.53064448 36:0.58470044 37:0.35405119 
-4 1:0.86841185 2:0.87947769 3:0.37279439 4:0.44580709 5:0.51907084 6:0.60353034 7:0.5750355 8:0.33189284 9:0.44837237 10:0.55889088 11:0.67366169 12:0.61762325 13:0.83957072 14:0.8750607 15:0.87632384 16:0.86837539 17:0.8684119 18:0.49400096 19:0.44030174 20:1 21:0.94331751 22:0.77324701 23:0.52518574 24:0.58857201 25:0.62793626 26:0.67461597 27:0.54000199 28:0.32830572 29:0.53702249 30:0.61489542 31:0.68721655 32:0.37440427 33:0.53752578 34:0.77132947 35:0.80976237 36:0.83295546 37:0.59857388 
-4 1:0.93158211 2:0.96750829 3:0.37279439 4:0.44580709 5:0.51907084 6:0.60353034 7:0.5750355 8:0.44999137 9:0.51876954 10:0.59746909 11:0.69331002 12:0.65863869 13:1 14:1 15:0.9398872 16:0.89547136 17:0.93158213 18:0.72873239 19:0.63240291 20:1 21:0.94331751 22:0.99999869 23:0.52518574 24:0.58857201 25:0.62793626 26:0.67461597 27:0.54000199 28:0.61804031 29:0.67326377 30:0.70526516 31:0.74819986 32:0.63087804 33:0.99999948 34:0.96357886 35:0.92825233 36:0.91169538 37:0.99999908 
4 1:0.45271111 2:0.40959354 3:0.37279439 4:0.44580709 5:0.51907084 6:0.60353034 7:0.5750355 8:0.03780901 9:0.09272894 10:0.26426088 11:0.48239737 12:0.34740427 13:0.4498827 14:0.27348773 15:0.39694834 16:0.60420056 17:0.45271113 18:0.18391358 19:0.18653023 20:1 21:0.94331751 22:0.2747337 23:0.52518574 24:0.58857201 25:0.62793626 26:0.67461597 27:0.54000199 28:0.10322526 29:0.16965462 30:0.21950459 31:0.29787934 32:0.11923536 33:0.17801302 34:0.25316251 35:0.29157114 36:0.33091594 37:0.19892029 
4 1:0.75624325 2:0.72290955 3:0.37279439 4:0.44580709 5:0.51907084 6:0.60353034 7:0.5750355 8:0.14537018 9:0.28715621 10:0.49932078 11:0.64257923 12:0.54466697 13:0.59276941 14:0.60398056 15:0.77906869 16:0.82605542 17:0.75624332 18:0.33581448 19:0.31084397 20:1 21:0.94331751 22:0.58974904 23:0.52518574 24:0.58857201 25:0.62793626 26:0.67461597 27:0.54000199 28:0.20955224 29:0.39180126 30:0.4862955 31:0.58270219 32:0.25121079 33:0.34861307 34:0.56693961 35:0.64175579 36:0.69869551 37:0.40614704 
-4 1:0.71788107 2:0.68758354 3:0.37279439 4:0.44580709 5:0.51907084 6:0.60353034 7:0.5750355 8:0.13407442 9:0.27829909 10:0.47350176 11:0.61406866 12:0.51969826 13:0.57705568 14:0.58449269 15:0.7366239 16:0.78712891 17:0.71788109 18:0.30155347 19:0.2828052 20:1 21:0.94331751 22:0.4940932 23:0.52518574 24:0.58857201 25:0.62793626 26:0.67461597 27:0.54000199 28:0.18135831 29:0.32436187 30:0.40323719 31:0.49412813 32:0.21431234 33:0.30248991 34:0.4712968 35:0.53257255 36:0.58433711 37:0.34741319 
-0.74693447806096169 1:0.7704134 2:0.75921766 3:0.37279439 4:0.44580709 5:0.51907084 6:0.60353034 7:0.5750355 8:0.22895334 9:0.34981485 10:0.49609517 11:0.63269747 12:0.55387101 13:0.70105683 14:0.70398509 15:0.77370841 16:0.81181624 17:0.77041344 18:0.33646314 19:0.31137483 20:1 21:0.94331751 22:0.5364195 23:0.52518574 24:0.58857201 25:0.62793626 26:0.67461597 27:0.54000199 28:0.20387384 29:0.35187396 30:0.43499323 31:0.52782081 32:0.2380567 33:0.33939822 34:0.51063492 35:0.57426556 36:0.6274459 37:0.38558217 
-4 1:0.86984696 2:0.88002243 3:0.37279439 4:0.44580709 5:0.51907084 6:0.60353034 7:0.5750355 8:0.32920864 9:0.4467711 10:0.56021866 11:0.67538644 12:0.61850934 13:0.83617632 14:0.87308088 15:0.8787102 16:0.87064766 17:0.86984698 18:0.50517936 19:0.44945 20:1 21:0.94331751 22:0.79415739 23:0.52518574 24:0.58857201 25:0.62793626 26:0.67461597 27:0.54000199 28:0.3422921 29:0.55356177 30:0.62915277 31:0.69866505 32:0.38878503 33:0.56007887 34:0.79466881 35:0.82839042 36:0.8476553 37:0.62125881 
-4 1:0.46007412 2:0.38095207 3:0.74948946 4:0.80901345 5:0.78544888 6:0.70239843 7:0.80401508 8:0.066161283 9:0.17680405 10:0.40556385 11:0.60227786 12:0.47024794 13:0.17780287 14:0.1765496 15:0.42216377 16:0.68861137 17:0.46007413 18:0.22012772 19:0.22517248 20:0.14027639 21:0.12003084 22:0.3981443 23:0.58271601 24:0.55519989 25:0.55467643 26:0.55797328 27:0.57722082 28:0.091167154 29:0.22254184 30:0.31702949 31:0.42587586 32:0.12259488 33:0.14376436 34:0.34408336 35:0.46378893 36:0.57900109 37:0.1920765 
-4 1:0.8476106 2:0.83738417 3:0.74948946 4:0.80901345 5:0.78544888 6:0.70239843 7:0.80401508 8:0.49574266 9:0.67093533 10:0.77206186 11:0.75576278 12:0.77630571 13:0.6724348 14:0.79560745 15:0.87951552 16:0.87805221 17:0.84761059 18:0.43229209 19:0.39880507 20:0.14027639 21:0.12003084 22:0.76462853 23:0.58271601 24:0.55519989 25:0.55467643 26:0.55797328 27:0.57722082 28:0.26167033 29:0.53709385 30:0.59257524 31:0.62836214 32:0.31990046 33:0.39854057 34:0.80359863 35:0.85145776 36:0.86933206 37:0.48834291 
-4 1:0.88336042 2:0.89408686 3:0.74948946 4:0.80901345 5:0.78544888 6:0.70239843 7:0.80401508 8:0.61324999 9:0.75143271 10:0.79051127 11:0.75974726 12:0.8045104 13:0.80769446 14:0.89637162 15:0.90253947 16:0.8830573 17:0.88336044 18:0.47841306 19:0.43654987 20:0.14027639 21:0.12003084 22:0.7859743 23:0.58271601 24:0.55519989 25:0.55467643 26:0.55797328 27:0.57722082 28:0.3071354 29:0.54590936 30:0.59328511 31:0.62702546 32:0.35758663 33:0.4662438 34:0.81632111 35:0.85238259 36:0.86737242 37:0.54472215 
-4 1:0.81315197 2:0.81221767 3:0.74948946 4:0.80901345 5:0.78544888 6:0.70239843 7:0.80401508 8:0.52091567 9:0.67133428 10:0.73270413 11:0.72438024 12:0.74895532 13:0.70149504 14:0.7962318 15:0.83052261 16:0.83939742 17:0.81315197 18:0.33294639 19:0.31750183 20:0.14027639 21:0.12003084 22:0.52865375 23:0.58271601 24:0.55519989 25:0.55467643 26:0.55797328 27:0.57722082 28:0.1695208 29:0.33238607 30:0.40965205 31:0.48614789 32:0.20628686 33:0.2608805 34:0.50468974 35:0.59424812 36:0.66549542 37:0.31780501 
-4 1:0.8952988 2:0.91565157 3:0.74948946 4:0.80901345 5:0.78544888 6:0.70239843 7:0.80401508 8:0.67174239 9:0.78014987 10:0.79520181 11:0.75927794 12:0.81388189 13:0.8750721 14:0.93242563 15:0.90843924 16:0.88248814 17:0.8952988 18:0.50166968 19:0.45558279 20:0.14027639 21:0.12003084 22:0.80589265 23:0.58271601 24:0.55519989 25:0.55467643 26:0.55797328 27:0.57722082 28:0.33807303 29:0.55566779 30:0.59895107 31:0.63068811 32:0.38405026 33:0.51287463 34:0.83086321 35:0.86052213 36:0.87272795 37:0.58484112 
-4 1:0.56500933 2:0.50208923 3:0.74948946 4:0.80901345 5:0.78544888 6:0.70239843 7:0.80401508 8:0.16256831 9:0.29988451 10:0.5238428 11:0.63722796 12:0.553195 13:0.28877944 14:0.33066066 15:0.56966413 16:0.7316234 17:0.56500934 18:0.22843304 19:0.23196946 20:0.14027639 21:0.12003084 22:0.35998003 23:0.58271601 24:0.55519989 25:0.55467643 26:0.55797328 27:0.57722082 28:0.092761974 29:0.20909975 30:0.28188747 31:0.37044364 32:0.11998909 33:0.14605539 34:0.32415905 35:0.41393795 36:0.49900028 37:0.18803 
-4 1:0.56513003 2:0.5021807 3:0.74948946 4:0.80901345 5:0.78544888 6:0.70239843 7:0.80401508 8:0.16236669 9:0.29995295 10:0.52402566 11:0.63730827 12:0.55329677 13:0.28854782 14:0.33074616 15:0.56988834 16:0.73171061 17:0.56513005 18:0.22836778 19:0.23191605 20:0.14027639 21:0.12003084 22:0.35990605 23:0.58271601 24:0.55519989 25:0.55467643 26:0.55797328 27:0.57722082 28:0.092745603 29:0.20907311 30:0.28182163 31:0.37038133 32:0.1199689 33:0.14602778 34:0.32410977 35:0.41383334 36:0.4988985 37:0.18799508 
4 1:0.82737698 2:0.83118746 3:0.74948946 4:0.80901345 5:0.78544888 6:0.70239843 7:0.80401508 8:0.55614634 9:0.69047078 10:0.7421706 11:0.73023022 12:0.76018949 13:0.74204353 14:0.82018989 15:0.84231507 16:0.84662166 17:0.82737698 18:0.35171566 19:0.33286236 20:0.14027639 21:0.12003084 22:0.57406074 23:0.58271601 24:0.55519989 25:0.55467643 26:0.55797328 27:0.57722082 28:0.18819655 29:0.3658153 30:0.44506913 31:0.51842385 32:0.22801665 33:0.28875897 34:0.55353704 35:0.64413515 36:0.71186943 37:0.35041423 
-4 1:0.89476121 2:0.91491596 3:0.74948946 4:0.80901345 5:0.78544888 6:0.70239843 7:0.80401508 8:0.67291114 9:0.77773878 10:0.79455382 11:0.75955803 12:0.813456 13:0.87640226 14:0.92938776 15:0.90765021 16:0.88284596 17:0.89476121 18:0.51195547 19:0.46400054 20:0.14027639 21:0.12003084 22:0.82412692 23:0.58271601 24:0.55519989 25:0.55467643 26:0.55797328 27:0.57722082 28:0.36150994 29:0.568454 30:0.60573682 31:0.6344808 32:0.40504513 33:0.54780236 34:0.84948776 35:0.87004845 36:0.87816007 37:0.61628585 
-4 1:0.91865691 2:0.88950705 3:0.74948946 4:0.80901345 5:0.78544888 6:0.70239843 7:0.80401508 8:0.43401899 9:0.68885479 10:0.83534171 11:0.82662595 12:0.83257771 13:0.60135295 14:0.81790164 15:0.95835012 16:0.96545932 17:0.91865695 18:0.18935427 19:0.1999879 20:0.14027639 21:0.12003084 22:0.82365519 23:0.58271601 24:0.55519989 25:0.55467643 26:0.55797328 27:0.57722082 28:0.26436847 29:0.58901089 30:0.64405801 31:0.68001333 32:0.33253882 33:0.4024096 34:0.8792173 35:0.92383576 36:0.94345024 37:0.50714752 
-4 1:0.20010486 2:0.15314863 3:0.74948946 4:0.80901345 5:0.78544888 6:0.70239843 7:0.80401508 8:0.035301792 9:0.076094477 10:0.1944876 11:0.37037949 12:0.26512944 13:0.14228756 14:0.050469233 15:0.15865735 16:0.40106446 17:0.20010487 18:0.064563098 19:0.09786041 20:0.14027639 21:0.12003084 22:0.1292634 23:0.58271601 24:0.55519989 25:0.55467643 26:0.55797328 27:0.57722082 28:0.042235906 29:0.068357949 30:0.088328353 31:0.13994302 32:0.048480449 33:0.070646569 34:0.1187116 35:0.14163853 36:0.16823834 37:0.080759289 
-4 1:0.83832816 2:0.83692817 3:0.74948946 4:0.80901345 5:0.78544888 6:0.70239843 7:0.80401508 8:0.53361726 9:0.68653296 10:0.7572986 11:0.74140037 12:0.76891837 13:0.7160871 14:0.81513934 15:0.86112072 16:0.86038852 17:0.8383282 18:0.35472685 19:0.33532667 20:0.14027639 21:0.12003084 22:0.6853735 23:0.58271601 24:0.55519989 25:0.55467643 26:0.55797328 27:0.57722082 28:0.22226766 29:0.46917983 30:0.53571374 31:0.58428648 32:0.27532569 33:0.33964395 34:0.70448117 35:0.77157047 36:0.80620406 37:0.42141449 
-4 1:0.82708842 2:0.82507324 3:0.74948946 4:0.80901345 5:0.78544888 6:0.70239843 7:0.80401508 8:0.52465027 9:0.67799409 10:0.74593101 11:0.7353062 12:0.76015551 13:0.70563024 14:0.80434135 15:0.84675263 16:0.85277434 17:0.82708844 18:0.3863904 19:0.36123972 20:0.14027639 21:0.12003084 22:0.65201873 23:0.58271601 24:0.55519989 25:0.55467643 26:0.55797328 27:0.57722082 28:0.21262828 29:0.43084615 30:0.50976659 31:0.57130635 32:0.2605514 33:0.32497163 34:0.64812266 35:0.7348107 36:0.78743999 37:0.39894653 
-4 1:0.61040874 2:0.55631848 3:0.74948946 4:0.80901345 5:0.78544888 6:0.70239843 7:0.80401508 8:0.20050246 9:0.36354175 10:0.57564317 11:0.64676644 12:0.58807564 13:0.33255066 14:0.41077856 15:0.63546574 16:0.74532403 17:0.61040874 18:0.19156763 19:0.20179928 20:0.14027639 21:0.12003084 22:0.40758199 23:0.58271601 24:0.55519989 25:0.55467643 26:0.55797328 27:0.57722082 28:0.10462484 29:0.24621866 30:0.32271362 31:0.40429808 32:0.13707113 33:0.16411923 34:0.37932341 35:0.47253729 36:0.54877536 37:0.21414976 
-4 1:0.77522476 2:0.75711976 3:0.74948946 4:0.80901345 5:0.78544888 6:0.70239843 7:0.80401508 8:0.43923238 9:0.58896552 10:0.70387687 11:0.7204535 12:0.71893678 13:0.60744281 14:0.6930445 15:0.79469878 16:0.83474025 17:0.77522476 18:0.31407238 19:0.30205559 20:0.14027639 21:0.12003084 22:0.61489622 23:0.58271601 24:0.55519989 25:0.55467643 26:0.55797328 27:0.57722082 28:0.18015397 29:0.40453202 30:0.48676822 31:0.55561176 32:0.22952439 33:0.2768356 34:0.6102018 35:0.70281351 36:0.76514097 37:0.35276753 
4 1:0.84271699 2:0.84968161 3:0.74948946 4:0.80901345 5:0.78544888 6:0.70239843 7:0.80401508 8:0.57600796 9:0.71069381 10:0.75614042 11:0.73626653 12:0.77237342 13:0.76489685 14:0.84546025 15:0.85969818 16:0.8540028 17:0.84271701 18:0.38115303 19:0.35695352 20:0.14027639 21:0.12003084 22:0.61990675 23:0.58271601 24:0.55519989 25:0.55467643 26:0.55797328 27:0.57722082 28:0.21446959 29:0.40178287 30:0.47774927 31:0.54396846 32:0.25605002 33:0.32798994 34:0.60598502 35:0.68999673 36:0.74837715 37:0.3924679 
-1.7537060296002791 1:0.89766894 2:0.9192753 3:0.74948946 4:0.80901345 5:0.78544888 6:0.70239843 7:0.80401508 8:0.68141676 9:0.78324605 10:0.79677555 11:0.75993133 12:0.81577829 13:0.88616973 14:0.93627604 15:0.91038559 16:0.88326951 17:0.897669 18:0.51830546 19:0.4691973 20:0.14027639 21:0.12003084 22:0.8289692 23:0.58271601 24:0.55519989 25:0.55467643 26:0.55797328 27:0.57722082 28:0.36705476 29:0.5721557 30:0.60797557 31:0.63564246 32:0.41014385 33:0.55601423 34:0.85479668 35:0.87312782 36:0.87978022 37:0.62386486 
-4 1:0.8326592 2:0.83870951 3:0.74948946 4:0.80901345 5:0.78544888 6:0.70239843 7:0.80401508 8:0.56967576 9:0.69928517 10:0.74666013 11:0.73105351 12:0.76432387 13:0.75764031 14:0.83128574 15:0.8479705 16:0.84763037 17:0.83265921 18:0.3616287 19:0.34097506 20:0.14027639 21:0.12003084 22:0.58235082 23:0.58271601 24:0.55519989 25:0.55467643 26:0.55797328 27:0.57722082 28:0.19475703 29:0.37278306 30:0.45010992 31:0.52119827 32:0.23455518 33:0.29865217 34:0.56381065 35:0.6512834 36:0.71587246 37:0.36032342 
-4 1:0.89453502 2:0.91469502 3:0.74948946 4:0.80901345 5:0.78544888 6:0.70239843 7:0.80401508 8:0.67020173 9:0.77925097 10:0.79462412 11:0.75896738 12:0.81329835 13:0.87329326 14:0.93127765 15:0.90770599 16:0.88209139 17:0.89453503 18:0.51487765 19:0.46639202 20:0.14027639 21:0.12003084 22:0.82519501 23:0.58271601 24:0.55519989 25:0.55467643 26:0.55797328 27:0.57722082 28:0.36030068 29:0.57054237 30:0.6071477 31:0.63518988 32:0.40446568 33:0.54600044 34:0.85247755 35:0.87198508 36:0.87914348 37:0.61540683 
-4 1:0.93158211 2:0.96750829 3:0.74948946 4:0.80901345 5:0.78544888 6:0.70239843 7:0.80401508 8:0.7803225 9:0.83415785 10:0.82042375 11:0.76978965 12:0.84257116 13:1 14:1 15:0.9398872 16:0.89547136 17:0.93158213 18:0.6264659 19:0.5577144 20:0.14027639 21:0.12003084 22:0.999999 23:0.58271601 24:0.55519989 25:0.55467643 26:0.55797328 27:0.57722082 28:0.66431989 29:0.64676144 30:0.6472322 31:0.65793624 32:0.66074399 33:0.99999945 34:0.96357903 35:0.92825287 36:0.91169589 37:0.99999913 
-0.9957318052824663 1:0.45086499 2:0.3763758 3:0.74948946 4:0.80901345 5:0.78544888 6:0.70239843 7:0.80401508 8:0.068619555 9:0.17925001 10:0.41815564 11:0.5797572 12:0.46366187 13:0.18058435 14:0.17928132 15:0.4369481 16:0.65950462 17:0.45086502 18:0.17035825 19:0.18444179 20:0.14027639 21:0.12003084 22:0.25093616 23:0.58271601 24:0.55519989 25:0.55467643 26:0.55797328 27:0.57722082 28:0.064556295 29:0.13651128 30:0.19076836 31:0.27229188 32:0.081894809 33:0.10394944 34:0.218208 35:0.28577871 36:0.35817673 37:0.13087779 
-4 1:0.82836517 2:0.82165254 3:0.74948946 4:0.80901345 5:0.78544888 6:0.70239843 7:0.80401508 8:0.4979885 9:0.67203055 10:0.74737164 11:0.74113059 12:0.7611076 13:0.67501599 14:0.79701428 15:0.84865245 16:0.85990798 17:0.82836521 18:0.36499562 19:0.3437305 20:0.14027639 21:0.12003084 22:0.61710287 23:0.58271601 24:0.55519989 25:0.55467643 26:0.55797328 27:0.57722082 28:0.18826398 29:0.4000823 30:0.48652036 31:0.55861101 32:0.2353153 33:0.28878535 34:0.60328964 35:0.70207648 36:0.76913128 37:0.36124686 
-3.3649106476270432 1:0.81491384 2:0.8151335 3:0.74948946 4:0.80901345 5:0.78544888 6:0.70239843 7:0.80401508 8:0.52557475 9:0.67663167 10:0.73379564 11:0.7240282 12:0.75029874 13:0.70690359 14:0.80291699 15:0.83194412 16:0.83897907 17:0.81491386 18:0.34458242 19:0.32702461 20:0.14027639 21:0.12003084 22:0.55278365 23:0.58271601 24:0.55519989 25:0.55467643 26:0.55797328 27:0.57722082 28:0.17960092 29:0.35073711 30:0.42832058 31:0.50247803 32:0.21803786 33:0.27598914 34:0.53159245 35:0.62061102 36:0.68899771 37:0.33550615 
-4 1:0.80347895 2:0.80124938 3:0.74948946 4:0.80901345 5:0.78544888 6:0.70239843 7:0.80401508 8:0.51377804 9:0.65865918 10:0.72383355 11:0.72001101 12:0.74127011 13:0.69330764 14:0.78043807 15:0.8194938 16:0.83400246 17:0.80347901 18:0.32674383 19:0.31242574 20:0.14027639 21:0.12003084 22:0.51491395 23:0.58271601 24:0.55519989 25:0.55467643 26:0.55797328 27:0.57722082 28:0.1663143 29:0.32281928 30:0.39800064 31:0.47398643 32:0.2016938 33:0.25609286 34:0.49072234 35:0.57786912 36:0.64808539 37:0.31091323 
4 1:0.88612058 2:0.90422421 3:0.74948946 4:0.80901345 5:0.78544888 6:0.70239843 7:0.80401508 8:0.65587409 9:0.76843311 10:0.78753819 11:0.75559729 12:0.8066405 13:0.8568013 14:0.9177497 15:0.89888188 16:0.87792025 17:0.88612061 18:0.48883738 19:0.445081 20:0.14027639 21:0.12003084 22:0.79447588 23:0.58271601 24:0.55519989 25:0.55467643 26:0.55797328 27:0.57722082 28:0.32878603 29:0.54576952 30:0.5925757 31:0.6267638 32:0.37481637 33:0.49890186 34:0.8163543 35:0.85152519 36:0.8670803 37:0.57088863 
3.586512269475179 1:0.33327141 2:0.28909383 3:0.54119965 4:0.83504008 5:1 6:0.97008184 7:1 8:0.10534544 9:0.14157081 10:0.32900819 11:0.62821756 12:0.45398428 13:0.37938045 14:0.12236417 15:0.24065604 16:0.55156806 17:0.33327141 18:0.086887711 19:0.10014567 20:0.88316562 21:1 22:0.13918885 23:0.93912155 24:0.98843443 25:0.98271128 26:0.96689299 27:0.94858934 28:0.041728521 29:0.11654605 30:0.19448351 31:0.31820462 32:0.061080769 33:0.037020972 34:0.097798908 35:0.15988158 36:0.24571464 37:0.052581129 
4 1:0.78151369 2:0.75456018 3:0.54119965 4:0.83504008 5:1 6:0.97008184 7:1 8:0.31184225 9:0.58380601 10:0.84569257 11:0.92962495 12:0.86311076 13:0.63968948 14:0.66535105 15:0.77897116 16:0.84866207 17:0.78151371 18:0.27320556 19:0.25262578 20:0.88316562 21:1 22:0.60413509 23:0.93912155 24:0.98843443 25:0.98271128 26:0.96689299 27:0.94858934 28:0.28054723 29:0.60025685 30:0.73926528 31:0.82268268 32:0.35193453 33:0.29010783 34:0.57722962 35:0.68867093 36:0.75780003 37:0.35971043 
1.3674001044805071 1:0.85648257 2:0.85369503 3:0.54119965 4:0.83504008 5:1 6:0.97008184 7:1 8:0.39973018 9:0.71964382 10:0.93568065 11:0.95077988 12:0.93152016 13:0.75047481 14:0.83181224 15:0.87276272 16:0.86963229 17:0.85648258 18:0.38910913 19:0.34747977 20:0.88316562 21:1 22:0.73568115 23:0.93912155 24:0.98843443 25:0.98271128 26:0.96689299 27:0.94858934 28:0.43292241 29:0.76630434 30:0.84723659 31:0.88778221 32:0.50413904 33:0.45159958 34:0.74172434 35:0.79352936 36:0.82390194 37:0.52046225 
4 1:0.7819109 2:0.76702718 3:0.54119965 4:0.83504008 5:1 6:0.97008184 7:1 8:0.33931843 9:0.61808387 10:0.854981 11:0.90974388 12:0.86356366 13:0.6743263 14:0.70719518 15:0.7886437 16:0.82898398 17:0.78191089 18:0.2510788 19:0.23451753 20:0.88316562 21:1 22:0.48197267 23:0.93912155 24:0.98843443 25:0.98271128 26:0.96689299 27:0.94858934 28:0.2357339 29:0.46880062 30:0.58693736 31:0.68494395 32:0.28876388 33:0.24240824 34:0.44661055 35:0.54054869 36:0.61772629 37:0.29277667 
-4 1:0.88254008 2:0.89262932 3:0.54119965 4:0.83504008 5:1 6:0.97008184 7:1 8:0.46101327 9:0.77036755 10:0.95705581 11:0.95992746 12:0.95516631 13:0.82775717 14:0.89415184 15:0.89520061 16:0.87878001 17:0.88254008 18:0.43854104 19:0.38793421 20:0.88316562 21:1 22:0.78292667 23:0.93912155 24:0.98843443 25:0.98271128 26:0.96689299 27:0.94858934 28:0.49454886 29:0.81609455 30:0.8846792 31:0.91428027 32:0.56274253 33:0.51703783 34:0.79120669 35:0.83004807 36:0.85095059 37:0.58250295 
-4 1:0.34570554 2:0.29901119 3:0.54119965 4:0.83504008 5:1 6:0.97008184 7:1 8:0.061377602 9:0.17439682 10:0.34949603 11:0.63205494 12:0.465983 13:0.323913 14:0.16262701 15:0.26117216 16:0.55422225 17:0.34570554 18:0.072909477 19:0.088706059 20:0.88316562 21:1 22:0.14601306 23:0.93912155 24:0.98843443 25:0.98271128 26:0.96689299 27:0.94858934 28:0.055681006 29:0.13226422 30:0.20411764 31:0.30788393 32:0.074943854 33:0.051565305 34:0.11254718 35:0.16784761 36:0.23352161 37:0.066858865 
4 1:0.3326921 2:0.34257204 3:0.54119965 4:0.83504008 5:1 6:0.97008184 7:1 8:0.17088119 9:0.30560919 10:0.43460401 11:0.49780217 12:0.45515155 13:0.46147252 14:0.32262461 15:0.34867952 16:0.42024608 17:0.33269213 18:0.011479969 19:0.038432944 20:0.88316562 21:1 22:0.12402842 23:0.93912155 24:0.98843443 25:0.98271128 26:0.96689299 27:0.94858934 28:0.078664958 29:0.14565136 30:0.1728757 31:0.2139705 32:0.093424735 33:0.076345986 34:0.12630929 35:0.13766762 36:0.13782883 37:0.086836721 
-4 1:0.76012633 2:0.74368815 3:0.54119965 4:0.83504008 5:1 6:0.97008184 7:1 8:0.32737783 9:0.59374936 10:0.83067231 11:0.89424607 12:0.84292895 13:0.65925074 14:0.67779838 15:0.76414183 16:0.81432111 17:0.76012636 18:0.23247058 19:0.21928881 20:0.88316562 21:1 22:0.46207501 23:0.93912155 24:0.98843443 25:0.98271128 26:0.96689299 27:0.94858934 28:0.22581748 29:0.44813502 30:0.56179855 31:0.65969548 32:0.27646612 33:0.23255309 34:0.42755484 35:0.51766555 36:0.59351831 37:0.28059709 
4 1:0.87333773 2:0.8817375 3:0.54119965 4:0.83504008 5:1 6:0.97008184 7:1 8:0.4529345 9:0.75775215 10:0.94618465 11:0.95530217 12:0.94665121 13:0.81755244 14:0.87871385 15:0.88401429 16:0.87432343 17:0.87333776 18:0.41996012 19:0.37272782 20:0.88316562 21:1 22:0.76577994 23:0.93912155 24:0.98843443 25:0.98271128 26:0.96689299 27:0.94858934 28:0.47605342 29:0.79321607 30:0.86940049 31:0.90548878 32:0.5437531 33:0.4977712 34:0.76893878 35:0.81550321 36:0.84221681 37:0.56280231 
-4 1:0.64830109 2:0.59929385 3:0.54119965 4:0.83504008 5:1 6:0.97008184 7:1 8:0.18946566 9:0.40985592 10:0.70657591 11:0.85384434 12:0.74265449 13:0.48525859 14:0.45102368 15:0.63268566 16:0.77285763 17:0.64830109 18:0.11585817 19:0.12385471 20:0.88316562 21:1 22:0.24854581 23:0.93912155 24:0.98843443 25:0.98271128 26:0.96689299 27:0.94858934 28:0.09989055 29:0.22595191 30:0.32440144 31:0.4418743 32:0.13050264 33:0.098317105 34:0.20523987 35:0.28450819 36:0.36956748 37:0.12540815 
-4 1:0.8820851 2:0.86574276 3:0.54119965 4:0.83504008 5:1 6:0.97008184 7:1 8:0.37394132 9:0.70528252 10:0.95856539 11:0.9900997 12:0.95497361 13:0.71795516 14:0.81407059 15:0.89662007 16:0.90853725 17:0.88208514 18:0.23031363 19:0.21752358 20:0.88316562 21:1 22:0.71124329 23:0.93912155 24:0.98843443 25:0.98271128 26:0.96689299 27:0.94858934 28:0.37234635 29:0.72909225 30:0.83945431 31:0.90481125 32:0.44981225 33:0.38723769 34:0.7050567 35:0.78634161 36:0.84160722 37:0.46297388 
-4 1:0.13670507 2:0.12090689 3:0.54119965 4:0.83504008 5:1 6:0.97008184 7:1 8:0.033016898 9:0.06678179 10:0.19027721 11:0.3968147 12:0.2752798 13:0.28820154 14:0.030514752 15:0.095312461 16:0.32169374 17:0.13670507 19:0.029037885 20:0.88316562 21:1 23:0.93912155 24:0.98843443 25:0.98271128 26:0.96689299 27:0.94858934 28:0.011702755 29:0.018398552 30:0.030912444 31:0.077458613 32:0.013623172 33:0.0051094814 35:-2.7755576e-17 36:-2.7755576e-17 37:0.0022952386 
-4 1:0.79939855 2:0.7885886 3:0.54119965 4:0.83504008 5:1 6:0.97008184 7:1 8:0.3630046 9:0.64088271 10:0.87343292 11:0.91877636 12:0.87937983 13:0.70418887 14:0.73523768 15:0.80791043 16:0.83817985 17:0.79939851 18:0.28591992 19:0.26303105 20:0.88316562 21:1 22:0.61048984 23:0.93912155 24:0.98843443 25:0.98271128 26:0.96689299 27:0.94858934 28:0.31374344 29:0.6194805 30:0.73079832 31:0.79882388 32:0.38093244 33:0.32523086 34:0.59646742 35:0.68074343 36:0.73378815 37:0.39032402 
-4 1:0.75589466 2:0.73802607 3:0.54119965 4:0.83504008 5:1 6:0.97008184 7:1 8:0.33257578 9:0.58041515 10:0.82113489 11:0.89689851 12:0.83909124 13:0.66585266 14:0.66157593 15:0.75424044 16:0.81672254 17:0.75589467 18:0.25420117 19:0.23707284 20:0.88316562 21:1 22:0.51315637 23:0.93912155 24:0.98843443 25:0.98271128 26:0.96689299 27:0.94858934 28:0.24484679 29:0.50228302 30:0.62471369 31:0.71936403 32:0.30297417 33:0.252876 34:0.48123339 35:0.57854762 36:0.65376096 37:0.30871713 
-4 1:0.58565809 2:0.54671291 3:0.54119965 4:0.83504008 5:1 6:0.97008184 7:1 8:0.1906161 9:0.37953224 10:0.64483141 11:0.78884912 12:0.68447219 13:0.48687609 14:0.41424313 15:0.56964795 16:0.71002884 17:0.5856581 18:0.098955642 19:0.1100219 20:0.88316562 21:1 22:0.28144147 23:0.93912155 24:0.98843443 25:0.98271128 26:0.96689299 27:0.94858934 28:0.11417443 29:0.26606902 30:0.36594057 31:0.46561759 32:0.14992379 33:0.11376781 34:0.24630562 35:0.32679472 36:0.39589885 37:0.14642785 
-4 1:0.7537924 2:0.73521469 3:0.54119965 4:0.83504008 5:1 6:0.97008184 7:1 8:0.33060229 9:0.57765858 10:0.81599122 11:0.89907612 12:0.83790412 13:0.66334799 14:0.65759047 15:0.74799965 16:0.81851743 17:0.75379244 18:0.22503636 19:0.21320473 20:0.88316562 21:1 22:0.52372827 23:0.93912155 24:0.98843443 25:0.98271128 26:0.96689299 27:0.94858934 28:0.24083597 29:0.51058941 30:0.64071703 31:0.74349674 32:0.30187301 33:0.2480481 34:0.488662 35:0.59327172 36:0.67742302 37:0.30691611 
-2.7231065007184783 1:0.78736844 2:0.77684626 3:0.54119965 4:0.83504008 5:1 6:0.97008184 7:1 8:0.35460483 9:0.63490342 10:0.85970672 11:0.90904087 12:0.86848017 13:0.69360373 14:0.72787103 15:0.79356207 16:0.82837095 17:0.78736841 18:0.26607706 19:0.24679191 20:0.88316562 21:1 22:0.52090325 23:0.93912155 24:0.98843443 25:0.98271128 26:0.96689299 27:0.94858934 28:0.27022209 29:0.51317161 30:0.62529999 31:0.7136277 32:0.32490859 33:0.2790866 34:0.49080421 35:0.57801104 36:0.64705923 37:0.33109868 
-4 1:0.88034406 2:0.89095474 3:0.54119965 4:0.83504008 5:1 6:0.97008184 7:1 8:0.46198003 9:0.76984792 10:0.95427907 11:0.95794897 12:0.9532176 13:0.82895479 14:0.89344865 15:0.892242 16:0.87680015 17:0.88034409 18:0.43896727 19:0.38828302 20:0.88316562 21:1 22:0.78709687 23:0.93912155 24:0.98843443 25:0.98271128 26:0.96689299 27:0.94858934 28:0.50373867 29:0.82008972 30:0.88647069 31:0.91502269 32:0.5707766 33:0.52667024 34:0.79497032 35:0.83162931 36:0.85158843 37:0.5908658 
4 1:0.76810747 2:0.75181427 3:0.54119965 4:0.83504008 5:1 6:0.97008184 7:1 8:0.33007017 9:0.60166701 10:0.84008578 11:0.900628 12:0.85074871 13:0.66268179 14:0.68721883 15:0.77337689 16:0.82016585 17:0.76810752 18:0.24347894 19:0.22829791 20:0.88316562 21:1 22:0.46567176 23:0.93912155 24:0.98843443 25:0.98271128 26:0.96689299 27:0.94858934 28:0.22764188 29:0.45162629 30:0.56716576 31:0.66598947 32:0.27872133 33:0.23410761 34:0.43011011 35:0.52188079 36:0.59897896 37:0.28249856 
-4 1:0.87517154 2:0.88297744 3:0.54119965 4:0.83504008 5:1 6:0.97008184 7:1 8:0.44935051 9:0.75887065 10:0.95007301 11:0.95650392 12:0.94854109 13:0.81303642 14:0.87995858 15:0.88783098 16:0.87532614 17:0.87517156 18:0.42829406 19:0.37954821 20:0.88316562 21:1 22:0.77467385 23:0.93912155 24:0.98843443 25:0.98271128 26:0.96689299 27:0.94858934 28:0.48486953 29:0.80637399 30:0.878098 31:0.91014185 32:0.55321411 33:0.50659815 34:0.78134607 35:0.82348902 36:0.84663111 37:0.57224543 
-0.70934414344993124 1:0.93158211 2:0.96750829 3:0.54119965 4:0.83504008 5:1 6:0.97008184 7:1 8:0.59766917 9:0.85675793 10:1 11:0.97685674 12:1 13:1 14:1 15:0.9398872 16:0.89547136 17:0.93158213 18:0.58848756 19:0.5106485 20:0.88316562 21:1 22:0.99999979 23:0.93912155 24:0.98843443 25:0.98271128 26:0.96689299 27:0.94858934 28:0.95102686 29:0.99081508 30:0.98630437 31:0.97437976 32:0.95874584 33:0.99999989 34:0.9635798 35:0.92825378 36:0.91169677 37:1 
4 1:0.42009102 2:0.35898351 3:0.54119965 4:0.83504008 5:1 6:0.97008184 7:1 8:0.073798678 9:0.18079997 10:0.43226453 11:0.70872352 12:0.53358573 13:0.33960619 14:0.17044452 15:0.34773712 16:0.63068267 17:0.42009106 18:0.098986987 19:0.11004756 20:0.88316562 21:1 22:0.14578561 23:0.93912155 24:0.98843443 25:0.98271128 26:0.96689299 27:0.94858934 28:0.052523361 29:0.12455378 30:0.19999563 31:0.31997228 32:0.071170364 33:0.048348966 34:0.10533167 35:0.16458319 36:0.24693459 37:0.063067351 
4 1:0.75641339 2:0.71929955 3:0.54119965 4:0.83504008 5:1 6:0.97008184 7:1 8:0.25310032 9:0.53009525 10:0.85535163 11:0.90234186 12:0.84024725 13:0.56564938 14:0.59916212 15:0.78919821 16:0.82197351 17:0.75641341 18:0.25875035 19:0.24079583 20:0.88316562 21:1 22:0.52814806 23:0.93912155 24:0.98843443 25:0.98271128 26:0.96689299 27:0.94858934 28:0.23442 29:0.52708683 30:0.65112462 31:0.74209191 32:0.29970983 33:0.24081236 34:0.50425231 35:0.60304491 36:0.67608111 37:0.30413764 
4 1:0.74687402 2:0.72432337 3:0.54119965 4:0.83504008 5:1 6:0.97008184 7:1 8:0.29164148 9:0.57129241 10:0.82315992 11:0.88626407 12:0.8306732 13:0.61428055 14:0.65035877 15:0.75658162 16:0.80665809 17:0.74687404 18:0.22741761 19:0.21515352 20:0.88316562 21:1 22:0.44523895 23:0.93912155 24:0.98843443 25:0.98271128 26:0.96689299 27:0.94858934 28:0.21211092 29:0.43105754 30:0.54404952 31:0.6432049 32:0.26205285 33:0.21815609 34:0.41101334 35:0.50087173 36:0.57721915 37:0.2655542 
4 1:0.87332518 2:0.88089424 3:0.54119965 4:0.83504008 5:1 6:0.97008184 7:1 8:0.44857235 9:0.75621919 10:0.94777762 11:0.9551806 12:0.94662075 13:0.81205151 14:0.8768715 15:0.88567739 16:0.87417894 17:0.8733252 18:0.42260489 19:0.37489227 20:0.88316562 21:1 22:0.76825101 23:0.93912155 24:0.98843443 25:0.98271128 26:0.96689299 27:0.94858934 28:0.48090304 29:0.79711424 30:0.87027786 31:0.90451762 32:0.54825961 33:0.50305944 34:0.77289247 35:0.81641262 36:0.8412721 37:0.56770427 
4 1:0.75894485 2:0.73985114 3:0.54119965 4:0.83504008 5:1 6:0.97008184 7:1 8:0.31509852 9:0.587863 10:0.8313634 11:0.89610999 12:0.84242601 13:0.6438184 14:0.67026843 15:0.7642533 16:0.81565973 17:0.75894488 18:0.23893554 19:0.22457965 20:0.88316562 21:1 22:0.45174256 23:0.93912155 24:0.98843443 25:0.98271128 26:0.96689299 27:0.94858934 28:0.2191032 29:0.43689286 30:0.55207548 31:0.65211539 32:0.26892064 33:0.22499252 34:0.41534357 35:0.50702582 36:0.5846567 37:0.27206275 
4 1:0.88340095 2:0.89384749 3:0.54119965 4:0.83504008 5:1 6:0.97008184 7:1 8:0.4637456 9:0.77132726 10:0.95754199 11:0.96071776 12:0.95603433 13:0.83119027 14:0.89524578 15:0.89563415 16:0.87951389 17:0.88340098 18:0.44989493 19:0.39722608 20:0.88316562 21:1 22:0.80165262 23:0.93912155 24:0.98843443 25:0.98271128 26:0.96689299 27:0.94858934 28:0.51562322 29:0.83833278 30:0.90102638 31:0.92549374 32:0.5837498 33:0.53921797 34:0.81295557 35:0.84570615 36:0.86219474 37:0.60451063 
4 1:0.61233946 2:0.60160014 3:0.070210581 4:0.12939473 5:0.17885747 6:0.18004417 7:0.17675985 8:0.039371945 9:0.068381065 10:0.16482731 11:0.28377448 12:0.21075444 13:0.76781479 14:0.52901248 15:0.52643047 16:0.69754397 17:0.6123395 18:0.39521883 19:0.29195096 20:0.0010734441 21:0.00028387143 22:0.52697364 23:0.17641986 24:0.19082278 25:0.18926983 26:0.18627286 27:0.17920437 28:0.11043618 29:0.16350478 30:0.19248496 31:0.23578953 32:0.12249252 33:0.36452546 34:0.49390568 35:0.55229415 36:0.60392857 37:0.40166551 
4 1:0.84489592 2:0.85494291 3:0.070210581 4:0.12939473 5:0.17885747 6:0.18004417 7:0.17675985 8:0.095972099 9:0.17773317 10:0.27883655 11:0.35091234 12:0.30395896 13:0.8581044 14:0.8219827 15:0.84520986 16:0.85971566 17:0.84489591 18:0.56206723 19:0.42849753 20:0.0010734441 21:0.00028387143 22:0.8193212 23:0.17641986 24:0.19082278 25:0.18926983 26:0.18627286 27:0.17920437 28:0.20838516 29:0.29213159 30:0.3151083 31:0.34225992 32:0.2262739 33:0.63968169 34:0.80578141 35:0.83137583 36:0.84764902 37:0.68622386 
-4 1:0.87787338 2:0.89767648 3:0.070210581 4:0.12939473 5:0.17885747 6:0.18004417 7:0.17675985 8:0.1231618 9:0.204371 10:0.29311016 11:0.35602595 12:0.31727391 13:0.90147421 14:0.89287158 15:0.88480684 16:0.87198903 17:0.87787339 18:0.65211841 19:0.50219425 20:0.0010734441 21:0.00028387143 22:0.87400219 23:0.17641986 24:0.19082278 25:0.18926983 26:0.18627286 27:0.17920437 28:0.23880261 29:0.31841676 30:0.33154715 31:0.35170217 32:0.25536184 33:0.72415459 34:0.8689622 35:0.86840155 36:0.86898582 37:0.76512481 
-4 1:0.8031543 2:0.81466241 3:0.070210581 4:0.12939473 5:0.17885747 6:0.18004417 7:0.17675985 8:0.089835367 9:0.16678604 10:0.26221096 11:0.33335938 12:0.28744437 13:0.8481642 14:0.79154953 15:0.79788367 16:0.81710008 17:0.80315431 18:0.45177716 19:0.33823757 20:0.0010734441 21:0.00028387143 22:0.62435614 23:0.17641986 24:0.19082278 25:0.18926983 26:0.18627286 27:0.17920437 28:0.15569375 29:0.20772663 30:0.22729939 31:0.26058358 32:0.16704602 33:0.49148731 34:0.60055925 35:0.63080546 36:0.6598501 37:0.52354382 
-4 1:0.89016368 2:0.91589757 3:0.070210581 4:0.12939473 5:0.17885747 6:0.18004417 7:0.17675985 8:0.14149303 9:0.21784389 10:0.29703241 11:0.3567689 12:0.32223735 13:0.93074835 14:0.92896085 15:0.89566669 16:0.87372582 17:0.89016372 18:0.6482879 19:0.49905942 20:0.0010734441 21:0.00028387143 22:0.8786866 23:0.17641986 24:0.19082278 25:0.18926983 26:0.18627286 27:0.17920437 28:0.24352167 29:0.3188367 30:0.33222575 31:0.35294485 32:0.25922984 33:0.73689684 34:0.8697287 35:0.86977409 36:0.87169172 37:0.7752874 
4 1:0.37451074 2:0.38299114 3:0.070210581 4:0.12939473 5:0.17885747 6:0.18004417 7:0.17675985 8:0.0064739436 9:0.022210895 10:0.076534017 11:0.1719426 12:0.11575109 13:0.71511417 14:0.40457582 15:0.27917457 16:0.4269715 17:0.37451076 18:0.28358511 19:0.20059136 20:0.0010734441 21:0.00028387143 22:0.3019259 23:0.17641986 24:0.19082278 25:0.18926983 26:0.18627286 27:0.17920437 28:0.080507382 29:0.081732168 30:0.077427834 31:0.095036743 32:0.080333341 33:0.28157004 34:0.29673464 35:0.29152309 36:0.2828624 37:0.28723317 
-4 1:0.80348938 2:0.81246974 3:0.070210581 4:0.12939473 5:0.17885747 6:0.18004417 7:0.17675985 8:0.088892867 9:0.16278875 10:0.26078205 11:0.33619018 12:0.28765495 13:0.84654414 14:0.78033302 15:0.79365701 16:0.82379621 17:0.80348939 18:0.4955354 19:0.37404874 20:0.0010734441 21:0.00028387143 22:0.75601597 23:0.17641986 24:0.19082278 25:0.18926983 26:0.18627286 27:0.17920437 28:0.18970628 29:0.26338449 30:0.28713058 31:0.31905662 32:0.20562768 33:0.58679894 34:0.73566993 35:0.76732956 36:0.79421489 37:0.6292035 
-4 1:0.83196139 2:0.84983148 3:0.070210581 4:0.12939473 5:0.17885747 6:0.18004417 7:0.17675985 8:0.1084583 9:0.1864709 10:0.27409525 11:0.33953325 12:0.29884919 13:0.87793198 14:0.84473982 15:0.83183708 16:0.83229059 17:0.83196144 18:0.50813097 19:0.38435679 20:0.0010734441 21:0.00028387143 22:0.72471941 23:0.17641986 24:0.19082278 25:0.18926983 26:0.18627286 27:0.17920437 28:0.18546376 29:0.2503237 30:0.27082412 31:0.30148304 32:0.19944181 33:0.57520216 34:0.70437474 35:0.73053555 36:0.75421547 37:0.61258131 
4 1:0.88940716 2:0.91515245 3:0.070210581 4:0.12939473 5:0.17885747 6:0.18004417 7:0.17675985 8:0.14172077 9:0.21730404 10:0.29667668 11:0.35644183 12:0.32187494 13:0.93116235 14:0.92783127 15:0.8948908 16:0.87301677 17:0.88940724 18:0.66595661 19:0.51351926 20:0.0010734441 21:0.00028387143 22:0.88773832 23:0.17641986 24:0.19082278 25:0.18926983 26:0.18627286 27:0.17920437 28:0.24808488 29:0.32258264 30:0.33499186 31:0.35497511 32:0.2635789 33:0.75011893 34:0.87921793 35:0.87636765 36:0.87655774 37:0.7876159 
-4 1:0.90126556 2:0.91077268 3:0.070210581 4:0.12939473 5:0.17885747 6:0.18004417 7:0.17675985 8:0.10161932 9:0.19659648 10:0.30279964 11:0.37278155 12:0.32640042 13:0.86723912 14:0.87279641 15:0.91239973 16:0.91291167 17:0.90126556 18:0.32837225 19:0.23724458 20:0.0010734441 21:0.00028387143 22:0.82650288 23:0.17641986 24:0.19082278 25:0.18926983 26:0.18627286 27:0.17920437 28:0.20599938 29:0.29199614 30:0.31902723 31:0.35282486 32:0.22458446 33:0.63370215 34:0.80610881 35:0.84077544 36:0.87212185 37:0.68229071 
-4 1:0.95978948 2:0.97195699 3:0.070210581 4:0.12939473 5:0.17885747 6:0.18004417 7:0.17675985 8:0.12513718 9:0.22224038 10:0.32186169 11:0.39573583 12:0.34988453 13:0.90484355 14:0.94160287 15:0.96552633 16:0.96821217 17:0.9597895 18:0.33690264 19:0.24422574 20:0.0010734441 21:0.00028387143 22:0.97161447 23:0.17641986 24:0.19082278 25:0.18926983 26:0.18627286 27:0.17920437 28:0.26149179 29:0.35927283 30:0.37583177 31:0.39814288 32:0.28190953 33:0.78883661 34:0.96858948 35:0.96957882 36:0.97554477 37:0.83875282 
4 1:0.35623367 2:0.37224124 3:0.070210581 4:0.12939473 5:0.17885747 6:0.18004417 7:0.17675985 8:0.0081314803 9:0.025516992 10:0.077166515 11:0.15598058 12:0.10860714 13:0.71776509 14:0.41349497 15:0.28106161 16:0.38775144 17:0.35623366 18:0.11263615 19:0.060688945 20:0.0010734441 21:0.00028387143 22:0.26496786 23:0.17641986 24:0.19082278 25:0.18926983 26:0.18627286 27:0.17920437 28:0.074868651 29:0.070433232 30:0.060652226 31:0.070039012 32:0.073226893 33:0.26529527 34:0.26863441 35:0.25246046 36:0.22458219 37:0.26722392 
-4 1:0.833265 2:0.84717376 3:0.070210581 4:0.12939473 5:0.17885747 6:0.18004417 7:0.17675985 8:0.09999185 9:0.18049168 10:0.27461 11:0.34319302 12:0.29937647 13:0.8645365 14:0.82922967 15:0.83309025 16:0.84093526 17:0.83326503 18:0.45332838 19:0.33950706 20:0.0010734441 21:0.00028387143 22:0.7992182 23:0.17641986 24:0.19082278 25:0.18926983 26:0.18627286 27:0.17920437 28:0.20624767 29:0.28366464 30:0.30388994 31:0.33123 32:0.22273272 33:0.63382996 34:0.78542286 35:0.80592666 36:0.82241485 37:0.67667191 
-4 1:0.87320297 2:0.89450427 3:0.070210581 4:0.12939473 5:0.17885747 6:0.18004417 7:0.17675985 8:0.12790987 9:0.20462159 10:0.28974427 11:0.35345239 12:0.31516585 13:0.90927907 14:0.89470244 15:0.87632891 16:0.86613376 17:0.87320297 18:0.63150769 19:0.48532671 20:0.0010734441 21:0.00028387143 22:0.85739376 23:0.17641986 24:0.19082278 25:0.18926983 26:0.18627286 27:0.17920437 28:0.22865847 29:0.30980414 30:0.32650687 31:0.3490446 32:0.24570558 33:0.69728312 34:0.84936938 35:0.85781984 36:0.86352093 37:0.74017676 
-4 1:0.60393357 2:0.60369773 3:0.070210581 4:0.12939473 5:0.17885747 6:0.18004417 7:0.17675985 8:0.03096244 9:0.080340617 10:0.17772404 11:0.2656501 12:0.20753136 13:0.75427632 14:0.5608404 15:0.56239784 16:0.65329988 17:0.60393356 18:0.28552807 19:0.20218145 20:0.0010734441 21:0.00028387143 22:0.49227012 23:0.17641986 24:0.19082278 25:0.18926983 26:0.18627286 27:0.17920437 28:0.11847902 29:0.15273283 30:0.16835089 31:0.20208124 32:0.12604467 33:0.38774041 34:0.46807182 35:0.49745514 36:0.52671427 37:0.41194711 
-4 1:0.84329911 2:0.86010988 3:0.070210581 4:0.12939473 5:0.17885747 6:0.18004417 7:0.17675985 8:0.11093902 9:0.18843853 10:0.27711843 11:0.3454979 12:0.30331244 13:0.88206386 14:0.85098327 15:0.84064493 16:0.8465447 17:0.84329914 18:0.5063948 19:0.38293593 20:0.0010734441 21:0.00028387143 22:0.80000262 23:0.17641986 24:0.19082278 25:0.18926983 26:0.18627286 27:0.17920437 28:0.19993922 29:0.28145387 30:0.30706387 31:0.33953669 32:0.21753914 33:0.61630276 34:0.78033959 35:0.81338332 36:0.8416124 37:0.6626427 
-4 1:0.81128845 2:0.81685864 3:0.070210581 4:0.12939473 5:0.17885747 6:0.18004417 7:0.17675985 8:0.072427872 9:0.15888657 10:0.2689722 11:0.33966521 12:0.29055791 13:0.82057303 14:0.771525 15:0.81724252 16:0.8323311 17:0.81128846 18:0.48446846 19:0.3649917 20:0.0010734441 21:0.00028387143 22:0.68916718 23:0.17641986 24:0.19082278 25:0.18926983 26:0.18627286 27:0.17920437 28:0.17392794 29:0.2359169 30:0.2560703 31:0.28732603 32:0.18731004 33:0.54263224 34:0.66891018 35:0.69640373 36:0.72126788 37:0.57905349 
4 1:0.89521745 2:0.9219389 3:0.070210581 4:0.12939473 5:0.17885747 6:0.18004417 7:0.17675985 8:0.14569262 9:0.22051631 10:0.29910997 11:0.35796501 12:0.32420788 13:0.93754791 14:0.93650628 15:0.90166307 16:0.87665862 17:0.89521745 18:0.67881882 19:0.52404552 20:0.0010734441 21:0.00028387143 22:0.89683864 23:0.17641986 24:0.19082278 25:0.18926983 26:0.18627286 27:0.17920437 28:0.2529664 29:0.32681852 30:0.33785593 31:0.35661226 32:0.26825906 33:0.76391397 34:0.88948026 35:0.88286857 36:0.88029912 37:0.80050916 
-4 1:0.80916315 2:0.8250153 3:0.070210581 4:0.12939473 5:0.17885747 6:0.18004417 7:0.17675985 8:0.10027904 9:0.17569625 10:0.26496127 11:0.33231483 12:0.28991832 13:0.86480195 14:0.81533677 15:0.80541463 16:0.81443552 17:0.8091632 18:0.46395815 19:0.34820633 20:0.0010734441 21:0.00028387143 22:0.64055932 23:0.17641986 24:0.19082278 25:0.18926983 26:0.18627286 27:0.17920437 28:0.1621294 29:0.21487962 30:0.23373643 31:0.26593592 32:0.17358753 33:0.50917874 34:0.61762849 35:0.64527897 36:0.67203095 37:0.54112495 
4 1:0.88631757 2:0.91170976 3:0.070210581 4:0.12939473 5:0.17885747 6:0.18004417 7:0.17675985 8:0.13930874 9:0.21602793 10:0.29567119 11:0.35541235 12:0.32067787 13:0.92725713 14:0.9241511 15:0.89193515 16:0.87048638 17:0.88631762 18:0.65070797 19:0.50103996 20:0.0010734441 21:0.00028387143 22:0.87271579 23:0.17641986 24:0.19082278 25:0.18926983 26:0.18627286 27:0.17920437 28:0.24123365 29:0.31610998 30:0.32983098 31:0.35101205 32:0.25687121 33:0.73057021 34:0.86320403 35:0.86438002 36:0.86730663 37:0.76891628 
4 1:0.55818529 2:0.55269549 3:0.070210581 4:0.12939473 5:0.17885747 6:0.18004417 7:0.17675985 8:0.017592378 9:0.056782861 10:0.15617527 11:0.2533957 12:0.18949408 13:0.73288808 14:0.49729787 15:0.50084039 16:0.62304367 17:0.55818528 18:0.32147446 19:0.23159952 20:0.0010734441 21:0.00028387143 22:0.39168769 23:0.17641986 24:0.19082278 25:0.18926983 26:0.18627286 27:0.17920437 28:0.09749099 29:0.11414496 30:0.12068973 31:0.14836288 32:0.10102431 33:0.32873943 34:0.37449053 35:0.38897744 36:0.40373979 37:0.34331753 
-4 1:0.85313155 2:0.86854001 3:0.070210581 4:0.12939473 5:0.17885747 6:0.18004417 7:0.17675985 8:0.11039845 9:0.19019763 10:0.28135283 11:0.35053118 12:0.30751185 13:0.88098982 14:0.8542509 15:0.85126964 16:0.85844617 17:0.85313156 18:0.56842193 19:0.43369814 20:0.0010734441 21:0.00028387143 22:0.81716367 23:0.17641986 24:0.19082278 25:0.18926983 26:0.18627286 27:0.17920437 28:0.20556838 29:0.28988244 30:0.31550447 31:0.34551092 32:0.2237155 33:0.63070936 34:0.79954394 35:0.83175206 36:0.85477155 37:0.67822485 
-4 1:0.85662676 2:0.87738802 3:0.070210581 4:0.12939473 5:0.17885747 6:0.18004417 7:0.17675985 8:0.12099923 9:0.19921642 10:0.2840738 11:0.34710918 12:0.30881012 13:0.89789571 14:0.87868397 15:0.85943372 16:0.85045128 17:0.8566268 18:0.56426043 19:0.43029242 20:0.0010734441 21:0.00028387143 22:0.78920935 23:0.17641986 24:0.19082278 25:0.18926983 26:0.18627286 27:0.17920437 28:0.20838718 29:0.27872813 30:0.2973947 31:0.32451849 32:0.22336943 33:0.6389315 34:0.77278403 35:0.79064936 36:0.80667788 37:0.67757622 
4 1:0.89812049 2:0.92512455 3:0.070210581 4:0.12939473 5:0.17885747 6:0.18004417 7:0.17675985 8:0.14716117 9:0.22194886 10:0.30012491 11:0.35893049 12:0.32535254 13:0.93989407 14:0.94037541 15:0.90456127 16:0.87904394 17:0.8981205 18:0.696736 19:0.53870871 20:0.0010734441 21:0.00028387143 22:0.90781491 23:0.17641986 24:0.19082278 25:0.18926983 26:0.18627286 27:0.17920437 28:0.25831895 29:0.33166634 30:0.34154889 31:0.35943873 32:0.27345195 33:0.77870853 34:0.90122825 35:0.89130294 36:0.88680449 37:0.81456813 
-4 1:0.85017451 2:0.87096499 3:0.070210581 4:0.12939473 5:0.17885747 6:0.18004417 7:0.17675985 8:0.12018233 9:0.19734195 10:0.28115959 11:0.34475952 12:0.30630166 13:0.8965807 14:0.87339645 15:0.85105795 16:0.84460613 17:0.85017455 18:0.54743974 19:0.41652658 20:0.0010734441 21:0.00028387143 22:0.76706875 23:0.17641986 24:0.19082278 25:0.18926983 26:0.18627286 27:0.17920437 28:0.20132461 29:0.26925726 30:0.2883094 31:0.31612113 32:0.21584022 33:0.61884589 34:0.74941333 35:0.76957437 36:0.78710042 37:0.65664155 
4 1:0.8966258 2:0.92323165 3:0.070210581 4:0.12939473 5:0.17885747 6:0.18004417 7:0.17675985 8:0.14600859 9:0.22086314 10:0.29954699 11:0.35866447 12:0.32477985 13:0.93802922 14:0.93736289 15:0.90282883 16:0.87836284 17:0.89662583 18:0.68631143 19:0.53017738 20:0.0010734441 21:0.00028387143 22:0.90187172 23:0.17641986 24:0.19082278 25:0.18926983 26:0.18627286 27:0.17920437 28:0.25535437 29:0.32906509 30:0.3396542 31:0.35803445 32:0.27059586 33:0.77032292 34:0.89482498 35:0.88691759 36:0.88353473 37:0.80666912 
4 1:0.37171353 2:0.32368679 3:0.63867197 4:0.7644542 5:0.72293819 6:0.53826721 7:0.68843153 8:0.092812321 9:0.13640729 10:0.29622134 11:0.4410366 12:0.34765881 13:0.28955113 14:0.14608318 15:0.31563212 16:0.60065715 17:0.37171355 18:0.19435837 19:0.18420219 20:0.33338483 21:0.41750371 22:0.34854135 23:0.30912181 24:0.30425526 25:0.30495808 26:0.30470109 27:0.30817791 28:0.074199865 29:0.12514096 30:0.16046487 31:0.22238319 32:0.086262797 33:0.19356464 34:0.31512145 35:0.37791842 36:0.45051619 37:0.22502082 
-4 1:0.81369804 2:0.80660988 3:0.63867197 4:0.7644542 5:0.72293819 6:0.53826721 7:0.68843153 8:0.40667271 9:0.61239972 10:0.69075415 11:0.61739913 12:0.66517709 13:0.66640401 14:0.76156813 15:0.83724384 16:0.85830061 17:0.81369803 18:0.39200693 19:0.34595522 20:0.33338483 21:0.41750371 22:0.71734129 23:0.30912181 24:0.30425526 25:0.30495808 26:0.30470109 27:0.30817791 28:0.18436251 29:0.32331098 30:0.37012577 31:0.41239931 32:0.21461821 33:0.43400938 34:0.71386748 35:0.77725144 36:0.81632225 37:0.50271078 
2.087320625331333 1:0.88015606 2:0.89715079 3:0.63867197 4:0.7644542 5:0.72293819 6:0.53826721 7:0.68843153 8:0.54650464 9:0.72604909 10:0.73636103 11:0.62836971 12:0.71275681 13:0.83510407 14:0.90949449 15:0.89789595 16:0.87444157 17:0.88015608 18:0.5063777 19:0.43955478 20:0.33338483 21:0.41750371 22:0.79629761 23:0.30912181 24:0.30425526 25:0.30495808 26:0.30470109 27:0.30817791 28:0.24296263 29:0.36904256 30:0.3977203 31:0.42627686 32:0.26969956 33:0.56108706 34:0.80534872 35:0.82945271 36:0.8427757 37:0.6211534 
-4 1:0.82072122 2:0.8310887 3:0.63867197 4:0.7644542 5:0.72293819 6:0.53826721 7:0.68843153 8:0.4846459 9:0.6684886 10:0.69103835 11:0.59941068 12:0.670045 13:0.76020133 14:0.83403257 15:0.83789201 16:0.83240062 17:0.82072122 18:0.36507605 19:0.32391533 20:0.33338483 21:0.41750371 22:0.58847824 23:0.30912181 24:0.30425526 25:0.30495808 26:0.30470109 27:0.30817791 28:0.15975379 29:0.2563001 30:0.29168533 31:0.33352802 32:0.18090209 33:0.37954061 34:0.57838652 35:0.62732256 36:0.66400909 37:0.42903612 
4 1:0.89605752 2:0.91933567 3:0.63867197 4:0.7644542 5:0.72293819 6:0.53826721 7:0.68843153 8:0.58852059 9:0.75065025 10:0.7458339 11:0.63201375 12:0.72418744 13:0.88575357 14:0.94145724 15:0.91041235 16:0.87974794 17:0.89605759 18:0.52848138 19:0.45764415 20:0.33338483 21:0.41750371 22:0.8186582 23:0.30912181 24:0.30425526 25:0.30495808 26:0.30470109 27:0.30817791 28:0.2597253 29:0.37866411 30:0.40557312 31:0.4328784 32:0.28493368 33:0.59773853 34:0.82497108 35:0.84464914 36:0.85568448 37:0.65423783 
4 1:0.31753089 2:0.28646781 3:0.63867197 4:0.7644542 5:0.72293819 6:0.53826721 7:0.68843153 8:0.077420891 9:0.16643012 10:0.30173462 11:0.35072634 12:0.30850423 13:0.27022893 14:0.18340124 15:0.32305766 16:0.4712945 17:0.31753091 18:0.12101498 19:0.12417891 20:0.33338483 21:0.41750371 22:0.25266185 23:0.30912181 24:0.30425526 25:0.30495808 26:0.30470109 27:0.30817791 28:0.065916196 29:0.08998186 30:0.10091263 31:0.1353773 32:0.07119404 33:0.17557698 34:0.24457414 35:0.26479895 36:0.28343749 37:0.19253347 
-4 1:0.67365792 2:0.67278652 3:0.63867197 4:0.7644542 5:0.72293819 6:0.53826721 7:0.68843153 8:0.36304589 9:0.52471098 10:0.58183966 11:0.52122336 12:0.56350185 13:0.61376742 14:0.64767198 15:0.69529329 16:0.72078682 17:0.67365795 18:0.237692 19:0.21966587 20:0.33338483 21:0.41750371 22:0.51684789 23:0.30912181 24:0.30425526 25:0.30495808 26:0.30470109 27:0.30817791 28:0.13049098 29:0.2188967 30:0.25445936 31:0.29995354 32:0.15002077 33:0.31612019 34:0.50366746 35:0.55710982 36:0.60019591 37:0.36266908 
-4 1:0.76119351 2:0.76431073 3:0.63867197 4:0.7644542 5:0.72293819 6:0.53826721 7:0.68843153 8:0.42148927 9:0.60740256 10:0.64699509 11:0.570123 12:0.62691598 13:0.68349824 14:0.75391003 15:0.78032896 16:0.79040386 17:0.76119354 18:0.29986829 19:0.27055014 20:0.33338483 21:0.41750371 22:0.50411485 23:0.30912181 24:0.30425526 25:0.30495808 26:0.30470109 27:0.30817791 28:0.13187555 29:0.21226945 30:0.24513802 31:0.28935371 32:0.14965226 33:0.31894999 34:0.49028341 35:0.53925349 36:0.57960521 37:0.36172499 
4 1:0.88299287 2:0.9038838 3:0.63867197 4:0.7644542 5:0.72293819 6:0.53826721 7:0.68843153 8:0.57200348 9:0.73437205 10:0.73570061 11:0.62722321 12:0.7147537 13:0.86586156 14:0.92037819 15:0.89709396 16:0.87281355 17:0.88299291 18:0.5034258 19:0.43713898 20:0.33338483 21:0.41750371 22:0.80010947 23:0.30912181 24:0.30425526 25:0.30495808 26:0.30470109 27:0.30817791 28:0.24990068 29:0.36739085 30:0.39721177 31:0.42745235 32:0.27496934 33:0.57632897 34:0.80238199 35:0.82883625 36:0.84535712 37:0.63272347 
-4 1:0.79031698 2:0.76790797 3:0.63867197 4:0.7644542 5:0.72293819 6:0.53826721 7:0.68843153 8:0.30137264 9:0.56025184 10:0.7001641 11:0.60652894 12:0.64825336 13:0.54004971 14:0.69413882 15:0.84983234 16:0.84289865 17:0.79031703 18:0.18400326 19:0.1757277 20:0.33338483 21:0.41750371 22:0.5059938 23:0.30912181 24:0.30425526 25:0.30495808 26:0.30470109 27:0.30817791 28:0.12026984 29:0.21306858 30:0.2513564 31:0.30032506 32:0.14083793 33:0.29374774 34:0.4916341 35:0.55074698 36:0.60034096 37:0.34268458 
4 1:0.92243047 2:0.91382756 3:0.63867197 4:0.7644542 5:0.72293819 6:0.53826721 7:0.68843153 8:0.42823293 9:0.69861513 10:0.78919741 11:0.67614303 12:0.74317656 13:0.6930145 14:0.87434875 15:0.96766033 16:0.94414397 17:0.92243046 18:0.21931482 19:0.20462622 20:0.33338483 21:0.41750371 22:0.82668222 23:0.30912181 24:0.30425526 25:0.30495808 26:0.30470109 27:0.30817791 28:0.2188906 29:0.38914719 30:0.42810015 31:0.46315953 32:0.25507574 33:0.50922958 34:0.84624665 35:0.88769226 36:0.91411156 37:0.59010481 
-4 1:0.1250531 2:0.098875741 3:0.63867197 4:0.7644542 5:0.72293819 6:0.53826721 7:0.68843153 8:0.018691674 9:0.041615784 10:0.1193355 11:0.24365494 12:0.16987642 13:0.19981334 14:0.023026768 15:0.082860059 16:0.3145016 17:0.12505308 18:0.054995492 19:0.070149414 20:0.33338483 21:0.41750371 22:0.19980694 23:0.30912181 24:0.30425526 25:0.30495808 26:0.30470109 27:0.30817791 28:0.059021956 29:0.068369487 30:0.068665067 31:0.09260608 32:0.060746054 33:0.16054774 34:0.20098277 35:0.2031912 36:0.20086383 37:0.16993945 
-4 1:0.81607863 2:0.82263666 3:0.63867197 4:0.7644542 5:0.72293819 6:0.53826721 7:0.68843153 8:0.47480477 9:0.64883911 10:0.68753571 11:0.60296142 12:0.66676574 13:0.74787866 14:0.80814948 15:0.8332853 16:0.83745725 17:0.81607863 18:0.37290595 19:0.33032322 20:0.33338483 21:0.41750371 22:0.69980215 23:0.30912181 24:0.30425526 25:0.30495808 26:0.30470109 27:0.30817791 28:0.19008852 29:0.31579579 30:0.35522425 31:0.39395231 32:0.21730331 33:0.44587191 34:0.69829011 35:0.74863894 36:0.78071721 37:0.50793942 
-4 1:0.81026423 2:0.81585664 3:0.63867197 4:0.7644542 5:0.72293819 6:0.53826721 7:0.68843153 8:0.46607144 9:0.64381916 10:0.68093604 11:0.60145729 12:0.6625001 13:0.73761964 14:0.80176424 15:0.82471019 16:0.83537898 17:0.81026426 18:0.39597397 19:0.3492018 20:0.33338483 21:0.41750371 22:0.65153919 23:0.30912181 24:0.30425526 25:0.30495808 26:0.30470109 27:0.30817791 28:0.1729966 29:0.2881965 30:0.32967339 31:0.3730422 32:0.19821232 33:0.40799835 34:0.64240671 35:0.69964219 36:0.74010108 37:0.46610624 
4 1:0.3428936 2:0.30367773 3:0.63867197 4:0.7644542 5:0.72293819 6:0.53826721 7:0.68843153 8:0.065425912 9:0.15659692 10:0.31096091 11:0.38494177 12:0.32639422 13:0.25598332 14:0.17143728 15:0.33594665 16:0.52234787 17:0.34289356 18:0.12430368 19:0.12687034 20:0.33338483 21:0.41750371 22:0.3187469 23:0.30912181 24:0.30425526 25:0.30495808 26:0.30470109 27:0.30817791 28:0.078415582 29:0.11856778 30:0.14022012 31:0.1849439 32:0.087527884 33:0.20243519 34:0.30145841 35:0.33908923 36:0.37850082 37:0.22734287 
4 1:0.71364266 2:0.70084716 3:0.63867197 4:0.7644542 5:0.72293819 6:0.53826721 7:0.68843153 8:0.34716159 9:0.51662793 10:0.60518506 11:0.56903801 12:0.59297788 13:0.5944988 14:0.63698683 15:0.72467821 16:0.78833832 17:0.71364272 18:0.28341056 19:0.25708136 20:0.33338483 21:0.41750371 22:0.6322312 23:0.30912181 24:0.30425526 25:0.30495808 26:0.30470109 27:0.30817791 28:0.15793876 29:0.27324122 30:0.32216554 31:0.37457005 32:0.18358529 33:0.37582645 34:0.61277439 35:0.68577236 36:0.74350237 37:0.4351015 
-4 1:0.82142777 2:0.83394617 3:0.63867197 4:0.7644542 5:0.72293819 6:0.53826721 7:0.68843153 8:0.50143278 9:0.67001244 10:0.68926477 11:0.59919784 12:0.67050889 13:0.78058341 14:0.83620251 15:0.83570961 16:0.83208749 17:0.82142778 18:0.36669915 19:0.32524366 20:0.33338483 21:0.41750371 22:0.60377952 23:0.30912181 24:0.30425526 25:0.30495808 26:0.30470109 27:0.30817791 28:0.16938516 29:0.26375111 30:0.29800795 31:0.33850646 32:0.19003355 33:0.40046881 34:0.59344126 35:0.63947279 36:0.67372621 37:0.4487362 
4 1:0.89427018 2:0.91751189 3:0.63867197 4:0.7644542 5:0.72293819 6:0.53826721 7:0.68843153 8:0.58935557 9:0.74804577 10:0.74390308 11:0.6315566 12:0.72291638 13:0.88670525 14:0.93810538 15:0.90785036 16:0.87906637 17:0.89427021 18:0.53300035 19:0.46134241 20:0.33338483 21:0.41750371 22:0.82568658 23:0.30912181 24:0.30425526 25:0.30495808 26:0.30470109 27:0.30817791 28:0.26526026 29:0.38196709 30:0.40808898 31:0.43470078 32:0.28997776 33:0.60960616 34:0.83146969 35:0.84933822 36:0.8591203 37:0.66495784 
-4 1:0.81081441 2:0.82091617 3:0.63867197 4:0.7644542 5:0.72293819 6:0.53826721 7:0.68843153 8:0.48336148 9:0.65674295 10:0.68333528 11:0.59443827 12:0.66291504 13:0.75877022 14:0.81894687 15:0.82771828 16:0.82507853 17:0.81081441 18:0.35346164 19:0.31441025 20:0.33338483 21:0.41750371 22:0.57217367 23:0.30912181 24:0.30425526 25:0.30495808 26:0.30470109 27:0.30817791 28:0.15555556 29:0.24723584 30:0.28206609 31:0.32446493 32:0.17569765 33:0.37066742 34:0.56044117 35:0.60924184 36:0.6467494 37:0.41807443 
4 1:0.89032514 2:0.91257045 3:0.63867197 4:0.7644542 5:0.72293819 6:0.53826721 7:0.68843153 8:0.58048341 9:0.74413485 10:0.74148861 11:0.6297861 12:0.72008415 13:0.87606761 14:0.93305908 15:0.90463858 16:0.87645595 17:0.89032517 18:0.51959648 19:0.45037286 20:0.33338483 21:0.41750371 22:0.80263966 23:0.30912181 24:0.30425526 25:0.30495808 26:0.30470109 27:0.30817791 28:0.25093396 29:0.36993731 30:0.39860016 31:0.42751809 32:0.27624517 33:0.57853481 34:0.80733275 35:0.83127915 36:0.84527844 37:0.63540348 
-4 1:0.93158211 2:0.96750829 3:0.63867197 4:0.7644542 5:0.72293819 6:0.53826721 7:0.68843153 8:0.68314452 9:0.79546506 10:0.76810318 11:0.64282558 12:0.74972634 13:1 14:1 15:0.9398872 16:0.89547136 17:0.93158213 18:0.65388691 19:0.56027441 20:0.33338483 21:0.41750371 22:0.99999623 23:0.30912181 24:0.30425526 25:0.30495808 26:0.30470109 27:0.30817791 28:0.44422938 29:0.4474726 30:0.44941419 31:0.46193981 32:0.44485211 33:0.99999804 34:0.96357622 35:0.92824974 36:0.91169266 37:0.9999975 
-4 1:0.76883726 2:0.75170892 3:0.63867197 4:0.7644542 5:0.72293819 6:0.53826721 7:0.68843153 8:0.32259693 9:0.55458968 10:0.6778452 11:0.59051562 12:0.63299652 13:0.56545687 14:0.68716967 15:0.82030235 16:0.81886604 17:0.76883727 18:0.37135503 19:0.32905397 20:0.33338483 21:0.41750371 22:0.62893788 23:0.30912181 24:0.30425526 25:0.30495808 26:0.30470109 27:0.30817791 28:0.15056766 29:0.28057015 30:0.32302099 31:0.36809335 32:0.17882772 33:0.35999995 34:0.62734171 35:0.6871326 36:0.73072317 37:0.42495701 
-4 1:0.79058882 2:0.78654231 3:0.63867197 4:0.7644542 5:0.72293819 6:0.53826721 7:0.68843153 8:0.37536278 9:0.6241075 10:0.68236225 11:0.58856266 12:0.64827529 13:0.62879342 14:0.77655042 15:0.82667007 16:0.81684413 17:0.79058884 18:0.34730172 19:0.30936906 20:0.33338483 21:0.41750371 22:0.5699649 23:0.30912181 24:0.30425526 25:0.30495808 26:0.30470109 27:0.30817791 28:0.14669475 29:0.24862835 30:0.28414468 31:0.32707414 32:0.16894307 33:0.35110905 34:0.56308618 35:0.61320837 36:0.65189978 37:0.40322751 
4 1:0.88617459 2:0.90753834 3:0.63867197 4:0.7644542 5:0.72293819 6:0.53826721 7:0.68843153 8:0.57404212 9:0.7392857 10:0.73811825 11:0.62835247 12:0.71707322 13:0.8682856 14:0.9266871 15:0.90024197 16:0.87443438 17:0.88617455 18:0.51675434 19:0.44804689 20:0.33338483 21:0.41750371 22:0.81233909 23:0.30912181 24:0.30425526 25:0.30495808 26:0.30470109 27:0.30817791 28:0.25639815 29:0.37477991 30:0.40269599 31:0.43110575 32:0.2815477 33:0.59036922 34:0.81719317 35:0.83924085 36:0.85235397 37:0.64683998 
-4 1:0.8233668 2:0.83452427 3:0.63867197 4:0.7644542 5:0.72293819 6:0.53826721 7:0.68843153 8:0.49267777 9:0.66976761 10:0.69239828 11:0.60101233 12:0.67194654 13:0.77012433 14:0.83610183 15:0.83974839 16:0.83455534 17:0.82336686 18:0.37207069 19:0.32963966 20:0.33338483 21:0.41750371 22:0.59651428 23:0.30912181 24:0.30425526 25:0.30495808 26:0.30470109 27:0.30817791 28:0.1644669 29:0.25983254 30:0.29491038 31:0.33641642 32:0.18536146 33:0.39015907 34:0.58587382 35:0.63379627 36:0.66984771 37:0.43903758 
4 1:0.88885704 2:0.91071726 3:0.63867197 4:0.7644542 5:0.72293819 6:0.53826721 7:0.68843153 8:0.5790675 9:0.74133213 10:0.74011363 11:0.6296947 12:0.71902631 13:0.87440767 14:0.92945178 15:0.9028332 16:0.8763048 17:0.88885709 18:0.52286228 19:0.45304555 20:0.33338483 21:0.41750371 22:0.81945909 23:0.30912181 24:0.30425526 25:0.30495808 26:0.30470109 27:0.30817791 28:0.25987601 29:0.37820103 30:0.40609627 31:0.43417447 32:0.28501164 33:0.59818927 34:0.82410173 35:0.84567679 36:0.85819554 37:0.6545138 
4 1:0.74920969 2:0.72042752 3:0.45546817 4:0.55970039 5:0.56062029 6:0.44378929 7:0.53813607 8:0.19440777 9:0.35695706 10:0.52501758 11:0.53791495 12:0.51525723 13:0.56975574 14:0.5937166 15:0.77135337 16:0.84336869 17:0.74920971 18:0.32285541 19:0.27935585 20:0.40547909 21:0.45958703 22:0.6075064 23:0.71116892 24:0.62863971 25:0.58335283 26:0.54288292 27:0.69231723 28:0.15703272 29:0.43738104 30:0.52368443 31:0.56528402 32:0.21765641 33:0.20529327 34:0.601764 35:0.72860149 36:0.79385842 37:0.289025 
-4 1:0.83202986 2:0.83077608 3:0.45546817 4:0.55970039 5:0.56062029 6:0.44378929 7:0.53813607 8:0.30665566 9:0.48659481 10:0.58036595 11:0.54832408 12:0.56705401 13:0.71696855 14:0.79545947 15:0.85804018 16:0.8603014 17:0.83202986 18:0.41500592 19:0.35477063 20:0.40547909 21:0.45958703 22:0.68721349 23:0.71116892 24:0.62863971 25:0.58335283 26:0.54288292 27:0.69231723 28:0.23991149 29:0.51740298 30:0.56524395 31:0.58482174 32:0.29806173 33:0.31316843 34:0.7096492 35:0.78506391 36:0.8220835 37:0.39575505 
4 1:0.7113834 2:0.68988022 3:0.45546817 4:0.55970039 5:0.56062029 6:0.44378929 7:0.53813607 8:0.20318719 9:0.35363969 10:0.49865884 11:0.50899084 12:0.49192543 13:0.58123261 14:0.58828431 15:0.72922134 16:0.79554903 17:0.71138342 18:0.27421986 19:0.23955314 20:0.40547909 21:0.45958703 22:0.38637531 23:0.71116892 24:0.62863971 25:0.58335283 26:0.54288292 27:0.69231723 28:0.093904066 29:0.24885909 30:0.32826658 31:0.40161501 32:0.12910659 33:0.12313499 34:0.3464288 35:0.4610708 36:0.55494547 37:0.17143988 
-4 1:0.8559388 2:0.86630906 3:0.45546817 4:0.55970039 5:0.56062029 6:0.44378929 7:0.53813607 8:0.36723053 9:0.52663871 10:0.58989188 11:0.55141017 12:0.58186676 13:0.79641381 14:0.85803777 15:0.87320123 16:0.86543935 17:0.85593884 18:0.4500483 19:0.38344886 20:0.40547909 21:0.45958703 22:0.73544374 23:0.71116892 24:0.62863971 25:0.58335283 26:0.54288292 27:0.69231723 28:0.30169662 29:0.55382827 30:0.58765524 31:0.59913546 32:0.35403841 33:0.39360669 34:0.75913632 35:0.81585656 36:0.84306 37:0.47015573 
-4 1:0.44674468 2:0.40624829 3:0.45546817 4:0.55970039 5:0.56062029 6:0.44378929 7:0.53813607 8:0.05909678 9:0.13910491 10:0.2978632 11:0.40156325 12:0.32705961 13:0.39222415 14:0.25381288 15:0.41334144 16:0.61911662 17:0.44674466 18:0.18106125 19:0.16331334 20:0.40547909 21:0.45958703 22:0.18230545 23:0.71116892 24:0.62863971 25:0.58335283 26:0.54288292 27:0.69231723 28:0.034787774 29:0.10235067 30:0.15218817 31:0.22071872 32:0.050910038 33:0.046150326 34:0.14812907 35:0.22005561 36:0.29071527 37:0.067564807 
-4 1:0.47924947 2:0.44073205 3:0.45546817 4:0.55970039 5:0.56062029 6:0.44378929 7:0.53813607 8:0.073535601 9:0.16281939 10:0.32899497 11:0.41223463 12:0.34755499 13:0.41115337 14:0.29072399 15:0.46198702 16:0.63589474 17:0.47924949 18:0.14981658 19:0.1377431 20:0.40547909 21:0.45958703 22:0.1502707 23:0.71116892 24:0.62863971 25:0.58335283 26:0.54288292 27:0.69231723 28:0.030790679 29:0.08730265 30:0.12508193 31:0.17910469 32:0.044002577 33:0.040948008 34:0.12776584 35:0.18296324 36:0.22996688 37:0.058392553 
4 1:0.69254873 2:0.66931889 3:0.45546817 4:0.55970039 5:0.56062029 6:0.44378929 7:0.53813607 8:0.19473583 9:0.33660827 10:0.48093419 11:0.50295984 12:0.4796598 13:0.57019902 14:0.56239546 15:0.702471 16:0.78629732 17:0.69254875 18:0.26326272 19:0.23058596 20:0.40547909 21:0.45958703 22:0.39364258 23:0.71116892 24:0.62863971 25:0.58335283 26:0.54288292 27:0.69231723 28:0.095160153 29:0.25149865 30:0.33390614 31:0.41180152 32:0.13081891 33:0.12470349 34:0.35006581 35:0.46890914 36:0.5699368 37:0.17365512 
4 1:0.8552747 2:0.86505167 3:0.45546817 4:0.55970039 5:0.56062029 6:0.44378929 7:0.53813607 8:0.36723915 9:0.52356292 10:0.5889 11:0.55226271 12:0.58143828 13:0.79643082 14:0.85327957 15:0.87169026 16:0.86682397 17:0.85527472 18:0.45229845 19:0.38529036 20:0.40547909 21:0.45958703 22:0.7539111 23:0.71116892 24:0.62863971 25:0.58335283 26:0.54288292 27:0.69231723 28:0.32573971 29:0.56749272 30:0.5958734 31:0.60512922 32:0.3757266 33:0.42487746 34:0.77754204 35:0.82704945 36:0.85177879 37:0.49891622 
4 1:0.65925174 2:0.62193706 3:0.45546817 4:0.55970039 5:0.56062029 6:0.44378929 7:0.53813607 8:0.13183802 9:0.27945291 10:0.46500458 11:0.49979793 12:0.45962599 13:0.48761185 14:0.47245065 15:0.67590803 16:0.78011032 17:0.65925171 18:0.17848657 19:0.16120625 20:0.40547909 21:0.45958703 22:0.31447968 23:0.71116892 24:0.62863971 25:0.58335283 26:0.54288292 27:0.69231723 28:0.065996459 29:0.18970711 30:0.2667032 31:0.35145867 32:0.094859651 33:0.086808171 34:0.26635108 35:0.37676405 36:0.48161117 37:0.12596416 
-4 1:0.83974711 2:0.82218134 3:0.45546817 4:0.55970039 5:0.56062029 6:0.44378929 7:0.53813607 8:0.24842951 9:0.45045865 10:0.59341452 11:0.56861658 12:0.57223393 13:0.64050851 14:0.73874482 15:0.87819423 16:0.89266606 17:0.83974712 18:0.23362577 19:0.20633146 20:0.40547909 21:0.45958703 22:0.7174166 23:0.71116892 24:0.62863971 25:0.58335283 26:0.54288292 27:0.69231723 28:0.22366331 29:0.53858204 30:0.59870143 31:0.62878744 32:0.29002566 33:0.29206749 34:0.73818757 35:0.83068397 36:0.88611286 37:0.38510275 
-4 1:0.11418385 2:0.10768078 3:0.45546817 4:0.55970039 5:0.56062029 6:0.44378929 7:0.53813607 8:0.015859311 9:0.028914743 10:0.08212703 11:0.17067372 12:0.11861664 13:0.33552121 14:0.082322474 15:0.075967559 16:0.24400679 17:0.11418388 18:0.053513109 19:0.058929583 20:0.40547909 21:0.45958703 22:0.010317208 23:0.71116892 24:0.62863971 25:0.58335283 26:0.54288292 27:0.69231723 28:-6.9388939e-18 29:-1.3877788e-17 30:0.0036371091 31:0.03217474 32:-6.9388939e-18 33:0.000866656 34:0.010000769 35:0.017515115 36:0.016466741 37:6.9388939e-18 
-4 1:0.76368413 2:0.75054102 3:0.45546817 4:0.55970039 5:0.56062029 6:0.44378929 7:0.53813607 8:0.24323924 9:0.40873374 10:0.53926286 11:0.52318357 12:0.52408037 13:0.63384765 14:0.67467218 15:0.79406134 16:0.81957234 17:0.76368415 18:0.32351673 19:0.27989706 20:0.40547909 21:0.45958703 22:0.59255421 23:0.71116892 24:0.62863971 25:0.58335283 26:0.54288292 27:0.69231723 28:0.18175901 29:0.43563234 30:0.49650741 31:0.52990325 32:0.23581773 33:0.23747678 34:0.59927039 35:0.69135913 36:0.74223643 37:0.3131276 
-4 1:0.71498576 2:0.69719312 3:0.45546817 4:0.55970039 5:0.56062029 6:0.44378929 7:0.53813607 8:0.22537863 9:0.36285667 10:0.4965671 11:0.50986648 12:0.49444113 13:0.61026243 14:0.6023861 15:0.72543227 16:0.79654248 17:0.71498578 18:0.2859843 19:0.24918101 20:0.40547909 21:0.45958703 22:0.4492079 23:0.71116892 24:0.62863971 25:0.58335283 26:0.54288292 27:0.69231723 28:0.11403255 29:0.29974961 30:0.38368522 31:0.44993659 32:0.15560746 33:0.14943465 34:0.41495161 35:0.53627008 36:0.62474675 37:0.20670446 
4 1:0.53364845 2:0.50032384 3:0.45546817 4:0.55970039 5:0.56062029 6:0.44378929 7:0.53813607 8:0.10525132 9:0.20885383 10:0.37006038 11:0.43089332 12:0.38010148 13:0.45281104 14:0.36313496 15:0.5292294 16:0.66977711 17:0.53364842 18:0.17553635 19:0.15879183 20:0.40547909 21:0.45958703 22:0.29495755 23:0.71116892 24:0.62863971 25:0.58335283 26:0.54288292 27:0.69231723 28:0.061359847 29:0.18473457 30:0.25274993 31:0.32003543 32:0.089592331 33:0.080729808 34:0.26012324 35:0.35851134 36:0.43671595 37:0.11896887 
-4 1:0.71109746 2:0.69214891 3:0.45546817 4:0.55970039 5:0.56062029 6:0.44378929 7:0.53813607 8:0.21428232 9:0.35850431 10:0.49551199 11:0.50645547 12:0.49104064 13:0.59590601 14:0.59674075 15:0.72592922 16:0.79233948 17:0.71109749 18:0.27087611 19:0.23681666 20:0.40547909 21:0.45958703 22:0.51806971 23:0.71116892 24:0.62863971 25:0.58335283 26:0.54288292 27:0.69231723 28:0.1415177 29:0.35990681 30:0.43765767 31:0.49703709 32:0.18937367 33:0.1850939 34:0.49705697 35:0.61116184 36:0.69451503 37:0.25148411 
4 1:0.73038411 2:0.71497277 3:0.45546817 4:0.55970039 5:0.56062029 6:0.44378929 7:0.53813607 8:0.23138755 9:0.38143404 10:0.50944435 11:0.51256633 12:0.50356795 13:0.6182571 14:0.6318185 15:0.74664737 16:0.80168496 17:0.73038415 18:0.28836086 19:0.25112595 20:0.40547909 21:0.45958703 22:0.43190275 23:0.71116892 24:0.62863971 25:0.58335283 26:0.54288292 27:0.69231723 28:0.11394783 29:0.28649002 30:0.36537375 31:0.43294981 32:0.15264153 33:0.14921167 34:0.3973404 35:0.51182372 36:0.60065186 37:0.2026777 
4 1:0.85787847 2:0.8688993 3:0.45546817 4:0.55970039 5:0.56062029 6:0.44378929 7:0.53813607 8:0.37287154 9:0.5278615 10:0.5912308 11:0.55208304 12:0.58315814 13:0.80378696 14:0.85983622 15:0.87518937 16:0.86640647 17:0.85787851 18:0.45225348 19:0.38525355 20:0.40547909 21:0.45958703 22:0.74214839 23:0.71116892 24:0.62863971 25:0.58335283 26:0.54288292 27:0.69231723 28:0.31450762 29:0.55839976 30:0.58908778 31:0.5994614 32:0.36503654 33:0.41028736 34:0.76522581 35:0.81773237 36:0.84347265 37:0.48474456 
4 1:0.68414652 2:0.66031749 3:0.45546817 4:0.55970039 5:0.56062029 6:0.44378929 7:0.53813607 8:0.18619588 9:0.33066701 10:0.4790568 11:0.49764393 12:0.47489469 13:0.55895929 14:0.55265518 15:0.69847384 16:0.776865 17:0.68414652 18:0.2644549 19:0.23156162 20:0.40547909 21:0.45958703 22:0.3592072 23:0.71116892 24:0.62863971 25:0.58335283 26:0.54288292 27:0.69231723 28:0.085078408 29:0.22800062 30:0.30482364 31:0.37969578 32:0.11774008 33:0.11164945 34:0.31820766 35:0.42900273 36:0.52295476 37:0.15635273 
4 1:0.84936037 2:0.85833704 3:0.45546817 4:0.55970039 5:0.56062029 6:0.44378929 7:0.53813607 8:0.35842128 9:0.51982754 10:0.58584148 11:0.54924988 12:0.57780275 13:0.78485599 14:0.84736445 15:0.86678331 16:0.86185169 17:0.84936041 18:0.4496383 19:0.38311332 20:0.40547909 21:0.45958703 22:0.74231329 23:0.71116892 24:0.62863971 25:0.58335283 26:0.54288292 27:0.69231723 28:0.31292299 29:0.5594622 30:0.58957228 31:0.59986575 32:0.36395999 33:0.40822384 34:0.76667491 35:0.81841727 36:0.84408538 37:0.48331361 
-2.2423151276101696 1:0.93158211 2:0.96750829 3:0.45546817 4:0.55970039 5:0.56062029 6:0.44378929 7:0.53813607 8:0.52248959 9:0.61766818 10:0.63224539 11:0.56974197 12:0.62899848 13:1 14:1 15:0.9398872 16:0.89547136 17:0.93158213 18:0.63789563 19:0.53718069 20:0.40547909 21:0.45958703 22:0.99999865 23:0.71116892 24:0.62863971 25:0.58335283 26:0.54288292 27:0.69231723 28:0.76765285 29:0.70508336 30:0.66994787 31:0.64625799 32:0.75310235 33:1 34:0.96357869 35:0.92825209 36:0.91169507 37:0.99999999 
4 1:0.31608766 2:0.28222795 3:0.45546817 4:0.55970039 5:0.56062029 6:0.44378929 7:0.53813607 8:0.029886608 9:0.078504341 10:0.20296982 11:0.32532902 12:0.24545292 13:0.35388346 14:0.15925997 15:0.26443817 16:0.49464714 17:0.31608763 18:0.15728789 19:0.14385752 20:0.40547909 21:0.45958703 22:0.099010273 23:0.71116892 24:0.62863971 25:0.58335283 26:0.54288292 27:0.69231723 28:0.015946354 29:0.047326746 30:0.077956909 31:0.1385977 32:0.023804728 33:0.021631162 34:0.073931871 35:0.11894241 36:0.17137318 37:0.031608251 
-2.8620614555203741 1:0.67915369 2:0.64638398 3:0.45546817 4:0.55970039 5:0.56062029 6:0.44378929 7:0.53813607 8:0.14122434 9:0.29869915 10:0.50112514 11:0.49262194 12:0.47177733 13:0.49993319 14:0.50247376 15:0.73324723 16:0.76917105 17:0.6791537 18:0.28649044 19:0.24959522 20:0.40547909 21:0.45958703 22:0.45127646 23:0.71116892 24:0.62863971 25:0.58335283 26:0.54288292 27:0.69231723 28:0.10333957 29:0.30741127 30:0.38925693 31:0.45142486 32:0.14849254 33:0.13541736 34:0.42569687 35:0.54465715 36:0.62782451 37:0.19718852 
4 1:0.64057835 2:0.60379221 3:0.45546817 4:0.55970039 5:0.56062029 6:0.44378929 7:0.53813607 8:0.12243037 9:0.26900967 10:0.45492163 11:0.48645934 12:0.44730168 13:0.47531582 14:0.4569027 15:0.66163327 16:0.75926764 17:0.64057838 18:0.25436518 19:0.22330432 20:0.40547909 21:0.45958703 22:0.36702603 23:0.71116892 24:0.62863971 25:0.58335283 26:0.54288292 27:0.69231723 28:0.08362652 29:0.23347629 30:0.3124347 31:0.38881207 32:0.11779874 33:0.10971721 34:0.32587106 35:0.43976838 36:0.53658956 37:0.15641163 
4 1:0.69589709 2:0.67321069 3:0.45546817 4:0.55970039 5:0.56062029 6:0.44378929 7:0.53813607 8:0.19410839 9:0.34119194 10:0.48686358 11:0.50268038 12:0.48223464 13:0.56932621 14:0.56894535 15:0.71073619 16:0.78520844 17:0.69589707 18:0.27421659 19:0.23955046 20:0.40547909 21:0.45958703 22:0.37912213 23:0.71116892 24:0.62863971 25:0.58335283 26:0.54288292 27:0.69231723 28:0.09160884 29:0.24328771 30:0.32213957 31:0.39561679 32:0.12612373 33:0.12015509 34:0.33886941 35:0.45266748 36:0.54617549 37:0.16748515 
4 1:0.8418122 2:0.8480543 3:0.45546817 4:0.55970039 5:0.56062029 6:0.44378929 7:0.53813607 8:0.34601199 9:0.5078987 10:0.58159591 11:0.54800867 12:0.57306362 13:0.76857904 14:0.82881364 15:0.86015415 16:0.85987122 17:0.84181224 18:0.43235567 19:0.36896944 20:0.40547909 21:0.45958703 22:0.71950836 23:0.71116892 24:0.62863971 25:0.58335283 26:0.54288292 27:0.69231723 28:0.2886415 29:0.53929925 30:0.57732707 31:0.59274249 32:0.34090413 33:0.37660306 34:0.73938688 35:0.80167143 36:0.83369656 37:0.45267871 
4 1:0.83476713 2:0.83289085 3:0.38697087 4:0.40406175 5:0.34307762 6:0.28308569 7:0.35261693 8:0.25667796 9:0.36045275 10:0.41300932 11:0.43435863 12:0.43017878 13:0.72357359 14:0.77841555 15:0.86208626 16:0.87239853 17:0.83476714 18:0.55009037 19:0.46946234 20:0.0079119363 22:0.84313131 23:0.26313192 24:0.30791748 25:0.351352 26:0.41371961 27:0.27454534 28:0.24658281 29:0.39215264 30:0.4511961 31:0.52323644 32:0.27902112 33:0.62672652 34:0.84888801 35:0.86664947 36:0.87347944 37:0.68758404 
4 1:0.88527745 2:0.90435319 3:0.38697087 4:0.40406175 5:0.34307762 6:0.28308569 7:0.35261693 8:0.35953712 9:0.43576731 10:0.4322277 11:0.43852674 12:0.45705775 13:0.86121338 14:0.91271281 15:0.89978062 16:0.8793501 17:0.8852775 18:0.61170848 19:0.51920748 20:0.0079119363 22:0.83837256 23:0.26313192 24:0.30791748 25:0.351352 26:0.41371961 27:0.27454534 28:0.2546087 29:0.38847386 30:0.44324972 31:0.51510081 32:0.28448845 33:0.64447459 34:0.84091542 35:0.85205633 36:0.85942566 37:0.69902641 
4 1:0.79528736 2:0.79754361 3:0.38697087 4:0.40406175 5:0.34307762 6:0.28308569 7:0.35261693 8:0.26416966 9:0.35365501 10:0.38682944 11:0.41306894 12:0.41007012 13:0.73375531 14:0.76618537 15:0.8075169 16:0.82797766 17:0.79528736 18:0.42688688 19:0.36984974 20:0.0079119363 22:0.58593281 23:0.26313192 24:0.30791748 25:0.351352 26:0.41371961 27:0.27454534 28:0.16274561 29:0.24978495 30:0.3007674 31:0.37542694 32:0.18296797 33:0.43276571 34:0.57008483 35:0.60364038 36:0.63087329 37:0.47246921 
4 1:0.89235878 2:0.91642705 3:0.38697087 4:0.40406175 5:0.34307762 6:0.28308569 7:0.35261693 8:0.38899275 9:0.44665798 10:0.43283583 11:0.43784833 12:0.46036141 13:0.90094116 14:0.93365999 15:0.90231807 16:0.87830895 17:0.8923588 18:0.60485442 19:0.51359821 20:0.0079119363 22:0.84136422 23:0.26313192 24:0.30791748 25:0.351352 26:0.41371961 27:0.27454534 28:0.25611154 29:0.38749992 30:0.44452679 31:0.51822237 32:0.28560879 33:0.64875391 34:0.83968168 35:0.85483143 36:0.86506377 37:0.70230643 
-4 1:0.81751939 2:0.82807149 3:0.38697087 4:0.40406175 5:0.34307762 6:0.28308569 7:0.35261693 8:0.32113377 9:0.38861628 10:0.40037417 11:0.41746697 12:0.42580364 13:0.80862361 14:0.82274678 15:0.82453031 16:0.82396768 17:0.8175194 18:0.4596527 19:0.39666486 20:0.0079119363 22:0.70732841 23:0.26313192 24:0.30791748 25:0.351352 26:0.41371961 27:0.27454534 28:0.2028287 29:0.31822542 30:0.37765054 31:0.45591748 32:0.22921738 33:0.52003446 34:0.69675636 35:0.72977482 36:0.75296662 37:0.5699891 
-4 1:0.80001676 2:0.80325895 3:0.38697087 4:0.40406175 5:0.34307762 6:0.28308569 7:0.35261693 8:0.278972 9:0.35706428 10:0.38981517 11:0.41545012 12:0.41362765 13:0.75296619 14:0.77055913 15:0.81096482 16:0.82941231 17:0.80001681 18:0.45099971 19:0.38790863 20:0.0079119363 22:0.65418662 23:0.26313192 24:0.30791748 25:0.351352 26:0.41371961 27:0.27454534 28:0.18292331 29:0.2845316 30:0.34301017 31:0.42403156 32:0.20649614 33:0.47801279 34:0.63621492 35:0.67533614 36:0.7080577 37:0.52356748 
-4 1:0.88723394 2:0.90982062 3:0.38697087 4:0.40406175 5:0.34307762 6:0.28308569 7:0.35261693 8:0.38330989 9:0.43969186 10:0.43045992 11:0.43704314 12:0.45767113 13:0.89323648 14:0.92097452 15:0.89742501 16:0.87701324 17:0.88723396 18:0.63177192 19:0.5375336 20:0.0079119363 22:0.88379443 23:0.26313192 24:0.30791748 25:0.351352 26:0.41371961 27:0.27454534 28:0.27903113 29:0.41297594 30:0.46455625 31:0.53312698 32:0.3087639 33:0.70100482 34:0.88895557 35:0.88947199 36:0.88930623 37:0.75344398 
-4 1:0.84988692 2:0.84119406 3:0.38697087 4:0.40406175 5:0.34307762 6:0.28308569 7:0.35261693 8:0.22826357 9:0.35672202 10:0.42288924 11:0.4483854 12:0.43832768 13:0.68536243 14:0.77164251 15:0.88166932 16:0.89901009 17:0.84988697 18:0.21485294 19:0.19442603 20:0.0079119363 22:0.85076998 23:0.26313192 24:0.30791748 25:0.351352 26:0.41371961 27:0.27454534 28:0.23659757 29:0.3866231 30:0.46161813 31:0.55098674 32:0.27080682 33:0.60384179 34:0.83838769 35:0.88520055 36:0.91942956 37:0.66942638 
4 1:0.92120957 2:0.91509447 3:0.38697087 4:0.40406175 5:0.34307762 6:0.28308569 7:0.35261693 8:0.26586778 9:0.39708086 10:0.4558601 11:0.48219686 12:0.47513978 13:0.73600582 14:0.84479829 15:0.94989947 16:0.96734745 17:0.92120956 18:0.22154522 19:0.19990291 20:0.0079119363 22:0.98085991 23:0.26313192 24:0.30791748 25:0.351352 26:0.41371961 27:0.27454534 28:0.29540027 29:0.46930286 30:0.52724051 31:0.59988297 32:0.33354639 33:0.73935213 34:1 35:1 36:1 37:0.80948968 
4 1:0.27289019 2:0.24627871 3:0.38697087 4:0.40406175 5:0.34307762 6:0.28308569 7:0.35261693 8:0.014496091 9:0.036332215 10:0.10232497 11:0.19997387 12:0.14120047 13:0.39849109 14:0.19265116 15:0.21792674 16:0.39304562 17:0.27289019 18:0.074648034 19:0.079684152 20:0.0079119363 22:0.19494978 23:0.26313192 24:0.30791748 25:0.351352 26:0.41371961 27:0.27454534 28:0.056275053 29:0.065782918 30:0.067760443 31:0.092564881 32:0.058113954 33:0.18426739 34:0.20651969 35:0.19251411 36:0.16196727 37:0.19036118 
-4 1:0.78690983 2:0.77808258 3:0.38697087 4:0.40406175 5:0.34307762 6:0.28308569 7:0.35261693 8:0.22058732 9:0.32375595 10:0.39034328 11:0.41948487 12:0.40698725 13:0.67453512 14:0.70864606 15:0.81017783 16:0.83921378 17:0.78690983 18:0.41769455 19:0.36042899 20:0.0079119363 22:0.7609968 23:0.26313192 24:0.30791748 25:0.351352 26:0.41371961 27:0.27454534 28:0.21615036 29:0.34579328 30:0.407184 31:0.48256884 32:0.24548952 33:0.55464272 34:0.75610719 35:0.78797385 36:0.80513288 37:0.61073146 
-3.0599563978442141 1:0.88622555 2:0.90764401 3:0.38697087 4:0.40406175 5:0.34307762 6:0.28308569 7:0.35261693 8:0.37918315 9:0.43760377 10:0.43055727 11:0.43799072 12:0.45759978 13:0.88747313 14:0.91565175 15:0.89642877 16:0.8782404 17:0.88622558 18:0.62728825 19:0.53383632 20:0.0079119363 22:0.86731033 23:0.26313192 24:0.30791748 25:0.351352 26:0.41371961 27:0.27454534 28:0.26783504 29:0.40534214 30:0.45905951 31:0.52828182 32:0.29838591 33:0.6737548 34:0.87302801 35:0.87912697 36:0.88066745 37:0.72894128 
-4 1:0.48312597 2:0.44266712 3:0.38697087 4:0.40406175 5:0.34307762 6:0.28308569 7:0.35261693 8:0.042164387 9:0.10445857 10:0.21833175 11:0.31948517 12:0.2527165 13:0.43547256 14:0.31356583 15:0.45074994 16:0.62414358 17:0.48312596 18:0.22974788 19:0.20661586 20:0.0079119363 22:0.52725293 23:0.26313192 24:0.30791748 25:0.351352 26:0.41371961 27:0.27454534 28:0.1490085 29:0.22307011 30:0.26947071 31:0.33864137 32:0.16634413 33:0.39678442 34:0.51188243 35:0.54224019 36:0.56258223 37:0.43051994 
-4 1:0.75472453 2:0.74128096 3:0.38697087 4:0.40406175 5:0.34307762 6:0.28308569 7:0.35261693 8:0.20556874 9:0.29458099 10:0.37326355 11:0.41122164 12:0.39137679 13:0.65396916 14:0.65400981 15:0.77295218 16:0.81962178 17:0.75472456 18:0.36249595 19:0.31525517 20:0.0079119363 22:0.77211181 23:0.26313192 24:0.30791748 25:0.351352 26:0.41371961 27:0.27454534 28:0.22109155 29:0.35102576 30:0.41304321 31:0.49021813 32:0.25053595 33:0.56553096 34:0.76561936 35:0.79765771 36:0.81735165 37:0.6214498 
4 1:0.85100848 2:0.86607247 3:0.38697087 4:0.40406175 5:0.34307762 6:0.28308569 7:0.35261693 8:0.33826865 9:0.40717265 10:0.41331178 11:0.42712828 12:0.43903339 13:0.83297889 14:0.86229354 15:0.86174584 16:0.85648314 17:0.85100849 18:0.50876334 19:0.43495851 20:0.0079119363 22:0.70857967 23:0.26313192 24:0.30791748 25:0.351352 26:0.41371961 27:0.27454534 28:0.20192043 29:0.31318013 30:0.37242023 31:0.45236795 32:0.22747847 33:0.52372795 34:0.69444789 35:0.7290101 36:0.75717405 37:0.5724511 
4 1:0.89779901 2:0.92320753 3:0.38697087 4:0.40406175 5:0.34307762 6:0.28308569 7:0.35261693 8:0.39853461 9:0.45065333 10:0.43568303 11:0.43920109 12:0.46317733 13:0.91371587 14:0.94075485 15:0.90810682 16:0.88129565 17:0.89779902 18:0.64422552 19:0.54581901 20:0.0079119363 22:0.88135486 23:0.26313192 24:0.30791748 25:0.351352 26:0.41371961 27:0.27454534 28:0.27906499 29:0.41088266 30:0.46263951 31:0.53152293 32:0.30837819 33:0.70137994 34:0.88509052 35:0.88623751 36:0.8866993 37:0.7528558 
4 1:0.8445878 2:0.85872651 3:0.38697087 4:0.40406175 5:0.34307762 6:0.28308569 7:0.35261693 8:0.33053697 9:0.40270159 10:0.41115241 11:0.42432736 12:0.43573294 13:0.82267985 14:0.85445375 15:0.85713779 16:0.85038259 17:0.84458781 18:0.488849 19:0.41866087 20:0.0079119363 22:0.67849646 23:0.26313192 24:0.30791748 25:0.351352 26:0.41371961 27:0.27454534 28:0.19188678 29:0.29738097 30:0.35492632 31:0.4339718 32:0.21618979 33:0.50054478 34:0.6636119 35:0.69856836 36:0.72714207 37:0.54722003 
-4 1:0.89421839 2:0.91878909 3:0.38697087 4:0.40406175 5:0.34307762 6:0.28308569 7:0.35261693 8:0.39210371 9:0.44799798 10:0.43334002 11:0.43828416 12:0.46114308 13:0.90516834 14:0.93641071 15:0.90378608 16:0.87972696 17:0.89421838 18:0.64141617 19:0.54351988 20:0.0079119363 22:0.87862846 23:0.26313192 24:0.30791748 25:0.351352 26:0.41371961 27:0.27454534 28:0.27671122 29:0.41008834 30:0.46170097 31:0.53038333 32:0.30633062 33:0.69600865 34:0.8835748 35:0.88464966 36:0.88489237 37:0.74833581 
-4 1:0.93158211 2:0.96750829 3:0.38697087 4:0.40406175 5:0.34307762 6:0.28308569 7:0.35261693 8:0.46242299 9:0.48252019 10:0.45016525 11:0.44542935 12:0.47997648 13:1 14:1 15:0.9398872 16:0.89547136 17:0.93158213 18:0.78200572 19:0.66857655 20:0.0079119363 22:0.99999676 23:0.26313192 24:0.30791748 25:0.351352 26:0.41371961 27:0.27454534 28:0.40723336 29:0.45038111 30:0.48616585 31:0.5463048 32:0.41786403 33:0.99999782 34:0.96357631 35:0.92825026 36:0.91169436 37:0.99999734 
4 1:0.49409506 2:0.44289591 3:0.38697087 4:0.40406175 5:0.34307762 6:0.28308569 7:0.35261693 8:0.027572416 9:0.079119056 10:0.21473561 11:0.34096847 12:0.25717345 13:0.41606269 14:0.26923061 15:0.44527044 16:0.67070931 17:0.49409509 18:0.28748799 19:0.25386962 20:0.0079119363 22:0.4325422 23:0.26313192 24:0.30791748 25:0.351352 26:0.41371961 27:0.27454534 28:0.12033912 29:0.17545341 30:0.21143385 31:0.27208398 32:0.13328389 33:0.33211028 34:0.42082379 35:0.44323894 36:0.45623967 37:0.35830712 
4 1:0.73048271 2:0.70427103 3:0.38697087 4:0.40406175 5:0.34307762 6:0.28308569 7:0.35261693 8:0.12718785 9:0.24694737 10:0.37748336 11:0.40413292 12:0.37684609 13:0.54984172 14:0.57267907 15:0.78558105 16:0.80982246 17:0.73048273 18:0.42711326 19:0.36813714 20:0.0079119363 22:0.67407376 23:0.26313192 24:0.30791748 25:0.351352 26:0.41371961 27:0.27454534 28:0.17804319 29:0.29412466 30:0.35891221 31:0.44639304 32:0.204884 33:0.46751599 34:0.65605459 35:0.70447613 36:0.7464612 37:0.52084191 
-4 1:0.83857397 2:0.84321339 3:0.38697087 4:0.40406175 5:0.34307762 6:0.28308569 7:0.35261693 8:0.26159081 9:0.38985778 10:0.41466727 11:0.4273775 12:0.43254111 13:0.73018541 14:0.8311274 15:0.86469326 16:0.85683557 17:0.83857397 18:0.54415356 19:0.46581927 20:0.0079119363 22:0.80028443 23:0.26313192 24:0.30791748 25:0.351352 26:0.41371961 27:0.27454534 28:0.22991851 29:0.36446269 30:0.42782349 31:0.50681222 32:0.26037597 33:0.58790771 34:0.79420295 35:0.82528288 36:0.84599381 37:0.6455075 
-4 1:0.89469865 2:0.91913453 3:0.38697087 4:0.40406175 5:0.34307762 6:0.28308569 7:0.35261693 8:0.39264037 9:0.44769843 10:0.43367971 11:0.43879014 12:0.46148641 13:0.90583617 14:0.93563435 15:0.90421957 16:0.88059136 17:0.89469865 18:0.65235003 19:0.55448917 20:0.0079119363 22:0.89653748 23:0.26313192 24:0.30791748 25:0.351352 26:0.41371961 27:0.27454534 28:0.2882212 29:0.42020171 30:0.46894084 31:0.53575771 32:0.31741671 33:0.72239563 34:0.9032809 35:0.89728692 36:0.89373303 37:0.77296493 
4 1:0.85406069 2:0.8695239 3:0.38697087 4:0.40406175 5:0.34307762 6:0.28308569 7:0.35261693 8:0.33824849 9:0.41067297 10:0.41471528 11:0.42795425 12:0.44051263 13:0.83299835 14:0.86886015 15:0.86497303 16:0.85829119 17:0.8540607 18:0.5127613 19:0.43823038 20:0.0079119363 22:0.70758973 23:0.26313192 24:0.30791748 25:0.351352 26:0.41371961 27:0.27454534 28:0.20111033 29:0.31292866 30:0.37204397 31:0.45169419 32:0.22677276 33:0.52199418 34:0.69405393 35:0.72842912 36:0.75613045 37:0.57100088 
4 1:0.89188402 2:0.91591684 3:0.38697087 4:0.40406175 5:0.34307762 6:0.28308569 7:0.35261693 8:0.38936611 9:0.44535188 10:0.43227343 11:0.43775657 12:0.45992478 13:0.90152089 14:0.93156481 15:0.90157517 16:0.87886761 17:0.89188405 18:0.63703398 19:0.53993354 20:0.0079119363 22:0.881326 23:0.26313192 24:0.30791748 25:0.351352 26:0.41371961 27:0.27454534 28:0.27649554 29:0.41139896 30:0.46380121 31:0.5326955 32:0.30646111 33:0.69576518 34:0.88635701 35:0.88850502 36:0.88885802 37:0.74887312 
4 1:0.52300741 2:0.45169404 3:0.88424929 4:0.72866881 5:0.56484256 6:0.43746082 7:0.59289561 8:0.12122498 9:0.19217342 10:0.37181801 11:0.4818171 12:0.40422061 13:0.15258568 14:0.23455612 15:0.52677793 16:0.75881079 17:0.5230074 18:0.21278412 19:0.21002441 20:0.18724756 21:0.16917383 22:0.37300033 23:0.83069973 24:0.70400618 25:0.65231696 26:0.60416219 27:0.80266995 28:0.055345557 29:0.24311728 30:0.36517054 31:0.46700409 32:0.099347349 33:0.060415338 34:0.30786964 35:0.46908933 36:0.60060195 37:0.11276197 
4 1:0.7721784 2:0.73979662 3:0.88424929 4:0.72866881 5:0.56484256 6:0.43746082 7:0.59289561 8:0.34967648 9:0.50549669 10:0.56964324 11:0.54636358 12:0.5680685 13:0.40180918 14:0.65375932 15:0.83643381 16:0.86505743 17:0.77217842 18:0.36093524 19:0.33126938 20:0.18724756 21:0.16917383 22:0.69832034 23:0.83069973 24:0.70400618 25:0.65231696 26:0.60416219 27:0.80266995 28:0.19772512 29:0.5997332 30:0.64942276 31:0.65665813 32:0.28102091 33:0.22590561 34:0.75599898 35:0.83224963 36:0.86089581 37:0.32992533 
4 1:0.82243416 2:0.81736922 3:0.88424929 4:0.72866881 5:0.56484256 6:0.43746082 7:0.59289561 8:0.54594039 9:0.6149889 10:0.58255777 11:0.5454938 12:0.60119164 13:0.61568128 14:0.80010901 15:0.8565942 16:0.86361102 17:0.82243419 18:0.40714526 19:0.36908706 20:0.18724756 21:0.16917383 22:0.71849412 23:0.83069973 24:0.70400618 25:0.65231696 26:0.60416219 27:0.80266995 28:0.27893552 29:0.60557896 30:0.63945942 31:0.645803 32:0.34629831 33:0.3202859 34:0.76329824 35:0.81947244 36:0.84595188 37:0.40793426 
4 1:0.59639899 2:0.54753913 3:0.88424929 4:0.72866881 5:0.56484256 6:0.43746082 7:0.59289561 8:0.21879342 9:0.33078369 10:0.43694893 11:0.47747892 12:0.4526114 13:0.25896989 14:0.41986257 15:0.62854367 16:0.75141252 17:0.59639899 18:0.21953861 19:0.2155522 20:0.18724756 21:0.16917383 22:0.31640327 23:0.83069973 24:0.70400618 25:0.65231696 26:0.60416219 27:0.80266995 28:0.064790562 29:0.21618924 30:0.29895349 31:0.38645313 32:0.099539118 33:0.071400312 34:0.27395142 35:0.38431424 36:0.48973503 37:0.11299469 
4 1:0.84404403 2:0.85098903 3:0.88424929 4:0.72866881 5:0.56484256 6:0.43746082 7:0.59289561 8:0.64753266 9:0.65196273 10:0.58867791 11:0.546357 12:0.61542222 13:0.72637714 14:0.84956941 15:0.86615614 16:0.86502051 17:0.84404404 18:0.43240165 19:0.38975656 20:0.18724756 21:0.16917383 22:0.74197099 23:0.83069973 24:0.70400618 25:0.65231696 26:0.60416219 27:0.80266995 28:0.31881402 29:0.62060785 30:0.64993604 31:0.65287837 32:0.38093079 33:0.36662907 34:0.78216951 35:0.8328487 36:0.85566041 37:0.44932068 
-4 1:0.22708566 2:0.16349172 3:0.88424929 4:0.72866881 5:0.56484256 6:0.43746082 7:0.59289561 8:0.022416249 9:0.052812601 10:0.13963448 11:0.30468761 12:0.20933831 13:0.04496143 14:0.048266153 15:0.16395474 16:0.46760498 17:0.22708568 18:0.15668683 19:0.16411512 20:0.18724756 21:0.16917383 22:0.11047322 23:0.83069973 24:0.70400618 25:0.65231696 26:0.60416219 27:0.80266995 28:0.024923259 29:0.063806036 30:0.099272014 31:0.16987217 32:0.034610061 33:0.025055272 34:0.082576568 35:0.12948818 36:0.1928707 37:0.035383867 
4 1:0.78952043 2:0.77974644 3:0.88424929 4:0.72866881 5:0.56484256 6:0.43746082 7:0.59289561 8:0.51104537 9:0.57664559 10:0.5602846 11:0.53377874 12:0.57949574 13:0.57773062 14:0.74887161 15:0.8217979 16:0.84436809 17:0.78952046 18:0.37014097 19:0.33880322 20:0.18724756 21:0.16917383 22:0.65789958 23:0.83069973 24:0.70400618 25:0.65231696 26:0.60416219 27:0.80266995 28:0.22582955 29:0.54549894 30:0.59698156 31:0.61801311 32:0.29268374 33:0.25856018 34:0.68785214 35:0.76527456 36:0.80787615 37:0.34385654 
4 1:0.640499 2:0.59256366 3:0.88424929 4:0.72866881 5:0.56484256 6:0.43746082 7:0.59289561 8:0.23865009 9:0.36146215 10:0.47135656 11:0.49976126 12:0.48150254 13:0.28066348 14:0.46096847 15:0.68257856 16:0.78832373 17:0.64049904 18:0.24336166 19:0.23504867 20:0.18724756 21:0.16917383 22:0.41015799 23:0.83069973 24:0.70400618 25:0.65231696 26:0.60416219 27:0.80266995 28:0.08493387 29:0.29067932 30:0.39127119 31:0.47654437 32:0.13146902 33:0.094801547 34:0.36758234 35:0.50236092 36:0.61357308 37:0.15114775 
4 1:0.62734568 2:0.56425574 3:0.88424929 4:0.72866881 5:0.56484256 6:0.43746082 7:0.59289561 8:0.14850889 9:0.30182711 10:0.47429471 11:0.51033784 12:0.47272224 13:0.18235784 14:0.38138867 15:0.68740883 16:0.8058786 17:0.62734565 18:0.16866369 19:0.17391682 20:0.18724756 21:0.16917383 22:0.40051233 23:0.83069973 24:0.70400618 25:0.65231696 26:0.60416219 27:0.80266995 28:0.073663692 29:0.27508418 30:0.38410901 31:0.48043385 32:0.11979795 33:0.081687563 34:0.34806915 35:0.493392 36:0.61916311 37:0.1371851 
-4 1:0.81123922 2:0.7731749 3:0.88424929 4:0.72866881 5:0.56484256 6:0.43746082 7:0.59289561 8:0.31879263 9:0.51975081 10:0.60448378 11:0.57303886 12:0.59377782 13:0.36811744 14:0.67280313 15:0.89094401 16:0.90891798 17:0.81123925 18:0.2277887 19:0.22230396 20:0.18724756 21:0.16917383 22:0.76645274 23:0.83069973 24:0.70400618 25:0.65231696 26:0.60416219 27:0.80266995 28:0.21045553 29:0.66665056 30:0.71072627 31:0.71742021 32:0.30446101 33:0.24069699 34:0.84008385 35:0.91056218 36:0.94427611 37:0.35793747 
-4 1:0.12833054 2:0.079761848 3:0.88424929 4:0.72866881 5:0.56484256 6:0.43746082 7:0.59289561 8:0.021590994 9:0.036244236 10:0.10190795 11:0.20566508 12:0.14428168 13:0.044063746 14:0.026137569 15:0.10505913 16:0.30490537 17:0.12833052 18:0.062603789 19:0.087118767 20:0.18724756 21:0.16917383 22:0.026683894 23:0.83069973 24:0.70400618 25:0.65231696 26:0.60416219 27:0.80266995 28:0.011924439 29:0.017866561 30:0.023934071 31:0.057844681 32:0.013289076 33:0.0099496169 34:0.024877343 35:0.033322889 36:0.039303029 37:0.009904243 
-4 1:0.71648282 2:0.67750473 3:0.88424929 4:0.72866881 5:0.56484256 6:0.43746082 7:0.59289561 8:0.29206893 9:0.44813264 10:0.53252882 11:0.52352976 12:0.53140482 13:0.33901976 14:0.57700143 15:0.77842951 16:0.82754315 17:0.71648282 18:0.28836824 19:0.27188148 20:0.18724756 21:0.16917383 22:0.57382599 23:0.83069973 24:0.70400618 25:0.65231696 26:0.60416219 27:0.80266995 28:0.14297466 29:0.47015141 30:0.54149879 31:0.57683399 32:0.21233599 33:0.16226559 34:0.59319083 35:0.69441832 36:0.75138233 37:0.24782313 
1.1018844569114874 1:0.73422261 2:0.71146524 3:0.88424929 4:0.72866881 5:0.56484256 6:0.43746082 7:0.59289561 8:0.41483785 9:0.50149531 10:0.52664814 11:0.51914009 12:0.5429783 13:0.47293503 14:0.64854641 15:0.76933921 16:0.82043701 17:0.73422264 18:0.30866258 19:0.2884901 20:0.18724756 21:0.16917383 22:0.54582828 23:0.83069973 24:0.70400618 25:0.65231696 26:0.60416219 27:0.80266995 28:0.14718894 29:0.42586878 30:0.51157754 31:0.56381524 32:0.20753918 33:0.16714412 34:0.53757144 35:0.6562792 36:0.7336445 37:0.2420756 
-4 1:0.413659 2:0.34330668 3:0.88424929 4:0.72866881 5:0.56484256 6:0.43746082 7:0.59289561 8:0.065721135 9:0.13822385 10:0.28961737 11:0.4165647 12:0.33206279 13:0.092203628 14:0.16254564 15:0.39857216 16:0.6517446 17:0.41365904 18:0.16610666 19:0.17182418 20:0.18724756 21:0.16917383 22:0.24237349 23:0.83069973 24:0.70400618 25:0.65231696 26:0.60416219 27:0.80266995 28:0.042656766 29:0.14863441 30:0.22938456 31:0.3251226 32:0.068190025 33:0.045668562 34:0.18920602 35:0.29577376 36:0.40604853 37:0.075527658 
-4 1:0.70572685 2:0.66708633 3:0.88424929 4:0.72866881 5:0.56484256 6:0.43746082 7:0.59289561 8:0.30970132 9:0.43124422 10:0.5214979 11:0.52061591 12:0.52433209 13:0.35816159 14:0.55440411 15:0.76121147 16:0.82274729 17:0.70572684 18:0.26701226 19:0.25440402 20:0.18724756 21:0.16917383 22:0.55009756 23:0.83069973 24:0.70400618 25:0.65231696 26:0.60416219 27:0.80266995 28:0.12681853 29:0.43952529 30:0.52405288 31:0.56934861 32:0.19392876 33:0.14348623 34:0.55473056 35:0.67215496 36:0.74113024 37:0.22582198 
4 1:0.7522831 2:0.73389318 3:0.88424929 4:0.72866881 5:0.56484256 6:0.43746082 7:0.59289561 8:0.4473653 9:0.52607792 10:0.53793464 11:0.523929 12:0.55507395 13:0.50810793 14:0.68114193 15:0.78674338 16:0.82809137 17:0.75228313 18:0.32173784 19:0.29919073 20:0.18724756 21:0.16917383 22:0.56357802 23:0.83069973 24:0.70400618 25:0.65231696 26:0.60416219 27:0.80266995 28:0.16312495 29:0.44373995 30:0.52389571 31:0.57186675 32:0.22358498 33:0.18568832 34:0.55991678 35:0.67179945 36:0.74442128 37:0.26125829 
-4 1:0.86563962 2:0.87906323 3:0.88424929 4:0.72866881 5:0.56484256 6:0.43746082 7:0.59289561 8:0.70342358 9:0.67873571 10:0.60109115 11:0.55131018 12:0.62959524 13:0.78737497 14:0.88543006 15:0.8856221 16:0.87319537 17:0.86563967 18:0.46769021 19:0.41863626 20:0.18724756 21:0.16917383 22:0.79314811 23:0.83069973 24:0.70400618 25:0.65231696 26:0.60416219 27:0.80266995 28:0.39019849 29:0.66597023 30:0.67577491 31:0.66719147 32:0.44609792 33:0.44958651 34:0.83921317 35:0.86590176 36:0.8753397 37:0.52721891 
4 1:0.71474231 2:0.68747912 3:0.88424929 4:0.72866881 5:0.56484256 6:0.43746082 7:0.59289561 8:0.37949508 9:0.47727787 10:0.5139672 11:0.51442102 12:0.5303693 13:0.43416059 14:0.61586341 15:0.74923145 16:0.81246124 17:0.71474232 18:0.2910972 19:0.27411482 20:0.18724756 21:0.16917383 22:0.50142279 23:0.83069973 24:0.70400618 25:0.65231696 26:0.60416219 27:0.80266995 28:0.12718041 29:0.38187404 30:0.47176959 31:0.53530954 32:0.18295943 33:0.14391023 34:0.48219471 35:0.60523692 36:0.69429107 37:0.2127017 
