svm_type nu_svr
kernel_type rbf
gamma 0.050000000000000003
nr_class 2
total_sv 606
rho -0.9088542376489287
SV
4 1:0.43262114 2:0.39353632 3:0.37427798 4:0.51246483 5:0.60538821 6:0.6573864 7:0.63849048 8:0.068358558 9:0.10679987 10:0.26550959 11:0.50057206 12:0.36019128 13:0.4781145 14:0.2443548 15:0.3461444 16:0.60246956 17:0.43262115 18:0.21304519 19:0.24368169 20:0.19081346 21:0.23167777 22:0.36236829 23:0.32534884 24:0.33141279 25:0.32605071 26:0.32955625 27:0.34152464 28:0.089277617 29:0.14027819 30:0.1685498 31:0.21363154 32:0.1058723 33:0.22113291 34:0.32903869 35:0.38473996 36:0.45014666 37:0.25384978 
-4 1:0.83738398 2:0.82512437 3:0.37427798 4:0.51246483 5:0.60538821 6:0.6573864 7:0.63849048 8:0.23507124 9:0.41756674 10:0.59114061 11:0.70928733 12:0.63262146 13:0.70413578 14:0.74025391 15:0.8469668 16:0.87600723 17:0.83738399 18:0.42493206 19:0.41472637 20:0.19081346 21:0.23167777 22:0.74109645 23:0.32534884 24:0.33141279 25:0.32605071 26:0.32955625 27:0.34152464 28:0.22099794 29:0.34200044 30:0.37655463 31:0.40111247 32:0.25839552 33:0.4993383 34:0.72528987 35:0.78378793 36:0.8207117 37:0.56159341 
-4 1:0.90304677 2:0.91863497 3:0.37427798 4:0.51246483 5:0.60538821 6:0.6573864 7:0.63849048 8:0.33306033 9:0.51362414 10:0.64058626 11:0.72311478 12:0.67690925 13:0.83675998 14:0.89336112 15:0.92313268 16:0.89412172 17:0.90304682 18:0.54441806 19:0.51118089 20:0.19081346 21:0.23167777 22:0.82599604 23:0.32534884 24:0.33141279 25:0.32605071 26:0.32955625 27:0.34152464 28:0.27383154 29:0.39417608 30:0.4113214 31:0.42267661 32:0.31198344 33:0.61002418 34:0.82757608 35:0.85037901 36:0.86326146 37:0.66903444 
-4 1:0.8357821 2:0.84418282 3:0.37427798 4:0.51246483 5:0.60538821 6:0.6573864 7:0.63849048 8:0.29257156 9:0.45989732 10:0.58911053 11:0.68967844 12:0.63211852 13:0.78127359 14:0.80575202 15:0.84291216 16:0.84999741 17:0.83578212 18:0.37632128 19:0.37548554 20:0.19081346 21:0.23167777 22:0.60456244 23:0.32534884 24:0.33141279 25:0.32605071 26:0.32955625 27:0.34152464 28:0.1812296 29:0.26880338 30:0.29878575 31:0.32965827 32:0.20943243 33:0.41432135 34:0.58076798 35:0.63401879 36:0.67907091 37:0.46183971 
-0.11880045881025891 1:0.26866115 2:0.25132736 3:0.37427798 4:0.51246483 5:0.60538821 6:0.6573864 7:0.63849048 8:0.020428884 9:0.06440534 10:0.17042677 11:0.36449089 12:0.25095155 13:0.41202746 14:0.17464309 15:0.19856235 16:0.4228167 17:0.26866114 18:0.13973429 19:0.18450181 20:0.19081346 21:0.23167777 22:0.24391077 23:0.32534884 24:0.33141279 25:0.32605071 26:0.32955625 27:0.34152464 28:0.074407396 29:0.091630604 30:0.096720587 31:0.11748823 32:0.081340521 33:0.18985438 34:0.23354597 35:0.24703951 36:0.26021364 37:0.20448238 
-4 1:0.80760938 2:0.81459136 3:0.37427798 4:0.51246483 5:0.60538821 6:0.6573864 7:0.63849048 8:0.27771927 9:0.44015253 10:0.57192766 11:0.67274609 12:0.61390217 13:0.76049926 14:0.77242709 15:0.81511021 16:0.82719307 17:0.80760942 18:0.3520164 19:0.35586554 20:0.19081346 21:0.23167777 22:0.66137585 23:0.32534884 24:0.33141279 25:0.32605071 26:0.32955625 27:0.34152464 28:0.20169967 29:0.30141743 30:0.32957787 31:0.35548131 32:0.23325394 33:0.45731082 34:0.6445609 35:0.69285557 36:0.72991637 37:0.50963202 
-4 1:0.79879005 2:0.80022234 3:0.37427798 4:0.51246483 5:0.60538821 6:0.6573864 7:0.63849048 8:0.25992173 9:0.42408407 10:0.56183289 11:0.67331876 12:0.60726486 13:0.73675963 14:0.74846003 15:0.80077803 16:0.82847622 17:0.79879002 18:0.33616723 19:0.34307138 20:0.19081346 21:0.23167777 22:0.55676589 23:0.32534884 24:0.33141279 25:0.32605071 26:0.32955625 27:0.34152464 28:0.16375375 29:0.24340894 30:0.27283585 31:0.3059098 32:0.18951448 33:0.37795555 34:0.53121919 35:0.58447539 36:0.63229041 37:0.42214624 
4 1:0.90383075 2:0.92534593 3:0.37427798 4:0.51246483 5:0.60538821 6:0.6573864 7:0.63849048 8:0.35686616 9:0.52374134 10:0.63805449 11:0.72005912 12:0.67746052 13:0.86913161 14:0.90963146 15:0.91917348 16:0.89011884 17:0.90383074 18:0.53714023 19:0.50530589 20:0.19081346 21:0.23167777 22:0.82639019 23:0.32534884 24:0.33141279 25:0.32605071 26:0.32955625 27:0.34152464 28:0.28269183 29:0.39126803 30:0.40802478 31:0.42032495 32:0.3185074 33:0.6282249 34:0.82171045 35:0.84396934 36:0.85856775 37:0.68179607 
-4 1:0.85342408 2:0.83803304 3:0.37427798 4:0.51246483 5:0.60538821 6:0.6573864 7:0.63849048 8:0.21193264 9:0.42891377 10:0.60829625 11:0.71832004 12:0.64347981 13:0.67304705 14:0.75857192 15:0.87312656 16:0.8876579 17:0.85342409 18:0.17680157 19:0.2144242 20:0.19081346 21:0.23167777 22:0.57735863 23:0.32534884 24:0.33141279 25:0.32605071 26:0.32955625 27:0.34152464 28:0.16122066 29:0.2526697 30:0.28726882 31:0.3242765 32:0.18986405 33:0.37351803 34:0.55000788 35:0.61263567 36:0.66894998 37:0.42367591 
-4 1:0.98381879 2:0.97968543 3:0.37427798 4:0.51246483 5:0.60538821 6:0.6573864 7:0.63849048 8:0.29728163 9:0.53323008 10:0.69035919 11:0.7952922 12:0.73093536 13:0.78958986 14:0.92651789 15:1 16:0.98874531 17:0.98381874 18:0.19871149 19:0.23211087 20:0.19081346 21:0.23167777 22:0.88350397 23:0.32534884 24:0.33141279 25:0.32605071 26:0.32955625 27:0.34152464 28:0.28147764 29:0.4254813 30:0.44646775 31:0.45963973 32:0.32547491 33:0.62739084 34:0.8894333 35:0.91798705 36:0.93639875 37:0.69720844 
4 1:0.32551103 2:0.30097002 3:0.37427798 4:0.51246483 5:0.60538821 6:0.6573864 7:0.63849048 8:0.032732409 9:0.080865476 10:0.20424243 11:0.40930465 12:0.28798259 13:0.42903395 14:0.20273993 15:0.25276665 16:0.48288283 17:0.32551103 18:0.090456566 19:0.14472259 20:0.19081346 21:0.23167777 22:0.24197467 23:0.32534884 24:0.33141279 25:0.32605071 26:0.32955625 27:0.34152464 28:0.074209675 29:0.091142977 30:0.095469113 31:0.11530727 32:0.08101965 33:0.18956332 34:0.23274968 35:0.24480848 36:0.25607009 37:0.20398293 
-4 1:0.84172328 2:0.84109321 3:0.37427798 4:0.51246483 5:0.60538821 6:0.6573864 7:0.63849048 8:0.26551902 9:0.44559088 10:0.59523932 11:0.70055872 12:0.63582121 13:0.74530082 14:0.78399318 15:0.85275107 16:0.86440578 17:0.84172329 18:0.39899621 19:0.39378978 20:0.19081346 21:0.23167777 22:0.71878163 23:0.32534884 24:0.33141279 25:0.32605071 26:0.32955625 27:0.34152464 28:0.22092542 29:0.33162233 30:0.36066747 31:0.38397124 32:0.25569054 33:0.49884569 34:0.70472218 35:0.75320544 36:0.78678171 37:0.55584501 
-4 1:0.85586203 2:0.86418822 3:0.37427798 4:0.51246483 5:0.60538821 6:0.6573864 7:0.63849048 8:0.30593974 9:0.4674457 10:0.60325721 11:0.70271212 12:0.64528501 13:0.79997087 14:0.8190148 15:0.86523203 16:0.86732802 17:0.85586203 18:0.44418802 19:0.43027065 20:0.19081346 21:0.23167777 22:0.71505917 23:0.32534884 24:0.33141279 25:0.32605071 26:0.32955625 27:0.34152464 28:0.21383 29:0.32881663 30:0.36131253 31:0.38697458 32:0.24950691 33:0.48355942 34:0.6991406 35:0.7543806 36:0.79266483 37:0.54313047 
-4 1:0.4753227 2:0.44511084 3:0.37427798 4:0.51246483 5:0.60538821 6:0.6573864 7:0.63849048 8:0.060675298 9:0.15667054 10:0.33137368 11:0.50144882 12:0.39022892 13:0.46688202 14:0.3223353 15:0.44528047 16:0.60252066 17:0.47532268 18:0.15880518 19:0.19989669 20:0.19081346 21:0.23167777 22:0.36594305 23:0.32534884 24:0.33141279 25:0.32605071 26:0.32955625 27:0.34152464 28:0.10333951 29:0.14779668 30:0.16726372 31:0.19909451 32:0.11837234 33:0.25084149 34:0.34355455 35:0.38197526 36:0.42110071 37:0.27898065 
-4 1:0.79812024 2:0.7922534 3:0.37427798 4:0.51246483 5:0.60538821 6:0.6573864 7:0.63849048 8:0.24810874 9:0.40572481 10:0.55813937 11:0.6818306 12:0.60666523 13:0.72137386 14:0.71949293 15:0.79521125 16:0.83983621 17:0.79812025 18:0.35572158 19:0.35885653 20:0.19081346 21:0.23167777 22:0.69087937 23:0.32534884 24:0.33141279 25:0.32605071 26:0.32955625 27:0.34152464 28:0.20472191 29:0.31282776 30:0.34771938 31:0.37918446 32:0.23869681 33:0.46454343 34:0.6676872 35:0.72830318 36:0.77729169 37:0.5214657 
-4 1:0.83663856 2:0.8468216 3:0.37427798 4:0.51246483 5:0.60538821 6:0.6573864 7:0.63849048 8:0.30008294 9:0.46257551 10:0.58986453 11:0.68870466 12:0.63271628 13:0.79138842 14:0.81011525 15:0.84405524 16:0.8486774 17:0.83663856 18:0.38236773 19:0.38036651 20:0.19081346 21:0.23167777 22:0.62733484 23:0.32534884 24:0.33141279 25:0.32605071 26:0.32955625 27:0.34152464 28:0.19376656 29:0.28143626 30:0.3091774 31:0.33733491 32:0.22230951 33:0.44077031 34:0.60566458 35:0.6540145 36:0.6942718 37:0.48783332 
4 1:0.91343035 2:0.93791852 3:0.37427798 4:0.51246483 5:0.60538821 6:0.6573864 7:0.63849048 8:0.36980928 9:0.53443 10:0.645177 11:0.72331042 12:0.68389119 13:0.88685671 14:0.92692821 15:0.93019606 16:0.89438787 17:0.91343036 18:0.56187711 19:0.52527462 20:0.19081346 21:0.23167777 22:0.84445177 23:0.32534884 24:0.33141279 25:0.32605071 26:0.32955625 27:0.34152464 28:0.29335961 29:0.40195314 30:0.41576085 31:0.42542362 32:0.32939155 33:0.65077523 34:0.84275227 35:0.85884493 36:0.86866654 37:0.70379043 
-4 1:0.83558785 2:0.84543027 3:0.37427798 4:0.51246483 5:0.60538821 6:0.6573864 7:0.63849048 8:0.30034511 9:0.46093076 10:0.58793284 11:0.68901956 12:0.63197814 13:0.79176085 14:0.80773464 15:0.8411062 16:0.84909766 17:0.83558783 18:0.37334572 19:0.37308354 20:0.19081346 21:0.23167777 22:0.59682972 23:0.32534884 24:0.33141279 25:0.32605071 26:0.32955625 27:0.34152464 28:0.17959345 29:0.26459908 30:0.29398485 31:0.32509227 32:0.207127 33:0.41100454 34:0.57262462 35:0.62489679 36:0.67010926 37:0.45732627 
4 1:0.91062675 2:0.93445894 3:0.37427798 4:0.51246483 5:0.60538821 6:0.6573864 7:0.63849048 8:0.36657297 9:0.53173177 10:0.64297245 11:0.72225054 12:0.68201506 13:0.88247677 14:0.92263144 15:0.92679295 16:0.8929811 17:0.91062674 18:0.54918821 19:0.51503156 20:0.19081346 21:0.23167777 22:0.82581641 23:0.32534884 24:0.33141279 25:0.32605071 26:0.32955625 27:0.34152464 28:0.28053129 29:0.3915542 30:0.4086156 31:0.42069167 32:0.31683228 33:0.62368593 34:0.82227302 35:0.84509977 36:0.85929216 37:0.67843197 
-2.8547474437813465 1:0.95193013 2:0.99322465 3:0.37427798 4:0.51246483 5:0.60538821 6:0.6573864 7:0.63849048 8:0.45228902 9:0.57937577 10:0.66971551 11:0.73497049 12:0.70961018 13:1 14:1 15:0.9683196 16:0.90975251 17:0.95193013 18:0.73320348 19:0.66357703 20:0.19081346 21:0.23167777 22:0.99999721 23:0.32534884 24:0.33141279 25:0.32605071 26:0.32955625 27:0.34152464 28:0.4593273 29:0.46378641 30:0.45291514 31:0.44859082 32:0.4765787 33:0.99999897 34:0.96447255 35:0.93027577 36:0.91452972 37:0.99999862 
4 1:0.80360873 2:0.77861753 3:0.37427798 4:0.51246483 5:0.60538821 6:0.6573864 7:0.63849048 8:0.17342881 9:0.36860597 10:0.58317361 11:0.69211561 12:0.61005068 13:0.62073358 14:0.66282727 15:0.83417768 16:0.85318648 17:0.80360874 18:0.37269696 19:0.37255983 20:0.19081346 21:0.23167777 22:0.63763668 23:0.32534884 24:0.33141279 25:0.32605071 26:0.32955625 27:0.34152464 28:0.17386789 29:0.28701384 30:0.32444356 31:0.35800267 32:0.20798946 33:0.39989553 34:0.61684752 35:0.68339345 36:0.73515289 37:0.45980239 
-4 1:0.82629145 2:0.82326634 3:0.37427798 4:0.51246483 5:0.60538821 6:0.6573864 7:0.63849048 8:0.2339139 9:0.43843069 10:0.59092107 11:0.68859319 12:0.62554439 13:0.70220434 14:0.77210821 15:0.84590538 16:0.84865345 17:0.82629146 18:0.3808188 19:0.37911615 20:0.19081346 21:0.23167777 22:0.61728766 23:0.32534884 24:0.33141279 25:0.32605071 26:0.32955625 27:0.34152464 28:0.18251932 29:0.27687906 30:0.3067433 31:0.33683128 32:0.21228662 33:0.41734955 34:0.59672347 35:0.64938539 36:0.69333747 37:0.46783806 
4 1:0.91161487 2:0.93577566 3:0.37427798 4:0.51246483 5:0.60538821 6:0.6573864 7:0.63849048 8:0.36942775 9:0.53225716 10:0.64353802 11:0.72271645 12:0.68267278 13:0.8862964 14:0.92341493 15:0.92767684 16:0.89361376 17:0.91161485 18:0.55872925 19:0.52273352 20:0.19081346 21:0.23167777 22:0.84429512 23:0.32534884 24:0.33141279 25:0.32605071 26:0.32955625 27:0.34152464 28:0.29308616 29:0.40200141 30:0.41578289 31:0.42552945 32:0.32918006 33:0.64996373 34:0.8427776 35:0.85885607 36:0.86885963 37:0.70317847 
-4 1:0.84802053 2:0.85876406 3:0.37427798 4:0.51246483 5:0.60538821 6:0.6573864 7:0.63849048 8:0.30292601 9:0.47136726 10:0.59811161 11:0.69479414 12:0.64009846 13:0.79559926 14:0.82493355 15:0.85726103 16:0.85685718 17:0.8480205 18:0.39967767 19:0.39433988 20:0.19081346 21:0.23167777 22:0.63265344 23:0.32534884 24:0.33141279 25:0.32605071 26:0.32955625 27:0.34152464 28:0.1927333 29:0.28361422 30:0.31310478 31:0.34212507 32:0.22206411 33:0.4390938 34:0.61030378 35:0.66183093 36:0.70395072 37:0.48781232 
4 1:0.91491007 2:0.93912059 3:0.37427798 4:0.51246483 5:0.60538821 6:0.6573864 7:0.63849048 8:0.36989672 9:0.53446951 10:0.64592393 11:0.72465706 12:0.68482503 13:0.88710333 14:0.9272911 15:0.93148161 16:0.89617502 17:0.91491006 18:0.56880707 19:0.5308688 20:0.19081346 21:0.23167777 22:0.85176941 23:0.32534884 24:0.33141279 25:0.32605071 26:0.32955625 27:0.34152464 28:0.29627665 29:0.4061816 30:0.41944407 31:0.42839761 32:0.33267653 33:0.65710028 34:0.8512 35:0.86599858 36:0.87459617 37:0.71057866 
4 1:0.5883115 2:0.53562876 3:0.26837678 4:0.43085954 5:0.61452831 6:0.83571394 7:0.70728473 8:0.070673304 9:0.14269629 10:0.37032926 11:0.70855471 12:0.50525814 13:0.58259662 14:0.35847942 15:0.50034699 16:0.72630634 17:0.58831153 18:0.24582015 19:0.18591168 20:0.22134014 21:0.20241661 22:0.47578921 23:0.90906942 24:1 25:1 26:1 27:0.97183748 28:0.23367896 29:0.44979938 30:0.57485366 31:0.67587934 32:0.29861576 33:0.25375066 34:0.42890953 35:0.5253837 36:0.61141729 37:0.30612814 
4 1:0.86990123 2:0.85845646 3:0.26837678 4:0.43085954 5:0.61452831 6:0.83571394 7:0.70728473 8:0.18981099 9:0.37883564 10:0.62483639 11:0.85140634 12:0.70630884 13:0.75472026 14:0.77208204 15:0.88826009 16:0.88573702 17:0.8699012 18:0.44699689 19:0.34831066 20:0.22134014 21:0.20241661 22:0.80985925 23:0.90906942 24:1 25:1 26:1 27:0.97183748 28:0.53130517 29:0.84431535 30:0.91043597 31:0.92355394 32:0.62510938 33:0.57400494 34:0.8129143 35:0.844967 36:0.85832239 37:0.63974254 
-4 1:0.89480477 2:0.90072747 3:0.26837678 4:0.43085954 5:0.61452831 6:0.83571394 7:0.70728473 8:0.23295843 9:0.42609932 10:0.64154311 11:0.85577274 12:0.72409003 13:0.81706305 14:0.85485368 15:0.91372009 16:0.89061006 17:0.89480478 18:0.50686302 19:0.39663732 20:0.22134014 21:0.20241661 22:0.84514823 23:0.90906942 24:1 25:1 26:1 27:0.97183748 28:0.57917776 29:0.88635936 30:0.93574137 31:0.94091382 32:0.67247742 33:0.6255131 34:0.85383829 35:0.86906876 36:0.87563114 37:0.68814065 
4 1:0.80026023 2:0.79332213 3:0.26837678 4:0.43085954 5:0.61452831 6:0.83571394 7:0.70728473 8:0.18322826 9:0.34737946 10:0.5674873 11:0.80113491 12:0.65658596 13:0.74522439 14:0.71699672 15:0.80085345 16:0.82961847 17:0.80026024 18:0.31494676 19:0.24171381 20:0.22134014 21:0.20241661 22:0.56911254 23:0.90906942 24:1 25:1 26:1 27:0.97183748 28:0.34927054 29:0.55698973 30:0.65409162 31:0.72613765 32:0.41482062 33:0.37809685 34:0.5332137 35:0.60081736 36:0.66149916 37:0.42483465 
4 1:0.9051733 2:0.92559719 3:0.26837678 4:0.43085954 5:0.61452831 6:0.83571394 7:0.70728473 8:0.28152838 9:0.45400353 10:0.64365704 11:0.85486036 12:0.73148998 13:0.88722275 14:0.90372823 15:0.91694527 16:0.88959518 17:0.90517329 18:0.51306952 19:0.40164748 20:0.22134014 21:0.20241661 22:0.8439426 23:0.90906942 24:1 25:1 26:1 27:0.97183748 28:0.5928721 29:0.87779256 30:0.928802 31:0.93631891 32:0.68176902 33:0.64025514 34:0.84549585 35:0.86245472 36:0.8710455 37:0.69763867 
-4 1:0.6031724 2:0.55161468 3:0.26837678 4:0.43085954 5:0.61452831 6:0.83571394 7:0.70728473 8:0.05364287 9:0.15329085 10:0.40084137 11:0.70799322 12:0.5159157 13:0.55798761 14:0.37700717 15:0.54682707 16:0.72558915 17:0.60317236 18:0.22619988 19:0.17007331 20:0.22134014 21:0.20241661 22:0.4121913 23:0.90906942 24:1 25:1 26:1 27:0.97183748 28:0.24901988 29:0.39232411 30:0.47764378 31:0.56340044 32:0.29583387 33:0.27017199 34:0.37286757 35:0.43271363 36:0.49921414 37:0.30319566 
4 1:0.80049554 2:0.79065593 3:0.26837678 4:0.43085954 5:0.61452831 6:0.83571394 7:0.70728473 8:0.17837131 9:0.3422932 10:0.56668058 11:0.80416165 12:0.65674355 13:0.73820413 14:0.70813131 15:0.79965999 16:0.83299596 17:0.80049554 18:0.31305276 19:0.24018489 20:0.22134014 21:0.20241661 22:0.58295368 23:0.90906942 24:1 25:1 26:1 27:0.97183748 28:0.35926406 29:0.57020854 30:0.66880997 31:0.74132081 32:0.42599769 33:0.38886285 34:0.54609558 35:0.61484638 36:0.6766462 37:0.4362686 
4 1:0.90517063 2:0.92480876 3:0.26837678 4:0.43085954 5:0.61452831 6:0.83571394 7:0.70728473 8:0.2793066 9:0.45276548 10:0.64384484 11:0.85537612 12:0.73148975 13:0.88400844 14:0.90155597 15:0.91723423 16:0.89016907 17:0.9051706 18:0.51957908 19:0.40690229 20:0.22134014 21:0.20241661 22:0.85331103 23:0.90906942 24:1 25:1 26:1 27:0.97183748 28:0.607323 29:0.88845204 30:0.93503193 31:0.9399601 32:0.69563992 33:0.65580306 34:0.85587289 35:0.86838873 36:0.8746764 37:0.71181126 
-4 1:0.76968051 2:0.73887056 3:0.26837678 4:0.43085954 5:0.61452831 6:0.83571394 7:0.70728473 8:0.12666805 9:0.28639997 10:0.54271889 11:0.79977665 12:0.63468063 13:0.66349505 14:0.61038263 15:0.76327518 16:0.82815183 17:0.76968049 18:0.21715365 19:0.16277078 20:0.22134014 21:0.20241661 22:0.51551436 23:0.90906942 24:1 25:1 26:1 27:0.97183748 28:0.3050637 29:0.49171344 30:0.59571544 31:0.68855679 32:0.36480515 33:0.33059783 34:0.46977408 35:0.54531428 36:0.62411054 37:0.37380459 
-4 1:0.84298852 2:0.83666654 3:0.26837678 4:0.43085954 5:0.61452831 6:0.83571394 7:0.70728473 8:0.19660743 9:0.37152191 10:0.60281486 11:0.82931935 12:0.68709579 13:0.76453512 14:0.75924807 15:0.85469008 16:0.86108837 17:0.84298852 18:0.36260937 19:0.28018923 20:0.22134014 21:0.20241661 22:0.72430483 23:0.90906942 24:1 25:1 26:1 27:0.97183748 28:0.47072874 29:0.74516854 30:0.81923179 31:0.84594294 32:0.55414354 33:0.50879626 34:0.71638278 35:0.75809294 36:0.7809429 37:0.56720245 
-4 1:0.84603177 2:0.84534457 3:0.26837678 4:0.43085954 5:0.61452831 6:0.83571394 7:0.70728473 8:0.21437933 9:0.38364787 10:0.60075095 11:0.8292078 12:0.68929278 13:0.79018074 14:0.78039181 15:0.85152893 16:0.86094212 17:0.84603179 18:0.41388609 19:0.32158212 20:0.22134014 21:0.20241661 22:0.73808227 23:0.90906942 24:1 25:1 26:1 27:0.97183748 28:0.46750056 29:0.75427195 30:0.8394846 31:0.87458756 32:0.55425724 33:0.50527253 34:0.72520448 35:0.77735465 36:0.80948597 37:0.56727166 
-4 1:0.65264597 2:0.61491901 3:0.26837678 4:0.43085954 5:0.61452831 6:0.83571394 7:0.70728473 8:0.086022366 9:0.20584454 10:0.44867549 11:0.72616269 12:0.55122097 13:0.60477841 14:0.46904737 15:0.61969675 16:0.74593436 17:0.65264597 18:0.20325385 19:0.15155023 20:0.22134014 21:0.20241661 22:0.45956412 23:0.90906942 24:1 25:1 26:1 27:0.97183748 28:0.28285587 29:0.44918631 30:0.53300919 31:0.59909453 32:0.33583171 33:0.30662509 34:0.42827239 35:0.48549552 36:0.53484743 37:0.34411424 
-4 1:0.79411556 2:0.78035145 3:0.26837678 4:0.43085954 5:0.61452831 6:0.83571394 7:0.70728473 8:0.17177789 9:0.32924446 10:0.56266682 11:0.80273629 12:0.65220207 13:0.72868764 14:0.68524998 15:0.7935007 16:0.83140917 17:0.7941156 18:0.30702843 19:0.23532178 20:0.22134014 21:0.20241661 22:0.64990435 23:0.90906942 24:1 25:1 26:1 27:0.97183748 28:0.4130978 29:0.65507708 30:0.73992884 31:0.78782087 32:0.4878438 33:0.44678947 34:0.62869778 35:0.68257014 36:0.72299882 37:0.49946221 
4 1:0.84526398 2:0.85095359 3:0.26837678 4:0.43085954 5:0.61452831 6:0.83571394 7:0.70728473 8:0.22674015 9:0.39495703 10:0.60021692 11:0.82340323 12:0.68871926 13:0.80808281 14:0.80031866 15:0.85072933 16:0.85447362 17:0.84526396 18:0.38209064 19:0.2959154 20:0.22134014 21:0.20241661 22:0.6782247 23:0.90906942 24:1 25:1 26:1 27:0.97183748 28:0.43541065 29:0.67930803 30:0.76939515 31:0.82042497 32:0.51172941 33:0.47079122 34:0.65227328 35:0.71062247 36:0.75548933 37:0.52386076 
3.7979690018808756 1:0.9145333 2:0.93817458 3:0.26837678 4:0.43085954 5:0.61452831 6:0.83571394 7:0.70728473 8:0.29294516 9:0.46381593 10:0.65134505 11:0.85868932 12:0.73817263 13:0.90371616 14:0.92091543 15:0.92865882 16:0.89386977 17:0.91453333 18:0.54523903 19:0.42761617 20:0.22134014 21:0.20241661 22:0.87080251 23:0.90906942 24:1 25:1 26:1 27:0.97183748 28:0.63434448 29:0.90785027 30:0.94676941 31:0.94711389 32:0.72149204 33:0.68488142 34:0.87475427 35:0.87956851 36:0.88181008 37:0.73822917 
4 1:0.83219196 2:0.83453004 3:0.26837678 4:0.43085954 5:0.61452831 6:0.83571394 7:0.70728473 8:0.21461766 9:0.3815002 10:0.59113451 11:0.81647236 12:0.6793808 13:0.79057263 14:0.77676275 15:0.83689834 16:0.84674109 17:0.83219195 18:0.35956323 19:0.27773025 20:0.22134014 21:0.20241661 22:0.64098153 23:0.90906942 24:1 25:1 26:1 27:0.97183748 28:0.40199599 29:0.63636524 30:0.73214827 31:0.79184584 32:0.47531676 33:0.43483562 34:0.61047908 35:0.67515783 36:0.72700734 37:0.48665497 
-4 1:0.91046493 2:0.93190004 3:0.26837678 4:0.43085954 5:0.61452831 6:0.83571394 7:0.70728473 8:0.28471511 9:0.45894021 10:0.64796141 11:0.85759962 12:0.73526969 13:0.89183109 14:0.91237059 15:0.92350283 16:0.89265041 17:0.91046495 18:0.53723244 19:0.42115289 20:0.22134014 21:0.20241661 22:0.86536026 23:0.90906942 24:1 25:1 26:1 27:0.97183748 28:0.6216007 29:0.90308906 30:0.94499787 31:0.9466047 32:0.71024712 33:0.67116992 34:0.87012159 35:0.87788266 36:0.88130337 37:0.72674024 
-3.3330866061920732 1:0.95193013 2:0.99322465 3:0.26837678 4:0.43085954 5:0.61452831 6:0.83571394 7:0.70728473 8:0.35959091 9:0.50897026 10:0.67736564 11:0.87291616 12:0.76487055 13:1 14:1 15:0.9683196 16:0.90975251 17:0.95193013 18:0.72339203 19:0.57142935 20:0.22134014 21:0.20241661 22:1 23:0.90906942 24:1 25:1 26:1 27:0.97183748 28:0.92712748 29:1 30:1 31:0.9799282 32:0.97761387 33:1 34:0.96447492 35:0.93027926 36:0.91453354 37:1 
-2.271942171000072 1:0.5115092 2:0.47057428 3:0.26837678 4:0.43085954 5:0.61452831 6:0.83571394 7:0.70728473 8:0.043789926 9:0.1222528 10:0.33122242 11:0.63465856 12:0.45045941 13:0.54375002 14:0.3226559 15:0.44073954 16:0.64374711 17:0.51150918 18:0.16080023 19:0.11727975 20:0.22134014 21:0.20241661 22:0.27530288 23:0.90906942 24:1 25:1 26:1 27:0.97183748 28:0.17099648 29:0.26168874 30:0.32238784 31:0.39883736 32:0.2016373 33:0.18621416 34:0.24571133 35:0.28485498 36:0.335163 37:0.20694234 
-4 1:0.87601458 2:0.87132769 3:0.26837678 4:0.43085954 5:0.61452831 6:0.83571394 7:0.70728473 8:0.21109001 9:0.39574735 10:0.62321109 11:0.8533949 12:0.7106786 13:0.78548563 14:0.80173112 15:0.8857621 16:0.88794356 17:0.87601457 18:0.42502475 19:0.33057375 20:0.22134014 21:0.20241661 22:0.76045066 23:0.90906942 24:1 25:1 26:1 27:0.97183748 28:0.47980931 29:0.77883838 30:0.86719535 31:0.89618051 32:0.56988925 33:0.51860733 34:0.74918325 35:0.80378721 36:0.83103733 37:0.58332828 
4 1:0.84381744 2:0.84070299 3:0.26837678 4:0.43085954 5:0.61452831 6:0.83571394 7:0.70728473 8:0.1940261 9:0.38294646 10:0.6030399 11:0.82687688 12:0.68769281 13:0.76081834 14:0.77925917 15:0.8550337 16:0.8583474 17:0.84381741 18:0.38831528 19:0.3009402 20:0.22134014 21:0.20241661 22:0.69822948 23:0.90906942 24:1 25:1 26:1 27:0.97183748 28:0.44497912 29:0.70454809 30:0.79359986 31:0.83880322 32:0.5250722 33:0.48108649 34:0.676848 35:0.73368292 36:0.77382188 37:0.53749591 
-4 1:0.91264564 2:0.93492414 3:0.26837678 4:0.43085954 5:0.61452831 6:0.83571394 7:0.70728473 8:0.28830739 9:0.46110059 10:0.64962124 11:0.85852216 12:0.73682683 13:0.89701019 14:0.91615148 15:0.92603575 16:0.89368161 17:0.91264564 18:0.54436355 19:0.42690944 20:0.22134014 21:0.20241661 22:0.87266914 23:0.90906942 24:1 25:1 26:1 27:0.97183748 28:0.63448632 29:0.91055981 30:0.94918239 31:0.94915876 32:0.72219891 33:0.68503341 34:0.87739426 35:0.88186827 36:0.88384982 37:0.73895164 
4 1:0.80807156 2:0.80342737 3:0.26837678 4:0.43085954 5:0.61452831 6:0.83571394 7:0.70728473 8:0.19140991 9:0.3560598 10:0.5724709 11:0.8052583 12:0.66216517 13:0.75704702 14:0.7321958 15:0.80843981 16:0.83421715 17:0.8080716 18:0.33290641 19:0.25621165 20:0.22134014 21:0.20241661 22:0.59374583 23:0.90906942 24:1 25:1 26:1 27:0.97183748 28:0.36735124 29:0.58328952 30:0.68066099 31:0.74976897 32:0.43541065 33:0.39754843 34:0.55880766 35:0.62611606 36:0.68505442 37:0.44586964 
4 1:0.90639164 2:0.92596894 3:0.26837678 4:0.43085954 5:0.61452831 6:0.83571394 7:0.70728473 8:0.27903268 9:0.4533277 10:0.64522775 11:0.85604719 12:0.73236205 13:0.88362231 14:0.90254578 15:0.91933631 16:0.89091543 17:0.90639161 18:0.52361275 19:0.41015845 20:0.22134014 21:0.20241661 22:0.85575572 23:0.90906942 24:1 25:1 26:1 27:0.97183748 28:0.60878236 29:0.89159656 30:0.93777967 31:0.94202595 32:0.69750548 33:0.65737423 34:0.85893402 35:0.87100718 36:0.87673769 37:0.7137183 
-0.46684671045526827 1:0.43015391 2:0.38706198 3:0.37830597 4:0.46773895 5:0.51907084 6:0.60353034 7:0.5750355 8:0.03294648 9:0.08003795 10:0.23288742 11:0.46860535 12:0.32708613 13:0.43451142 14:0.24439326 15:0.35343955 16:0.59662408 17:0.43015392 18:0.19962896 19:0.21029122 20:1 21:0.94455023 22:0.34945221 23:0.52122153 24:0.53289113 25:0.53088227 26:0.54590597 27:0.54803621 28:0.12316168 29:0.1934149 30:0.23767957 31:0.30060368 32:0.14639795 33:0.21574112 34:0.31507616 35:0.37025234 36:0.4346225 37:0.24601484 
4 1:0.81166145 2:0.78800344 3:0.37830597 4:0.46773895 5:0.51907084 6:0.60353034 7:0.5750355 8:0.19159001 9:0.34112762 10:0.51485058 11:0.66341955 12:0.56948464 13:0.64517187 14:0.67032756 15:0.82833451 16:0.86813897 17:0.81166141 18:0.3868327 19:0.36141056 20:1 21:0.94455023 22:0.70182337 23:0.52122153 24:0.53289113 25:0.53088227 26:0.54590597 27:0.54803621 28:0.25570707 29:0.4401215 30:0.50412584 31:0.54754096 32:0.31046259 33:0.42708047 34:0.68603783 35:0.76152509 36:0.80575915 37:0.49657203 
-4 1:0.87474439 2:0.88148443 3:0.37830597 4:0.46773895 5:0.51907084 6:0.60353034 7:0.5750355 8:0.30175179 9:0.44513658 10:0.55323081 11:0.67242969 12:0.60964855 13:0.7906509 14:0.83714554 15:0.89315287 16:0.8804282 17:0.87474436 18:0.48322242 19:0.43922071 20:1 21:0.94455023 22:0.77533085 23:0.52122153 24:0.53289113 25:0.53088227 26:0.54590597 27:0.54803621 28:0.32024222 29:0.49979144 30:0.54145687 31:0.57038719 32:0.37496374 33:0.52882198 34:0.77521389 35:0.81572458 36:0.83939324 37:0.59429541 
4 1:0.78225057 2:0.77371923 3:0.37830597 4:0.46773895 5:0.51907084 6:0.60353034 7:0.5750355 8:0.22993148 9:0.36163749 10:0.49351214 11:0.62928488 12:0.55070113 13:0.69318758 14:0.69618106 15:0.7920545 16:0.82121502 17:0.78225055 18:0.32218138 19:0.30922108 20:1 21:0.94455023 22:0.52992459 23:0.52122153 24:0.53289113 25:0.53088227 26:0.54590597 27:0.54803621 28:0.19838564 29:0.31826836 30:0.37064331 31:0.42339885 32:0.23593569 33:0.33507699 34:0.50318012 35:0.56614335 36:0.61978016 37:0.38239808 
-4 1:0.89028796 2:0.90613106 3:0.37830597 4:0.46773895 5:0.51907084 6:0.60353034 7:0.5750355 8:0.33957497 9:0.4699131 10:0.56073366 11:0.67504933 12:0.61952113 13:0.84143625 14:0.87866783 15:0.90572369 16:0.88426748 17:0.89028795 18:0.49547391 19:0.44911067 20:1 21:0.94455023 22:0.78495953 23:0.52122153 24:0.53289113 25:0.53088227 26:0.54590597 27:0.54803621 28:0.33368393 29:0.50467674 30:0.54395486 31:0.57175671 32:0.3868363 33:0.55028211 34:0.78311782 35:0.82003955 36:0.84212512 37:0.6126137 
-4 1:0.56938218 2:0.53385156 3:0.37830597 4:0.46773895 5:0.51907084 6:0.60353034 7:0.5750355 8:0.077961801 9:0.17240969 10:0.35365619 11:0.53188483 12:0.41637518 13:0.49325165 14:0.39034439 15:0.55443049 16:0.68738337 17:0.56938214 18:0.17938151 19:0.19394656 20:1 21:0.94455023 22:0.41717651 23:0.52122153 24:0.53289113 25:0.53088227 26:0.54590597 27:0.54803621 28:0.14933483 29:0.24670205 30:0.29242342 31:0.34184548 32:0.17959315 33:0.25537346 34:0.39355396 35:0.44938556 36:0.49549421 37:0.2945442 
-4 1:0.7749783 2:0.77204333 3:0.37830597 4:0.46773895 5:0.51907084 6:0.60353034 7:0.5750355 8:0.23986889 9:0.36817339 10:0.49152376 11:0.62012162 12:0.54704654 13:0.7066044 14:0.70531644 15:0.78671042 16:0.80878876 17:0.7749783 18:0.29171657 19:0.28462851 20:1 21:0.94455023 22:0.60029544 23:0.52122153 24:0.53289113 25:0.53088227 26:0.54590597 27:0.54803621 28:0.23237664 29:0.3752153 30:0.42312773 31:0.46397878 32:0.27600612 33:0.38697967 34:0.58615226 35:0.64062471 36:0.67841084 37:0.44113217 
-4 1:0.74453393 2:0.73019333 3:0.37830597 4:0.46773895 5:0.51907084 6:0.60353034 7:0.5750355 8:0.20224869 9:0.32748785 10:0.46734815 11:0.61245622 12:0.52651621 13:0.65611348 14:0.63989367 15:0.74847192 16:0.7982701 17:0.74453392 18:0.28819266 19:0.28178385 20:1 21:0.94455023 22:0.49320973 23:0.52122153 24:0.53289113 25:0.53088227 26:0.54590597 27:0.54803621 28:0.18421585 29:0.29476506 30:0.34414107 31:0.39592582 32:0.21896414 33:0.31194081 34:0.46729152 35:0.52673431 36:0.57800982 37:0.35587587 
3.7667306088349024 1:0.87581977 2:0.88663184 3:0.37830597 4:0.46773895 5:0.51907084 6:0.60353034 7:0.5750355 8:0.32125073 9:0.4518273 10:0.55164759 11:0.67040167 12:0.61023731 13:0.81634904 14:0.84796976 15:0.89053786 16:0.87786727 17:0.87581978 18:0.47521235 19:0.43275462 20:1 21:0.94455023 22:0.76947147 23:0.52122153 24:0.53289113 25:0.53088227 26:0.54590597 27:0.54803621 28:0.32427748 29:0.49239442 30:0.53449684 31:0.56531922 32:0.37661292 33:0.53472127 34:0.76412055 35:0.80573577 36:0.83212428 37:0.59641621 
-4 1:0.7542435 2:0.72276123 3:0.37830597 4:0.46773895 5:0.51907084 6:0.60353034 7:0.5750355 8:0.14096232 9:0.29145511 10:0.48023073 11:0.634668 12:0.53275293 13:0.57853446 14:0.59133767 15:0.77168561 16:0.82670245 17:0.75424348 18:0.18155149 19:0.19569827 20:1 21:0.94455023 22:0.46873958 23:0.52122153 24:0.53289113 25:0.53088227 26:0.54590597 27:0.54803621 28:0.16819748 29:0.27710068 30:0.32909515 31:0.38529561 32:0.20216475 33:0.28689296 34:0.44017362 35:0.50345995 36:0.56039399 37:0.33046831 
4 1:0.91735934 2:0.90476607 3:0.37830597 4:0.46773895 5:0.51907084 6:0.60353034 7:0.5750355 8:0.24469264 9:0.43236258 10:0.58355142 11:0.71645086 12:0.63665352 13:0.71692769 14:0.82288997 15:0.94502611 16:0.94038558 17:0.91735931 18:0.22711122 19:0.23247614 20:1 21:0.94455023 22:0.81023898 23:0.52122153 24:0.53289113 25:0.53088227 26:0.54590597 27:0.54803621 28:0.31505414 29:0.52373357 30:0.57435671 31:0.60911281 32:0.37669181 33:0.5209627 34:0.81090416 35:0.86381076 36:0.89755692 37:0.59700356 
-4 1:0.26508704 2:0.25616085 3:0.37830597 4:0.46773895 5:0.51907084 6:0.60353034 7:0.5750355 8:0.025323744 9:0.056241148 10:0.15331267 11:0.32259482 12:0.2231804 13:0.42390185 14:0.20343905 15:0.21813176 16:0.39211276 17:0.26508706 18:0.042211678 19:0.083216853 20:1 21:0.94455023 22:0.1476687 23:0.52122153 24:0.53289113 25:0.53088227 26:0.54590597 27:0.54803621 28:0.064318952 29:0.083280973 30:0.089157124 31:0.10934581 32:0.071304529 33:0.12024184 34:0.14808512 35:0.15046674 36:0.14417898 37:0.12967537 
4 1:0.81823009 2:0.80812881 3:0.37830597 4:0.46773895 5:0.51907084 6:0.60353034 7:0.5750355 8:0.23455445 9:0.37568206 10:0.51849058 11:0.65280445 12:0.57332195 13:0.70108848 14:0.72370619 15:0.83504714 16:0.85364048 17:0.81823009 18:0.36506911 19:0.343842 20:1 21:0.94455023 22:0.68576243 23:0.52122153 24:0.53289113 25:0.53088227 26:0.54590597 27:0.54803621 28:0.26393297 29:0.43274919 30:0.48513939 31:0.52392699 32:0.31481159 33:0.43955298 34:0.67479983 35:0.73368031 36:0.77034547 37:0.50274449 
-4 1:0.68254351 2:0.67180323 3:0.37830597 4:0.46773895 5:0.51907084 6:0.60353034 7:0.5750355 8:0.19681592 9:0.29223699 10:0.42064906 11:0.57603459 12:0.4866993 13:0.65133297 14:0.58627936 15:0.6712472 16:0.74858069 17:0.6825435 18:0.27041244 19:0.26743085 20:1 21:0.94455023 22:0.44479361 23:0.52122153 24:0.53289113 25:0.53088227 26:0.54590597 27:0.54803621 28:0.15653068 29:0.26346749 30:0.31360075 31:0.36784055 32:0.18950097 33:0.26611736 34:0.41880056 35:0.48044392 36:0.53418291 37:0.30920465 
-4 1:0.4752951 2:0.44702991 3:0.37830597 4:0.46773895 5:0.51907084 6:0.60353034 7:0.5750355 8:0.053936883 9:0.13194742 10:0.29389566 11:0.46720343 12:0.35622045 13:0.46181838 14:0.32510998 15:0.4537475 16:0.60036261 17:0.47529512 18:0.12077841 19:0.14663948 20:1 21:0.94455023 22:0.30462223 23:0.52122153 24:0.53289113 25:0.53088227 26:0.54590597 27:0.54803621 28:0.11096433 29:0.17335069 30:0.20636691 31:0.25031455 32:0.13117269 33:0.19503384 34:0.284458 35:0.32447922 36:0.35970758 37:0.22156865 
4 1:0.7711835 2:0.74999326 3:0.37830597 4:0.46773895 5:0.51907084 6:0.60353034 7:0.5750355 8:0.19783905 9:0.32495602 10:0.48192 11:0.63770658 12:0.54335539 13:0.65196352 14:0.63966587 15:0.77330561 16:0.83261871 17:0.77118352 18:0.33126341 19:0.31655251 20:1 21:0.94455023 22:0.63923785 23:0.52122153 24:0.53289113 25:0.53088227 26:0.54590597 27:0.54803621 28:0.23289849 29:0.39115463 30:0.45555059 31:0.510525 32:0.28104921 33:0.39018735 34:0.61213096 35:0.68990052 36:0.74966097 37:0.45122108 
4 1:0.78877406 2:0.78280713 3:0.37830597 4:0.46773895 5:0.51907084 6:0.60353034 7:0.5750355 8:0.23962548 9:0.36967516 10:0.49726977 11:0.63153762 12:0.5549099 13:0.70631701 14:0.71093509 15:0.79865321 16:0.82367771 17:0.78877406 18:0.33273308 19:0.3177389 20:1 21:0.94455023 22:0.55103404 23:0.52122153 24:0.53289113 25:0.53088227 26:0.54590597 27:0.54803621 28:0.21016963 29:0.33344349 30:0.38525489 31:0.43605741 32:0.24887216 33:0.35381478 34:0.52563581 35:0.58702003 36:0.63810425 37:0.40205695 
-4 1:0.88998164 2:0.9060017 3:0.37830597 4:0.46773895 5:0.51907084 6:0.60353034 7:0.5750355 8:0.34050096 9:0.46941902 10:0.5608125 11:0.67468461 12:0.61933145 13:0.84272306 14:0.877966 15:0.90587292 16:0.8837673 17:0.88998163 18:0.49919864 19:0.45211744 20:1 21:0.94455023 22:0.78911272 23:0.52122153 24:0.53289113 25:0.53088227 26:0.54590597 27:0.54803621 28:0.3391114 29:0.50765383 30:0.54562071 31:0.5726685 32:0.3918353 33:0.55860999 34:0.78724277 35:0.82218089 36:0.84323968 37:0.61991802 
4 1:0.76295112 2:0.7516833 3:0.37830597 4:0.46773895 5:0.51907084 6:0.60353034 7:0.5750355 8:0.2125639 9:0.34143909 10:0.48147985 11:0.62115677 12:0.5383986 13:0.67119286 14:0.66724448 15:0.77272458 16:0.80887793 17:0.76295116 18:0.31197134 19:0.30097908 20:1 21:0.94455023 22:0.50918655 23:0.52122153 24:0.53289113 25:0.53088227 26:0.54590597 27:0.54803621 28:0.18962136 29:0.30434963 30:0.35621795 31:0.40989959 32:0.22566572 33:0.3214336 34:0.48168639 35:0.543892 36:0.59803915 37:0.36685029 
-4 1:0.88738008 2:0.9028542 3:0.37830597 4:0.46773895 5:0.51907084 6:0.60353034 7:0.5750355 8:0.33618796 9:0.4674031 10:0.55889088 11:0.67366169 12:0.61762325 13:0.83726746 14:0.87516235 15:0.9028334 16:0.88222442 17:0.8873801 18:0.49400096 19:0.44792164 20:1 21:0.94455023 22:0.77944294 23:0.52122153 24:0.53289113 25:0.53088227 26:0.54590597 27:0.54803621 28:0.32983704 29:0.50080114 30:0.54089679 31:0.56951309 32:0.38289186 33:0.54419337 34:0.77694822 35:0.81513181 36:0.83832064 37:0.60652791 
-4 1:0.95193013 2:0.99322465 3:0.37830597 4:0.46773895 5:0.51907084 6:0.60353034 7:0.5750355 8:0.45581483 9:0.54078821 10:0.59746909 11:0.69331002 12:0.65863869 13:1 14:1 15:0.9683196 16:0.90975251 17:0.95193013 18:0.72873239 19:0.63740748 20:1 21:0.94455023 22:0.99999857 23:0.52122153 24:0.53289113 25:0.53088227 26:0.54590597 27:0.54803621 28:0.61630185 29:0.62537413 30:0.61918915 31:0.62005145 32:0.64073458 33:0.99999947 34:0.96447378 35:0.9302774 36:0.91453157 37:0.9999991 
4 1:0.46259943 2:0.42048053 3:0.37830597 4:0.46773895 5:0.51907084 6:0.60353034 7:0.5750355 8:0.038298307 9:0.096664731 10:0.26426088 11:0.48239737 12:0.34740427 13:0.44198473 14:0.27407885 15:0.40895637 16:0.61383647 17:0.46259943 18:0.18391358 19:0.19760505 20:1 21:0.94455023 22:0.29455168 23:0.52122153 24:0.53289113 25:0.53088227 26:0.54590597 27:0.54803621 28:0.1072967 29:0.16489627 30:0.19834763 31:0.24685987 32:0.12636097 33:0.1898638 34:0.27151333 35:0.31156649 36:0.35240576 37:0.21479323 
4 1:0.77276145 2:0.74212447 3:0.37830597 4:0.46773895 5:0.51907084 6:0.60353034 7:0.5750355 8:0.14725145 9:0.29934428 10:0.49932078 11:0.64257923 12:0.54466697 13:0.58692285 14:0.60430278 15:0.80263619 16:0.83922951 17:0.77276149 18:0.33581448 19:0.32022634 20:1 21:0.94455023 22:0.60095912 23:0.52122153 24:0.53289113 25:0.53088227 26:0.54590597 27:0.54803621 28:0.21242374 29:0.36801729 30:0.4294835 31:0.4828995 32:0.25904083 33:0.35800427 34:0.57758049 35:0.6518672 36:0.70837289 37:0.4179139 
-4 1:0.73356134 2:0.7058595 3:0.37830597 4:0.46773895 5:0.51907084 6:0.60353034 7:0.5750355 8:0.13580951 9:0.29011123 10:0.47350176 11:0.61406866 12:0.51969826 13:0.57098351 14:0.58483077 15:0.75890741 16:0.7996822 17:0.73356134 18:0.30155347 19:0.2925693 20:1 21:0.94455023 22:0.50791711 23:0.52122153 24:0.53289113 25:0.53088227 26:0.54590597 27:0.54803621 28:0.18454799 29:0.30635371 30:0.35752545 31:0.40949602 32:0.22194544 33:0.31254607 34:0.48428776 35:0.54576565 36:0.59768748 37:0.36034383 
-4 1:0.88128957 2:0.89437594 3:0.37830597 4:0.46773895 5:0.51907084 6:0.60353034 7:0.5750355 8:0.32771056 9:0.45976885 10:0.55534788 11:0.67163098 12:0.61372744 13:0.82540776 14:0.86150495 15:0.8967888 16:0.87958408 17:0.88128955 18:0.48773179 19:0.44286088 20:1 21:0.94455023 22:0.77996377 23:0.52122153 24:0.53289113 25:0.53088227 26:0.54590597 27:0.54803621 28:0.33213001 29:0.5008693 30:0.54052015 31:0.56920754 32:0.38474536 33:0.54725065 34:0.77682305 35:0.81453513 36:0.83792581 37:0.60884499 
-4 1:0.7872411 2:0.77939765 3:0.37830597 4:0.46773895 5:0.51907084 6:0.60353034 7:0.5750355 8:0.23191629 9:0.3646624 10:0.49609517 11:0.63269747 12:0.55387101 13:0.69676494 14:0.70422594 15:0.79711375 16:0.82476325 17:0.78724113 18:0.33646314 19:0.32074997 20:1 21:0.94455023 22:0.54908682 23:0.52122153 24:0.53289113 25:0.53088227 26:0.54590597 27:0.54803621 28:0.20680942 29:0.33150955 30:0.38503748 31:0.43741797 32:0.24581653 33:0.34892227 34:0.52265929 35:0.58628188 36:0.63941169 37:0.39775651 
-4 1:0.88884653 2:0.90341341 3:0.37830597 4:0.46773895 5:0.51907084 6:0.60353034 7:0.5750355 8:0.33346902 9:0.46573387 10:0.56021866 11:0.67538644 12:0.61850934 13:0.83382432 14:0.87318415 15:0.90529194 16:0.88453292 17:0.88884653 18:0.50517936 19:0.45694535 20:1 21:0.94455023 22:0.79978194 23:0.52122153 24:0.53289113 25:0.53088227 26:0.54590597 27:0.54803621 28:0.34366558 29:0.51592393 30:0.55324873 31:0.57900074 32:0.39734939 33:0.56642131 34:0.79971408 35:0.83323409 36:0.85254835 37:0.62876335 
-4 1:0.47012326 2:0.39107777 3:0.76057029 4:0.84881355 5:0.78544888 6:0.70239843 7:0.80401508 8:0.067017494 9:0.18430833 10:0.40556385 11:0.60227786 12:0.47024794 13:0.16599868 14:0.1772196 15:0.43493459 16:0.69959348 17:0.47012326 18:0.22012772 19:0.23572121 20:0.15808351 21:0.13916817 22:0.41459004 23:0.57831756 24:0.50267611 25:0.46894549 26:0.45151753 27:0.58580879 28:0.095374682 29:0.21325399 30:0.2828389 31:0.3529337 32:0.12973843 33:0.15610891 34:0.36020013 35:0.47892344 36:0.59252285 37:0.20808505 
-4 1:0.86612447 2:0.85964183 3:0.76057029 4:0.84881355 5:0.78544888 6:0.70239843 7:0.80401508 8:0.5021582 9:0.69941254 10:0.77206186 11:0.75576278 12:0.77630571 13:0.66773199 14:0.79577375 15:0.90612162 16:0.89205557 17:0.86612444 18:0.43229209 19:0.40698991 20:0.15808351 21:0.13916817 22:0.77105997 23:0.57831756 24:0.50267611 25:0.46894549 26:0.45151753 27:0.58580879 28:0.26395366 29:0.50086639 30:0.52155957 31:0.52073901 32:0.32809714 33:0.40721195 34:0.80842449 35:0.85565035 36:0.87352889 37:0.49848111 
-4 1:0.90265516 2:0.91785168 3:0.76057029 4:0.84881355 5:0.78544888 6:0.70239843 7:0.80401508 8:0.62118622 9:0.78332655 10:0.79051127 11:0.75974726 12:0.8045104 13:0.80493355 14:0.89645593 15:0.92984207 16:0.89714047 17:0.90265516 18:0.47841306 19:0.44422085 20:0.15808351 21:0.13916817 22:0.79182245 23:0.57831756 24:0.50267611 25:0.46894549 26:0.45151753 27:0.58580879 28:0.30890563 29:0.5089269 30:0.52217457 31:0.51963127 32:0.36598446 33:0.47393908 34:0.82083435 35:0.85654908 36:0.87163219 37:0.55374322 
-4 1:0.83091318 2:0.83380641 3:0.76057029 4:0.84881355 5:0.78544888 6:0.70239843 7:0.80401508 8:0.52765698 9:0.69982843 10:0.73270413 11:0.72438024 12:0.74895532 13:0.69720944 14:0.7963976 15:0.85564664 16:0.8527843 17:0.83091316 18:0.33294639 19:0.32679356 20:0.15808351 21:0.13916817 22:0.54153328 23:0.57831756 24:0.50267611 25:0.46894549 26:0.45151753 27:0.58580879 28:0.17284407 29:0.31369068 30:0.363083 31:0.4028826 32:0.21387712 33:0.27153656 34:0.51686019 35:0.60570043 36:0.67623913 37:0.33132232 
-4 1:0.9148543 2:0.93998957 3:0.76057029 4:0.84881355 5:0.78544888 6:0.70239843 7:0.80401508 8:0.68043559 9:0.81326258 10:0.79520181 11:0.75927794 12:0.81388189 13:0.87327852 14:0.93248061 15:0.93592031 16:0.89656223 17:0.91485428 18:0.50166968 19:0.46299465 20:0.15808351 21:0.13916817 22:0.81119653 23:0.57831756 24:0.50267611 25:0.46894549 26:0.45151753 27:0.58580879 28:0.33949412 29:0.51784958 30:0.52708332 31:0.5226666 32:0.39258934 33:0.51989763 34:0.83501914 35:0.86445888 36:0.87681571 37:0.59306725 
-4 1:0.57747385 2:0.51552866 3:0.76057029 4:0.84881355 5:0.78544888 6:0.70239843 7:0.80401508 8:0.16446792 9:0.31268417 10:0.52402566 11:0.63730827 12:0.55329677 13:0.27833359 14:0.3312907 15:0.58712795 16:0.74338008 17:0.57747385 18:0.22836778 19:0.24237297 20:0.15808351 21:0.13916817 22:0.37739666 23:0.57831756 24:0.50267611 25:0.46894549 26:0.45151753 27:0.58580879 28:0.096935317 29:0.20093878 30:0.25233636 31:0.30694403 32:0.12709843 33:0.1583397 34:0.34071732 35:0.43037784 36:0.51499301 37:0.20408449 
-4 1:0.91430497 2:0.93923442 3:0.76057029 4:0.84881355 5:0.78544888 6:0.70239843 7:0.80401508 8:0.68161946 9:0.81074916 10:0.79455382 11:0.75955803 12:0.813456 13:0.87462779 14:0.92944521 15:0.93510741 16:0.89692576 17:0.91430494 18:0.51195547 19:0.4712978 20:0.15808351 21:0.13916817 22:0.82893254 23:0.57831756 24:0.50267611 25:0.46894549 26:0.45151753 27:0.58580879 28:0.36266653 29:0.52954072 30:0.53296219 31:0.52580969 32:0.41369627 33:0.55432179 34:0.85318605 35:0.87371632 36:0.88207336 37:0.62388892 
-4 1:0.93872261 2:0.91315013 3:0.76057029 4:0.84881355 5:0.78544888 6:0.70239843 7:0.80401508 8:0.43963575 9:0.71809257 10:0.83534171 11:0.82662595 12:0.83257771 13:0.59562962 14:0.81804981 15:0.98734103 16:0.98085666 17:0.93872263 18:0.18935427 19:0.21087949 20:0.15808351 21:0.13916817 22:0.8284737 23:0.57831756 24:0.50267611 25:0.46894549 26:0.45151753 27:0.58580879 28:0.26662134 29:0.54833704 30:0.56616197 31:0.56354362 32:0.34080296 33:0.41102519 34:0.8821851 35:0.92598549 36:0.94526653 37:0.51691311 
-4 1:0.20447564 2:0.15721931 3:0.76057029 4:0.84881355 5:0.78544888 6:0.70239843 7:0.80401508 8:0.035758642 9:0.079324234 10:0.1944876 11:0.37037949 12:0.26512944 13:0.12997349 14:0.051241815 15:0.16345687 16:0.40746072 17:0.20447565 18:0.064563098 19:0.1101424 20:0.15808351 21:0.13916817 22:0.1530564 23:0.57831756 24:0.50267611 25:0.46894549 26:0.45151753 27:0.58580879 28:0.046995644 29:0.072275083 30:0.084702326 31:0.11597419 32:0.055228405 33:0.084045282 34:0.14036606 35:0.16586571 36:0.19495309 37:0.098973519 
-4 1:0.85663929 2:0.85917371 3:0.76057029 4:0.84881355 5:0.78544888 6:0.70239843 7:0.80401508 8:0.54052295 9:0.71567219 10:0.7572986 11:0.74140037 12:0.76891837 13:0.71201099 14:0.81528975 15:0.88717036 16:0.87411017 17:0.8566393 18:0.35472685 19:0.34437573 20:0.15808351 21:0.13916817 22:0.69397061 23:0.57831756 24:0.50267611 25:0.46894549 26:0.45151753 27:0.58580879 28:0.22499567 29:0.43876882 30:0.47229728 31:0.48421244 32:0.28328445 33:0.34916445 34:0.71174247 35:0.77801788 36:0.81242845 37:0.43287883 
-4 1:0.84515404 2:0.84700368 3:0.76057029 4:0.84881355 5:0.78544888 6:0.70239843 7:0.80401508 8:0.53143991 9:0.7067709 10:0.74593101 11:0.7353062 12:0.76015551 13:0.70140401 14:0.80450055 15:0.87236763 16:0.86637456 17:0.84515404 18:0.3863904 19:0.36993599 20:0.15808351 21:0.13916817 22:0.66152727 23:0.57831756 24:0.50267611 25:0.46894549 26:0.45151753 27:0.58580879 28:0.21546507 29:0.40371821 30:0.44981781 31:0.47345549 32:0.2684313 33:0.33470367 34:0.65676877 35:0.74229564 36:0.79426705 37:0.41085606 
-4 1:0.62374155 2:0.57110542 3:0.76057029 4:0.84881355 5:0.78544888 6:0.70239843 7:0.80401508 8:0.20309722 9:0.37897193 10:0.57564317 11:0.64676644 12:0.58807564 13:0.32296817 14:0.41125798 15:0.65468912 16:0.75721061 17:0.62374154 18:0.19156763 19:0.21266622 20:0.15808351 21:0.13916817 22:0.42376984 23:0.57831756 24:0.50267611 25:0.46894549 26:0.45151753 27:0.58580879 28:0.10868049 29:0.23490303 30:0.28776338 31:0.33505167 32:0.14429194 33:0.17617033 34:0.39457428 35:0.48742488 36:0.56326792 37:0.22972093 
-4 1:0.79215756 2:0.777244 3:0.76057029 4:0.84881355 5:0.78544888 6:0.70239843 7:0.80401508 8:0.44491661 9:0.6139636 10:0.70387687 11:0.7204535 12:0.71893678 13:0.60180692 14:0.69329425 15:0.8187391 16:0.84805286 17:0.79215754 18:0.31407238 19:0.31155761 20:0.15808351 21:0.13916817 22:0.62541914 23:0.57831756 24:0.50267611 25:0.46894549 26:0.45151753 27:0.58580879 28:0.18335725 29:0.37965774 30:0.42989304 31:0.460449 32:0.23723868 33:0.28726163 34:0.61977967 35:0.71120157 36:0.77268423 37:0.36559207 
4 1:0.86112398 2:0.87226614 3:0.76057029 4:0.84881355 5:0.78544888 6:0.70239843 7:0.80401508 8:0.58346224 9:0.74085853 10:0.75614042 11:0.73626653 12:0.77237342 13:0.7615215 14:0.84558599 15:0.88570479 16:0.86762261 17:0.86112398 18:0.38115303 19:0.36570814 20:0.15808351 21:0.13916817 22:0.63029276 23:0.57831756 24:0.50267611 25:0.46894549 26:0.45151753 27:0.58580879 28:0.21728559 29:0.37714404 30:0.42207942 31:0.45079991 32:0.2639059 33:0.33767847 34:0.61566651 35:0.69874654 36:0.75645884 37:0.4045058 
-4 1:0.8508465 2:0.8610024 3:0.76057029 4:0.84881355 5:0.78544888 6:0.70239843 7:0.80401508 8:0.57704809 9:0.72896566 10:0.74666013 11:0.73105351 12:0.76432387 13:0.75416078 14:0.83142302 15:0.87362234 16:0.86114855 17:0.85084649 18:0.3616287 19:0.34994722 20:0.15808351 21:0.13916817 22:0.59376306 23:0.57831756 24:0.50267611 25:0.46894549 26:0.45151753 27:0.58580879 28:0.19779551 29:0.3506279 30:0.39813391 31:0.43192971 32:0.24229632 33:0.30876367 34:0.57452842 35:0.6611259 36:0.72499814 37:0.37299825 
4 1:0.95193013 2:0.99322465 3:0.76057029 4:0.84881355 5:0.78544888 6:0.70239843 7:0.80401508 8:0.79042086 9:0.86956288 10:0.82042375 11:0.76978965 12:0.84257116 13:1 14:1 15:0.9683196 16:0.90975251 17:0.95193013 18:0.6264659 19:0.5637358 20:0.15808351 21:0.13916817 22:0.99999887 23:0.57831756 24:0.50267611 25:0.46894549 26:0.45151753 27:0.58580879 28:0.66205915 29:0.60114157 30:0.56891196 31:0.54524779 32:0.67075994 33:0.99999944 34:0.96447394 35:0.93027793 36:0.91453207 37:0.99999915 
4 1:0.46071298 2:0.38637987 3:0.76057029 4:0.84881355 5:0.78544888 6:0.70239843 7:0.80401508 8:0.06950758 9:0.1868581 10:0.41815564 11:0.5797572 12:0.46366187 13:0.1688201 14:0.17994909 15:0.45016616 16:0.67002253 17:0.460713 18:0.17035825 19:0.19554504 20:0.15808351 21:0.13916817 22:0.27140441 23:0.57831756 24:0.50267611 25:0.46894549 26:0.45151753 27:0.58580879 28:0.069064138 29:0.13459146 30:0.17345183 31:0.22565491 32:0.088821117 33:0.11686802 34:0.2374177 35:0.30593754 36:0.37879098 37:0.14809895 
-4 1:0.84645868 2:0.84349205 3:0.76057029 4:0.84881355 5:0.78544888 6:0.70239843 7:0.80401508 8:0.50443311 9:0.70055424 10:0.74737164 11:0.74113059 12:0.7611076 13:0.67035023 14:0.79717943 15:0.87432492 16:0.87362196 17:0.8464587 18:0.36499562 19:0.35266515 20:0.15808351 21:0.13916817 22:0.6275655 23:0.57831756 24:0.50267611 25:0.46894549 26:0.45151753 27:0.58580879 28:0.19137573 29:0.37558912 30:0.42967831 31:0.46293456 32:0.2430605 33:0.2990391 34:0.61303736 35:0.71048535 36:0.77654638 37:0.37390338 
0.23439346700043731 1:0.91407433 2:0.93899431 3:0.76057029 4:0.84881355 5:0.78544888 6:0.70239843 7:0.80401508 8:0.67943816 9:0.81209318 10:0.79424732 11:0.75921497 12:0.81328933 13:0.87211155 14:0.93105719 15:0.93470011 16:0.89647216 17:0.9140743 18:0.51070134 19:0.47028541 20:0.15808351 21:0.13916817 22:0.82515132 23:0.57831756 24:0.50267611 25:0.46894549 26:0.45151753 27:0.58580879 28:0.35565431 29:0.52792476 30:0.53243764 31:0.52553978 32:0.40770132 33:0.54393836 34:0.85064366 35:0.87285535 36:0.88159228 37:0.6151546 
-0.42012544106333438 1:0.82102889 2:0.82254658 3:0.76057029 4:0.84881355 5:0.78544888 6:0.70239843 7:0.80401508 8:0.52042698 9:0.68661534 10:0.72383355 11:0.72001101 12:0.74127011 13:0.68890449 14:0.78061671 15:0.8442842 16:0.8473033 17:0.82102893 18:0.32674383 19:0.32178657 20:0.15808351 21:0.13916817 22:0.52816892 23:0.57831756 24:0.50267611 25:0.46894549 26:0.45151753 27:0.58580879 28:0.16967376 29:0.30494323 30:0.35298873 31:0.3928041 32:0.20925954 33:0.26681794 34:0.50323599 35:0.58978373 36:0.65938828 37:0.32456709 
4 1:0.90547561 2:0.92825848 3:0.76057029 4:0.84881355 5:0.78544888 6:0.70239843 7:0.80401508 8:0.66436193 9:0.80104852 10:0.78753819 11:0.75559729 12:0.8066405 13:0.85474541 14:0.91781662 15:0.92607383 16:0.8919215 17:0.90547561 18:0.48883738 19:0.45263583 20:0.15808351 21:0.13916817 22:0.80009173 23:0.57831756 24:0.50267611 25:0.46894549 26:0.45151753 27:0.58580879 28:0.33031192 29:0.50879904 30:0.52155998 31:0.51941443 32:0.38330617 33:0.5061263 34:0.82086672 35:0.85571588 36:0.87134945 37:0.57939123 
2.8313623819388014 1:0.34055087 2:0.29677794 3:0.54920102 4:0.87612058 5:1 6:0.97008184 7:1 8:0.10670874 9:0.14757965 10:0.32900819 11:0.62821756 12:0.45398428 13:0.37047029 14:0.12307826 15:0.2479361 16:0.56036458 17:0.34055086 18:0.086887711 19:0.11239655 20:0.88558556 21:1 22:0.16271063 23:0.93203288 24:0.89492521 25:0.83082316 26:0.78241944 27:0.96270258 28:0.046493985 29:0.11633614 30:0.17667047 31:0.26370392 32:0.067895981 33:0.050904474 34:0.11996723 35:0.18359385 36:0.26994098 37:0.071353693 
4 1:0.79858385 2:0.77461638 3:0.54920102 4:0.87612058 5:1 6:0.97008184 7:1 8:0.31587789 9:0.60858509 10:0.84569257 11:0.92962495 12:0.86311076 13:0.63451655 14:0.66562334 15:0.8025357 16:0.8621967 17:0.79858385 18:0.27320556 19:0.26280076 20:0.88558556 21:1 22:0.61495207 23:0.93203288 24:0.89492521 25:0.83082316 26:0.78241944 27:0.96270258 28:0.28261753 29:0.55861984 30:0.64864535 31:0.68177718 32:0.36030219 33:0.30034251 34:0.58761767 35:0.69745817 36:0.76557907 37:0.3723974 
1.9225211603054304 1:0.87519023 2:0.87638623 3:0.54920102 4:0.87612058 5:1 6:0.97008184 7:1 8:0.4049032 9:0.75018841 10:0.93568065 11:0.95077988 12:0.93152016 13:0.7468924 14:0.83194909 15:0.89916454 16:0.88350136 17:0.87519023 18:0.38910913 19:0.35636337 20:0.88558556 21:1 22:0.74290358 23:0.93203288 24:0.89492521 25:0.83082316 26:0.78241944 27:0.96270258 28:0.43327309 29:0.7104463 30:0.74218693 31:0.73572674 32:0.51331911 33:0.459506 34:0.74807052 35:0.79935698 36:0.82955791 37:0.52996402 
-4 1:0.90181691 2:0.9163554 3:0.54920102 4:0.87612058 5:1 6:0.97008184 7:1 8:0.46697937 9:0.80306506 10:0.95705581 11:0.95992746 12:0.95516631 13:0.8252843 14:0.89423796 15:0.9222812 16:0.89279497 17:0.90181688 18:0.43854104 19:0.39626705 20:0.88558556 21:1 22:0.78885811 23:0.93203288 24:0.89492521 25:0.83082316 26:0.78241944 27:0.96270258 28:0.49420406 29:0.75597225 30:0.77462555 31:0.75768633 32:0.57223539 33:0.5240008 34:0.79633703 35:0.83484495 36:0.8557378 37:0.59077541 
-4 1:0.35325659 2:0.3069589 3:0.54920102 4:0.87612058 5:1 6:0.97008184 7:1 8:0.062171906 9:0.18179893 10:0.34949603 11:0.63205494 12:0.465983 13:0.3142065 14:0.16330833 15:0.26907284 16:0.5630611 17:0.35325658 18:0.072909477 19:0.10111268 20:0.88558556 21:1 22:0.16934837 23:0.93203288 24:0.89492521 25:0.83082316 26:0.78241944 27:0.96270258 28:0.06028901 29:0.13070814 30:0.18501705 31:0.25515092 32:0.081833061 33:0.065239118 34:0.13435311 35:0.19133504 36:0.25813957 37:0.085348524 
4 1:0.3399589 2:0.35167761 3:0.54920102 4:0.87612058 5:1 6:0.97008184 7:1 8:0.17309261 9:0.31858048 10:0.43460401 11:0.49780217 12:0.45515155 13:0.45374094 14:0.32317576 15:0.35922738 16:0.42694825 17:0.33995893 18:0.011479969 19:0.051524 20:0.88558556 21:1 22:0.14796447 23:0.93203288 24:0.89492521 25:0.83082316 26:0.78241944 27:0.96270258 28:0.083013579 29:0.14294875 30:0.15795041 31:0.17732257 32:0.10041258 33:0.089662529 34:0.14777707 35:0.16200688 36:0.16552027 37:0.10493053 
-4 1:0.77672934 2:0.76345538 3:0.54920102 4:0.87612058 5:1 6:0.97008184 7:1 8:0.33161451 9:0.61895048 10:0.83067231 11:0.89424607 12:0.84292895 13:0.65435864 14:0.67806054 15:0.78725778 16:0.82730806 17:0.77672935 18:0.23247058 19:0.22991764 20:0.88558556 21:1 22:0.47677382 23:0.93203288 24:0.89492521 25:0.83082316 26:0.78241944 27:0.96270258 28:0.22850542 29:0.41952639 30:0.49489601 31:0.54670572 32:0.28443097 33:0.24361756 34:0.4416206 35:0.5312794 36:0.6065738 37:0.29485164 
4 1:0.89241355 2:0.90517407 3:0.54920102 4:0.87612058 5:1 6:0.97008184 7:1 8:0.45879605 9:0.78991422 10:0.94618465 11:0.95530217 12:0.94665121 13:0.81493306 14:0.87881253 15:0.91075649 16:0.88826731 17:0.89241356 18:0.41996012 19:0.38126769 20:0.88558556 21:1 22:0.77217992 23:0.93203288 24:0.89492521 25:0.83082316 26:0.78241944 27:0.96270258 28:0.47591735 29:0.73505319 30:0.76138876 31:0.75040061 32:0.55314461 33:0.50501194 34:0.77461627 35:0.82071061 36:0.84728454 37:0.57146513 
-4 1:0.66246156 2:0.61522307 3:0.54920102 4:0.87612058 5:1 6:0.97008184 7:1 8:0.19191759 9:0.42725186 10:0.70657591 11:0.85384434 12:0.74265449 13:0.47786851 14:0.45147035 15:0.65182495 16:0.78518332 17:0.66246155 18:0.11585817 19:0.13578281 20:0.88558556 21:1 22:0.26907938 23:0.93203288 24:0.89492521 25:0.83082316 26:0.78241944 27:0.96270258 28:0.10399963 29:0.21637201 30:0.28922563 31:0.36619199 32:0.1376884 33:0.11131688 34:0.22476821 35:0.30470289 36:0.38981588 37:0.14273768 
-4 1:0.90135199 2:0.88875419 3:0.54920102 4:0.87612058 5:1 6:0.97008184 7:1 8:0.3787806 9:0.73521757 10:0.95856539 11:0.9900997 12:0.95497361 13:0.71390588 14:0.81422187 15:0.9237436 16:0.92302678 17:0.901352 18:0.23031363 19:0.22817645 20:0.88558556 21:1 22:0.7191335 23:0.93203288 24:0.89492521 25:0.83082316 26:0.78241944 27:0.96270258 28:0.37338066 29:0.67642121 30:0.7354447 31:0.74983913 32:0.45870234 33:0.39607202 34:0.71230387 35:0.7923721 36:0.84669452 37:0.47361475 
-2.4674453862376939 1:0.13969104 2:0.12412059 3:0.54920102 4:0.87612058 5:1 6:0.97008184 7:1 8:0.033444179 9:0.069616279 10:0.19027721 11:0.3968147 12:0.2752798 13:0.27798233 14:0.03130357 15:0.098195746 16:0.32682418 17:0.13969104 19:0.042256848 20:0.88558556 21:1 22:0.027325165 23:0.93203288 24:0.89492521 25:0.83082316 26:0.78241944 27:0.96270258 28:0.016807072 29:0.026594428 30:0.034959717 31:0.06419184 32:0.020185076 33:0.01945306 34:0.024571371 35:0.028224916 36:0.032118269 37:0.022064189 
-4 1:0.81685936 2:0.80954928 3:0.54920102 4:0.87612058 5:1 6:0.97008184 7:1 8:0.36770234 9:0.66808437 10:0.87343292 11:0.91877636 12:0.87937983 13:0.69994195 14:0.7354531 15:0.83235042 16:0.85154731 17:0.8168593 18:0.28591992 19:0.27306436 20:0.88558556 21:1 22:0.62113317 23:0.93203288 24:0.89492521 25:0.83082316 26:0.78241944 27:0.96270258 28:0.3154391 29:0.57619709 30:0.64130996 31:0.66200481 32:0.38945488 33:0.33495916 34:0.60638277 35:0.68975442 36:0.74233842 37:0.4024044 
-4 1:0.77240524 2:0.7576428 3:0.54920102 4:0.87612058 5:1 6:0.97008184 7:1 8:0.33687973 9:0.60505032 10:0.82113489 11:0.89689851 12:0.83909124 13:0.66105535 14:0.66185129 15:0.77705687 16:0.82974779 17:0.77240523 18:0.25420117 19:0.24745955 20:0.88558556 21:1 22:0.52645937 23:0.93203288 24:0.89492521 25:0.83082316 26:0.78241944 27:0.96270258 28:0.24731998 29:0.46903691 30:0.54940291 31:0.5961545 32:0.31108051 33:0.26364747 34:0.4939802 35:0.59044308 36:0.66488156 37:0.3224145 
-4 1:0.59845029 2:0.56124453 3:0.54920102 4:0.87612058 5:1 6:0.97008184 7:1 8:0.19308292 9:0.39564113 10:0.64483141 11:0.78884912 12:0.68447219 13:0.47950924 14:0.41471973 15:0.58688029 16:0.72135252 17:0.59845029 18:0.098955642 19:0.12213833 20:0.88558556 21:1 22:0.30107616 23:0.93203288 24:0.89492521 25:0.83082316 26:0.78241944 27:0.96270258 28:0.11812231 29:0.25305332 30:0.3252133 31:0.38586864 32:0.15721321 33:0.12654483 34:0.26482492 35:0.34579588 36:0.41530154 37:0.16334089 
-4 1:0.77025706 2:0.75475669 3:0.54920102 4:0.87612058 5:1 6:0.97008184 7:1 8:0.3348807 9:0.60217674 10:0.81599122 11:0.89907612 12:0.83790412 13:0.65851472 14:0.65786907 15:0.77062728 16:0.83157131 17:0.77025708 18:0.22503636 19:0.22391639 20:0.88558556 21:1 22:0.53674239 23:0.93203288 24:0.89492521 25:0.83082316 26:0.78241944 27:0.96270258 28:0.24335442 29:0.47663191 30:0.5632675 31:0.61615386 32:0.30997346 33:0.25888917 34:0.50122628 35:0.60475159 36:0.68778363 37:0.32064917 
-4 1:0.80456648 2:0.79749482 3:0.54920102 4:0.87612058 5:1 6:0.97008184 7:1 8:0.35919387 9:0.66185129 10:0.85970672 11:0.90904087 12:0.86848017 13:0.68920484 14:0.72809245 15:0.81756801 16:0.84158197 17:0.80456643 18:0.26607706 19:0.25704631 20:0.88558556 21:1 22:0.53399457 23:0.93203288 24:0.89492521 25:0.83082316 26:0.78241944 27:0.96270258 28:0.27240891 29:0.47899296 30:0.54991086 31:0.59140066 32:0.333132 33:0.28948018 34:0.50331585 35:0.58992164 36:0.65839508 37:0.34435258 
-4 1:0.89957292 2:0.9146363 3:0.54920102 4:0.87612058 5:1 6:0.97008184 7:1 8:0.46795864 9:0.80252337 10:0.95427907 11:0.95794897 12:0.9532176 13:0.82649912 14:0.89353535 15:0.91923309 16:0.89078353 17:0.89957292 18:0.43896727 19:0.39661112 20:0.88558556 21:1 22:0.79291435 23:0.93203288 24:0.89492521 25:0.83082316 26:0.78241944 27:0.96270258 28:0.50329016 29:0.75962526 30:0.77617762 31:0.7583016 32:0.58031234 33:0.53349434 34:0.80000818 35:0.83638156 36:0.85635516 37:0.59897256 
4 1:0.78488481 2:0.77179749 3:0.54920102 4:0.87612058 5:1 6:0.97008184 7:1 8:0.3343417 9:0.62720419 10:0.84008578 11:0.900628 12:0.85074871 13:0.65783895 14:0.68747333 15:0.79677221 16:0.83324602 17:0.78488483 18:0.24347894 19:0.23880409 20:0.88558556 21:1 22:0.48027229 23:0.93203288 24:0.89492521 25:0.83082316 26:0.78241944 27:0.96270258 28:0.23030923 29:0.42271865 30:0.49954593 31:0.5519217 32:0.28669821 33:0.24514967 34:0.44411308 35:0.53537566 36:0.61185907 37:0.29671544 
-4 1:0.89428742 2:0.90644697 3:0.54920102 4:0.87612058 5:1 6:0.97008184 7:1 8:0.45516568 9:0.79108019 10:0.95007301 11:0.95650392 12:0.94854109 13:0.81035221 14:0.88005625 15:0.91468863 16:0.88928601 17:0.89428741 18:0.42829406 19:0.38799522 20:0.88558556 21:1 22:0.78083079 23:0.93203288 24:0.89492521 25:0.83082316 26:0.78241944 27:0.96270258 28:0.48463396 29:0.74708421 30:0.76892389 31:0.75425672 32:0.56265612 33:0.51371163 34:0.7867187 35:0.82847103 36:0.85155705 37:0.58072114 
4 1:0.42926683 2:0.36852529 3:0.54920102 4:0.87612058 5:1 6:0.97008184 7:1 8:0.074753726 9:0.18847385 10:0.43226453 11:0.70872352 12:0.53358573 13:0.33012499 14:0.17111948 15:0.35825646 16:0.64074093 17:0.42926686 18:0.098986987 19:0.12216363 20:0.88558556 21:1 22:0.16912714 23:0.93203288 24:0.89492521 25:0.83082316 26:0.78241944 27:0.96270258 28:0.057167 29:0.12365806 30:0.18144593 31:0.26516882 32:0.07803943 33:0.062069149 34:0.1273149 35:0.18816276 36:0.27112175 37:0.081632136 
4 1:0.7729353 2:0.73841852 3:0.54920102 4:0.87612058 5:1 6:0.97008184 7:1 8:0.25637576 9:0.55259464 10:0.85535163 11:0.90234186 12:0.84024725 13:0.55941346 14:0.59948827 15:0.81307213 16:0.83508251 17:0.7729353 18:0.25875035 19:0.25113186 20:0.88558556 21:1 22:0.5410414 23:0.93203288 24:0.89492521 25:0.83082316 26:0.78241944 27:0.96270258 28:0.23701086 29:0.49171642 30:0.57228417 31:0.61498965 32:0.30779874 33:0.25175774 34:0.51643351 35:0.61424893 36:0.68648482 37:0.31792576 
4 1:0.76318757 2:0.74357588 3:0.54920102 4:0.87612058 5:1 6:0.97008184 7:1 8:0.29541569 9:0.59554037 10:0.82315992 11:0.88626407 12:0.8306732 13:0.60874282 14:0.65064325 15:0.77946887 16:0.81952284 17:0.76318757 18:0.22741761 19:0.22583865 20:0.88558556 21:1 22:0.46039781 23:0.93203288 24:0.89492521 25:0.83082316 26:0.78241944 27:0.96270258 28:0.21495355 29:0.4039115 30:0.47951904 31:0.53303957 32:0.26994076 33:0.22942812 34:0.42548555 35:0.51495959 36:0.59079814 37:0.28010683 
4 1:0.89240073 2:0.9043084 3:0.54920102 4:0.87612058 5:1 6:0.97008184 7:1 8:0.45437744 9:0.78831619 10:0.94777762 11:0.9551806 12:0.94662075 13:0.80935316 14:0.87697169 15:0.9124699 16:0.88812052 17:0.89240073 18:0.42260489 19:0.38340267 20:0.88558556 21:1 22:0.77458347 23:0.93203288 24:0.89492521 25:0.83082316 26:0.78241944 27:0.96270258 28:0.48071224 29:0.73861751 30:0.76214887 31:0.74959578 32:0.55767517 33:0.51022394 34:0.77847282 35:0.82159436 36:0.84637017 37:0.57626996 
4 1:0.77552205 2:0.75951638 3:0.54920102 4:0.87612058 5:1 6:0.97008184 7:1 8:0.3191763 9:0.61281428 10:0.8313634 11:0.89610999 12:0.84242601 13:0.63870474 14:0.67053671 15:0.78737262 16:0.82866804 17:0.77552207 18:0.23893554 19:0.23513645 20:0.88558556 21:1 22:0.46672371 23:0.93203288 24:0.89492521 25:0.83082316 26:0.78241944 27:0.96270258 28:0.22186692 29:0.40924706 30:0.48647237 31:0.54042391 32:0.27684521 33:0.23616598 34:0.42970938 35:0.52093997 36:0.59799681 37:0.28648641 
4 1:0.90269657 2:0.91760594 3:0.54920102 4:0.87612058 5:1 6:0.97008184 7:1 8:0.46974706 9:0.8040655 10:0.95754199 11:0.96071776 12:0.95603433 13:0.82876668 14:0.89533101 15:0.92272786 16:0.89354056 17:0.90269658 18:0.44989493 19:0.40543243 20:0.88558556 21:1 22:0.80707237 23:0.93203288 24:0.89492521 25:0.83082316 26:0.78241944 27:0.96270258 28:0.51504059 29:0.7763059 30:0.78878803 31:0.7669792 32:0.59335479 33:0.54586117 34:0.81755151 35:0.85006108 36:0.86662081 37:0.61234703 
4 1:0.62571444 2:0.61759066 3:0.071248609 4:0.13576041 5:0.17885747 6:0.18004417 7:0.17675985 8:0.039881468 9:0.071283434 10:0.16482731 11:0.28377448 12:0.21075444 13:0.76448134 14:0.5293957 15:0.54235544 16:0.70866854 17:0.62571447 18:0.39521883 19:0.30159054 20:0.021763819 21:0.022025428 22:0.53989907 23:0.17508821 24:0.1727703 25:0.16001624 26:0.15073386 27:0.1818706 28:0.11442625 29:0.15927312 30:0.17493901 31:0.19540453 32:0.12963552 33:0.37368725 34:0.50634111 35:0.56493061 36:0.6166497 37:0.41352117 
-4 1:0.89704827 2:0.92153671 3:0.071248609 4:0.13576041 5:0.17885747 6:0.18004417 7:0.17675985 8:0.12475567 9:0.21304533 10:0.29311016 11:0.35602595 12:0.31727391 13:0.90005968 14:0.89295875 15:0.91157301 16:0.88589569 17:0.89704826 18:0.65211841 19:0.50897153 20:0.021763819 21:0.022025428 22:0.87744496 23:0.17508821 24:0.1727703 25:0.16001624 26:0.15073386 27:0.1818706 28:0.24134401 29:0.30091777 30:0.29541636 31:0.29146416 32:0.26321404 33:0.7281315 34:0.87218197 35:0.8721159 36:0.87319377 37:0.76977872 
-4 1:0.82069714 2:0.83631612 3:0.071248609 4:0.13576041 5:0.17885747 6:0.18004417 7:0.17675985 8:0.090997951 9:0.17386512 10:0.26221096 11:0.33335938 12:0.28744437 13:0.84598432 14:0.79171913 15:0.82202034 16:0.83013135 17:0.82069714 18:0.45177716 19:0.34724699 20:0.021763819 21:0.022025428 22:0.63462057 23:0.17508821 24:0.1727703 25:0.16001624 26:0.15073386 27:0.1818706 28:0.15917307 29:0.19970762 30:0.2051007 31:0.21595196 32:0.17442682 33:0.49881865 34:0.61037405 35:0.64122595 36:0.67077513 37:0.53298453 
-4 1:0.90960702 2:0.94024211 3:0.071248609 4:0.13576041 5:0.17885747 6:0.18004417 7:0.17675985 8:0.14332413 9:0.22709006 10:0.29703241 11:0.3567689 12:0.32223735 13:0.92975411 14:0.92901865 15:0.92276138 16:0.88766018 17:0.90960703 18:0.6482879 19:0.50587937 20:0.021763819 21:0.022025428 22:0.88200136 23:0.17508821 24:0.1727703 25:0.16001624 26:0.15073386 27:0.1818706 28:0.24600981 29:0.30130174 30:0.29600427 31:0.29249399 32:0.26710269 33:0.74069005 34:0.87292964 35:0.87344971 36:0.87581276 37:0.77973995 
4 1:0.38269096 2:0.39317104 3:0.071248609 4:0.13576041 5:0.17885747 6:0.18004417 7:0.17675985 8:0.0065577247 9:0.023153615 10:0.076534017 11:0.1719426 12:0.11575109 13:0.71102409 14:0.40506028 15:0.28761984 16:0.43378093 17:0.38269097 18:0.28358511 19:0.21147475 20:0.021763819 21:0.022025428 22:0.32100084 23:0.17508821 24:0.1727703 25:0.16001624 26:0.15073386 27:0.1818706 28:0.084835211 29:0.084503876 30:0.075258598 31:0.078759264 32:0.087251314 33:0.29192782 34:0.31401484 35:0.31151979 36:0.30589562 37:0.30135623 
-4 1:0.82103954 2:0.83406517 3:0.071248609 4:0.13576041 5:0.17885747 6:0.18004417 7:0.17675985 8:0.090043254 9:0.16969816 10:0.26078205 11:0.33619018 12:0.28765495 13:0.84434099 14:0.78051175 15:0.81766581 16:0.83693428 17:0.82103953 18:0.4955354 19:0.38257063 20:0.021763819 21:0.022025428 22:0.76268275 23:0.17508821 24:0.1727703 25:0.16001624 26:0.15073386 27:0.1818706 28:0.19280175 29:0.2505987 30:0.25693581 31:0.26441 32:0.21321442 33:0.59275614 34:0.74216489 35:0.77389667 36:0.80082435 37:0.63655062 
-4 1:0.85013345 2:0.87241999 3:0.071248609 4:0.13576041 5:0.17885747 6:0.18004417 7:0.17675985 8:0.10986189 9:0.19438548 10:0.27409525 11:0.33953325 12:0.29884919 13:0.87617947 14:0.84486615 15:0.85700087 16:0.84556412 17:0.85013348 18:0.50813097 19:0.39273834 20:0.021763819 21:0.022025428 22:0.73224138 23:0.17508821 24:0.1727703 25:0.16001624 26:0.15073386 27:0.1818706 28:0.18860711 29:0.23865649 30:0.2428086 31:0.24984634 32:0.20699554 33:0.58132656 34:0.71163866 35:0.73814116 36:0.76210964 37:0.62025779 
4 1:0.90883398 2:0.93947719 3:0.071248609 4:0.13576041 5:0.17885747 6:0.18004417 7:0.17675985 8:0.14355482 9:0.2265273 10:0.29667668 11:0.35644183 12:0.32187494 13:0.93017406 14:0.92788999 15:0.92196202 16:0.88693982 17:0.90883403 18:0.66595661 19:0.52014235 20:0.021763819 21:0.022025428 22:0.89080574 23:0.17508821 24:0.1727703 25:0.16001624 26:0.15073386 27:0.1818706 28:0.25052153 29:0.30472686 30:0.29840071 31:0.29417652 32:0.27147496 33:0.75372151 34:0.88218571 35:0.87985717 36:0.88052249 37:0.79182417 
-4 1:0.9209514 2:0.93498101 3:0.071248609 4:0.13576041 5:0.17885747 6:0.18004417 7:0.17675985 8:0.1029344 9:0.20494083 10:0.30279964 11:0.37278155 12:0.32640042 13:0.86533309 14:0.87289991 15:0.94000061 16:0.92747097 17:0.92095136 18:0.32837225 19:0.24762896 20:0.021763819 21:0.022025428 22:0.83124358 23:0.17508821 24:0.1727703 25:0.16001624 26:0.15073386 27:0.1818706 28:0.20891098 29:0.27675993 30:0.28456965 31:0.29239456 32:0.23227238 33:0.63898314 34:0.81087299 35:0.84526954 36:0.87622907 37:0.68858593 
-4 1:0.98075362 2:0.9977916 3:0.071248609 4:0.13576041 5:0.17885747 6:0.18004417 7:0.17675985 8:0.12675662 9:0.23167316 10:0.32186169 11:0.39573583 12:0.34988453 13:0.90347741 14:0.94165038 15:0.99473433 16:0.98365341 17:0.98075361 18:0.33690264 19:0.25451507 20:0.021763819 21:0.022025428 22:0.97238995 23:0.17508821 24:0.1727703 25:0.16001624 26:0.15073386 27:0.1818706 28:0.26377713 29:0.33827474 30:0.3337826 31:0.3299507 32:0.28990343 33:0.79188099 34:0.96936128 35:0.97043745 36:0.97633023 37:0.84194784 
4 1:0.36401468 2:0.3821354 3:0.071248609 4:0.13576041 5:0.17885747 6:0.18004417 7:0.17675985 8:0.008236712 9:0.026600037 10:0.077166515 11:0.15598058 12:0.10860714 13:0.71371308 14:0.41397218 15:0.28956397 16:0.39393538 17:0.36401466 18:0.11263615 19:0.073477001 20:0.021763819 21:0.022025428 22:0.28505269 23:0.17508821 24:0.1727703 25:0.16001624 26:0.15073386 27:0.1818706 28:0.079260115 29:0.074172631 30:0.060724951 31:0.058043036 32:0.080106936 33:0.27588768 34:0.28660507 35:0.2735597 36:0.24948727 37:0.28174346 
-4 1:0.85146553 2:0.86969163 3:0.071248609 4:0.13576041 5:0.17885747 6:0.18004417 7:0.17675985 8:0.10128587 9:0.18815248 10:0.27461 11:0.34319302 12:0.29937647 13:0.86259166 14:0.82936862 15:0.85829194 16:0.85434666 17:0.85146555 18:0.45332838 19:0.34849921 20:0.021763819 21:0.022025428 22:0.80470447 23:0.17508821 24:0.1727703 25:0.16001624 26:0.15073386 27:0.1818706 28:0.20915647 29:0.26914196 30:0.27145537 31:0.27449837 32:0.23041076 33:0.63910911 34:0.79069532 35:0.81140436 36:0.82811858 37:0.68307847 
-4 1:0.89227585 2:0.91828018 3:0.071248609 4:0.13576041 5:0.17885747 6:0.18004417 7:0.17675985 8:0.12956519 9:0.21330655 10:0.28974427 11:0.35345239 12:0.31516585 13:0.9079766 14:0.89478812 15:0.90283861 16:0.87994703 17:0.89227582 18:0.63150769 19:0.49233362 20:0.021763819 21:0.022025428 22:0.86129035 23:0.17508821 24:0.1727703 25:0.16001624 26:0.15073386 27:0.1818706 28:0.23131435 29:0.29304277 30:0.29104968 31:0.28926177 32:0.25350623 33:0.70164744 34:0.85307058 35:0.86183287 36:0.8679044 37:0.745325 
-4 1:0.61712495 2:0.61974401 3:0.071248609 4:0.13576041 5:0.17885747 6:0.18004417 7:0.17675985 8:0.031363133 9:0.083750598 10:0.17772404 11:0.2656501 12:0.20753136 13:0.7507485 14:0.56119772 15:0.57941086 16:0.66371884 17:0.61712493 18:0.28552807 19:0.21304319 20:0.021763819 21:0.022025428 22:0.50614384 23:0.17508821 24:0.1727703 25:0.16001624 26:0.15073386 27:0.1818706 28:0.12237832 29:0.14942374 30:0.15403032 31:0.16746965 32:0.13320664 33:0.3965675 34:0.48114203 35:0.51163943 36:0.54191539 37:0.42359904 
-4 1:0.86171881 2:0.88297159 3:0.071248609 4:0.13576041 5:0.17885747 6:0.18004417 7:0.17675985 8:0.11237471 9:0.19643662 10:0.27711843 11:0.3454979 12:0.30331244 13:0.88037066 14:0.85110451 15:0.86607516 16:0.86004557 17:0.86171883 18:0.5063948 19:0.39133682 20:0.021763819 21:0.022025428 22:0.80546745 23:0.17508821 24:0.1727703 25:0.16001624 26:0.15073386 27:0.1818706 28:0.20291921 29:0.26712054 30:0.27420512 31:0.28138233 32:0.22518945 33:0.62183461 34:0.78573695 35:0.81865056 36:0.84669953 37:0.66932724 
-4 1:0.82900896 2:0.83857073 3:0.071248609 4:0.13576041 5:0.17885747 6:0.18004417 7:0.17675985 8:0.07336518 9:0.16563035 10:0.2689722 11:0.33966521 12:0.29055791 13:0.81799702 14:0.7717109 15:0.84196481 16:0.84560528 17:0.82900896 18:0.48446846 19:0.37363689 20:0.021763819 21:0.022025428 22:0.69766062 23:0.17508821 24:0.1727703 25:0.16001624 26:0.15073386 27:0.1818706 28:0.17720148 29:0.22548356 30:0.23002654 31:0.23811408 32:0.19479901 33:0.54922621 34:0.67704551 35:0.7049727 36:0.73022027 37:0.58739431 
4 1:0.91477118 2:0.94644403 3:0.071248609 4:0.13576041 5:0.17885747 6:0.18004417 7:0.17675985 8:0.14757807 9:0.22987592 10:0.29910997 11:0.35796501 12:0.32420788 13:0.93665129 14:0.93655795 15:0.92893916 16:0.89063975 17:0.91477115 18:0.67881882 19:0.53052531 20:0.021763819 21:0.022025428 22:0.89965739 23:0.17508821 24:0.1727703 25:0.16001624 26:0.15073386 27:0.1818706 28:0.25534796 29:0.30859997 30:0.30088201 31:0.29553327 32:0.2761801 33:0.76731766 34:0.89219588 35:0.8861746 36:0.8841437 37:0.80446195 
-4 1:0.82683724 2:0.8469442 3:0.071248609 4:0.13576041 5:0.17885747 6:0.18004417 7:0.17675985 8:0.10157677 9:0.1831535 10:0.26496127 11:0.33231483 12:0.28991832 13:0.86286093 14:0.81548702 15:0.82977912 16:0.8274243 17:0.82683727 18:0.46395815 19:0.35708004 20:0.021763819 21:0.022025428 22:0.65038099 23:0.17508821 24:0.1727703 25:0.16001624 26:0.15073386 27:0.1818706 28:0.16553609 29:0.206248 30:0.21067747 31:0.22038758 32:0.18100325 33:0.51625502 34:0.62702388 35:0.65529094 36:0.68256474 37:0.5502173 
4 1:0.90567691 2:0.935943 3:0.071248609 4:0.13576041 5:0.17885747 6:0.18004417 7:0.17675985 8:0.14111157 9:0.22519703 10:0.29567119 11:0.35541235 12:0.32067787 13:0.92621277 14:0.92421281 15:0.91891696 16:0.88436907 17:0.90567693 18:0.65070797 19:0.50783295 20:0.021763819 21:0.022025428 22:0.8761937 23:0.17508821 24:0.1727703 25:0.16001624 26:0.15073386 27:0.1818706 28:0.24374762 29:0.29880854 30:0.29392954 31:0.29089224 32:0.26473146 33:0.73445463 34:0.8665653 35:0.86820788 36:0.87156851 37:0.77349508 
-4 1:0.95193013 2:0.99322465 3:0.071248609 4:0.13576041 5:0.17885747 6:0.18004417 7:0.17675985 8:0.18703942 9:0.2543715 10:0.3127153 11:0.36572135 12:0.33871574 13:1 14:1 15:0.9683196 16:0.90975251 17:0.95193013 18:0.9056693 19:0.7136493 20:0.021763819 21:0.022025428 22:0.99999636 23:0.17508821 24:0.1727703 25:0.16001624 26:0.15073386 27:0.1818706 28:0.33890678 29:0.336554 30:0.31813569 31:0.30687168 32:0.34966997 33:0.99999832 34:0.96447216 35:0.93027508 36:0.91452821 37:0.99999795 
4 1:0.57037742 2:0.56738613 3:0.071248609 4:0.13576041 5:0.17885747 6:0.18004417 7:0.17675985 8:0.017820045 9:0.059192955 10:0.15617527 11:0.2533957 12:0.18949408 13:0.72905318 14:0.49770689 15:0.51599125 16:0.63298009 17:0.57037739 18:0.32147446 19:0.24206075 20:0.021763819 21:0.022025428 22:0.40830986 23:0.17508821 24:0.1727703 25:0.16001624 26:0.15073386 27:0.1818706 28:0.10162715 29:0.1141407 30:0.1127388 31:0.12295193 32:0.10805272 33:0.33841715 34:0.38986016 35:0.4062235 36:0.42289064 37:0.35632932 
-4 1:0.87176602 2:0.89162579 3:0.071248609 4:0.13576041 5:0.17885747 6:0.18004417 7:0.17675985 8:0.11182714 9:0.19827039 10:0.28135283 11:0.35053118 12:0.30751185 13:0.87928121 14:0.85436949 15:0.87702128 16:0.87213684 17:0.87176601 18:0.56842193 19:0.44140794 20:0.021763819 21:0.022025428 22:0.82215957 23:0.17508821 24:0.1727703 25:0.16001624 26:0.15073386 27:0.1818706 28:0.20848485 29:0.27482725 30:0.28151769 31:0.28633332 32:0.23139878 33:0.6360335 34:0.80446942 35:0.83650085 36:0.85943603 37:0.68460064 
-4 1:0.87533758 2:0.90070898 3:0.071248609 4:0.13576041 5:0.17885747 6:0.18004417 7:0.17675985 8:0.12256512 9:0.20767197 10:0.2840738 11:0.34710918 12:0.30881012 13:0.89642981 14:0.87878268 15:0.88543234 16:0.86401444 17:0.87533759 18:0.56426043 19:0.43804858 20:0.021763819 21:0.022025428 22:0.79496911 23:0.17508821 24:0.1727703 25:0.16001624 26:0.15073386 27:0.1818706 28:0.21127183 29:0.26462824 30:0.26582818 31:0.26893638 32:0.23105087 33:0.6441371 34:0.77836704 35:0.79655826 36:0.81288705 37:0.68396487 
4 1:0.91773763 2:0.94971435 3:0.071248609 4:0.13576041 5:0.17885747 6:0.18004417 7:0.17675985 8:0.14906563 9:0.23136926 10:0.30012491 11:0.35893049 12:0.32535254 13:0.93903113 14:0.94042392 15:0.93192502 16:0.89306311 17:0.91773761 18:0.696736 19:0.54498887 20:0.021763819 21:0.022025428 22:0.91033373 23:0.17508821 24:0.1727703 25:0.16001624 26:0.15073386 27:0.1818706 28:0.2606401 29:0.31303259 30:0.30408143 31:0.29787563 32:0.28140071 33:0.78189893 34:0.90365521 35:0.89437091 36:0.89044014 37:0.81824235 
-4 1:0.86874439 2:0.89411523 3:0.071248609 4:0.13576041 5:0.17885747 6:0.18004417 7:0.17675985 8:0.12173764 9:0.20571794 10:0.28115959 11:0.34475952 12:0.30630166 13:0.89509592 14:0.87349946 15:0.87680319 16:0.85807608 17:0.86874441 18:0.54743974 19:0.42447016 20:0.021763819 21:0.022025428 22:0.77343351 23:0.17508821 24:0.1727703 25:0.16001624 26:0.15073386 27:0.1818706 28:0.20428896 29:0.2559685 30:0.25795708 31:0.26197728 32:0.22348147 33:0.62434107 34:0.75557059 35:0.77607811 36:0.79393839 37:0.663445 
4 1:0.91621029 2:0.94777114 3:0.071248609 4:0.13576041 5:0.17885747 6:0.18004417 7:0.17675985 8:0.14789812 9:0.23023747 10:0.29954699 11:0.35866447 12:0.32477985 13:0.93713951 14:0.93741386 15:0.93014018 16:0.89237114 17:0.91621029 18:0.68631143 19:0.53657368 20:0.021763819 21:0.022025428 22:0.90455294 23:0.17508821 24:0.1727703 25:0.16001624 26:0.15073386 27:0.1818706 28:0.25770898 29:0.31065413 30:0.30243995 31:0.29671187 32:0.27852937 33:0.77363421 34:0.89740928 35:0.89010933 36:0.88727539 37:0.81049986 
4 1:0.37983266 2:0.33229038 3:0.64811442 4:0.80206217 5:0.72293819 6:0.53826721 7:0.68843153 8:0.094013431 9:0.14219697 10:0.29622134 11:0.4410366 12:0.34765881 13:0.2793513 14:0.14677797 15:0.32518026 16:0.61023655 17:0.37983266 18:0.19435837 19:0.1953087 20:0.34719217 21:0.43017169 22:0.36634251 23:0.3067885 24:0.27547169 25:0.25782368 26:0.24656715 27:0.31276303 28:0.078598876 29:0.12419495 30:0.14719822 31:0.18429437 32:0.093212419 33:0.20519121 34:0.33194986 35:0.39547662 36:0.46816466 37:0.24037659 
-1.6410862542616396 1:0.83147119 2:0.82804956 3:0.64811442 4:0.80206217 5:0.72293819 6:0.53826721 7:0.68843153 8:0.41193557 9:0.63839244 10:0.69075415 11:0.61739913 12:0.66517709 13:0.66161461 14:0.76176213 15:0.86257119 16:0.87198896 17:0.83147115 18:0.39200693 19:0.35485958 20:0.34719217 21:0.43017169 22:0.72506486 23:0.3067885 24:0.27547169 25:0.25782368 26:0.24656715 27:0.31276303 28:0.18751829 29:0.30539282 30:0.32883917 31:0.34176536 32:0.22225294 33:0.44216939 34:0.72089814 35:0.7835385 36:0.82222166 37:0.51256429 
4 1:0.89938082 2:0.92099705 3:0.64811442 4:0.80206217 5:0.72293819 6:0.53826721 7:0.68843153 8:0.55357711 9:0.75686555 10:0.73636103 11:0.62836971 12:0.71275681 13:0.83273668 14:0.90956813 15:0.92505808 16:0.88838734 17:0.89938081 18:0.5063777 19:0.44718485 20:0.34719217 21:0.43017169 22:0.80186368 23:0.3067885 24:0.27547169 25:0.25782368 26:0.24656715 27:0.31276303 28:0.24545708 29:0.34720775 30:0.35274585 31:0.35326602 32:0.27762829 33:0.56741497 34:0.81013157 35:0.8342664 36:0.84782548 37:0.62866003 
-4 1:0.83864777 2:0.85317903 3:0.64811442 4:0.80206217 5:0.72293819 6:0.53826721 7:0.68843153 8:0.49091783 9:0.69686195 10:0.69103835 11:0.59941068 12:0.670045 13:0.75675856 14:0.83416761 15:0.86323896 16:0.84567591 17:0.83864774 18:0.36507605 19:0.33311975 20:0.34719217 21:0.43017169 22:0.59972304 23:0.3067885 24:0.27547169 25:0.25782368 26:0.24656715 27:0.31276303 28:0.16318728 29:0.24412105 30:0.26088184 31:0.2764028 32:0.18835686 33:0.38848591 34:0.58874614 35:0.63784135 36:0.67480054 37:0.44034944 
4 1:0.9156296 2:0.9437716 3:0.64811442 4:0.80206217 5:0.72293819 6:0.53826721 7:0.68843153 8:0.5961368 9:0.78251088 10:0.7458339 11:0.63201375 12:0.72418744 13:0.88411334 14:0.94150488 15:0.93795311 16:0.89377834 17:0.91562964 18:0.52848138 19:0.46502794 20:0.34719217 21:0.43017169 22:0.82361326 23:0.3067885 24:0.27547169 25:0.25782368 26:0.24656715 27:0.31276303 28:0.26203057 29:0.35600527 30:0.35954919 31:0.35873688 32:0.29294372 33:0.60353802 34:0.82927178 35:0.8490339 36:0.86031964 37:0.66108891 
4 1:0.32446654 2:0.29408212 3:0.64811442 4:0.80206217 5:0.72293819 6:0.53826721 7:0.68843153 8:0.078422816 9:0.17349409 10:0.30173462 11:0.35072634 12:0.30850423 13:0.25975169 14:0.18406566 15:0.33283044 16:0.4788108 17:0.32446655 18:0.12101498 19:0.1361026 20:0.34719217 21:0.43017169 22:0.27308295 23:0.3067885 24:0.27547169 25:0.25782368 26:0.24656715 27:0.31276303 28:0.070408692 29:0.092047028 30:0.095604792 31:0.11219046 32:0.078063232 33:0.18746288 34:0.26313599 35:0.28554994 36:0.30645224 37:0.20853296 
-4 1:0.68837224 2:0.69066918 3:0.64811442 4:0.80206217 5:0.72293819 6:0.53826721 7:0.68843153 8:0.36774417 9:0.54698184 10:0.58183966 11:0.52122336 12:0.56350185 13:0.60822232 14:0.64795865 15:0.71632651 16:0.73228207 17:0.68837226 18:0.237692 19:0.23028957 20:0.34719217 21:0.43017169 22:0.53005002 23:0.3067885 24:0.27547169 25:0.25782368 26:0.24656715 27:0.31276303 28:0.13425472 29:0.20992104 30:0.2286309 31:0.2485788 32:0.15731071 33:0.32597985 34:0.51586303 35:0.56961036 36:0.61303693 37:0.37529743 
-4 1:0.77781983 2:0.7846261 3:0.64811442 4:0.80206217 5:0.72293819 6:0.53826721 7:0.68843153 8:0.42694387 9:0.63318318 10:0.64699509 11:0.570123 12:0.62691598 13:0.67895426 14:0.75411026 15:0.80393459 16:0.80300938 17:0.77781984 18:0.29986829 19:0.28048109 20:0.34719217 21:0.43017169 22:0.51766491 23:0.3067885 24:0.27547169 25:0.25782368 26:0.24656715 27:0.31276303 28:0.13562367 29:0.20386138 30:0.2205553 31:0.23979447 32:0.15694023 33:0.32876885 34:0.50280784 35:0.55225802 36:0.59310756 37:0.37437204 
4 1:0.90227959 2:0.92790902 3:0.64811442 4:0.80206217 5:0.72293819 6:0.53826721 7:0.68843153 8:0.57940593 9:0.76554177 10:0.73570061 11:0.62722321 12:0.7147537 13:0.86393575 14:0.92044297 15:0.92423183 16:0.88673335 17:0.9022796 18:0.5034258 19:0.44480194 20:0.34719217 21:0.43017169 22:0.80557138 23:0.3067885 24:0.27547169 25:0.25782368 26:0.24656715 27:0.31276303 28:0.25231683 29:0.3456975 30:0.35230529 31:0.35424017 32:0.2829262 33:0.58243713 34:0.80723774 35:0.83366734 36:0.85032398 37:0.64000084 
-4 1:0.80757942 2:0.78831896 3:0.64811442 4:0.80206217 5:0.72293819 6:0.53826721 7:0.68843153 8:0.30527278 9:0.58403119 10:0.7001641 11:0.60652894 12:0.64825336 13:0.53344626 14:0.69438768 15:0.8755405 16:0.85634136 17:0.80757946 18:0.18400326 19:0.18694959 20:0.34719217 21:0.43017169 22:0.51949252 23:0.3067885 24:0.27547169 25:0.25782368 26:0.24656715 27:0.31276303 28:0.12414893 29:0.20459206 30:0.22594263 31:0.2488867 32:0.14807885 33:0.30392995 34:0.50412535 35:0.5634271 36:0.61317732 37:0.35570891 
4 1:0.9425786 2:0.93811708 3:0.64811442 4:0.80206217 5:0.72293819 6:0.53826721 7:0.68843153 8:0.43377481 9:0.72826718 10:0.78919741 11:0.67614303 12:0.74317656 13:0.68860715 14:0.87445099 15:0.99693289 16:0.95920137 17:0.94257856 18:0.21931482 19:0.21545468 20:0.34719217 21:0.43017169 22:0.83141802 23:0.3067885 24:0.27547169 25:0.25782368 26:0.24656715 27:0.31276303 28:0.22165672 29:0.36559054 30:0.37906561 31:0.38383159 32:0.26292641 33:0.51630513 34:0.85002458 35:0.89086213 36:0.91687015 37:0.59822665 
-4 1:0.12778456 2:0.10150386 3:0.64811442 4:0.80206217 5:0.72293819 6:0.53826721 7:0.68843153 8:0.018933568 9:0.043382126 10:0.1193355 11:0.24365494 12:0.16987642 13:0.18832516 14:0.023821679 15:0.085366647 16:0.31951734 17:0.12778454 18:0.054995492 19:0.082808673 20:0.34719217 21:0.43017169 22:0.22167231 23:0.3067885 24:0.27547169 25:0.25782368 26:0.24656715 27:0.31276303 28:0.063592256 29:0.072285634 30:0.067666923 31:0.076744914 32:0.067559479 33:0.17265033 34:0.22061572 35:0.22568106 36:0.2265307 37:0.18638663 
-4 1:0.83390378 2:0.84450233 3:0.64811442 4:0.80206217 5:0.72293819 6:0.53826721 7:0.68843153 8:0.48094935 9:0.67637846 10:0.68753571 11:0.60296142 12:0.66676574 13:0.74425899 14:0.80830557 15:0.8584929 16:0.85081318 17:0.83390375 18:0.37290595 19:0.3394404 20:0.34719217 21:0.43017169 22:0.70800499 23:0.3067885 24:0.27547169 25:0.25782368 26:0.24656715 27:0.31276303 28:0.19317968 29:0.29852127 30:0.31592916 31:0.32647788 32:0.22495237 33:0.4538609 34:0.70570354 35:0.75573358 36:0.7877602 37:0.51768932 
-4 1:0.82796238 2:0.8375421 3:0.64811442 4:0.80206217 5:0.72293819 6:0.53826721 7:0.68843153 8:0.472103 9:0.67114544 10:0.68093604 11:0.60145729 12:0.6625001 13:0.73385268 14:0.80192553 15:0.84965838 16:0.84870177 17:0.82796238 18:0.39597397 19:0.35806195 20:0.34719217 21:0.43017169 22:0.66106083 23:0.3067885 24:0.27547169 25:0.25782368 26:0.24656715 27:0.31276303 28:0.17628065 29:0.2732857 30:0.29379301 31:0.30914916 32:0.20575949 33:0.41653337 34:0.65119326 35:0.70811977 36:0.74844859 37:0.47668504 
4 1:0.35038323 2:0.31174948 3:0.64811442 4:0.80206217 5:0.72293819 6:0.53826721 7:0.68843153 8:0.066272607 9:0.16324352 10:0.31096091 11:0.38494177 12:0.32639422 13:0.24530156 14:0.17211144 15:0.34610932 16:0.53067838 17:0.35038318 18:0.12430368 19:0.13875738 20:0.34719217 21:0.43017169 22:0.3373622 23:0.3067885 24:0.27547169 25:0.25782368 26:0.24656715 27:0.31276303 28:0.082767017 29:0.11818473 30:0.12965906 31:0.15326751 32:0.094484259 33:0.21393387 34:0.31862254 35:0.35774338 36:0.3984623 37:0.24265263 
4 1:0.72923035 2:0.71947567 3:0.64811442 4:0.80206217 5:0.72293819 6:0.53826721 7:0.68843153 8:0.35165431 9:0.53855571 10:0.60518506 11:0.56903801 12:0.59297788 13:0.58867706 14:0.6372822 15:0.74660035 16:0.8009109 17:0.72923039 18:0.28341056 19:0.26719567 20:0.34719217 21:0.43017169 22:0.64228044 23:0.3067885 24:0.27547169 25:0.25782368 26:0.24656715 27:0.31276303 28:0.16139274 29:0.25961125 30:0.28728854 31:0.31041532 32:0.19105438 33:0.3848253 34:0.62228905 35:0.69464141 36:0.75174063 37:0.44629464 
-4 1:0.83936975 2:0.85611245 3:0.64811442 4:0.80206217 5:0.72293819 6:0.53826721 7:0.68843153 8:0.50792196 9:0.69845048 10:0.68926477 11:0.59919784 12:0.67050889 13:0.77743327 14:0.83633579 15:0.86099055 16:0.84535779 17:0.83936974 18:0.36669915 19:0.33442999 20:0.34719217 21:0.43017169 22:0.61460621 23:0.3067885 24:0.27547169 25:0.25782368 26:0.24656715 27:0.31276303 28:0.17270997 29:0.25093392 30:0.26635948 31:0.28052855 32:0.19753705 33:0.40911239 34:0.60343096 35:0.64964864 36:0.68420556 37:0.45965918 
4 1:0.91380321 2:0.94189935 3:0.64811442 4:0.80206217 5:0.72293819 6:0.53826721 7:0.68843153 8:0.59698258 9:0.77979586 10:0.74390308 11:0.6315566 12:0.72291638 13:0.88507869 14:0.93815574 15:0.93531362 16:0.89308589 17:0.91380322 18:0.53300035 19:0.46867585 20:0.34719217 21:0.43017169 22:0.83044959 23:0.3067885 24:0.27547169 25:0.25782368 26:0.24656715 27:0.31276303 28:0.26750308 29:0.35902536 30:0.36172882 31:0.36024713 32:0.29801472 33:0.61523455 34:0.83561071 35:0.85359063 36:0.86364511 37:0.67159651 
-4 1:0.82852457 2:0.84273611 3:0.64811442 4:0.80206217 5:0.72293819 6:0.53826721 7:0.68843153 8:0.48961679 9:0.68461778 10:0.68333528 11:0.59443827 12:0.66291504 13:0.75530691 14:0.81909419 15:0.85275747 16:0.83823705 17:0.82852454 18:0.35346164 19:0.32374407 20:0.34719217 21:0.43017169 22:0.583864 23:0.3067885 24:0.27547169 25:0.25782368 26:0.24656715 27:0.31276303 28:0.15903644 29:0.23583309 30:0.25254815 31:0.26889199 32:0.18312464 33:0.37974066 34:0.57124173 35:0.62027096 36:0.6580952 37:0.42960495 
4 1:0.90977201 2:0.93682656 3:0.64811442 4:0.80206217 5:0.72293819 6:0.53826721 7:0.68843153 8:0.5879956 9:0.77571894 10:0.74148861 11:0.6297861 12:0.72008415 13:0.87428833 14:0.93311355 15:0.93200468 16:0.89043384 17:0.90977201 18:0.51959648 19:0.45785565 20:0.34719217 21:0.43017169 22:0.80803243 23:0.3067885 24:0.27547169 25:0.25782368 26:0.24656715 27:0.31276303 28:0.25333845 29:0.34802587 30:0.35350813 31:0.35429466 32:0.28420883 33:0.58461116 34:0.81206685 35:0.83604128 36:0.85024783 37:0.64262775 
-4 1:0.95193013 2:0.99322465 3:0.64811442 4:0.80206217 5:0.72293819 6:0.53826721 7:0.68843153 8:0.69198528 9:0.82922781 10:0.76810318 11:0.64282558 12:0.74972634 13:1 14:1 15:0.9683196 16:0.90975251 17:0.95193013 18:0.65388691 19:0.56626097 20:0.34719217 21:0.43017169 22:0.99999617 23:0.3067885 24:0.27547169 25:0.25782368 26:0.24656715 27:0.31276303 28:0.44445246 29:0.4189207 30:0.39753116 31:0.38282078 32:0.45371573 33:0.99999804 34:0.9644712 35:0.93027489 36:0.91452894 37:0.99999755 
4 1:0.40491092 2:0.3527636 3:0.64811442 4:0.80206217 5:0.72293819 6:0.53826721 7:0.68843153 8:0.059947606 9:0.15695511 10:0.33864742 11:0.44625729 12:0.36494704 13:0.23772251 14:0.16423654 15:0.38348082 16:0.61938815 17:0.4049109 18:0.18470841 19:0.18751882 20:0.34719217 21:0.43017169 22:0.33638881 23:0.3067885 24:0.27547169 25:0.25782368 26:0.24656715 27:0.31276303 28:0.078155834 29:0.11470941 30:0.1305051 31:0.15805556 32:0.090228679 33:0.20429534 34:0.31169875 35:0.36002005 36:0.4094782 37:0.23415533 
-4 1:0.78563053 2:0.77168933 3:0.64811442 4:0.80206217 5:0.72293819 6:0.53826721 7:0.68843153 8:0.32677174 9:0.5781287 10:0.6778452 11:0.59051562 12:0.63299652 13:0.55921819 14:0.68742421 15:0.84511721 16:0.83192548 17:0.78563053 18:0.37135503 19:0.33818843 20:0.34719217 21:0.43017169 22:0.63907711 23:0.3067885 24:0.27547169 25:0.25782368 26:0.24656715 27:0.31276303 28:0.15410483 29:0.26631251 30:0.28802967 31:0.30504792 32:0.18627142 33:0.36922698 34:0.63649844 35:0.69596326 36:0.73937188 37:0.43635116 
-4 1:0.8078572 2:0.8074486 3:0.64811442 4:0.80206217 5:0.72293819 6:0.53826721 7:0.68843153 8:0.38022045 9:0.65059715 10:0.68236225 11:0.58856266 12:0.64827529 13:0.62346405 14:0.77673223 15:0.85167755 16:0.82987132 17:0.8078572 18:0.34730172 19:0.31877151 20:0.34719217 21:0.43017169 22:0.58171559 23:0.3067885 24:0.27547169 25:0.25782368 26:0.24656715 27:0.31276303 28:0.15027562 29:0.23710634 30:0.25434895 31:0.27105431 32:0.176334 33:0.36046426 34:0.57382175 35:0.62412553 36:0.66308016 37:0.41505222 
4 1:0.9055308 2:0.93166069 3:0.64811442 4:0.80206217 5:0.72293819 6:0.53826721 7:0.68843153 8:0.58147096 9:0.77066397 10:0.73811825 11:0.62835247 12:0.71707322 13:0.86639459 14:0.92674676 15:0.92747507 16:0.88838004 17:0.90553074 18:0.51675434 19:0.45556134 20:0.34719217 21:0.43017169 22:0.81746682 23:0.3067885 24:0.27547169 25:0.25782368 26:0.24656715 27:0.31276303 28:0.25874098 29:0.35245373 30:0.35705658 31:0.35726784 32:0.28953967 33:0.59627496 34:0.82168499 35:0.84377827 36:0.8570961 37:0.65383764 
-4 1:0.84135113 2:0.85670592 3:0.64811442 4:0.80206217 5:0.72293819 6:0.53826721 7:0.68843153 8:0.49905364 9:0.69819525 10:0.69239828 11:0.60101233 12:0.67194654 13:0.76682403 14:0.83623518 15:0.86515151 16:0.847865 17:0.84135117 18:0.37207069 19:0.33876614 20:0.34719217 21:0.43017169 22:0.6075395 23:0.3067885 24:0.27547169 25:0.25782368 26:0.24656715 27:0.31276303 28:0.16784721 29:0.24735096 30:0.26367588 31:0.27879649 32:0.19284003 33:0.39895128 34:0.59604947 35:0.64413234 36:0.68045163 37:0.45015273 
4 1:0.90827184 2:0.93492411 3:0.64811442 4:0.80206217 5:0.72293819 6:0.53826721 7:0.68843153 8:0.58656137 9:0.77279726 10:0.74011363 11:0.6296947 12:0.71902631 13:0.87260455 14:0.92950918 15:0.93014468 16:0.89028028 17:0.90827186 18:0.52286228 19:0.46049194 20:0.34719217 21:0.43017169 22:0.82439227 23:0.3067885 24:0.27547169 25:0.25782368 26:0.24656715 27:0.31276303 28:0.26217959 29:0.35558185 30:0.36000243 31:0.35981096 32:0.2930221 33:0.60398226 34:0.82842379 35:0.85003255 36:0.86275006 37:0.66135942 
-1.0364755327119062 1:0.48572761 2:0.44300645 3:0.39269204 4:0.42393991 5:0.34307762 6:0.28308569 7:0.35261693 8:0.060799897 9:0.081288315 10:0.19324043 11:0.32636512 12:0.2442725 13:0.45213956 14:0.26981977 15:0.42025648 16:0.6646084 17:0.48572759 18:0.34106884 19:0.30728055 20:0.028460668 21:0.02174773 22:0.51545734 23:0.26114575 24:0.27878746 25:0.29704694 26:0.33478603 27:0.27863006 28:0.090678958 29:0.19715008 30:0.25155433 31:0.30616017 32:0.12132491 33:0.2657891 34:0.49331551 35:0.5794347 36:0.63167468 37:0.33073999 
4 1:0.85300048 2:0.85502908 3:0.39269204 4:0.42393991 5:0.34307762 6:0.28308569 7:0.35261693 8:0.2599997 9:0.37575182 10:0.41300932 11:0.43435863 12:0.43017878 13:0.71960497 14:0.77859584 15:0.88816511 16:0.88631172 17:0.85300046 18:0.55009037 19:0.47668524 20:0.028460668 21:0.02174773 22:0.84741764 23:0.26114575 24:0.27878746 25:0.29704694 26:0.33478603 27:0.27863006 28:0.24903641 29:0.36833858 30:0.39907493 31:0.43361878 32:0.28699961 33:0.63210808 34:0.85260104 35:0.87041328 36:0.87754306 37:0.69377438 
4 1:0.90461407 2:0.92839088 3:0.39269204 4:0.42393991 5:0.34307762 6:0.28308569 7:0.35261693 8:0.36418999 9:0.45426304 10:0.4322277 11:0.43852674 12:0.45705775 13:0.85922084 14:0.91278383 15:0.92699976 16:0.89337415 17:0.90461409 18:0.61170848 19:0.52575313 20:0.028460668 21:0.02174773 22:0.84278891 23:0.26114575 24:0.27878746 25:0.29704694 26:0.33478603 27:0.27863006 28:0.25697172 29:0.36497487 30:0.39219054 31:0.42687659 32:0.29249611 33:0.64960027 34:0.84482435 35:0.85623203 36:0.86394066 37:0.70499003 
4 1:0.81265837 2:0.81874231 3:0.39269204 4:0.42393991 5:0.34307762 6:0.28308569 7:0.35261693 8:0.26758835 9:0.36866556 10:0.38682944 11:0.41306894 12:0.41007012 13:0.72993286 14:0.76637561 15:0.83194498 16:0.84118241 17:0.81265835 18:0.42688688 19:0.37842879 20:0.028460668 21:0.02174773 22:0.59724717 23:0.26114575 24:0.27878746 25:0.29704694 26:0.33478603 27:0.27863006 28:0.16614535 29:0.23816389 30:0.26875014 31:0.31112545 32:0.19043376 33:0.44094366 34:0.58064843 35:0.61482759 36:0.642729 37:0.48292193 
4 1:0.91185007 2:0.94078568 3:0.39269204 4:0.42393991 5:0.34307762 6:0.28308569 7:0.35261693 8:0.39402681 9:0.46561595 10:0.43283583 11:0.43784833 12:0.46036141 13:0.89951898 14:0.93371396 15:0.92961397 16:0.89231639 17:0.91185007 18:0.60485442 19:0.52022023 20:0.028460668 21:0.02174773 22:0.84569883 23:0.26114575 24:0.27878746 25:0.29704694 26:0.33478603 27:0.27863006 28:0.2584576 29:0.36408434 30:0.39329693 31:0.4294635 32:0.29362243 33:0.6538179 34:0.84362092 35:0.8589288 36:0.86939768 37:0.70820506 
4 1:0.27533321 2:0.24626789 3:0.39269204 4:0.42393991 5:0.34307762 6:0.28308569 7:0.35261693 8:0.011025146 9:0.033560078 10:0.090657703 11:0.20719322 12:0.14006141 13:0.38498341 14:0.18584075 15:0.19945173 16:0.41111229 17:0.27533318 18:0.23174536 19:0.22090171 20:0.028460668 21:0.02174773 22:0.34278305 23:0.26114575 24:0.27878746 25:0.29704694 26:0.33478603 27:0.27863006 28:0.10103954 29:0.12775756 30:0.13452793 31:0.1525619 32:0.1111645 33:0.2866395 34:0.34427681 35:0.34500491 36:0.33073271 37:0.3051992 
-4 1:0.835376 2:0.85008162 3:0.39269204 4:0.42393991 5:0.34307762 6:0.28308569 7:0.35261693 8:0.32528964 9:0.40511072 10:0.40037417 11:0.41746697 12:0.42580364 13:0.80587604 14:0.822891 15:0.84947306 16:0.83710848 17:0.83537599 18:0.4596527 19:0.40487884 20:0.028460668 21:0.02174773 22:0.71532559 23:0.26114575 24:0.27878746 25:0.29704694 26:0.33478603 27:0.27863006 28:0.20577608 29:0.30074281 30:0.3353583 31:0.37782992 32:0.23693003 33:0.52695422 34:0.70420747 35:0.7374019 36:0.7609009 37:0.57850952 
-4 1:0.81749107 2:0.82460956 3:0.39269204 4:0.42393991 5:0.34307762 6:0.28308569 7:0.35261693 8:0.28258225 9:0.37221953 10:0.38981517 11:0.41545012 12:0.41362765 13:0.74941955 14:0.77074581 15:0.8354972 16:0.84263995 17:0.8174911 18:0.45099971 19:0.39624182 20:0.028460668 21:0.02174773 22:0.66363592 23:0.26114575 24:0.27878746 25:0.29704694 26:0.33478603 27:0.27863006 28:0.18609533 29:0.26993468 30:0.30534741 31:0.35140528 32:0.21408752 33:0.4855384 34:0.64515362 35:0.68449975 36:0.71743439 37:0.53300772 
-4 1:0.90661328 2:0.93400365 3:0.39269204 4:0.42393991 5:0.34307762 6:0.28308569 7:0.35261693 8:0.3882704 9:0.45835416 10:0.43045992 11:0.43704314 12:0.45767113 13:0.89170369 14:0.92103882 15:0.92457289 16:0.89100003 17:0.90661329 18:0.63177192 19:0.54382975 20:0.028460668 21:0.02174773 22:0.88696962 23:0.26114575 24:0.27878746 25:0.29704694 26:0.33478603 27:0.27863006 28:0.28111854 29:0.38737848 30:0.41064957 31:0.44181532 32:0.31690113 33:0.70531549 34:0.89168408 35:0.89259163 36:0.89286152 37:0.75832935 
-4 1:0.86845052 2:0.86355299 3:0.39269204 4:0.42393991 5:0.34307762 6:0.28308569 7:0.35261693 8:0.23121759 9:0.37186275 10:0.42288924 11:0.4483854 12:0.43832768 13:0.68084521 14:0.77182831 15:0.90834058 16:0.91334768 17:0.86845054 18:0.21485294 19:0.20539335 20:0.028460668 21:0.02174773 22:0.85484757 23:0.26114575 24:0.27878746 25:0.29704694 26:0.33478603 27:0.27863006 28:0.23916385 29:0.36328261 30:0.40810411 31:0.45661613 32:0.27874146 33:0.60955329 34:0.84235873 35:0.88844075 36:0.92201734 37:0.6759765 
4 1:0.94133103 2:0.93941767 3:0.39269204 4:0.42393991 5:0.34307762 6:0.28308569 7:0.35261693 8:0.26930845 9:0.41393457 10:0.4558601 11:0.48219686 12:0.47513978 13:0.73221569 14:0.84492456 15:0.97863475 16:0.9827749 17:0.941331 18:0.22154522 19:0.21079567 20:0.028460668 21:0.02174773 22:0.98138276 23:0.26114575 24:0.27878746 25:0.29704694 26:0.33478603 27:0.27863006 28:0.29730294 29:0.43888132 30:0.46495645 31:0.49713763 32:0.3418159 33:0.74310994 34:1 35:1 36:1 37:0.81326453 
4 1:0.27885078 2:0.2528248 3:0.39269204 4:0.42393991 5:0.34307762 6:0.28308569 7:0.35261693 8:0.014683689 9:0.037874301 10:0.10232497 11:0.19997387 12:0.14120047 13:0.3898553 14:0.19330806 15:0.22451921 16:0.39931399 17:0.27885077 18:0.074648034 19:0.092213602 20:0.028460668 21:0.02174773 22:0.21694788 23:0.26114575 24:0.27878746 25:0.29704694 26:0.33478603 27:0.27863006 28:0.060876353 29:0.06992059 30:0.066883197 31:0.076710772 32:0.064913331 33:0.196028 34:0.22601659 35:0.21530533 36:0.18888343 37:0.20640371 
-4 1:0.80409786 2:0.798764 3:0.39269204 4:0.42393991 5:0.34307762 6:0.28308569 7:0.35261693 8:0.223442 9:0.33749746 10:0.39034328 11:0.41948487 12:0.40698725 13:0.66986246 14:0.70888312 15:0.83468641 16:0.85259773 17:0.80409783 18:0.41769455 19:0.3691363 20:0.028460668 21:0.02174773 22:0.76752748 23:0.26114575 24:0.27878746 25:0.29704694 26:0.33478603 27:0.27863006 28:0.2189474 29:0.32594964 30:0.36094479 31:0.39991655 32:0.25328903 33:0.56106354 34:0.76209997 35:0.79395827 36:0.81139168 37:0.6184446 
-4 1:0.90558287 2:0.93176918 3:0.39269204 4:0.42393991 5:0.34307762 6:0.28308569 7:0.35261693 8:0.38409026 9:0.45617744 10:0.43055727 11:0.43799072 12:0.45759978 13:0.88585759 14:0.91572038 15:0.92354651 16:0.89224675 17:0.90558288 18:0.62728825 19:0.54018281 20:0.028460668 21:0.02174773 22:0.87093596 23:0.26114575 24:0.27878746 25:0.29704694 26:0.33478603 27:0.27863006 28:0.27004879 29:0.38039847 30:0.40588744 31:0.43780001 32:0.30646776 33:0.67845834 34:0.87614789 35:0.8825386 36:0.88450021 37:0.73431216 
-4 1:0.49367862 2:0.45443321 3:0.39269204 4:0.42393991 5:0.34307762 6:0.28308569 7:0.35261693 8:0.042710048 9:0.10889222 10:0.21833175 11:0.31948517 12:0.2527165 13:0.42736771 14:0.31412434 15:0.46438551 16:0.63409755 17:0.49367859 18:0.22974788 19:0.21741723 20:0.028460668 21:0.02174773 22:0.54017073 23:0.26114575 24:0.27878746 25:0.29704694 26:0.33478603 27:0.27863006 28:0.15256327 29:0.21373701 30:0.24163607 31:0.28064036 32:0.1737212 33:0.40548112 34:0.52387615 35:0.55516042 36:0.57663133 37:0.44180386 
4 1:0.77120955 2:0.7609842 3:0.39269204 4:0.42393991 5:0.34307762 6:0.28308569 7:0.35261693 8:0.20822906 9:0.30708419 10:0.37326355 11:0.41122164 12:0.39137679 13:0.64900124 14:0.65429132 15:0.79633465 16:0.83269327 17:0.77120956 18:0.36249595 19:0.32457748 20:0.028460668 21:0.02174773 22:0.77833877 23:0.26114575 24:0.27878746 25:0.29704694 26:0.33478603 27:0.27863006 28:0.22383283 29:0.33073399 30:0.36602095 31:0.4062557 32:0.25836239 33:0.5717948 34:0.77137841 35:0.80336881 36:0.82321799 37:0.62895055 
4 1:0.86959658 2:0.88909267 3:0.39269204 4:0.42393991 5:0.34307762 6:0.28308569 7:0.35261693 8:0.34264627 9:0.4244547 10:0.41331178 11:0.42712828 12:0.43903339 13:0.83058099 14:0.86240558 15:0.88781439 16:0.8701425 17:0.86959656 18:0.50876334 19:0.44265115 20:0.028460668 21:0.02174773 22:0.71654266 23:0.26114575 24:0.27878746 25:0.29704694 26:0.33478603 27:0.27863006 28:0.20487806 29:0.29612963 30:0.33082699 31:0.37488834 32:0.23518184 33:0.53059447 34:0.70195572 35:0.73665876 36:0.76497319 37:0.58092274 
4 1:0.91740913 2:0.94774638 3:0.39269204 4:0.42393991 5:0.34307762 6:0.28308569 7:0.35261693 8:0.40369215 9:0.46978088 10:0.43568303 11:0.43920109 12:0.46317733 13:0.9124771 14:0.94080305 15:0.93557784 16:0.89535073 17:0.91740911 18:0.64422552 19:0.55200236 20:0.028460668 21:0.02174773 22:0.88459672 23:0.26114575 24:0.27878746 25:0.29704694 26:0.33478603 27:0.27863006 28:0.28115201 29:0.38546448 30:0.408989 31:0.440486 32:0.31651337 33:0.7056852 34:0.887914 35:0.88944845 36:0.89033832 37:0.75775282 
4 1:0.86303565 2:0.88155145 3:0.39269204 4:0.42393991 5:0.34307762 6:0.28308569 7:0.35261693 8:0.33481454 9:0.41979387 10:0.41115241 11:0.42432736 12:0.43573294 13:0.82013409 14:0.85457218 15:0.88306695 16:0.86394467 17:0.86303564 18:0.488849 19:0.42657539 20:0.028460668 21:0.02174773 22:0.68728149 23:0.26114575 24:0.27878746 25:0.29704694 26:0.33478603 27:0.27863006 28:0.19495764 29:0.28168357 30:0.31567104 31:0.359643 32:0.22383291 33:0.50774554 34:0.67187742 35:0.70707624 36:0.73590579 37:0.55619161 
-4 1:0.91375029 2:0.94321049 3:0.39269204 4:0.42393991 5:0.34307762 6:0.28308569 7:0.35261693 8:0.39717803 9:0.46701283 10:0.43334002 11:0.43828416 12:0.46114308 13:0.90380686 14:0.93646245 15:0.93112638 16:0.89375702 17:0.91375026 18:0.64141617 19:0.54973453 20:0.028460668 21:0.02174773 22:0.88194482 23:0.26114575 24:0.27878746 25:0.29704694 26:0.33478603 27:0.27863006 28:0.2788248 29:0.38473819 30:0.40817589 31:0.43954158 32:0.31445487 33:0.70039135 34:0.88643552 35:0.88790542 36:0.88858943 37:0.75332239 
-4 1:0.95193013 2:0.99322465 3:0.39269204 4:0.42393991 5:0.34307762 6:0.28308569 7:0.35261693 8:0.46840734 9:0.5030003 10:0.45016525 11:0.44542935 12:0.47997648 13:1 14:1 15:0.9683196 16:0.90975251 17:0.95193013 18:0.78200572 19:0.67308865 20:0.028460668 21:0.02174773 22:0.99999669 23:0.26114575 24:0.27878746 25:0.29704694 26:0.33478603 27:0.27863006 28:0.40787395 29:0.42158011 30:0.42937118 31:0.45273609 32:0.4265836 33:0.99999783 34:0.96447129 35:0.93027539 36:0.91453058 37:0.99999739 
4 1:0.5048873 2:0.45466807 3:0.39269204 4:0.42393991 5:0.34307762 6:0.28308569 7:0.35261693 8:0.027929238 9:0.082477188 10:0.21473561 11:0.34096847 12:0.25717345 13:0.40767917 14:0.2698252 15:0.45874026 16:0.68140592 17:0.50488732 18:0.28748799 19:0.26402766 20:0.028460668 21:0.02174773 22:0.44804801 23:0.26114575 24:0.27878746 25:0.29704694 26:0.33478603 27:0.27863006 28:0.12421743 29:0.17019842 30:0.19135549 31:0.22548262 32:0.14048449 33:0.3417394 34:0.43505494 35:0.45895348 36:0.47370431 37:0.3710219 
4 1:0.74643823 2:0.72299055 3:0.39269204 4:0.42393991 5:0.34307762 6:0.28308569 7:0.35261693 8:0.12883382 9:0.25742881 10:0.37748336 11:0.40413292 12:0.37684609 13:0.54337885 14:0.57302676 15:0.80934555 16:0.82273767 17:0.74643823 18:0.42711326 19:0.3767395 20:0.028460668 21:0.02174773 22:0.68297963 23:0.26114575 24:0.27878746 25:0.29704694 26:0.33478603 27:0.27863006 28:0.18127028 29:0.27870614 30:0.31912424 31:0.36993678 32:0.21246677 33:0.47519293 34:0.6645058 35:0.71281727 36:0.75460442 37:0.53033615 
