svm_type nu_svr
kernel_type rbf
gamma 0.050000000000000003
nr_class 2
total_sv 611
rho -1.0000641284941592
SV
4 1:0.40190471 2:0.37601169 3:0.36882509 4:0.48843582 5:0.66830197 6:0.6573864 7:0.67870099 8:0.067390122 9:0.095993887 10:0.26457528 11:0.45949727 12:0.344383 13:0.4855011 14:0.2443548 15:0.32381624 16:0.50418924 17:0.4019047 18:0.20064209 19:0.24368169 20:0.19081346 21:0.23502175 22:0.36236829 23:0.32534884 24:0.33141279 25:0.32605071 26:0.32955625 27:0.33651789 28:0.089277617 29:0.14027819 30:0.1685498 31:0.19781451 32:0.10463481 33:0.22113291 34:0.32903869 35:0.38473996 36:0.45014666 37:0.25384978 
-4 1:0.8127635 2:0.8014261 3:0.36882509 4:0.48843582 5:0.66830197 6:0.6573864 7:0.67870099 8:0.23198967 9:0.39625242 10:0.62956786 11:0.68537805 12:0.64597781 13:0.70832335 14:0.74025391 15:0.81883857 16:0.8321939 17:0.81276353 18:0.41586848 19:0.41472637 20:0.19081346 21:0.23502175 22:0.74109645 23:0.32534884 24:0.33141279 25:0.32605071 26:0.32955625 27:0.33651789 28:0.22099794 29:0.34200044 30:0.37655463 31:0.38906644 32:0.25537526 33:0.4993383 34:0.72528987 35:0.78378793 36:0.8207117 37:0.56159341 
-4 1:0.87941521 2:0.89359908 3:0.36882509 4:0.48843582 5:0.66830197 6:0.6573864 7:0.67870099 8:0.32873673 9:0.48906172 10:0.6849904 11:0.70034272 12:0.69500676 13:0.83907042 14:0.89336112 15:0.89412237 16:0.85391535 17:0.87941527 18:0.53723769 19:0.51118089 20:0.19081346 21:0.23502175 22:0.82599604 23:0.32534884 24:0.33141279 25:0.32605071 26:0.32955625 27:0.33651789 28:0.27383154 29:0.39417608 30:0.4113214 31:0.41106432 32:0.30833682 33:0.61002418 34:0.82757608 35:0.85037901 36:0.86326146 37:0.66903444 
-4 1:0.8111375 2:0.82021193 3:0.36882509 4:0.48843582 5:0.66830197 6:0.6573864 7:0.67870099 8:0.28876117 9:0.43715163 10:0.6272924 11:0.66415646 12:0.64542102 13:0.78436938 14:0.80575202 15:0.81483089 16:0.80100499 17:0.81113752 18:0.36649155 19:0.37548554 20:0.19081346 21:0.23502175 22:0.60456244 23:0.32534884 24:0.33141279 25:0.32605071 26:0.32955625 27:0.33651789 28:0.1812296 29:0.26880338 30:0.29878575 31:0.316175 32:0.20698447 33:0.41432135 34:0.58076798 35:0.63401879 36:0.67907091 37:0.46183971 
2.7410753792439264 1:0.89128749 2:0.91389194 3:0.36882509 4:0.48843582 5:0.66830197 6:0.6573864 7:0.67870099 8:0.36557977 9:0.51003528 10:0.69098916 11:0.7015581 12:0.7037276 13:0.88920302 14:0.92829859 15:0.90224519 16:0.85568296 17:0.8912875 18:0.54719181 19:0.51909162 20:0.19081346 21:0.23502175 22:0.83564839 23:0.32534884 24:0.33141279 25:0.32605071 26:0.32955625 27:0.33651789 28:0.28641631 29:0.39729959 30:0.41284097 31:0.41210955 32:0.31903804 33:0.63586483 34:0.83345361 35:0.85315529 36:0.86521637 37:0.69028804 
-3.8572433434415663 1:0.23547539 2:0.23583696 3:0.36882509 4:0.48843582 5:0.66830197 6:0.6573864 7:0.67870099 8:0.020067969 9:0.055032898 10:0.15799906 11:0.31222428 12:0.22344876 13:0.42034943 14:0.17464309 15:0.17794335 16:0.28876379 17:0.23547535 18:0.12617575 19:0.18450181 20:0.19081346 21:0.23502175 22:0.24391077 23:0.32534884 24:0.33141279 25:0.32605071 26:0.32955625 27:0.33651789 28:0.074407396 29:0.091630604 30:0.096720587 31:0.099737369 32:0.080389771 33:0.18985438 34:0.23354597 35:0.24703951 36:0.26021364 37:0.20448238 
-4 1:0.78254048 2:0.79104376 3:0.36882509 4:0.48843582 5:0.66830197 6:0.6573864 7:0.67870099 8:0.27409713 9:0.4180745 10:0.6080325 11:0.64583152 12:0.62525455 13:0.76388908 14:0.77242709 15:0.78735091 16:0.77365983 17:0.78254053 18:0.34180361 19:0.35586554 20:0.19081346 21:0.23502175 22:0.66137585 23:0.32534884 24:0.33141279 25:0.32605071 26:0.32955625 27:0.33651789 28:0.20169967 29:0.30141743 30:0.32957787 31:0.34251745 32:0.23052755 33:0.45731082 34:0.6445609 35:0.69285557 36:0.72991637 37:0.50963202 
-4 1:0.77358832 2:0.77688028 3:0.36882509 4:0.48843582 5:0.66830197 6:0.6573864 7:0.67870099 8:0.25652518 9:0.40254937 10:0.59671749 11:0.6464513 12:0.61790669 13:0.74048545 14:0.74846003 15:0.77318471 16:0.77519849 17:0.77358831 18:0.32570464 19:0.34307138 20:0.19081346 21:0.23502175 22:0.55676589 23:0.32534884 24:0.33141279 25:0.32605071 26:0.32955625 27:0.33651789 28:0.16375375 29:0.24340894 30:0.27283585 31:0.29194886 32:0.18729934 33:0.37795555 34:0.53121919 35:0.58447539 36:0.63229041 37:0.42214624 
4 1:0.88021099 2:0.90021404 3:0.36882509 4:0.48843582 5:0.66830197 6:0.6573864 7:0.67870099 8:0.35224081 9:0.49883681 10:0.6821526 11:0.69703576 12:0.69561705 13:0.87098388 14:0.90963146 15:0.89020901 16:0.84911542 17:0.880211 18:0.52984515 19:0.50530589 20:0.19081346 21:0.23502175 22:0.82639019 23:0.32534884 24:0.33141279 25:0.32605071 26:0.32955625 27:0.33651789 28:0.28269183 29:0.39126803 30:0.40802478 31:0.40866536 32:0.31478452 33:0.6282249 34:0.82171045 35:0.84396934 36:0.85856775 37:0.68179607 
-4 1:0.82904518 2:0.81415012 3:0.36882509 4:0.48843582 5:0.66830197 6:0.6573864 7:0.67870099 8:0.20914437 9:0.40721576 10:0.64879724 11:0.69515365 12:0.65799858 13:0.67767464 14:0.75857192 15:0.84469537 16:0.84616446 17:0.8290452 18:0.16382724 19:0.2144242 20:0.19081346 21:0.23502175 22:0.57735863 23:0.32534884 24:0.33141279 25:0.32605071 26:0.32955625 27:0.33651789 28:0.16122066 29:0.2526697 30:0.28726882 31:0.31068498 32:0.18764482 33:0.37351803 34:0.55000788 35:0.61263567 36:0.66894998 37:0.42367591 
-4 1:0.9614037 2:0.95377624 3:0.36882509 4:0.48843582 5:0.66830197 6:0.6573864 7:0.67870099 8:0.29341154 9:0.5080047 10:0.74077978 11:0.77845628 12:0.75481656 13:0.79256793 14:0.92651789 15:0.97009948 16:0.96738046 17:0.96140367 18:0.18608248 19:0.23211087 20:0.19081346 21:0.23502175 22:0.88350397 23:0.32534884 24:0.33141279 25:0.32605071 26:0.32955625 27:0.33651789 28:0.28147764 29:0.4254813 30:0.44646775 31:0.44877091 32:0.3216706 33:0.62739084 34:0.8894333 35:0.91798705 36:0.93639875 37:0.69720844 
-4 1:0.81716816 2:0.81716651 3:0.36882509 4:0.48843582 5:0.66830197 6:0.6573864 7:0.67870099 8:0.26205152 9:0.42332895 10:0.63416202 11:0.67593157 12:0.6495201 13:0.74890575 14:0.78399318 15:0.82455584 16:0.81828235 17:0.81716817 18:0.38952387 19:0.39378978 20:0.19081346 21:0.23502175 22:0.71878163 23:0.32534884 24:0.33141279 25:0.32605071 26:0.32955625 27:0.33651789 28:0.22092542 29:0.33162233 30:0.36066747 31:0.37158042 32:0.25270189 33:0.49884569 34:0.70472218 35:0.75320544 36:0.78678171 37:0.55584501 
-4 1:0.83151984 2:0.83993117 3:0.36882509 4:0.48843582 5:0.66830197 6:0.6573864 7:0.67870099 8:0.3019599 9:0.44444477 10:0.64314909 11:0.67826207 12:0.65999703 13:0.80280202 14:0.8190148 15:0.83689226 16:0.82178648 17:0.83151986 18:0.43542794 19:0.43027065 20:0.19081346 21:0.23502175 22:0.71505917 23:0.32534884 24:0.33141279 25:0.32605071 26:0.32955625 27:0.33651789 28:0.21383 29:0.32881663 30:0.36131253 31:0.37464418 32:0.24659055 33:0.48355942 34:0.6991406 35:0.7543806 36:0.79266483 37:0.54313047 
-2.0165833565987881 1:0.44524938 2:0.42684846 3:0.36882509 4:0.48843582 5:0.66830197 6:0.6573864 7:0.67870099 8:0.059804249 9:0.14417822 10:0.33840088 11:0.46044614 12:0.37763628 13:0.4744276 14:0.3223353 15:0.4218042 16:0.50425051 17:0.44524934 18:0.14554721 19:0.19989669 20:0.19081346 21:0.23502175 22:0.36594305 23:0.32534884 24:0.33141279 25:0.32605071 26:0.32955625 27:0.33651789 28:0.10333951 29:0.14779668 30:0.16726372 31:0.18298509 32:0.11698874 33:0.25084149 34:0.34355455 35:0.38197526 36:0.42110071 37:0.27898065 
-4 1:0.77290843 2:0.76902533 3:0.36882509 4:0.48843582 5:0.66830197 6:0.6573864 7:0.67870099 8:0.24486192 9:0.38481092 10:0.59257751 11:0.65566318 12:0.61724287 13:0.72531744 14:0.71949293 15:0.7676824 16:0.78882048 17:0.77290845 18:0.34556718 19:0.35885653 20:0.19081346 21:0.23502175 22:0.69087937 23:0.32534884 24:0.33141279 25:0.32605071 26:0.32955625 27:0.33651789 28:0.20472191 29:0.31282776 30:0.34771938 31:0.36669736 32:0.2359068 33:0.46454343 34:0.6676872 35:0.72830318 36:0.77729169 37:0.5214657 
-4 1:0.81200686 2:0.82281297 3:0.36882509 4:0.48843582 5:0.66830197 6:0.6573864 7:0.67870099 8:0.29617734 9:0.43973926 10:0.62813753 11:0.66310259 12:0.64608277 13:0.79434105 14:0.81011525 15:0.81596073 16:0.79942213 17:0.81200687 18:0.3726333 19:0.38036651 20:0.19081346 21:0.23502175 22:0.62733484 23:0.32534884 24:0.33141279 25:0.32605071 26:0.32955625 27:0.33651789 28:0.19376656 29:0.28143626 30:0.3091774 31:0.32400605 32:0.21971105 33:0.44077031 34:0.60566458 35:0.6540145 36:0.6942718 37:0.48783332 
4 1:0.88995518 2:0.91260679 3:0.36882509 4:0.48843582 5:0.66830197 6:0.6573864 7:0.67870099 8:0.36501988 9:0.50916404 10:0.69013606 11:0.70055446 12:0.70273614 13:0.8884581 14:0.92692821 15:0.90110395 16:0.85423451 17:0.8899552 18:0.55497191 19:0.52527462 20:0.19081346 21:0.23502175 22:0.84445177 23:0.32534884 24:0.33141279 25:0.32605071 26:0.32955625 27:0.33651789 28:0.29335961 29:0.40195314 30:0.41576085 31:0.41386658 32:0.32554146 33:0.65077523 34:0.84275227 35:0.85884493 36:0.86866654 37:0.70379043 
-4 1:0.81094032 2:0.82144153 3:0.36882509 4:0.48843582 5:0.66830197 6:0.6573864 7:0.67870099 8:0.29643619 9:0.43815013 10:0.62597234 11:0.66344339 12:0.64526562 13:0.7947082 14:0.80773464 15:0.81304584 16:0.79992607 17:0.81094031 18:0.3634691 19:0.37308354 20:0.19081346 21:0.23502175 22:0.59682972 23:0.32534884 24:0.33141279 25:0.32605071 26:0.32955625 27:0.33651789 28:0.17959345 29:0.26459908 30:0.29398485 31:0.31151716 32:0.204706 33:0.41100454 34:0.57262462 35:0.62489679 36:0.67010926 37:0.45732627 
4 1:0.88710935 2:0.9091967 3:0.36882509 4:0.48843582 5:0.66830197 6:0.6573864 7:0.67870099 8:0.36182459 9:0.50655706 10:0.68766503 11:0.69940741 12:0.70065916 13:0.88414016 14:0.92263144 15:0.89774024 16:0.85254761 17:0.88710935 18:0.54208302 19:0.51503156 20:0.19081346 21:0.23502175 22:0.82581641 23:0.32534884 24:0.33141279 25:0.32605071 26:0.32955625 27:0.33651789 28:0.28053129 29:0.3915542 30:0.4086156 31:0.40903945 32:0.31312898 33:0.62368593 34:0.82227302 35:0.84509977 36:0.85929216 37:0.67843197 
-4 1:0.92903478 2:0.96712179 3:0.36882509 4:0.48843582 5:0.66830197 6:0.6573864 7:0.67870099 8:0.44645417 9:0.55259001 10:0.71764073 11:0.71317349 12:0.73120844 13:1 14:1 15:0.93878597 16:0.87265856 17:0.9290348 18:0.72899853 19:0.66357703 20:0.19081346 21:0.23502175 22:0.99999721 23:0.32534884 24:0.33141279 25:0.32605071 26:0.32955625 27:0.33651789 28:0.4593273 29:0.46378641 30:0.45291514 31:0.43749976 32:0.47100821 33:0.99999897 34:0.96447255 35:0.93027577 36:0.91452972 37:0.99999862 
-0.74034352967885542 1:0.55929877 2:0.51355334 3:0.36882509 4:0.48843582 5:0.66830197 6:0.6573864 7:0.67870099 8:0.060960038 9:0.15789386 10:0.41154935 11:0.57019593 12:0.46051969 13:0.47623376 14:0.3461738 15:0.521874 16:0.66413629 17:0.55929881 18:0.22001112 19:0.25907464 20:0.19081346 21:0.23502175 22:0.37928034 23:0.32534884 24:0.33141279 25:0.32605071 26:0.32955625 27:0.33651789 28:0.10095068 29:0.15020461 30:0.17666455 31:0.20001664 32:0.11605262 33:0.24599247 34:0.34852389 35:0.40023322 36:0.45431841 37:0.27729252 
4 1:0.77847957 2:0.75558452 3:0.36882509 4:0.48843582 5:0.66830197 6:0.6573864 7:0.67870099 8:0.17112858 9:0.34894722 10:0.62063783 11:0.66679407 12:0.62099074 13:0.62610159 14:0.66282727 15:0.80619756 16:0.80482907 17:0.7784796 18:0.36281011 19:0.37255983 20:0.19081346 21:0.23502175 22:0.63763668 23:0.32534884 24:0.33141279 25:0.32605071 26:0.32955625 27:0.33651789 28:0.17386789 29:0.28701384 30:0.32444356 31:0.34508953 32:0.20555837 33:0.39989553 34:0.61684752 35:0.68339345 36:0.73515289 37:0.45980239 
-4 1:0.80150391 2:0.79959465 3:0.36882509 4:0.48843582 5:0.66830197 6:0.6573864 7:0.67870099 8:0.230847 9:0.41641088 10:0.62932178 11:0.66298195 12:0.63814311 13:0.70641924 14:0.77210821 15:0.81778944 16:0.79939342 17:0.80150393 18:0.37105996 19:0.37911615 20:0.19081346 21:0.23502175 22:0.61728766 23:0.32534884 24:0.33141279 25:0.32605071 26:0.32955625 27:0.33651789 28:0.18251932 29:0.27687906 30:0.3067433 31:0.32349229 32:0.20980531 33:0.41734955 34:0.59672347 35:0.64938539 36:0.69333747 37:0.46783806 
4 1:0.88811235 2:0.91049458 3:0.36882509 4:0.48843582 5:0.66830197 6:0.6573864 7:0.67870099 8:0.36464318 9:0.50706468 10:0.68829896 11:0.69991163 12:0.7013873 13:0.88790573 14:0.92341493 15:0.89861389 16:0.85330625 17:0.88811235 18:0.55177444 19:0.52273352 20:0.19081346 21:0.23502175 22:0.84429512 23:0.32534884 24:0.33141279 25:0.32605071 26:0.32955625 27:0.33651789 28:0.29308616 29:0.40200141 30:0.41578289 31:0.41397454 32:0.32533243 33:0.64996373 34:0.8427776 35:0.85885607 36:0.86885963 37:0.70317847 
-4 1:0.82356025 2:0.83458459 3:0.36882509 4:0.48843582 5:0.66830197 6:0.6573864 7:0.67870099 8:0.29898437 9:0.44823372 10:0.6373815 11:0.66969289 12:0.65425524 13:0.79849228 14:0.82493355 15:0.82901358 16:0.80923067 17:0.82356023 18:0.39021606 19:0.39433988 20:0.19081346 21:0.23502175 22:0.63265344 23:0.32534884 24:0.33141279 25:0.32605071 26:0.32955625 27:0.33651789 28:0.1927333 29:0.28361422 30:0.31310478 31:0.32889256 32:0.21946851 33:0.4390938 34:0.61030378 35:0.66183093 36:0.70395072 37:0.48781232 
4 1:0.89145718 2:0.91379167 3:0.36882509 4:0.48843582 5:0.66830197 6:0.6573864 7:0.67870099 8:0.36510621 9:0.50920222 10:0.69097328 11:0.70201185 12:0.70376995 13:0.88870124 14:0.9272911 15:0.90237461 16:0.85637751 17:0.89145719 18:0.56201109 19:0.5308688 20:0.19081346 21:0.23502175 22:0.85176941 23:0.32534884 24:0.33141279 25:0.32605071 26:0.32955625 27:0.33651789 28:0.29627665 29:0.4061816 30:0.41944407 31:0.41690039 32:0.32878803 33:0.65710028 34:0.8512 35:0.86599858 36:0.87459617 37:0.71057866 
4 1:0.55993984 2:0.51607157 3:0.26446677 4:0.41065693 5:0.67839193 6:0.83571394 7:0.75182772 8:0.069675528 9:0.1306765 10:0.38206532 11:0.68458518 12:0.50497979 13:0.58850442 14:0.35847942 15:0.47623299 16:0.65268448 17:0.55993988 18:0.23393361 19:0.18591168 20:0.22134014 21:0.20533825 22:0.47578921 23:0.90906942 24:1 25:1 26:1 27:0.95759032 28:0.23367896 29:0.44979938 30:0.57485366 31:0.66935997 32:0.29512539 33:0.25375066 34:0.42890953 35:0.5253837 36:0.61141729 37:0.30612814 
4 1:0.84577048 2:0.8342814 3:0.26446677 4:0.41065693 5:0.67839193 6:0.83571394 7:0.75182772 8:0.18730312 9:0.35883099 10:0.66733672 11:0.83918546 12:0.72755369 13:0.75819187 14:0.77208204 15:0.85965364 16:0.84386109 17:0.84577047 18:0.43828107 19:0.34831066 20:0.22134014 21:0.20533825 22:0.80985925 23:0.90906942 24:1 25:1 26:1 27:0.95759032 28:0.53130517 29:0.84431535 30:0.91043597 31:0.9220163 32:0.61780278 33:0.57400494 34:0.8129143 35:0.844967 36:0.85832239 37:0.63974254 
-4 1:0.87104908 2:0.87594774 3:0.26446677 4:0.41065693 5:0.67839193 6:0.83571394 7:0.75182772 8:0.22990365 9:0.40449648 10:0.68606291 11:0.84391096 12:0.74723842 13:0.81965228 14:0.85485368 15:0.88481878 16:0.84970446 17:0.87104911 18:0.49909075 19:0.39663732 20:0.22134014 21:0.20533825 22:0.84514823 23:0.90906942 24:1 25:1 26:1 27:0.95759032 28:0.57917776 29:0.88635936 30:0.93574137 31:0.93972536 32:0.66461715 33:0.6255131 34:0.85383829 35:0.86906876 36:0.87563114 37:0.68814065 
4 1:0.77508064 2:0.77007877 3:0.26446677 4:0.41065693 5:0.67839193 6:0.83571394 7:0.75182772 8:0.18080382 9:0.32843847 10:0.6030554 11:0.78477951 12:0.67250779 13:0.7488304 14:0.71699672 15:0.77325926 16:0.77656817 17:0.77508067 18:0.30414971 19:0.24171381 20:0.22134014 21:0.20533825 22:0.56911254 23:0.90906942 24:1 25:1 26:1 27:0.95759032 28:0.34927054 29:0.55698973 30:0.65409162 31:0.72062918 32:0.40997198 33:0.37809685 34:0.5332137 35:0.60081736 36:0.66149916 37:0.42483465 
4 1:0.88157377 2:0.90046171 3:0.26446677 4:0.41065693 5:0.67839193 6:0.83571394 7:0.75182772 8:0.27785796 9:0.43145713 10:0.68843237 11:0.84292354 12:0.75543055 13:0.88881897 14:0.90372823 15:0.88800661 16:0.84848748 17:0.88157377 18:0.50539507 19:0.40164748 20:0.22134014 21:0.20533825 22:0.8439426 23:0.90906942 24:1 25:1 26:1 27:0.95759032 28:0.5928721 29:0.87779256 30:0.928802 31:0.93503803 32:0.67380015 33:0.64025514 34:0.84549585 35:0.86245472 36:0.8710455 37:0.69763867 
-4 1:0.57502457 2:0.53182883 3:0.26446677 4:0.41065693 5:0.67839193 6:0.83571394 7:0.75182772 8:0.052860958 9:0.14091282 10:0.41626567 11:0.68397751 12:0.51677828 13:0.56424371 14:0.37700717 15:0.52217478 16:0.65182448 17:0.57502452 18:0.21400411 19:0.17007331 20:0.22134014 21:0.20533825 22:0.4121913 23:0.90906942 24:1 25:1 26:1 27:0.95759032 28:0.24901988 29:0.39232411 30:0.47764378 31:0.55461867 32:0.29237601 33:0.27017199 34:0.37286757 35:0.43271363 36:0.49921414 37:0.30319566 
4 1:0.82931822 2:0.82892924 3:0.26446677 4:0.41065693 5:0.67839193 6:0.83571394 7:0.75182772 8:0.20997992 9:0.36845097 10:0.64906045 11:0.81971105 12:0.71474527 13:0.79089606 14:0.78951091 15:0.83507761 16:0.81977029 17:0.8293183 18:0.39489646 19:0.31383205 20:0.22134014 21:0.20533825 22:0.73329211 23:0.90906942 24:1 25:1 26:1 27:0.95759032 28:0.47210871 29:0.74778966 30:0.83047323 31:0.86316361 32:0.54990028 33:0.51028963 34:0.71895237 35:0.76881638 36:0.8008145 37:0.56952307 
4 1:0.77531949 2:0.76745071 3:0.26446677 4:0.41065693 5:0.67839193 6:0.83571394 7:0.75182772 8:0.17600844 9:0.3235242 10:0.60215117 11:0.78805519 12:0.67268225 13:0.7419095 14:0.70813131 15:0.77207962 16:0.7806182 17:0.77531951 18:0.30222586 19:0.24018489 20:0.22134014 21:0.20533825 22:0.58295368 23:0.90906942 24:1 25:1 26:1 27:0.95759032 28:0.35926406 29:0.57020854 30:0.66880997 31:0.73611773 32:0.42101841 33:0.38886285 34:0.54609558 35:0.61484638 36:0.6766462 37:0.4362686 
4 1:0.88157105 2:0.89968455 3:0.26446677 4:0.41065693 5:0.67839193 6:0.83571394 7:0.75182772 8:0.27566434 9:0.43026095 10:0.68864287 11:0.84348172 12:0.7554303 13:0.88565014 14:0.90155597 15:0.88829223 16:0.84917565 17:0.88157105 18:0.51200722 19:0.40690229 20:0.22134014 21:0.20533825 22:0.85331103 23:0.90906942 24:1 25:1 26:1 27:0.95759032 28:0.607323 29:0.88845204 30:0.93503193 31:0.93875246 32:0.68750892 33:0.65580306 34:0.85587289 35:0.86838873 36:0.8746764 37:0.71181126 
-4 1:0.74404038 2:0.7164061 3:0.26446677 4:0.41065693 5:0.67839193 6:0.83571394 7:0.75182772 8:0.12496053 9:0.26952095 10:0.57529303 11:0.78330954 12:0.64825742 13:0.66825784 14:0.61038263 15:0.73611619 16:0.7748095 17:0.74404037 18:0.2048153 19:0.16277078 20:0.22134014 21:0.20533825 22:0.51551436 23:0.90906942 24:1 25:1 26:1 27:0.95759032 28:0.3050637 29:0.49171344 30:0.59571544 31:0.68229241 32:0.36054112 33:0.33059783 34:0.46977408 35:0.54531428 36:0.62411054 37:0.37380459 
3.3870828022373116 1:0.92797583 2:0.92020178 3:0.26446677 4:0.41065693 5:0.67839193 6:0.83571394 7:0.75182772 8:0.22599291 9:0.42145007 10:0.72175463 11:0.90178891 12:0.79157624 13:0.81401124 14:0.8855518 15:0.93277485 16:0.9212671 17:0.92797585 18:0.27928838 19:0.22195602 20:0.22134014 21:0.20533825 22:0.8993709 23:0.90906942 24:1 25:1 26:1 27:0.95759032 28:0.61423978 29:0.94223164 30:0.99449818 31:1 32:0.70535275 33:0.66322222 34:0.90821242 35:0.92502667 36:0.93454014 37:0.73024136 
1.9173049041529937 1:0.25502571 2:0.27884334 3:0.26446677 4:0.41065693 5:0.67839193 6:0.83571394 7:0.75182772 8:0.046707502 9:0.065304897 10:0.18438405 11:0.37462642 12:0.26761033 13:0.55537459 14:0.23992202 15:0.21051609 16:0.2692382 17:0.25502569 20:0.22134014 21:0.20533825 22:0.097910829 23:0.90906942 24:1 25:1 26:1 27:0.95759032 28:0.080624545 29:0.10789503 30:0.12362064 31:0.13865696 32:0.089678583 33:0.088945065 34:0.09598151 35:0.095521293 36:0.092678005 37:0.093596276 
-4 1:0.81845245 2:0.81280317 3:0.26446677 4:0.41065693 5:0.67839193 6:0.83571394 7:0.75182772 8:0.19401341 9:0.35176456 10:0.64265328 11:0.81528195 12:0.70628381 13:0.76786781 14:0.75924807 15:0.8264724 16:0.81430439 17:0.81845246 18:0.35256353 19:0.28018923 20:0.22134014 21:0.20533825 22:0.72430483 23:0.90906942 24:1 25:1 26:1 27:0.95759032 28:0.47072874 29:0.74516854 30:0.81923179 31:0.84284423 32:0.54766643 33:0.50879626 34:0.71638278 35:0.75809294 36:0.7809429 37:0.56720245 
-4 1:0.82154153 2:0.82135706 3:0.26446677 4:0.41065693 5:0.67839193 6:0.83571394 7:0.75182772 8:0.21156004 9:0.3634805 10:0.64033988 11:0.81516122 12:0.70871599 13:0.79315046 14:0.78039181 15:0.82334786 16:0.81412901 17:0.82154156 18:0.40464842 19:0.32158212 20:0.22134014 21:0.20533825 22:0.73808227 23:0.90906942 24:1 25:1 26:1 27:0.95759032 28:0.46750056 29:0.75427195 30:0.8394846 31:0.87206501 32:0.5477788 33:0.50527253 34:0.72520448 35:0.77735465 36:0.80948597 37:0.56727166 
-4 1:0.62524323 2:0.59422762 3:0.26446677 4:0.41065693 5:0.67839193 6:0.83571394 7:0.75182772 8:0.084830037 9:0.19168944 10:0.46988188 11:0.7036413 12:0.5558631 13:0.61037225 14:0.46904737 15:0.59420056 16:0.67622083 17:0.62524324 18:0.19069643 19:0.15155023 20:0.22134014 21:0.20533825 22:0.45956412 23:0.90906942 24:1 25:1 26:1 27:0.95759032 28:0.28285587 29:0.44918631 30:0.53300919 31:0.59103071 32:0.33190634 33:0.30662509 34:0.42827239 35:0.48549552 36:0.53484743 37:0.34411424 
-4 1:0.76884343 2:0.75729363 3:0.26446677 4:0.41065693 5:0.67839193 6:0.83571394 7:0.75182772 8:0.16949859 9:0.3109167 10:0.59765223 11:0.7865126 12:0.66765459 13:0.73252771 14:0.68524998 15:0.76599166 16:0.77871544 17:0.76884349 18:0.29610659 19:0.23532178 20:0.22134014 21:0.20533825 22:0.64990435 23:0.90906942 24:1 25:1 26:1 27:0.95759032 28:0.4130978 29:0.65507708 30:0.73992884 31:0.7835531 32:0.48214163 33:0.44678947 34:0.62869778 35:0.68257014 36:0.72299882 37:0.49946221 
4 1:0.82076217 2:0.82688585 3:0.26446677 4:0.41065693 5:0.67839193 6:0.83571394 7:0.75182772 8:0.22376419 9:0.37440724 10:0.6397413 11:0.80887927 12:0.70808107 13:0.81079915 14:0.80031866 15:0.82255752 16:0.8063725 17:0.82076217 18:0.37235185 19:0.2959154 20:0.22134014 21:0.20533825 22:0.6782247 23:0.90906942 24:1 25:1 26:1 27:0.95759032 28:0.43541065 29:0.67930803 30:0.76939515 31:0.81681299 32:0.50574806 33:0.47079122 34:0.65227328 35:0.71062247 36:0.75548933 37:0.52386076 
4 1:0.80749328 2:0.81069723 3:0.26446677 4:0.41065693 5:0.67839193 6:0.83571394 7:0.75182772 8:0.21179536 9:0.36140545 10:0.62956103 11:0.80137837 12:0.6977429 13:0.7935368 14:0.77676275 15:0.80888671 16:0.79710027 17:0.80749329 18:0.34946938 19:0.27773025 20:0.22134014 21:0.20533825 22:0.64098153 23:0.90906942 24:1 25:1 26:1 27:0.95759032 28:0.40199599 29:0.63636524 30:0.73214827 31:0.78765903 32:0.46976102 33:0.43483562 34:0.61047908 35:0.67515783 36:0.72700734 37:0.48665497 
-4 1:0.88694509 2:0.9066744 3:0.26446677 4:0.41065693 5:0.67839193 6:0.83571394 7:0.75182772 8:0.2810043 9:0.43622688 10:0.69325705 11:0.84588809 12:0.75961489 13:0.89336208 14:0.91237059 15:0.89448823 16:0.85215108 17:0.88694513 18:0.52993882 19:0.42115289 20:0.22134014 21:0.20533825 22:0.86536026 23:0.90906942 24:1 25:1 26:1 27:0.95759032 28:0.6216007 29:0.90308906 30:0.94499787 31:0.9455307 32:0.70194538 33:0.67116992 34:0.87012159 35:0.87788266 36:0.88130337 37:0.72674024 
-4 1:0.92903478 2:0.96712179 3:0.26446677 4:0.41065693 5:0.67839193 6:0.83571394 7:0.75182772 8:0.35493103 9:0.48456521 10:0.72621559 11:0.86246432 12:0.79238463 13:1 14:1 15:0.93878597 16:0.87265856 17:0.9290348 18:0.71903245 19:0.57142935 20:0.22134014 21:0.20533825 22:1 23:0.90906942 24:1 25:1 26:1 27:0.95759032 28:0.92712748 29:1 30:1 31:0.97952447 32:0.96618701 33:1 34:0.96447492 35:0.93027926 36:0.91453354 37:1 
-0.59439679182285621 1:0.48198086 2:0.45194767 3:0.26446677 4:0.41065693 5:0.67839193 6:0.83571394 7:0.75182772 8:0.043132903 9:0.11092429 10:0.33823133 11:0.60461154 12:0.44431465 13:0.55020764 14:0.3226559 15:0.41731586 16:0.55368599 17:0.48198084 18:0.14757371 19:0.11727975 20:0.22134014 21:0.20533825 22:0.27530288 23:0.90906942 24:1 25:1 26:1 27:0.95759032 28:0.17099648 29:0.26168874 30:0.32238784 31:0.38674556 32:0.19928046 33:0.18621416 34:0.24571133 35:0.28485498 36:0.335163 37:0.20694234 
-4 1:0.8519759 2:0.8469685 3:0.26446677 4:0.41065693 5:0.67839193 6:0.83571394 7:0.75182772 8:0.20831242 9:0.37517084 10:0.66551496 11:0.84133756 12:0.73239124 13:0.7885218 14:0.80173112 15:0.85718457 16:0.846507 17:0.8519759 18:0.41596263 19:0.33057375 20:0.22134014 21:0.20533825 22:0.76045066 23:0.90906942 24:1 25:1 26:1 27:0.95759032 28:0.47980931 29:0.77883838 30:0.86719535 31:0.89409228 32:0.56322809 33:0.51860733 34:0.74918325 35:0.80378721 36:0.83103733 37:0.58332828 
4 1:0.81929385 2:0.81678188 3:0.26446677 4:0.41065693 5:0.67839193 6:0.83571394 7:0.75182772 8:0.1914648 9:0.36280281 10:0.64290551 11:0.8126386 12:0.70694474 13:0.76420365 14:0.77925917 15:0.82681204 16:0.81101763 17:0.81929384 18:0.37867459 19:0.3009402 20:0.22134014 21:0.20533825 22:0.69822948 23:0.90906942 24:1 25:1 26:1 27:0.95759032 28:0.44497912 29:0.70454809 30:0.79359986 31:0.8355609 32:0.51893488 33:0.48108649 34:0.676848 35:0.73368292 36:0.77382188 37:0.53749591 
-4 1:0.88915864 2:0.90965524 3:0.26446677 4:0.41065693 5:0.67839193 6:0.83571394 7:0.75182772 8:0.28455105 9:0.43831421 10:0.69511751 11:0.8468865 12:0.76133873 13:0.89846787 14:0.91615148 15:0.89699181 16:0.85338761 17:0.88915866 18:0.53718232 19:0.42690944 20:0.22134014 21:0.20533825 22:0.87266914 23:0.90906942 24:1 25:1 26:1 27:0.95759032 28:0.63448632 29:0.91055981 30:0.94918239 31:0.94813614 32:0.71375748 33:0.68503341 34:0.87739426 35:0.88186827 36:0.88384982 37:0.73895164 
4 1:0.78300962 2:0.78003947 3:0.26446677 4:0.41065693 5:0.67839193 6:0.83571394 7:0.75182772 8:0.18888177 9:0.33682529 10:0.6086414 11:0.78924203 12:0.67868427 13:0.7604857 14:0.7321958 15:0.78075776 16:0.78208255 17:0.78300967 18:0.32239243 19:0.25621165 20:0.22134014 21:0.20533825 22:0.59374583 23:0.90906942 24:1 25:1 26:1 27:0.95759032 28:0.36735124 29:0.58328952 30:0.68066099 31:0.74473582 32:0.43032135 33:0.39754843 34:0.55880766 35:0.62611606 36:0.68505442 37:0.44586964 
4 1:0.88281046 2:0.90082814 3:0.26446677 4:0.41065693 5:0.67839193 6:0.83571394 7:0.75182772 8:0.2753939 9:0.43080416 10:0.69019294 11:0.84420798 12:0.75639598 13:0.88526948 14:0.90254578 15:0.89036996 16:0.85007063 17:0.88281044 18:0.51610447 19:0.41015845 20:0.22134014 21:0.20533825 22:0.85575572 23:0.90906942 24:1 25:1 26:1 27:0.95759032 28:0.60878236 29:0.89159656 30:0.93777967 31:0.94085986 32:0.68935267 33:0.65737423 34:0.85893402 35:0.87100718 36:0.87673769 37:0.7137183 
2.0199620711223165 1:0.39940032 2:0.36962997 3:0.37279439 4:0.44580709 5:0.57301424 6:0.60353034 7:0.61124977 8:0.032426901 9:0.070136904 10:0.22800982 11:0.4249015 12:0.30773382 13:0.44251517 14:0.24439326 15:0.3310269 16:0.4971798 17:0.39940031 18:0.18701441 19:0.21029122 20:1 21:0.95818364 22:0.34945221 23:0.52122153 24:0.53289113 25:0.53088227 26:0.54590597 27:0.54000199 28:0.12316168 29:0.1934149 30:0.23767957 31:0.28653601 32:0.14468678 33:0.21574112 34:0.31507616 35:0.37025234 36:0.4346225 37:0.24601484 
4 1:0.78665358 2:0.76483617 3:0.37279439 4:0.44580709 5:0.57301424 6:0.60353034 7:0.61124977 8:0.18905958 9:0.32239803 10:0.54405606 11:0.63573794 12:0.57608196 13:0.650194 14:0.67032756 15:0.80042206 16:0.8227589 17:0.78665355 18:0.37716864 19:0.36141056 20:1 21:0.95818364 22:0.70182337 23:0.52122153 24:0.53289113 25:0.53088227 26:0.54590597 27:0.54000199 28:0.25570707 29:0.4401215 30:0.50412584 31:0.5384402 32:0.30683374 33:0.42708047 34:0.68603783 35:0.76152509 36:0.80575915 37:0.49657203 
4 1:0.75679975 2:0.75075628 3:0.37279439 4:0.44580709 5:0.57301424 6:0.60353034 7:0.61124977 8:0.22691506 9:0.34221438 10:0.52013828 11:0.59879591 12:0.55528762 13:0.69753011 14:0.69618106 15:0.76456221 16:0.76649143 17:0.75679974 18:0.31149836 19:0.30922108 20:1 21:0.95818364 22:0.52992459 23:0.52122153 24:0.53289113 25:0.53088227 26:0.54590597 27:0.54000199 28:0.19838564 29:0.31826836 30:0.37064331 31:0.41180108 32:0.23317795 33:0.33507699 34:0.50318012 35:0.56614335 36:0.61978016 37:0.38239808 
-4 1:0.86646424 2:0.88127403 3:0.37279439 4:0.44580709 5:0.57301424 6:0.60353034 7:0.61124977 8:0.33516879 9:0.44682873 10:0.5954854 11:0.64832419 12:0.63147504 13:0.84368051 14:0.87866783 15:0.87691499 16:0.84209893 17:0.86646426 18:0.48752214 19:0.44911067 20:1 21:0.95818364 22:0.78495953 23:0.52122153 24:0.53289113 25:0.53088227 26:0.54590597 27:0.54000199 28:0.33368393 29:0.50467674 30:0.54395486 31:0.56314302 32:0.38231476 33:0.55028211 34:0.78311782 35:0.82003955 36:0.84212512 37:0.6126137 
-4 1:0.54072545 2:0.51431979 3:0.37279439 4:0.44580709 5:0.57301424 6:0.60353034 7:0.61124977 8:0.076871641 9:0.15938517 10:0.36337685 11:0.49338532 12:0.40658158 13:0.500424 14:0.39034439 15:0.52969015 16:0.60601114 17:0.54072539 18:0.16644784 19:0.19394656 20:1 21:0.95818364 22:0.41717651 23:0.52122153 24:0.53289113 25:0.53088227 26:0.54590597 27:0.54000199 28:0.14933483 29:0.24670205 30:0.29242342 31:0.32860735 32:0.17749397 33:0.25537346 34:0.39355396 35:0.44938556 36:0.49549421 37:0.2945442 
-4 1:0.74941796 2:0.74910436 3:0.37279439 4:0.44580709 5:0.57301424 6:0.60353034 7:0.61124977 8:0.23672652 9:0.34852927 10:0.51790955 11:0.58887903 12:0.55124179 13:0.71075703 14:0.70531644 15:0.75928002 16:0.75159085 17:0.74941797 18:0.2805534 19:0.28462851 20:1 21:0.95818364 22:0.60029544 23:0.52122153 24:0.53289113 25:0.53088227 26:0.54590597 27:0.54000199 28:0.23237664 29:0.3752153 30:0.42312773 31:0.45319724 32:0.27278001 33:0.38697967 34:0.58615226 35:0.64062471 36:0.67841084 37:0.44113217 
-4 1:0.71851507 2:0.707853 3:0.37279439 4:0.44580709 5:0.57301424 6:0.60353034 7:0.61124977 8:0.19958316 9:0.30921948 10:0.49081165 11:0.5805832 12:0.5285136 13:0.66098074 14:0.63989367 15:0.72148437 16:0.7389777 17:0.71851507 18:0.27697395 19:0.28178385 20:1 21:0.95818364 22:0.49320973 23:0.52122153 24:0.53289113 25:0.53088227 26:0.54590597 27:0.54000199 28:0.18421585 29:0.29476506 30:0.34414107 31:0.38377546 32:0.21640478 33:0.31194081 34:0.46729152 35:0.52673431 36:0.57800982 37:0.35587587 
4 1:0.85177815 2:0.86205374 3:0.37279439 4:0.44580709 5:0.57301424 6:0.60353034 7:0.61124977 8:0.31707681 9:0.4293545 10:0.58530102 11:0.64329429 12:0.62119735 13:0.81894837 14:0.84796976 15:0.86190502 16:0.83442431 17:0.85177818 18:0.46694124 19:0.43275462 20:1 21:0.95818364 22:0.76947147 23:0.52122153 24:0.53289113 25:0.53088227 26:0.54590597 27:0.54000199 28:0.32427748 29:0.49239442 30:0.53449684 31:0.55657605 32:0.37221088 33:0.53472127 34:0.76412055 35:0.80573577 36:0.83212428 37:0.59641621 
-3.4615402052773789 1:0.72837088 2:0.70052721 3:0.37279439 4:0.44580709 5:0.57301424 6:0.60353034 7:0.61124977 8:0.13907362 9:0.27440516 10:0.50525145 11:0.60462175 12:0.53541799 13:0.58449975 14:0.59133767 15:0.74442922 16:0.77307152 17:0.72837087 18:0.16865202 19:0.19569827 20:1 21:0.95818364 22:0.46873958 23:0.52122153 24:0.53289113 25:0.53088227 26:0.54590597 27:0.54000199 28:0.16819748 29:0.27710068 30:0.32909515 31:0.37293143 32:0.19980175 33:0.28689296 34:0.44017362 35:0.50345995 36:0.56039399 37:0.33046831 
4 1:0.89394333 2:0.87992857 3:0.37279439 4:0.44580709 5:0.57301424 6:0.60353034 7:0.61124977 8:0.24148912 9:0.41054796 10:0.62106131 11:0.69313074 12:0.65044151 13:0.7209342 14:0.82288997 15:0.91576224 16:0.90939131 17:0.89394333 18:0.21492981 19:0.23247614 20:1 21:0.95818364 22:0.81023898 23:0.52122153 24:0.53289113 25:0.53088227 26:0.54590597 27:0.54000199 28:0.31505414 29:0.52373357 30:0.57435671 31:0.6012505 32:0.37228884 33:0.5209627 34:0.81090416 35:0.86381076 36:0.89755692 37:0.59700356 
-4 1:0.23184745 2:0.2406013 3:0.37279439 4:0.44580709 5:0.57301424 6:0.60353034 7:0.61124977 8:0.024900785 9:0.047144772 10:0.13881624 11:0.26688254 12:0.19270461 13:0.43205576 14:0.20343905 15:0.19728612 16:0.25194606 17:0.23184744 18:0.027116092 19:0.083216853 20:1 21:0.95818364 22:0.1476687 23:0.52122153 24:0.53289113 25:0.53088227 26:0.54590597 27:0.54000199 28:0.064318952 29:0.083280973 30:0.089157124 31:0.09143118 32:0.070471085 33:0.12024184 34:0.14808512 35:0.15046674 36:0.14417898 37:0.12967537 
4 1:0.79332115 2:0.78467365 3:0.37279439 4:0.44580709 5:0.57301424 6:0.60353034 7:0.61124977 8:0.23147944 9:0.35578404 10:0.54813606 11:0.62424982 12:0.58033007 13:0.70531918 14:0.72370619 15:0.80705695 16:0.80537346 17:0.79332116 18:0.35506204 19:0.343842 20:1 21:0.95818364 22:0.68576243 23:0.52122153 24:0.53289113 25:0.53088227 26:0.54590597 27:0.54000199 28:0.26393297 29:0.43274919 30:0.48513939 31:0.51435125 32:0.31113191 33:0.43955298 34:0.67479983 35:0.73368031 36:0.77034547 37:0.50274449 
-4 1:0.65559105 2:0.65029814 3:0.37279439 4:0.44580709 5:0.57301424 6:0.60353034 7:0.61124977 8:0.19421925 9:0.2751606 10:0.43846768 11:0.54116612 12:0.48443415 13:0.65626789 14:0.58627936 15:0.64515399 16:0.67939411 17:0.65559103 18:0.2589135 19:0.26743085 20:1 21:0.95818364 22:0.44479361 23:0.52122153 24:0.53289113 25:0.53088227 26:0.54590597 27:0.54000199 28:0.15653068 29:0.26346749 30:0.31360075 31:0.35512528 32:0.18728598 33:0.26611736 34:0.41880056 35:0.48044392 36:0.53418291 37:0.30920465 
-4 1:0.44522136 2:0.42874009 3:0.37279439 4:0.44580709 5:0.57301424 6:0.60353034 7:0.61124977 8:0.053151245 9:0.12029109 10:0.2963926 11:0.42338428 12:0.33998708 13:0.46943563 14:0.32510998 15:0.43017318 16:0.50166275 17:0.44522136 18:0.1069211 19:0.14663948 20:1 21:0.95818364 22:0.30462223 23:0.52122153 24:0.53289113 25:0.53088227 26:0.54590597 27:0.54000199 28:0.11096433 29:0.17335069 30:0.20636691 31:0.23523537 32:0.12963948 33:0.19503384 34:0.284458 35:0.32447922 36:0.35970758 37:0.22156865 
4 1:0.745566 2:0.72736971 3:0.37279439 4:0.44580709 5:0.57301424 6:0.60353034 7:0.61124977 8:0.19522941 9:0.30677326 10:0.5071449 11:0.60791024 12:0.54715548 13:0.65688952 14:0.63966587 15:0.74603045 16:0.78016583 17:0.74556603 18:0.32072353 19:0.31655251 20:1 21:0.95818364 22:0.63923785 23:0.52122153 24:0.53289113 25:0.53088227 26:0.54590597 27:0.54000199 28:0.23289849 29:0.39115463 30:0.45555059 31:0.50067969 32:0.27776416 33:0.39018735 34:0.61213096 35:0.68990052 36:0.74966097 37:0.45122108 
4 1:0.76342149 2:0.75971419 3:0.37279439 4:0.44580709 5:0.57301424 6:0.60353034 7:0.61124977 8:0.23648619 9:0.34998027 10:0.52435012 11:0.60123392 12:0.55994695 13:0.71047371 14:0.71093509 15:0.7710845 16:0.76944449 17:0.76342149 18:0.32221637 19:0.3177389 20:1 21:0.95818364 22:0.55103404 23:0.52122153 24:0.53289113 25:0.53088227 26:0.54590597 27:0.54000199 28:0.21016963 29:0.33344349 30:0.38525489 31:0.42471426 32:0.24596321 33:0.35381478 34:0.52563581 35:0.58702003 36:0.63810425 37:0.40205695 
-4 1:0.86615331 2:0.88114652 3:0.37279439 4:0.44580709 5:0.57301424 6:0.60353034 7:0.61124977 8:0.33608305 9:0.44635137 10:0.59557376 11:0.64792948 12:0.63126505 13:0.84494911 14:0.877966 15:0.87706249 16:0.84149915 17:0.86615331 18:0.49130557 19:0.45211744 20:1 21:0.95818364 22:0.78911272 23:0.52122153 24:0.53289113 25:0.53088227 26:0.54590597 27:0.54000199 28:0.3391114 29:0.50765383 30:0.54562071 31:0.56407314 32:0.38725532 33:0.55860999 34:0.78724277 35:0.82218089 36:0.84323968 37:0.61991802 
4 1:0.73720964 2:0.72903556 3:0.37279439 4:0.44580709 5:0.57301424 6:0.60353034 7:0.61124977 8:0.20976763 9:0.32269897 10:0.50665155 11:0.58999931 12:0.54166805 13:0.67584669 14:0.66724448 15:0.74545615 16:0.75169777 17:0.73720968 18:0.3011274 19:0.30097908 20:1 21:0.95818364 22:0.50918655 23:0.52122153 24:0.53289113 25:0.53088227 26:0.54590597 27:0.54000199 28:0.18962136 29:0.30434963 30:0.35621795 31:0.3980303 32:0.22302802 33:0.3214336 34:0.48168639 35:0.543892 36:0.59803915 37:0.36685029 
-4 1:0.86351257 2:0.87804404 3:0.37279439 4:0.44580709 5:0.57301424 6:0.60353034 7:0.61124977 8:0.33182471 9:0.44440361 10:0.59341986 11:0.64682243 12:0.62937398 13:0.83957072 14:0.87516235 15:0.87405817 16:0.83964905 17:0.86351261 18:0.48602597 19:0.44792164 20:1 21:0.95818364 22:0.77944294 23:0.52122153 24:0.53289113 25:0.53088227 26:0.54590597 27:0.54000199 28:0.32983704 29:0.50080114 30:0.54089679 31:0.56085427 32:0.37841643 33:0.54419337 34:0.77694822 35:0.81513181 36:0.83832064 37:0.60652791 
-4 1:0.92903478 2:0.96712179 3:0.37279439 4:0.44580709 5:0.57301424 6:0.60353034 7:0.61124977 8:0.44993528 9:0.51530726 10:0.63666132 11:0.66808671 12:0.67478027 13:1 14:1 15:0.93878597 16:0.87265856 17:0.9290348 18:0.72445698 19:0.63740748 20:1 21:0.95818364 22:0.99999857 23:0.52122153 24:0.53289113 25:0.53088227 26:0.54590597 27:0.54000199 28:0.61630185 29:0.62537413 30:0.61918915 31:0.61240916 32:0.63324535 33:0.99999947 34:0.96447378 35:0.9302774 36:0.91453157 37:0.9999991 
4 1:0.43233448 2:0.40257048 3:0.37279439 4:0.44580709 5:0.57301424 6:0.60353034 7:0.61124977 8:0.037710892 9:0.086201463 10:0.26317563 11:0.43982783 12:0.3302271 13:0.4498827 14:0.27407885 15:0.38590077 16:0.51781953 17:0.43233447 18:0.17105134 19:0.19760505 20:1 21:0.95818364 22:0.29455168 23:0.52122153 24:0.53289113 25:0.53088227 26:0.54590597 27:0.54000199 28:0.1072967 29:0.16489627 30:0.19834763 31:0.23171119 32:0.124884 33:0.1898638 34:0.27151333 35:0.31156649 36:0.35240576 37:0.21479323 
4 1:0.74716772 2:0.71961347 3:0.37279439 4:0.44580709 5:0.57301424 6:0.60353034 7:0.61124977 8:0.14528303 9:0.28202757 10:0.52664906 11:0.61318363 12:0.54860747 13:0.59276941 14:0.60430278 15:0.77502135 16:0.78809298 17:0.74716777 18:0.32534633 19:0.32022634 20:1 21:0.95818364 22:0.60095912 23:0.52122153 24:0.53289113 25:0.53088227 26:0.54590597 27:0.54000199 28:0.21242374 29:0.36801729 30:0.4294835 31:0.47249853 32:0.25601303 33:0.35800427 34:0.57758049 35:0.6518672 36:0.70837289 37:0.4179139 
-3.4705366563080848 1:0.85733033 2:0.86968706 3:0.37279439 4:0.44580709 5:0.57301424 6:0.60353034 7:0.61124977 8:0.32345477 9:0.4370275 10:0.58944859 11:0.6446247 12:0.62506112 13:0.82787889 14:0.86150495 15:0.86808357 16:0.83648297 17:0.85733033 18:0.47965799 19:0.44286088 20:1 21:0.95818364 22:0.77996377 23:0.52122153 24:0.53289113 25:0.53088227 26:0.54590597 27:0.54000199 28:0.33213001 29:0.5008693 30:0.54052015 31:0.56054257 32:0.38024826 33:0.54725065 34:0.77682305 35:0.81453513 36:0.83792581 37:0.60884499 
-4 1:0.76186544 2:0.75635348 3:0.37279439 4:0.44580709 5:0.57301424 6:0.60353034 7:0.61124977 8:0.22887472 9:0.34513701 10:0.52303354 11:0.60248916 12:0.55879684 13:0.70105683 14:0.70422594 15:0.76956288 16:0.77074618 17:0.76186548 18:0.32600522 19:0.32074997 20:1 21:0.95818364 22:0.54908682 23:0.52122153 24:0.53289113 25:0.53088227 26:0.54590597 27:0.54000199 28:0.20680942 29:0.33150955 30:0.38503748 31:0.42610218 32:0.2429433 33:0.34892227 34:0.52265929 35:0.58628188 36:0.63941169 37:0.39775651 
-4 1:0.86500111 2:0.87859526 3:0.37279439 4:0.44580709 5:0.57301424 6:0.60353034 7:0.61124977 8:0.32914024 9:0.44279082 10:0.59490814 11:0.64868903 12:0.63035494 13:0.83617632 14:0.87318415 15:0.87648824 16:0.84241723 17:0.86500113 18:0.49738055 19:0.45694535 20:1 21:0.95818364 22:0.79978194 23:0.52122153 24:0.53289113 25:0.53088227 26:0.54590597 27:0.54000199 28:0.34366558 29:0.51592393 30:0.55324873 31:0.57053276 32:0.39270496 33:0.56642131 34:0.79971408 35:0.83323409 36:0.85254835 37:0.62876335 
-4 1:0.43997163 2:0.37358832 3:0.74948946 4:0.80901345 5:0.86707509 6:0.70239843 7:0.85464991 8:0.066066056 9:0.17088146 10:0.421559 11:0.56956773 12:0.46622162 13:0.17780287 14:0.1772196 15:0.41157814 16:0.62065253 17:0.43997162 18:0.20783624 19:0.23572121 20:0.15808351 21:0.14117689 22:0.41459004 23:0.57831756 24:0.50267611 25:0.46894549 26:0.45151753 27:0.57722082 28:0.095374682 29:0.21325399 30:0.2828389 31:0.3399186 32:0.12822198 33:0.15610891 34:0.36020013 35:0.47892344 36:0.59252285 37:0.20808505 
-4 1:0.84193684 2:0.83544981 3:0.74948946 4:0.80901345 5:0.86707509 6:0.70239843 7:0.85464991 8:0.49569123 9:0.66856784 10:0.83235848 11:0.73567581 12:0.80504396 13:0.6724348 14:0.79577375 15:0.87730831 16:0.85143779 17:0.84193683 18:0.42334452 19:0.40698991 20:0.15808351 21:0.14117689 22:0.77105997 23:0.57831756 24:0.50267611 25:0.46894549 26:0.45151753 27:0.57722082 28:0.26395366 29:0.50086639 30:0.52155957 31:0.51109915 32:0.32426217 33:0.40721195 34:0.80842449 35:0.85565035 36:0.87352889 37:0.49848111 
-4 1:0.8790177 2:0.89282699 3:0.74948946 4:0.80901345 5:0.86707509 6:0.70239843 7:0.85464991 8:0.61321055 9:0.74964436 10:0.85303801 11:0.73998799 12:0.83626808 13:0.80769446 14:0.89645593 15:0.90075405 16:0.8575352 17:0.87901772 18:0.47019239 19:0.44422085 20:0.15808351 21:0.14117689 22:0.79182245 23:0.57831756 24:0.50267611 25:0.46894549 26:0.45151753 27:0.57722082 28:0.30890563 29:0.5089269 30:0.52217457 31:0.50996913 32:0.36170665 33:0.47393908 34:0.82083435 35:0.85654908 36:0.87163219 37:0.55374322 
-4 1:0.80619525 2:0.80998395 3:0.74948946 4:0.80901345 5:0.86707509 6:0.70239843 7:0.85464991 8:0.52086682 9:0.66896966 10:0.78824327 11:0.70171225 12:0.77476562 13:0.70149504 14:0.7963976 15:0.82741788 16:0.8043468 17:0.80619524 18:0.32243304 19:0.32679356 20:0.15808351 21:0.14117689 22:0.54153328 23:0.57831756 24:0.50267611 25:0.46894549 26:0.45151753 27:0.57722082 28:0.17284407 29:0.31369068 30:0.363083 31:0.39087217 32:0.21137721 33:0.27153656 34:0.51686019 35:0.60570043 36:0.67623913 37:0.33132232 
-4 1:0.89140057 2:0.91464822 3:0.74948946 4:0.80901345 5:0.86707509 6:0.70239843 7:0.85464991 8:0.67170892 9:0.77856813 10:0.85829554 11:0.73948007 12:0.84664282 13:0.8750721 14:0.93248061 15:0.9067619 16:0.85684183 17:0.89140056 18:0.49381556 19:0.46299465 20:0.15808351 21:0.14117689 22:0.81119653 23:0.57831756 24:0.50267611 25:0.46894549 26:0.45151753 27:0.57722082 28:0.33949412 29:0.51784958 30:0.52708332 31:0.51306551 32:0.38800055 33:0.51989763 34:0.83501914 35:0.86445888 36:0.87681571 37:0.59306725 
-4 1:0.54893898 2:0.496259 3:0.74948946 4:0.80901345 5:0.86707509 6:0.70239843 7:0.85464991 8:0.16228128 9:0.29491637 10:0.55434021 11:0.60747917 12:0.55816113 13:0.28854782 14:0.3312907 15:0.56200894 16:0.67315795 17:0.54893897 18:0.21620618 19:0.24237297 20:0.15808351 21:0.14117689 22:0.37739666 23:0.57831756 24:0.50267611 25:0.46894549 26:0.45151753 27:0.57722082 28:0.096935317 29:0.20093878 30:0.25233636 31:0.29300389 32:0.12561284 33:0.1583397 34:0.34071732 35:0.43037784 36:0.51499301 37:0.20408449 
-4 1:0.82094989 2:0.82917939 3:0.74948946 4:0.80901345 5:0.86707509 6:0.70239843 7:0.85464991 8:0.55610108 9:0.68824383 10:0.79885403 11:0.70804336 12:0.78720245 13:0.74204353 14:0.82033619 15:0.83942637 16:0.81314769 17:0.82094988 18:0.34149813 19:0.34194496 20:0.15808351 21:0.14117689 22:0.58569951 23:0.57831756 24:0.50267611 25:0.46894549 26:0.45151753 27:0.57722082 28:0.19130907 29:0.34425689 30:0.3937668 31:0.41815805 32:0.23296764 33:0.2990131 34:0.56450724 35:0.6541794 36:0.72112369 37:0.3632854 
-4 1:0.89084297 2:0.91390386 3:0.74948946 4:0.80901345 5:0.86707509 6:0.70239843 7:0.85464991 8:0.67287779 9:0.7761397 10:0.85756923 11:0.7397832 12:0.84617133 13:0.87640226 14:0.92944521 15:0.90595841 16:0.85727774 17:0.89084296 18:0.50426346 19:0.4712978 20:0.15808351 21:0.14117689 22:0.82893254 23:0.57831756 24:0.50267611 25:0.46894549 26:0.45151753 27:0.57722082 28:0.36266653 29:0.52954072 30:0.53296219 31:0.51627182 32:0.40886078 33:0.55432179 34:0.85318605 35:0.87371632 36:0.88207336 37:0.62388892 
-4 1:0.91562835 2:0.8881927 3:0.74948946 4:0.80901345 5:0.86707509 6:0.70239843 7:0.85464991 8:0.43396128 9:0.68661621 10:0.90328747 11:0.81236703 12:0.86734009 13:0.60135295 14:0.81804981 15:0.95758712 16:0.95792101 17:0.91562838 18:0.17657778 19:0.21087949 20:0.15808351 21:0.14117689 22:0.8284737 23:0.57831756 24:0.50267611 25:0.46894549 26:0.45151753 27:0.57722082 28:0.26662134 29:0.54833704 30:0.56616197 31:0.55476472 32:0.33681948 33:0.41102519 34:0.8821851 35:0.92598549 36:0.94526653 37:0.51691311 
-4 1:0.17032321 2:0.14307508 3:0.74948946 4:0.80901345 5:0.86707509 6:0.70239843 7:0.85464991 8:0.035203419 9:0.069447322 10:0.18496831 11:0.31859719 12:0.23914445 13:0.14228756 14:0.051241815 15:0.14324443 16:0.27035011 17:0.17032318 18:0.04981979 19:0.1101424 20:0.15808351 21:0.14117689 22:0.1530564 23:0.57831756 24:0.50267611 25:0.46894549 26:0.45151753 27:0.57722082 28:0.046995644 29:0.072275083 30:0.084702326 31:0.098192883 32:0.054582867 33:0.084045282 34:0.14036606 35:0.16586571 36:0.19495309 37:0.098973519 
-4 1:0.8323088 2:0.83498838 3:0.74948946 4:0.80901345 5:0.86707509 6:0.70239843 7:0.85464991 8:0.5335697 9:0.68427768 10:0.81581068 11:0.72013219 12:0.79686579 13:0.7160871 14:0.81528975 15:0.85857653 16:0.82991909 17:0.83230883 18:0.34455677 19:0.34437573 20:0.15808351 21:0.14117689 22:0.69397061 23:0.57831756 24:0.50267611 25:0.46894549 26:0.45151753 27:0.57722082 28:0.22499567 29:0.43876882 30:0.47229728 31:0.47383788 32:0.27997327 33:0.34916445 34:0.71174247 35:0.77801788 36:0.81242845 37:0.43287883 
-4 1:0.82065058 2:0.82299243 3:0.74948946 4:0.80901345 5:0.86707509 6:0.70239843 7:0.85464991 8:0.52460179 9:0.67567738 10:0.80306899 11:0.71353681 12:0.78716483 13:0.70563024 14:0.80450055 15:0.84394523 16:0.82064316 17:0.82065059 18:0.37671937 19:0.36993599 20:0.15808351 21:0.14117689 22:0.66152727 23:0.57831756 24:0.50267611 25:0.46894549 26:0.45151753 27:0.57722082 28:0.21546507 29:0.40371821 30:0.44981781 31:0.46286456 32:0.26529373 33:0.33470367 34:0.65676877 35:0.74229564 36:0.79426705 37:0.41085606 
-4 1:0.59590349 2:0.55104076 3:0.74948946 4:0.80901345 5:0.86707509 6:0.70239843 7:0.85464991 8:0.20042093 9:0.35896267 10:0.61219713 11:0.61771521 12:0.5966632 13:0.33255066 14:0.41125798 15:0.62878768 16:0.68974242 17:0.59590348 18:0.17882603 19:0.21266622 20:0.15808351 21:0.14117689 22:0.42376984 23:0.57831756 24:0.50267611 25:0.46894549 26:0.45151753 27:0.57722082 28:0.10868049 29:0.23490303 30:0.28776338 31:0.32167689 32:0.14260538 33:0.17617033 34:0.39457428 35:0.48742488 36:0.56326792 37:0.22972093 
-4 1:0.76685594 2:0.75423063 3:0.74948946 4:0.80901345 5:0.86707509 6:0.70239843 7:0.85464991 8:0.4391752 9:0.58600828 10:0.75593144 11:0.69746257 12:0.74153349 13:0.60744281 14:0.69329425 15:0.79093778 16:0.79867323 17:0.76685593 18:0.30326156 19:0.31155761 20:0.15808351 21:0.14117689 22:0.62541914 23:0.57831756 24:0.50267611 25:0.46894549 26:0.45151753 27:0.57722082 28:0.18335725 29:0.37965774 30:0.42989304 31:0.44959646 32:0.23446572 33:0.28726163 34:0.61977967 35:0.71120157 36:0.77268423 37:0.36559207 
4 1:0.83686104 2:0.84789353 3:0.74948946 4:0.80901345 5:0.86707509 6:0.70239843 7:0.85464991 8:0.57596473 9:0.70861236 10:0.8145125 11:0.71457612 12:0.80069071 13:0.76489685 14:0.84558599 15:0.85712793 16:0.82213973 17:0.83686105 18:0.37139945 19:0.36570814 20:0.15808351 21:0.14117689 22:0.63029276 23:0.57831756 24:0.50267611 25:0.46894549 26:0.45151753 27:0.57722082 28:0.21728559 29:0.37714404 30:0.42207942 31:0.43975329 32:0.26082123 33:0.33767847 34:0.61566651 35:0.69874654 36:0.75645884 37:0.4045058 
-4 1:0.89385896 2:0.91831506 3:0.74948946 4:0.80901345 5:0.86707509 6:0.70239843 7:0.85464991 8:0.68138427 9:0.78168658 10:0.86005951 11:0.7401872 12:0.84874223 13:0.88616973 14:0.93632789 15:0.90874391 16:0.85779373 17:0.89385901 18:0.51071353 19:0.4764238 20:0.15808351 21:0.14117689 22:0.83364251 23:0.57831756 24:0.50267611 25:0.46894549 26:0.45151753 27:0.57722082 28:0.36814878 29:0.53292539 30:0.53490175 31:0.51725389 32:0.4139268 33:0.56241527 34:0.85836453 35:0.87670877 36:0.88364147 37:0.63131777 
-4 1:0.82642877 2:0.83679091 3:0.74948946 4:0.80901345 5:0.86707509 6:0.70239843 7:0.85464991 8:0.56963188 9:0.69712164 10:0.80388625 11:0.70893436 12:0.79177943 13:0.75764031 14:0.83142302 15:0.84518541 16:0.81437655 17:0.82642878 18:0.35156741 19:0.34994722 20:0.15808351 21:0.14117689 22:0.59376306 23:0.57831756 24:0.50267611 25:0.46894549 26:0.45151753 27:0.57722082 28:0.19779551 29:0.3506279 30:0.39813391 31:0.42050353 32:0.23946424 33:0.30876367 34:0.57452842 35:0.6611259 36:0.72499814 37:0.37299825 
-4 1:0.89060836 2:0.91368029 3:0.74948946 4:0.80901345 5:0.86707509 6:0.70239843 7:0.85464991 8:0.6701681 9:0.77766276 10:0.85764801 11:0.73914397 12:0.84599681 13:0.87329326 14:0.93133356 15:0.90601522 16:0.8563585 17:0.89060836 18:0.50723169 19:0.47365672 20:0.15808351 21:0.14117689 22:0.82997145 23:0.57831756 24:0.50267611 25:0.46894549 26:0.45151753 27:0.57722082 28:0.36147092 29:0.53145024 30:0.53418452 31:0.51687128 32:0.40828504 33:0.55254585 34:0.85610238 35:0.87559829 36:0.88302518 37:0.62302732 
-4 1:0.82197487 2:0.81953104 3:0.74948946 4:0.80901345 5:0.86707509 6:0.70239843 7:0.85464991 8:0.49793731 9:0.66967093 10:0.80468376 11:0.71984022 12:0.78821885 13:0.67501599 14:0.79717943 15:0.84587985 16:0.82933367 17:0.82197491 18:0.35498739 19:0.35266515 20:0.15808351 21:0.14117689 22:0.6275655 23:0.57831756 24:0.50267611 25:0.46894549 26:0.45151753 27:0.57722082 28:0.19137573 29:0.37558912 30:0.42967831 31:0.45213201 32:0.24021949 33:0.2990391 34:0.61303736 35:0.71048535 36:0.77654638 37:0.37390338 
-4 1:0.80802272 2:0.81293446 3:0.74948946 4:0.80901345 5:0.86707509 6:0.70239843 7:0.85464991 8:0.52552637 9:0.67430516 10:0.78946672 11:0.70133126 12:0.77625285 13:0.70690359 14:0.80307735 15:0.82886543 16:0.80383715 17:0.80802273 18:0.33425247 19:0.33618669 20:0.15808351 21:0.14117689 22:0.56500382 23:0.57831756 24:0.50267611 25:0.46894549 26:0.45151753 27:0.57722082 28:0.18281044 29:0.33047006 30:0.37925658 31:0.40467756 32:0.22305285 33:0.28642737 34:0.54310187 35:0.63131924 36:0.69898657 37:0.34867271 
-3.9153214974867363 1:0.89060885 2:0.91366719 3:0.74948946 4:0.80901345 5:0.86707509 6:0.70239843 7:0.85464991 8:0.67072413 9:0.77743827 10:0.85722567 11:0.73941192 12:0.84598682 13:0.87392164 14:0.93105719 15:0.90555583 16:0.85673382 17:0.89060884 18:0.50298956 19:0.47028541 20:0.15808351 21:0.14117689 22:0.82515132 23:0.57831756 24:0.50267611 25:0.46894549 26:0.45151753 27:0.57722082 28:0.35565431 29:0.52792476 30:0.53243764 31:0.51599648 32:0.4029359 33:0.54393836 34:0.85064366 35:0.87285535 36:0.88159228 37:0.6151546 
-4 1:0.79616209 2:0.79888518 3:0.74948946 4:0.80901345 5:0.86707509 6:0.70239843 7:0.85464991 8:0.51372846 9:0.65620336 10:0.77830044 11:0.69698369 12:0.76625768 13:0.69330764 14:0.78061671 15:0.81618703 16:0.79777442 17:0.79616214 18:0.31613272 19:0.32178657 20:0.15808351 21:0.14117689 22:0.52816892 23:0.57831756 24:0.50267611 25:0.46894549 26:0.45151753 27:0.57722082 28:0.16967376 29:0.30494323 30:0.35298873 31:0.38059095 32:0.20681361 33:0.26681794 34:0.50323599 35:0.58978373 36:0.65938828 37:0.32456709 
2.9999398567835649 1:0.88188062 2:0.90308493 3:0.74948946 4:0.80901345 5:0.86707509 6:0.70239843 7:0.85464991 8:0.65583899 9:0.76676708 10:0.84970556 11:0.73549671 12:0.8386262 13:0.8568013 14:0.91781662 15:0.89702945 16:0.85127702 17:0.88188065 18:0.48078101 19:0.45263583 20:0.15808351 21:0.14117689 22:0.80009173 23:0.57831756 24:0.50267611 25:0.46894549 26:0.45151753 27:0.57722082 28:0.33031192 29:0.50879904 30:0.52155998 31:0.50974792 32:0.37882589 33:0.5061263 34:0.82086672 35:0.85571588 36:0.87134945 37:0.57939123 
4 1:0.5979061 2:0.59686106 3:0.070210581 4:0.12939473 5:0.19744487 6:0.18004417 7:0.18789174 8:0.039273986 9:0.061678415 10:0.15172275 11:0.22486947 12:0.17894841 13:0.76781479 14:0.5293957 15:0.51775494 16:0.63153462 17:0.59790612 18:0.38568695 19:0.30159054 20:0.021763819 21:0.022343338 22:0.53989907 23:0.17508821 24:0.1727703 25:0.16001624 26:0.15073386 27:0.17920437 28:0.11442625 29:0.15927312 30:0.17493901 31:0.17922088 32:0.12812027 33:0.37368725 34:0.50634111 35:0.56493061 36:0.6166497 37:0.41352117 
-4 1:0.87332637 2:0.89645932 3:0.070210581 4:0.12939473 5:0.19744487 6:0.18004417 7:0.18789174 8:0.12307239 9:0.19864674 10:0.29551215 11:0.30306315 12:0.29687117 13:0.90147421 14:0.89295875 15:0.88269657 16:0.84405135 17:0.87332637 18:0.64663549 19:0.50897153 20:0.021763819 21:0.022343338 22:0.87744496 23:0.17508821 24:0.1727703 25:0.16001624 26:0.15073386 27:0.17920437 28:0.24134401 29:0.30091777 30:0.29541636 31:0.27721266 32:0.26013746 33:0.7281315 34:0.87218197 35:0.8721159 36:0.87319377 37:0.76977872 
-4 1:0.79582535 2:0.81245776 3:0.070210581 4:0.12939473 5:0.19744487 6:0.18004417 7:0.18789174 8:0.089742554 9:0.16079138 10:0.26087793 11:0.27853241 12:0.26384827 13:0.8481642 14:0.79171913 15:0.79418102 16:0.77718318 17:0.79582536 18:0.44313669 19:0.34724699 20:0.021763819 21:0.022343338 22:0.63462057 23:0.17508821 24:0.1727703 25:0.16001624 26:0.15073386 27:0.17920437 28:0.15917307 29:0.19970762 30:0.2051007 31:0.20018161 32:0.17238803 33:0.49881865 34:0.61037405 35:0.64122595 36:0.67077513 37:0.53298453 
-4 1:0.88607426 2:0.91489714 3:0.070210581 4:0.12939473 5:0.19744487 6:0.18004417 7:0.18789174 8:0.14140549 9:0.21221657 10:0.29990851 11:0.30386721 12:0.30236597 13:0.93074835 14:0.92901865 15:0.89375537 16:0.84616719 17:0.88607429 18:0.64274461 19:0.50587937 20:0.021763819 21:0.022343338 22:0.88200136 23:0.17508821 24:0.1727703 25:0.16001624 26:0.15073386 27:0.17920437 28:0.24600981 29:0.30130174 30:0.29600427 31:0.2782632 32:0.26398065 33:0.74069005 34:0.87292964 35:0.87344971 36:0.87581276 37:0.77973995 
4 1:0.35122255 2:0.37565164 3:0.070210581 4:0.12939473 5:0.19744487 6:0.18004417 7:0.18789174 8:0.0063726301 9:0.015176067 10:0.052756756 11:0.10384011 12:0.073774615 13:0.71511417 14:0.40506028 15:0.26596946 16:0.30191122 17:0.35122254 18:0.27229378 19:0.21147475 20:0.021763819 21:0.022343338 22:0.32100084 23:0.17508821 24:0.1727703 25:0.16001624 26:0.15073386 27:0.17920437 28:0.084835211 29:0.084503876 30:0.075258598 31:0.060229412 32:0.086231476 33:0.29192782 34:0.31401484 35:0.31151979 36:0.30589562 37:0.30135623 
-4 1:0.7961729 2:0.81023901 3:0.070210581 4:0.12939473 5:0.19744487 6:0.18004417 7:0.18789174 8:0.088799958 9:0.15676533 10:0.25927629 11:0.28159602 12:0.2640814 13:0.84654414 14:0.78051175 15:0.78987692 16:0.78534072 17:0.79617291 18:0.4875846 19:0.38257063 20:0.021763819 21:0.022343338 22:0.76268275 23:0.17508821 24:0.1727703 25:0.16001624 26:0.15073386 27:0.17920437 28:0.19280175 29:0.2505987 30:0.25693581 31:0.24961433 32:0.21072226 33:0.59275614 34:0.74216489 35:0.77389667 36:0.80082435 37:0.63655062 
-4 1:0.82570499 2:0.84804518 3:0.070210581 4:0.12939473 5:0.19744487 6:0.18004417 7:0.18789174 8:0.10836739 9:0.18061786 10:0.27419876 11:0.28521404 12:0.27647402 13:0.87793198 14:0.84486615 15:0.82875643 16:0.79568894 17:0.82570503 18:0.50037868 19:0.39273834 20:0.021763819 21:0.022343338 22:0.73224138 23:0.17508821 24:0.1727703 25:0.16001624 26:0.15073386 27:0.17920437 28:0.18860711 29:0.23865649 30:0.2428086 31:0.23475773 32:0.20457607 33:0.58132656 34:0.71163866 35:0.73814116 36:0.76210964 37:0.62025779 
4 1:0.88528957 2:0.91414316 3:0.070210581 4:0.12939473 5:0.19744487 6:0.18004417 7:0.18789174 8:0.14163325 9:0.21167283 10:0.29950978 11:0.30351324 12:0.30196476 13:0.93116235 14:0.92788999 15:0.89296526 16:0.84530339 17:0.88528965 18:0.66069179 19:0.52014235 20:0.021763819 21:0.022343338 22:0.89080574 23:0.17508821 24:0.1727703 25:0.16001624 26:0.15073386 27:0.17920437 28:0.25052153 29:0.30472686 30:0.29840071 31:0.27997957 32:0.26830182 33:0.75372151 34:0.88218571 35:0.87985717 36:0.88052249 37:0.79182417 
-4 1:0.89758949 2:0.9097113 3:0.070210581 4:0.12939473 5:0.19744487 6:0.18004417 7:0.18789174 8:0.10152771 9:0.19081629 10:0.30637287 11:0.32119681 12:0.3069747 13:0.86723912 14:0.87289991 15:0.91079495 16:0.89390512 17:0.89758947 18:0.31778681 19:0.24762896 20:0.021763819 21:0.022343338 22:0.83124358 23:0.17508821 24:0.1727703 25:0.16001624 26:0.15073386 27:0.17920437 28:0.20891098 29:0.27675993 30:0.28456965 31:0.27816177 32:0.22955746 33:0.63898314 34:0.81087299 35:0.84526954 36:0.87622907 37:0.68858593 
-4 1:0.95829237 2:0.97162341 3:0.070210581 4:0.12939473 5:0.19744487 6:0.18004417 7:0.18789174 8:0.12504797 9:0.21664469 10:0.3277391 11:0.34603892 12:0.33297287 13:0.90484355 14:0.94165038 15:0.96489479 16:0.96127465 17:0.95829238 18:0.32645164 19:0.25451507 20:0.021763819 21:0.022343338 22:0.97238995 23:0.17508821 24:0.1727703 25:0.16001624 26:0.15073386 27:0.17920437 28:0.26377713 29:0.33827474 30:0.3337826 31:0.31647332 32:0.28651489 33:0.79188099 34:0.96936128 35:0.97043745 36:0.97633023 37:0.84194784 
4 1:0.332265 2:0.36477386 3:0.070210581 4:0.12939473 5:0.19744487 6:0.18004417 7:0.18789174 8:0.0080303358 9:0.018505951 10:0.053465708 11:0.086565327 12:0.065865881 13:0.71776509 14:0.41397218 15:0.26789107 16:0.2541316 17:0.33226495 18:0.098650519 19:0.073477001 20:0.021763819 21:0.022343338 22:0.28505269 23:0.17508821 24:0.1727703 25:0.16001624 26:0.15073386 27:0.17920437 28:0.079260115 29:0.074172631 30:0.060724951 31:0.039096497 32:0.079170604 33:0.27588768 34:0.28660507 35:0.2735597 36:0.24948727 37:0.28174346 
-4 1:0.82705713 2:0.84535584 3:0.070210581 4:0.12939473 5:0.19744487 6:0.18004417 7:0.18789174 8:0.099900073 9:0.17459563 10:0.27477574 11:0.2891748 12:0.27705775 13:0.8645365 14:0.82936862 15:0.83003255 16:0.80622026 17:0.82705716 18:0.44471235 19:0.34849921 20:0.021763819 21:0.022343338 22:0.80470447 23:0.17508821 24:0.1727703 25:0.16001624 26:0.15073386 27:0.17920437 28:0.20915647 29:0.26914196 30:0.27145537 31:0.25990562 32:0.2277176 33:0.63910911 34:0.79069532 35:0.81140436 36:0.82811858 37:0.68307847 
-4 1:0.86848207 2:0.89324936 3:0.070210581 4:0.12939473 5:0.19744487 6:0.18004417 7:0.18789174 8:0.12782094 9:0.19889914 10:0.29173939 11:0.30027794 12:0.29453743 13:0.90927907 14:0.89478812 15:0.87406332 16:0.83691819 17:0.86848206 18:0.62569993 19:0.49233362 20:0.021763819 21:0.022343338 22:0.86129035 23:0.17508821 24:0.1727703 25:0.16001624 26:0.15073386 27:0.17920437 28:0.23131435 29:0.29304277 30:0.29104968 31:0.27496596 32:0.25054312 33:0.70164744 34:0.85307058 35:0.86183287 36:0.8679044 37:0.745325 
-4 1:0.58918725 2:0.5989836 3:0.070210581 4:0.12939473 5:0.19744487 6:0.18004417 7:0.18789174 8:0.030863623 9:0.073724012 10:0.16617841 11:0.20525447 12:0.17538029 13:0.75427632 14:0.56119772 15:0.55438122 16:0.57763451 17:0.58918722 18:0.27426736 19:0.21304319 20:0.021763819 21:0.022343338 22:0.50614384 23:0.17508821 24:0.1727703 25:0.16001624 26:0.15073386 27:0.17920437 28:0.12237832 29:0.14942374 30:0.15403032 31:0.15072412 32:0.13164965 33:0.3965675 34:0.48114203 35:0.51163943 36:0.54191539 37:0.42359904 
-4 1:0.83746483 2:0.85844585 3:0.070210581 4:0.12939473 5:0.19744487 6:0.18004417 7:0.18789174 8:0.11084836 9:0.18259965 10:0.27758737 11:0.29166924 12:0.28141508 13:0.88206386 14:0.85110451 15:0.83772563 16:0.81305394 17:0.83746486 18:0.49861515 19:0.39133682 20:0.021763819 21:0.022343338 22:0.80546745 23:0.17508821 24:0.1727703 25:0.16001624 26:0.15073386 27:0.17920437 28:0.20291921 29:0.26712054 30:0.27420512 31:0.26692804 32:0.22255732 33:0.62183461 34:0.78573695 35:0.81865056 36:0.84669953 37:0.66932724 
-4 1:0.80426235 2:0.81468012 3:0.070210581 4:0.12939473 5:0.19744487 6:0.18004417 7:0.18789174 8:0.072333284 9:0.15283507 10:0.26845644 11:0.28535685 12:0.26729513 13:0.82057303 14:0.7717109 15:0.81389451 16:0.79573829 17:0.80426236 18:0.47634323 19:0.37363689 20:0.021763819 21:0.022343338 22:0.69766062 23:0.17508821 24:0.1727703 25:0.16001624 26:0.15073386 27:0.17920437 28:0.17720148 29:0.22548356 30:0.23002654 31:0.2227895 32:0.1925221 33:0.54922621 34:0.67704551 35:0.7049727 36:0.73022027 37:0.58739431 
4 1:0.89131619 2:0.92101034 3:0.070210581 4:0.12939473 5:0.19744487 6:0.18004417 7:0.18789174 8:0.1456055 9:0.21490822 10:0.30223721 11:0.30516169 12:0.30454745 13:0.93754791 14:0.93655795 15:0.89986159 16:0.84974005 17:0.89131618 18:0.67375672 19:0.53052531 20:0.021763819 21:0.022343338 22:0.89965739 23:0.17508821 24:0.1727703 25:0.16001624 26:0.15073386 27:0.17920437 28:0.25534796 29:0.30859997 30:0.30088201 31:0.28136361 32:0.27295197 33:0.76731766 34:0.89219588 35:0.8861746 36:0.8841437 37:0.80446195 
-4 1:0.80205792 2:0.82293381 3:0.070210581 4:0.12939473 5:0.19744487 6:0.18004417 7:0.18789174 8:0.10018729 9:0.16976569 10:0.26396068 11:0.27740195 12:0.26658707 13:0.86480195 14:0.81548702 15:0.80184994 16:0.77393711 17:0.80205796 18:0.45550966 19:0.35708004 20:0.021763819 21:0.022343338 22:0.65038099 23:0.17508821 24:0.1727703 25:0.16001624 26:0.15073386 27:0.17920437 28:0.16553609 29:0.206248 30:0.21067747 31:0.20470644 32:0.17888759 33:0.51625502 34:0.62702388 35:0.65529094 36:0.68256474 37:0.5502173 
4 1:0.88208495 2:0.91065952 3:0.070210581 4:0.12939473 5:0.19744487 6:0.18004417 7:0.18789174 8:0.13922097 9:0.21038754 10:0.29838275 11:0.30239909 12:0.30063954 13:0.92725713 14:0.92421281 15:0.88995547 16:0.84222075 17:0.882085 18:0.64520282 19:0.50783295 20:0.021763819 21:0.022343338 22:0.8761937 23:0.17508821 24:0.1727703 25:0.16001624 26:0.15073386 27:0.17920437 28:0.24374762 29:0.29880854 30:0.29392954 31:0.27662923 32:0.26163715 33:0.73445463 34:0.8665653 35:0.86820788 36:0.87156851 37:0.77349508 
-4 1:0.92903478 2:0.96712179 3:0.070210581 4:0.12939473 5:0.19744487 6:0.18004417 7:0.18789174 8:0.18456668 9:0.23857551 10:0.31748712 11:0.31355595 12:0.32060842 13:1 14:1 15:0.93878597 16:0.87265856 17:0.9290348 18:0.90418257 19:0.7136493 20:0.021763819 21:0.022343338 22:0.99999636 23:0.17508821 24:0.1727703 25:0.16001624 26:0.15073386 27:0.17920437 28:0.33890678 29:0.336554 30:0.31813569 31:0.29293009 32:0.34558284 33:0.99999832 34:0.96447216 35:0.93027508 36:0.91452821 37:0.99999795 
4 1:0.54173567 2:0.54737467 3:0.070210581 4:0.12939473 5:0.19744487 6:0.18004417 7:0.18789174 8:0.017492198 9:0.049996766 10:0.14202487 11:0.19199222 12:0.15541206 13:0.73288808 14:0.49770689 15:0.49169607 16:0.54077504 17:0.54173563 18:0.3107803 19:0.24206075 20:0.021763819 21:0.022343338 22:0.40830986 23:0.17508821 24:0.1727703 25:0.16001624 26:0.15073386 27:0.17920437 28:0.10162715 29:0.1141407 30:0.1127388 31:0.10531097 32:0.10678974 33:0.33841715 34:0.38986016 35:0.4062235 36:0.42289064 37:0.35632932 
-4 1:0.84766335 2:0.86697625 3:0.070210581 4:0.12939473 5:0.19744487 6:0.18004417 7:0.18789174 8:0.11030773 9:0.18437141 10:0.28233362 11:0.29711648 12:0.28606405 13:0.88098982 14:0.85436949 15:0.84854499 16:0.82755283 17:0.84766335 18:0.56161988 19:0.44140794 20:0.021763819 21:0.022343338 22:0.82215957 23:0.17508821 24:0.1727703 25:0.16001624 26:0.15073386 27:0.17920437 28:0.20848485 29:0.27482725 30:0.28151769 31:0.27197861 32:0.22869407 33:0.6360335 34:0.80446942 35:0.83650085 36:0.85943603 37:0.68460064 
-4 1:0.8512887 2:0.87592951 3:0.070210581 4:0.12939473 5:0.19744487 6:0.18004417 7:0.18789174 8:0.1209096 9:0.19345508 10:0.2853835 11:0.29341304 12:0.2875013 13:0.89789571 14:0.87878268 15:0.85685863 16:0.8178131 17:0.85128872 18:0.55739279 19:0.43804858 20:0.021763819 21:0.022343338 22:0.79496911 23:0.17508821 24:0.1727703 25:0.16001624 26:0.15073386 27:0.17920437 28:0.21127183 29:0.26462824 30:0.26582818 31:0.25423175 32:0.22835023 33:0.6441371 34:0.77836704 35:0.79655826 36:0.81288705 37:0.68396487 
4 1:0.89432732 2:0.92423389 3:0.070210581 4:0.12939473 5:0.19744487 6:0.18004417 7:0.18789174 8:0.14707421 9:0.21635107 10:0.30337482 11:0.30620658 12:0.30581465 13:0.93989407 14:0.94042392 15:0.90281288 16:0.85264595 17:0.89432732 18:0.6919563 19:0.54498887 20:0.021763819 21:0.022343338 22:0.91033373 23:0.17508821 24:0.1727703 25:0.16001624 26:0.15073386 27:0.17920437 28:0.2606401 29:0.31303259 30:0.30408143 31:0.28375309 32:0.27811155 33:0.78189893 34:0.90365521 35:0.89437091 36:0.89044014 37:0.81824235 
-4 1:0.84459622 2:0.86943009 3:0.070210581 4:0.12939473 5:0.19744487 6:0.18004417 7:0.18789174 8:0.12009261 9:0.19156713 10:0.28211702 11:0.29087013 12:0.2847243 13:0.8965807 14:0.87349946 15:0.84832942 16:0.81069228 17:0.84459625 18:0.54030699 19:0.42447016 20:0.021763819 21:0.022343338 22:0.77343351 23:0.17508821 24:0.1727703 25:0.16001624 26:0.15073386 27:0.17920437 28:0.20428896 29:0.2559685 30:0.25795708 31:0.24713268 32:0.2208693 33:0.62434107 34:0.75557059 35:0.77607811 36:0.79393839 37:0.663445 
4 1:0.89277697 2:0.92231847 3:0.070210581 4:0.12939473 5:0.19744487 6:0.18004417 7:0.18789174 8:0.1459215 9:0.21525754 10:0.30272705 11:0.30591868 12:0.30518064 13:0.93802922 14:0.93741386 15:0.90104871 16:0.8518162 17:0.892777 18:0.68136743 19:0.53657368 20:0.021763819 21:0.022343338 22:0.90455294 23:0.17508821 24:0.1727703 25:0.16001624 26:0.15073386 27:0.17920437 28:0.25770898 29:0.31065413 30:0.30243995 31:0.28256592 32:0.27527378 33:0.77363421 34:0.89740928 35:0.89010933 36:0.88727539 37:0.81049986 
-4 1:0.28887522 2:0.27806509 3:0.45546817 4:0.55970039 5:0.61888163 6:0.44378929 7:0.57202652 8:0.075798583 9:0.081325343 10:0.16553298 11:0.27579196 12:0.21546591 13:0.41428812 14:0.1748842 15:0.21044734 16:0.39783586 17:0.28887519 18:0.15303209 19:0.1626865 20:0.41779317 21:0.47814299 22:0.17079023 23:0.70580088 24:0.56916829 25:0.49318966 26:0.43930627 27:0.69231723 28:0.022217014 29:0.073313375 30:0.11214565 31:0.15300011 32:0.036599367 33:0.037290539 34:0.12617418 35:0.20018593 36:0.29214356 37:0.059349349 
4 1:0.73987228 2:0.71710192 3:0.45546817 4:0.55970039 5:0.61888163 6:0.44378929 7:0.57202652 8:0.19432562 9:0.3523306 10:0.55545203 11:0.49991138 12:0.51604931 13:0.56975574 14:0.59404717 15:0.7671647 16:0.80918477 17:0.73987229 18:0.31218302 19:0.28916691 20:0.41779317 21:0.47814299 22:0.61823125 23:0.70580088 24:0.56916829 25:0.49318966 26:0.43930627 27:0.69231723 28:0.16049693 29:0.40969343 30:0.46187561 31:0.45777332 32:0.22267384 33:0.21675074 34:0.61154921 35:0.73626169 36:0.80047933 37:0.30311256 
-4 1:0.825776 2:0.82876312 3:0.45546817 4:0.55970039 5:0.61888163 6:0.44378929 7:0.57202652 8:0.30658496 9:0.48290105 10:0.61749079 11:0.5111766 12:0.57339112 13:0.71696855 14:0.79562589 15:0.85543956 16:0.82981295 17:0.82577599 18:0.4057859 19:0.36355497 20:0.41779317 21:0.47814299 22:0.69576032 23:0.70580088 24:0.56916829 25:0.49318966 26:0.43930627 27:0.69231723 28:0.24244037 29:0.48286193 30:0.49788095 31:0.47429039 32:0.3025635 33:0.32307065 34:0.71678351 35:0.79113046 36:0.82779787 37:0.40772782 
4 1:0.70063764 2:0.68619125 3:0.45546817 4:0.55970039 5:0.61888163 6:0.44378929 7:0.57202652 8:0.20310594 9:0.34898937 10:0.52590711 11:0.46860845 12:0.49021976 13:0.58123261 14:0.5886193 15:0.72426083 16:0.75092875 17:0.70063765 18:0.26278093 19:0.24990608 20:0.41779317 21:0.47814299 22:0.40314264 23:0.70580088 24:0.56916829 25:0.49318966 26:0.43930627 27:0.69231723 28:0.098080707 29:0.23731732 30:0.29257422 31:0.31940863 32:0.13469192 33:0.13577696 34:0.36248794 35:0.47628203 36:0.56923986 37:0.18785732 
-4 1:0.85057512 2:0.86471876 3:0.45546817 4:0.55970039 5:0.61888163 6:0.44378929 7:0.57202652 8:0.367166 9:0.52323305 10:0.6281682 11:0.51451649 12:0.58978963 13:0.79641381 14:0.85815327 15:0.87087835 16:0.83607224 17:0.85057516 18:0.44138058 19:0.39184277 20:0.41779317 21:0.47814299 22:0.74267267 23:0.70580088 24:0.56916829 25:0.49318966 26:0.43930627 27:0.69231723 28:0.30352823 29:0.5161676 30:0.51729711 31:0.48639111 32:0.35818118 33:0.4023492 34:0.76505467 35:0.82105399 36:0.84810064 37:0.48065429 
-4 1:0.4261459 2:0.39918544 3:0.45546817 4:0.55970039 5:0.61888163 6:0.44378929 7:0.57202652 8:0.059000833 9:0.13291109 10:0.30083973 11:0.35234562 12:0.30770447 13:0.39222415 14:0.25442001 15:0.40259419 16:0.53599094 17:0.42614586 18:0.16815406 19:0.17470423 20:0.41779317 21:0.47814299 22:0.20464906 23:0.70580088 24:0.56916829 25:0.49318966 26:0.43930627 27:0.69231723 28:0.039631567 29:0.10335652 30:0.14002766 31:0.16648011 32:0.056996875 33:0.059902208 34:0.16906071 35:0.24206947 36:0.31349627 37:0.086040478 
-3.9876472921961281 1:0.45986091 2:0.4340794 3:0.45546817 4:0.55970039 5:0.61888163 6:0.44378929 7:0.57202652 8:0.073441126 9:0.15679619 10:0.33573463 11:0.36389464 12:0.33039395 13:0.41115337 14:0.29130109 15:0.45213092 16:0.55643079 17:0.4598609 18:0.13641694 19:0.14948212 20:0.41779317 21:0.47814299 22:0.17348967 23:0.70580088 24:0.56916829 25:0.49318966 26:0.43930627 27:0.69231723 28:0.035679581 29:0.089597277 30:0.116544 31:0.13129989 32:0.050133714 33:0.054774893 34:0.14919783 35:0.20602404 36:0.25469901 37:0.077049966 
4 1:0.68110173 2:0.66538534 3:0.45546817 4:0.55970039 5:0.61888163 6:0.44378929 7:0.57202652 8:0.19465372 9:0.33183541 10:0.50603994 11:0.46208143 12:0.47664105 13:0.57019902 14:0.56275151 15:0.69702044 16:0.73965789 17:0.68110173 18:0.2516511 19:0.24106099 20:0.41779317 21:0.47814299 22:0.41021134 23:0.70580088 24:0.56916829 25:0.49318966 26:0.43930627 27:0.69231723 28:0.099322619 29:0.23973081 30:0.29746009 31:0.32802025 32:0.13639326 33:0.13732285 34:0.36603558 35:0.48389913 36:0.58374968 37:0.19002868 
4 1:0.84988629 2:0.86344642 3:0.45546817 4:0.55970039 5:0.61888163 6:0.44378929 7:0.57202652 8:0.36717462 9:0.52013513 10:0.62705641 11:0.51543915 12:0.58931528 13:0.79643082 14:0.85339895 15:0.8693397 16:0.83775904 17:0.84988631 18:0.44366619 19:0.39365919 20:0.41779317 21:0.47814299 22:0.7606354 23:0.70580088 24:0.56916829 25:0.49318966 26:0.43930627 27:0.69231723 28:0.32729998 29:0.52866177 30:0.52441695 31:0.49145819 32:0.37973028 33:0.43316913 34:0.78300813 35:0.83193096 36:0.8565394 37:0.50884491 
4 1:0.64656502 2:0.61743989 3:0.45546817 4:0.55970039 5:0.61888163 6:0.44378929 7:0.57202652 8:0.13174949 9:0.27426885 10:0.4881848 11:0.45865947 12:0.45446255 13:0.48761185 14:0.47287989 15:0.66997085 16:0.73212062 17:0.64656497 18:0.16553879 19:0.17262583 20:0.41779317 21:0.47814299 22:0.33321159 23:0.70580088 24:0.56916829 25:0.49318966 26:0.43930627 27:0.69231723 28:0.070488049 29:0.18323137 30:0.23923843 31:0.2770068 32:0.10066462 33:0.099973878 34:0.28437784 35:0.39435483 36:0.49826092 37:0.14328268 
-4 1:0.83378058 2:0.82006613 3:0.45546817 4:0.55970039 5:0.61888163 6:0.44378929 7:0.57202652 8:0.24835287 9:0.4465049 10:0.63211664 11:0.53313803 12:0.57912557 13:0.64050851 14:0.73895739 15:0.87596282 16:0.86924102 17:0.83378059 18:0.22154704 19:0.21713669 20:0.41779317 21:0.47814299 22:0.72513812 23:0.70580088 24:0.56916829 25:0.49318966 26:0.43930627 27:0.69231723 28:0.22637556 29:0.50222713 30:0.52686704 31:0.51145869 32:0.29457897 33:0.30227392 34:0.74462066 35:0.8354629 36:0.88977072 37:0.39728659 
-4 1:0.08120319 2:0.097066382 3:0.45546817 4:0.55970039 5:0.61888163 6:0.44378929 7:0.57202652 8:0.015758955 9:0.021928147 10:0.05902584 11:0.10246688 12:0.076946928 13:0.33552121 14:0.083069139 15:0.05903981 16:0.079015471 17:0.081203171 18:0.038595643 19:0.071741592 20:0.41779317 21:0.47814299 22:0.037360452 23:0.70580088 24:0.56916829 25:0.49318966 26:0.43930627 27:0.69231723 28:0.0052363879 29:0.0097716082 30:0.01132957 31:0.0070862931 32:0.0064133403 33:0.015271404 34:0.034326408 35:0.045245668 36:0.048056127 37:0.019814429 
-4 1:0.75488563 2:0.74757363 3:0.45546817 4:0.55970039 5:0.61888163 6:0.44378929 7:0.57202652 8:0.24316207 9:0.4044798 10:0.57141925 11:0.48396843 12:0.525817 13:0.63384765 14:0.67493688 15:0.79028867 16:0.78019501 17:0.75488564 18:0.31285476 19:0.28970075 20:0.41779317 21:0.47814299 22:0.60368764 23:0.70580088 24:0.56916829 25:0.49318966 26:0.43930627 27:0.69231723 28:0.18494417 29:0.40809449 30:0.43833065 31:0.42786266 32:0.24071869 33:0.24847026 34:0.60911687 35:0.70007049 36:0.75051535 37:0.32673758 
-4 1:0.70437413 2:0.69359114 3:0.45546817 4:0.55970039 5:0.61888163 6:0.44378929 7:0.57202652 8:0.22529964 9:0.35827266 10:0.52356251 11:0.4695561 12:0.49300478 13:0.61026243 14:0.60270962 15:0.72040234 16:0.75213901 17:0.70437413 18:0.27473079 19:0.25940288 20:0.41779317 21:0.47814299 22:0.46425831 23:0.70580088 24:0.56916829 25:0.49318966 26:0.43930627 27:0.69231723 28:0.11798203 29:0.28384935 30:0.34058648 31:0.36025938 32:0.16102284 33:0.16169746 34:0.42932706 35:0.54935882 36:0.63679923 37:0.22242315 
4 1:0.51628527 2:0.49438005 3:0.45546817 4:0.55970039 5:0.61888163 6:0.44378929 7:0.57202652 8:0.10516008 9:0.20316182 10:0.38176394 11:0.38408789 12:0.36642466 13:0.45281104 14:0.36365315 15:0.52060515 16:0.5977078 17:0.51628522 18:0.16254208 19:0.17024429 20:0.41779317 21:0.47814299 22:0.3142229 23:0.70580088 24:0.56916829 25:0.49318966 26:0.43930627 27:0.69231723 28:0.065903763 29:0.1786847 30:0.22714992 31:0.2504418 32:0.095431085 33:0.093983148 34:0.27830303 35:0.37661731 36:0.45480766 37:0.136426 
-4 1:0.70034106 2:0.68848693 3:0.45546817 4:0.55970039 5:0.61888163 6:0.44378929 7:0.57202652 8:0.2142022 9:0.35388899 10:0.52237987 11:0.46586456 12:0.48924025 13:0.59590601 14:0.59706887 15:0.7209084 16:0.74701873 17:0.70034107 18:0.25938448 19:0.24720686 20:0.41779317 21:0.47814299 22:0.53123845 23:0.70580088 24:0.56916829 25:0.49318966 26:0.43930627 27:0.69231723 28:0.145157 29:0.33885443 30:0.38734583 31:0.40007783 32:0.19457249 33:0.1968426 34:0.50941497 35:0.62213677 36:0.70432668 37:0.26631553 
4 1:0.72034579 2:0.71158228 3:0.45546817 4:0.55970039 5:0.61888163 6:0.44378929 7:0.57202652 8:0.23130918 9:0.37698369 10:0.53799634 11:0.472478 12:0.50310866 13:0.6182571 14:0.63211807 15:0.74200609 16:0.75840381 17:0.72034581 18:0.2771448 19:0.26132134 20:0.41779317 21:0.47814299 22:0.44742603 23:0.70580088 24:0.56916829 25:0.49318966 26:0.43930627 27:0.69231723 28:0.11789827 29:0.27172538 30:0.32472223 31:0.34589887 32:0.15807593 33:0.16147769 34:0.41214857 35:0.52560245 36:0.61347823 37:0.21847619 
4 1:0.85258701 2:0.86733982 3:0.45546817 4:0.55970039 5:0.61888163 6:0.44378929 7:0.57202652 8:0.37280759 9:0.52446464 10:0.62966896 11:0.5152447 12:0.59121926 13:0.80378696 14:0.85995026 15:0.87290291 16:0.83725043 17:0.85258704 18:0.44362051 19:0.39362289 20:0.41779317 21:0.47814299 22:0.74919411 23:0.70580088 24:0.56916829 25:0.49318966 26:0.43930627 27:0.69231723 28:0.31619466 29:0.52034757 30:0.51853819 31:0.48666665 32:0.36910878 33:0.41878938 34:0.77099453 35:0.82287685 36:0.84850004 37:0.49495405 
4 1:0.67238668 2:0.65627686 3:0.45546817 4:0.55970039 5:0.61888163 6:0.44378929 7:0.57202652 8:0.18611289 9:0.32585141 10:0.50393561 11:0.45632832 12:0.47136582 13:0.55895929 14:0.55301916 15:0.69295006 16:0.72816703 17:0.67238666 18:0.25286206 19:0.24202336 20:0.41779317 21:0.47814299 22:0.37671691 23:0.70580088 24:0.56916829 25:0.49318966 26:0.43930627 27:0.69231723 28:0.08935465 29:0.21824526 30:0.27226429 31:0.30087826 32:0.12339831 33:0.12445702 34:0.33496023 35:0.44511908 36:0.53827662 37:0.17306912 
4 1:0.84375176 2:0.85665192 3:0.45546817 4:0.55970039 5:0.61888163 6:0.44378929 7:0.57202652 8:0.35835585 9:0.51637288 10:0.62362819 11:0.51217853 12:0.58529056 13:0.78485599 14:0.84748864 15:0.86434286 16:0.83170159 17:0.8437518 18:0.44096412 19:0.3915118 20:0.41779317 21:0.47814299 22:0.7493545 23:0.70580088 24:0.56916829 25:0.49318966 26:0.43930627 27:0.69231723 28:0.31462791 29:0.52131902 30:0.51895795 31:0.48700849 32:0.36803913 33:0.41675561 34:0.77240803 35:0.82354243 36:0.84909309 37:0.49355146 
-4 1:0.92903478 2:0.96712179 3:0.45546817 4:0.55970039 5:0.61888163 6:0.44378929 7:0.57202652 8:0.5224409 9:0.61491744 10:0.6756413 11:0.53435597 12:0.64196697 13:1 14:1 15:0.93878597 16:0.87265856 17:0.9290348 18:0.63218855 19:0.54348164 20:0.41779317 21:0.47814299 22:0.99999852 23:0.70580088 24:0.56916829 25:0.49318966 26:0.43930627 27:0.69231723 28:0.76422595 29:0.65446855 30:0.58859181 31:0.52622818 32:0.75468578 33:0.99999998 34:0.96447361 35:0.93027717 36:0.91453127 37:0.99999999 
4 1:0.29062428 2:0.27368984 3:0.45546817 4:0.55970039 5:0.61888163 6:0.44378929 7:0.57202652 8:0.029787682 9:0.071874523 10:0.19447584 11:0.2698416 12:0.21736148 13:0.35388346 14:0.15994404 15:0.25096309 16:0.38435668 17:0.29062421 18:0.144006 19:0.15551329 20:0.41779317 21:0.47814299 22:0.12362995 23:0.70580088 24:0.56916829 25:0.49318966 26:0.43930627 27:0.69231723 28:0.021002781 29:0.053045085 30:0.075716965 31:0.097055551 32:0.030065401 33:0.035736543 34:0.096686635 35:0.14381018 36:0.19798723 37:0.05079638 
-0.55679935137231296 1:0.66720796 2:0.64217761 3:0.45546817 4:0.55970039 5:0.61888163 6:0.44378929 7:0.57202652 8:0.14113677 9:0.29365356 10:0.52867152 11:0.4508933 12:0.46791474 13:0.49993319 14:0.50287857 15:0.72836047 16:0.71879392 17:0.66720795 18:0.2752449 19:0.25981145 20:0.41779317 21:0.47814299 22:0.46627035 23:0.70580088 24:0.56916829 25:0.49318966 26:0.43930627 27:0.69231723 28:0.10740973 29:0.29085483 30:0.34541356 31:0.36151755 32:0.15395355 33:0.14788225 34:0.43980829 35:0.55750916 36:0.63977815 37:0.21309577 
4 1:0.62719639 2:0.5990792 3:0.45546817 4:0.55970039 5:0.61888163 6:0.44378929 7:0.57202652 8:0.12234088 9:0.26375047 10:0.47688304 11:0.44422387 12:0.44081888 13:0.47531582 14:0.45734459 15:0.65543459 16:0.70672915 17:0.62719639 18:0.24261332 19:0.23387849 20:0.41779317 21:0.47814299 22:0.38432209 23:0.70580088 24:0.56916829 25:0.49318966 26:0.43930627 27:0.69231723 28:0.087919147 29:0.22325197 30:0.27885818 31:0.30858512 32:0.1234566 33:0.12255263 34:0.34243533 35:0.45558087 36:0.5514735 37:0.17312685 
0.40045433892377302 1:0.84179936 2:0.85392891 3:0.45546817 4:0.55970039 5:0.61888163 6:0.44378929 7:0.57202652 8:0.35519514 9:0.51284601 10:0.6223541 11:0.51197041 12:0.58391463 13:0.78072569 14:0.84216229 15:0.86260127 16:0.83140677 17:0.84179938 18:0.43254316 19:0.3848195 20:0.41779317 21:0.47814299 22:0.74469184 23:0.70580088 24:0.56916829 25:0.49318966 26:0.43930627 27:0.69231723 28:0.31208516 29:0.51639245 30:0.51585623 31:0.48545354 32:0.36501311 33:0.41342539 34:0.76532655 35:0.81881435 36:0.84651851 37:0.48957159 
4 1:0.68457475 2:0.66932343 3:0.45546817 4:0.55970039 5:0.61888163 6:0.44378929 7:0.57202652 8:0.19402621 9:0.33645206 10:0.51268606 11:0.46177899 12:0.47949154 13:0.56932621 14:0.56929608 15:0.70543704 16:0.73833138 17:0.68457471 18:0.2627776 19:0.24990344 20:0.41779317 21:0.47814299 22:0.39608766 23:0.70580088 24:0.56916829 25:0.49318966 26:0.43930627 27:0.69231723 28:0.095811384 29:0.23222309 30:0.28726605 31:0.31433778 32:0.1317282 33:0.13284003 34:0.35511429 35:0.46811589 36:0.56075155 37:0.18398096 
4 1:0.83592256 2:0.84624686 3:0.45546817 4:0.55970039 5:0.61888163 6:0.44378929 7:0.57202652 8:0.3459453 9:0.50435821 10:0.61886942 11:0.51083524 12:0.58004408 13:0.76857904 14:0.82895293 15:0.85759225 16:0.8292889 17:0.83592259 18:0.4234091 19:0.37756048 20:0.41779317 21:0.47814299 22:0.72717272 23:0.70580088 24:0.56916829 25:0.49318966 26:0.43930627 27:0.69231723 28:0.29062044 29:0.50288292 30:0.50834924 31:0.48098653 32:0.34513113 33:0.38559072 34:0.7457905 35:0.80726924 36:0.83903794 37:0.46352357 
1.3082489284081198 1:0.45581099 2:0.42477418 3:0.38697087 4:0.40406175 5:0.37873128 6:0.28308569 7:0.37482385 8:0.059927269 9:0.071344989 10:0.18357039 11:0.27096291 12:0.2160547 13:0.4598938 14:0.26981977 15:0.39707002 16:0.57870121 17:0.45581096 18:0.33068351 19:0.30728055 20:0.028460668 21:0.022061632 22:0.51545734 23:0.26114575 24:0.27878746 25:0.29704694 26:0.33478603 27:0.27454534 28:0.090678958 29:0.19715008 30:0.25155433 31:0.29220427 32:0.1199068 33:0.2657891 34:0.49331551 35:0.5794347 36:0.63167468 37:0.33073999 
4 1:0.82861519 2:0.83090304 3:0.38697087 4:0.40406175 5:0.37873128 6:0.28308569 7:0.37482385 8:0.25660216 9:0.35585144 10:0.42990446 11:0.38783821 12:0.42186291 13:0.72357359 14:0.77859584 15:0.85955976 16:0.84455022 17:0.82861519 18:0.5429994 19:0.47668524 20:0.028460668 21:0.022061632 22:0.84741764 23:0.26114575 24:0.27878746 25:0.29704694 26:0.33478603 27:0.27454534 28:0.24903641 29:0.36833858 30:0.39907493 31:0.42222658 32:0.28364501 33:0.63210808 34:0.85260104 35:0.87041328 36:0.87754306 37:0.69377438 
4 1:0.88100611 2:0.90321544 3:0.38697087 4:0.40406175 5:0.37873128 6:0.28308569 7:0.37482385 8:0.35947181 9:0.43170787 10:0.45144592 11:0.39234911 12:0.45161937 13:0.86121338 14:0.91278383 15:0.89794466 16:0.85301893 17:0.88100615 18:0.60558867 19:0.52575313 20:0.028460668 21:0.022061632 22:0.84278891 23:0.26114575 24:0.27878746 25:0.29704694 26:0.33478603 27:0.27454534 28:0.25697172 29:0.36497487 30:0.39219054 31:0.41534878 32:0.28907727 33:0.64960027 34:0.84482435 35:0.85623203 36:0.86394066 37:0.70499003 
4 1:0.78766551 2:0.79513533 3:0.38697087 4:0.40406175 5:0.37873128 6:0.28308569 7:0.37482385 8:0.26409463 9:0.3490048 10:0.40056001 11:0.36479758 12:0.39960154 13:0.73375531 14:0.76637561 15:0.80399071 16:0.79043474 17:0.7876655 18:0.41785412 19:0.37842879 20:0.028460668 21:0.022061632 22:0.59724717 23:0.26114575 24:0.27878746 25:0.29704694 26:0.33478603 27:0.27454534 28:0.16614535 29:0.23816389 30:0.26875014 31:0.29726942 32:0.18820788 33:0.44094366 34:0.58064843 35:0.61482759 36:0.642729 37:0.48292193 
4 1:0.88835109 2:0.91543293 3:0.38697087 4:0.40406175 5:0.37873128 6:0.28308569 7:0.37482385 8:0.38893045 9:0.44267689 10:0.45212755 11:0.39161491 12:0.4552767 13:0.90094116 14:0.93371396 15:0.9005286 16:0.85175055 17:0.88835111 18:0.59862658 19:0.52022023 20:0.028460668 21:0.022061632 22:0.84569883 23:0.26114575 24:0.27878746 25:0.29704694 26:0.33478603 27:0.27454534 28:0.2584576 29:0.36408434 30:0.39329693 31:0.41798772 32:0.29019042 33:0.6538179 34:0.84362092 35:0.8589288 36:0.86939768 37:0.70820506 
-0.54609126322111301 1:0.24224793 2:0.23084986 3:0.38697087 4:0.40406175 5:0.37873128 6:0.28308569 7:0.37482385 8:0.010783426 9:0.025230645 10:0.068587682 11:0.14198988 12:0.10068744 13:0.39368816 14:0.18584075 15:0.17882243 16:0.27472879 17:0.24224787 18:0.21963699 19:0.22090171 20:0.028460668 21:0.022061632 22:0.34278305 23:0.26114575 24:0.27878746 25:0.29704694 26:0.33478603 27:0.27454534 28:0.10103954 29:0.12775756 30:0.13452793 31:0.13551652 32:0.10986515 33:0.2866395 34:0.34427681 35:0.34500491 36:0.33073271 37:0.3051992 
-4 1:0.81072528 2:0.82602635 3:0.38697087 4:0.40406175 5:0.37873128 6:0.28308569 7:0.37482385 8:0.32106454 9:0.3842176 10:0.415742 11:0.36955732 12:0.4170194 13:0.80862361 14:0.822891 15:0.8213158 16:0.78554961 17:0.81072528 18:0.45113635 19:0.40487884 20:0.028460668 21:0.022061632 22:0.71532559 23:0.26114575 24:0.27878746 25:0.29704694 26:0.33478603 27:0.27454534 28:0.20577608 29:0.30074281 30:0.3353583 31:0.36531558 32:0.23416067 33:0.52695422 34:0.70420747 35:0.7374019 36:0.7609009 37:0.57850952 
-4 1:0.79257099 2:0.80091865 3:0.38697087 4:0.40406175 5:0.37873128 6:0.28308569 7:0.37482385 8:0.27889847 9:0.3524386 10:0.40390665 11:0.36737459 12:0.40353993 13:0.75296619 14:0.77074581 15:0.8075018 16:0.7921825 17:0.79257103 18:0.44234698 19:0.39624182 20:0.028460668 21:0.022061632 22:0.66363592 23:0.26114575 24:0.27878746 25:0.29704694 26:0.33478603 27:0.27454534 28:0.18609533 29:0.26993468 30:0.30534741 31:0.33835944 32:0.21158515 33:0.4855384 34:0.64515362 35:0.68449975 36:0.71743439 37:0.53300772 
-4 1:0.88303544 2:0.90874791 3:0.38697087 4:0.40406175 5:0.37873128 6:0.28308569 7:0.37482385 8:0.383247 9:0.43566065 10:0.44946445 11:0.3907435 12:0.45229842 13:0.89323648 14:0.92103882 15:0.89554589 16:0.85017207 17:0.88303546 18:0.62596832 19:0.54382975 20:0.028460668 21:0.022061632 22:0.88696962 23:0.26114575 24:0.27878746 25:0.29704694 26:0.33478603 27:0.27454534 28:0.28111854 29:0.38737848 30:0.41064957 31:0.43058798 32:0.31319703 33:0.70531549 34:0.89168408 35:0.89259163 36:0.89286152 37:0.75832935 
-4 1:0.84429792 2:0.83930502 3:0.38697087 4:0.40406175 5:0.37873128 6:0.28308569 7:0.37482385 8:0.22818487 9:0.35209388 10:0.44097863 11:0.40301859 12:0.43088418 13:0.68536243 14:0.77182831 15:0.87950157 16:0.8769696 17:0.84429796 18:0.20247833 19:0.20539335 20:0.028460668 21:0.022061632 22:0.85484757 23:0.26114575 24:0.27878746 25:0.29704694 26:0.33478603 27:0.27454534 28:0.23916385 29:0.36328261 30:0.40810411 31:0.4456865 32:0.27548339 33:0.60955329 34:0.84235873 35:0.88844075 36:0.92201734 37:0.6759765 
4 1:0.91827605 2:0.91408449 3:0.38697087 4:0.40406175 5:0.37873128 6:0.28308569 7:0.37482385 8:0.26579292 9:0.39274308 10:0.47793494 11:0.43961082 12:0.47163714 13:0.73600582 14:0.84492456 15:0.94898165 16:0.96022121 17:0.91827604 18:0.20927609 19:0.21079567 20:0.028460668 21:0.022061632 22:0.98138276 23:0.26114575 24:0.27878746 25:0.29704694 26:0.33478603 27:0.27454534 28:0.29730294 29:0.43888132 30:0.46495645 31:0.48702305 32:0.33782058 33:0.74310994 34:1 35:1 36:1 37:0.81326453 
4 1:0.24581848 2:0.23731298 3:0.38697087 4:0.40406175 5:0.37873128 6:0.28308569 7:0.37482385 8:0.014395596 9:0.029398986 10:0.081665264 11:0.13417678 12:0.10194844 13:0.39849109 14:0.19330806 15:0.20359961 16:0.2605812 17:0.24581844 18:0.060063673 19:0.092213602 20:0.028460668 21:0.022061632 22:0.21694788 23:0.26114575 24:0.27878746 25:0.29704694 26:0.33478603 27:0.27454534 28:0.060876353 29:0.06992059 30:0.066883197 31:0.058139717 32:0.06415459 33:0.196028 34:0.22601659 35:0.21530533 36:0.18888343 37:0.20640371 
-4 1:0.77897607 2:0.7754428 3:0.38697087 4:0.40406175 5:0.37873128 6:0.28308569 7:0.37482385 8:0.22050784 9:0.31889062 10:0.4044986 11:0.37174117 12:0.39618864 13:0.67453512 14:0.70888312 15:0.8067004 16:0.80412308 17:0.77897606 18:0.4085169 19:0.3691363 20:0.028460668 21:0.022061632 22:0.76752748 23:0.26114575 24:0.27878746 25:0.29704694 26:0.33478603 27:0.27454534 28:0.2189474 29:0.32594964 30:0.36094479 31:0.38784646 32:0.25032846 33:0.56106354 34:0.76209997 35:0.79395827 36:0.81139168 37:0.6184446 
-4 1:0.8819895 2:0.90654541 3:0.38697087 4:0.40406175 5:0.37873128 6:0.28308569 7:0.37482385 8:0.37911984 9:0.43355754 10:0.44957357 11:0.39176901 12:0.45221943 13:0.88747313 14:0.91572038 15:0.8945314 16:0.85166704 17:0.88198953 18:0.62141399 19:0.54018281 20:0.028460668 21:0.022061632 22:0.87093596 23:0.26114575 24:0.27878746 25:0.29704694 26:0.33478603 27:0.27454534 28:0.27004879 29:0.38039847 30:0.40588744 31:0.42649191 32:0.3028856 33:0.67845834 34:0.87614789 35:0.8825386 36:0.88450021 37:0.73431216 
-4 1:0.46388174 2:0.43603749 3:0.38697087 4:0.40406175 5:0.37873128 6:0.28308569 7:0.37482385 8:0.042066713 9:0.098015485 10:0.21169469 11:0.26351713 12:0.22540266 13:0.43547256 14:0.31412434 15:0.44068799 16:0.54211501 17:0.46388171 18:0.21760803 19:0.21741723 20:0.028460668 21:0.022061632 22:0.54017073 23:0.26114575 24:0.27878746 25:0.29704694 26:0.33478603 27:0.27454534 28:0.15256327 29:0.21373701 30:0.24163607 31:0.26617114 32:0.17169065 33:0.40548112 34:0.52387615 35:0.55516042 36:0.57663133 37:0.44180386 
4 1:0.74559245 2:0.73820342 3:0.38697087 4:0.40406175 5:0.37873128 6:0.28308569 7:0.37482385 8:0.20548773 9:0.28950576 10:0.38535431 11:0.36279834 12:0.37890703 13:0.65396916 14:0.65429132 15:0.76879279 16:0.78025524 17:0.74559246 18:0.35244832 19:0.32457748 20:0.028460668 21:0.022061632 22:0.77833877 23:0.26114575 24:0.27878746 25:0.29704694 26:0.33478603 27:0.27454534 28:0.22383283 29:0.33073399 30:0.36602095 31:0.39431312 32:0.25534252 33:0.5717948 34:0.77137841 35:0.80336881 36:0.82321799 37:0.62895055 
4 1:0.84546124 2:0.86447936 3:0.38697087 4:0.40406175 5:0.37873128 6:0.28308569 7:0.37482385 8:0.33820117 9:0.40290748 10:0.43024348 11:0.3800132 12:0.43166544 13:0.83297889 14:0.86240558 15:0.8592131 16:0.82516138 17:0.84546124 18:0.50102102 19:0.44265115 20:0.028460668 21:0.022061632 22:0.71654266 23:0.26114575 24:0.27878746 25:0.29704694 26:0.33478603 27:0.27454534 28:0.20487806 29:0.29612963 30:0.33082699 31:0.36231484 32:0.23243291 33:0.53059447 34:0.70195572 35:0.73665876 36:0.76497319 37:0.58092274 
4 1:0.89399387 2:0.92229406 3:0.38697087 4:0.40406175 5:0.37873128 6:0.28308569 7:0.37482385 8:0.39847327 9:0.44670099 10:0.45531892 11:0.39307893 12:0.45839407 13:0.91371587 14:0.94080305 15:0.90642339 16:0.85538909 17:0.89399387 18:0.6386182 19:0.55200236 20:0.028460668 21:0.022061632 22:0.88459672 23:0.26114575 24:0.27878746 25:0.29704694 26:0.33478603 27:0.27454534 28:0.28115201 29:0.38546448 30:0.408989 31:0.42923193 32:0.31281379 33:0.7056852 34:0.887914 35:0.88944845 36:0.89033832 37:0.75775282 
4 1:0.8388015 2:0.85704602 3:0.38697087 4:0.40406175 5:0.37873128 6:0.28308569 7:0.37482385 8:0.3304687 9:0.39840425 10:0.42782308 11:0.37698193 12:0.42801167 13:0.82267985 14:0.85457218 15:0.85452064 16:0.81772943 17:0.8388015 18:0.48079281 19:0.42657539 20:0.028460668 21:0.022061632 22:0.68728149 23:0.26114575 24:0.27878746 25:0.29704694 26:0.33478603 27:0.27454534 28:0.19495764 29:0.28168357 30:0.31567104 31:0.34676285 32:0.22121663 33:0.50774554 34:0.67187742 35:0.70707624 36:0.73590579 37:0.55619161 
-4 1:0.89027993 2:0.91782306 3:0.38697087 4:0.40406175 5:0.37873128 6:0.28308569 7:0.37482385 8:0.39204172 9:0.44402653 10:0.45269269 11:0.39208658 12:0.45614205 13:0.90516834 14:0.93646245 15:0.90202349 16:0.85347804 17:0.89027992 18:0.63576458 19:0.54973453 20:0.028460668 21:0.022061632 22:0.88194482 23:0.26114575 24:0.27878746 25:0.29704694 26:0.33478603 27:0.27454534 28:0.2788248 29:0.38473819 30:0.40817589 31:0.42826851 32:0.31077936 33:0.70039135 34:0.88643552 35:0.88790542 36:0.88858943 37:0.75332239 
-4 1:0.92903478 2:0.96712179 3:0.38697087 4:0.40406175 5:0.37873128 6:0.28308569 7:0.37482385 8:0.46236818 9:0.47879712 10:0.47155172 11:0.39981942 12:0.47699164 13:1 14:1 15:0.93878597 16:0.87265856 17:0.9290348 18:0.77856994 19:0.67308865 20:0.028460668 21:0.022061632 22:0.99999669 23:0.26114575 24:0.27878746 25:0.29704694 26:0.33478603 27:0.27454534 28:0.40787395 29:0.42158011 30:0.42937118 31:0.44172842 32:0.42159747 33:0.99999783 34:0.96447129 35:0.93027539 36:0.91453058 37:0.99999739 
4 1:0.47525923 2:0.43626899 3:0.38697087 4:0.40406175 5:0.37873128 6:0.28308569 7:0.37482385 8:0.027473254 9:0.072493662 10:0.20766385 11:0.2867673 12:0.23033674 13:0.41606269 14:0.2698252 15:0.43510811 16:0.59884345 17:0.47525924 18:0.27625818 19:0.26402766 20:0.028460668 21:0.022061632 22:0.44804801 23:0.26114575 24:0.27878746 25:0.29704694 26:0.33478603 27:0.27454534 28:0.12421743 29:0.17019842 30:0.19135549 31:0.20990396 32:0.13884244 33:0.3417394 34:0.43505494 35:0.45895348 36:0.47370431 37:0.3710219 
4 1:0.72044806 2:0.70075325 3:0.38697087 4:0.40406175 5:0.37873128 6:0.28308569 7:0.37482385 8:0.12709885 9:0.24152944 10:0.3900842 11:0.35512663 12:0.36282077 13:0.54984172 14:0.57302676 15:0.78165301 16:0.76831727 17:0.72044806 18:0.41808406 19:0.3767395 20:0.028460668 21:0.022061632 22:0.68297963 23:0.26114575 24:0.27878746 25:0.29704694 26:0.33478603 27:0.27454534 28:0.18127028 29:0.27870614 30:0.31912424 31:0.35726368 32:0.20998335 33:0.47519293 34:0.6645058 35:0.71281727 36:0.75460442 37:0.53033615 
-4 1:0.83256377 2:0.84134837 3:0.38697087 4:0.40406175 5:0.37873128 6:0.28308569 7:0.37482385 8:0.26151551 9:0.38546803 10:0.43176281 11:0.38028293 12:0.42447813 13:0.73018541 14:0.8312648 15:0.86221452 16:0.82559073 17:0.83256376 18:0.53696902 19:0.47309176 20:0.028460668 21:0.022061632 22:0.80574156 23:0.26114575 24:0.27878746 25:0.29704694 26:0.33478603 27:0.27454534 28:0.23256018 29:0.34302012 30:0.37882593 31:0.40834165 32:0.26511943 33:0.59384893 34:0.79925966 35:0.83021425 36:0.85094022 37:0.65253156 
-4 1:0.89077808 2:0.91817261 3:0.38697087 4:0.40406175 5:0.37873128 6:0.28308569 7:0.37482385 8:0.39257843 9:0.44372483 10:0.45307343 11:0.39263418 12:0.45652214 13:0.90583617 14:0.93568672 15:0.90246492 16:0.85453109 17:0.89077807 18:0.64687076 19:0.56055449 20:0.028460668 21:0.022061632 22:0.89936446 23:0.26114575 24:0.27878746 25:0.29704694 26:0.33478603 27:0.27454534 28:0.29020489 29:0.39398541 30:0.41444819 31:0.43281198 32:0.32179435 33:0.7263979 34:0.90565742 35:0.90018599 36:0.89714614 37:0.7774635 
4 1:0.84862708 2:0.86797185 3:0.38697087 4:0.40406175 5:0.37873128 6:0.28308569 7:0.37482385 8:0.33818101 9:0.40643298 10:0.43181662 11:0.38090711 12:0.43330304 13:0.83299835 14:0.86896685 15:0.86249941 16:0.82736403 17:0.84862709 18:0.50508199 19:0.44587848 20:0.028460668 21:0.022061632 22:0.71557977 23:0.26114575 24:0.27878746 25:0.29704694 26:0.33478603 27:0.27454534 28:0.20407711 29:0.29589969 30:0.33050102 31:0.36174524 32:0.23173173 33:0.5288857 34:0.70157145 35:0.73609418 36:0.76396312 37:0.57950125 
4 1:0.88785865 2:0.91491665 3:0.38697087 4:0.40406175 5:0.37873128 6:0.28308569 7:0.37482385 8:0.38930384 9:0.44136139 10:0.45149717 11:0.39151561 12:0.45479332 13:0.90152089 14:0.93162049 15:0.89977209 16:0.85243113 17:0.88785868 18:0.63131331 19:0.54619702 20:0.028460668 21:0.022061632 22:0.88456864 23:0.26114575 24:0.27878746 25:0.29704694 26:0.33478603 27:0.27454534 28:0.27861156 29:0.38593656 30:0.40999544 31:0.43022321 32:0.31090901 33:0.70015139 34:0.88914937 35:0.89165196 36:0.8924277 37:0.75384906 
4 1:0.45671805 2:0.39758455 3:0.86100399 4:0.74413068 5:0.6630902 6:0.48616428 7:0.66998812 8:0.10974667 9:0.16723479 10:0.35736121 11:0.43921438 12:0.38023436 13:0.15465625 14:0.20257529 15:0.45341861 16:0.64494151 17:0.45671803 18:0.16364255 19:0.15569563 20:0.23501688 21:0.21567541 22:0.29492643 23:0.86836384 24:0.70752504 25:0.63851334 26:0.59908494 27:0.85498561 28:0.044647826 29:0.18127047 30:0.27030139 31:0.34416764 32:0.081596941 33:0.05301957 34:0.2349353 35:0.36130142 36:0.48255029 37:0.096270471 
4 1:0.70878645 2:0.67041534 3:0.86100399 4:0.74413068 5:0.6630902 6:0.48616428 7:0.66998812 8:0.27100076 9:0.44107435 10:0.58803721 11:0.53051663 12:0.56369587 13:0.33218558 14:0.56108719 15:0.76798613 16:0.80407389 17:0.70878645 18:0.2799888 19:0.24815829 20:0.23501688 21:0.21567541 22:0.59980338 23:0.86836384 24:0.70752504 25:0.63851334 26:0.59908494 27:0.85498561 28:0.15869584 29:0.47547194 30:0.54751471 31:0.5656931 32:0.23715033 33:0.18008573 34:0.60229415 35:0.7227939 36:0.78998357 37:0.27134752 
4 1:0.70984182 2:0.69364097 3:0.86100399 4:0.74413068 5:0.6630902 6:0.48616428 7:0.66998812 8:0.40253111 9:0.50130704 10:0.57231355 11:0.50464356 12:0.56442583 13:0.47681057 14:0.64005112 15:0.7465716 16:0.75899427 17:0.70984186 18:0.24838619 19:0.22304307 20:0.23501688 21:0.21567541 22:0.42744337 23:0.86836384 24:0.70752504 25:0.63851334 26:0.59908494 27:0.85498561 28:0.11294034 29:0.30890305 30:0.38409359 31:0.43158618 32:0.16381172 33:0.12913025 34:0.3942925 35:0.50966073 36:0.60385746 37:0.1888282 
4 1:0.864049 2:0.88313411 3:0.86100399 4:0.74413068 5:0.6630902 6:0.48616428 7:0.66998812 8:0.70808038 9:0.69572484 10:0.67226939 11:0.55292533 12:0.67662513 13:0.81297434 14:0.89462979 15:0.88294408 16:0.84317868 17:0.86404904 18:0.43401115 19:0.37056291 20:0.23501688 21:0.21567541 22:0.76009451 23:0.86836384 24:0.70752504 25:0.63851334 26:0.59908494 27:0.85498561 28:0.37530048 29:0.62540287 30:0.63315429 31:0.61386271 32:0.4405496 33:0.42154844 34:0.78966111 35:0.8345734 36:0.85689723 37:0.50043436 
4 1:0.42443476 2:0.36392066 3:0.86100399 4:0.74413068 5:0.6630902 6:0.48616428 7:0.66998812 8:0.068347272 9:0.14758515 10:0.33822443 11:0.41789842 12:0.3568865 13:0.10918049 14:0.17663828 15:0.42701616 16:0.60757782 17:0.42443476 18:0.16994985 19:0.16070816 20:0.23501688 21:0.21567541 22:0.25829593 23:0.86836384 24:0.70752504 25:0.63851334 26:0.59908494 27:0.85498561 28:0.045585448 29:0.16173263 30:0.23285854 31:0.29553192 32:0.076948365 33:0.054036085 34:0.21020191 35:0.31204379 36:0.41464748 37:0.090974282 
-4 1:0.8008378 2:0.80334011 3:0.86100399 4:0.74413068 5:0.6630902 6:0.48616428 7:0.66998812 8:0.56536294 9:0.61291367 10:0.63409801 11:0.53457884 12:0.63066972 13:0.65601539 14:0.78611183 15:0.83081719 16:0.81114898 17:0.80083781 18:0.32226745 19:0.28175797 20:0.23501688 21:0.21567541 22:0.60795233 23:0.86836384 24:0.70752504 25:0.63851334 26:0.59908494 27:0.85498561 28:0.21665848 29:0.48676378 30:0.53392787 31:0.54314242 32:0.28476861 33:0.24466012 34:0.61631568 35:0.70500006 36:0.75862645 37:0.32493446 
4 1:0.7035461 2:0.68527212 3:0.86100399 4:0.74413068 5:0.6630902 6:0.48616428 7:0.66998812 8:0.38920986 9:0.49090258 10:0.56676629 11:0.50461925 12:0.55984942 13:0.46226584 14:0.62641909 15:0.73901766 16:0.75891852 17:0.70354608 18:0.24455473 19:0.21999814 20:0.23501688 21:0.21567541 22:0.43334243 23:0.86836384 24:0.70752504 25:0.63851334 26:0.59908494 27:0.85498561 28:0.11250245 29:0.31438202 30:0.39046828 31:0.43745519 32:0.16472245 33:0.12863563 34:0.4010611 35:0.51790035 36:0.61194045 37:0.18983949 
4 1:0.84741584 2:0.86118031 3:0.86100399 4:0.74413068 5:0.6630902 6:0.48616428 7:0.66998812 8:0.66501987 9:0.67137577 10:0.66271619 11:0.54935585 12:0.6645303 13:0.76564087 14:0.8627348 15:0.86990055 16:0.83694698 17:0.84741587 18:0.41222277 19:0.35324725 20:0.23501688 21:0.21567541 22:0.74097892 23:0.86836384 24:0.70752504 25:0.63851334 26:0.59908494 27:0.85498561 28:0.35033244 29:0.60667979 30:0.62271613 31:0.60851781 32:0.41683632 33:0.3936791 34:0.7662075 35:0.82090905 36:0.84944583 37:0.47368444 
4 1:0.62670857 2:0.57490431 3:0.86100399 4:0.74413068 5:0.6630902 6:0.48616428 7:0.66998812 8:0.1686617 9:0.331739 10:0.53273932 11:0.50154504 12:0.50406478 13:0.21955108 14:0.4177489 15:0.69237204 16:0.75344717 17:0.62670859 18:0.15567293 19:0.14936201 20:0.23501688 21:0.21567541 22:0.34937658 23:0.86836384 24:0.70752504 25:0.63851334 26:0.59908494 27:0.85498561 28:0.069010575 29:0.23529104 30:0.31781443 31:0.38183775 32:0.11273153 33:0.080126366 34:0.30203515 35:0.42283933 36:0.53445261 37:0.13123744 
4 1:0.80824547 2:0.77520636 3:0.86100399 4:0.74413068 5:0.6630902 6:0.48616428 7:0.66998812 8:0.33238947 9:0.53673646 10:0.67315776 11:0.57501939 12:0.63603735 13:0.3997335 14:0.68639168 15:0.88415137 16:0.88170615 17:0.80824544 18:0.21971716 19:0.20025923 20:0.23501688 21:0.21567541 22:0.69638558 23:0.86836384 24:0.70752504 25:0.63851334 26:0.59908494 27:0.85498561 28:0.20952081 29:0.57876229 30:0.62252314 31:0.62643949 32:0.29930883 33:0.23672948 34:0.73136035 35:0.82070096 36:0.87438237 37:0.34133456 
-3.1174251947939342 1:0.11214875 2:0.083176532 3:0.86100399 4:0.74413068 5:0.6630902 6:0.48616428 7:0.66998812 8:0.020706593 9:0.032877295 10:0.093249503 11:0.17882483 12:0.12967956 13:0.056762222 14:0.02643972 15:0.092812513 16:0.19063615 17:0.11214873 18:0.045028703 19:0.061430845 20:0.23501688 21:0.21567541 22:0.057214333 23:0.86836384 24:0.70752504 25:0.63851334 26:0.59908494 27:0.85498561 28:0.010028815 29:0.034104753 30:0.046907254 31:0.057931896 32:0.016422905 33:0.014417243 34:0.050771072 35:0.069404251 36:0.084657414 37:0.02284085 
-4 1:0.76071373 2:0.7446431 3:0.86100399 4:0.74413068 5:0.6630902 6:0.48616428 7:0.66998812 8:0.41305554 9:0.54582967 10:0.61960282 11:0.52912927 12:0.60147207 13:0.48849007 14:0.698266 15:0.81104351 16:0.8016628 17:0.76071373 18:0.29120237 19:0.25706994 20:0.23501688 21:0.21567541 22:0.59983398 23:0.86836384 24:0.70752504 25:0.63851334 26:0.59908494 27:0.85498561 28:0.18115839 29:0.48603305 30:0.5374861 31:0.54703001 32:0.25635927 33:0.20511444 34:0.61545028 35:0.70967432 36:0.76404162 37:0.29296698 
-0.6960081441361623 1:0.68821466 2:0.66716039 3:0.86100399 4:0.74413068 5:0.6630902 6:0.48616428 7:0.66998812 8:0.37138072 9:0.46758258 10:0.55739848 11:0.4996932 12:0.54880256 13:0.44256974 14:0.59565055 15:0.72608503 16:0.75020288 17:0.68821468 18:0.25255871 19:0.22635906 20:0.23501688 21:0.21567541 22:0.45465375 23:0.86836384 24:0.70752504 25:0.63851334 26:0.59908494 27:0.85498561 28:0.11993113 29:0.3348546 30:0.41134451 31:0.45279037 32:0.17520473 33:0.13684494 34:0.42632533 35:0.54478687 36:0.63288702 37:0.20153653 
-4 1:0.69178446 2:0.66696254 3:0.86100399 4:0.74413068 5:0.6630902 6:0.48616428 7:0.66998812 8:0.35377593 9:0.45664358 10:0.56522626 11:0.50564112 12:0.55130572 13:0.42325327 14:0.58145979 15:0.73681239 16:0.76079373 17:0.69178445 18:0.22008307 19:0.20055002 20:0.23501688 21:0.21567541 22:0.50381538 23:0.86836384 24:0.70752504 25:0.63851334 26:0.59908494 27:0.85498561 28:0.12171732 29:0.38308197 30:0.46018051 31:0.49680764 32:0.18736347 33:0.1388896 34:0.48687908 35:0.6088393 36:0.69432156 37:0.21531059 
4 1:0.8639199 2:0.88292331 3:0.86100399 4:0.74413068 5:0.6630902 6:0.48616428 7:0.66998812 8:0.70850953 9:0.69447865 10:0.67269203 11:0.55291192 12:0.67654611 13:0.8134384 14:0.89296786 15:0.88350162 16:0.84314233 17:0.86391994 18:0.43436364 19:0.37084304 20:0.23501688 21:0.21567541 22:0.7647198 23:0.86836384 24:0.70752504 25:0.63851334 26:0.59908494 27:0.85498561 28:0.38564158 29:0.6286492 30:0.6343109 31:0.6142881 32:0.44945073 33:0.43301409 34:0.79364053 35:0.83603123 36:0.85745341 37:0.51039168 
4 1:0.71065756 2:0.69611928 3:0.86100399 4:0.74413068 5:0.6630902 6:0.48616428 7:0.66998812 8:0.41462446 9:0.50520568 10:0.5717002 11:0.50343675 12:0.5650566 13:0.49012481 14:0.64508169 15:0.74569479 16:0.75683169 17:0.71065759 18:0.25527328 19:0.22851638 20:0.23501688 21:0.21567541 22:0.44082663 23:0.86836384 24:0.70752504 25:0.63851334 26:0.59908494 27:0.85498561 28:0.12062309 29:0.32209543 30:0.39547137 31:0.43981803 32:0.17278566 33:0.13767 34:0.41067027 35:0.52439558 36:0.61518502 37:0.19889803 
4 1:0.8474063 2:0.86192912 3:0.86100399 4:0.74413068 5:0.6630902 6:0.48616428 7:0.66998812 8:0.6674909 9:0.67495449 10:0.66186693 11:0.54828887 12:0.66452738 13:0.76834254 14:0.86740911 15:0.86873843 16:0.83508055 17:0.84740628 18:0.41896034 19:0.35860174 20:0.23501688 21:0.21567541 22:0.74718893 23:0.86836384 24:0.70752504 25:0.63851334 26:0.59908494 27:0.85498561 28:0.35668001 29:0.61346978 30:0.62683869 31:0.61040825 32:0.42327821 33:0.40074901 34:0.77468771 35:0.82628717 36:0.85206884 37:0.48093486 
