svm_type nu_svr
kernel_type rbf
gamma 0.050000000000000003
nr_class 2
total_sv 614
rho -0.90475605675671589
SV
4 1:0.42337363 2:0.38334696 3:0.36017253 4:0.46036561 5:0.58861277 6:0.65194188 7:0.62634124 8:0.067485213 9:0.10245141 10:0.26550959 11:0.50057206 12:0.36019128 13:0.4855011 14:0.2443548 15:0.3359807 16:0.59301209 17:0.42337365 18:0.22428875 19:0.29024571 20:0.19081346 21:0.23167777 22:0.36236829 23:0.22459101 24:0.24950689 25:0.26522913 26:0.27680878 27:0.23187631 28:0.089277617 29:0.14027819 30:0.1685498 31:0.21363154 32:0.10463481 33:0.22113291 34:0.33713324 35:0.39110175 36:0.45634014 37:0.25384978 
-4 1:0.81948445 2:0.80376043 3:0.36017253 4:0.46036561 5:0.58861277 6:0.65194188 7:0.62634124 8:0.23206798 9:0.40056513 10:0.59114061 11:0.70928733 12:0.63262146 13:0.70832335 14:0.74025391 15:0.82209764 16:0.8622558 17:0.81948448 18:0.44735804 19:0.49397454 20:0.19081346 21:0.23167777 22:0.74109645 23:0.22459101 24:0.24950689 25:0.26522913 26:0.27680878 27:0.23187631 28:0.22099794 29:0.34200044 30:0.37655463 31:0.40111247 32:0.25537526 33:0.4993383 34:0.74313243 35:0.79674809 36:0.83200372 37:0.56159341 
-4 1:0.88374366 2:0.89484987 3:0.36017253 4:0.46036561 5:0.58861277 6:0.65194188 7:0.62634124 8:0.32880518 9:0.49271148 10:0.64058626 11:0.72311478 12:0.67690925 13:0.83907042 14:0.89336112 15:0.89602709 16:0.88008593 17:0.88374373 18:0.57314997 19:0.60886011 20:0.19081346 21:0.23167777 22:0.82599604 23:0.22459101 24:0.24950689 25:0.26522913 26:0.27680878 27:0.23187631 28:0.27383154 29:0.39417608 30:0.4113214 31:0.42267661 32:0.30833682 33:0.61002418 34:0.84793494 35:0.86444028 36:0.87513891 37:0.66903444 
-4 1:0.81791681 2:0.82232542 3:0.36017253 4:0.46036561 5:0.58861277 6:0.65194188 7:0.62634124 8:0.28883369 9:0.44117219 10:0.58911053 11:0.68967844 12:0.63211852 13:0.78436938 14:0.80575202 15:0.81816206 16:0.83665428 17:0.81791684 18:0.3961818 19:0.44723537 20:0.19081346 21:0.23167777 22:0.60456244 23:0.22459101 24:0.24950689 25:0.26522913 26:0.27680878 27:0.23187631 28:0.1812296 29:0.26880338 30:0.29878575 31:0.32965827 32:0.20698447 33:0.41432135 34:0.59505522 35:0.64450248 36:0.68841412 37:0.46183971 
4 1:0.89518978 2:0.91490418 3:0.36017253 4:0.46036561 5:0.58861277 6:0.65194188 7:0.62634124 8:0.36564446 9:0.51353521 10:0.64593811 11:0.7242378 12:0.68478677 13:0.88920302 14:0.92829859 15:0.90400379 16:0.88153688 17:0.89518979 18:0.58346682 19:0.61828247 20:0.19081346 21:0.23167777 22:0.83564839 23:0.22459101 24:0.24950689 25:0.26522913 26:0.27680878 27:0.23187631 28:0.28641631 29:0.39729959 30:0.41284097 31:0.42370123 32:0.31903804 33:0.63586483 34:0.85395706 35:0.86726246 36:0.87712072 37:0.69028804 
4 1:0.26291837 2:0.24482004 3:0.36017253 4:0.46036561 5:0.58861277 6:0.65194188 7:0.62634124 8:0.020167886 9:0.061783019 10:0.17042677 11:0.36449089 12:0.25095155 13:0.42034943 14:0.17464309 15:0.19273204 16:0.41617939 17:0.26291837 18:0.14710884 19:0.21975742 20:0.19081346 21:0.23167777 22:0.24391077 23:0.22459101 24:0.24950689 25:0.26522913 26:0.27680878 27:0.23187631 28:0.074407396 29:0.091630604 30:0.096720587 31:0.11748823 32:0.080389771 33:0.18985438 34:0.23929134 35:0.25112438 36:0.26379387 37:0.20448238 
-4 1:0.79034629 2:0.79350013 3:0.36017253 4:0.46036561 5:0.58861277 6:0.65194188 7:0.62634124 8:0.27417115 9:0.42223133 10:0.57192766 11:0.67274609 12:0.61390217 13:0.76388908 14:0.77242709 15:0.79117644 16:0.81420792 17:0.79034635 18:0.37059423 19:0.42386627 20:0.19081346 21:0.23167777 22:0.66137585 23:0.22459101 24:0.24950689 25:0.26522913 26:0.27680878 27:0.23187631 28:0.20169967 29:0.30141743 30:0.32957787 31:0.35548131 32:0.23052755 33:0.45731082 34:0.66041748 35:0.70431214 36:0.73995916 37:0.50963202 
-4 1:0.78171548 2:0.77950315 3:0.36017253 4:0.46036561 5:0.58861277 6:0.65194188 7:0.62634124 8:0.25660099 9:0.4068171 10:0.56183289 11:0.67331876 12:0.60726486 13:0.74048545 14:0.74846003 15:0.77726509 16:0.81547093 17:0.78171548 18:0.35390861 19:0.40862732 20:0.19081346 21:0.23167777 22:0.55676589 23:0.22459101 24:0.24950689 25:0.26522913 26:0.27680878 27:0.23187631 28:0.16375375 29:0.24340894 30:0.27283585 31:0.3059098 32:0.18729934 33:0.37795555 34:0.54428749 35:0.59413986 36:0.64098997 37:0.42214624 
4 1:0.88451088 2:0.90138707 3:0.36017253 4:0.46036561 5:0.58861277 6:0.65194188 7:0.62634124 8:0.35230686 9:0.50241674 10:0.63805449 11:0.72005912 12:0.67746052 13:0.87098388 14:0.90963146 15:0.89218414 16:0.87614589 17:0.88451089 18:0.56548805 19:0.60186249 20:0.19081346 21:0.23167777 22:0.82639019 23:0.22459101 24:0.24950689 25:0.26522913 26:0.27680878 27:0.23187631 28:0.28269183 29:0.39126803 30:0.40802478 31:0.42032495 32:0.31478452 33:0.6282249 34:0.84192502 35:0.85792461 36:0.87038063 37:0.68179607 
-4 1:0.83518168 2:0.81633487 3:0.36017253 4:0.46036561 5:0.58861277 6:0.65194188 7:0.62634124 8:0.209225 9:0.41145016 10:0.60829625 11:0.71832004 12:0.64347981 13:0.67767464 14:0.75857192 15:0.84748928 16:0.87372358 17:0.83518171 18:0.18613236 19:0.25539754 20:0.19081346 21:0.23167777 22:0.57735863 23:0.22459101 24:0.24950689 25:0.26522913 26:0.27680878 27:0.23187631 28:0.16122066 29:0.2526697 30:0.28726882 31:0.3242765 32:0.18764482 33:0.37351803 34:0.5635384 35:0.62276578 36:0.67815394 37:0.42367591 
4 1:0.31855306 2:0.29317737 3:0.36017253 4:0.46036561 5:0.58861277 6:0.65194188 7:0.62634124 8:0.032314222 9:0.077572966 10:0.20424243 11:0.40930465 12:0.28798259 13:0.43711522 14:0.20273993 15:0.24534476 16:0.4753026 17:0.31855307 18:0.095230452 19:0.17237697 20:0.19081346 21:0.23167777 22:0.24197467 23:0.22459101 24:0.24950689 25:0.26522913 26:0.27680878 27:0.23187631 28:0.074209675 29:0.091142977 30:0.095469113 31:0.11530727 32:0.080072651 33:0.18956332 34:0.23847545 35:0.24885646 36:0.25959331 37:0.20398293 
-4 1:0.823731 2:0.8193158 3:0.36017253 4:0.46036561 5:0.58861277 6:0.65194188 7:0.62634124 8:0.26212677 9:0.42744825 10:0.59523932 11:0.70055872 12:0.63582121 13:0.74890575 14:0.78399318 15:0.82771206 16:0.85083647 17:0.82373102 18:0.42005342 19:0.46903728 20:0.19081346 21:0.23167777 22:0.71878163 23:0.22459101 24:0.24950689 25:0.26522913 26:0.27680878 27:0.23187631 28:0.22092542 29:0.33162233 30:0.36066747 31:0.38397124 32:0.25270189 33:0.49884569 34:0.72205876 35:0.76565991 36:0.79760689 37:0.55584501 
-4 1:0.83756752 2:0.84181285 3:0.36017253 4:0.46036561 5:0.58861277 6:0.65194188 7:0.62634124 8:0.30203107 9:0.44841323 10:0.60325721 11:0.70271212 12:0.64528501 13:0.80280202 14:0.8190148 15:0.83982655 16:0.85371284 17:0.83756754 18:0.46763024 19:0.51248911 20:0.19081346 21:0.23167777 22:0.71505917 23:0.22459101 24:0.24950689 25:0.26522913 26:0.27680878 27:0.23187631 28:0.21383 29:0.32881663 30:0.36131253 31:0.38697458 32:0.24659055 33:0.48355942 34:0.71633988 35:0.7668545 36:0.80357096 37:0.54313047 
-4 1:0.46516242 2:0.43358612 3:0.36017253 4:0.46036561 5:0.58861277 6:0.65194188 7:0.62634124 8:0.059900115 9:0.15029156 10:0.33137368 11:0.50144882 12:0.39022892 13:0.4744276 14:0.3223353 15:0.43220587 16:0.59306238 17:0.46516241 18:0.1671862 19:0.23809404 20:0.19081346 21:0.23167777 22:0.36594305 23:0.22459101 24:0.24950689 25:0.26522913 26:0.27680878 27:0.23187631 28:0.10333951 29:0.14779668 30:0.16726372 31:0.19909451 32:0.11698874 33:0.25084149 34:0.35200619 35:0.38829134 36:0.42689456 37:0.27898065 
-4 1:0.78105999 2:0.77174055 3:0.36017253 4:0.46036561 5:0.58861277 6:0.65194188 7:0.62634124 8:0.24493892 9:0.38920536 10:0.55813937 11:0.6818306 12:0.60666523 13:0.72531744 14:0.71949293 15:0.77186177 16:0.82665259 17:0.78106002 18:0.37449494 19:0.42742879 20:0.19081346 21:0.23167777 22:0.69087937 23:0.22459101 24:0.24950689 25:0.26522913 26:0.27680878 27:0.23187631 28:0.20472191 29:0.31282776 30:0.34771938 31:0.37918446 32:0.2359068 33:0.46454343 34:0.6841127 35:0.74034588 36:0.7879863 37:0.5214657 
-4 1:0.81875496 2:0.82489588 3:0.36017253 4:0.46036561 5:0.58861277 6:0.65194188 7:0.62634124 8:0.29624911 9:0.44374133 10:0.58986453 11:0.68870466 12:0.63271628 13:0.79434105 14:0.81011525 15:0.81927157 16:0.83535499 17:0.81875498 18:0.40254736 19:0.45304902 20:0.19081346 21:0.23167777 22:0.62733484 23:0.22459101 24:0.24950689 25:0.26522913 26:0.27680878 27:0.23187631 28:0.19376656 29:0.28143626 30:0.3091774 31:0.33733491 32:0.21971105 33:0.44077031 34:0.62056428 35:0.66482882 36:0.70382416 37:0.48783332 
4 1:0.89390529 2:0.91363414 3:0.36017253 4:0.46036561 5:0.58861277 6:0.65194188 7:0.62634124 8:0.36508462 9:0.5126702 10:0.645177 11:0.72331042 12:0.68389119 13:0.8884581 14:0.92692821 15:0.90288307 16:0.88034791 17:0.89390532 18:0.59153042 19:0.62564695 20:0.19081346 21:0.23167777 22:0.84445177 23:0.22459101 24:0.24950689 25:0.26522913 26:0.27680878 27:0.23187631 28:0.29335961 29:0.40195314 30:0.41576085 31:0.42542362 32:0.32554146 33:0.65077523 34:0.86348447 35:0.87304618 36:0.88061836 37:0.70379043 
-4 1:0.81772671 2:0.82354057 3:0.36017253 4:0.46036561 5:0.58861277 6:0.65194188 7:0.62634124 8:0.29650792 9:0.44216355 10:0.58793284 11:0.68901956 12:0.63197814 13:0.7947082 14:0.80773464 15:0.81640912 16:0.83576865 17:0.81772671 18:0.39304921 19:0.44437437 20:0.19081346 21:0.23167777 22:0.59682972 23:0.22459101 24:0.24950689 25:0.26522913 26:0.27680878 27:0.23187631 28:0.17959345 29:0.26459908 30:0.29398485 31:0.32509227 32:0.204706 33:0.41100454 34:0.58671153 35:0.63522964 36:0.67932917 37:0.45732627 
4 1:0.89116161 2:0.91026413 3:0.36017253 4:0.46036561 5:0.58861277 6:0.65194188 7:0.62634124 8:0.36188966 9:0.51008184 10:0.64297245 11:0.72225054 12:0.68201506 13:0.88414016 14:0.92263144 15:0.89957988 16:0.87896321 17:0.89116162 18:0.57817186 19:0.6134466 20:0.19081346 21:0.23167777 22:0.82581641 23:0.22459101 24:0.24950689 25:0.26522913 26:0.27680878 27:0.23187631 28:0.28053129 29:0.3915542 30:0.4086156 31:0.42069167 32:0.31312898 33:0.62368593 34:0.84250142 35:0.85907374 36:0.871115 37:0.67843197 
-4 1:0.93158211 2:0.96750829 3:0.36017253 4:0.46036561 5:0.58861277 6:0.65194188 7:0.62634124 8:0.44651061 9:0.55578596 10:0.66971551 11:0.73497049 12:0.70961018 13:1 14:1 15:0.9398872 16:0.89547136 17:0.93158213 18:0.77189862 19:0.79037694 20:0.19081346 21:0.23167777 22:0.99999721 23:0.22459101 24:0.24950689 25:0.26522913 26:0.27680878 27:0.23187631 28:0.4593273 29:0.46378641 30:0.45291514 31:0.44859082 32:0.47100821 33:0.99999897 34:0.98819915 35:0.94565815 36:0.92711257 37:0.99999862 
1.6306716986721146 1:0.78643116 2:0.75845774 3:0.36017253 4:0.46036561 5:0.58861277 6:0.65194188 7:0.62634124 8:0.17121309 9:0.35359784 10:0.58317361 11:0.69211561 12:0.61005068 13:0.62610159 14:0.66282727 15:0.80968404 16:0.83979329 17:0.78643119 18:0.39236621 19:0.44375059 20:0.19081346 21:0.23167777 22:0.63763668 23:0.22459101 24:0.24950689 25:0.26522913 26:0.27680878 27:0.23187631 28:0.17386789 29:0.28701384 30:0.32444356 31:0.35800267 32:0.20555837 33:0.39989553 34:0.63202233 35:0.69469356 36:0.74526772 37:0.45980239 
-4 1:0.80862902 2:0.8019505 3:0.36017253 4:0.46036561 5:0.58861277 6:0.65194188 7:0.62634124 8:0.23092543 9:0.42057959 10:0.59092107 11:0.68859319 12:0.62554439 13:0.70641924 14:0.77210821 15:0.82106739 16:0.83533142 17:0.80862905 18:0.40091668 19:0.45155972 20:0.19081346 21:0.23167777 22:0.61728766 23:0.22459101 24:0.24950689 25:0.26522913 26:0.27680878 27:0.23187631 28:0.18251932 29:0.27687906 30:0.3067433 31:0.33683128 32:0.20980531 33:0.41734955 34:0.61140322 35:0.66012317 36:0.70287698 37:0.46783806 
4 1:0.89212861 2:0.91154676 3:0.36017253 4:0.46036561 5:0.58861277 6:0.65194188 7:0.62634124 8:0.36470796 9:0.51058583 10:0.64353802 11:0.72271645 12:0.68267278 13:0.88790573 14:0.92341493 15:0.90043782 16:0.87958595 17:0.89212861 18:0.58821644 19:0.62262029 20:0.19081346 21:0.23167777 22:0.84429512 23:0.22459101 24:0.24950689 25:0.26522913 26:0.27680878 27:0.23187631 28:0.29308616 29:0.40200141 30:0.41578289 31:0.42552945 32:0.32533243 33:0.64996373 34:0.86351043 35:0.87305751 36:0.88081411 37:0.70317847 
-4 1:0.82989364 2:0.83652913 3:0.36017253 4:0.46036561 5:0.58861277 6:0.65194188 7:0.62634124 8:0.29905584 9:0.45217512 10:0.59811161 11:0.69479414 12:0.64009846 13:0.79849228 14:0.82493355 15:0.8320896 16:0.84340636 17:0.82989363 18:0.42077084 19:0.46969249 20:0.19081346 21:0.23167777 22:0.63265344 23:0.22459101 24:0.24950689 25:0.26522913 26:0.27680878 27:0.23187631 28:0.1927333 29:0.28361422 30:0.31310478 31:0.34212507 32:0.21946851 33:0.4390938 34:0.62531762 35:0.67277449 36:0.71363624 37:0.48781232 
4 1:0.89535337 2:0.91480508 3:0.36017253 4:0.46036561 5:0.58861277 6:0.65194188 7:0.62634124 8:0.36517094 9:0.5127081 10:0.64592393 11:0.72465706 12:0.68482503 13:0.88870124 14:0.9272911 15:0.90413088 16:0.882107 17:0.89535339 18:0.59882612 19:0.6323101 20:0.19081346 21:0.23167777 22:0.85176941 23:0.22459101 24:0.24950689 25:0.26522913 26:0.27680878 27:0.23187631 28:0.29627665 29:0.4061816 30:0.41944407 31:0.42839761 32:0.32878803 33:0.65710028 34:0.87214003 35:0.88031811 36:0.88662958 37:0.71057866 
4 1:0.57573602 2:0.52176037 3:0.2543836 4:0.37831889 5:0.59814142 6:0.83310325 7:0.69744745 8:0.069770387 9:0.13688628 10:0.37032926 11:0.70855471 12:0.50525814 13:0.58850442 14:0.35847942 15:0.48565549 16:0.7149049 17:0.57573607 18:0.25879341 19:0.2214367 20:0.22134014 21:0.20241661 22:0.47578921 23:0.89548912 24:1 25:1 26:1 27:0.95090165 28:0.23367896 29:0.44979938 30:0.57485366 31:0.67587934 32:0.29512539 33:0.25375066 34:0.43946096 35:0.53407107 36:0.61982966 37:0.30612814 
4 1:0.85130662 2:0.83622949 3:0.2543836 4:0.37831889 5:0.59814142 6:0.83310325 7:0.69744745 8:0.18738598 9:0.36341101 10:0.62483639 11:0.85140634 12:0.70630884 13:0.75819187 14:0.77208204 15:0.86217845 16:0.87183285 17:0.85130662 18:0.47058735 19:0.41486776 20:0.22134014 21:0.20241661 22:0.80985925 23:0.89548912 24:1 25:1 26:1 27:0.95090165 28:0.53130517 29:0.84431535 30:0.91043597 31:0.92355394 32:0.61780278 33:0.57400494 34:0.83291247 35:0.85893878 36:0.87013189 37:0.63974254 
-4 1:0.87567783 2:0.87740603 3:0.2543836 4:0.37831889 5:0.59814142 6:0.83310325 7:0.69744745 8:0.22998217 9:0.4087503 10:0.64154311 11:0.85577274 12:0.72409003 13:0.81965228 14:0.85485368 15:0.88689087 16:0.8766294 17:0.87567787 18:0.53361295 19:0.47242894 20:0.22134014 21:0.20241661 22:0.84514823 23:0.89548912 24:1 25:1 26:1 27:0.95090165 28:0.57917776 29:0.88635936 30:0.93574137 31:0.94091382 32:0.66461715 33:0.6255131 34:0.87484322 35:0.88343906 36:0.88767879 37:0.68814065 
4 1:0.78315423 2:0.7727816 3:0.2543836 4:0.37831889 5:0.59814142 6:0.83310325 7:0.69744745 8:0.18088735 9:0.33323559 10:0.5674873 11:0.80113491 12:0.65658596 13:0.7488304 14:0.71699672 15:0.77733829 16:0.81659524 17:0.78315427 18:0.33156821 19:0.2879018 20:0.22134014 21:0.20241661 22:0.56911254 23:0.89548912 24:1 25:1 26:1 27:0.95090165 28:0.34927054 29:0.55698973 30:0.65409162 31:0.72613765 32:0.40997198 33:0.37809685 34:0.54633107 35:0.61075205 36:0.67060061 37:0.42483465 
4 1:0.88582473 2:0.90163183 3:0.2543836 4:0.37831889 5:0.59814142 6:0.83310325 7:0.69744745 8:0.27793159 9:0.43551837 10:0.64365704 11:0.85486036 12:0.73148998 13:0.88881897 14:0.90372823 15:0.89002135 16:0.87563045 17:0.88582475 18:0.540147 19:0.47839647 20:0.22134014 21:0.20241661 22:0.8439426 23:0.89548912 24:1 25:1 26:1 27:0.95090165 28:0.5928721 29:0.87779256 30:0.928802 31:0.93631891 32:0.67380015 33:0.64025514 34:0.86629555 35:0.87671566 36:0.88303006 37:0.69763867 
-4 1:0.59027927 2:0.5373324 3:0.2543836 4:0.37831889 5:0.59814142 6:0.83310325 7:0.69744745 8:0.052957532 9:0.14704948 10:0.40084137 11:0.70799322 12:0.5159157 13:0.56424371 14:0.37700717 15:0.5307708 16:0.71419897 17:0.59027924 18:0.23813768 19:0.20257185 20:0.22134014 21:0.20241661 22:0.4121913 23:0.89548912 24:1 25:1 26:1 27:0.95090165 28:0.24901988 29:0.39232411 30:0.47764378 31:0.56340044 32:0.29237601 33:0.27017199 34:0.38204033 35:0.43986867 36:0.50608274 37:0.30319566 
1.8195772971952848 1:0.83544492 2:0.83094026 3:0.2543836 4:0.37831889 5:0.59814142 6:0.83310325 7:0.69744745 8:0.21006048 9:0.37296227 10:0.60853107 11:0.83341187 12:0.69473902 13:0.79089606 14:0.78951091 15:0.83804454 16:0.85205784 17:0.83544501 18:0.42562179 19:0.37380079 20:0.22134014 21:0.20241661 22:0.73329211 23:0.89548912 24:1 25:1 26:1 27:0.95090165 28:0.47210871 29:0.74778966 30:0.83047323 31:0.86586167 32:0.54990028 33:0.51028963 34:0.73663903 35:0.78152898 36:0.81183275 37:0.56952307 
4 1:0.78338451 2:0.77018443 3:0.2543836 4:0.37831889 5:0.59814142 6:0.83310325 7:0.69744745 8:0.17609245 9:0.32835642 10:0.56668058 11:0.80416165 12:0.65674355 13:0.7419095 14:0.70813131 15:0.77617988 16:0.81991972 17:0.78338453 18:0.32957426 19:0.28608072 20:0.22134014 21:0.20241661 22:0.58295368 23:0.89548912 24:1 25:1 26:1 27:0.95090165 28:0.35926406 29:0.57020854 30:0.66880997 31:0.74132081 32:0.42101841 33:0.38886285 34:0.55952986 35:0.62501304 36:0.68595605 37:0.4362686 
4 1:0.88582212 2:0.90086381 3:0.2543836 4:0.37831889 5:0.59814142 6:0.83310325 7:0.69744745 8:0.27573819 9:0.43433073 10:0.64384484 11:0.85537612 12:0.73148975 13:0.88565014 14:0.90155597 15:0.89030184 16:0.87619533 17:0.88582212 18:0.5470001 19:0.4846554 20:0.22134014 21:0.20241661 22:0.85331103 23:0.89548912 24:1 25:1 26:1 27:0.95090165 28:0.607323 29:0.88845204 30:0.93503193 31:0.9399601 32:0.68750892 33:0.65580306 34:0.87692786 35:0.8827478 36:0.88671091 37:0.71181126 
-4 1:0.75322817 2:0.71973988 3:0.2543836 4:0.37831889 5:0.59814142 6:0.83310325 7:0.69744745 8:0.12504975 9:0.27473894 10:0.54271889 11:0.79977665 12:0.63468063 13:0.66825784 14:0.61038263 15:0.74086342 16:0.81515163 17:0.75322818 18:0.22861403 19:0.19387391 20:0.22134014 21:0.20241661 22:0.51551436 23:0.89548912 24:1 25:1 26:1 27:0.95090165 28:0.3050637 29:0.49171344 30:0.59571544 31:0.68855679 32:0.36054112 33:0.33059783 34:0.4813308 35:0.55433122 36:0.63269756 37:0.37380459 
4 1:0.93056117 2:0.92113985 3:0.2543836 4:0.37831889 5:0.59814142 6:0.83310325 7:0.69744745 8:0.22607184 9:0.42558278 10:0.67338576 11:0.90925233 12:0.76414033 13:0.81401124 14:0.8855518 15:0.93398422 16:0.93537184 17:0.93056119 18:0.30580093 19:0.26436858 20:0.22134014 21:0.20241661 22:0.8993709 23:0.89548912 24:1 25:1 26:1 27:0.95090165 28:0.61423978 29:0.94223164 30:0.99449818 31:1 32:0.70535275 33:0.66322222 34:0.93055498 35:0.94032225 36:0.9473983 37:0.73024136 
3.6246306704893532 1:0.28176692 2:0.28732087 3:0.2543836 4:0.37831889 5:0.59814142 6:0.83310325 7:0.69744745 8:0.046804703 9:0.071981643 10:0.19396634 11:0.42215086 12:0.29084263 13:0.55537459 14:0.23992202 15:0.2247188 16:0.40015174 17:0.28176695 18:0.016335209 19:1.3877788e-17 20:0.22134014 21:0.20241661 22:0.097910829 23:0.89548912 24:1 25:1 26:1 27:0.95090165 28:0.080624545 29:0.10789503 30:0.12362064 31:0.15564042 32:0.089678583 33:0.088945065 34:0.098342712 35:0.097100766 36:0.093953144 37:0.093596276 
-4 1:0.82496919 2:0.81500375 3:0.2543836 4:0.37831889 5:0.59814142 6:0.83310325 7:0.69744745 8:0.19409559 9:0.35639506 10:0.60281486 11:0.82931935 12:0.68709579 13:0.76786781 14:0.75924807 15:0.82959414 16:0.84757114 17:0.8249692 18:0.38174624 19:0.33372931 20:0.22134014 21:0.20241661 22:0.72430483 23:0.89548912 24:1 25:1 26:1 27:0.95090165 28:0.47072874 29:0.74516854 30:0.81923179 31:0.84594294 32:0.54766643 33:0.50879626 34:0.73400622 35:0.77062822 36:0.79168775 37:0.56720245 
-4 1:0.82794738 2:0.82345709 3:0.2543836 4:0.37831889 5:0.59814142 6:0.83310325 7:0.69744745 8:0.21164044 9:0.36802731 10:0.60075095 11:0.8292078 12:0.68929278 13:0.79315046 14:0.78039181 15:0.82652581 16:0.84742718 17:0.82794742 18:0.43572911 19:0.38303179 20:0.22134014 21:0.20241661 22:0.73808227 23:0.89548912 24:1 25:1 26:1 27:0.95090165 28:0.46750056 29:0.75427195 30:0.8394846 31:0.87458756 32:0.5477788 33:0.50527253 34:0.74304494 35:0.79020844 36:0.82062353 37:0.56727166 
-4 1:0.63869531 2:0.59899766 3:0.2543836 4:0.37831889 5:0.59814142 6:0.83310325 7:0.69744745 8:0.08492335 9:0.19746339 10:0.44867549 11:0.72616269 12:0.55122097 13:0.61037225 14:0.46904737 15:0.60150084 16:0.73422479 17:0.63869533 18:0.21398066 19:0.18050928 20:0.22134014 21:0.20241661 22:0.45956412 23:0.89548912 24:1 25:1 26:1 27:0.95090165 28:0.28285587 29:0.44918631 30:0.53300919 31:0.59909453 32:0.33190634 33:0.30662509 34:0.43880814 35:0.49352333 36:0.5422063 37:0.34411424 
-4 1:0.77714091 2:0.76014676 3:0.2543836 4:0.37831889 5:0.59814142 6:0.83310325 7:0.69744745 8:0.16958327 9:0.31583898 10:0.56266682 11:0.80273629 12:0.65220207 13:0.73252771 14:0.68524998 15:0.77020144 16:0.81835784 17:0.77714097 18:0.32323199 19:0.28028835 20:0.22134014 21:0.20241661 22:0.64990435 23:0.89548912 24:1 25:1 26:1 27:0.95090165 28:0.4130978 29:0.65507708 30:0.73992884 31:0.78782087 32:0.48214163 33:0.44678947 34:0.64416412 35:0.69385663 36:0.73294642 37:0.49946221 
4 1:0.827196 2:0.82892089 3:0.2543836 4:0.37831889 5:0.59814142 6:0.83310325 7:0.69744745 8:0.22384333 9:0.378876 10:0.60021692 11:0.82340323 12:0.68871926 13:0.81079915 14:0.80031866 15:0.82574969 16:0.84106023 17:0.82719601 18:0.40225565 19:0.35246053 20:0.22134014 21:0.20241661 22:0.6782247 23:0.89548912 24:1 25:1 26:1 27:0.95090165 28:0.43541065 29:0.67930803 30:0.76939515 31:0.82042497 32:0.50574806 33:0.47079122 34:0.66831959 35:0.72237282 36:0.76588397 37:0.52386076 
-0.56617431863143486 1:0.89498466 2:0.91388356 3:0.2543836 4:0.37831889 5:0.59814142 6:0.83310325 7:0.69744745 8:0.28920251 9:0.44493125 10:0.65134505 11:0.85868932 12:0.73817263 13:0.90507893 14:0.92091543 15:0.90139097 16:0.87983794 17:0.89498471 18:0.57401427 19:0.5093274 20:0.22134014 21:0.20241661 22:0.87080251 23:0.89548912 24:1 25:1 26:1 27:0.95090165 28:0.63434448 29:0.90785027 30:0.94676941 31:0.94711389 32:0.71305886 33:0.68488142 34:0.89627374 35:0.89411243 36:0.89394275 37:0.73822917 
4 1:0.81440341 2:0.81292257 3:0.2543836 4:0.37831889 5:0.59814142 6:0.83310325 7:0.69744745 8:0.21187572 9:0.36596708 10:0.59113451 11:0.81647236 12:0.6793808 13:0.7935368 14:0.77676275 15:0.81232482 16:0.83344908 17:0.81440342 18:0.37853934 19:0.33080046 20:0.22134014 21:0.20241661 22:0.64098153 23:0.89548912 24:1 25:1 26:1 27:0.95090165 28:0.40199599 29:0.63636524 30:0.73214827 31:0.79184584 32:0.46976102 33:0.43483562 34:0.62549722 35:0.68632176 36:0.7370101 37:0.48665497 
-4 1:0.89100325 2:0.90777149 3:0.2543836 4:0.37831889 5:0.59814142 6:0.83310325 7:0.69744745 8:0.28107761 9:0.44025405 10:0.64796141 11:0.85759962 12:0.73526969 13:0.89336208 14:0.91237059 15:0.89638637 16:0.87863772 17:0.89100329 18:0.56558512 19:0.50162908 20:0.22134014 21:0.20241661 22:0.86536026 23:0.89548912 24:1 25:1 26:1 27:0.95090165 28:0.6216007 29:0.90308906 30:0.94499787 31:0.9466047 32:0.70194538 33:0.67116992 34:0.8915271 35:0.8923987 36:0.89342906 37:0.72674024 
-4 1:0.93158211 2:0.96750829 3:0.2543836 4:0.37831889 5:0.59814142 6:0.83310325 7:0.69744745 8:0.3549968 9:0.48824708 10:0.67736564 11:0.87291616 12:0.76487055 13:1 14:1 15:0.9398872 16:0.89547136 17:0.93158213 18:0.76156937 19:0.68062118 20:0.22134014 21:0.20241661 22:1 23:0.89548912 24:1 25:1 26:1 27:0.95090165 28:0.92712748 29:1 30:1 31:0.9799282 32:0.96618701 33:1 34:0.98820157 35:0.94566169 36:0.92711643 37:1 
-3.896505008613254 1:0.50057541 2:0.45839027 3:0.2543836 4:0.37831889 5:0.59814142 6:0.83310325 7:0.69744745 8:0.043230469 9:0.11727516 10:0.33122242 11:0.63465856 12:0.45045941 13:0.55020764 14:0.3226559 15:0.42779828 16:0.63364166 17:0.50057541 18:0.16928654 19:0.13969021 20:0.22134014 21:0.20241661 22:0.27530288 23:0.89548912 24:1 25:1 26:1 27:0.95090165 28:0.17099648 29:0.26168874 30:0.32238784 31:0.39883736 32:0.19928046 33:0.18621416 34:0.25175597 35:0.28956514 36:0.33977445 37:0.20694234 
-4 1:0.85728929 2:0.84876746 3:0.2543836 4:0.37831889 5:0.59814142 6:0.83310325 7:0.69744745 8:0.20839314 9:0.37963414 10:0.62321109 11:0.8533949 12:0.7106786 13:0.7885218 14:0.80173112 15:0.85975381 16:0.87400476 17:0.85728931 18:0.44745562 19:0.39374159 20:0.22134014 21:0.20241661 22:0.76045066 23:0.89548912 24:1 25:1 26:1 27:0.95090165 28:0.47980931 29:0.77883838 30:0.86719535 31:0.89618051 32:0.56322809 33:0.51860733 34:0.7676136 35:0.81707807 36:0.84247142 37:0.58332828 
4 1:0.82578039 2:0.81893569 3:0.2543836 4:0.37831889 5:0.59814142 6:0.83310325 7:0.69744745 8:0.19154724 9:0.36735446 10:0.6030399 11:0.82687688 12:0.68769281 13:0.76420365 14:0.77925917 15:0.82992767 16:0.8448732 17:0.82578038 18:0.40880879 19:0.3584455 20:0.22134014 21:0.20241661 22:0.69822948 23:0.89548912 24:1 25:1 26:1 27:0.95090165 28:0.44497912 29:0.70454809 30:0.79359986 31:0.83880322 32:0.51893488 33:0.48108649 34:0.69349886 35:0.74581458 36:0.78446875 37:0.53749591 
-4 1:0.89313734 2:0.91071729 3:0.2543836 4:0.37831889 5:0.59814142 6:0.83310325 7:0.69744745 8:0.284624 9:0.44232647 10:0.64962124 11:0.85852216 12:0.73682683 13:0.89846787 14:0.91615148 15:0.89884492 16:0.87965273 17:0.89313737 18:0.57309258 19:0.50848562 20:0.22134014 21:0.20241661 22:0.87266914 23:0.89548912 24:1 25:1 26:1 27:0.95090165 28:0.63448632 29:0.91055981 30:0.94918239 31:0.94915876 32:0.71375748 33:0.68503341 34:0.89897868 35:0.89645022 36:0.89601054 37:0.73895164 
4 1:0.7907986 2:0.7826252 3:0.2543836 4:0.37831889 5:0.59814142 6:0.83310325 7:0.69744745 8:0.18896447 9:0.3415625 10:0.5724709 11:0.8052583 12:0.66216517 13:0.7604857 14:0.7321958 15:0.7847019 16:0.82112174 17:0.79079865 18:0.35047569 19:0.30516997 20:0.22134014 21:0.20241661 22:0.59374583 23:0.89548912 24:1 25:1 26:1 27:0.95090165 28:0.36735124 29:0.58328952 30:0.68066099 31:0.74976897 32:0.43032135 33:0.39754843 34:0.57255466 35:0.63646907 36:0.69447996 37:0.44586964 
4 1:0.88701703 2:0.90199395 3:0.2543836 4:0.37831889 5:0.59814142 6:0.83310325 7:0.69744745 8:0.27546778 9:0.43487006 10:0.64522775 11:0.85604719 12:0.73236205 13:0.88526948 14:0.90254578 15:0.89234219 16:0.87692998 17:0.88701702 18:0.55124665 19:0.48853377 20:0.22134014 21:0.20241661 22:0.85575572 23:0.89548912 24:1 25:1 26:1 27:0.95090165 28:0.60878236 29:0.89159656 30:0.93777967 31:0.94202595 32:0.68935267 33:0.65737423 34:0.8800643 35:0.88540954 36:0.88880056 37:0.7137183 
-4 1:0.42095914 2:0.37704025 3:0.36419625 4:0.41539779 5:0.49862594 6:0.59722999 7:0.56075372 8:0.032525558 9:0.076779133 10:0.23288742 11:0.46860535 12:0.32708613 13:0.44251517 14:0.24439326 15:0.34306164 16:0.58725836 17:0.42095916 18:0.21016447 19:0.25047481 20:1 21:0.94455023 22:0.34945221 23:0.44971691 24:0.47566752 25:0.48854602 26:0.51017991 27:0.46745306 28:0.12316168 29:0.1934149 30:0.23767957 31:0.30060368 32:0.14468678 33:0.21574112 34:0.32282722 35:0.37637457 36:0.44060239 37:0.24601484 
4 1:0.79431175 2:0.76760063 3:0.36419625 4:0.41539779 5:0.49862594 6:0.59722999 7:0.56075372 8:0.18914227 9:0.3272383 10:0.51485058 11:0.66341955 12:0.56948464 13:0.650194 14:0.67032756 15:0.80401244 16:0.85451106 17:0.79431173 18:0.40724797 19:0.43047086 20:1 21:0.94455023 22:0.70182337 23:0.44971691 24:0.47566752 25:0.48854602 26:0.51017991 27:0.46745306 28:0.25570707 29:0.4401215 30:0.50412584 31:0.54754096 32:0.30683374 33:0.42708047 34:0.70291477 35:0.77411713 36:0.81684544 37:0.49657203 
-2.2409104877081245 1:0.85604625 2:0.85866123 3:0.36419625 4:0.41539779 5:0.49862594 6:0.59722999 7:0.56075372 8:0.29789663 9:0.42701245 10:0.55323081 11:0.67242969 12:0.60964855 13:0.79361396 14:0.83714554 15:0.86692756 16:0.86660737 17:0.85604625 18:0.5087247 19:0.5231494 20:1 21:0.94455023 22:0.77533085 23:0.44971691 24:0.47566752 25:0.48854602 26:0.51017991 27:0.46745306 28:0.32024222 29:0.49979144 30:0.54145687 31:0.57038719 32:0.37058097 33:0.52882198 34:0.79428461 35:0.82921282 36:0.85094229 37:0.59429541 
4 1:0.76552954 2:0.75368626 3:0.36419625 4:0.41539779 5:0.49862594 6:0.59722999 7:0.56075372 8:0.22699389 9:0.3469131 10:0.49351214 11:0.62928488 12:0.55070113 13:0.69753011 14:0.69618106 15:0.76879771 16:0.80832371 17:0.76552954 18:0.33918464 19:0.36830873 20:1 21:0.94455023 22:0.52992459 23:0.44971691 24:0.47566752 25:0.48854602 26:0.51017991 27:0.46745306 28:0.19838564 29:0.31826836 30:0.37064331 31:0.42339885 32:0.23317795 33:0.33507699 34:0.51555865 35:0.57550469 36:0.6283076 37:0.38239808 
-4 1:0.87125758 2:0.88266971 3:0.36419625 4:0.41539779 5:0.49862594 6:0.59722999 7:0.56075372 8:0.33523658 9:0.45078017 10:0.56073366 11:0.67504933 12:0.61952113 13:0.84368051 14:0.87866783 15:0.87912927 16:0.87038638 17:0.87125759 18:0.52162277 19:0.53492919 20:1 21:0.94455023 22:0.78495953 23:0.44971691 24:0.47566752 25:0.48854602 26:0.51017991 27:0.46745306 28:0.33368393 29:0.50467674 30:0.54395486 31:0.57175671 32:0.38231476 33:0.55028211 34:0.80238298 35:0.83359914 36:0.85371177 37:0.6126137 
-4 1:0.55721133 2:0.52002919 3:0.36419625 4:0.41539779 5:0.49862594 6:0.59722999 7:0.56075372 8:0.076965766 9:0.16538988 10:0.35365619 11:0.53188483 12:0.41637518 13:0.500424 14:0.39034439 15:0.53815096 16:0.67659293 17:0.5572113 18:0.18884845 19:0.23100692 20:1 21:0.94455023 22:0.41717651 23:0.44971691 24:0.47566752 25:0.48854602 26:0.51017991 27:0.46745306 28:0.14933483 29:0.24670205 30:0.29242342 31:0.34184548 32:0.17749397 33:0.25537346 34:0.40323562 35:0.45681628 36:0.50231162 37:0.2945442 
-4 1:0.75841272 2:0.75205375 3:0.36419625 4:0.41539779 5:0.49862594 6:0.59722999 7:0.56075372 8:0.23680434 9:0.35318288 10:0.49152376 11:0.62012162 12:0.54704654 13:0.71075703 14:0.70531644 15:0.76361055 16:0.79609252 17:0.75841274 18:0.30711204 19:0.33901688 20:1 21:0.94455023 22:0.60029544 23:0.44971691 24:0.47566752 25:0.48854602 26:0.51017991 27:0.46745306 28:0.23237664 29:0.3752153 30:0.42312773 31:0.46397878 32:0.27278001 33:0.38697967 34:0.60057195 35:0.65121763 36:0.68774497 37:0.44113217 
-4 1:0.72861911 2:0.71128732 3:0.36419625 4:0.41539779 5:0.49862594 6:0.59722999 7:0.56075372 8:0.19966477 9:0.31415389 10:0.46734815 11:0.61245622 12:0.52651621 13:0.66098074 14:0.63989367 15:0.72649483 16:0.78573898 17:0.72861912 18:0.30340215 19:0.33562864 20:1 21:0.94455023 22:0.49320973 23:0.44971691 24:0.47566752 25:0.48854602 26:0.51017991 27:0.46745306 28:0.18421585 29:0.29476506 30:0.34414107 31:0.39592582 32:0.21640478 33:0.31194081 34:0.47878716 35:0.53544402 36:0.58596255 37:0.35587587 
4 1:0.85709865 2:0.86367536 3:0.36419625 4:0.41539779 5:0.49862594 6:0.59722999 7:0.56075372 8:0.31714645 9:0.43343075 10:0.55164759 11:0.67040167 12:0.61023731 13:0.81894837 14:0.84796976 15:0.86438933 16:0.86408665 17:0.85709868 18:0.5002919 19:0.51544773 20:1 21:0.94455023 22:0.76947147 23:0.44971691 24:0.47566752 25:0.48854602 26:0.51017991 27:0.46745306 28:0.32427748 29:0.49239442 30:0.53449684 31:0.56531922 32:0.37221088 33:0.53472127 34:0.78291837 35:0.81905885 36:0.84357332 37:0.59641621 
-4 1:0.73812114 2:0.70404765 3:0.36419625 4:0.41539779 5:0.49862594 6:0.59722999 7:0.56075372 8:0.1391614 9:0.27958825 10:0.48023073 11:0.634668 12:0.53275293 13:0.58449975 14:0.59133767 15:0.7490269 16:0.813725 17:0.73812114 18:0.19113295 19:0.23309336 20:1 21:0.94455023 22:0.46873958 23:0.44971691 24:0.47566752 25:0.48854602 26:0.51017991 27:0.46745306 28:0.16819748 29:0.27710068 30:0.32909515 31:0.38529561 32:0.19980175 33:0.28689296 34:0.45100215 35:0.51178481 36:0.56810435 37:0.33046831 
4 1:0.89775029 2:0.88134006 3:0.36419625 4:0.41539779 5:0.49862594 6:0.59722999 7:0.56075372 8:0.24156646 9:0.41475855 10:0.58355142 11:0.71645086 12:0.63665352 13:0.7209342 14:0.82288997 15:0.91727767 16:0.92562355 17:0.89775029 18:0.23909711 19:0.27689895 20:1 21:0.94455023 22:0.81023898 23:0.44971691 24:0.47566752 25:0.48854602 26:0.51017991 27:0.46745306 28:0.31505414 29:0.52373357 30:0.57435671 31:0.60911281 32:0.37228884 33:0.5209627 34:0.83085288 35:0.87809412 36:0.90990624 37:0.59700356 
-4 1:0.25942066 2:0.24952838 3:0.36419625 4:0.41539779 5:0.49862594 6:0.59722999 7:0.56075372 8:0.025000209 9:0.053951239 10:0.15331267 11:0.32259482 12:0.2231804 13:0.43205576 14:0.20343905 15:0.21172684 16:0.38595743 17:0.25942069 18:0.044439418 19:0.099118383 20:1 21:0.94455023 22:0.1476687 23:0.44971691 24:0.47566752 25:0.48854602 26:0.51017991 27:0.46745306 28:0.064318952 29:0.083280973 30:0.089157124 31:0.10934581 32:0.070471085 33:0.12024184 34:0.1517281 35:0.15295475 36:0.14616272 37:0.12967537 
4 1:0.80073998 2:0.78720491 3:0.36419625 4:0.41539779 5:0.49862594 6:0.59722999 7:0.56075372 8:0.2315578 9:0.36038583 10:0.51849058 11:0.65280445 12:0.57332195 13:0.70531918 14:0.72370619 15:0.81052797 16:0.84024016 17:0.80074 18:0.38433579 19:0.4095452 20:1 21:0.94455023 22:0.68576243 23:0.44971691 24:0.47566752 25:0.48854602 26:0.51017991 27:0.46745306 28:0.26393297 29:0.43274919 30:0.48513939 31:0.52392699 32:0.31113191 33:0.43955298 34:0.6914003 35:0.74581192 36:0.78094451 37:0.50274449 
-4 1:0.66795377 2:0.65440905 3:0.36419625 4:0.41539779 5:0.49862594 6:0.59722999 7:0.56075372 8:0.19430141 9:0.2803383 10:0.42064906 11:0.57603459 12:0.4866993 13:0.65626789 14:0.58627936 15:0.65153763 16:0.73682959 17:0.66795378 18:0.28468357 19:0.31853299 20:1 21:0.94455023 22:0.44479361 23:0.44971691 24:0.47566752 25:0.48854602 26:0.51017991 27:0.46745306 28:0.15653068 29:0.26346749 30:0.31360075 31:0.36784055 32:0.18728598 33:0.26611736 34:0.4291033 35:0.4883882 36:0.54153263 37:0.30920465 
-4 1:0.46513541 2:0.43545551 3:0.36419625 4:0.41539779 5:0.49862594 6:0.59722999 7:0.56075372 8:0.053247789 9:0.12657506 10:0.29389566 11:0.46720343 12:0.35622045 13:0.46943563 14:0.32510998 15:0.44042429 16:0.59093821 17:0.46513544 18:0.12715254 19:0.17466015 20:1 21:0.94455023 22:0.30462223 23:0.44971691 24:0.47566752 25:0.48854602 26:0.51017991 27:0.46745306 28:0.11096433 29:0.17335069 30:0.20636691 31:0.25031455 32:0.12963948 33:0.19503384 34:0.29145584 35:0.32984457 36:0.36465673 37:0.22156865 
4 1:0.75469903 2:0.7305746 3:0.36419625 4:0.41539779 5:0.49862594 6:0.59722999 7:0.56075372 8:0.19531147 9:0.31172515 10:0.48192 11:0.63770658 12:0.54335539 13:0.65688952 14:0.63966587 15:0.75059933 16:0.81954839 17:0.75469908 18:0.34874599 19:0.37704109 20:1 21:0.94455023 22:0.63923785 23:0.44971691 24:0.47566752 25:0.48854602 26:0.51017991 27:0.46745306 28:0.23289849 29:0.39115463 30:0.45555059 31:0.510525 32:0.27776416 33:0.39018735 34:0.62718974 35:0.70130823 36:0.75997542 37:0.45122108 
4 1:0.77191359 2:0.76253886 3:0.36419625 4:0.41539779 5:0.49862594 6:0.59722999 7:0.56075372 8:0.23656404 9:0.35462351 10:0.49726977 11:0.63153762 12:0.5549099 13:0.71047371 14:0.71093509 15:0.77520266 16:0.81074774 17:0.7719136 18:0.35029322 19:0.37845418 20:1 21:0.94455023 22:0.55103404 23:0.44971691 24:0.47566752 25:0.48854602 26:0.51017991 27:0.46745306 28:0.21016963 29:0.33344349 30:0.38525489 31:0.43605741 32:0.24596321 33:0.35381478 34:0.53856676 35:0.59672657 36:0.64688381 37:0.40205695 
-4 1:0.8709578 2:0.8825437 3:0.36419625 4:0.41539779 5:0.49862594 6:0.59722999 7:0.56075372 8:0.33615075 9:0.45030621 10:0.5608125 11:0.67468461 12:0.61933145 13:0.84494911 14:0.877966 15:0.87927412 16:0.86989405 17:0.87095781 18:0.52554407 19:0.5385105 20:1 21:0.94455023 22:0.78911272 23:0.44971691 24:0.47566752 25:0.48854602 26:0.51017991 27:0.46745306 28:0.3391114 29:0.50765383 30:0.54562071 31:0.5726685 32:0.38725532 33:0.55860999 34:0.80660941 35:0.83577589 36:0.85484166 37:0.61991802 
4 1:0.74664263 2:0.73222088 3:0.36419625 4:0.41539779 5:0.49862594 6:0.59722999 7:0.56075372 8:0.2098482 9:0.32753709 10:0.48147985 11:0.62115677 12:0.5383986 13:0.67584669 14:0.66724448 15:0.75003536 16:0.79618029 17:0.74664268 18:0.32843577 19:0.3584918 20:1 21:0.94455023 22:0.50918655 23:0.44971691 24:0.47566752 25:0.48854602 26:0.51017991 27:0.46745306 28:0.18962136 29:0.30434963 30:0.35621795 31:0.40989959 32:0.22302802 33:0.3214336 34:0.49353616 35:0.55288542 36:0.60626746 37:0.36685029 
-4 1:0.86841185 2:0.87947769 3:0.36419625 4:0.41539779 5:0.49862594 6:0.59722999 7:0.56075372 8:0.33189284 9:0.44837237 10:0.55889088 11:0.67366169 12:0.61762325 13:0.83957072 14:0.87516235 15:0.87632384 16:0.86837539 17:0.8684119 18:0.52007208 19:0.53351294 20:1 21:0.94455023 22:0.77944294 23:0.44971691 24:0.47566752 25:0.48854602 26:0.51017991 27:0.46745306 28:0.32983704 29:0.50080114 30:0.54089679 31:0.56951309 32:0.37841643 33:0.54419337 34:0.79606161 35:0.82861025 36:0.84985494 37:0.60652791 
-4 1:0.93158211 2:0.96750829 3:0.36419625 4:0.41539779 5:0.49862594 6:0.59722999 7:0.56075372 8:0.44999137 9:0.51876954 10:0.59746909 11:0.69331002 12:0.65863869 13:1 14:1 15:0.9398872 16:0.89547136 17:0.93158213 18:0.76719157 19:0.75920678 20:1 21:0.94455023 22:0.99999857 23:0.44971691 24:0.47566752 25:0.48854602 26:0.51017991 27:0.46745306 28:0.61630185 29:0.62537413 30:0.61918915 31:0.62005145 32:0.63324535 33:0.99999947 34:0.9882004 35:0.9456598 36:0.92711444 37:0.9999991 
4 1:0.45271111 2:0.40959354 3:0.36419625 4:0.41539779 5:0.49862594 6:0.59722999 7:0.56075372 8:0.03780901 9:0.09272894 10:0.26426088 11:0.48239737 12:0.34740427 13:0.4498827 14:0.27407885 15:0.39694834 16:0.60420056 17:0.45271113 18:0.1936197 19:0.2353645 20:1 21:0.94455023 22:0.29455168 23:0.44971691 24:0.47566752 25:0.48854602 26:0.51017991 27:0.46745306 28:0.1072967 29:0.16489627 30:0.19834763 31:0.24685987 32:0.124884 33:0.1898638 34:0.27819272 35:0.31671833 36:0.35725445 37:0.21479323 
4 1:0.75624325 2:0.72290955 3:0.36419625 4:0.41539779 5:0.49862594 6:0.59722999 7:0.56075372 8:0.14537018 9:0.28715621 10:0.49932078 11:0.64257923 12:0.54466697 13:0.59276941 14:0.60430278 15:0.77906869 16:0.82605542 17:0.75624332 18:0.35353724 19:0.38141693 20:1 21:0.94455023 22:0.60095912 23:0.44971691 24:0.47566752 25:0.48854602 26:0.51017991 27:0.46745306 28:0.21242374 29:0.36801729 30:0.4294835 31:0.4828995 32:0.25601303 33:0.35800427 34:0.59178932 35:0.66264601 36:0.71811926 37:0.4179139 
-4 1:0.71788107 2:0.68758354 3:0.36419625 4:0.41539779 5:0.49862594 6:0.59722999 7:0.56075372 8:0.13407442 9:0.27829909 10:0.47350176 11:0.61406866 12:0.51969826 13:0.57705568 14:0.58483077 15:0.7366239 16:0.78712891 17:0.71788109 18:0.31746809 19:0.34847504 20:1 21:0.94455023 22:0.50791711 23:0.44971691 24:0.47566752 25:0.48854602 26:0.51017991 27:0.46745306 28:0.18454799 29:0.30635371 30:0.35752545 31:0.40949602 32:0.21935122 33:0.31254607 34:0.49620153 35:0.55479005 36:0.60591095 37:0.36034383 
-4 1:0.7704134 2:0.75921766 3:0.36419625 4:0.41539779 5:0.49862594 6:0.59722999 7:0.56075372 8:0.22895334 9:0.34981485 10:0.49609517 11:0.63269747 12:0.55387101 13:0.70105683 14:0.70422594 15:0.77370841 16:0.81181624 17:0.77041344 18:0.35422014 19:0.38204062 20:1 21:0.94455023 22:0.54908682 23:0.44971691 24:0.47566752 25:0.48854602 26:0.51017991 27:0.46745306 28:0.20680942 29:0.33150955 30:0.38503748 31:0.43741797 32:0.2429433 33:0.34892227 34:0.53551702 35:0.59597622 36:0.64820924 37:0.39775651 
-4 1:0.86984696 2:0.88002243 3:0.36419625 4:0.41539779 5:0.49862594 6:0.59722999 7:0.56075372 8:0.32920864 9:0.4467711 10:0.56021866 11:0.67538644 12:0.61850934 13:0.83617632 14:0.87318415 15:0.8787102 16:0.87064766 17:0.86984698 18:0.53184043 19:0.54426096 20:1 21:0.94455023 22:0.79978194 23:0.44971691 24:0.47566752 25:0.48854602 26:0.51017991 27:0.46745306 28:0.34366558 29:0.51592393 30:0.55324873 31:0.57900074 32:0.39270496 33:0.56642131 34:0.81938752 35:0.84701186 36:0.8642784 37:0.62876335 
-4 1:0.46007412 2:0.38095207 3:0.7460553 4:0.79853377 5:0.77632804 6:0.6976692 7:0.79742862 8:0.066161283 9:0.17680405 10:0.40556385 11:0.60227786 12:0.47024794 13:0.17780287 14:0.1772196 15:0.42216377 16:0.68861137 17:0.46007413 18:0.23174506 19:0.28076411 20:0.15808351 21:0.13916817 22:0.41459004 23:0.51534011 24:0.44175099 25:0.42101967 26:0.40836542 27:0.51054189 28:0.095374682 29:0.21325399 30:0.2828389 31:0.3529337 32:0.12822198 33:0.15610891 34:0.36906126 35:0.48684258 36:0.60067526 37:0.20808505 
-4 1:0.8476106 2:0.83738417 3:0.7460553 4:0.79853377 5:0.77632804 6:0.6976692 7:0.79742862 8:0.49574266 9:0.67093533 10:0.77206186 11:0.75576278 12:0.77630571 13:0.6724348 14:0.79577375 15:0.87951552 16:0.87805221 17:0.84761059 18:0.4551065 19:0.48475976 20:0.15808351 21:0.13916817 22:0.77105997 23:0.51534011 24:0.44175099 25:0.42101967 26:0.40836542 27:0.51054189 28:0.26395366 29:0.50086639 30:0.52155957 31:0.52073901 32:0.32426217 33:0.40721195 34:0.82831221 35:0.86979878 36:0.88554761 37:0.49848111 
-4 1:0.88336042 2:0.89408686 3:0.7460553 4:0.79853377 5:0.77632804 6:0.6976692 7:0.79742862 8:0.61324999 9:0.75143271 10:0.79051127 11:0.75974726 12:0.8045104 13:0.80769446 14:0.89645593 15:0.90253947 16:0.8830573 17:0.88336044 18:0.50366152 19:0.52910499 20:0.15808351 21:0.13916817 22:0.79182245 23:0.51534011 24:0.44175099 25:0.42101967 26:0.40836542 27:0.51054189 28:0.30890563 29:0.5089269 30:0.52217457 31:0.51963127 32:0.36170665 33:0.47393908 34:0.84102736 35:0.87071237 36:0.88362482 37:0.55374322 
-4 1:0.81315197 2:0.81221767 3:0.7460553 4:0.79853377 5:0.77632804 6:0.6976692 7:0.79742862 8:0.52091567 9:0.67133428 10:0.73270413 11:0.72438024 12:0.74895532 13:0.70149504 14:0.7963976 15:0.83052261 16:0.83939742 17:0.81315197 18:0.35051779 19:0.38923905 20:0.15808351 21:0.13916817 22:0.54153328 23:0.51534011 24:0.44175099 25:0.42101967 26:0.40836542 27:0.51054189 28:0.17284407 29:0.31369068 30:0.363083 31:0.4028826 32:0.21137721 33:0.27153656 34:0.52957526 35:0.61571586 36:0.68554338 37:0.33132232 
-4 1:0.8952988 2:0.91565157 3:0.7460553 4:0.79853377 5:0.77632804 6:0.6976692 7:0.79742862 8:0.67174239 9:0.78014987 10:0.79520181 11:0.75927794 12:0.81388189 13:0.8750721 14:0.93248061 15:0.90843924 16:0.88248814 17:0.8952988 18:0.52814553 19:0.55146619 20:0.15808351 21:0.13916817 22:0.81119653 23:0.51534011 24:0.44175099 25:0.42101967 26:0.40836542 27:0.51054189 28:0.33949412 29:0.51784958 30:0.52708332 31:0.5226666 32:0.38800055 33:0.51989763 34:0.8555611 35:0.87875296 36:0.88887965 37:0.59306725 
-4 1:0.56500933 2:0.50208923 3:0.7460553 4:0.79853377 5:0.77632804 6:0.6976692 7:0.79742862 8:0.16256831 9:0.29988451 10:0.5238428 11:0.63722796 12:0.553195 13:0.28877944 14:0.33120526 15:0.56966413 16:0.7316234 17:0.56500934 18:0.2404887 19:0.28874966 20:0.15808351 21:0.13916817 22:0.37746862 23:0.51534011 24:0.44175099 25:0.42101967 26:0.40836542 27:0.51054189 28:0.096951504 29:0.20096314 30:0.25239341 31:0.30699567 32:0.1256329 33:0.15836691 34:0.34914842 35:0.4375976 36:0.52217857 37:0.20411872 
-4 1:0.56513003 2:0.5021807 3:0.7460553 4:0.79853377 5:0.77632804 6:0.6976692 7:0.79742862 8:0.16236669 9:0.29995295 10:0.52402566 11:0.63730827 12:0.55329677 13:0.28854782 14:0.3312907 15:0.56988834 16:0.73171061 17:0.56513005 18:0.24041999 19:0.28868691 20:0.15808351 21:0.13916817 22:0.37739666 23:0.51534011 24:0.44175099 25:0.42101967 26:0.40836542 27:0.51054189 28:0.096935317 29:0.20093878 30:0.25233636 31:0.30694403 32:0.12561284 33:0.1583397 34:0.34909917 35:0.43749427 36:0.5220787 37:0.20408449 
-4 1:0.89476121 2:0.91491596 3:0.7460553 4:0.79853377 5:0.77632804 6:0.6976692 7:0.79742862 8:0.67291114 9:0.77773878 10:0.79455382 11:0.75955803 12:0.813456 13:0.87640226 14:0.92944521 15:0.90765021 16:0.88284596 17:0.89476121 18:0.53897415 19:0.56135595 20:0.15808351 21:0.13916817 22:0.82893254 23:0.51534011 24:0.44175099 25:0.42101967 26:0.40836542 27:0.51054189 28:0.36266653 29:0.52954072 30:0.53296219 31:0.52580969 32:0.40886078 33:0.55432179 34:0.87417493 35:0.88816348 36:0.89420964 37:0.62388892 
4 1:0.80912917 2:0.77251673 3:0.7460553 4:0.79853377 5:0.77632804 6:0.6976692 7:0.79742862 8:0.33655338 9:0.58466223 10:0.75522467 11:0.75306735 12:0.74606533 13:0.48910486 14:0.68764383 15:0.85837171 16:0.87448651 17:0.80912918 18:0.17485115 19:0.22880299 20:0.15808351 21:0.13916817 22:0.52827259 23:0.51534011 24:0.44175099 25:0.42101967 26:0.40836542 27:0.51054189 28:0.14546555 29:0.30338276 30:0.36147975 31:0.40911217 32:0.18765739 33:0.23062597 34:0.51287632 35:0.61293496 36:0.69600888 37:0.29602848 
-4 1:0.91865691 2:0.88950705 3:0.7460553 4:0.79853377 5:0.77632804 6:0.6976692 7:0.79742862 8:0.43401899 9:0.68885479 10:0.83534171 11:0.82662595 12:0.83257771 13:0.60135295 14:0.81804981 15:0.95835012 16:0.96545932 17:0.91865695 18:0.19934753 19:0.2511755 20:0.15808351 21:0.13916817 22:0.8284737 23:0.51534011 24:0.44175099 25:0.42101967 26:0.40836542 27:0.51054189 28:0.26662134 29:0.54833704 30:0.56616197 31:0.56354362 32:0.33681948 33:0.41102519 34:0.90388738 35:0.94129693 36:0.95827227 37:0.51691311 
-4 1:0.20010486 2:0.15314863 3:0.7460553 4:0.79853377 5:0.77632804 6:0.6976692 7:0.79742862 8:0.035301792 9:0.076094477 10:0.1944876 11:0.37037949 12:0.26512944 13:0.14228756 14:0.051241815 15:0.15865735 16:0.40106446 17:0.20010487 18:0.067970445 19:0.13118901 20:0.15808351 21:0.13916817 22:0.1530564 23:0.51534011 24:0.44175099 25:0.42101967 26:0.40836542 27:0.51054189 28:0.046995644 29:0.072275083 30:0.084702326 31:0.11597419 32:0.054582867 33:0.084045282 34:0.14381915 35:0.16860835 36:0.19763541 37:0.098973519 
-4 1:0.83832816 2:0.83692817 3:0.7460553 4:0.79853377 5:0.77632804 6:0.6976692 7:0.79742862 8:0.53361726 9:0.68653296 10:0.7572986 11:0.74140037 12:0.76891837 13:0.7160871 14:0.81528975 15:0.86112072 16:0.86038852 17:0.8383282 18:0.37344772 19:0.41018092 20:0.15808351 21:0.13916817 22:0.69397061 23:0.51534011 24:0.44175099 25:0.42101967 26:0.40836542 27:0.51054189 28:0.22499567 29:0.43876882 30:0.47229728 31:0.48421244 32:0.27997327 33:0.34916445 34:0.72925176 35:0.79088263 36:0.8236065 37:0.43287883 
-4 1:0.82708842 2:0.82507324 3:0.7460553 4:0.79853377 5:0.77632804 6:0.6976692 7:0.79742862 8:0.52465027 9:0.67799409 10:0.74593101 11:0.7353062 12:0.76015551 13:0.70563024 14:0.80450055 15:0.84675263 16:0.85277434 17:0.82708844 18:0.40678233 19:0.44062537 20:0.15808351 21:0.13916817 22:0.66152727 23:0.51534011 24:0.44175099 25:0.42101967 26:0.40836542 27:0.51054189 28:0.21546507 29:0.40371821 30:0.44981781 31:0.47345549 32:0.26529373 33:0.33470367 34:0.67292567 35:0.75456972 36:0.80519522 37:0.41085606 
-4 1:0.61040874 2:0.55631848 3:0.7460553 4:0.79853377 5:0.77632804 6:0.6976692 7:0.79742862 8:0.20050246 9:0.36354175 10:0.57564317 11:0.64676644 12:0.58807564 13:0.33255066 14:0.41125798 15:0.63546574 16:0.74532403 17:0.61040874 18:0.2016777 19:0.25330364 20:0.15808351 21:0.13916817 22:0.42376984 23:0.51534011 24:0.44175099 25:0.42101967 26:0.40836542 27:0.51054189 28:0.10868049 29:0.23490303 30:0.28776338 31:0.33505167 32:0.14260538 33:0.17617033 34:0.40428105 35:0.49548459 36:0.57101782 37:0.22972093 
-4 1:0.77522476 2:0.75711976 3:0.7460553 4:0.79853377 5:0.77632804 6:0.6976692 7:0.79742862 8:0.43923238 9:0.58896552 10:0.70387687 11:0.7204535 12:0.71893678 13:0.60744281 14:0.69329425 15:0.79469878 16:0.83474025 17:0.77522476 18:0.3306477 19:0.37109173 20:0.15808351 21:0.13916817 22:0.62541914 23:0.51534011 24:0.44175099 25:0.42101967 26:0.40836542 27:0.51054189 28:0.18335725 29:0.37965774 30:0.42989304 31:0.460449 32:0.23446572 33:0.28726163 34:0.63502662 35:0.7229615 36:0.78331545 37:0.36559207 
4 1:0.84271699 2:0.84968161 3:0.7460553 4:0.79853377 5:0.77632804 6:0.6976692 7:0.79742862 8:0.57600796 9:0.71069381 10:0.75614042 11:0.73626653 12:0.77237342 13:0.76489685 14:0.84558599 15:0.85969818 16:0.8540028 17:0.84271701 18:0.40126855 19:0.43558965 20:0.15808351 21:0.13916817 22:0.63029276 23:0.51534011 24:0.44175099 25:0.42101967 26:0.40836542 27:0.51054189 28:0.21728559 29:0.37714404 30:0.42207942 31:0.45079991 32:0.26082123 33:0.33767847 34:0.63081227 35:0.71030052 36:0.76686682 37:0.4045058 
-4 1:0.89766894 2:0.9192753 3:0.7460553 4:0.79853377 5:0.77632804 6:0.6976692 7:0.79742862 8:0.68141676 9:0.78324605 10:0.79677555 11:0.75993133 12:0.81577829 13:0.88616973 14:0.93632789 15:0.91038559 16:0.88326951 17:0.897669 18:0.54565927 19:0.56746146 20:0.15808351 21:0.13916817 22:0.83364251 23:0.51534011 24:0.44175099 25:0.42101967 26:0.40836542 27:0.51054189 28:0.36814878 29:0.53292539 30:0.53490175 31:0.5267724 32:0.4139268 33:0.56241527 34:0.8794808 35:0.89120541 36:0.89579933 37:0.63131777 
-4 1:0.8326592 2:0.83870951 3:0.7460553 4:0.79853377 5:0.77632804 6:0.6976692 7:0.79742862 8:0.56967576 9:0.69928517 10:0.74666013 11:0.73105351 12:0.76432387 13:0.75764031 14:0.83142302 15:0.8479705 16:0.84763037 17:0.83265921 18:0.38071382 19:0.41681704 20:0.15808351 21:0.13916817 22:0.59376306 23:0.51534011 24:0.44175099 25:0.42101967 26:0.40836542 27:0.51054189 28:0.19779551 29:0.3506279 30:0.39813391 31:0.43192971 32:0.23946424 33:0.30876367 34:0.58866216 35:0.67205781 36:0.73497326 37:0.37299825 
-4 1:0.89453502 2:0.91469502 3:0.7460553 4:0.79853377 5:0.77632804 6:0.6976692 7:0.79742862 8:0.67020173 9:0.77925097 10:0.79462412 11:0.75896738 12:0.81329835 13:0.87329326 14:0.93133356 15:0.90770599 16:0.88209139 17:0.89453503 18:0.54205055 19:0.56416562 20:0.15808351 21:0.13916817 22:0.82997145 23:0.51534011 24:0.44175099 25:0.42101967 26:0.40836542 27:0.51054189 28:0.36147092 29:0.53145024 30:0.53418452 31:0.52639733 32:0.40828504 33:0.55254585 34:0.877163 35:0.89007657 36:0.89517456 37:0.62302732 
-4 1:0.93158211 2:0.96750829 3:0.7460553 4:0.79853377 5:0.77632804 6:0.6976692 7:0.79742862 8:0.7803225 9:0.83415785 10:0.82042375 11:0.76978965 12:0.84257116 13:1 14:1 15:0.9398872 16:0.89547136 17:0.93158213 18:0.65952792 19:0.67145751 20:0.15808351 21:0.13916817 22:0.99999887 23:0.51534011 24:0.44175099 25:0.42101967 26:0.40836542 27:0.51054189 28:0.66205915 29:0.60114157 30:0.56891196 31:0.54524779 32:0.66291975 33:0.99999944 34:0.98820057 35:0.94566034 36:0.92711495 37:0.99999915 
4 1:0.45086499 2:0.3763758 3:0.7460553 4:0.79853377 5:0.77632804 6:0.6976692 7:0.79742862 8:0.068619555 9:0.17925001 10:0.41815564 11:0.5797572 12:0.46366187 13:0.18058435 14:0.17994909 15:0.4369481 16:0.65950462 17:0.45086502 18:0.17934898 19:0.23291085 20:0.15808351 21:0.13916817 22:0.27140441 23:0.51534011 24:0.44175099 25:0.42101967 26:0.40836542 27:0.51054189 28:0.069064138 29:0.13459146 30:0.17345183 31:0.22565491 32:0.08778293 33:0.11686802 34:0.24325832 35:0.31099631 36:0.3840027 37:0.14809895 
-4 1:0.82836517 2:0.82165254 3:0.7460553 4:0.79853377 5:0.77632804 6:0.6976692 7:0.79742862 8:0.4979885 9:0.67203055 10:0.74737164 11:0.74113059 12:0.7611076 13:0.67501599 14:0.79717943 15:0.84865245 16:0.85990798 17:0.82836521 18:0.38425843 19:0.42005433 20:0.15808351 21:0.13916817 22:0.6275655 23:0.51534011 24:0.44175099 25:0.42101967 26:0.40836542 27:0.51054189 28:0.19137573 29:0.37558912 30:0.42967831 31:0.46293456 32:0.24021949 33:0.2990391 34:0.62811844 35:0.72223343 36:0.78723074 37:0.37390338 
-4 1:0.81491384 2:0.8151335 3:0.7460553 4:0.79853377 5:0.77632804 6:0.6976692 7:0.79742862 8:0.52557475 9:0.67663167 10:0.73379564 11:0.7240282 12:0.75029874 13:0.70690359 14:0.80307735 15:0.83194412 16:0.83897907 17:0.81491386 18:0.36276792 19:0.40042708 20:0.15808351 21:0.13916817 22:0.56500382 23:0.51534011 24:0.44175099 25:0.42101967 26:0.40836542 27:0.51054189 28:0.18281044 29:0.33047006 30:0.37925658 31:0.41641578 32:0.22305285 33:0.28642737 34:0.55646249 35:0.64175829 36:0.70860379 37:0.34867271 
-4 1:0.8945355 2:0.91468207 3:0.7460553 4:0.79853377 5:0.77632804 6:0.6976692 7:0.79742862 8:0.6707577 9:0.77902808 10:0.79424732 11:0.75921497 12:0.81328933 13:0.87392164 14:0.93105719 15:0.90725487 16:0.88239948 17:0.8945355 18:0.53765383 19:0.5601501 20:0.15808351 21:0.13916817 22:0.82515132 23:0.51534011 24:0.44175099 25:0.42101967 26:0.40836542 27:0.51054189 28:0.35565431 29:0.52792476 30:0.53243764 31:0.52553978 32:0.4029359 33:0.54393836 34:0.87157 35:0.88728826 36:0.89372195 37:0.6151546 
-4 1:0.80347895 2:0.80124938 3:0.7460553 4:0.79853377 5:0.77632804 6:0.6976692 7:0.79742862 8:0.51377804 9:0.65865918 10:0.72383355 11:0.72001101 12:0.74127011 13:0.69330764 14:0.78061671 15:0.8194938 16:0.83400246 17:0.80347901 18:0.34398789 19:0.38327531 20:0.15808351 21:0.13916817 22:0.52816892 23:0.51534011 24:0.44175099 25:0.42101967 26:0.40836542 27:0.51054189 28:0.16967376 29:0.30494323 30:0.35298873 31:0.3928041 32:0.20681361 33:0.26681794 34:0.51561589 35:0.59953597 36:0.66846068 37:0.32456709 
1.7961230791347351 1:0.88612058 2:0.90422421 3:0.7460553 4:0.79853377 5:0.77632804 6:0.6976692 7:0.79742862 8:0.65587409 9:0.76843311 10:0.78753819 11:0.75559729 12:0.8066405 13:0.8568013 14:0.91781662 15:0.89888188 16:0.87792025 17:0.88612061 18:0.51463599 19:0.53912795 20:0.15808351 21:0.13916817 22:0.80009173 23:0.51534011 24:0.44175099 25:0.42101967 26:0.40836542 27:0.51054189 28:0.33031192 29:0.50879904 30:0.52155998 31:0.51941443 32:0.37882589 33:0.5061263 34:0.84106053 35:0.86986539 36:0.88333819 37:0.57939123 
2.425927811187933 1:0.33327141 2:0.28909383 3:0.53491011 4:0.82598851 5:1 6:0.96960641 7:1 8:0.10534544 9:0.14157081 10:0.32900819 11:0.62821756 12:0.45398428 13:0.37938045 14:0.12307826 15:0.24065604 16:0.55156806 17:0.33327141 18:0.091473249 19:0.13387389 20:0.88558556 21:1 22:0.16271063 23:0.92188212 24:0.88205293 25:0.81555554 26:0.76530119 27:0.94048107 28:0.046493985 29:0.11633614 30:0.17667047 31:0.26370392 32:0.067102377 33:0.050904474 34:0.12291849 35:0.18662963 36:0.27365504 37:0.071353693 
4 1:0.78151369 2:0.75456018 3:0.53491011 4:0.82598851 5:1 6:0.96960641 7:1 8:0.31184225 9:0.58380601 10:0.84569257 11:0.92962495 12:0.86311076 13:0.63968948 14:0.66562334 15:0.77897116 16:0.84866207 17:0.78151371 18:0.2876241 19:0.31301816 20:0.88558556 21:1 22:0.61495207 23:0.92188212 24:0.88205293 25:0.81555554 26:0.76530119 27:0.94048107 28:0.28261753 29:0.55861984 30:0.64864535 31:0.68177718 32:0.35609079 33:0.30034251 34:0.60207341 35:0.70899084 36:0.77611253 37:0.3723974 
1.8541106280660542 1:0.85648257 2:0.85369503 3:0.53491011 4:0.82598851 5:1 6:0.96960641 7:1 8:0.39973018 9:0.71964382 10:0.93568065 11:0.95077988 12:0.93152016 13:0.75047481 14:0.83194909 15:0.87276272 16:0.86963229 17:0.85648258 18:0.40964454 19:0.42445923 20:0.88558556 21:1 22:0.74290358 23:0.92188212 24:0.88205293 25:0.81555554 26:0.76530119 27:0.94048107 28:0.43327309 29:0.7104463 30:0.74218693 31:0.73572674 32:0.50731917 33:0.459506 34:0.7664735 35:0.81257458 36:0.84097164 37:0.52996402 
0.12913056039170656 1:0.7819109 2:0.76702718 3:0.53491011 4:0.82598851 5:1 6:0.96960641 7:1 8:0.33931843 9:0.61808387 10:0.854981 11:0.90974388 12:0.86356366 13:0.6743263 14:0.70743342 15:0.7886437 16:0.82898398 17:0.78191089 18:0.2643296 19:0.29174332 20:0.88558556 21:1 22:0.49612777 23:0.92188212 24:0.88205293 25:0.81555554 26:0.76530119 27:0.94048107 28:0.23830993 29:0.43842209 30:0.51667517 31:0.56762973 32:0.29332528 33:0.25333062 34:0.47152948 35:0.56266922 36:0.63867237 37:0.3067899 
-4 1:0.88254008 2:0.89262932 3:0.53491011 4:0.82598851 5:1 6:0.96960641 7:1 8:0.46101327 9:0.77036755 10:0.95705581 11:0.95992746 12:0.95516631 13:0.82775717 14:0.89423796 15:0.89520061 16:0.87878001 17:0.88254008 18:0.46168524 19:0.47198792 20:0.88558556 21:1 22:0.78885811 23:0.92188212 24:0.88205293 25:0.81555554 26:0.76530119 27:0.94048107 28:0.49420406 29:0.75597225 30:0.77462555 31:0.75768633 32:0.56554681 33:0.5240008 34:0.81592739 35:0.84864936 36:0.86751174 37:0.59077541 
-4 1:0.34570554 2:0.29901119 3:0.53491011 4:0.82598851 5:1 6:0.96960641 7:1 8:0.061377602 9:0.17439682 10:0.34949603 11:0.63205494 12:0.465983 13:0.323913 14:0.16330833 15:0.26117216 16:0.55422225 17:0.34570554 18:0.076757307 19:0.12043384 20:0.88558556 21:1 22:0.16934837 23:0.92188212 24:0.88205293 25:0.81555554 26:0.76530119 27:0.94048107 28:0.06028901 29:0.13070814 30:0.18501705 31:0.25515092 32:0.080876554 33:0.065239118 34:0.13765827 35:0.19449882 36:0.26169127 37:0.085348524 
4 1:0.3326921 2:0.34257204 3:0.53491011 4:0.82598851 5:1 6:0.96960641 7:1 8:0.17088119 9:0.30560919 10:0.43460401 11:0.49780217 12:0.45515155 13:0.46147252 14:0.32317576 15:0.34867952 16:0.42024608 17:0.33269213 18:0.012085829 19:0.061369486 20:0.88558556 21:1 22:0.14796447 23:0.92188212 24:0.88205293 25:0.81555554 26:0.76530119 27:0.94048107 28:0.083013579 29:0.14294875 30:0.15795041 31:0.17732257 32:0.09923891 33:0.089662529 34:0.15141247 35:0.16468571 36:0.16779764 37:0.10493053 
-4 1:0.76012633 2:0.74368815 3:0.53491011 4:0.82598851 5:1 6:0.96960641 7:1 8:0.32737783 9:0.59374936 10:0.83067231 11:0.89424607 12:0.84292895 13:0.65925074 14:0.67806054 15:0.76414183 16:0.81432111 17:0.76012636 18:0.24473932 19:0.27385155 20:0.88558556 21:1 22:0.47677382 23:0.92188212 24:0.88205293 25:0.81555554 26:0.76530119 27:0.94048107 28:0.22850542 29:0.41952639 30:0.49489601 31:0.54670572 32:0.28110639 33:0.24361756 34:0.45248473 35:0.54006426 36:0.61491953 37:0.29485164 
4 1:0.87333773 2:0.8817375 3:0.53491011 4:0.82598851 5:1 6:0.96960641 7:1 8:0.4529345 9:0.75775215 10:0.94618465 11:0.95530217 12:0.94665121 13:0.81755244 14:0.87881253 15:0.88401429 16:0.87432343 17:0.87333776 18:0.44212371 19:0.4541224 20:0.88558556 21:1 22:0.77217992 23:0.92188212 24:0.88205293 25:0.81555554 26:0.76530119 27:0.94048107 28:0.47591735 29:0.73505319 30:0.76138876 31:0.75040061 32:0.54667917 33:0.50501194 34:0.79367229 35:0.8342813 36:0.85894217 37:0.57146513 
-4 1:0.64830109 2:0.59929385 3:0.53491011 4:0.82598851 5:1 6:0.96960641 7:1 8:0.18946566 9:0.40985592 10:0.70657591 11:0.85384434 12:0.74265449 13:0.48525859 14:0.45147035 15:0.63268566 16:0.77285763 17:0.64830109 18:0.12197263 19:0.16172893 20:0.88558556 21:1 22:0.26907938 23:0.92188212 24:0.88205293 25:0.81555554 26:0.76530119 27:0.94048107 28:0.10399963 29:0.21637201 30:0.28922563 31:0.36619199 32:0.13607902 33:0.11131688 34:0.23029764 35:0.30974124 36:0.39517928 37:0.14273768 
-4 1:0.8820851 2:0.86574276 3:0.53491011 4:0.82598851 5:1 6:0.96960641 7:1 8:0.37394132 9:0.70528252 10:0.95856539 11:0.9900997 12:0.95497361 13:0.71795516 14:0.81422187 15:0.89662007 16:0.90853725 17:0.88208514 18:0.24246854 19:0.27177765 20:0.88558556 21:1 22:0.7191335 23:0.92188212 24:0.88205293 25:0.81555554 26:0.76530119 27:0.94048107 28:0.37338066 29:0.67642121 30:0.7354447 31:0.74983913 32:0.45334079 33:0.39607202 34:0.72982696 35:0.8054742 36:0.85834403 37:0.47361475 
-3.6971590651164483 1:0.13670507 2:0.12090689 3:0.53491011 4:0.82598851 5:1 6:0.96960641 7:1 8:0.033016898 9:0.06678179 10:0.19027721 11:0.3968147 12:0.2752798 13:0.28820154 14:0.03130357 15:0.095312461 16:0.32169374 17:0.13670507 19:0.050331517 20:0.88558556 21:1 22:0.027325165 23:0.92188212 24:0.88205293 25:0.81555554 26:0.76530119 27:0.94048107 28:0.016807072 29:0.026594428 30:0.034959717 31:0.06419184 32:0.019949142 33:0.01945306 34:0.025175841 35:0.028691623 36:0.032560178 37:0.022064189 
-4 1:0.79939855 2:0.7885886 3:0.53491011 4:0.82598851 5:1 6:0.96960641 7:1 8:0.3630046 9:0.64088271 10:0.87343292 11:0.91877636 12:0.87937983 13:0.70418887 14:0.7354531 15:0.80791043 16:0.83817985 17:0.79939851 18:0.30100947 19:0.32524299 20:0.88558556 21:1 22:0.62113317 23:0.92188212 24:0.88205293 25:0.81555554 26:0.76530119 27:0.94048107 28:0.3154391 29:0.57619709 30:0.64130996 31:0.66200481 32:0.38490273 33:0.33495916 34:0.62130014 35:0.70115971 36:0.75255211 37:0.4024044 
-4 1:0.75589466 2:0.73802607 3:0.53491011 4:0.82598851 5:1 6:0.96960641 7:1 8:0.33257578 9:0.58041515 10:0.82113489 11:0.89689851 12:0.83909124 13:0.66585266 14:0.66185129 15:0.75424044 16:0.81672254 17:0.75589467 18:0.26761675 19:0.29474547 20:0.88558556 21:1 22:0.52645937 23:0.92188212 24:0.88205293 25:0.81555554 26:0.76530119 27:0.94048107 28:0.24731998 29:0.46903691 30:0.54940291 31:0.5961545 32:0.30744444 33:0.26364747 34:0.50613241 35:0.60020623 36:0.67402954 37:0.3224145 
-4 1:0.58565809 2:0.54671291 3:0.53491011 4:0.82598851 5:1 6:0.96960641 7:1 8:0.1906161 9:0.37953224 10:0.64483141 11:0.78884912 12:0.68447219 13:0.48687609 14:0.41471973 15:0.56964795 16:0.71002884 17:0.5856581 18:0.10417807 19:0.14547718 20:0.88558556 21:1 22:0.30107616 23:0.92188212 24:0.88205293 25:0.81555554 26:0.76530119 27:0.94048107 28:0.11812231 29:0.25305332 30:0.3252133 31:0.38586864 32:0.15537562 33:0.12654483 34:0.27133977 35:0.35151372 36:0.42101559 37:0.16334089 
-4 1:0.7537924 2:0.73521469 3:0.53491011 4:0.82598851 5:1 6:0.96960641 7:1 8:0.33060229 9:0.57765858 10:0.81599122 11:0.89907612 12:0.83790412 13:0.66334799 14:0.65786907 15:0.74799965 16:0.81851743 17:0.75379244 18:0.23691275 19:0.26670356 20:0.88558556 21:1 22:0.53674239 23:0.92188212 24:0.88205293 25:0.81555554 26:0.76530119 27:0.94048107 28:0.24335442 29:0.47663191 30:0.5632675 31:0.61615386 32:0.30635033 33:0.25888917 34:0.51355674 35:0.61475133 36:0.69724672 37:0.32064917 
-4 1:0.78736844 2:0.77684626 3:0.53491011 4:0.82598851 5:1 6:0.96960641 7:1 8:0.35460483 9:0.63490342 10:0.85970672 11:0.90904087 12:0.86848017 13:0.69360373 14:0.72809245 15:0.79356207 16:0.82837095 17:0.78736841 18:0.2801194 19:0.30616412 20:0.88558556 21:1 22:0.53399457 23:0.92188212 24:0.88205293 25:0.81555554 26:0.76530119 27:0.94048107 28:0.27240891 29:0.47899296 30:0.54991086 31:0.59140066 32:0.32923818 33:0.28948018 34:0.51569772 35:0.59967617 36:0.66745382 37:0.34435258 
-4 1:0.88034406 2:0.89095474 3:0.53491011 4:0.82598851 5:1 6:0.96960641 7:1 8:0.46198003 9:0.76984792 10:0.95427907 11:0.95794897 12:0.9532176 13:0.82895479 14:0.89353535 15:0.892242 16:0.87680015 17:0.88034409 18:0.46213396 19:0.47239773 20:0.88558556 21:1 22:0.79291435 23:0.92188212 24:0.88205293 25:0.81555554 26:0.76530119 27:0.94048107 28:0.50329016 29:0.75962526 30:0.77617762 31:0.7583016 32:0.57352935 33:0.53349434 34:0.81968885 35:0.85021137 36:0.86813759 37:0.59897256 
4 1:0.76810747 2:0.75181427 3:0.53491011 4:0.82598851 5:1 6:0.96960641 7:1 8:0.33007017 9:0.60166701 10:0.84008578 11:0.900628 12:0.85074871 13:0.66268179 14:0.68747333 15:0.77337689 16:0.82016585 17:0.76810752 18:0.25632865 19:0.28443607 20:0.88558556 21:1 22:0.48027229 23:0.92188212 24:0.88205293 25:0.81555554 26:0.76530119 27:0.94048107 28:0.23030923 29:0.42271865 30:0.49954593 31:0.5519217 32:0.28334713 33:0.24514967 34:0.45503853 35:0.54422826 36:0.62027752 37:0.29671544 
-3.9507994208684711 1:0.87517154 2:0.88297744 3:0.53491011 4:0.82598851 5:1 6:0.96960641 7:1 8:0.44935051 9:0.75887065 10:0.95007301 11:0.95650392 12:0.94854109 13:0.81303642 14:0.88005625 15:0.88783098 16:0.87532614 17:0.87517156 18:0.45089747 19:0.46213546 20:0.88558556 21:1 22:0.78083079 23:0.92188212 24:0.88205293 25:0.81555554 26:0.76530119 27:0.94048107 28:0.48463396 29:0.74708421 30:0.76892389 31:0.75425672 32:0.5560795 33:0.51371163 34:0.80607245 35:0.84217004 36:0.86327347 37:0.58072114 
0.048805581909958026 1:0.93158211 2:0.96750829 3:0.53491011 4:0.82598851 5:1 6:0.96960641 7:1 8:0.59766917 9:0.85675793 10:1 11:0.97685674 12:1 13:1 14:1 15:0.9398872 16:0.89547136 17:0.93158213 18:0.61954526 19:0.61616122 20:0.88558556 21:1 22:0.99999963 23:0.92188212 24:0.88205293 25:0.81555554 26:0.76530119 27:0.94048107 28:0.94553051 29:0.91572895 30:0.86266911 31:0.80749224 32:0.95901041 33:0.99999987 34:0.98820134 35:0.94566124 36:0.92711581 37:1 
4 1:0.42009102 2:0.35898351 3:0.53491011 4:0.82598851 5:1 6:0.96960641 7:1 8:0.073798678 9:0.18079997 10:0.43226453 11:0.70872352 12:0.53358573 13:0.33960619 14:0.17111948 15:0.34773712 16:0.63068267 17:0.42009106 18:0.10421107 19:0.14550732 20:0.88558556 21:1 22:0.16912714 23:0.92188212 24:0.88205293 25:0.81555554 26:0.76530119 27:0.94048107 28:0.057167 29:0.12365806 30:0.18144593 31:0.26516882 32:0.077127265 33:0.062069149 34:0.13044692 35:0.19127408 36:0.27485206 37:0.081632136 
4 1:0.75641339 2:0.71929955 3:0.53491011 4:0.82598851 5:1 6:0.96960641 7:1 8:0.25310032 9:0.53009525 10:0.85535163 11:0.90234186 12:0.84024725 13:0.56564938 14:0.59948827 15:0.78919821 16:0.82197351 17:0.75641341 18:0.27240602 19:0.2991195 20:0.88558556 21:1 22:0.5410414 23:0.92188212 24:0.88205293 25:0.81555554 26:0.76530119 27:0.94048107 28:0.23701086 29:0.49171642 30:0.57228417 31:0.61498965 32:0.30420103 33:0.25175774 34:0.52913808 35:0.62440572 36:0.69593004 37:0.31792576 
4 1:0.74687402 2:0.72432337 3:0.53491011 4:0.82598851 5:1 6:0.96960641 7:1 8:0.29164148 9:0.57129241 10:0.82315992 11:0.88626407 12:0.8306732 13:0.61428055 14:0.65064325 15:0.75658162 16:0.80665809 17:0.74687404 18:0.23941967 19:0.26899312 20:0.88558556 21:1 22:0.46039781 23:0.92188212 24:0.88205293 25:0.81555554 26:0.76530119 27:0.94048107 28:0.21495355 29:0.4039115 30:0.47951904 31:0.53303957 32:0.26678555 33:0.22942812 34:0.43595274 35:0.52347459 36:0.59892682 37:0.28010683 
4 1:0.87332518 2:0.88089424 3:0.53491011 4:0.82598851 5:1 6:0.96960641 7:1 8:0.44857235 9:0.75621919 10:0.94777762 11:0.9551806 12:0.94662075 13:0.81205151 14:0.87697169 15:0.88567739 16:0.87417894 17:0.8733252 18:0.44490806 19:0.45666534 20:0.88558556 21:1 22:0.77458347 23:0.92188212 24:0.88205293 25:0.81555554 26:0.76530119 27:0.94048107 28:0.48071224 29:0.73861751 30:0.76214887 31:0.74959578 32:0.55115678 33:0.51022394 34:0.79762371 35:0.83517966 36:0.85801522 37:0.57626996 
4 1:0.75894485 2:0.73985114 3:0.53491011 4:0.82598851 5:1 6:0.96960641 7:1 8:0.31509852 9:0.587863 10:0.8313634 11:0.89610999 12:0.84242601 13:0.6438184 14:0.67053671 15:0.7642533 16:0.81565973 17:0.75894488 18:0.25154548 19:0.2800676 20:0.88558556 21:1 22:0.46672371 23:0.92188212 24:0.88205293 25:0.81555554 26:0.76530119 27:0.94048107 28:0.22186692 29:0.40924706 30:0.48647237 31:0.54042391 32:0.2736093 33:0.23616598 34:0.44028048 35:0.52955387 36:0.60622454 37:0.28648641 
4 1:0.88340095 2:0.89384749 3:0.53491011 4:0.82598851 5:1 6:0.96960641 7:1 8:0.4637456 9:0.77132726 10:0.95754199 11:0.96071776 12:0.95603433 13:0.83119027 14:0.89533101 15:0.89563415 16:0.87951389 17:0.88340098 18:0.47363834 19:0.48290466 20:0.88558556 21:1 22:0.80707237 23:0.92188212 24:0.88205293 25:0.81555554 26:0.76530119 27:0.94048107 28:0.51504059 29:0.7763059 30:0.78878803 31:0.7669792 32:0.58641935 33:0.54586117 34:0.83766376 35:0.86411709 36:0.87854449 37:0.61234703 
-4 1:0.81369804 2:0.80660988 3:0.63371865 4:0.75152949 5:0.71115994 6:0.53092975 7:0.67796066 8:0.40667271 9:0.61239972 10:0.69075415 11:0.61739913 12:0.66517709 13:0.66640401 14:0.76176213 15:0.83724384 16:0.85830061 17:0.81369803 18:0.41269528 19:0.42266808 20:0.34719217 21:0.43017169 22:0.72506486 23:0.20325872 24:0.18671268 25:0.19084484 26:0.18729048 27:0.19906668 28:0.18751829 29:0.30539282 30:0.32883917 31:0.34176536 32:0.21965513 33:0.44216939 34:0.73863266 35:0.79649453 36:0.83353446 37:0.51256429 
-1.0558807672948256 1:0.88015606 2:0.89715079 3:0.63371865 4:0.75152949 5:0.71115994 6:0.53092975 7:0.67796066 8:0.54650464 9:0.72604909 10:0.73636103 11:0.62836971 12:0.71275681 13:0.83510407 14:0.90956813 15:0.89789595 16:0.87444157 17:0.88015608 18:0.53310201 19:0.53263536 20:0.34719217 21:0.43017169 22:0.80186368 23:0.20325872 24:0.18671268 25:0.19084484 26:0.18729048 27:0.19906668 28:0.24545708 29:0.34720775 30:0.35274585 31:0.35326602 32:0.27438323 33:0.56741497 34:0.83006129 35:0.84806123 36:0.85949055 37:0.62866003 
-4 1:0.82072122 2:0.8310887 3:0.63371865 4:0.75152949 5:0.71115994 6:0.53092975 7:0.67796066 8:0.4846459 9:0.6684886 10:0.69103835 11:0.59941068 12:0.670045 13:0.76020133 14:0.83416761 15:0.83789201 16:0.83240062 17:0.82072122 18:0.3843431 19:0.39677409 20:0.34719217 21:0.43017169 22:0.59972304 23:0.20325872 24:0.18671268 25:0.19084484 26:0.18729048 27:0.19906668 28:0.16318728 29:0.24412105 30:0.26088184 31:0.2764028 32:0.18615525 33:0.38848591 34:0.60322964 35:0.64838824 36:0.684085 37:0.44034944 
4 1:0.31753089 2:0.28646781 3:0.63371865 4:0.75152949 5:0.71115994 6:0.53092975 7:0.67796066 8:0.077420891 9:0.16643012 10:0.30173462 11:0.35072634 12:0.30850423 13:0.27022893 14:0.18406566 15:0.32305766 16:0.4712945 17:0.31753091 18:0.1274016 19:0.16210982 20:0.34719217 21:0.43017169 22:0.27308295 23:0.20325872 24:0.18671268 25:0.19084484 26:0.18729048 27:0.19906668 28:0.070408692 29:0.092047028 30:0.095604792 31:0.11219046 32:0.077150789 33:0.18746288 34:0.26960929 35:0.29027159 36:0.31066866 37:0.20853296 
-4 1:0.67365792 2:0.67278652 3:0.63371865 4:0.75152949 5:0.71115994 6:0.53092975 7:0.67796066 8:0.36304589 9:0.52471098 10:0.58183966 11:0.52122336 12:0.56350185 13:0.61376742 14:0.64795865 15:0.69529329 16:0.72078682 17:0.67365795 18:0.2502363 19:0.27429456 20:0.34719217 21:0.43017169 22:0.53005002 23:0.20325872 24:0.18671268 25:0.19084484 26:0.18729048 27:0.19906668 28:0.13425472 29:0.20992104 30:0.2286309 31:0.2485788 32:0.15547198 33:0.32597985 34:0.52855357 35:0.57902903 36:0.62147159 37:0.37529743 
-4 1:0.76119351 2:0.76431073 3:0.63371865 4:0.75152949 5:0.71115994 6:0.53092975 7:0.67796066 8:0.42148927 9:0.60740256 10:0.64699509 11:0.570123 12:0.62691598 13:0.68349824 14:0.75411026 15:0.78032896 16:0.79040386 17:0.76119354 18:0.31569397 19:0.33407694 20:0.34719217 21:0.43017169 22:0.51766491 23:0.20325872 24:0.18671268 25:0.19084484 26:0.18729048 27:0.19906668 28:0.13562367 29:0.20386138 30:0.2205553 31:0.23979447 32:0.15510583 33:0.32876885 34:0.51517721 35:0.56138977 36:0.60126802 37:0.37437204 
-4 1:0.79031698 2:0.76790797 3:0.63371865 4:0.75152949 5:0.71115994 6:0.53092975 7:0.67796066 8:0.30137264 9:0.56025184 10:0.7001641 11:0.60652894 12:0.64825336 13:0.54004971 14:0.69438768 15:0.84983234 16:0.84289865 17:0.79031703 18:0.19371412 19:0.22267294 20:0.34719217 21:0.43017169 22:0.51949252 23:0.20325872 24:0.18671268 25:0.19084484 26:0.18729048 27:0.19906668 28:0.12414893 29:0.20459206 30:0.22594263 31:0.2488867 32:0.14634803 33:0.30392995 34:0.51652713 35:0.57274354 36:0.62161391 37:0.35570891 
4 1:0.92243047 2:0.91382756 3:0.63371865 4:0.75152949 5:0.71115994 6:0.53092975 7:0.67796066 8:0.42823293 9:0.69861513 10:0.78919741 11:0.67614303 12:0.74317656 13:0.6930145 14:0.87445099 15:0.96766033 16:0.94414397 17:0.92243046 18:0.23088925 19:0.25662493 20:0.34719217 21:0.43017169 22:0.83141802 23:0.20325872 24:0.18671268 25:0.19084484 26:0.18729048 27:0.19906668 28:0.22165672 29:0.36559054 30:0.37906561 31:0.38383159 32:0.25985319 33:0.51630513 34:0.87093569 35:0.9055928 36:0.9294852 37:0.59822665 
-4 1:0.1250531 2:0.098875741 3:0.63371865 4:0.75152949 5:0.71115994 6:0.53092975 7:0.67796066 8:0.018691674 9:0.041615784 10:0.1193355 11:0.24365494 12:0.16987642 13:0.19981334 14:0.023821679 15:0.082860059 16:0.3145016 17:0.12505308 18:0.057897904 19:0.098632205 20:0.34719217 21:0.43017169 22:0.22167231 23:0.20325872 24:0.18671268 25:0.19084484 26:0.18729048 27:0.19906668 28:0.063592256 29:0.072285634 30:0.067666923 31:0.076744914 32:0.066769809 33:0.17265033 34:0.226043 35:0.22941276 36:0.22964749 37:0.18638663 
-4 1:0.81607863 2:0.82263666 3:0.63371865 4:0.75152949 5:0.71115994 6:0.53092975 7:0.67796066 8:0.47480477 9:0.64883911 10:0.68753571 11:0.60296142 12:0.66676574 13:0.74787866 14:0.80830557 15:0.8332853 16:0.83745725 17:0.81607863 18:0.39258623 19:0.40430252 20:0.34719217 21:0.43017169 22:0.70800499 23:0.20325872 24:0.18671268 25:0.19084484 26:0.18729048 27:0.19906668 28:0.19317968 29:0.29852127 30:0.31592916 31:0.32647788 32:0.22232301 33:0.4538609 34:0.72306426 35:0.76822986 36:0.79859884 37:0.51768932 
-4 1:0.81026423 2:0.81585664 3:0.63371865 4:0.75152949 5:0.71115994 6:0.53092975 7:0.67796066 8:0.46607144 9:0.64381916 10:0.68093604 11:0.60145729 12:0.6625001 13:0.73761964 14:0.80192553 15:0.82471019 16:0.83537898 17:0.81026426 18:0.41687168 19:0.42648238 20:0.34719217 21:0.43017169 22:0.66106083 23:0.20325872 24:0.18671268 25:0.19084484 26:0.18729048 27:0.19906668 28:0.17628065 29:0.2732857 30:0.29379301 31:0.30914916 32:0.20335446 33:0.41653337 34:0.667213 35:0.71982873 36:0.75874635 37:0.47668504 
0.34233965146807854 1:0.3428936 2:0.30367773 3:0.63371865 4:0.75152949 5:0.71115994 6:0.53092975 7:0.67796066 8:0.065425912 9:0.15659692 10:0.31096091 11:0.38494177 12:0.32639422 13:0.25598332 14:0.17211144 15:0.33594665 16:0.52234787 17:0.34289356 18:0.13086386 19:0.1652719 20:0.34719217 21:0.43017169 22:0.3373622 23:0.20325872 24:0.18671268 25:0.19084484 26:0.18729048 27:0.19906668 28:0.082767017 29:0.11818473 30:0.12965906 31:0.15326751 32:0.093379878 33:0.21393387 34:0.32646084 35:0.36365877 36:0.40394467 37:0.24265263 
4 1:0.71364266 2:0.70084716 3:0.63371865 4:0.75152949 5:0.71115994 6:0.53092975 7:0.67796066 8:0.34716159 9:0.51662793 10:0.60518506 11:0.56903801 12:0.59297788 13:0.5944988 14:0.6372822 15:0.72467821 16:0.78833832 17:0.71364272 18:0.29836768 19:0.31825287 20:0.34719217 21:0.43017169 22:0.64228044 23:0.20325872 24:0.18671268 25:0.19084484 26:0.18729048 27:0.19906668 28:0.16139274 29:0.25961125 30:0.28728854 31:0.31041532 32:0.18882124 33:0.3848253 34:0.63759773 35:0.7061275 36:0.76208369 37:0.44629464 
-4 1:0.82142777 2:0.83394617 3:0.63371865 4:0.75152949 5:0.71115994 6:0.53092975 7:0.67796066 8:0.50143278 9:0.67001244 10:0.68926477 11:0.59919784 12:0.67050889 13:0.78058341 14:0.83633579 15:0.83570961 16:0.83208749 17:0.82142778 18:0.38605186 19:0.39833469 20:0.34719217 21:0.43017169 22:0.61460621 23:0.20325872 24:0.18671268 25:0.19084484 26:0.18729048 27:0.19906668 28:0.17270997 29:0.25093392 30:0.26635948 31:0.28052855 32:0.19522814 33:0.40911239 34:0.61827572 35:0.66039077 36:0.69361942 37:0.45965918 
4 1:0.89427018 2:0.91751189 3:0.63371865 4:0.75152949 5:0.71115994 6:0.53092975 7:0.67796066 8:0.58935557 9:0.74804577 10:0.74390308 11:0.6315566 12:0.72291638 13:0.88670525 14:0.93815574 15:0.90785036 16:0.87906637 17:0.89427021 18:0.56112968 19:0.55823299 20:0.34719217 21:0.43017169 22:0.83044959 23:0.20325872 24:0.18671268 25:0.19084484 26:0.18729048 27:0.19906668 28:0.26750308 29:0.35902536 30:0.36172882 31:0.36024713 32:0.29453137 33:0.61523455 34:0.85616722 35:0.867705 36:0.87552785 37:0.67159651 
-4 1:0.81081441 2:0.82091617 3:0.63371865 4:0.75152949 5:0.71115994 6:0.53092975 7:0.67796066 8:0.48336148 9:0.65674295 10:0.68333528 11:0.59443827 12:0.66291504 13:0.75877022 14:0.81909419 15:0.82771828 16:0.82507853 17:0.81081441 18:0.37211574 19:0.38560685 20:0.34719217 21:0.43017169 22:0.583864 23:0.20325872 24:0.18671268 25:0.19084484 26:0.18729048 27:0.19906668 28:0.15903644 29:0.23583309 30:0.25254815 31:0.26889199 32:0.18098418 33:0.37974066 34:0.58529462 35:0.63052732 36:0.66714981 37:0.42960495 
4 1:0.89032514 2:0.91257045 3:0.63371865 4:0.75152949 5:0.71115994 6:0.53092975 7:0.67796066 8:0.58048341 9:0.74413485 10:0.74148861 11:0.6297861 12:0.72008415 13:0.87606761 14:0.93311355 15:0.90463858 16:0.87645595 17:0.89032517 18:0.54701842 19:0.5453452 20:0.34719217 21:0.43017169 22:0.80803243 23:0.20325872 24:0.18671268 25:0.19084484 26:0.18729048 27:0.19906668 28:0.25333845 29:0.34802587 30:0.35350813 31:0.35429466 32:0.28088686 33:0.58461116 34:0.83204417 35:0.84986547 36:0.86194623 37:0.64262775 
-4 1:0.93158211 2:0.96750829 3:0.63371865 4:0.75152949 5:0.71115994 6:0.53092975 7:0.67796066 8:0.68314452 9:0.79546506 10:0.76810318 11:0.64282558 12:0.74972634 13:1 14:1 15:0.9398872 16:0.89547136 17:0.93158213 18:0.68839609 19:0.6744652 20:0.34719217 21:0.43017169 22:0.99999617 23:0.20325872 24:0.18671268 25:0.19084484 26:0.18729048 27:0.19906668 28:0.44445246 29:0.4189207 30:0.39753116 31:0.38282078 32:0.44841247 33:0.99999804 34:0.98819776 35:0.94565725 36:0.92711178 37:0.99999755 
-4 1:0.76883726 2:0.75170892 3:0.63371865 4:0.75152949 5:0.71115994 6:0.53092975 7:0.67796066 8:0.32259693 9:0.55458968 10:0.6778452 11:0.59051562 12:0.63299652 13:0.56545687 14:0.68742421 15:0.82030235 16:0.81886604 17:0.76883727 18:0.39095346 19:0.40281132 20:0.34719217 21:0.43017169 22:0.63907711 23:0.20325872 24:0.18671268 25:0.19084484 26:0.18729048 27:0.19906668 28:0.15410483 29:0.26631251 30:0.28802967 31:0.30504792 32:0.18409418 33:0.36922698 34:0.65215668 35:0.70747121 36:0.74954476 37:0.43635116 
-4 1:0.79058882 2:0.78654231 3:0.63371865 4:0.75152949 5:0.71115994 6:0.53092975 7:0.67796066 8:0.37536278 9:0.6241075 10:0.68236225 11:0.58856266 12:0.64827529 13:0.62879342 14:0.77673223 15:0.82667007 16:0.81684413 17:0.79058884 18:0.36563073 19:0.3796841 20:0.34719217 21:0.43017169 22:0.58171559 23:0.20325872 24:0.18671268 25:0.19084484 26:0.18729048 27:0.19906668 28:0.15027562 29:0.23710634 30:0.25434895 31:0.27105431 32:0.17427292 33:0.36046426 34:0.5879381 35:0.63444562 36:0.67220336 37:0.41505222 
4 1:0.88617459 2:0.90753834 3:0.63371865 4:0.75152949 5:0.71115994 6:0.53092975 7:0.67796066 8:0.57404212 9:0.7392857 10:0.73811825 11:0.62835247 12:0.71707322 13:0.8682856 14:0.92674676 15:0.90024197 16:0.87443438 17:0.88617455 18:0.54402628 19:0.54261248 20:0.34719217 21:0.43017169 22:0.81746682 23:0.20325872 24:0.18671268 25:0.19084484 26:0.18729048 27:0.19906668 28:0.25874098 29:0.35245373 30:0.35705658 31:0.35726784 32:0.28615538 33:0.59627496 34:0.84189892 35:0.85773039 36:0.86888873 37:0.65383764 
-4 1:0.8233668 2:0.83452427 3:0.63371865 4:0.75152949 5:0.71115994 6:0.53092975 7:0.67796066 8:0.49267777 9:0.66976761 10:0.69239828 11:0.60101233 12:0.67194654 13:0.77012433 14:0.83623518 15:0.83974839 16:0.83455534 17:0.82336686 18:0.39170689 19:0.40349942 20:0.34719217 21:0.43017169 22:0.6075395 23:0.20325872 24:0.18671268 25:0.19084484 26:0.18729048 27:0.19906668 28:0.16784721 29:0.24735096 30:0.26367588 31:0.27879649 32:0.19058602 33:0.39895128 34:0.61071264 35:0.65478325 36:0.68981384 37:0.45015273 
4 1:0.88885704 2:0.91071726 3:0.63371865 4:0.75152949 5:0.71115994 6:0.53092975 7:0.67796066 8:0.5790675 9:0.74133213 10:0.74011363 11:0.6296947 12:0.71902631 13:0.87440767 14:0.92950918 15:0.9028332 16:0.8763048 17:0.88885709 18:0.55045657 19:0.54848525 20:0.34719217 21:0.43017169 22:0.82439227 23:0.20325872 24:0.18671268 25:0.19084484 26:0.18729048 27:0.19906668 28:0.26217959 29:0.35558185 30:0.36000243 31:0.35981096 32:0.2895971 33:0.60398226 34:0.8488035 35:0.86408809 36:0.87462048 37:0.66135942 
-2.6251769534756959 1:0.31440139 2:0.28655177 3:0.44800338 4:0.53554057 5:0.5419417 6:0.43495047 7:0.52261423 8:0.075892818 9:0.08788765 10:0.17714822 11:0.33082719 12:0.24374064 13:0.41428812 14:0.1748842 15:0.22465129 16:0.50571156 17:0.31440139 18:0.17494382 19:0.19377353 20:0.41779317 21:0.47133978 22:0.17079023 23:0.66186282 24:0.51638885 25:0.44745179 26:0.39519343 27:0.64379081 28:0.022217014 29:0.073313375 30:0.11214565 31:0.16970077 32:0.036599367 33:0.037290539 34:0.12927814 35:0.20349606 36:0.29616311 37:0.059349349 
-4 1:0.83202986 2:0.83077608 3:0.44800338 4:0.53554057 5:0.5419417 6:0.43495047 7:0.52261423 8:0.30665566 9:0.48659481 10:0.58036595 11:0.54832408 12:0.56705401 13:0.71696855 14:0.79562589 15:0.85804018 16:0.8603014 17:0.83202986 18:0.43690804 19:0.43302504 20:0.41779317 21:0.47133978 22:0.69576032 23:0.66186282 24:0.51638885 25:0.44745179 26:0.39519343 27:0.64379081 28:0.24244037 29:0.48286193 30:0.49788095 31:0.48465602 32:0.3025635 33:0.32307065 34:0.73441681 35:0.80421204 36:0.83918738 37:0.40772782 
4 1:0.7113834 2:0.68988022 3:0.44800338 4:0.53554057 5:0.5419417 6:0.43495047 7:0.52261423 8:0.20318719 9:0.35363969 10:0.49865884 11:0.50899084 12:0.49192543 13:0.58123261 14:0.5886193 15:0.72922134 16:0.79554903 17:0.71138342 18:0.28869194 19:0.2976595 20:0.41779317 21:0.47133978 22:0.40314264 23:0.66186282 24:0.51638885 25:0.44745179 26:0.39519343 27:0.64379081 28:0.098080707 29:0.23731732 30:0.29257422 31:0.33282814 32:0.13469192 33:0.13577696 34:0.37140536 35:0.48415749 36:0.57707192 37:0.18785732 
-4 1:0.8559388 2:0.86630906 3:0.44800338 4:0.53554057 5:0.5419417 6:0.43495047 7:0.52261423 8:0.36723053 9:0.52663871 10:0.58989188 11:0.55141017 12:0.58186676 13:0.79641381 14:0.85815327 15:0.87320123 16:0.86543935 17:0.85593884 18:0.4737998 19:0.46671822 20:0.41779317 21:0.47133978 22:0.74267267 23:0.66186282 24:0.51638885 25:0.44745179 26:0.39519343 27:0.64379081 28:0.30352823 29:0.5161676 30:0.51729711 31:0.49651815 32:0.35818118 33:0.4023492 34:0.78387547 35:0.83463036 36:0.8597695 37:0.48065429 
-4 1:0.44674468 2:0.40624829 3:0.44800338 4:0.53554057 5:0.5419417 6:0.43495047 7:0.52261423 8:0.05909678 9:0.13910491 10:0.2978632 11:0.40156325 12:0.32705961 13:0.39222415 14:0.25442001 15:0.41334144 16:0.61911662 17:0.44674466 18:0.19061684 19:0.20808767 20:0.41779317 21:0.47133978 22:0.20464906 23:0.66186282 24:0.51638885 25:0.44745179 26:0.39519343 27:0.64379081 28:0.039631567 29:0.10335652 30:0.14002766 31:0.18291498 32:0.056996875 33:0.059902208 34:0.1732197 35:0.24607216 36:0.3178096 37:0.086040478 
-1.3673132342323033 1:0.47924947 2:0.44073205 3:0.44800338 4:0.53554057 5:0.5419417 6:0.43495047 7:0.52261423 8:0.073535601 9:0.16281939 10:0.32899497 11:0.41223463 12:0.34755499 13:0.41115337 14:0.29130109 15:0.46198702 16:0.63589474 17:0.47924949 18:0.15772322 19:0.17804597 20:0.41779317 21:0.47133978 22:0.17348967 23:0.66186282 24:0.51638885 25:0.44745179 26:0.39519343 27:0.64379081 28:0.035679581 29:0.089597277 30:0.116544 31:0.14842842 32:0.050133714 33:0.054774893 34:0.15286818 35:0.2094307 36:0.25820337 37:0.077049966 
4 1:0.69254873 2:0.66931889 3:0.44800338 4:0.53554057 5:0.5419417 6:0.43495047 7:0.52261423 8:0.19473583 9:0.33660827 10:0.48093419 11:0.50295984 12:0.4796598 13:0.57019902 14:0.56275151 15:0.702471 16:0.78629732 17:0.69254875 18:0.27715653 19:0.28712423 20:0.41779317 21:0.47133978 22:0.41021134 23:0.66186282 24:0.51638885 25:0.44745179 26:0.39519343 27:0.64379081 28:0.099322619 29:0.23973081 30:0.29746009 31:0.34126995 32:0.13639326 33:0.13732285 34:0.37504027 35:0.49190054 36:0.59178138 37:0.19002868 
4 1:0.8552747 2:0.86505167 3:0.44800338 4:0.53554057 5:0.5419417 6:0.43495047 7:0.52261423 8:0.36723915 9:0.52356292 10:0.5889 11:0.55226271 12:0.58143828 13:0.79643082 14:0.85339895 15:0.87169026 16:0.86682397 17:0.85527472 18:0.47616871 19:0.46888174 20:0.41779317 21:0.47133978 22:0.7606354 23:0.66186282 24:0.51638885 25:0.44745179 26:0.39519343 27:0.64379081 28:0.32729998 29:0.52866177 30:0.52441695 31:0.50148533 32:0.37973028 33:0.43316913 34:0.8022706 35:0.84568718 36:0.86832437 37:0.50884491 
4 1:0.65925174 2:0.62193706 3:0.44800338 4:0.53554057 5:0.5419417 6:0.43495047 7:0.52261423 8:0.13183802 9:0.27945291 10:0.46500458 11:0.49979793 12:0.45962599 13:0.48761185 14:0.47287989 15:0.67590803 16:0.78011032 17:0.65925171 18:0.18790628 19:0.20561212 20:0.41779317 21:0.47133978 22:0.33321159 23:0.66186282 24:0.51638885 25:0.44745179 26:0.39519343 27:0.64379081 28:0.070488049 29:0.18323137 30:0.23923843 31:0.29126236 32:0.10066462 33:0.099973878 34:0.2913737 35:0.4008756 36:0.5051164 37:0.14328268 
-4 1:0.83974711 2:0.82218134 3:0.44800338 4:0.53554057 5:0.5419417 6:0.43495047 7:0.52261423 8:0.24842951 9:0.45045865 10:0.59341452 11:0.56861658 12:0.57223393 13:0.64050851 14:0.73895739 15:0.87819423 16:0.89266606 17:0.83974712 18:0.24595548 19:0.25862836 20:0.41779317 21:0.47133978 22:0.72513812 23:0.66186282 24:0.51638885 25:0.44745179 26:0.39519343 27:0.64379081 28:0.22637556 29:0.50222713 30:0.52686704 31:0.52109147 32:0.29457897 33:0.30227392 34:0.76293877 35:0.84927752 36:0.90201291 37:0.39728659 
-4 1:0.11418385 2:0.10768078 3:0.44800338 4:0.53554057 5:0.5419417 6:0.43495047 7:0.52261423 8:0.015859311 9:0.028914743 10:0.08212703 11:0.17067372 12:0.11861664 13:0.33552121 14:0.083069139 15:0.075967559 16:0.24400679 17:0.11418388 18:0.056337287 19:0.085450367 20:0.41779317 21:0.47133978 22:0.037360452 23:0.66186282 24:0.51638885 25:0.44745179 26:0.39519343 27:0.64379081 28:0.0052363879 29:0.0097716082 30:0.01132957 31:0.026663991 32:0.0064133403 33:0.015271404 34:0.035170858 35:0.045993819 36:0.048717322 37:0.019814429 
-4 1:0.76368413 2:0.75054102 3:0.44800338 4:0.53554057 5:0.5419417 6:0.43495047 7:0.52261423 8:0.24323924 9:0.40873374 10:0.53926286 11:0.52318357 12:0.52408037 13:0.63384765 14:0.67493688 15:0.79406134 16:0.81957234 17:0.76368415 18:0.34059047 19:0.34505835 20:0.41779317 21:0.47133978 22:0.60368764 23:0.66186282 24:0.51638885 25:0.44745179 26:0.39519343 27:0.64379081 28:0.18494417 29:0.40809449 30:0.43833065 31:0.43914374 32:0.24071869 33:0.24847026 34:0.6241015 35:0.71164636 36:0.76084155 37:0.32673758 
-4 1:0.71498576 2:0.69719312 3:0.44800338 4:0.53554057 5:0.5419417 6:0.43495047 7:0.52261423 8:0.22537863 9:0.36285667 10:0.4965671 11:0.50986648 12:0.49444113 13:0.61026243 14:0.60270962 15:0.72543227 16:0.79654248 17:0.71498578 18:0.30107726 19:0.30897099 20:0.41779317 21:0.47133978 22:0.46425831 23:0.66186282 24:0.51638885 25:0.44745179 26:0.39519343 27:0.64379081 28:0.11798203 29:0.28384935 30:0.34058648 31:0.37287341 32:0.16102284 33:0.16169746 34:0.43988875 35:0.55844263 36:0.64556083 37:0.22242315 
4 1:0.53364845 2:0.50032384 3:0.44800338 4:0.53554057 5:0.5419417 6:0.43495047 7:0.52261423 8:0.10525132 9:0.20885383 10:0.37006038 11:0.43089332 12:0.38010148 13:0.45281104 14:0.36365315 15:0.5292294 16:0.66977711 17:0.53364842 18:0.18480036 19:0.20277549 20:0.41779317 21:0.47133978 22:0.3142229 23:0.66186282 24:0.51638885 25:0.44745179 26:0.39519343 27:0.64379081 28:0.065903763 29:0.1786847 30:0.22714992 31:0.26522116 32:0.095431085 33:0.093983148 34:0.28514945 35:0.38284478 36:0.46106527 37:0.136426 
-4 1:0.71109746 2:0.69214891 3:0.44800338 4:0.53554057 5:0.5419417 6:0.43495047 7:0.52261423 8:0.21428232 9:0.35850431 10:0.49551199 11:0.50645547 12:0.49104064 13:0.59590601 14:0.59706887 15:0.72592922 16:0.79233948 17:0.71109749 18:0.28517172 19:0.29444449 20:0.41779317 21:0.47133978 22:0.53123845 23:0.66186282 24:0.51638885 25:0.44745179 26:0.39519343 27:0.64379081 28:0.145157 29:0.33885443 30:0.38734583 31:0.41190675 32:0.19457249 33:0.1968426 34:0.52194688 35:0.63242398 36:0.71401738 37:0.26631553 
4 1:0.73038411 2:0.71497277 3:0.44800338 4:0.53554057 5:0.5419417 6:0.43495047 7:0.52261423 8:0.23138755 9:0.38143404 10:0.50944435 11:0.51256633 12:0.50356795 13:0.6182571 14:0.63211807 15:0.74664737 16:0.80168496 17:0.73038415 18:0.30357923 19:0.31125604 20:0.41779317 21:0.47133978 22:0.44742603 23:0.66186282 24:0.51638885 25:0.44745179 26:0.39519343 27:0.64379081 28:0.11789827 29:0.27172538 30:0.32472223 31:0.35879605 32:0.15807593 33:0.16147769 34:0.42228767 35:0.53429344 36:0.62191897 37:0.21847619 
4 1:0.85787847 2:0.8688993 3:0.44800338 4:0.53554057 5:0.5419417 6:0.43495047 7:0.52261423 8:0.37287154 9:0.5278615 10:0.5912308 11:0.55208304 12:0.58315814 13:0.80378696 14:0.85995026 15:0.87518937 16:0.86640647 17:0.85787851 18:0.47612136 19:0.4688385 20:0.41779317 21:0.47133978 22:0.74919411 23:0.66186282 24:0.51638885 25:0.44745179 26:0.39519343 27:0.64379081 28:0.31619466 29:0.52034757 30:0.51853819 31:0.49678826 32:0.36910878 33:0.41878938 34:0.78996145 35:0.83648336 36:0.86017439 37:0.49495405 
4 1:0.68414652 2:0.66031749 3:0.44800338 4:0.53554057 5:0.5419417 6:0.43495047 7:0.52261423 8:0.18619588 9:0.33066701 10:0.4790568 11:0.49764393 12:0.47489469 13:0.55895929 14:0.55301916 15:0.69847384 16:0.776865 17:0.68414652 18:0.27841162 19:0.28827051 20:0.41779317 21:0.47133978 22:0.37671691 23:0.66186282 24:0.51638885 25:0.44745179 26:0.39519343 27:0.64379081 28:0.08935465 29:0.21824526 30:0.27226429 31:0.31466314 32:0.12339831 33:0.12445702 34:0.34320045 35:0.45247925 36:0.54568267 37:0.17306912 
1.6682222842358625 1:0.93158211 2:0.96750829 3:0.44800338 4:0.53554057 5:0.5419417 6:0.43495047 7:0.52261423 8:0.52248959 9:0.61766818 10:0.63224539 11:0.56974197 12:0.62899848 13:1 14:1 15:0.9398872 16:0.89547136 17:0.93158213 18:0.67156086 19:0.64733308 20:0.41779317 21:0.47133978 22:0.99999852 23:0.66186282 24:0.51638885 25:0.44745179 26:0.39519343 27:0.64379081 28:0.76422595 29:0.65446855 30:0.58859181 31:0.53556974 32:0.75468578 33:0.99999998 34:0.98820023 35:0.94565957 36:0.92711414 37:0.99999999 
4 1:0.31608766 2:0.28222795 3:0.44800338 4:0.53554057 5:0.5419417 6:0.43495047 7:0.52261423 8:0.029886608 9:0.078504341 10:0.20296982 11:0.32532902 12:0.24545292 13:0.35388346 14:0.15994404 15:0.26443817 16:0.49464714 17:0.31608763 18:0.16558882 19:0.18522962 20:0.41779317 21:0.47133978 22:0.12362995 23:0.66186282 24:0.51638885 25:0.44745179 26:0.39519343 27:0.64379081 28:0.021002781 29:0.053045085 30:0.075716965 31:0.11485929 32:0.030065401 33:0.035736543 34:0.099065183 35:0.14618813 36:0.2007113 37:0.05079638 
-4 1:0.67915369 2:0.64638398 3:0.44800338 4:0.53554057 5:0.5419417 6:0.43495047 7:0.52261423 8:0.14122434 9:0.29869915 10:0.50112514 11:0.49262194 12:0.47177733 13:0.49993319 14:0.50287857 15:0.73324723 16:0.76917105 17:0.6791537 18:0.3016101 19:0.30945764 20:0.41779317 21:0.47133978 22:0.46627035 23:0.66186282 24:0.51638885 25:0.44745179 26:0.39519343 27:0.64379081 28:0.10740973 29:0.29085483 30:0.34541356 31:0.37410678 32:0.15395355 33:0.14788225 34:0.45062783 35:0.56672774 36:0.64858074 37:0.21309577 
4 1:0.64057835 2:0.60379221 3:0.44800338 4:0.53554057 5:0.5419417 6:0.43495047 7:0.52261423 8:0.12243037 9:0.26900967 10:0.45492163 11:0.48645934 12:0.44730168 13:0.47531582 14:0.45734459 15:0.66163327 16:0.75926764 17:0.64057838 18:0.26778942 19:0.27856926 20:0.41779317 21:0.47133978 22:0.38432209 23:0.66186282 24:0.51638885 25:0.44745179 26:0.39519343 27:0.64379081 28:0.087919147 29:0.22325197 30:0.27885818 31:0.32221803 32:0.1234566 33:0.12255263 34:0.35085944 35:0.46311403 36:0.55906112 37:0.17312685 
-4 1:0.84747805 2:0.85564604 3:0.44800338 4:0.53554057 5:0.5419417 6:0.43495047 7:0.52261423 8:0.35526089 9:0.51632587 10:0.58470479 11:0.54905757 12:0.57655988 13:0.78072569 14:0.84216229 15:0.86507305 16:0.86160969 17:0.84747807 18:0.46464034 19:0.4583529 20:0.41779317 21:0.47133978 22:0.74469184 23:0.66186282 24:0.51638885 25:0.44745179 26:0.39519343 27:0.64379081 28:0.31208516 29:0.51639245 30:0.51585623 31:0.49559907 32:0.36501311 33:0.41342539 34:0.78415403 35:0.83235368 36:0.8581656 37:0.48957159 
4 1:0.69589709 2:0.67321069 3:0.44800338 4:0.53554057 5:0.5419417 6:0.43495047 7:0.52261423 8:0.19410839 9:0.34119194 10:0.48686358 11:0.50268038 12:0.48223464 13:0.56932621 14:0.56929608 15:0.71073619 16:0.78520844 17:0.69589707 18:0.28868849 19:0.29765635 20:0.41779317 21:0.47133978 22:0.39608766 23:0.66186282 24:0.51638885 25:0.44745179 26:0.39519343 27:0.64379081 28:0.095811384 29:0.23222309 30:0.28726605 31:0.32785727 32:0.1317282 33:0.13284003 34:0.36385032 35:0.47585633 36:0.56846683 37:0.18398096 
4 1:0.8418122 2:0.8480543 3:0.44800338 4:0.53554057 5:0.5419417 6:0.43495047 7:0.52261423 8:0.34601199 9:0.5078987 10:0.58159591 11:0.54800867 12:0.57306362 13:0.76857904 14:0.82895293 15:0.86015415 16:0.85987122 17:0.84181224 18:0.45517344 19:0.44970679 20:0.41779317 21:0.47133978 22:0.72717272 23:0.66186282 24:0.51638885 25:0.44745179 26:0.39519343 27:0.64379081 28:0.29062044 29:0.50288292 30:0.50834924 31:0.49122014 32:0.34513113 33:0.38559072 34:0.76413739 35:0.82061767 36:0.85058211 37:0.46352357 
4 1:0.52300741 2:0.45169404 3:0.88266251 4:0.71378051 5:0.54634347 6:0.42852144 7:0.57921406 8:0.12122498 9:0.19217342 10:0.37181801 11:0.4818171 12:0.40422061 13:0.15258568 14:0.23517892 15:0.52677793 16:0.75881079 17:0.5230074 18:0.2240139 19:0.26296709 20:0.20408178 21:0.18724242 22:0.39013314 23:0.79820834 24:0.59298478 25:0.51101863 26:0.44868257 27:0.77154789 28:0.059957347 29:0.23206726 30:0.32454618 31:0.38701766 32:0.10512354 33:0.073961557 34:0.33286838 35:0.49207855 36:0.62186999 37:0.13034208 
4 1:0.7721784 2:0.73979662 3:0.88266251 4:0.71378051 5:0.54634347 6:0.42852144 7:0.57921406 8:0.34967648 9:0.50549669 10:0.56964324 11:0.54636358 12:0.5680685 13:0.40180918 14:0.65404103 15:0.83643381 16:0.86505743 17:0.77217842 18:0.37998377 19:0.40541413 20:0.20408178 21:0.18724242 22:0.70656367 23:0.79820834 24:0.59298478 25:0.51101863 26:0.44868257 27:0.77154789 28:0.20073009 29:0.55814104 30:0.57080976 31:0.54418859 32:0.28563197 33:0.23706592 34:0.78073993 35:0.85082415 36:0.87726997 37:0.34320248 
4 1:0.82243416 2:0.81736922 3:0.88266251 4:0.71378051 5:0.54634347 6:0.42852144 7:0.57921406 8:0.54594039 9:0.6149889 10:0.58255777 11:0.5454938 12:0.60119164 13:0.61568128 14:0.80027165 15:0.8565942 16:0.86361102 17:0.82243419 18:0.42863253 19:0.44984497 20:0.20408178 21:0.18724242 22:0.7261862 23:0.79820834 24:0.59298478 25:0.51101863 26:0.44868257 27:0.77154789 28:0.281024 29:0.56348614 30:0.56217796 31:0.53519267 32:0.35049072 33:0.3300855 34:0.78803499 35:0.83820228 36:0.86260701 37:0.4196657 
4 1:0.59639899 2:0.54753913 3:0.88266251 4:0.71378051 5:0.54634347 6:0.42852144 7:0.57921406 8:0.21879342 9:0.33078369 10:0.43694893 11:0.47747892 12:0.4526114 13:0.25896989 14:0.4203346 15:0.62854367 16:0.75141252 17:0.59639899 18:0.23112486 19:0.26946153 20:0.20408178 21:0.18724242 22:0.33508261 23:0.79820834 24:0.59298478 25:0.51101863 26:0.44868257 27:0.77154789 28:0.069295761 29:0.20744546 30:0.26717865 31:0.32026313 32:0.10531408 33:0.084788158 34:0.29896967 35:0.40833401 36:0.51308752 37:0.13057019 
4 1:0.84404403 2:0.85098903 3:0.88266251 4:0.71378051 5:0.54634347 6:0.42852144 7:0.57921406 8:0.64753266 9:0.65196273 10:0.58867791 11:0.546357 12:0.61542222 13:0.72637714 14:0.84969181 15:0.86615614 16:0.86502051 17:0.84404404 18:0.45522184 19:0.47412894 20:0.20408178 21:0.18724242 22:0.74902155 23:0.79820834 24:0.59298478 25:0.51101863 26:0.44868257 27:0.77154789 28:0.32045246 29:0.57722789 30:0.57125444 31:0.54105621 32:0.38490109 33:0.37576052 34:0.8068954 35:0.85141593 36:0.872133 37:0.46023207 
-3.2377061579084945 1:0.22708566 2:0.16349172 3:0.88266251 4:0.71378051 5:0.54634347 6:0.42852144 7:0.57921406 8:0.022416249 9:0.052812601 10:0.13963448 11:0.30468761 12:0.20933831 13:0.04496143 14:0.049040528 15:0.16395474 16:0.46760498 17:0.22708568 18:0.16495605 19:0.20902966 20:0.20408178 21:0.18724242 22:0.13477966 23:0.79820834 24:0.59298478 25:0.51101863 26:0.44868257 27:0.77154789 28:0.029878378 29:0.068113017 30:0.094183431 31:0.14077721 32:0.040801436 33:0.039111286 34:0.10770491 35:0.1566057 36:0.22180465 37:0.054497185 
4 1:0.78952043 2:0.77974644 3:0.88266251 4:0.71378051 5:0.54634347 6:0.42852144 7:0.57921406 8:0.51104537 9:0.57664559 10:0.5602846 11:0.53377874 12:0.57949574 13:0.57773062 14:0.74907594 15:0.8217979 16:0.84436809 17:0.78952046 18:0.38967533 19:0.41426542 20:0.20408178 21:0.18724242 22:0.66724742 23:0.79820834 24:0.59298478 25:0.51101863 26:0.44868257 27:0.77154789 28:0.22851735 29:0.50855163 30:0.52537702 31:0.51216252 32:0.29722 33:0.2692497 34:0.71263229 35:0.78466326 36:0.82524715 37:0.35685765 
4 1:0.640499 2:0.59256366 3:0.88266251 4:0.71378051 5:0.54634347 6:0.42852144 7:0.57921406 8:0.23865009 9:0.36146215 10:0.47135656 11:0.49976126 12:0.48150254 13:0.28066348 14:0.46140705 15:0.68257856 16:0.78832373 17:0.64049904 18:0.25620518 19:0.29236734 20:0.20408178 21:0.18724242 22:0.42627545 23:0.79820834 24:0.59298478 25:0.51101863 26:0.44868257 27:0.77154789 28:0.089211743 29:0.27555588 30:0.34715863 31:0.39492393 32:0.1370392 33:0.10785201 34:0.39254673 35:0.52494568 36:0.63459725 37:0.16796727 
4 1:0.85156892 2:0.86014115 3:0.88266251 4:0.71378051 5:0.54634347 6:0.42852144 7:0.57921406 8:0.66365834 9:0.65900919 10:0.59353205 11:0.54883027 12:0.62033962 13:0.74404006 14:0.85914769 15:0.87378945 16:0.86911995 17:0.85156893 18:0.47003329 19:0.48765621 20:0.20408178 21:0.18724242 22:0.77651843 23:0.79820834 24:0.59298478 25:0.51101863 26:0.44868257 27:0.77154789 28:0.35781666 29:0.60010169 30:0.58422176 31:0.54827439 32:0.41939189 33:0.41904483 34:0.83834906 35:0.87034539 36:0.88389802 37:0.50090841 
4 1:0.62734568 2:0.56425574 3:0.88266251 4:0.71378051 5:0.54634347 6:0.42852144 7:0.57921406 8:0.14850889 9:0.30182711 10:0.47429471 11:0.51033784 12:0.47272224 13:0.18235784 14:0.381892 15:0.68740883 16:0.8058786 17:0.62734565 18:0.17756499 19:0.22054538 20:0.20408178 21:0.18724242 22:0.41689336 23:0.79820834 24:0.59298478 25:0.51101863 26:0.44868257 27:0.77154789 28:0.078068755 29:0.26129638 30:0.34095364 31:0.39814723 32:0.12544299 33:0.094927095 34:0.37304476 35:0.51608579 36:0.64008218 37:0.15428128 
-4 1:0.81123922 2:0.7731749 3:0.88266251 4:0.71378051 5:0.54634347 6:0.42852144 7:0.57921406 8:0.31879263 9:0.51975081 10:0.60448378 11:0.57303886 12:0.59377782 13:0.36811744 14:0.67306935 15:0.89094401 16:0.90891798 17:0.81123925 18:0.23981035 19:0.27739397 20:0.20408178 21:0.18724242 22:0.77283433 23:0.79820834 24:0.59298478 25:0.51101863 26:0.44868257 27:0.77154789 28:0.21331684 29:0.6193273 30:0.62392042 31:0.59454361 32:0.30892174 33:0.25164405 34:0.86477643 35:0.92818471 36:0.95908261 37:0.37065957 
-4 1:0.71648282 2:0.67750473 3:0.88266251 4:0.71378051 5:0.54634347 6:0.42852144 7:0.57921406 8:0.29206893 9:0.44813264 10:0.53252882 11:0.52352976 12:0.53140482 13:0.33901976 14:0.5773456 15:0.77842951 16:0.82754315 17:0.71648282 18:0.30358701 19:0.33564109 20:0.20408178 21:0.18724242 22:0.58547117 23:0.79820834 24:0.59298478 25:0.51101863 26:0.44868257 27:0.77154789 28:0.14659752 29:0.43965719 30:0.47730919 31:0.47803638 32:0.21738755 33:0.17434341 34:0.61802544 35:0.71466836 36:0.76981549 37:0.26272708 
4 1:0.73422261 2:0.71146524 3:0.88266251 4:0.71378051 5:0.54634347 6:0.42852144 7:0.57921406 8:0.41483785 9:0.50149531 10:0.52664814 11:0.51914009 12:0.5429783 13:0.47293503 14:0.64883237 15:0.76933921 16:0.82043701 17:0.73422264 18:0.32495238 19:0.35515405 20:0.20408178 21:0.18724242 22:0.55823851 23:0.79820834 24:0.59298478 25:0.51101863 26:0.44868257 27:0.77154789 28:0.15076423 29:0.39916712 30:0.45138674 31:0.46724742 32:0.2126215 33:0.1791516 34:0.56243804 35:0.67699288 36:0.75241117 37:0.25709344 
-4 1:0.413659 2:0.34330668 3:0.88266251 4:0.71378051 5:0.54634347 6:0.42852144 7:0.57921406 8:0.065721135 9:0.13822385 10:0.28961737 11:0.4165647 12:0.33206279 13:0.092203628 14:0.16322703 15:0.39857216 16:0.6517446 17:0.41365904 18:0.17487302 19:0.21808681 20:0.20408178 21:0.18724242 22:0.26307572 23:0.79820834 24:0.59298478 25:0.51101863 26:0.44868257 27:0.77154789 28:0.047411754 29:0.14567632 30:0.2069072 31:0.26943702 32:0.07416604 33:0.059427389 34:0.21427302 35:0.32086986 36:0.43097444 37:0.09384555 
-4 1:0.70572685 2:0.66708633 3:0.88266251 4:0.71378051 5:0.54634347 6:0.42852144 7:0.57921406 8:0.30970132 9:0.43124422 10:0.5214979 11:0.52061591 12:0.52433209 13:0.35816159 14:0.55476667 15:0.76121147 16:0.82274729 17:0.70572684 18:0.28110396 19:0.31510735 20:0.20408178 21:0.18724242 22:0.56239112 23:0.79820834 24:0.59298478 25:0.51101863 26:0.44868257 27:0.77154789 28:0.13062371 29:0.41165403 30:0.46219483 31:0.47183306 32:0.19909837 33:0.15583479 34:0.57958729 35:0.69267565 36:0.75975616 37:0.24116188 
4 1:0.7522831 2:0.73389318 3:0.88266251 4:0.71378051 5:0.54634347 6:0.42852144 7:0.57921406 8:0.4473653 9:0.52607792 10:0.53793464 11:0.523929 12:0.55507395 13:0.50810793 14:0.68140136 15:0.78674338 16:0.82809137 17:0.75228313 18:0.3387177 19:0.3677259 20:0.20408178 21:0.18724242 22:0.57550323 23:0.79820834 24:0.59298478 25:0.51101863 26:0.44868257 27:0.77154789 28:0.16652041 29:0.41550773 30:0.46205866 31:0.4739199 32:0.22856439 33:0.19742844 34:0.58477053 35:0.69232446 36:0.76298533 37:0.27589603 
-4 1:0.86563962 2:0.87906323 3:0.88266251 4:0.71378051 5:0.54634347 6:0.42852144 7:0.57921406 8:0.70342358 9:0.67873571 10:0.60109115 11:0.55131018 12:0.62959524 13:0.78737497 14:0.88552328 15:0.8856221 16:0.87319537 17:0.86563967 18:0.49237277 19:0.50805882 20:0.20408178 21:0.18724242 22:0.79880024 23:0.79820834 24:0.59298478 25:0.51101863 26:0.44868257 27:0.77154789 28:0.39103132 29:0.61870524 30:0.5936401 31:0.55291783 32:0.44965028 33:0.45752195 34:0.86390626 35:0.88406719 36:0.8914423 37:0.53658679 
4 1:0.71474231 2:0.68747912 3:0.88266251 4:0.71378051 5:0.54634347 6:0.42852144 7:0.57921406 8:0.37949508 9:0.47727787 10:0.5139672 11:0.51442102 12:0.5303693 13:0.43416059 14:0.61617596 15:0.74923145 16:0.81246124 17:0.71474232 18:0.30645998 19:0.33826497 20:0.20408178 21:0.18724242 22:0.51504642 23:0.79820834 24:0.59298478 25:0.51101863 26:0.44868257 27:0.77154789 28:0.13098151 29:0.35894029 30:0.41689889 31:0.44362406 32:0.18819939 33:0.15625268 34:0.50709317 35:0.62657108 36:0.71379763 37:0.22830157 
-2.1560958204790266 1:0.85900563 2:0.87042327 3:0.88266251 4:0.71378051 5:0.54634347 6:0.42852144 7:0.57921406 8:0.68536584 9:0.6715355 10:0.59653016 11:0.55000944 12:0.62523369 13:0.76767965 14:0.87589411 15:0.87847894 16:0.87106163 17:0.85900564 18:0.48601297 19:0.50225043 20:0.20408178 21:0.18724242 22:0.79312315 23:0.79820834 24:0.59298478 25:0.51101863 26:0.44868257 27:0.77154789 28:0.38240792 29:0.61414123 30:0.59116437 31:0.55176272 32:0.44183913 33:0.44754717 34:0.85763882 35:0.88046016 36:0.88956528 37:0.52738704 
